{"learner":{"attributes":{"best_iteration":"0","best_ntree_limit":"17","scikit_learn":"{\"objective\": \"reg:squarederror\", \"max_leaves\": null, \"max_bin\": null, \"grow_policy\": null, \"learning_rate\": 1.0, \"verbosity\": 0, \"booster\": null, \"tree_method\": \"hist\", \"gamma\": null, \"min_child_weight\": null, \"max_delta_step\": null, \"subsample\": 1.0, \"sampling_method\": null, \"colsample_bytree\": null, \"colsample_bylevel\": null, \"colsample_bynode\": 0.8, \"reg_alpha\": null, \"scale_pos_weight\": null, \"base_score\": 0, \"missing\": NaN, \"num_parallel_tree\": null, \"random_state\": null, \"n_jobs\": null, \"monotone_constraints\": null, \"interaction_constraints\": null, \"importance_type\": null, \"gpu_id\": null, \"validate_parameters\": null, \"predictor\": null, \"enable_categorical\": false, \"feature_types\": null, \"max_cat_to_onehot\": null, \"max_cat_threshold\": null, \"eval_metric\": \"mae\", \"early_stopping_rounds\": null, \"callbacks\": null, \"kwargs\": {\"eta\": 0.868299856844519, \"nthread\": 3}, \"evals_result_\": {\"validation_0\": {\"mae\": [0.01859880697315434]}}, \"_estimator_type\": \"regressor\"}"},"feature_names":[],"feature_types":[],"gradient_booster":{"model":{"gbtree_model_param":{"num_parallel_tree":"17","num_trees":"17","size_leaf_vector":"0"},"tree_info":[0,0,0,0,0,0,0,0,0,0,0,0,0,0,0,0,0],"trees":[{"base_weights":[-2.098786E-3,1.5279525E-2,-3.0996518E-2,1.11063E-2,2.9177608E-2,-2.7821377E-2,-5.5136617E-2,-3.9005643E-4,2.9744951E-2,2.4785632E-2,5.358173E-2,-2.455328E-2,-3.4491163E-2,-3.8718846E-2,-6.963897E-2,1.697903E-5,-8.686046E-5,1.7057265E-3,3.364256E-3,1.5754224E-5,2.3363936E-3,-2.1534843E-5,3.694717E-3,-1.2701801E-3,-1.6014989E-3,-2.171545E-3,-1.5190371E-3,-1.6086384E-3,-2.9827189E-3,-1.7243621E-3,-4.5439024E-3],"categories":[],"categories_nodes":[],"categories_segments":[],"categories_sizes":[],"default_left":[0,0,0,0,0,0,0,0,0,0,0,0,0,0,0,0,0,0,0,0,0,0,0,0,0,0,0,0,0,0,0],"id":0,"left_children":[1,3,5,7,9,11,13,15,17,19,21,23,25,27,29,-1,-1,-1,-1,-1,-1,-1,-1,-1,-1,-1,-1,-1,-1,-1,-1],"loss_changes":[1.1394205E0,8.1537664E-2,6.223631E-2,2.342275E-1,3.2285333E-2,1.4807045E-2,1.770264E-2,5.008476E-4,5.239874E-3,1.0249399E-1,2.3943037E-2,2.8980374E-3,3.2221377E-3,4.0427E-3,1.0502711E-2,0E0,0E0,0E0,0E0,0E0,0E0,0E0,0E0,0E0,0E0,0E0,0E0,0E0,0E0,0E0,0E0],"parents":[2147483647,0,0,1,1,2,2,3,3,4,4,5,5,6,6,7,7,8,8,9,9,10,10,11,11,12,12,13,13,14,14],"right_children":[2,4,6,8,10,12,14,16,18,20,22,24,26,28,30,-1,-1,-1,-1,-1,-1,-1,-1,-1,-1,-1,-1,-1,-1,-1,-1],"split_conditions":[2E0,1.876E1,2.47E1,1E0,8.2014985E-2,1.747E1,9.800822E-3,2.9598892E-1,7.05301E-2,1E0,1E0,1.385E1,1.00062415E-2,-1.2856816E-1,-1.2038984E0,1.697903E-5,-8.686046E-5,1.7057265E-3,3.364256E-3,1.5754224E-5,2.3363936E-3,-2.1534843E-5,3.694717E-3,-1.2701801E-3,-1.6014989E-3,-2.171545E-3,-1.5190371E-3,-1.6086384E-3,-2.9827189E-3,-1.7243621E-3,-4.5439024E-3],"split_indices":[6,157,157,6,12,157,13,68,162,6,6,157,212,77,200,0,0,0,0,0,0,0,0,0,0,0,0,0,0,0,0],"split_type":[0,0,0,0,0,0,0,0,0,0,0,0,0,0,0,0,0,0,0,0,0,0,0,0,0,0,0,0,0,0,0],"sum_hessian":[2.265E3,1.415E3,8.5E2,1.091E3,3.24E2,7.55E2,9.5E1,6.76E2,4.15E2,2.78E2,4.6E1,5.13E2,2.42E2,4.8E1,4.7E1,4.17E2,2.59E2,4.08E2,7E0,1.06E2,1.72E2,7E0,3.9E1,2.52E2,2.61E2,1.84E2,5.8E1,2.8E1,2E1,9E0,3.8E1],"tree_param":{"num_deleted":"0","num_feature":"460","num_nodes":"31","size_leaf_vector":"0"}},{"base_weights":[-2.098786E-3,1.5279525E-2,-3.0996518E-2,-3.0193216E-4,3.485655E-2,-2.7821377E-2,-5.5136617E-2,3.7113766E-4,-1.2897361E-3,2.807377E-2,4.313986E-2,-2.455328E-2,-3.4491163E-2,-3.8718846E-2,-6.963897E-2,5.095844E-5,-9.482863E-5,4.5479774E-5,-1.1132031E-4,1.7803827E-3,1.3593972E-3,2.3188242E-3,3.694717E-3,-1.110028E-3,-1.5052268E-3,-1.3458559E-3,-2.137977E-3,-1.6086384E-3,-2.9827189E-3,-1.7243621E-3,-4.5439024E-3],"categories":[],"categories_nodes":[],"categories_segments":[],"categories_sizes":[],"default_left":[0,0,0,0,0,0,0,0,0,0,0,0,0,0,0,0,0,0,0,0,0,0,0,0,0,0,0,0,0,0,0],"id":1,"left_children":[1,3,5,7,9,11,13,15,17,19,21,23,25,27,29,-1,-1,-1,-1,-1,-1,-1,-1,-1,-1,-1,-1,-1,-1,-1,-1],"loss_changes":[1.1394205E0,4.3226075E-1,6.223631E-2,5.268624E-4,3.2861292E-2,1.4807045E-2,1.770264E-2,4.6629942E-4,4.0203333E-4,2.421677E-3,1.5462637E-2,2.0650327E-3,3.5909116E-3,4.0427E-3,1.0502711E-2,0E0,0E0,0E0,0E0,0E0,0E0,0E0,0E0,0E0,0E0,0E0,0E0,0E0,0E0,0E0,0E0],"parents":[2147483647,0,0,1,1,2,2,3,3,4,4,5,5,6,6,7,7,8,8,9,9,10,10,11,11,12,12,13,13,14,14],"right_children":[2,4,6,8,10,12,14,16,18,20,22,24,26,28,30,-1,-1,-1,-1,-1,-1,-1,-1,-1,-1,-1,-1,-1,-1,-1,-1],"split_conditions":[2E0,1E0,2.47E1,2.477325E-1,1.723E1,1.747E1,9.800822E-3,3.9860453E-3,4.3254937E-3,2.5541757E-4,8.2014985E-2,1.778656E-2,5.4018423E-2,-1.2856816E-1,-1.2038984E0,5.095844E-5,-9.482863E-5,4.5479774E-5,-1.1132031E-4,1.7803827E-3,1.3593972E-3,2.3188242E-3,3.694717E-3,-1.110028E-3,-1.5052268E-3,-1.3458559E-3,-2.137977E-3,-1.6086384E-3,-2.9827189E-3,-1.7243621E-3,-4.5439024E-3],"split_indices":[6,6,157,68,157,157,14,359,363,216,11,162,262,77,204,0,0,0,0,0,0,0,0,0,0,0,0,0,0,0,0],"split_type":[0,0,0,0,0,0,0,0,0,0,0,0,0,0,0,0,0,0,0,0,0,0,0,0,0,0,0,0,0,0,0],"sum_hessian":[2.265E3,1.415E3,8.5E2,7.89E2,6.26E2,7.55E2,9.5E1,4.7E2,3.19E2,3.49E2,2.77E2,5.13E2,2.42E2,4.8E1,4.7E1,3.77E2,9.3E1,7.2E1,2.47E2,2.35E2,1.14E2,2.38E2,3.9E1,8.5E1,4.28E2,3.7E1,2.05E2,2.8E1,2E1,9E0,3.8E1],"tree_param":{"num_deleted":"0","num_feature":"460","num_nodes":"31","size_leaf_vector":"0"}},{"base_weights":[-2.098786E-3,1.5279525E-2,-3.0996518E-2,-3.0193216E-4,3.485655E-2,-2.7821377E-2,-5.5136617E-2,3.7113766E-4,-1.2897361E-3,2.807377E-2,4.313986E-2,-2.455328E-2,-3.4491163E-2,-3.8718846E-2,-6.963897E-2,5.095844E-5,-9.482863E-5,4.5479774E-5,-1.1132031E-4,1.7803827E-3,1.3593972E-3,2.3188242E-3,3.694717E-3,-1.110028E-3,-1.5052268E-3,-1.3458559E-3,-2.137977E-3,-1.6086384E-3,-2.9827189E-3,-1.7243621E-3,-4.5439024E-3],"categories":[],"categories_nodes":[],"categories_segments":[],"categories_sizes":[],"default_left":[0,0,0,0,0,0,0,0,0,0,0,0,0,0,0,0,0,0,0,0,0,0,0,0,0,0,0,0,0,0,0],"id":2,"left_children":[1,3,5,7,9,11,13,15,17,19,21,23,25,27,29,-1,-1,-1,-1,-1,-1,-1,-1,-1,-1,-1,-1,-1,-1,-1,-1],"loss_changes":[1.1394205E0,4.3226075E-1,6.223631E-2,5.268624E-4,3.2861292E-2,1.4807045E-2,1.770264E-2,4.6629942E-4,4.0203333E-4,2.421677E-3,1.5462637E-2,2.0650327E-3,3.5909116E-3,4.0427E-3,1.0502711E-2,0E0,0E0,0E0,0E0,0E0,0E0,0E0,0E0,0E0,0E0,0E0,0E0,0E0,0E0,0E0,0E0],"parents":[2147483647,0,0,1,1,2,2,3,3,4,4,5,5,6,6,7,7,8,8,9,9,10,10,11,11,12,12,13,13,14,14],"right_children":[2,4,6,8,10,12,14,16,18,20,22,24,26,28,30,-1,-1,-1,-1,-1,-1,-1,-1,-1,-1,-1,-1,-1,-1,-1,-1],"split_conditions":[2E0,1E0,2.47E1,2.477325E-1,1.723E1,1.747E1,9.800822E-3,3.9860453E-3,4.3254937E-3,2.5541757E-4,8.2014985E-2,1.778656E-2,5.4018423E-2,-1.2856816E-1,-1.2038984E0,5.095844E-5,-9.482863E-5,4.5479774E-5,-1.1132031E-4,1.7803827E-3,1.3593972E-3,2.3188242E-3,3.694717E-3,-1.110028E-3,-1.5052268E-3,-1.3458559E-3,-2.137977E-3,-1.6086384E-3,-2.9827189E-3,-1.7243621E-3,-4.5439024E-3],"split_indices":[6,6,157,68,157,157,14,359,363,216,12,162,262,77,200,0,0,0,0,0,0,0,0,0,0,0,0,0,0,0,0],"split_type":[0,0,0,0,0,0,0,0,0,0,0,0,0,0,0,0,0,0,0,0,0,0,0,0,0,0,0,0,0,0,0],"sum_hessian":[2.265E3,1.415E3,8.5E2,7.89E2,6.26E2,7.55E2,9.5E1,4.7E2,3.19E2,3.49E2,2.77E2,5.13E2,2.42E2,4.8E1,4.7E1,3.77E2,9.3E1,7.2E1,2.47E2,2.35E2,1.14E2,2.38E2,3.9E1,8.5E1,4.28E2,3.7E1,2.05E2,2.8E1,2E1,9E0,3.8E1],"tree_param":{"num_deleted":"0","num_feature":"460","num_nodes":"31","size_leaf_vector":"0"}},{"base_weights":[-2.098786E-3,1.5279525E-2,-3.0996518E-2,-3.0193216E-4,3.485655E-2,-2.7821377E-2,-5.5136617E-2,3.7113766E-4,-1.2897361E-3,2.807377E-2,4.313986E-2,-2.455328E-2,-3.4491163E-2,-3.8718846E-2,-6.963897E-2,5.095844E-5,-9.482863E-5,4.5479774E-5,-1.1132031E-4,1.7803827E-3,1.3593972E-3,2.3188242E-3,3.694717E-3,-1.2701801E-3,-1.6014989E-3,-1.3458559E-3,-2.137977E-3,-1.6086384E-3,-2.9827189E-3,-1.7243621E-3,-4.5439024E-3],"categories":[],"categories_nodes":[],"categories_segments":[],"categories_sizes":[],"default_left":[0,0,0,0,0,0,0,0,0,0,0,0,0,0,0,0,0,0,0,0,0,0,0,0,0,0,0,0,0,0,0],"id":3,"left_children":[1,3,5,7,9,11,13,15,17,19,21,23,25,27,29,-1,-1,-1,-1,-1,-1,-1,-1,-1,-1,-1,-1,-1,-1,-1,-1],"loss_changes":[1.1394205E0,4.3226075E-1,6.223631E-2,5.268624E-4,3.2861292E-2,1.4807045E-2,1.770264E-2,4.6629942E-4,4.0203333E-4,2.421677E-3,1.5462637E-2,2.8980374E-3,3.5909116E-3,4.0427E-3,1.0502711E-2,0E0,0E0,0E0,0E0,0E0,0E0,0E0,0E0,0E0,0E0,0E0,0E0,0E0,0E0,0E0,0E0],"parents":[2147483647,0,0,1,1,2,2,3,3,4,4,5,5,6,6,7,7,8,8,9,9,10,10,11,11,12,12,13,13,14,14],"right_children":[2,4,6,8,10,12,14,16,18,20,22,24,26,28,30,-1,-1,-1,-1,-1,-1,-1,-1,-1,-1,-1,-1,-1,-1,-1,-1],"split_conditions":[2E0,1E0,2.47E1,2.477325E-1,1.723E1,1.747E1,9.800822E-3,3.9860453E-3,4.3254937E-3,2.5541757E-4,8.2014985E-2,1.385E1,5.4018423E-2,-1.2856816E-1,-1.2038984E0,5.095844E-5,-9.482863E-5,4.5479774E-5,-1.1132031E-4,1.7803827E-3,1.3593972E-3,2.3188242E-3,3.694717E-3,-1.2701801E-3,-1.6014989E-3,-1.3458559E-3,-2.137977E-3,-1.6086384E-3,-2.9827189E-3,-1.7243621E-3,-4.5439024E-3],"split_indices":[6,6,157,68,157,157,13,359,363,216,11,157,262,77,200,0,0,0,0,0,0,0,0,0,0,0,0,0,0,0,0],"split_type":[0,0,0,0,0,0,0,0,0,0,0,0,0,0,0,0,0,0,0,0,0,0,0,0,0,0,0,0,0,0,0],"sum_hessian":[2.265E3,1.415E3,8.5E2,7.89E2,6.26E2,7.55E2,9.5E1,4.7E2,3.19E2,3.49E2,2.77E2,5.13E2,2.42E2,4.8E1,4.7E1,3.77E2,9.3E1,7.2E1,2.47E2,2.35E2,1.14E2,2.38E2,3.9E1,2.52E2,2.61E2,3.7E1,2.05E2,2.8E1,2E1,9E0,3.8E1],"tree_param":{"num_deleted":"0","num_feature":"460","num_nodes":"31","size_leaf_vector":"0"}},{"base_weights":[-2.098786E-3,1.5279525E-2,-3.0996518E-2,-3.0193216E-4,3.485655E-2,-2.7821377E-2,-5.5136617E-2,3.7113766E-4,-1.2897361E-3,2.807377E-2,4.313986E-2,-2.455328E-2,-3.4491163E-2,-3.8718846E-2,-6.963897E-2,5.095844E-5,-9.482863E-5,-1.3047205E-4,-6.2375017E-7,1.7803827E-3,1.3593972E-3,2.3188242E-3,3.694717E-3,-1.110028E-3,-1.5052268E-3,-1.3458559E-3,-2.137977E-3,-1.6086384E-3,-2.9827189E-3,-1.7243621E-3,-4.5439024E-3],"categories":[],"categories_nodes":[],"categories_segments":[],"categories_sizes":[],"default_left":[0,0,0,0,0,0,0,0,0,0,0,0,0,0,0,0,0,0,0,0,0,0,0,0,0,0,0,0,0,0,0],"id":4,"left_children":[1,3,5,7,9,11,13,15,17,19,21,23,25,27,29,-1,-1,-1,-1,-1,-1,-1,-1,-1,-1,-1,-1,-1,-1,-1,-1],"loss_changes":[1.1394205E0,4.3226075E-1,6.223631E-2,5.268624E-4,3.2861292E-2,1.4807045E-2,1.770264E-2,4.6629942E-4,3.8110965E-4,2.421677E-3,1.5462637E-2,2.0650327E-3,3.5909116E-3,4.0427E-3,1.0502711E-2,0E0,0E0,0E0,0E0,0E0,0E0,0E0,0E0,0E0,0E0,0E0,0E0,0E0,0E0,0E0,0E0],"parents":[2147483647,0,0,1,1,2,2,3,3,4,4,5,5,6,6,7,7,8,8,9,9,10,10,11,11,12,12,13,13,14,14],"right_children":[2,4,6,8,10,12,14,16,18,20,22,24,26,28,30,-1,-1,-1,-1,-1,-1,-1,-1,-1,-1,-1,-1,-1,-1,-1,-1],"split_conditions":[2E0,1E0,2.47E1,2.477325E-1,1.723E1,1.747E1,9.800822E-3,3.9860453E-3,-1.9834979E-2,2.5541757E-4,8.2014985E-2,1.778656E-2,5.4018423E-2,-1.2856816E-1,-1.2038984E0,5.095844E-5,-9.482863E-5,-1.3047205E-4,-6.2375017E-7,1.7803827E-3,1.3593972E-3,2.3188242E-3,3.694717E-3,-1.110028E-3,-1.5052268E-3,-1.3458559E-3,-2.137977E-3,-1.6086384E-3,-2.9827189E-3,-1.7243621E-3,-4.5439024E-3],"split_indices":[6,6,157,68,157,157,13,359,134,216,12,162,262,77,200,0,0,0,0,0,0,0,0,0,0,0,0,0,0,0,0],"split_type":[0,0,0,0,0,0,0,0,0,0,0,0,0,0,0,0,0,0,0,0,0,0,0,0,0,0,0,0,0,0,0],"sum_hessian":[2.265E3,1.415E3,8.5E2,7.89E2,6.26E2,7.55E2,9.5E1,4.7E2,3.19E2,3.49E2,2.77E2,5.13E2,2.42E2,4.8E1,4.7E1,3.77E2,9.3E1,1.84E2,1.35E2,2.35E2,1.14E2,2.38E2,3.9E1,8.5E1,4.28E2,3.7E1,2.05E2,2.8E1,2E1,9E0,3.8E1],"tree_param":{"num_deleted":"0","num_feature":"460","num_nodes":"31","size_leaf_vector":"0"}},{"base_weights":[-2.098786E-3,1.5279525E-2,-3.0996518E-2,-3.0193216E-4,3.485655E-2,-2.7698075E-2,-5.10445E-2,3.7113766E-4,-1.2897361E-3,2.807377E-2,4.313986E-2,-2.455328E-2,-3.4712303E-2,-6.134685E-2,-3.65622E-2,5.095844E-5,-9.482863E-5,4.5479774E-5,-1.1132031E-4,1.7803827E-3,1.3593972E-3,2.3188242E-3,3.694717E-3,-1.2701801E-3,-1.6014989E-3,-2.222529E-3,-1.512605E-3,-3.022685E-3,-5.0619068E-3,-1.6310086E-3,-2.758385E-3],"categories":[],"categories_nodes":[],"categories_segments":[],"categories_sizes":[],"default_left":[0,0,0,0,0,0,0,0,0,0,0,0,0,0,0,0,0,0,0,0,0,0,0,0,0,0,0,0,0,0,0],"id":5,"left_children":[1,3,5,7,9,11,13,15,17,19,21,23,25,27,29,-1,-1,-1,-1,-1,-1,-1,-1,-1,-1,-1,-1,-1,-1,-1,-1],"loss_changes":[1.1394205E0,4.3226075E-1,5.3512633E-2,5.268624E-4,3.2861292E-2,1.4530361E-2,1.3119817E-2,4.6629942E-4,4.0203333E-4,2.421677E-3,1.5462637E-2,2.8980374E-3,4.2183995E-3,7.3987097E-3,2.3281425E-3,0E0,0E0,0E0,0E0,0E0,0E0,0E0,0E0,0E0,0E0,0E0,0E0,0E0,0E0,0E0,0E0],"parents":[2147483647,0,0,1,1,2,2,3,3,4,4,5,5,6,6,7,7,8,8,9,9,10,10,11,11,12,12,13,13,14,14],"right_children":[2,4,6,8,10,12,14,16,18,20,22,24,26,28,30,-1,-1,-1,-1,-1,-1,-1,-1,-1,-1,-1,-1,-1,-1,-1,-1],"split_conditions":[2E0,1E0,2.413E1,2.477325E-1,1.723E1,1.747E1,1.4285816E-2,3.9860453E-3,4.3254937E-3,2.5541757E-4,8.2014985E-2,1.385E1,9.664215E-3,8.368674E-2,-1.0233848E-1,5.095844E-5,-9.482863E-5,4.5479774E-5,-1.1132031E-4,1.7803827E-3,1.3593972E-3,2.3188242E-3,3.694717E-3,-1.2701801E-3,-1.6014989E-3,-2.222529E-3,-1.512605E-3,-3.022685E-3,-5.0619068E-3,-1.6310086E-3,-2.758385E-3],"split_indices":[6,6,308,68,157,157,0,359,363,217,11,157,213,11,82,0,0,0,0,0,0,0,0,0,0,0,0,0,0,0,0],"split_type":[0,0,0,0,0,0,0,0,0,0,0,0,0,0,0,0,0,0,0,0,0,0,0,0,0,0,0,0,0,0,0],"sum_hessian":[2.265E3,1.415E3,8.5E2,7.89E2,6.26E2,7.34E2,1.16E2,4.7E2,3.19E2,3.49E2,2.77E2,5.13E2,2.21E2,6.4E1,5.2E1,3.77E2,9.3E1,7.2E1,2.47E2,2.35E2,1.14E2,2.38E2,3.9E1,2.52E2,2.61E2,1.6E2,6.1E1,5E1,1.4E1,3.2E1,2E1],"tree_param":{"num_deleted":"0","num_feature":"460","num_nodes":"31","size_leaf_vector":"0"}},{"base_weights":[-2.098786E-3,1.5279525E-2,-3.0996518E-2,1.11063E-2,2.9177608E-2,-2.7821377E-2,-5.5136617E-2,8.373679E-3,1.5892688E-2,2.228689E-4,4.453648E-2,-2.455328E-2,-3.4491163E-2,-3.8718846E-2,-6.963897E-2,-2.9081726E-5,1.5519308E-3,-8.894141E-6,1.9740965E-3,9.3895505E-5,-1.03565566E-4,2.3363936E-3,3.694717E-3,-1.2701801E-3,-1.6014989E-3,-1.3458559E-3,-2.137977E-3,-1.6086384E-3,-2.9827189E-3,-1.7243621E-3,-4.5439024E-3],"categories":[],"categories_nodes":[],"categories_segments":[],"categories_sizes":[],"default_left":[0,0,0,0,0,0,0,0,0,0,0,0,0,0,0,0,0,0,0,0,0,0,0,0,0,0,0,0,0,0,0],"id":6,"left_children":[1,3,5,7,9,11,13,15,17,19,21,23,25,27,29,-1,-1,-1,-1,-1,-1,-1,-1,-1,-1,-1,-1,-1,-1,-1,-1],"loss_changes":[1.1394205E0,8.1537664E-2,6.223631E-2,1.4029607E-2,1.4495629E-1,1.4807045E-2,1.770264E-2,1.1182051E-1,1.1197156E-1,3.1888369E-4,1.3762832E-2,2.8980374E-3,3.5909116E-3,4.0427E-3,1.0502711E-2,0E0,0E0,0E0,0E0,0E0,0E0,0E0,0E0,0E0,0E0,0E0,0E0,0E0,0E0,0E0,0E0],"parents":[2147483647,0,0,1,1,2,2,3,3,4,4,5,5,6,6,7,7,8,8,9,9,10,10,11,11,12,12,13,13,14,14],"right_children":[2,4,6,8,10,12,14,16,18,20,22,24,26,28,30,-1,-1,-1,-1,-1,-1,-1,-1,-1,-1,-1,-1,-1,-1,-1,-1],"split_conditions":[2E0,1.876E1,2.47E1,1.497E1,1E0,1.747E1,9.800822E-3,1E0,1E0,2.5304186E-1,8.2014985E-2,1.385E1,5.4018423E-2,-1.2856816E-1,-1.2038984E0,-2.9081726E-5,1.5519308E-3,-8.894141E-6,1.9740965E-3,9.3895505E-5,-1.03565566E-4,2.3363936E-3,3.694717E-3,-1.2701801E-3,-1.6014989E-3,-1.3458559E-3,-2.137977E-3,-1.6086384E-3,-2.9827189E-3,-1.7243621E-3,-4.5439024E-3],"split_indices":[6,157,157,157,6,157,13,6,6,193,11,157,262,77,204,0,0,0,0,0,0,0,0,0,0,0,0,0,0,0,0],"split_type":[0,0,0,0,0,0,0,0,0,0,0,0,0,0,0,0,0,0,0,0,0,0,0,0,0,0,0,0,0,0,0],"sum_hessian":[2.265E3,1.415E3,8.5E2,1.091E3,3.24E2,7.55E2,9.5E1,6.98E2,3.93E2,1.13E2,2.11E2,5.13E2,2.42E2,4.8E1,4.7E1,4.69E2,2.29E2,2.07E2,1.86E2,6.7E1,4.6E1,1.72E2,3.9E1,2.52E2,2.61E2,3.7E1,2.05E2,2.8E1,2E1,9E0,3.8E1],"tree_param":{"num_deleted":"0","num_feature":"460","num_nodes":"31","size_leaf_vector":"0"}},{"base_weights":[-2.098786E-3,1.5279525E-2,-3.0996518E-2,1.11063E-2,2.9177608E-2,-2.7821377E-2,-5.5136617E-2,-3.9005643E-4,2.9744951E-2,2.228689E-4,4.453648E-2,-2.455328E-2,-3.4491163E-2,-6.580871E-2,-3.427328E-2,1.697903E-5,-8.686046E-5,1.7057265E-3,3.364256E-3,9.3895505E-5,-1.03565566E-4,2.3363936E-3,3.694717E-3,-1.2701801E-3,-1.6014989E-3,-1.3458559E-3,-2.137977E-3,-1.7070503E-3,-4.174164E-3,-2.2622577E-3,-1.0228707E-3],"categories":[],"categories_nodes":[],"categories_segments":[],"categories_sizes":[],"default_left":[0,0,0,0,0,0,0,0,0,0,0,0,0,0,0,0,0,0,0,0,0,0,0,0,0,0,0,0,0,0,0],"id":7,"left_children":[1,3,5,7,9,11,13,15,17,19,21,23,25,27,29,-1,-1,-1,-1,-1,-1,-1,-1,-1,-1,-1,-1,-1,-1,-1,-1],"loss_changes":[1.1394205E0,8.1537664E-2,6.223631E-2,2.342275E-1,1.4495629E-1,1.4807045E-2,1.7086625E-2,5.008476E-4,5.239874E-3,3.1888369E-4,1.3762832E-2,2.8980374E-3,3.5909116E-3,7.6328516E-3,1.2770481E-3,0E0,0E0,0E0,0E0,0E0,0E0,0E0,0E0,0E0,0E0,0E0,0E0,0E0,0E0,0E0,0E0],"parents":[2147483647,0,0,1,1,2,2,3,3,4,4,5,5,6,6,7,7,8,8,9,9,10,10,11,11,12,12,13,13,14,14],"right_children":[2,4,6,8,10,12,14,16,18,20,22,24,26,28,30,-1,-1,-1,-1,-1,-1,-1,-1,-1,-1,-1,-1,-1,-1,-1,-1],"split_conditions":[2E0,1.876E1,2.47E1,1E0,1E0,1.747E1,1.3120885E-2,2.9598892E-1,7.05301E-2,2.5304186E-1,8.2014985E-2,1.385E1,5.4018423E-2,4.3895748E-2,-2.8162393E-1,1.697903E-5,-8.686046E-5,1.7057265E-3,3.364256E-3,9.3895505E-5,-1.03565566E-4,2.3363936E-3,3.694717E-3,-1.2701801E-3,-1.6014989E-3,-1.3458559E-3,-2.137977E-3,-1.7070503E-3,-4.174164E-3,-2.2622577E-3,-1.0228707E-3],"split_indices":[6,157,157,6,6,157,0,68,162,193,11,157,262,11,141,0,0,0,0,0,0,0,0,0,0,0,0,0,0,0,0],"split_type":[0,0,0,0,0,0,0,0,0,0,0,0,0,0,0,0,0,0,0,0,0,0,0,0,0,0,0,0,0,0,0],"sum_hessian":[2.265E3,1.415E3,8.5E2,1.091E3,3.24E2,7.55E2,9.5E1,6.76E2,4.15E2,1.13E2,2.11E2,5.13E2,2.42E2,6E1,3.5E1,4.17E2,2.59E2,4.08E2,7E0,6.7E1,4.6E1,1.72E2,3.9E1,2.52E2,2.61E2,3.7E1,2.05E2,9E0,5.1E1,2.6E1,9E0],"tree_param":{"num_deleted":"0","num_feature":"460","num_nodes":"31","size_leaf_vector":"0"}},{"base_weights":[-2.098786E-3,1.5279525E-2,-3.0996518E-2,-3.0193216E-4,3.485655E-2,-2.7821377E-2,-5.5136617E-2,3.7113766E-4,-1.2897361E-3,2.807377E-2,4.313986E-2,-2.455328E-2,-3.4491163E-2,-3.8718846E-2,-6.963897E-2,5.095844E-5,-9.482863E-5,4.5479774E-5,-1.1132031E-4,1.7803827E-3,1.3593972E-3,2.294171E-3,3.4053852E-3,-1.2701801E-3,-1.6014989E-3,-1.3458559E-3,-2.137977E-3,-1.6086384E-3,-2.9827189E-3,-1.7243621E-3,-4.5439024E-3],"categories":[],"categories_nodes":[],"categories_segments":[],"categories_sizes":[],"default_left":[0,0,0,0,0,0,0,0,0,0,0,0,0,0,0,0,0,0,0,0,0,0,0,0,0,0,0,0,0,0,0],"id":8,"left_children":[1,3,5,7,9,11,13,15,17,19,21,23,25,27,29,-1,-1,-1,-1,-1,-1,-1,-1,-1,-1,-1,-1,-1,-1,-1,-1],"loss_changes":[1.1394205E0,4.3226075E-1,6.223631E-2,5.268624E-4,3.2861292E-2,1.4807045E-2,1.770264E-2,4.6629942E-4,4.0203333E-4,2.421677E-3,1.2519121E-2,2.8980374E-3,3.5909116E-3,4.0427E-3,1.0502711E-2,0E0,0E0,0E0,0E0,0E0,0E0,0E0,0E0,0E0,0E0,0E0,0E0,0E0,0E0,0E0,0E0],"parents":[2147483647,0,0,1,1,2,2,3,3,4,4,5,5,6,6,7,7,8,8,9,9,10,10,11,11,12,12,13,13,14,14],"right_children":[2,4,6,8,10,12,14,16,18,20,22,24,26,28,30,-1,-1,-1,-1,-1,-1,-1,-1,-1,-1,-1,-1,-1,-1,-1,-1],"split_conditions":[2E0,1E0,2.47E1,2.477325E-1,1.723E1,1.747E1,9.800822E-3,3.9860453E-3,4.3254937E-3,2.5541757E-4,1.6047996E-1,1.385E1,5.4018423E-2,-1.2856816E-1,-1.2038984E0,5.095844E-5,-9.482863E-5,4.5479774E-5,-1.1132031E-4,1.7803827E-3,1.3593972E-3,2.294171E-3,3.4053852E-3,-1.2701801E-3,-1.6014989E-3,-1.3458559E-3,-2.137977E-3,-1.6086384E-3,-2.9827189E-3,-1.7243621E-3,-4.5439024E-3],"split_indices":[6,6,157,72,157,157,13,359,363,216,111,157,262,77,204,0,0,0,0,0,0,0,0,0,0,0,0,0,0,0,0],"split_type":[0,0,0,0,0,0,0,0,0,0,0,0,0,0,0,0,0,0,0,0,0,0,0,0,0,0,0,0,0,0,0],"sum_hessian":[2.265E3,1.415E3,8.5E2,7.89E2,6.26E2,7.55E2,9.5E1,4.7E2,3.19E2,3.49E2,2.77E2,5.13E2,2.42E2,4.8E1,4.7E1,3.77E2,9.3E1,7.2E1,2.47E2,2.35E2,1.14E2,2.22E2,5.5E1,2.52E2,2.61E2,3.7E1,2.05E2,2.8E1,2E1,9E0,3.8E1],"tree_param":{"num_deleted":"0","num_feature":"460","num_nodes":"31","size_leaf_vector":"0"}},{"base_weights":[-2.098786E-3,1.5279525E-2,-3.0996518E-2,-3.0193216E-4,3.485655E-2,-2.7821377E-2,-5.5136617E-2,3.7113766E-4,-1.2897361E-3,2.807377E-2,4.313986E-2,-2.3457222E-2,-3.2478694E-2,-3.8718846E-2,-6.963897E-2,5.095844E-5,-9.482863E-5,4.5479774E-5,-1.1132031E-4,1.7803827E-3,1.3593972E-3,2.3188242E-3,3.694717E-3,-9.959058E-4,-1.4280337E-3,-1.1351323E-3,-1.9714022E-3,-1.6086384E-3,-2.9827189E-3,-1.0290111E-3,-4.398205E-3],"categories":[],"categories_nodes":[],"categories_segments":[],"categories_sizes":[],"default_left":[0,0,0,0,0,0,0,0,0,0,0,0,0,0,0,0,0,0,0,0,0,0,0,0,0,0,0,0,0,0,0],"id":9,"left_children":[1,3,5,7,9,11,13,15,17,19,21,23,25,27,29,-1,-1,-1,-1,-1,-1,-1,-1,-1,-1,-1,-1,-1,-1,-1,-1],"loss_changes":[1.1394205E0,4.3226075E-1,6.223631E-2,5.268624E-4,3.2861292E-2,1.386255E-2,1.770264E-2,4.6629942E-4,4.0203333E-4,2.421677E-3,1.5462637E-2,1.3063848E-3,3.632307E-3,4.0427E-3,1.04932785E-2,0E0,0E0,0E0,0E0,0E0,0E0,0E0,0E0,0E0,0E0,0E0,0E0,0E0,0E0,0E0,0E0],"parents":[2147483647,0,0,1,1,2,2,3,3,4,4,5,5,6,6,7,7,8,8,9,9,10,10,11,11,12,12,13,13,14,14],"right_children":[2,4,6,8,10,12,14,16,18,20,22,24,26,28,30,-1,-1,-1,-1,-1,-1,-1,-1,-1,-1,-1,-1,-1,-1,-1,-1],"split_conditions":[2E0,1E0,2.47E1,2.477325E-1,1.723E1,1.59E1,9.800822E-3,3.9860453E-3,4.3254937E-3,2.5541757E-4,8.2014985E-2,-1.048879E0,4.215749E-2,-1.2856816E-1,4.3895748E-2,5.095844E-5,-9.482863E-5,4.5479774E-5,-1.1132031E-4,1.7803827E-3,1.3593972E-3,2.3188242E-3,3.694717E-3,-9.959058E-4,-1.4280337E-3,-1.1351323E-3,-1.9714022E-3,-1.6086384E-3,-2.9827189E-3,-1.0290111E-3,-4.398205E-3],"split_indices":[6,6,157,68,157,459,13,360,363,216,11,187,111,77,11,0,0,0,0,0,0,0,0,0,0,0,0,0,0,0,0],"split_type":[0,0,0,0,0,0,0,0,0,0,0,0,0,0,0,0,0,0,0,0,0,0,0,0,0,0,0,0,0,0,0],"sum_hessian":[2.265E3,1.415E3,8.5E2,7.89E2,6.26E2,7.55E2,9.5E1,4.7E2,3.19E2,3.49E2,2.77E2,3.96E2,3.59E2,4.8E1,4.7E1,3.77E2,9.3E1,7.2E1,2.47E2,2.35E2,1.14E2,2.38E2,3.9E1,4.9E1,3.47E2,2.9E1,3.3E2,2.8E1,2E1,5E0,4.2E1],"tree_param":{"num_deleted":"0","num_feature":"460","num_nodes":"31","size_leaf_vector":"0"}},{"base_weights":[-2.098786E-3,1.5279525E-2,-3.0996518E-2,1.11063E-2,2.9177608E-2,-2.7821377E-2,-5.5136617E-2,-3.9005643E-4,2.9744951E-2,2.228689E-4,4.453648E-2,-2.455328E-2,-3.4491163E-2,-3.8718846E-2,-6.963897E-2,1.697903E-5,-8.686046E-5,1.7057265E-3,3.364256E-3,9.3895505E-5,-1.03565566E-4,2.3363936E-3,3.694717E-3,-1.2701801E-3,-1.6014989E-3,-1.3458559E-3,-2.137977E-3,-1.6086384E-3,-2.9827189E-3,-1.7243621E-3,-4.5439024E-3],"categories":[],"categories_nodes":[],"categories_segments":[],"categories_sizes":[],"default_left":[0,0,0,0,0,0,0,0,0,0,0,0,0,0,0,0,0,0,0,0,0,0,0,0,0,0,0,0,0,0,0],"id":10,"left_children":[1,3,5,7,9,11,13,15,17,19,21,23,25,27,29,-1,-1,-1,-1,-1,-1,-1,-1,-1,-1,-1,-1,-1,-1,-1,-1],"loss_changes":[1.1394205E0,8.1537664E-2,6.223631E-2,2.342275E-1,1.4495629E-1,1.4807045E-2,1.770264E-2,5.008476E-4,5.239874E-3,3.1888369E-4,1.3762832E-2,2.8980374E-3,3.5909116E-3,4.0427E-3,1.0502711E-2,0E0,0E0,0E0,0E0,0E0,0E0,0E0,0E0,0E0,0E0,0E0,0E0,0E0,0E0,0E0,0E0],"parents":[2147483647,0,0,1,1,2,2,3,3,4,4,5,5,6,6,7,7,8,8,9,9,10,10,11,11,12,12,13,13,14,14],"right_children":[2,4,6,8,10,12,14,16,18,20,22,24,26,28,30,-1,-1,-1,-1,-1,-1,-1,-1,-1,-1,-1,-1,-1,-1,-1,-1],"split_conditions":[2E0,1.876E1,2.47E1,1E0,1E0,1.747E1,9.800822E-3,2.9598892E-1,7.05301E-2,2.5304186E-1,8.2014985E-2,1.385E1,5.4018423E-2,-1.2856816E-1,-1.2038984E0,1.697903E-5,-8.686046E-5,1.7057265E-3,3.364256E-3,9.3895505E-5,-1.03565566E-4,2.3363936E-3,3.694717E-3,-1.2701801E-3,-1.6014989E-3,-1.3458559E-3,-2.137977E-3,-1.6086384E-3,-2.9827189E-3,-1.7243621E-3,-4.5439024E-3],"split_indices":[6,157,157,6,6,157,13,68,163,193,11,157,262,77,200,0,0,0,0,0,0,0,0,0,0,0,0,0,0,0,0],"split_type":[0,0,0,0,0,0,0,0,0,0,0,0,0,0,0,0,0,0,0,0,0,0,0,0,0,0,0,0,0,0,0],"sum_hessian":[2.265E3,1.415E3,8.5E2,1.091E3,3.24E2,7.55E2,9.5E1,6.76E2,4.15E2,1.13E2,2.11E2,5.13E2,2.42E2,4.8E1,4.7E1,4.17E2,2.59E2,4.08E2,7E0,6.7E1,4.6E1,1.72E2,3.9E1,2.52E2,2.61E2,3.7E1,2.05E2,2.8E1,2E1,9E0,3.8E1],"tree_param":{"num_deleted":"0","num_feature":"460","num_nodes":"31","size_leaf_vector":"0"}},{"base_weights":[-2.098786E-3,1.5279525E-2,-3.0996518E-2,-3.0193216E-4,3.485655E-2,-2.7698075E-2,-5.10445E-2,3.7113766E-4,-1.2897361E-3,2.807377E-2,4.313986E-2,-2.455328E-2,-3.4712303E-2,-6.134685E-2,-3.65622E-2,5.021256E-5,-9.185296E-5,4.5479774E-5,-1.1132031E-4,1.2862304E-3,1.7497045E-3,2.3188242E-3,3.694717E-3,-1.2701801E-3,-1.6014989E-3,-2.222529E-3,-1.512605E-3,-3.022685E-3,-5.0619068E-3,-1.6310086E-3,-2.758385E-3],"categories":[],"categories_nodes":[],"categories_segments":[],"categories_sizes":[],"default_left":[0,0,0,0,0,0,0,0,0,0,0,0,0,0,0,0,0,0,0,0,0,0,0,0,0,0,0,0,0,0,0],"id":11,"left_children":[1,3,5,7,9,11,13,15,17,19,21,23,25,27,29,-1,-1,-1,-1,-1,-1,-1,-1,-1,-1,-1,-1,-1,-1,-1,-1],"loss_changes":[1.1394205E0,4.3226075E-1,5.3512633E-2,5.268624E-4,3.2861292E-2,1.4530361E-2,1.3119817E-2,4.4278282E-4,4.0203333E-4,2.3406744E-3,1.5462637E-2,2.8980374E-3,4.2183995E-3,7.3987097E-3,2.3281425E-3,0E0,0E0,0E0,0E0,0E0,0E0,0E0,0E0,0E0,0E0,0E0,0E0,0E0,0E0,0E0,0E0],"parents":[2147483647,0,0,1,1,2,2,3,3,4,4,5,5,6,6,7,7,8,8,9,9,10,10,11,11,12,12,13,13,14,14],"right_children":[2,4,6,8,10,12,14,16,18,20,22,24,26,28,30,-1,-1,-1,-1,-1,-1,-1,-1,-1,-1,-1,-1,-1,-1,-1,-1],"split_conditions":[2E0,1E0,2.413E1,2.477325E-1,1.723E1,1.747E1,1.4285816E-2,8.673389E-1,4.3254937E-3,4.214134E-3,8.2014985E-2,1.385E1,9.664215E-3,8.368674E-2,-1.0233848E-1,5.021256E-5,-9.185296E-5,4.5479774E-5,-1.1132031E-4,1.2862304E-3,1.7497045E-3,2.3188242E-3,3.694717E-3,-1.2701801E-3,-1.6014989E-3,-2.222529E-3,-1.512605E-3,-3.022685E-3,-5.0619068E-3,-1.6310086E-3,-2.758385E-3],"split_indices":[6,6,308,72,157,157,0,372,363,62,11,157,212,11,78,0,0,0,0,0,0,0,0,0,0,0,0,0,0,0,0],"split_type":[0,0,0,0,0,0,0,0,0,0,0,0,0,0,0,0,0,0,0,0,0,0,0,0,0,0,0,0,0,0,0],"sum_hessian":[2.265E3,1.415E3,8.5E2,7.89E2,6.26E2,7.34E2,1.16E2,4.7E2,3.19E2,3.49E2,2.77E2,5.13E2,2.21E2,6.4E1,5.2E1,3.77E2,9.3E1,7.2E1,2.47E2,8E1,2.69E2,2.38E2,3.9E1,2.52E2,2.61E2,1.6E2,6.1E1,5E1,1.4E1,3.2E1,2E1],"tree_param":{"num_deleted":"0","num_feature":"460","num_nodes":"31","size_leaf_vector":"0"}},{"base_weights":[-2.098786E-3,1.5279525E-2,-3.0996518E-2,-3.0193216E-4,3.485655E-2,-2.7821377E-2,-5.5136617E-2,3.7113766E-4,-1.2897361E-3,2.807377E-2,4.313986E-2,-2.455328E-2,-3.4491163E-2,-3.8718846E-2,-6.963897E-2,5.095844E-5,-9.482863E-5,4.5479774E-5,-1.1132031E-4,1.7803827E-3,1.3593972E-3,2.3188242E-3,3.694717E-3,-1.2701801E-3,-1.6014989E-3,-1.3458559E-3,-2.137977E-3,-1.6086384E-3,-2.9827189E-3,-1.7243621E-3,-4.5439024E-3],"categories":[],"categories_nodes":[],"categories_segments":[],"categories_sizes":[],"default_left":[0,0,0,0,0,0,0,0,0,0,0,0,0,0,0,0,0,0,0,0,0,0,0,0,0,0,0,0,0,0,0],"id":12,"left_children":[1,3,5,7,9,11,13,15,17,19,21,23,25,27,29,-1,-1,-1,-1,-1,-1,-1,-1,-1,-1,-1,-1,-1,-1,-1,-1],"loss_changes":[1.1394205E0,4.3226075E-1,6.223631E-2,5.268624E-4,3.2861292E-2,1.4807045E-2,1.770264E-2,4.6629942E-4,4.0203333E-4,2.421677E-3,1.5462637E-2,2.8980374E-3,3.5909116E-3,4.0427E-3,1.0502711E-2,0E0,0E0,0E0,0E0,0E0,0E0,0E0,0E0,0E0,0E0,0E0,0E0,0E0,0E0,0E0,0E0],"parents":[2147483647,0,0,1,1,2,2,3,3,4,4,5,5,6,6,7,7,8,8,9,9,10,10,11,11,12,12,13,13,14,14],"right_children":[2,4,6,8,10,12,14,16,18,20,22,24,26,28,30,-1,-1,-1,-1,-1,-1,-1,-1,-1,-1,-1,-1,-1,-1,-1,-1],"split_conditions":[2E0,1E0,2.47E1,2.477325E-1,1.723E1,1.747E1,9.800822E-3,3.9860453E-3,4.3254937E-3,2.5541757E-4,8.2014985E-2,1.385E1,5.4018423E-2,-1.2856816E-1,-1.2038984E0,5.095844E-5,-9.482863E-5,4.5479774E-5,-1.1132031E-4,1.7803827E-3,1.3593972E-3,2.3188242E-3,3.694717E-3,-1.2701801E-3,-1.6014989E-3,-1.3458559E-3,-2.137977E-3,-1.6086384E-3,-2.9827189E-3,-1.7243621E-3,-4.5439024E-3],"split_indices":[6,6,157,68,157,157,13,359,363,217,12,157,262,77,200,0,0,0,0,0,0,0,0,0,0,0,0,0,0,0,0],"split_type":[0,0,0,0,0,0,0,0,0,0,0,0,0,0,0,0,0,0,0,0,0,0,0,0,0,0,0,0,0,0,0],"sum_hessian":[2.265E3,1.415E3,8.5E2,7.89E2,6.26E2,7.55E2,9.5E1,4.7E2,3.19E2,3.49E2,2.77E2,5.13E2,2.42E2,4.8E1,4.7E1,3.77E2,9.3E1,7.2E1,2.47E2,2.35E2,1.14E2,2.38E2,3.9E1,2.52E2,2.61E2,3.7E1,2.05E2,2.8E1,2E1,9E0,3.8E1],"tree_param":{"num_deleted":"0","num_feature":"460","num_nodes":"31","size_leaf_vector":"0"}},{"base_weights":[-2.098786E-3,1.5279525E-2,-3.0996518E-2,-3.0193216E-4,3.485655E-2,-2.7821377E-2,-5.5136617E-2,3.7113766E-4,-1.2897361E-3,2.807377E-2,4.313986E-2,-2.455328E-2,-3.4491163E-2,-3.8718846E-2,-6.963897E-2,5.095844E-5,-9.482863E-5,4.5479774E-5,-1.1132031E-4,1.7803827E-3,1.3593972E-3,2.3188242E-3,3.694717E-3,-1.110028E-3,-1.5052268E-3,-1.3458559E-3,-2.137977E-3,-1.6086384E-3,-2.9827189E-3,-1.7243621E-3,-4.5439024E-3],"categories":[],"categories_nodes":[],"categories_segments":[],"categories_sizes":[],"default_left":[0,0,0,0,0,0,0,0,0,0,0,0,0,0,0,0,0,0,0,0,0,0,0,0,0,0,0,0,0,0,0],"id":13,"left_children":[1,3,5,7,9,11,13,15,17,19,21,23,25,27,29,-1,-1,-1,-1,-1,-1,-1,-1,-1,-1,-1,-1,-1,-1,-1,-1],"loss_changes":[1.1394205E0,4.3226075E-1,6.223631E-2,5.268624E-4,3.2861292E-2,1.4807045E-2,1.770264E-2,4.6629942E-4,4.0203333E-4,2.421677E-3,1.5462637E-2,2.0650327E-3,3.5909116E-3,4.0427E-3,1.0502711E-2,0E0,0E0,0E0,0E0,0E0,0E0,0E0,0E0,0E0,0E0,0E0,0E0,0E0,0E0,0E0,0E0],"parents":[2147483647,0,0,1,1,2,2,3,3,4,4,5,5,6,6,7,7,8,8,9,9,10,10,11,11,12,12,13,13,14,14],"right_children":[2,4,6,8,10,12,14,16,18,20,22,24,26,28,30,-1,-1,-1,-1,-1,-1,-1,-1,-1,-1,-1,-1,-1,-1,-1,-1],"split_conditions":[2E0,1E0,2.47E1,2.477325E-1,1.723E1,1.747E1,9.800822E-3,3.9860453E-3,4.3254937E-3,2.5541757E-4,8.2014985E-2,1.778656E-2,5.4018423E-2,-1.2856816E-1,-1.2038984E0,5.095844E-5,-9.482863E-5,4.5479774E-5,-1.1132031E-4,1.7803827E-3,1.3593972E-3,2.3188242E-3,3.694717E-3,-1.110028E-3,-1.5052268E-3,-1.3458559E-3,-2.137977E-3,-1.6086384E-3,-2.9827189E-3,-1.7243621E-3,-4.5439024E-3],"split_indices":[6,6,157,72,157,157,13,359,363,216,11,162,262,77,200,0,0,0,0,0,0,0,0,0,0,0,0,0,0,0,0],"split_type":[0,0,0,0,0,0,0,0,0,0,0,0,0,0,0,0,0,0,0,0,0,0,0,0,0,0,0,0,0,0,0],"sum_hessian":[2.265E3,1.415E3,8.5E2,7.89E2,6.26E2,7.55E2,9.5E1,4.7E2,3.19E2,3.49E2,2.77E2,5.13E2,2.42E2,4.8E1,4.7E1,3.77E2,9.3E1,7.2E1,2.47E2,2.35E2,1.14E2,2.38E2,3.9E1,8.5E1,4.28E2,3.7E1,2.05E2,2.8E1,2E1,9E0,3.8E1],"tree_param":{"num_deleted":"0","num_feature":"460","num_nodes":"31","size_leaf_vector":"0"}},{"base_weights":[-2.098786E-3,1.5279525E-2,-3.0996518E-2,-3.0193216E-4,3.485655E-2,-2.7698075E-2,-5.10445E-2,4.3031247E-4,-1.1545677E-3,2.8679974E-2,4.349211E-2,-2.455328E-2,-3.4712303E-2,-3.65622E-2,-6.134685E-2,4.266014E-5,-1.9148871E-4,-1.3022422E-4,1.7630586E-5,1.4748122E-3,1.9528347E-3,2.3306867E-3,3.5324232E-3,-1.2701801E-3,-1.6014989E-3,-2.222529E-3,-1.512605E-3,-1.6310086E-3,-2.758385E-3,-3.022685E-3,-5.0619068E-3],"categories":[],"categories_nodes":[],"categories_segments":[],"categories_sizes":[],"default_left":[0,0,0,0,0,0,0,0,0,0,0,0,0,0,0,0,0,0,0,0,0,0,0,0,0,0,0,0,0,0,0],"id":14,"left_children":[1,3,5,7,9,11,13,15,17,19,21,23,25,27,29,-1,-1,-1,-1,-1,-1,-1,-1,-1,-1,-1,-1,-1,-1,-1,-1],"loss_changes":[1.1394205E0,4.3226075E-1,5.3512633E-2,4.948448E-4,3.1001687E-2,1.4530361E-2,1.3119817E-2,4.6883908E-4,5.651301E-4,4.399836E-3,1.1776805E-2,2.8980374E-3,4.2183995E-3,2.3281425E-3,7.3987097E-3,0E0,0E0,0E0,0E0,0E0,0E0,0E0,0E0,0E0,0E0,0E0,0E0,0E0,0E0,0E0,0E0],"parents":[2147483647,0,0,1,1,2,2,3,3,4,4,5,5,6,6,7,7,8,8,9,9,10,10,11,11,12,12,13,13,14,14],"right_children":[2,4,6,8,10,12,14,16,18,20,22,24,26,28,30,-1,-1,-1,-1,-1,-1,-1,-1,-1,-1,-1,-1,-1,-1,-1,-1],"split_conditions":[2E0,1E0,2.413E1,7.8439735E-2,4.1210376E-2,1.747E1,-1.455211E-2,5.4118945E-3,2.0088397E-1,1.543E1,8.2014985E-2,1.385E1,9.664215E-3,-1.0233848E-1,8.368674E-2,4.266014E-5,-1.9148871E-4,-1.3022422E-4,1.7630586E-5,1.4748122E-3,1.9528347E-3,2.3306867E-3,3.5324232E-3,-1.2701801E-3,-1.6014989E-3,-2.222529E-3,-1.512605E-3,-1.6310086E-3,-2.758385E-3,-3.022685E-3,-5.0619068E-3],"split_indices":[6,6,308,74,11,157,8,361,28,157,12,157,212,82,11,0,0,0,0,0,0,0,0,0,0,0,0,0,0,0,0],"split_type":[0,0,0,0,0,0,0,0,0,0,0,0,0,0,0,0,0,0,0,0,0,0,0,0,0,0,0,0,0,0,0],"sum_hessian":[2.265E3,1.415E3,8.5E2,7.89E2,6.26E2,7.34E2,1.16E2,4.25E2,3.64E2,3.7E2,2.56E2,5.13E2,2.21E2,5.2E1,6.4E1,3.95E2,3E1,2.1E2,1.54E2,2.13E2,1.57E2,2.13E2,4.3E1,2.52E2,2.61E2,1.6E2,6.1E1,3.2E1,2E1,5E1,1.4E1],"tree_param":{"num_deleted":"0","num_feature":"460","num_nodes":"31","size_leaf_vector":"0"}},{"base_weights":[-2.098786E-3,1.5279525E-2,-3.0996518E-2,-3.0193216E-4,3.485655E-2,-2.7821377E-2,-5.5136617E-2,3.7113766E-4,-1.2897361E-3,2.807377E-2,4.313986E-2,-2.3457222E-2,-3.2478694E-2,-3.8718846E-2,-6.963897E-2,5.095844E-5,-9.482863E-5,4.5479774E-5,-1.1132031E-4,1.7803827E-3,1.3593972E-3,2.3188242E-3,3.694717E-3,-1.258738E-3,-1.5572986E-3,-1.4359533E-3,-2.018803E-3,-1.6086384E-3,-2.9827189E-3,-1.7243621E-3,-4.5439024E-3],"categories":[],"categories_nodes":[],"categories_segments":[],"categories_sizes":[],"default_left":[0,0,0,0,0,0,0,0,0,0,0,0,0,0,0,0,0,0,0,0,0,0,0,0,0,0,0,0,0,0,0],"id":15,"left_children":[1,3,5,7,9,11,13,15,17,19,21,23,25,27,29,-1,-1,-1,-1,-1,-1,-1,-1,-1,-1,-1,-1,-1,-1,-1,-1],"loss_changes":[1.1394205E0,4.3226075E-1,6.223631E-2,5.268624E-4,3.2861292E-2,1.386255E-2,1.770264E-2,4.6629942E-4,4.0203333E-4,2.421677E-3,1.5462637E-2,1.3388395E-3,3.6859512E-3,4.0427E-3,1.0502711E-2,0E0,0E0,0E0,0E0,0E0,0E0,0E0,0E0,0E0,0E0,0E0,0E0,0E0,0E0,0E0,0E0],"parents":[2147483647,0,0,1,1,2,2,3,3,4,4,5,5,6,6,7,7,8,8,9,9,10,10,11,11,12,12,13,13,14,14],"right_children":[2,4,6,8,10,12,14,16,18,20,22,24,26,28,30,-1,-1,-1,-1,-1,-1,-1,-1,-1,-1,-1,-1,-1,-1,-1,-1],"split_conditions":[2E0,1E0,2.47E1,2.477325E-1,1.723E1,1.59E1,9.800822E-3,3.9860453E-3,4.3254937E-3,2.5541757E-4,8.2014985E-2,1.385E1,5.9176024E-2,-1.2856816E-1,-1.2038984E0,5.095844E-5,-9.482863E-5,4.5479774E-5,-1.1132031E-4,1.7803827E-3,1.3593972E-3,2.3188242E-3,3.694717E-3,-1.258738E-3,-1.5572986E-3,-1.4359533E-3,-2.018803E-3,-1.6086384E-3,-2.9827189E-3,-1.7243621E-3,-4.5439024E-3],"split_indices":[6,6,157,68,157,459,13,359,364,216,11,157,262,77,200,0,0,0,0,0,0,0,0,0,0,0,0,0,0,0,0],"split_type":[0,0,0,0,0,0,0,0,0,0,0,0,0,0,0,0,0,0,0,0,0,0,0,0,0,0,0,0,0,0,0],"sum_hessian":[2.265E3,1.415E3,8.5E2,7.89E2,6.26E2,7.55E2,9.5E1,4.7E2,3.19E2,3.49E2,2.77E2,3.96E2,3.59E2,4.8E1,4.7E1,3.77E2,9.3E1,7.2E1,2.47E2,2.35E2,1.14E2,2.38E2,3.9E1,2.45E2,1.51E2,7.2E1,2.87E2,2.8E1,2E1,9E0,3.8E1],"tree_param":{"num_deleted":"0","num_feature":"460","num_nodes":"31","size_leaf_vector":"0"}},{"base_weights":[-2.098786E-3,1.5279525E-2,-3.0996518E-2,1.11063E-2,2.9177608E-2,-2.7821377E-2,-5.5136617E-2,8.373679E-3,1.5892688E-2,2.228689E-4,4.453648E-2,-2.455328E-2,-3.4491163E-2,-6.580871E-2,-3.427328E-2,-2.9081726E-5,1.5519308E-3,2.1818044E-4,1.0304035E-3,-6.395095E-5,1.233387E-4,2.3363936E-3,3.694717E-3,-1.2701801E-3,-1.6014989E-3,-1.3458559E-3,-2.137977E-3,-1.7070503E-3,-4.174164E-3,-1.3253379E-3,-2.5309494E-3],"categories":[],"categories_nodes":[],"categories_segments":[],"categories_sizes":[],"default_left":[0,0,0,0,0,0,0,0,0,0,0,0,0,0,0,0,0,0,0,0,0,0,0,0,0,0,0,0,0,0,0],"id":16,"left_children":[1,3,5,7,9,11,13,15,17,19,21,23,25,27,29,-1,-1,-1,-1,-1,-1,-1,-1,-1,-1,-1,-1,-1,-1,-1,-1],"loss_changes":[1.1394205E0,8.1537664E-2,6.223631E-2,1.4029607E-2,1.4495629E-1,1.4807045E-2,1.7086625E-2,1.1182051E-1,7.6864287E-3,2.86868E-4,1.3762832E-2,2.8980374E-3,3.5909116E-3,7.6328516E-3,1.8640682E-3,0E0,0E0,0E0,0E0,0E0,0E0,0E0,0E0,0E0,0E0,0E0,0E0,0E0,0E0,0E0,0E0],"parents":[2147483647,0,0,1,1,2,2,3,3,4,4,5,5,6,6,7,7,8,8,9,9,10,10,11,11,12,12,13,13,14,14],"right_children":[2,4,6,8,10,12,14,16,18,20,22,24,26,28,30,-1,-1,-1,-1,-1,-1,-1,-1,-1,-1,-1,-1,-1,-1,-1,-1],"split_conditions":[2E0,1.876E1,2.47E1,1.497E1,1E0,1.747E1,1.3120885E-2,1E0,1.9371139E-2,3.1497146E-4,8.2014985E-2,1.385E1,5.4018423E-2,4.3895748E-2,4.6481392E-3,-2.9081726E-5,1.5519308E-3,2.1818044E-4,1.0304035E-3,-6.395095E-5,1.233387E-4,2.3363936E-3,3.694717E-3,-1.2701801E-3,-1.6014989E-3,-1.3458559E-3,-2.137977E-3,-1.7070503E-3,-4.174164E-3,-1.3253379E-3,-2.5309494E-3],"split_indices":[6,157,157,157,6,157,0,6,11,59,11,157,262,11,167,0,0,0,0,0,0,0,0,0,0,0,0,0,0,0,0],"split_type":[0,0,0,0,0,0,0,0,0,0,0,0,0,0,0,0,0,0,0,0,0,0,0,0,0,0,0,0,0,0,0],"sum_hessian":[2.265E3,1.415E3,8.5E2,1.091E3,3.24E2,7.55E2,9.5E1,6.98E2,3.93E2,1.13E2,2.11E2,5.13E2,2.42E2,6E1,3.5E1,4.69E2,2.29E2,4.7E1,3.46E2,6.7E1,4.6E1,1.72E2,3.9E1,2.52E2,2.61E2,3.7E1,2.05E2,9E0,5.1E1,1.8E1,1.7E1],"tree_param":{"num_deleted":"0","num_feature":"460","num_nodes":"31","size_leaf_vector":"0"}}]},"name":"gbtree"},"learner_model_param":{"base_score":"0E0","boost_from_average":"0","num_class":"0","num_feature":"460","num_target":"1"},"objective":{"name":"reg:squarederror","reg_loss_param":{"scale_pos_weight":"1"}}},"version":[1,7,1]}