{"learner":{"attributes":{"best_iteration":"0","best_ntree_limit":"19","scikit_learn":"{\"objective\": \"reg:squarederror\", \"max_leaves\": null, \"max_bin\": null, \"grow_policy\": null, \"learning_rate\": 1.0, \"verbosity\": 0, \"booster\": null, \"tree_method\": \"hist\", \"gamma\": null, \"min_child_weight\": null, \"max_delta_step\": null, \"subsample\": 1.0, \"sampling_method\": null, \"colsample_bytree\": null, \"colsample_bylevel\": null, \"colsample_bynode\": 0.8, \"reg_alpha\": null, \"scale_pos_weight\": null, \"base_score\": 0, \"missing\": NaN, \"num_parallel_tree\": null, \"random_state\": null, \"n_jobs\": null, \"monotone_constraints\": null, \"interaction_constraints\": null, \"importance_type\": null, \"gpu_id\": null, \"validate_parameters\": null, \"predictor\": null, \"enable_categorical\": false, \"feature_types\": null, \"max_cat_to_onehot\": null, \"max_cat_threshold\": null, \"eval_metric\": \"mae\", \"early_stopping_rounds\": null, \"callbacks\": null, \"kwargs\": {\"eta\": 0.20007210093001715, \"nthread\": 3}, \"evals_result_\": {\"validation_0\": {\"mae\": [0.01900216141470599]}}, \"_estimator_type\": \"regressor\"}"},"feature_names":[],"feature_types":[],"gradient_booster":{"model":{"gbtree_model_param":{"num_parallel_tree":"19","num_trees":"19","size_leaf_vector":"0"},"tree_info":[0,0,0,0,0,0,0,0,0,0,0,0,0,0,0,0,0,0,0],"trees":[{"base_weights":[2.0275614E-3,1.6007265E-2,-3.505745E-2,1.1745905E-2,2.9272335E-2,-2.8664323E-2,-4.4038497E-2,3.61558E-4,2.5216786E-2,4.4873085E-2,2.4169032E-2,-2.510283E-2,-3.317036E-2,-4.0560003E-2,-6.4467445E-2,-3.09057E-4,1.4627123E-3,2.1388289E-2,2.814871E-2,5.860827E-4,5.426942E-2,-7.3748076E-4,3.632861E-2,-2.7492847E-2,-2.0169392E-2,-3.869313E-2,-2.73838E-2,-4.3139424E-2,-2.5121892E-2,-8.150049E-2,-3.7846107E-2,-4.241339E-5,8.572117E-5,4.1327544E-6,1.4034341E-4,9.7153836E-4,1.204573E-3,1.2994286E-3,1.6463207E-3,2.1002606E-4,-1.0867933E-4,2.008614E-3,3.7328436E-3,3.388502E-5,-1.598547E-4,1.3741949E-3,2.0932937E-3,-1.6097185E-3,-1.0896953E-3,-1.2239249E-3,-7.201472E-4,-8.873818E-4,-2.183696E-3,-9.143027E-4,-1.6215559E-3,-2.4652109E-3,-1.6741494E-3,-1.7646655E-3,-9.3548314E-4,-4.8221312E-3,-8.69278E-4,-7.138416E-4,-2.2753275E-3],"categories":[],"categories_nodes":[],"categories_segments":[],"categories_sizes":[],"default_left":[0,0,0,0,0,0,0,0,0,0,0,0,0,0,0,0,0,0,0,0,0,0,0,0,0,0,0,0,0,0,0,0,0,0,0,0,0,0,0,0,0,0,0,0,0,0,0,0,0,0,0,0,0,0,0,0,0,0,0,0,0,0,0],"id":0,"left_children":[1,3,5,7,9,11,13,15,17,19,21,23,25,27,29,31,33,35,37,39,41,43,45,47,49,51,53,55,57,59,61,-1,-1,-1,-1,-1,-1,-1,-1,-1,-1,-1,-1,-1,-1,-1,-1,-1,-1,-1,-1,-1,-1,-1,-1,-1,-1,-1,-1,-1,-1,-1,-1],"loss_changes":[1.1873074E0,9.331718E-2,3.3475757E-2,1.9351853E-1,2.9915899E-2,4.3046176E-3,1.303336E-2,5.074813E-4,5.2838624E-3,4.0301546E-2,9.3332246E-2,1.437828E-3,2.930224E-3,6.7923367E-3,9.248078E-3,4.1464934E-4,4.3282053E-4,2.9192865E-4,1.932919E-3,1.8795622E-4,1.6045362E-2,3.3110552E-4,5.2081347E-3,1.6720146E-3,9.245835E-4,3.242135E-3,1.8106699E-3,4.9847066E-3,1.0936148E-3,9.468704E-3,1.0503568E-3,0E0,0E0,0E0,0E0,0E0,0E0,0E0,0E0,0E0,0E0,0E0,0E0,0E0,0E0,0E0,0E0,0E0,0E0,0E0,0E0,0E0,0E0,0E0,0E0,0E0,0E0,0E0,0E0,0E0,0E0,0E0,0E0],"parents":[2147483647,0,0,1,1,2,2,3,3,4,4,5,5,6,6,7,7,8,8,9,9,10,10,11,11,12,12,13,13,14,14,15,15,16,16,17,17,18,18,19,19,20,20,21,21,22,22,23,23,24,24,25,25,26,26,27,27,28,28,29,29,30,30],"right_children":[2,4,6,8,10,12,14,16,18,20,22,24,26,28,30,32,34,36,38,40,42,44,46,48,50,52,54,56,58,60,62,-1,-1,-1,-1,-1,-1,-1,-1,-1,-1,-1,-1,-1,-1,-1,-1,-1,-1,-1,-1,-1,-1,-1,-1,-1,-1,-1,-1,-1,-1,-1,-1],"split_conditions":[2E0,1.857E1,4.1004427E-2,1E0,-2.5762435E-2,1.545E1,6.534081E-2,2.9493037E-1,1.386E1,1E0,1E0,2.5370036E-4,-1.275536E-1,8.101663E-1,9.224087E-1,3.2891252E-3,-2.2753836E-1,6.577537E-2,-2.1558012E-4,-1.0795408E0,1.0461771E-2,2.0658568E-2,-1.8332617E-1,1.1351028E-2,2.7715704E-1,-5.34121E-3,2.5376318E-2,6.072771E-1,-2.2974145E-1,1.3029677E0,-6.387476E-4,-4.241339E-5,8.572117E-5,4.1327544E-6,1.4034341E-4,9.7153836E-4,1.204573E-3,1.2994286E-3,1.6463207E-3,2.1002606E-4,-1.0867933E-4,2.008614E-3,3.7328436E-3,3.388502E-5,-1.598547E-4,1.3741949E-3,2.0932937E-3,-1.6097185E-3,-1.0896953E-3,-1.2239249E-3,-7.201472E-4,-8.873818E-4,-2.183696E-3,-9.143027E-4,-1.6215559E-3,-2.4652109E-3,-1.6741494E-3,-1.7646655E-3,-9.3548314E-4,-4.8221312E-3,-8.69278E-4,-7.138416E-4,-2.2753275E-3],"split_indices":[6,157,11,6,312,157,3,68,157,6,6,216,393,403,193,359,25,111,2,351,0,3,329,10,44,208,162,351,184,75,368,0,0,0,0,0,0,0,0,0,0,0,0,0,0,0,0,0,0,0,0,0,0,0,0,0,0,0,0,0,0,0,0],"split_type":[0,0,0,0,0,0,0,0,0,0,0,0,0,0,0,0,0,0,0,0,0,0,0,0,0,0,0,0,0,0,0,0,0,0,0,0,0,0,0,0,0,0,0,0,0,0,0,0,0,0,0,0,0,0,0,0,0,0,0,0,0,0,0],"sum_hessian":[2.286E3,1.661E3,6.25E2,1.26E3,4.01E2,3.7E2,2.55E2,6.84E2,5.76E2,9.5E1,3.06E2,2.14E2,1.56E2,2.23E2,3.2E1,4.26E2,2.58E2,2.57E2,3.19E2,1.7E1,7.8E1,1.01E2,2.05E2,1.38E2,7.6E1,7.4E1,8.2E1,1.88E2,3.5E1,1.7E1,1.5E1,3.4E2,8.6E1,1.21E2,1.37E2,9.6E1,1.61E2,1.6E2,1.59E2,7E0,1E1,4.3E1,3.5E1,6.4E1,3.7E1,5.6E1,1.49E2,9E1,4.8E1,4.8E1,2.8E1,1E1,6.4E1,2.4E1,5.8E1,1.37E2,5.1E1,1.3E1,2.2E1,1.4E1,3E0,4E0,1.1E1],"tree_param":{"num_deleted":"0","num_feature":"460","num_nodes":"63","size_leaf_vector":"0"}},{"base_weights":[2.0275614E-3,1.6007265E-2,-3.505745E-2,1.1745905E-2,2.9272335E-2,-2.8664323E-2,-4.4038497E-2,3.61558E-4,2.5216786E-2,-5.402079E-4,4.1619565E-2,-2.510283E-2,-3.317036E-2,-4.0560003E-2,-6.4467445E-2,-3.09057E-4,1.4627123E-3,2.1388289E-2,2.814871E-2,8.075694E-4,-3.1765383E-3,5.5045307E-2,3.6389254E-2,-2.7492847E-2,-2.0169392E-2,-1.7634343E-2,-3.491593E-2,-3.4034584E-2,-4.7761545E-2,-8.150049E-2,-3.7846107E-2,6.769955E-5,-4.791815E-5,4.1327544E-6,1.4034341E-4,9.7153836E-4,1.204573E-3,1.2994286E-3,1.6463207E-3,8.172246E-5,-2.2192918E-4,-2.834149E-4,-1.6804639E-5,3.7398182E-3,2.0368516E-3,1.6478199E-3,2.2878998E-3,-1.6097185E-3,-1.0896953E-3,-1.2239249E-3,-7.201472E-4,-9.89862E-4,-3.4696265E-4,-1.9034983E-3,-7.197266E-4,-1.9593942E-3,-9.2059E-4,-1.5152242E-3,-2.691662E-3,-4.8221312E-3,-8.69278E-4,-7.138416E-4,-2.2753275E-3],"categories":[],"categories_nodes":[],"categories_segments":[],"categories_sizes":[],"default_left":[0,0,0,0,0,0,0,0,0,0,0,0,0,0,0,0,0,0,0,0,0,0,0,0,0,0,0,0,0,0,0,0,0,0,0,0,0,0,0,0,0,0,0,0,0,0,0,0,0,0,0,0,0,0,0,0,0,0,0,0,0,0,0],"id":1,"left_children":[1,3,5,7,9,11,13,15,17,19,21,23,25,27,29,31,33,35,37,39,41,43,45,47,49,51,53,55,57,59,61,-1,-1,-1,-1,-1,-1,-1,-1,-1,-1,-1,-1,-1,-1,-1,-1,-1,-1,-1,-1,-1,-1,-1,-1,-1,-1,-1,-1,-1,-1,-1,-1],"loss_changes":[1.1873074E0,9.331718E-2,3.3475757E-2,1.9351853E-1,1.483902E-1,4.3046176E-3,1.303336E-2,5.074813E-4,5.2838624E-3,4.315129E-4,1.6006798E-2,1.437828E-3,3.053397E-3,7.322341E-3,9.248078E-3,4.1297523E-4,4.3282053E-4,2.9192865E-4,1.932919E-3,3.163454E-4,2.5526286E-4,1.4389828E-2,4.868865E-3,1.6720146E-3,9.245835E-4,1.1086464E-5,2.7296543E-3,5.3023994E-3,3.596276E-3,9.468704E-3,1.0503568E-3,0E0,0E0,0E0,0E0,0E0,0E0,0E0,0E0,0E0,0E0,0E0,0E0,0E0,0E0,0E0,0E0,0E0,0E0,0E0,0E0,0E0,0E0,0E0,0E0,0E0,0E0,0E0,0E0,0E0,0E0,0E0,0E0],"parents":[2147483647,0,0,1,1,2,2,3,3,4,4,5,5,6,6,7,7,8,8,9,9,10,10,11,11,12,12,13,13,14,14,15,15,16,16,17,17,18,18,19,19,20,20,21,21,22,22,23,23,24,24,25,25,26,26,27,27,28,28,29,29,30,30],"right_children":[2,4,6,8,10,12,14,16,18,20,22,24,26,28,30,32,34,36,38,40,42,44,46,48,50,52,54,56,58,60,62,-1,-1,-1,-1,-1,-1,-1,-1,-1,-1,-1,-1,-1,-1,-1,-1,-1,-1,-1,-1,-1,-1,-1,-1,-1,-1,-1,-1,-1,-1,-1,-1],"split_conditions":[2E0,1.857E1,4.1004427E-2,1E0,1E0,1.545E1,6.534081E-2,2.9493037E-1,1.386E1,2.0658568E-2,-2.723844E-2,2.5370036E-4,4.518516E-2,2.053E1,9.224087E-1,-6.025044E-1,-2.2753836E-1,6.577537E-2,-2.1558012E-4,1.6801783E0,7.6072672E-3,-1.1197046E-2,2.298E1,1.1351028E-2,2.7715704E-1,1.7446492E-2,1.5419447E0,7.1653056E-1,-5.002008E-2,1.3029677E0,-6.387476E-4,6.769955E-5,-4.791815E-5,4.1327544E-6,1.4034341E-4,9.7153836E-4,1.204573E-3,1.2994286E-3,1.6463207E-3,8.172246E-5,-2.2192918E-4,-2.834149E-4,-1.6804639E-5,3.7398182E-3,2.0368516E-3,1.6478199E-3,2.2878998E-3,-1.6097185E-3,-1.0896953E-3,-1.2239249E-3,-7.201472E-4,-9.89862E-4,-3.4696265E-4,-1.9034983E-3,-7.197266E-4,-1.9593942E-3,-9.2059E-4,-1.5152242E-3,-2.691662E-3,-4.8221312E-3,-8.69278E-4,-7.138416E-4,-2.2753275E-3],"split_indices":[6,157,11,6,6,157,3,68,157,3,311,216,262,308,193,247,25,111,2,297,363,7,157,9,44,264,377,403,0,79,367,0,0,0,0,0,0,0,0,0,0,0,0,0,0,0,0,0,0,0,0,0,0,0,0,0,0,0,0,0,0,0,0],"split_type":[0,0,0,0,0,0,0,0,0,0,0,0,0,0,0,0,0,0,0,0,0,0,0,0,0,0,0,0,0,0,0,0,0,0,0,0,0,0,0,0,0,0,0,0,0,0,0,0,0,0,0,0,0,0,0,0,0,0,0,0,0,0,0],"sum_hessian":[2.286E3,1.661E3,6.25E2,1.26E3,4.01E2,3.7E2,2.55E2,6.84E2,5.76E2,1.18E2,2.83E2,2.14E2,1.56E2,2.23E2,3.2E1,4.26E2,2.58E2,2.57E2,3.19E2,7.9E1,3.9E1,7.4E1,2.09E2,1.38E2,7.6E1,1.8E1,1.38E2,1.23E2,1E2,1.7E1,1.5E1,1.16E2,3.1E2,1.21E2,1.37E2,9.6E1,1.61E2,1.6E2,1.59E2,7E1,9E0,2.1E1,1.8E1,3.4E1,4E1,1.28E2,8.1E1,9E1,4.8E1,4.8E1,2.8E1,1.5E1,3E0,1.29E2,9E0,1.01E2,2.2E1,1.8E1,8.2E1,1.4E1,3E0,4E0,1.1E1],"tree_param":{"num_deleted":"0","num_feature":"460","num_nodes":"63","size_leaf_vector":"0"}},{"base_weights":[2.0275614E-3,1.6007265E-2,-3.505745E-2,2.2786547E-4,3.0704854E-2,-2.8664323E-2,-4.4038497E-2,2.5252225E-3,-6.879079E-5,2.7619768E-2,5.063764E-2,-2.7827224E-2,-4.913945E-2,-4.0560003E-2,-6.4467445E-2,3.6017331E-3,-1.227469E-3,1.0577872E-3,-6.954568E-4,2.3665695E-2,3.2173634E-2,7.841069E-2,4.3355625E-2,-2.8933188E-2,-1.8276777E-2,-9.920006E-4,-3.13543E-3,-3.4034584E-2,-4.7761545E-2,-8.150049E-2,-3.7846107E-2,-2.2304963E-4,2.2039663E-4,2.3956511E-4,-1.8224916E-4,1.651519E-4,1.3510724E-5,-5.975946E-5,7.001758E-5,9.635065E-4,1.3021156E-3,1.4106735E-3,1.9611786E-3,9.959923E-4,4.746382E-3,7.4821507E-4,2.369438E-3,-1.1402346E-3,-1.6073773E-3,-5.237892E-4,-1.0471044E-3,-1.9593942E-3,-9.2059E-4,-1.5152242E-3,-2.691662E-3,-4.8221312E-3,-8.69278E-4,-7.138416E-4,-2.2753275E-3],"categories":[],"categories_nodes":[],"categories_segments":[],"categories_sizes":[],"default_left":[0,0,0,0,0,0,0,0,0,0,0,0,0,0,0,0,0,0,0,0,0,0,0,0,0,0,0,0,0,0,0,0,0,0,0,0,0,0,0,0,0,0,0,0,0,0,0,0,0,0,0,0,0,0,0,0,0,0,0],"id":2,"left_children":[1,3,5,7,9,11,13,15,17,19,21,23,25,27,29,31,33,35,37,39,41,43,45,47,49,-1,-1,51,53,55,57,-1,-1,-1,-1,-1,-1,-1,-1,-1,-1,-1,-1,-1,-1,-1,-1,-1,-1,-1,-1,-1,-1,-1,-1,-1,-1,-1,-1],"loss_changes":[1.1873074E0,3.8566753E-1,3.3475757E-2,5.482938E-4,5.014938E-2,3.6411881E-3,1.303336E-2,3.805047E-4,5.055468E-4,1.1981964E-2,1.6054451E-2,2.7659535E-3,1.5469547E-3,7.322341E-3,9.248078E-3,3.6615343E-4,3.1572016E-4,4.2497015E-4,4.130158E-4,1.4493167E-3,7.3769987E-3,1.1290923E-2,3.2770485E-3,2.4262369E-3,1.8327218E-4,0E0,0E0,5.3023994E-3,3.596276E-3,9.468704E-3,1.0503568E-3,0E0,0E0,0E0,0E0,0E0,0E0,0E0,0E0,0E0,0E0,0E0,0E0,0E0,0E0,0E0,0E0,0E0,0E0,0E0,0E0,0E0,0E0,0E0,0E0,0E0,0E0,0E0,0E0],"parents":[2147483647,0,0,1,1,2,2,3,3,4,4,5,5,6,6,7,7,8,8,9,9,10,10,11,11,12,12,13,13,14,14,15,15,16,16,17,17,18,18,19,19,20,20,21,21,22,22,23,23,24,24,27,27,28,28,29,29,30,30],"right_children":[2,4,6,8,10,12,14,16,18,20,22,24,26,28,30,32,34,36,38,40,42,44,46,48,50,-1,-1,52,54,56,58,-1,-1,-1,-1,-1,-1,-1,-1,-1,-1,-1,-1,-1,-1,-1,-1,-1,-1,-1,-1,-1,-1,-1,-1,-1,-1,-1,-1],"split_conditions":[2E0,1E0,4.1004427E-2,-1.2459338E0,2.427E1,7.3087946E-2,6.534081E-2,4.9574074E-1,-1.0576283E-2,1.593E1,-4.0967647E-2,1.0997872E0,-7.060692E-4,2.053E1,9.224087E-1,-1.4703883E0,-8.7500864E-1,-4.2653995E-4,3.7476642E-3,-9.424963E-1,-2.1558012E-4,5.940715E-2,-1.4506983E0,1.8692998E-2,-9.85602E-1,-9.920006E-4,-3.13543E-3,7.1653056E-1,-5.002008E-2,1.3029677E0,-6.387476E-4,-2.2304963E-4,2.2039663E-4,2.3956511E-4,-1.8224916E-4,1.651519E-4,1.3510724E-5,-5.975946E-5,7.001758E-5,9.635065E-4,1.3021156E-3,1.4106735E-3,1.9611786E-3,9.959923E-4,4.746382E-3,7.4821507E-4,2.369438E-3,-1.1402346E-3,-1.6073773E-3,-5.237892E-4,-1.0471044E-3,-1.9593942E-3,-9.2059E-4,-1.5152242E-3,-2.691662E-3,-4.8221312E-3,-8.69278E-4,-7.138416E-4,-2.2753275E-3],"split_indices":[6,6,11,243,308,313,3,452,3,459,14,252,216,308,193,335,292,216,366,187,2,313,452,11,249,0,0,403,0,75,368,0,0,0,0,0,0,0,0,0,0,0,0,0,0,0,0,0,0,0,0,0,0,0,0,0,0,0,0],"split_type":[0,0,0,0,0,0,0,0,0,0,0,0,0,0,0,0,0,0,0,0,0,0,0,0,0,0,0,0,0,0,0,0,0,0,0,0,0,0,0,0,0,0,0,0,0,0,0,0,0,0,0,0,0,0,0,0,0,0,0],"sum_hessian":[2.286E3,1.661E3,6.25E2,8.02E2,8.59E2,3.7E2,2.55E2,9E1,7.12E2,7.48E2,1.11E2,3.6E2,1E1,2.23E2,3.2E1,7E1,2E1,2.54E2,4.58E2,4.07E2,3.41E2,1.9E1,9.2E1,3.19E2,4.1E1,4E0,6E0,1.23E2,1E2,1.7E1,1.5E1,4E0,6.6E1,5E0,1.5E1,6.9E1,1.85E2,3.77E2,8.1E1,7.4E1,3.33E2,1.72E2,1.69E2,4E0,1.5E1,6E0,8.6E1,6.3E1,2.56E2,9E0,3.2E1,1.01E2,2.2E1,1.8E1,8.2E1,1.4E1,3E0,4E0,1.1E1],"tree_param":{"num_deleted":"0","num_feature":"460","num_nodes":"59","size_leaf_vector":"0"}},{"base_weights":[2.0275614E-3,1.5155864E-3,3.1473737E-2,1.5244364E-2,-3.48106E-2,7.933862E-2,1.4383255E-3,1.1745905E-2,2.6936544E-2,-2.8664323E-2,-4.3749284E-2,9.02079E-2,4.344155E-3,2.7347954E-2,-4.5486674E-2,3.61558E-4,2.5216786E-2,-6.4100994E-4,3.868547E-2,-2.510283E-2,-3.317036E-2,-4.025653E-2,-6.4065315E-2,1.6361069E-3,5.354066E-3,5.3651875E-4,-2.3166576E-4,2.6363365E-3,1.6120749E-2,-6.611364E-4,-2.661976E-3,-1.6266158E-5,7.6984856E-5,1.1256994E-3,1.481511E-3,4.6445497E-5,-1.965476E-4,1.8174229E-3,2.5170504E-3,-1.4469919E-3,-1.061547E-3,-9.2812337E-4,-1.8376806E-3,-1.800135E-3,-2.4900546E-3,-4.3005017E-3,-1.9919004E-3,5.427754E-5,1.365854E-3],"categories":[],"categories_nodes":[],"categories_segments":[],"categories_sizes":[],"default_left":[0,0,0,0,0,0,0,0,0,0,0,0,0,0,0,0,0,0,0,0,0,0,0,0,0,0,0,0,0,0,0,0,0,0,0,0,0,0,0,0,0,0,0,0,0,0,0,0,0],"id":3,"left_children":[1,3,5,7,9,11,13,15,17,19,21,23,25,27,29,31,33,35,37,39,41,43,45,-1,-1,-1,-1,-1,47,-1,-1,-1,-1,-1,-1,-1,-1,-1,-1,-1,-1,-1,-1,-1,-1,-1,-1,-1,-1],"loss_changes":[3.4397822E-2,1.1236669E0,5.583978E-2,6.624624E-2,3.144455E-2,1.1443287E-2,3.409897E-2,1.9351853E-1,1.2155211E-1,4.3046176E-3,1.2439698E-2,2.5290102E-3,2.9438094E-4,2.9810239E-3,4.055053E-4,5.074813E-4,5.2838624E-3,5.4383953E-4,6.6820383E-3,1.437828E-3,3.053397E-3,6.031245E-3,9.081587E-3,0E0,0E0,0E0,0E0,0E0,2.1715257E-3,0E0,0E0,0E0,0E0,0E0,0E0,0E0,0E0,0E0,0E0,0E0,0E0,0E0,0E0,0E0,0E0,0E0,0E0,0E0,0E0],"parents":[2147483647,0,0,1,1,2,2,3,3,4,4,5,5,6,6,7,7,8,8,9,9,10,10,11,11,12,12,13,13,14,14,15,15,16,16,17,17,18,18,19,19,20,20,21,21,22,22,28,28],"right_children":[2,4,6,8,10,12,14,16,18,20,22,24,26,28,30,32,34,36,38,40,42,44,46,-1,-1,-1,-1,-1,48,-1,-1,-1,-1,-1,-1,-1,-1,-1,-1,-1,-1,-1,-1,-1,-1,-1,-1,-1,-1],"split_conditions":[3.59E1,2E0,-9.251596E-1,1.857E1,4.1004427E-2,1.5952026E0,2E0,1E0,1E0,1.545E1,6.534081E-2,9.8833255E-2,-3.317806E-2,4.9167853E-3,-3.317806E-2,2.9493037E-1,1.386E1,2.0658568E-2,2.464E1,2.5370036E-4,4.518516E-2,2.053E1,9.224087E-1,1.6361069E-3,5.354066E-3,5.3651875E-4,-2.3166576E-4,2.6363365E-3,1E0,-6.611364E-4,-2.661976E-3,-1.6266158E-5,7.6984856E-5,1.1256994E-3,1.481511E-3,4.6445497E-5,-1.965476E-4,1.8174229E-3,2.5170504E-3,-1.4469919E-3,-1.061547E-3,-9.2812337E-4,-1.8376806E-3,-1.800135E-3,-2.4900546E-3,-4.3005017E-3,-1.9919004E-3,5.427754E-5,1.365854E-3],"split_indices":[157,6,178,157,11,435,6,6,6,157,3,111,0,364,4,68,157,3,157,217,262,308,193,0,0,0,0,0,6,0,0,0,0,0,0,0,0,0,0,0,0,0,0,0,0,0,0,0,0],"split_type":[0,0,0,0,0,0,0,0,0,0,0,0,0,0,0,0,0,0,0,0,0,0,0,0,0,0,0,0,0,0,0,0,0,0,0,0,0,0,0,0,0,0,0,0,0,0,0,0,0],"sum_hessian":[2.286E3,2.249E3,3.7E1,1.633E3,6.16E2,1.3E1,2.4E1,1.26E3,3.73E2,3.7E2,2.46E2,1.1E1,2E0,1.6E1,8E0,6.84E2,5.76E2,1.12E2,2.61E2,2.14E2,1.56E2,2.15E2,3.1E1,3E0,8E0,1E0,1E0,3E0,1.3E1,2E0,6E0,4.26E2,2.58E2,2.57E2,3.19E2,7.6E1,3.6E1,1.86E2,7.5E1,1.38E2,7.6E1,1.8E1,1.38E2,1.22E2,9.3E1,1.6E1,1.5E1,6E0,7E0],"tree_param":{"num_deleted":"0","num_feature":"460","num_nodes":"49","size_leaf_vector":"0"}},{"base_weights":[2.0275614E-3,1.5155864E-3,3.1473737E-2,1.5244364E-2,-3.48106E-2,5.651825E-2,-4.255197E-2,1.1745905E-2,2.6936544E-2,-2.8277075E-2,-4.2967714E-2,1.0312733E-3,7.030405E-2,-6.679085E-4,-2.661976E-3,8.927579E-3,1.4626245E-2,3.8904846E-2,2.3374494E-2,-2.133829E-2,-3.0020624E-2,-3.935506E-2,-6.436394E-2,2.6303623E-4,-1.7619216E-4,5.3518806E-3,4.1902497E-2,2.7388429E-5,1.1256994E-3,8.219246E-6,1.481511E-3,5.3157913E-5,2.522327E-3,-4.9009206E-5,1.8509721E-3,-8.811223E-4,-1.3370024E-3,-1.6473577E-3,-1.0261657E-3,-1.7707413E-3,-2.468632E-3,-1.6009248E-3,-4.0456285E-3,2.3361838E-3,6.4493436E-4],"categories":[],"categories_nodes":[],"categories_segments":[],"categories_sizes":[],"default_left":[0,0,0,0,0,0,0,0,0,0,0,0,0,0,0,0,0,0,0,0,0,0,0,0,0,0,0,0,0,0,0,0,0,0,0,0,0,0,0,0,0,0,0,0,0],"id":4,"left_children":[1,3,5,7,9,11,13,15,17,19,21,23,25,-1,-1,27,29,31,33,35,37,39,41,-1,-1,-1,43,-1,-1,-1,-1,-1,-1,-1,-1,-1,-1,-1,-1,-1,-1,-1,-1,-1,-1],"loss_changes":[3.4397822E-2,1.1236669E0,7.711348E-2,6.624624E-2,3.0506134E-2,2.2802971E-2,1.3525467E-3,9.983435E-3,1.4168143E-2,2.9410422E-3,1.5881479E-2,1.7241009E-4,1.2869172E-2,0E0,0E0,6.73382E-2,1.2150298E-1,2.8271541E-2,8.434366E-2,5.8822706E-4,2.4679005E-3,7.061422E-3,1.0603324E-2,0E0,0E0,0E0,9.100698E-5,0E0,0E0,0E0,0E0,0E0,0E0,0E0,0E0,0E0,0E0,0E0,0E0,0E0,0E0,0E0,0E0,0E0,0E0],"parents":[2147483647,0,0,1,1,2,2,3,3,4,4,5,5,6,6,7,7,8,8,9,9,10,10,11,11,12,12,15,15,16,16,17,17,18,18,19,19,20,20,21,21,22,22,26,26],"right_children":[2,4,6,8,10,12,14,16,18,20,22,24,26,-1,-1,28,30,32,34,36,38,40,42,-1,-1,-1,44,-1,-1,-1,-1,-1,-1,-1,-1,-1,-1,-1,-1,-1,-1,-1,-1,-1,-1],"split_conditions":[3.59E1,2E0,2E0,1.857E1,1.716E1,1E0,-3.8094262E-3,1.386E1,-2.5762435E-2,1.8692998E-2,6.534081E-2,-2.283978E-3,3.273E1,-6.679085E-4,-2.661976E-3,1E0,1E0,1E0,1E0,2.492002E-3,1.0548409E0,1.05342336E-1,-9.092593E-1,2.6303623E-4,-1.7619216E-4,5.3518806E-3,8.38152E-2,2.7388429E-5,1.1256994E-3,8.219246E-6,1.481511E-3,5.3157913E-5,2.522327E-3,-4.9009206E-5,1.8509721E-3,-8.811223E-4,-1.3370024E-3,-1.6473577E-3,-1.0261657E-3,-1.7707413E-3,-2.468632E-3,-1.6009248E-3,-4.0456285E-3,2.3361838E-3,6.4493436E-4],"split_indices":[157,6,6,157,157,6,59,157,311,11,3,57,459,0,0,6,6,6,6,317,251,413,378,0,0,0,7,0,0,0,0,0,0,0,0,0,0,0,0,0,0,0,0,0,0],"split_type":[0,0,0,0,0,0,0,0,0,0,0,0,0,0,0,0,0,0,0,0,0,0,0,0,0,0,0,0,0,0,0,0,0,0,0,0,0,0,0,0,0,0,0,0,0],"sum_hessian":[2.286E3,2.249E3,3.7E1,1.633E3,6.16E2,2.8E1,9E0,1.26E3,3.73E2,3.47E2,2.69E2,6E0,2.2E1,3E0,6E0,6.41E2,6.19E2,8.1E1,2.92E2,7.5E1,2.72E2,2.35E2,3.4E1,3E0,3E0,8E0,1.4E1,3.84E2,2.57E2,3E2,3.19E2,1.6E1,6.5E1,9.6E1,1.96E2,4E1,3.5E1,2.39E2,3.3E1,1.4E2,9.5E1,1.1E1,2.3E1,1.2E1,2E0],"tree_param":{"num_deleted":"0","num_feature":"460","num_nodes":"45","size_leaf_vector":"0"}},{"base_weights":[2.0275614E-3,1.5155864E-3,3.1473737E-2,1.5244364E-2,-3.48106E-2,5.651825E-2,-4.255197E-2,2.1924017E-4,2.9498905E-2,-2.8664323E-2,-4.3749284E-2,9.718355E-2,3.2895997E-2,-6.679085E-4,-2.661976E-3,2.5677495E-3,-7.907576E-5,2.4913816E-2,3.7282098E-2,-2.510283E-2,-3.317036E-2,-4.025653E-2,-6.4065315E-2,5.3651875E-4,5.504409E-3,-3.8961554E-4,3.8192634E-2,-1.9182025E-4,1.6734224E-4,5.5360175E-5,-3.7153754E-5,1.1256994E-3,1.4752824E-3,2.4596413E-3,1.7590682E-3,-1.4469919E-3,-1.061547E-3,-9.2812337E-4,-1.8376806E-3,-1.800135E-3,-2.4900546E-3,-4.3005017E-3,-1.9919004E-3,1.358902E-4,-1.2755026E-4,1.0735015E-4,2.3534927E-3],"categories":[],"categories_nodes":[],"categories_segments":[],"categories_sizes":[],"default_left":[0,0,0,0,0,0,0,0,0,0,0,0,0,0,0,0,0,0,0,0,0,0,0,0,0,0,0,0,0,0,0,0,0,0,0,0,0,0,0,0,0,0,0,0,0,0,0],"id":5,"left_children":[1,3,5,7,9,11,13,15,17,19,21,23,25,-1,-1,27,29,31,33,35,37,39,41,-1,-1,43,45,-1,-1,-1,-1,-1,-1,-1,-1,-1,-1,-1,-1,-1,-1,-1,-1,-1,-1,-1,-1],"loss_changes":[3.4397822E-2,1.1236669E0,7.711348E-2,3.5016528E-1,3.144455E-2,2.242428E-2,1.3525467E-3,5.594831E-4,2.8083324E-2,4.3046176E-3,1.2439698E-2,4.3052062E-3,3.9083976E-3,0E0,0E0,3.6521326E-4,5.048122E-4,4.6682656E-3,8.075297E-3,1.437828E-3,3.053397E-3,6.031245E-3,9.081587E-3,0E0,0E0,4.2732365E-5,4.29878E-3,0E0,0E0,0E0,0E0,0E0,0E0,0E0,0E0,0E0,0E0,0E0,0E0,0E0,0E0,0E0,0E0,0E0,0E0,0E0,0E0],"parents":[2147483647,0,0,1,1,2,2,3,3,4,4,5,5,6,6,7,7,8,8,9,9,10,10,11,11,12,12,15,15,16,16,17,17,18,18,19,19,20,20,21,21,22,22,25,25,26,26],"right_children":[2,4,6,8,10,12,14,16,18,20,22,24,26,-1,-1,28,30,32,34,36,38,40,42,-1,-1,44,46,-1,-1,-1,-1,-1,-1,-1,-1,-1,-1,-1,-1,-1,-1,-1,-1,-1,-1,-1,-1],"split_conditions":[3.59E1,2E0,2E0,1E0,4.1004427E-2,-1.2805271E0,-3.8094262E-3,-1.2459338E0,1.771E1,1.545E1,6.534081E-2,-3.317806E-2,3.124E1,-6.679085E-4,-2.661976E-3,-1.257621E0,-1.0576283E-2,1.386E1,-1.616759E-2,2.5370036E-4,4.518516E-2,2.053E1,9.224087E-1,5.3651875E-4,5.504409E-3,-1.2201563E-2,1E0,-1.9182025E-4,1.6734224E-4,5.5360175E-5,-3.7153754E-5,1.1256994E-3,1.4752824E-3,2.4596413E-3,1.7590682E-3,-1.4469919E-3,-1.061547E-3,-9.2812337E-4,-1.8376806E-3,-1.800135E-3,-2.4900546E-3,-4.3005017E-3,-1.9919004E-3,1.358902E-4,-1.2755026E-4,1.0735015E-4,2.3534927E-3],"split_indices":[157,6,6,6,11,179,59,243,459,157,3,0,459,0,0,337,3,157,7,216,262,308,197,0,0,3,6,0,0,0,0,0,0,0,0,0,0,0,0,0,0,0,0,0,0,0,0],"split_type":[0,0,0,0,0,0,0,0,0,0,0,0,0,0,0,0,0,0,0,0,0,0,0,0,0,0,0,0,0,0,0,0,0,0,0,0,0,0,0,0,0,0,0,0,0,0,0],"sum_hessian":[2.286E3,2.249E3,3.7E1,1.633E3,6.16E2,2.8E1,9E0,7.96E2,8.37E2,3.7E2,2.46E2,8E0,2E1,3E0,6E0,8.8E1,7.08E2,5.32E2,3.05E2,2.14E2,1.56E2,2.15E2,3.1E1,1E0,7E0,3E0,1.7E1,7E0,8.1E1,2.52E2,4.56E2,2.57E2,2.75E2,8.2E1,2.23E2,1.38E2,7.6E1,1.8E1,1.38E2,1.22E2,9.3E1,1.6E1,1.5E1,1E0,2E0,3E0,1.4E1],"tree_param":{"num_deleted":"0","num_feature":"460","num_nodes":"47","size_leaf_vector":"0"}},{"base_weights":[2.0275614E-3,1.6007265E-2,-3.505745E-2,2.2786547E-4,3.0704854E-2,-2.8664323E-2,-4.4038497E-2,2.5252225E-3,-6.879079E-5,2.7574787E-2,5.4239817E-2,-2.510283E-2,-3.317036E-2,-4.0560003E-2,-6.4467445E-2,3.6017331E-3,-1.227469E-3,1.0577872E-3,-6.954568E-4,2.1944607E-2,3.1140218E-2,6.514236E-2,3.330982E-2,-2.7492847E-2,-2.0169392E-2,-1.7634343E-2,-3.491593E-2,-3.4034584E-2,-4.7761545E-2,-8.150049E-2,-3.7846107E-2,-2.2304963E-4,2.2039663E-4,2.3956511E-4,-1.8224916E-4,1.651519E-4,1.3510724E-5,-5.975946E-5,7.001758E-5,9.854014E-4,1.2387927E-3,1.511335E-3,1.9785617E-3,1.7498545E-3,3.795011E-3,2.2930873E-3,1.1520033E-3,-1.6097185E-3,-1.0896953E-3,-1.2239249E-3,-7.201472E-4,-9.89862E-4,-3.4696265E-4,-2.090247E-3,-1.4420535E-3,-1.9593942E-3,-9.2059E-4,-1.3667365E-3,-2.6505957E-3,-4.5336003E-4,-4.687474E-3,-7.138416E-4,-2.2753275E-3],"categories":[],"categories_nodes":[],"categories_segments":[],"categories_sizes":[],"default_left":[0,0,0,0,0,0,0,0,0,0,0,0,0,0,0,0,0,0,0,0,0,0,0,0,0,0,0,0,0,0,0,0,0,0,0,0,0,0,0,0,0,0,0,0,0,0,0,0,0,0,0,0,0,0,0,0,0,0,0,0,0,0,0],"id":6,"left_children":[1,3,5,7,9,11,13,15,17,19,21,23,25,27,29,31,33,35,37,39,41,43,45,47,49,51,53,55,57,59,61,-1,-1,-1,-1,-1,-1,-1,-1,-1,-1,-1,-1,-1,-1,-1,-1,-1,-1,-1,-1,-1,-1,-1,-1,-1,-1,-1,-1,-1,-1,-1,-1],"loss_changes":[1.1873074E0,3.8566753E-1,3.3475757E-2,5.482938E-4,6.0435057E-2,4.3046176E-3,1.303336E-2,3.805047E-4,5.055468E-4,1.3969839E-2,1.8251061E-2,1.437828E-3,3.053397E-3,7.322341E-3,9.248078E-3,3.6615343E-4,3.1572016E-4,4.2497015E-4,4.130158E-4,6.7329407E-4,5.0852597E-3,9.19649E-3,2.5453456E-3,1.6720146E-3,9.245835E-4,1.1086464E-5,2.8737783E-3,5.3023994E-3,3.163591E-3,8.93718E-3,1.0503568E-3,0E0,0E0,0E0,0E0,0E0,0E0,0E0,0E0,0E0,0E0,0E0,0E0,0E0,0E0,0E0,0E0,0E0,0E0,0E0,0E0,0E0,0E0,0E0,0E0,0E0,0E0,0E0,0E0,0E0,0E0,0E0,0E0],"parents":[2147483647,0,0,1,1,2,2,3,3,4,4,5,5,6,6,7,7,8,8,9,9,10,10,11,11,12,12,13,13,14,14,15,15,16,16,17,17,18,18,19,19,20,20,21,21,22,22,23,23,24,24,25,25,26,26,27,27,28,28,29,29,30,30],"right_children":[2,4,6,8,10,12,14,16,18,20,22,24,26,28,30,32,34,36,38,40,42,44,46,48,50,52,54,56,58,60,62,-1,-1,-1,-1,-1,-1,-1,-1,-1,-1,-1,-1,-1,-1,-1,-1,-1,-1,-1,-1,-1,-1,-1,-1,-1,-1,-1,-1,-1,-1,-1,-1],"split_conditions":[2E0,1E0,4.1004427E-2,-1.2459338E0,2.464E1,1.545E1,6.534081E-2,4.9574074E-1,-1.0576283E-2,1.441E1,1.3853363E-2,2.5370036E-4,4.518516E-2,2.053E1,9.224087E-1,-1.4703883E0,-8.7500864E-1,-4.2653995E-4,3.7476642E-3,-5.220192E-1,4.937466E-2,4.1004427E-2,-5.0999494E-3,1.1351028E-2,2.7715704E-1,1.7446492E-2,7.705415E-2,7.1653056E-1,-3.8967328E-3,-1.650583E0,-6.387476E-4,-2.2304963E-4,2.2039663E-4,2.3956511E-4,-1.8224916E-4,1.651519E-4,1.3510724E-5,-5.975946E-5,7.001758E-5,9.854014E-4,1.2387927E-3,1.511335E-3,1.9785617E-3,1.7498545E-3,3.795011E-3,2.2930873E-3,1.1520033E-3,-1.6097185E-3,-1.0896953E-3,-1.2239249E-3,-7.201472E-4,-9.89862E-4,-3.4696265E-4,-2.090247E-3,-1.4420535E-3,-1.9593942E-3,-9.2059E-4,-1.3667365E-3,-2.6505957E-3,-4.5336003E-4,-4.687474E-3,-7.138416E-4,-2.2753275E-3],"split_indices":[6,6,11,247,157,157,3,452,3,157,7,217,262,308,193,335,296,216,365,338,162,162,166,9,44,264,372,403,210,25,368,0,0,0,0,0,0,0,0,0,0,0,0,0,0,0,0,0,0,0,0,0,0,0,0,0,0,0,0,0,0,0,0],"split_type":[0,0,0,0,0,0,0,0,0,0,0,0,0,0,0,0,0,0,0,0,0,0,0,0,0,0,0,0,0,0,0,0,0,0,0,0,0,0,0,0,0,0,0,0,0,0,0,0,0,0,0,0,0,0,0,0,0,0,0,0,0,0,0],"sum_hessian":[2.286E3,1.661E3,6.25E2,8.02E2,8.59E2,3.7E2,2.55E2,9E1,7.12E2,7.62E2,9.7E1,2.14E2,1.56E2,2.23E2,3.2E1,7E1,2E1,2.54E2,4.58E2,3.01E2,4.61E2,6.1E1,3.6E1,1.38E2,7.6E1,1.8E1,1.38E2,1.23E2,1E2,1.7E1,1.5E1,4E0,6.6E1,5E0,1.5E1,6.9E1,1.85E2,3.77E2,8.1E1,1.08E2,1.93E2,3.43E2,1.18E2,1.3E1,4.8E1,1.6E1,2E1,9E1,4.8E1,4.8E1,2.8E1,1.5E1,3E0,7.9E1,5.9E1,1.01E2,2.2E1,1.3E1,8.7E1,2E0,1.5E1,4E0,1.1E1],"tree_param":{"num_deleted":"0","num_feature":"460","num_nodes":"63","size_leaf_vector":"0"}},{"base_weights":[2.0275614E-3,1.6007265E-2,-3.505745E-2,2.2786547E-4,3.0704854E-2,-2.8664323E-2,-4.4038497E-2,2.5252225E-3,-6.879079E-5,2.6902318E-2,4.6300985E-2,-2.7827224E-2,-4.913945E-2,-3.5967525E-2,-5.198596E-2,3.6017331E-3,-1.227469E-3,1.0577872E-3,-6.954568E-4,2.163256E-2,3.0529022E-2,6.5035775E-2,3.6861457E-2,-2.8933188E-2,-1.8276777E-2,-9.920006E-4,-3.13543E-3,-2.838534E-2,-4.5214154E-2,-7.336061E-2,-4.6259146E-2,-2.2304963E-4,2.2039663E-4,2.3956511E-4,-1.8224916E-4,1.651519E-4,1.3510724E-5,-5.975946E-5,7.001758E-5,9.992397E-4,1.2463068E-3,1.5322663E-3,2.090254E-3,4.2129047E-3,2.5364321E-3,1.0175621E-3,2.0376998E-3,-1.1402346E-3,-1.6073773E-3,-5.237892E-4,-1.0471044E-3,-1.7888303E-3,-1.1170302E-3,-2.8944965E-3,-1.4306288E-3,-4.678167E-3,-1.5504743E-3,-1.2209559E-3,-2.5664628E-3],"categories":[],"categories_nodes":[],"categories_segments":[],"categories_sizes":[],"default_left":[0,0,0,0,0,0,0,0,0,0,0,0,0,0,0,0,0,0,0,0,0,0,0,0,0,0,0,0,0,0,0,0,0,0,0,0,0,0,0,0,0,0,0,0,0,0,0,0,0,0,0,0,0,0,0,0,0,0,0],"id":7,"left_children":[1,3,5,7,9,11,13,15,17,19,21,23,25,27,29,31,33,35,37,39,41,43,45,47,49,-1,-1,51,53,55,57,-1,-1,-1,-1,-1,-1,-1,-1,-1,-1,-1,-1,-1,-1,-1,-1,-1,-1,-1,-1,-1,-1,-1,-1,-1,-1,-1,-1],"loss_changes":[1.1873074E0,3.8566753E-1,3.3475757E-2,5.482938E-4,4.8570275E-2,3.6411881E-3,1.2745351E-2,3.805047E-4,5.055468E-4,1.2000084E-2,2.456206E-2,2.7659535E-3,1.5469547E-3,6.827876E-3,8.513868E-3,3.6615343E-4,3.1572016E-4,4.2497015E-4,4.130158E-4,6.77824E-4,2.9943287E-3,5.6839585E-3,2.2417307E-3,2.4262369E-3,1.8327218E-4,0E0,0E0,1.7270595E-3,7.0637837E-3,1.0438785E-2,3.7421882E-3,0E0,0E0,0E0,0E0,0E0,0E0,0E0,0E0,0E0,0E0,0E0,0E0,0E0,0E0,0E0,0E0,0E0,0E0,0E0,0E0,0E0,0E0,0E0,0E0,0E0,0E0,0E0,0E0],"parents":[2147483647,0,0,1,1,2,2,3,3,4,4,5,5,6,6,7,7,8,8,9,9,10,10,11,11,12,12,13,13,14,14,15,15,16,16,17,17,18,18,19,19,20,20,21,21,22,22,23,23,24,24,27,27,28,28,29,29,30,30],"right_children":[2,4,6,8,10,12,14,16,18,20,22,24,26,28,30,32,34,36,38,40,42,44,46,48,50,-1,-1,52,54,56,58,-1,-1,-1,-1,-1,-1,-1,-1,-1,-1,-1,-1,-1,-1,-1,-1,-1,-1,-1,-1,-1,-1,-1,-1,-1,-1,-1,-1],"split_conditions":[2E0,1E0,4.1004427E-2,-1.2459338E0,5.4766174E-2,7.3087946E-2,2.063E1,4.9574074E-1,-1.0576283E-2,1.441E1,-1.1175775E-2,1.0997872E0,-7.060692E-4,3.3329016E-1,-4.0701028E-2,-1.4703883E0,-8.7500864E-1,-4.2653995E-4,3.7476642E-3,7.1836166E-2,2.298E1,-7.85052E-2,-9.2385113E-1,1.8692998E-2,-9.85602E-1,-9.920006E-4,-3.13543E-3,-1.3976565E-1,1.3611069E0,3.371367E-1,-9.7986525E-1,-2.2304963E-4,2.2039663E-4,2.3956511E-4,-1.8224916E-4,1.651519E-4,1.3510724E-5,-5.975946E-5,7.001758E-5,9.992397E-4,1.2463068E-3,1.5322663E-3,2.090254E-3,4.2129047E-3,2.5364321E-3,1.0175621E-3,2.0376998E-3,-1.1402346E-3,-1.6073773E-3,-5.237892E-4,-1.0471044E-3,-1.7888303E-3,-1.1170302E-3,-2.8944965E-3,-1.4306288E-3,-4.678167E-3,-1.5504743E-3,-1.2209559E-3,-2.5664628E-3],"split_indices":[6,6,11,243,314,313,157,456,3,157,13,252,216,149,266,335,292,216,365,111,157,369,430,11,245,0,0,129,149,68,423,0,0,0,0,0,0,0,0,0,0,0,0,0,0,0,0,0,0,0,0,0,0,0,0,0,0,0,0],"split_type":[0,0,0,0,0,0,0,0,0,0,0,0,0,0,0,0,0,0,0,0,0,0,0,0,0,0,0,0,0,0,0,0,0,0,0,0,0,0,0,0,0,0,0,0,0,0,0,0,0,0,0,0,0,0,0,0,0,0,0],"sum_hessian":[2.286E3,1.661E3,6.25E2,8.02E2,8.59E2,3.7E2,2.55E2,9E1,7.12E2,6.95E2,1.64E2,3.6E2,1E1,1.32E2,1.23E2,7E1,2E1,2.54E2,4.58E2,2.89E2,4.06E2,5.1E1,1.13E2,3.19E2,4.1E1,4E0,6E0,7.7E1,5.5E1,2.1E1,1.02E2,4E0,6.6E1,5E0,1.5E1,6.9E1,1.85E2,3.77E2,8.1E1,1.35E2,1.54E2,3.59E2,4.7E1,2.3E1,2.8E1,1.3E1,1E2,6.3E1,2.56E2,9E0,3.2E1,3.9E1,3.8E1,3.3E1,2.2E1,1.4E1,7E0,1.2E1,9E1],"tree_param":{"num_deleted":"0","num_feature":"460","num_nodes":"59","size_leaf_vector":"0"}},{"base_weights":[2.0275614E-3,1.6007265E-2,-3.505745E-2,1.1745905E-2,2.9272335E-2,-2.8664323E-2,-4.4038497E-2,8.927579E-3,1.4626245E-2,-5.402079E-4,4.1619565E-2,-2.510283E-2,-3.317036E-2,-4.0560003E-2,-6.4467445E-2,5.2038016E-4,2.1388289E-2,1.2768781E-2,1.9604828E-2,1.2694501E-3,-2.2740636E-3,3.789701E-2,6.967554E-2,-2.7492847E-2,-2.0169392E-2,-1.7634343E-2,-3.491593E-2,-4.3139424E-2,-2.5121892E-2,-8.150049E-2,-3.7846107E-2,-3.6378835E-5,1.030953E-4,9.7153836E-4,1.204573E-3,1.1946871E-5,1.3923087E-3,-6.3013254E-6,1.64086E-3,1.20186065E-4,-2.2408857E-4,1.2946837E-5,-2.1619836E-4,1.3421216E-3,2.1065169E-3,4.7292104E-3,2.0802857E-3,-1.6097185E-3,-1.0896953E-3,-1.2239249E-3,-7.201472E-4,-9.89862E-4,-3.4696265E-4,-2.090247E-3,-1.4420535E-3,-2.4652109E-3,-1.6741494E-3,-1.7646655E-3,-9.3548314E-4,-4.8221312E-3,-8.69278E-4,-7.138416E-4,-2.2753275E-3],"categories":[],"categories_nodes":[],"categories_segments":[],"categories_sizes":[],"default_left":[0,0,0,0,0,0,0,0,0,0,0,0,0,0,0,0,0,0,0,0,0,0,0,0,0,0,0,0,0,0,0,0,0,0,0,0,0,0,0,0,0,0,0,0,0,0,0,0,0,0,0,0,0,0,0,0,0,0,0,0,0,0,0],"id":8,"left_children":[1,3,5,7,9,11,13,15,17,19,21,23,25,27,29,31,33,35,37,39,41,43,45,47,49,51,53,55,57,59,61,-1,-1,-1,-1,-1,-1,-1,-1,-1,-1,-1,-1,-1,-1,-1,-1,-1,-1,-1,-1,-1,-1,-1,-1,-1,-1,-1,-1,-1,-1,-1,-1],"loss_changes":[1.1873074E0,9.331718E-2,3.3475757E-2,9.983435E-3,1.483902E-1,4.3046176E-3,1.303336E-2,6.73382E-2,5.2420646E-3,3.8229593E-4,2.4484426E-2,1.437828E-3,3.053397E-3,6.7923367E-3,9.248078E-3,6.7541737E-4,2.9192865E-4,7.859703E-2,3.7667543E-2,3.5574415E-4,2.8852507E-4,4.70832E-3,1.1757687E-2,1.6720146E-3,9.245835E-4,1.1086464E-5,2.8737783E-3,4.9847066E-3,1.0936148E-3,9.468704E-3,1.0503568E-3,0E0,0E0,0E0,0E0,0E0,0E0,0E0,0E0,0E0,0E0,0E0,0E0,0E0,0E0,0E0,0E0,0E0,0E0,0E0,0E0,0E0,0E0,0E0,0E0,0E0,0E0,0E0,0E0,0E0,0E0,0E0,0E0],"parents":[2147483647,0,0,1,1,2,2,3,3,4,4,5,5,6,6,7,7,8,8,9,9,10,10,11,11,12,12,13,13,14,14,15,15,16,16,17,17,18,18,19,19,20,20,21,21,22,22,23,23,24,24,25,25,26,26,27,27,28,28,29,29,30,30],"right_children":[2,4,6,8,10,12,14,16,18,20,22,24,26,28,30,32,34,36,38,40,42,44,46,48,50,52,54,56,58,60,62,-1,-1,-1,-1,-1,-1,-1,-1,-1,-1,-1,-1,-1,-1,-1,-1,-1,-1,-1,-1,-1,-1,-1,-1,-1,-1,-1,-1,-1,-1,-1,-1],"split_conditions":[2E0,1.857E1,4.1004427E-2,1.386E1,1E0,1.545E1,6.534081E-2,1E0,2.3141649E-2,-2.6640072E-4,3.392E1,2.5370036E-4,4.518516E-2,8.101663E-1,9.224087E-1,7.705415E-2,6.577537E-2,1E0,1E0,1.1946441E0,-5.691222E-3,3.0661132E-2,-1.1460581E-2,1.1351028E-2,2.7715704E-1,1.7446492E-2,7.705415E-2,6.072771E-1,-2.2974145E-1,1.3029677E0,-6.387476E-4,-3.6378835E-5,1.030953E-4,9.7153836E-4,1.204573E-3,1.1946871E-5,1.3923087E-3,-6.3013254E-6,1.64086E-3,1.20186065E-4,-2.2408857E-4,1.2946837E-5,-2.1619836E-4,1.3421216E-3,2.1065169E-3,4.7292104E-3,2.0802857E-3,-1.6097185E-3,-1.0896953E-3,-1.2239249E-3,-7.201472E-4,-9.89862E-4,-3.4696265E-4,-2.090247E-3,-1.4420535E-3,-2.4652109E-3,-1.6741494E-3,-1.7646655E-3,-9.3548314E-4,-4.8221312E-3,-8.69278E-4,-7.138416E-4,-2.2753275E-3],"split_indices":[6,157,12,157,6,157,3,6,417,59,157,216,262,403,193,70,111,6,6,176,167,162,13,9,44,264,372,351,184,75,367,0,0,0,0,0,0,0,0,0,0,0,0,0,0,0,0,0,0,0,0,0,0,0,0,0,0,0,0,0,0,0,0],"split_type":[0,0,0,0,0,0,0,0,0,0,0,0,0,0,0,0,0,0,0,0,0,0,0,0,0,0,0,0,0,0,0,0,0,0,0,0,0,0,0,0,0,0,0,0,0,0,0,0,0,0,0,0,0,0,0,0,0,0,0,0,0,0,0],"sum_hessian":[2.286E3,1.661E3,6.25E2,1.26E3,4.01E2,3.7E2,2.55E2,6.41E2,6.19E2,1.18E2,2.83E2,2.14E2,1.56E2,2.23E2,3.2E1,3.84E2,2.57E2,4.56E2,1.63E2,5.8E1,6E1,2.54E2,2.9E1,1.38E2,7.6E1,1.8E1,1.38E2,1.88E2,3.5E1,1.7E1,1.5E1,2.09E2,1.75E2,9.6E1,1.61E2,2.39E2,2.17E2,6.1E1,1.02E2,5E1,8E0,2.6E1,3.4E1,4.1E1,2.13E2,1.5E1,1.4E1,9E1,4.8E1,4.8E1,2.8E1,1.5E1,3E0,7.9E1,5.9E1,1.37E2,5.1E1,1.3E1,2.2E1,1.4E1,3E0,4E0,1.1E1],"tree_param":{"num_deleted":"0","num_feature":"460","num_nodes":"63","size_leaf_vector":"0"}},{"base_weights":[2.0275614E-3,1.6007265E-2,-3.505745E-2,2.2786547E-4,3.0704854E-2,-2.8664323E-2,-4.4038497E-2,2.5252225E-3,-6.879079E-5,2.7574787E-2,5.4239817E-2,-2.510283E-2,-3.317036E-2,-4.0560003E-2,-6.4467445E-2,3.6017331E-3,-1.227469E-3,1.0577872E-3,-6.954568E-4,2.1944607E-2,3.1140218E-2,3.330982E-2,6.514236E-2,-2.7492847E-2,-2.0169392E-2,-1.7634343E-2,-3.491593E-2,-4.3139424E-2,-2.5121892E-2,-8.150049E-2,-3.7846107E-2,-2.2304963E-4,2.2039663E-4,2.3956511E-4,-1.8224916E-4,1.651519E-4,1.3510724E-5,-5.975946E-5,7.001758E-5,9.854014E-4,1.2387927E-3,1.511335E-3,1.9785617E-3,2.2930873E-3,1.1520033E-3,1.7498545E-3,3.795011E-3,-1.6097185E-3,-1.0896953E-3,-1.2239249E-3,-7.201472E-4,-9.89862E-4,-3.4696265E-4,-2.090247E-3,-1.4420535E-3,-2.4652109E-3,-1.6741494E-3,-1.7646655E-3,-9.3548314E-4,-4.8221312E-3,-8.69278E-4,-7.138416E-4,-2.2753275E-3],"categories":[],"categories_nodes":[],"categories_segments":[],"categories_sizes":[],"default_left":[0,0,0,0,0,0,0,0,0,0,0,0,0,0,0,0,0,0,0,0,0,0,0,0,0,0,0,0,0,0,0,0,0,0,0,0,0,0,0,0,0,0,0,0,0,0,0,0,0,0,0,0,0,0,0,0,0,0,0,0,0,0,0],"id":9,"left_children":[1,3,5,7,9,11,13,15,17,19,21,23,25,27,29,31,33,35,37,39,41,43,45,47,49,51,53,55,57,59,61,-1,-1,-1,-1,-1,-1,-1,-1,-1,-1,-1,-1,-1,-1,-1,-1,-1,-1,-1,-1,-1,-1,-1,-1,-1,-1,-1,-1,-1,-1,-1,-1],"loss_changes":[1.1873074E0,3.8566753E-1,3.3475757E-2,5.482938E-4,6.0435057E-2,4.3046176E-3,1.303336E-2,3.805047E-4,5.055468E-4,1.3969839E-2,1.8251061E-2,1.437828E-3,3.053397E-3,6.7923367E-3,9.248078E-3,3.6615343E-4,3.1572016E-4,4.2497015E-4,4.130158E-4,6.7329407E-4,5.0852597E-3,2.5453456E-3,9.19649E-3,1.6720146E-3,9.245835E-4,1.1086464E-5,2.8737783E-3,4.9847066E-3,1.0936148E-3,9.468704E-3,1.0503568E-3,0E0,0E0,0E0,0E0,0E0,0E0,0E0,0E0,0E0,0E0,0E0,0E0,0E0,0E0,0E0,0E0,0E0,0E0,0E0,0E0,0E0,0E0,0E0,0E0,0E0,0E0,0E0,0E0,0E0,0E0,0E0,0E0],"parents":[2147483647,0,0,1,1,2,2,3,3,4,4,5,5,6,6,7,7,8,8,9,9,10,10,11,11,12,12,13,13,14,14,15,15,16,16,17,17,18,18,19,19,20,20,21,21,22,22,23,23,24,24,25,25,26,26,27,27,28,28,29,29,30,30],"right_children":[2,4,6,8,10,12,14,16,18,20,22,24,26,28,30,32,34,36,38,40,42,44,46,48,50,52,54,56,58,60,62,-1,-1,-1,-1,-1,-1,-1,-1,-1,-1,-1,-1,-1,-1,-1,-1,-1,-1,-1,-1,-1,-1,-1,-1,-1,-1,-1,-1,-1,-1,-1,-1],"split_conditions":[2E0,1E0,4.1004427E-2,-1.2459338E0,2.464E1,1.545E1,6.534081E-2,4.9574074E-1,-1.0576283E-2,1.441E1,-1.587412E-2,2.5370036E-4,4.518516E-2,8.101663E-1,9.224087E-1,-1.4703883E0,-8.7500864E-1,-4.2653995E-4,3.7476642E-3,-5.220192E-1,4.937466E-2,-5.0999494E-3,4.1004427E-2,1.1351028E-2,2.7715704E-1,1.7446492E-2,7.705415E-2,6.072771E-1,-2.2974145E-1,1.3029677E0,-6.387476E-4,-2.2304963E-4,2.2039663E-4,2.3956511E-4,-1.8224916E-4,1.651519E-4,1.3510724E-5,-5.975946E-5,7.001758E-5,9.854014E-4,1.2387927E-3,1.511335E-3,1.9785617E-3,2.2930873E-3,1.1520033E-3,1.7498545E-3,3.795011E-3,-1.6097185E-3,-1.0896953E-3,-1.2239249E-3,-7.201472E-4,-9.89862E-4,-3.4696265E-4,-2.090247E-3,-1.4420535E-3,-2.4652109E-3,-1.6741494E-3,-1.7646655E-3,-9.3548314E-4,-4.8221312E-3,-8.69278E-4,-7.138416E-4,-2.2753275E-3],"split_indices":[6,6,11,243,157,157,3,452,3,157,0,216,262,403,197,335,296,216,365,338,162,166,163,9,44,264,372,351,184,75,367,0,0,0,0,0,0,0,0,0,0,0,0,0,0,0,0,0,0,0,0,0,0,0,0,0,0,0,0,0,0,0,0],"split_type":[0,0,0,0,0,0,0,0,0,0,0,0,0,0,0,0,0,0,0,0,0,0,0,0,0,0,0,0,0,0,0,0,0,0,0,0,0,0,0,0,0,0,0,0,0,0,0,0,0,0,0,0,0,0,0,0,0,0,0,0,0,0,0],"sum_hessian":[2.286E3,1.661E3,6.25E2,8.02E2,8.59E2,3.7E2,2.55E2,9E1,7.12E2,7.62E2,9.7E1,2.14E2,1.56E2,2.23E2,3.2E1,7E1,2E1,2.54E2,4.58E2,3.01E2,4.61E2,3.6E1,6.1E1,1.38E2,7.6E1,1.8E1,1.38E2,1.88E2,3.5E1,1.7E1,1.5E1,4E0,6.6E1,5E0,1.5E1,6.9E1,1.85E2,3.77E2,8.1E1,1.08E2,1.93E2,3.43E2,1.18E2,1.6E1,2E1,1.3E1,4.8E1,9E1,4.8E1,4.8E1,2.8E1,1.5E1,3E0,7.9E1,5.9E1,1.37E2,5.1E1,1.3E1,2.2E1,1.4E1,3E0,4E0,1.1E1],"tree_param":{"num_deleted":"0","num_feature":"460","num_nodes":"63","size_leaf_vector":"0"}},{"base_weights":[2.0275614E-3,1.6007265E-2,-3.505745E-2,2.2786547E-4,3.0704854E-2,-2.8664323E-2,-4.4038497E-2,2.5252225E-3,-6.879079E-5,2.7574787E-2,5.4239817E-2,-2.510283E-2,-3.317036E-2,-4.0560003E-2,-6.4467445E-2,3.6017331E-3,-1.227469E-3,-2.467633E-4,3.110234E-3,2.1944607E-2,3.1140218E-2,3.330982E-2,6.514236E-2,-2.7492847E-2,-2.0169392E-2,-1.7634343E-2,-3.491593E-2,-3.4034584E-2,-4.7761545E-2,-8.150049E-2,-3.7846107E-2,-2.2304963E-4,2.2039663E-4,2.3956511E-4,-1.8224916E-4,4.326727E-5,-4.420938E-5,-8.575739E-5,2.4702755E-4,9.854014E-4,1.2387927E-3,1.511335E-3,1.9785617E-3,2.2930873E-3,1.1520033E-3,1.7498545E-3,3.795011E-3,-1.6097185E-3,-1.0896953E-3,-1.2239249E-3,-7.201472E-4,-9.89862E-4,-3.4696265E-4,-2.090247E-3,-1.4420535E-3,-1.9593942E-3,-9.2059E-4,-1.5152242E-3,-2.691662E-3,-4.8221312E-3,-8.69278E-4,-7.138416E-4,-2.2753275E-3],"categories":[],"categories_nodes":[],"categories_segments":[],"categories_sizes":[],"default_left":[0,0,0,0,0,0,0,0,0,0,0,0,0,0,0,0,0,0,0,0,0,0,0,0,0,0,0,0,0,0,0,0,0,0,0,0,0,0,0,0,0,0,0,0,0,0,0,0,0,0,0,0,0,0,0,0,0,0,0,0,0,0,0],"id":10,"left_children":[1,3,5,7,9,11,13,15,17,19,21,23,25,27,29,31,33,35,37,39,41,43,45,47,49,51,53,55,57,59,61,-1,-1,-1,-1,-1,-1,-1,-1,-1,-1,-1,-1,-1,-1,-1,-1,-1,-1,-1,-1,-1,-1,-1,-1,-1,-1,-1,-1,-1,-1,-1,-1],"loss_changes":[1.1873074E0,3.8566753E-1,3.3475757E-2,5.482938E-4,6.0435057E-2,4.3046176E-3,1.303336E-2,3.805047E-4,4.055012E-4,1.3969839E-2,1.8251061E-2,1.437828E-3,3.053397E-3,7.322341E-3,9.248078E-3,3.6615343E-4,3.1572016E-4,4.312688E-4,3.0045467E-4,6.7329407E-4,5.0852597E-3,2.5453456E-3,9.19649E-3,1.6720146E-3,9.245835E-4,1.1086464E-5,2.8737783E-3,5.3023994E-3,3.596276E-3,9.468704E-3,1.0503568E-3,0E0,0E0,0E0,0E0,0E0,0E0,0E0,0E0,0E0,0E0,0E0,0E0,0E0,0E0,0E0,0E0,0E0,0E0,0E0,0E0,0E0,0E0,0E0,0E0,0E0,0E0,0E0,0E0,0E0,0E0,0E0,0E0],"parents":[2147483647,0,0,1,1,2,2,3,3,4,4,5,5,6,6,7,7,8,8,9,9,10,10,11,11,12,12,13,13,14,14,15,15,16,16,17,17,18,18,19,19,20,20,21,21,22,22,23,23,24,24,25,25,26,26,27,27,28,28,29,29,30,30],"right_children":[2,4,6,8,10,12,14,16,18,20,22,24,26,28,30,32,34,36,38,40,42,44,46,48,50,52,54,56,58,60,62,-1,-1,-1,-1,-1,-1,-1,-1,-1,-1,-1,-1,-1,-1,-1,-1,-1,-1,-1,-1,-1,-1,-1,-1,-1,-1,-1,-1,-1,-1,-1,-1],"split_conditions":[2E0,1E0,4.1004427E-2,-1.2459338E0,2.464E1,1.545E1,6.534081E-2,4.9574074E-1,5.4064565E-3,1.441E1,-1.587412E-2,2.5370036E-4,4.518516E-2,2.053E1,9.224087E-1,-1.4703883E0,-8.7500864E-1,-1.0576283E-2,-9.009043E-3,-5.220192E-1,4.937466E-2,-5.0999494E-3,4.1004427E-2,1.1351028E-2,2.7715704E-1,1.7446492E-2,7.705415E-2,7.1653056E-1,-5.002008E-2,1.3029677E0,-6.387476E-4,-2.2304963E-4,2.2039663E-4,2.3956511E-4,-1.8224916E-4,4.326727E-5,-4.420938E-5,-8.575739E-5,2.4702755E-4,9.854014E-4,1.2387927E-3,1.511335E-3,1.9785617E-3,2.2930873E-3,1.1520033E-3,1.7498545E-3,3.795011E-3,-1.6097185E-3,-1.0896953E-3,-1.2239249E-3,-7.201472E-4,-9.89862E-4,-3.4696265E-4,-2.090247E-3,-1.4420535E-3,-1.9593942E-3,-9.2059E-4,-1.5152242E-3,-2.691662E-3,-4.8221312E-3,-8.69278E-4,-7.138416E-4,-2.2753275E-3],"split_indices":[6,6,11,243,157,157,3,452,361,157,0,216,262,308,193,335,292,3,418,342,162,166,163,9,44,265,372,403,0,75,367,0,0,0,0,0,0,0,0,0,0,0,0,0,0,0,0,0,0,0,0,0,0,0,0,0,0,0,0,0,0,0,0],"split_type":[0,0,0,0,0,0,0,0,0,0,0,0,0,0,0,0,0,0,0,0,0,0,0,0,0,0,0,0,0,0,0,0,0,0,0,0,0,0,0,0,0,0,0,0,0,0,0,0,0,0,0,0,0,0,0,0,0,0,0,0,0,0,0],"sum_hessian":[2.286E3,1.661E3,6.25E2,8.02E2,8.59E2,3.7E2,2.55E2,9E1,7.12E2,7.62E2,9.7E1,2.14E2,1.56E2,2.23E2,3.2E1,7E1,2E1,6.76E2,3.6E1,3.01E2,4.61E2,3.6E1,6.1E1,1.38E2,7.6E1,1.8E1,1.38E2,1.23E2,1E2,1.7E1,1.5E1,4E0,6.6E1,5E0,1.5E1,2.41E2,4.35E2,9E0,2.7E1,1.08E2,1.93E2,3.43E2,1.18E2,1.6E1,2E1,1.3E1,4.8E1,9E1,4.8E1,4.8E1,2.8E1,1.5E1,3E0,7.9E1,5.9E1,1.01E2,2.2E1,1.8E1,8.2E1,1.4E1,3E0,4E0,1.1E1],"tree_param":{"num_deleted":"0","num_feature":"460","num_nodes":"63","size_leaf_vector":"0"}},{"base_weights":[2.0275614E-3,1.6007265E-2,-3.505745E-2,1.1745905E-2,2.9272335E-2,-2.8664323E-2,-4.4038497E-2,3.61558E-4,2.5216786E-2,-5.402079E-4,4.1619565E-2,-2.510283E-2,-3.317036E-2,-4.0560003E-2,-6.4467445E-2,-3.09057E-4,1.4627123E-3,2.1388289E-2,2.814871E-2,8.075694E-4,-3.1765383E-3,3.789701E-2,6.967554E-2,-2.7492847E-2,-2.0169392E-2,-1.7634343E-2,-3.491593E-2,-3.4034584E-2,-4.7761545E-2,-8.150049E-2,-3.7846107E-2,-4.241339E-5,8.572117E-5,4.1327544E-6,1.4034341E-4,9.7153836E-4,1.204573E-3,1.178843E-3,1.5738378E-3,8.172246E-5,-2.2192918E-4,1.2253984E-4,-2.2385584E-4,1.3421216E-3,2.1065169E-3,4.7292104E-3,2.0802857E-3,-1.6097185E-3,-1.0896953E-3,-1.2239249E-3,-7.201472E-4,-9.89862E-4,-3.4696265E-4,-2.090247E-3,-1.4420535E-3,-1.9593942E-3,-9.2059E-4,-2.691662E-3,-1.5152242E-3,-4.8221312E-3,-8.69278E-4,-7.138416E-4,-2.2753275E-3],"categories":[],"categories_nodes":[],"categories_segments":[],"categories_sizes":[],"default_left":[0,0,0,0,0,0,0,0,0,0,0,0,0,0,0,0,0,0,0,0,0,0,0,0,0,0,0,0,0,0,0,0,0,0,0,0,0,0,0,0,0,0,0,0,0,0,0,0,0,0,0,0,0,0,0,0,0,0,0,0,0,0,0],"id":11,"left_children":[1,3,5,7,9,11,13,15,17,19,21,23,25,27,29,31,33,35,37,39,41,43,45,47,49,51,53,55,57,59,61,-1,-1,-1,-1,-1,-1,-1,-1,-1,-1,-1,-1,-1,-1,-1,-1,-1,-1,-1,-1,-1,-1,-1,-1,-1,-1,-1,-1,-1,-1,-1,-1],"loss_changes":[1.1873074E0,9.331718E-2,3.3475757E-2,1.9351853E-1,1.483902E-1,4.3046176E-3,1.303336E-2,5.074813E-4,5.2838624E-3,4.315129E-4,2.4484426E-2,1.437828E-3,3.053397E-3,7.322341E-3,9.248078E-3,4.1464934E-4,4.3282053E-4,2.9192865E-4,1.898706E-3,3.163454E-4,2.6281804E-4,4.70832E-3,1.1757687E-2,1.6720146E-3,9.245835E-4,1.1086464E-5,2.8737783E-3,5.3023994E-3,3.596276E-3,9.468704E-3,1.0503568E-3,0E0,0E0,0E0,0E0,0E0,0E0,0E0,0E0,0E0,0E0,0E0,0E0,0E0,0E0,0E0,0E0,0E0,0E0,0E0,0E0,0E0,0E0,0E0,0E0,0E0,0E0,0E0,0E0,0E0,0E0,0E0,0E0],"parents":[2147483647,0,0,1,1,2,2,3,3,4,4,5,5,6,6,7,7,8,8,9,9,10,10,11,11,12,12,13,13,14,14,15,15,16,16,17,17,18,18,19,19,20,20,21,21,22,22,23,23,24,24,25,25,26,26,27,27,28,28,29,29,30,30],"right_children":[2,4,6,8,10,12,14,16,18,20,22,24,26,28,30,32,34,36,38,40,42,44,46,48,50,52,54,56,58,60,62,-1,-1,-1,-1,-1,-1,-1,-1,-1,-1,-1,-1,-1,-1,-1,-1,-1,-1,-1,-1,-1,-1,-1,-1,-1,-1,-1,-1,-1,-1,-1,-1],"split_conditions":[2E0,1.857E1,4.1004427E-2,1E0,1E0,1.545E1,6.534081E-2,2.9493037E-1,1.386E1,2.0658568E-2,3.392E1,2.5370036E-4,4.518516E-2,2.053E1,9.224087E-1,3.2891252E-3,-2.2753836E-1,6.577537E-2,-7.538374E-1,1.6801783E0,-1.6691461E-2,3.0661132E-2,-1.1460581E-2,1.1351028E-2,2.7715704E-1,1.7446492E-2,7.705415E-2,7.1653056E-1,5.1292203E-2,1.3029677E0,-6.387476E-4,-4.241339E-5,8.572117E-5,4.1327544E-6,1.4034341E-4,9.7153836E-4,1.204573E-3,1.178843E-3,1.5738378E-3,8.172246E-5,-2.2192918E-4,1.2253984E-4,-2.2385584E-4,1.3421216E-3,2.1065169E-3,4.7292104E-3,2.0802857E-3,-1.6097185E-3,-1.0896953E-3,-1.2239249E-3,-7.201472E-4,-9.89862E-4,-3.4696265E-4,-2.090247E-3,-1.4420535E-3,-1.9593942E-3,-9.2059E-4,-2.691662E-3,-1.5152242E-3,-4.8221312E-3,-8.69278E-4,-7.138416E-4,-2.2753275E-3],"split_indices":[6,157,11,6,6,157,3,68,157,3,157,216,263,308,193,360,25,111,419,297,16,162,14,9,48,264,372,407,8,75,368,0,0,0,0,0,0,0,0,0,0,0,0,0,0,0,0,0,0,0,0,0,0,0,0,0,0,0,0,0,0,0,0],"split_type":[0,0,0,0,0,0,0,0,0,0,0,0,0,0,0,0,0,0,0,0,0,0,0,0,0,0,0,0,0,0,0,0,0,0,0,0,0,0,0,0,0,0,0,0,0,0,0,0,0,0,0,0,0,0,0,0,0,0,0,0,0,0,0],"sum_hessian":[2.286E3,1.661E3,6.25E2,1.26E3,4.01E2,3.7E2,2.55E2,6.84E2,5.76E2,1.18E2,2.83E2,2.14E2,1.56E2,2.23E2,3.2E1,4.26E2,2.58E2,2.57E2,3.19E2,7.9E1,3.9E1,2.54E2,2.9E1,1.38E2,7.6E1,1.8E1,1.38E2,1.23E2,1E2,1.7E1,1.5E1,3.4E2,8.6E1,1.21E2,1.37E2,9.6E1,1.61E2,8.1E1,2.38E2,7E1,9E0,6E0,3.3E1,4.1E1,2.13E2,1.5E1,1.4E1,9E1,4.8E1,4.8E1,2.8E1,1.5E1,3E0,7.9E1,5.9E1,1.01E2,2.2E1,8.2E1,1.8E1,1.4E1,3E0,4E0,1.1E1],"tree_param":{"num_deleted":"0","num_feature":"460","num_nodes":"63","size_leaf_vector":"0"}},{"base_weights":[2.0275614E-3,1.6007265E-2,-3.505745E-2,2.2786547E-4,3.0704854E-2,-2.8277075E-2,-4.3258294E-2,2.5252225E-3,-6.879079E-5,2.7574787E-2,5.4239817E-2,-2.133829E-2,-3.0020624E-2,-3.9365955E-2,-5.91919E-2,3.6017331E-3,-1.227469E-3,1.0577872E-3,-6.954568E-4,2.1944607E-2,3.1140218E-2,3.330982E-2,6.514236E-2,-1.6741324E-2,-2.5403045E-2,-3.1299796E-2,-1.9497149E-2,-4.0383127E-2,-7.4063614E-4,-4.379214E-2,-8.051865E-2,-2.2304963E-4,2.2039663E-4,2.3956511E-4,-1.8224916E-4,1.651519E-4,1.3510724E-5,-5.975946E-5,7.001758E-5,9.854014E-4,1.2387927E-3,1.511335E-3,1.9785617E-3,2.2930873E-3,1.1520033E-3,1.7498545E-3,3.795011E-3,-1.3580048E-3,-7.5945025E-4,-6.1587355E-4,-1.4642075E-3,-2.0400397E-3,-1.5064373E-3,-5.255159E-4,-1.1137914E-3,-1.8455918E-3,-2.5140117E-3,-2.5323106E-3,-7.0398225E-4,-4.9277614E-3,-1.1003701E-3],"categories":[],"categories_nodes":[],"categories_segments":[],"categories_sizes":[],"default_left":[0,0,0,0,0,0,0,0,0,0,0,0,0,0,0,0,0,0,0,0,0,0,0,0,0,0,0,0,0,0,0,0,0,0,0,0,0,0,0,0,0,0,0,0,0,0,0,0,0,0,0,0,0,0,0,0,0,0,0,0,0],"id":12,"left_children":[1,3,5,7,9,11,13,15,17,19,21,23,25,27,29,31,33,35,37,39,41,43,45,47,49,51,53,55,-1,57,59,-1,-1,-1,-1,-1,-1,-1,-1,-1,-1,-1,-1,-1,-1,-1,-1,-1,-1,-1,-1,-1,-1,-1,-1,-1,-1,-1,-1,-1,-1],"loss_changes":[1.1873074E0,3.8566753E-1,3.2417834E-2,5.482938E-4,6.0435057E-2,2.9410422E-3,1.2705028E-2,3.805047E-4,5.055468E-4,1.3969839E-2,1.8251061E-2,5.8822706E-4,2.4679005E-3,4.8066378E-3,9.697601E-3,3.6615343E-4,3.1572016E-4,4.2497015E-4,4.130158E-4,6.7329407E-4,5.0852597E-3,2.5453456E-3,9.19649E-3,1.3512373E-4,5.74179E-4,2.595529E-3,1.3169646E-4,5.325407E-3,0E0,3.1822845E-3,1.09323785E-2,0E0,0E0,0E0,0E0,0E0,0E0,0E0,0E0,0E0,0E0,0E0,0E0,0E0,0E0,0E0,0E0,0E0,0E0,0E0,0E0,0E0,0E0,0E0,0E0,0E0,0E0,0E0,0E0,0E0,0E0],"parents":[2147483647,0,0,1,1,2,2,3,3,4,4,5,5,6,6,7,7,8,8,9,9,10,10,11,11,12,12,13,13,14,14,15,15,16,16,17,17,18,18,19,19,20,20,21,21,22,22,23,23,24,24,25,25,26,26,27,27,29,29,30,30],"right_children":[2,4,6,8,10,12,14,16,18,20,22,24,26,28,30,32,34,36,38,40,42,44,46,48,50,52,54,56,-1,58,60,-1,-1,-1,-1,-1,-1,-1,-1,-1,-1,-1,-1,-1,-1,-1,-1,-1,-1,-1,-1,-1,-1,-1,-1,-1,-1,-1,-1,-1,-1],"split_conditions":[2E0,1E0,1.716E1,-1.2459338E0,2.464E1,1.8692998E-2,7.975171E-2,4.9574074E-1,-1.0576283E-2,1.441E1,-1.587412E-2,2.492002E-3,1.0548409E0,1.7690464E0,3.756636E-1,-1.4703883E0,-8.7500864E-1,-4.2653995E-4,3.7476642E-3,-5.220192E-1,4.937466E-2,-5.0999494E-3,4.1004427E-2,-1.5057865E0,-2.3347482E-2,-8.067667E-1,-7.0669967E-1,1.038251E-1,-7.4063614E-4,1.4423122E0,8.940773E-1,-2.2304963E-4,2.2039663E-4,2.3956511E-4,-1.8224916E-4,1.651519E-4,1.3510724E-5,-5.975946E-5,7.001758E-5,9.854014E-4,1.2387927E-3,1.511335E-3,1.9785617E-3,2.2930873E-3,1.1520033E-3,1.7498545E-3,3.795011E-3,-1.3580048E-3,-7.5945025E-4,-6.1587355E-4,-1.4642075E-3,-2.0400397E-3,-1.5064373E-3,-5.255159E-4,-1.1137914E-3,-1.8455918E-3,-2.5140117E-3,-2.5323106E-3,-7.0398225E-4,-4.9277614E-3,-1.1003701E-3],"split_indices":[6,6,157,243,157,11,11,456,3,157,0,317,251,378,201,339,292,216,365,338,162,166,162,93,2,237,228,413,0,83,117,0,0,0,0,0,0,0,0,0,0,0,0,0,0,0,0,0,0,0,0,0,0,0,0,0,0,0,0,0,0],"split_type":[0,0,0,0,0,0,0,0,0,0,0,0,0,0,0,0,0,0,0,0,0,0,0,0,0,0,0,0,0,0,0,0,0,0,0,0,0,0,0,0,0,0,0,0,0,0,0,0,0,0,0,0,0,0,0,0,0,0,0,0,0],"sum_hessian":[2.286E3,1.661E3,6.25E2,8.02E2,8.59E2,3.47E2,2.78E2,9E1,7.12E2,7.62E2,9.7E1,7.5E1,2.72E2,2.29E2,4.9E1,7E1,2E1,2.54E2,4.58E2,3.01E2,4.61E2,3.6E1,6.1E1,4E1,3.5E1,2.39E2,3.3E1,2.19E2,1E1,3.2E1,1.7E1,4E0,6.6E1,5E0,1.5E1,6.9E1,1.85E2,3.77E2,8.1E1,1.08E2,1.93E2,3.43E2,1.18E2,1.6E1,2E1,1.3E1,4.8E1,4E0,3.6E1,7E0,2.8E1,5.6E1,1.83E2,7E0,2.6E1,1.34E2,8.5E1,2.7E1,5E0,1.3E1,4E0],"tree_param":{"num_deleted":"0","num_feature":"460","num_nodes":"61","size_leaf_vector":"0"}},{"base_weights":[2.0275614E-3,1.6007265E-2,-3.505745E-2,1.1745905E-2,2.9272335E-2,-2.8664323E-2,-4.4038497E-2,8.927579E-3,1.4626245E-2,-5.402079E-4,4.1619565E-2,-2.7827224E-2,-4.913945E-2,-4.0560003E-2,-6.4467445E-2,5.4798834E-3,1.039282E-2,1.2768781E-2,1.9604828E-2,3.3790532E-3,-1.3444066E-3,3.789701E-2,6.967554E-2,-2.8933188E-2,-1.8276777E-2,-9.920006E-4,-3.13543E-3,-3.4034584E-2,-4.7761545E-2,-8.150049E-2,-3.7846107E-2,9.997397E-6,9.5051184E-4,3.6985075E-5,1.1646623E-3,1.1946871E-5,1.3923087E-3,-6.3013254E-6,1.64086E-3,-1.02400336E-4,2.5583207E-4,1.3856751E-4,-1.1049105E-4,1.3421216E-3,2.1065169E-3,4.7292104E-3,2.0802857E-3,-1.1402346E-3,-1.6073773E-3,-5.237892E-4,-1.0471044E-3,-1.9593942E-3,-9.2059E-4,-1.5152242E-3,-2.691662E-3,-4.8221312E-3,-8.69278E-4,-7.138416E-4,-2.2753275E-3],"categories":[],"categories_nodes":[],"categories_segments":[],"categories_sizes":[],"default_left":[0,0,0,0,0,0,0,0,0,0,0,0,0,0,0,0,0,0,0,0,0,0,0,0,0,0,0,0,0,0,0,0,0,0,0,0,0,0,0,0,0,0,0,0,0,0,0,0,0,0,0,0,0,0,0,0,0,0,0],"id":13,"left_children":[1,3,5,7,9,11,13,15,17,19,21,23,25,27,29,31,33,35,37,39,41,43,45,47,49,-1,-1,51,53,55,57,-1,-1,-1,-1,-1,-1,-1,-1,-1,-1,-1,-1,-1,-1,-1,-1,-1,-1,-1,-1,-1,-1,-1,-1,-1,-1,-1,-1],"loss_changes":[1.1873074E0,9.331718E-2,3.3475757E-2,9.983435E-3,1.483902E-1,3.6411881E-3,1.303336E-2,3.1343438E-3,5.2420646E-3,3.873094E-4,2.4484426E-2,2.7659535E-3,1.5469547E-3,7.322341E-3,9.248078E-3,1.3036256E-2,5.102953E-2,7.859703E-2,3.7667543E-2,1.8460123E-4,3.1430396E-4,4.70832E-3,1.1757687E-2,2.4262369E-3,1.8327218E-4,0E0,0E0,5.3023994E-3,3.596276E-3,9.468704E-3,1.0503568E-3,0E0,0E0,0E0,0E0,0E0,0E0,0E0,0E0,0E0,0E0,0E0,0E0,0E0,0E0,0E0,0E0,0E0,0E0,0E0,0E0,0E0,0E0,0E0,0E0,0E0,0E0,0E0,0E0],"parents":[2147483647,0,0,1,1,2,2,3,3,4,4,5,5,6,6,7,7,8,8,9,9,10,10,11,11,12,12,13,13,14,14,15,15,16,16,17,17,18,18,19,19,20,20,21,21,22,22,23,23,24,24,27,27,28,28,29,29,30,30],"right_children":[2,4,6,8,10,12,14,16,18,20,22,24,26,28,30,32,34,36,38,40,42,44,46,48,50,-1,-1,52,54,56,58,-1,-1,-1,-1,-1,-1,-1,-1,-1,-1,-1,-1,-1,-1,-1,-1,-1,-1,-1,-1,-1,-1,-1,-1,-1,-1,-1,-1],"split_conditions":[2E0,1.857E1,4.1004427E-2,1.386E1,1E0,7.3087946E-2,6.534081E-2,-7.520655E-1,2.3141649E-2,-9.414686E-1,3.392E1,1.0997872E0,-7.060692E-4,2.053E1,9.224087E-1,1E0,1E0,1E0,1E0,-4.640019E-3,-2.473716E-2,3.0661132E-2,-1.1460581E-2,1.8692998E-2,-9.85602E-1,-9.920006E-4,-3.13543E-3,7.1653056E-1,-5.002008E-2,1.3029677E0,-6.387476E-4,9.997397E-6,9.5051184E-4,3.6985075E-5,1.1646623E-3,1.1946871E-5,1.3923087E-3,-6.3013254E-6,1.64086E-3,-1.02400336E-4,2.5583207E-4,1.3856751E-4,-1.1049105E-4,1.3421216E-3,2.1065169E-3,4.7292104E-3,2.0802857E-3,-1.1402346E-3,-1.6073773E-3,-5.237892E-4,-1.0471044E-3,-1.9593942E-3,-9.2059E-4,-1.5152242E-3,-2.691662E-3,-4.8221312E-3,-8.69278E-4,-7.138416E-4,-2.2753275E-3],"split_indices":[6,157,12,157,6,313,3,337,417,330,157,252,216,308,193,6,6,6,6,209,15,163,13,11,245,0,0,403,0,75,367,0,0,0,0,0,0,0,0,0,0,0,0,0,0,0,0,0,0,0,0,0,0,0,0,0,0,0,0],"split_type":[0,0,0,0,0,0,0,0,0,0,0,0,0,0,0,0,0,0,0,0,0,0,0,0,0,0,0,0,0,0,0,0,0,0,0,0,0,0,0,0,0,0,0,0,0,0,0,0,0,0,0,0,0,0,0,0,0,0,0],"sum_hessian":[2.286E3,1.661E3,6.25E2,1.26E3,4.01E2,3.7E2,2.55E2,6.41E2,6.19E2,1.18E2,2.83E2,3.6E2,1E1,2.23E2,3.2E1,1.94E2,4.47E2,4.56E2,1.63E2,1.9E1,9.9E1,2.54E2,2.9E1,3.19E2,4.1E1,4E0,6E0,1.23E2,1E2,1.7E1,1.5E1,1.38E2,5.6E1,2.46E2,2.01E2,2.39E2,2.17E2,6.1E1,1.02E2,4E0,1.5E1,1.5E1,8.4E1,4.1E1,2.13E2,1.5E1,1.4E1,6.3E1,2.56E2,9E0,3.2E1,1.01E2,2.2E1,1.8E1,8.2E1,1.4E1,3E0,4E0,1.1E1],"tree_param":{"num_deleted":"0","num_feature":"460","num_nodes":"59","size_leaf_vector":"0"}},{"base_weights":[2.0275614E-3,1.6007265E-2,-3.505745E-2,2.2786547E-4,3.0704854E-2,-2.8664323E-2,-4.4038497E-2,2.5252225E-3,-6.879079E-5,2.7574787E-2,5.4239817E-2,-2.510283E-2,-3.317036E-2,-4.0560003E-2,-6.4467445E-2,3.6017331E-3,-1.227469E-3,1.0577872E-3,-6.954568E-4,2.1944607E-2,3.1140218E-2,3.330982E-2,6.514236E-2,-2.7492847E-2,-2.0169392E-2,-1.7634343E-2,-3.491593E-2,-3.4034584E-2,-4.7761545E-2,-8.150049E-2,-3.7846107E-2,-2.2304963E-4,2.2039663E-4,2.3956511E-4,-1.8224916E-4,1.651519E-4,1.3510724E-5,-5.975946E-5,7.001758E-5,9.854014E-4,1.2387927E-3,1.511335E-3,1.9785617E-3,2.2930873E-3,1.1520033E-3,1.7498545E-3,3.795011E-3,-1.6097185E-3,-1.0896953E-3,-1.2239249E-3,-7.201472E-4,-9.89862E-4,-3.4696265E-4,-2.090247E-3,-1.4420535E-3,-1.9593942E-3,-9.2059E-4,-1.5152242E-3,-2.691662E-3,-4.8221312E-3,-8.69278E-4,-7.138416E-4,-2.2753275E-3],"categories":[],"categories_nodes":[],"categories_segments":[],"categories_sizes":[],"default_left":[0,0,0,0,0,0,0,0,0,0,0,0,0,0,0,0,0,0,0,0,0,0,0,0,0,0,0,0,0,0,0,0,0,0,0,0,0,0,0,0,0,0,0,0,0,0,0,0,0,0,0,0,0,0,0,0,0,0,0,0,0,0,0],"id":14,"left_children":[1,3,5,7,9,11,13,15,17,19,21,23,25,27,29,31,33,35,37,39,41,43,45,47,49,51,53,55,57,59,61,-1,-1,-1,-1,-1,-1,-1,-1,-1,-1,-1,-1,-1,-1,-1,-1,-1,-1,-1,-1,-1,-1,-1,-1,-1,-1,-1,-1,-1,-1,-1,-1],"loss_changes":[1.1873074E0,3.8566753E-1,3.3475757E-2,5.482938E-4,6.0435057E-2,4.3046176E-3,1.303336E-2,3.805047E-4,5.055468E-4,1.3969839E-2,1.8251061E-2,1.437828E-3,3.053397E-3,7.322341E-3,9.248078E-3,3.6615343E-4,3.1572016E-4,4.2497015E-4,4.130158E-4,6.7329407E-4,5.0852597E-3,2.5453456E-3,9.19649E-3,1.6720146E-3,9.245835E-4,1.1086464E-5,2.8737783E-3,5.3023994E-3,3.596276E-3,9.468704E-3,1.0503568E-3,0E0,0E0,0E0,0E0,0E0,0E0,0E0,0E0,0E0,0E0,0E0,0E0,0E0,0E0,0E0,0E0,0E0,0E0,0E0,0E0,0E0,0E0,0E0,0E0,0E0,0E0,0E0,0E0,0E0,0E0,0E0,0E0],"parents":[2147483647,0,0,1,1,2,2,3,3,4,4,5,5,6,6,7,7,8,8,9,9,10,10,11,11,12,12,13,13,14,14,15,15,16,16,17,17,18,18,19,19,20,20,21,21,22,22,23,23,24,24,25,25,26,26,27,27,28,28,29,29,30,30],"right_children":[2,4,6,8,10,12,14,16,18,20,22,24,26,28,30,32,34,36,38,40,42,44,46,48,50,52,54,56,58,60,62,-1,-1,-1,-1,-1,-1,-1,-1,-1,-1,-1,-1,-1,-1,-1,-1,-1,-1,-1,-1,-1,-1,-1,-1,-1,-1,-1,-1,-1,-1,-1,-1],"split_conditions":[2E0,1E0,4.1004427E-2,-1.2459338E0,2.464E1,1.545E1,6.534081E-2,4.9574074E-1,-1.0576283E-2,1.441E1,-1.587412E-2,2.5370036E-4,4.518516E-2,2.053E1,9.224087E-1,-1.4703883E0,-8.7500864E-1,-4.2653995E-4,3.7476642E-3,-5.220192E-1,4.937466E-2,-5.0999494E-3,4.1004427E-2,1.1351028E-2,2.7715704E-1,1.7446492E-2,7.705415E-2,7.1653056E-1,-5.002008E-2,1.3029677E0,-6.387476E-4,-2.2304963E-4,2.2039663E-4,2.3956511E-4,-1.8224916E-4,1.651519E-4,1.3510724E-5,-5.975946E-5,7.001758E-5,9.854014E-4,1.2387927E-3,1.511335E-3,1.9785617E-3,2.2930873E-3,1.1520033E-3,1.7498545E-3,3.795011E-3,-1.6097185E-3,-1.0896953E-3,-1.2239249E-3,-7.201472E-4,-9.89862E-4,-3.4696265E-4,-2.090247E-3,-1.4420535E-3,-1.9593942E-3,-9.2059E-4,-1.5152242E-3,-2.691662E-3,-4.8221312E-3,-8.69278E-4,-7.138416E-4,-2.2753275E-3],"split_indices":[6,6,11,243,157,157,3,452,3,157,0,216,263,308,193,335,296,216,365,342,163,166,162,9,44,264,372,403,0,75,367,0,0,0,0,0,0,0,0,0,0,0,0,0,0,0,0,0,0,0,0,0,0,0,0,0,0,0,0,0,0,0,0],"split_type":[0,0,0,0,0,0,0,0,0,0,0,0,0,0,0,0,0,0,0,0,0,0,0,0,0,0,0,0,0,0,0,0,0,0,0,0,0,0,0,0,0,0,0,0,0,0,0,0,0,0,0,0,0,0,0,0,0,0,0,0,0,0,0],"sum_hessian":[2.286E3,1.661E3,6.25E2,8.02E2,8.59E2,3.7E2,2.55E2,9E1,7.12E2,7.62E2,9.7E1,2.14E2,1.56E2,2.23E2,3.2E1,7E1,2E1,2.54E2,4.58E2,3.01E2,4.61E2,3.6E1,6.1E1,1.38E2,7.6E1,1.8E1,1.38E2,1.23E2,1E2,1.7E1,1.5E1,4E0,6.6E1,5E0,1.5E1,6.9E1,1.85E2,3.77E2,8.1E1,1.08E2,1.93E2,3.43E2,1.18E2,1.6E1,2E1,1.3E1,4.8E1,9E1,4.8E1,4.8E1,2.8E1,1.5E1,3E0,7.9E1,5.9E1,1.01E2,2.2E1,1.8E1,8.2E1,1.4E1,3E0,4E0,1.1E1],"tree_param":{"num_deleted":"0","num_feature":"460","num_nodes":"63","size_leaf_vector":"0"}},{"base_weights":[2.0275614E-3,1.6007265E-2,-3.505745E-2,1.1745905E-2,2.9272335E-2,-2.8664323E-2,-4.4038497E-2,3.61558E-4,2.5216786E-2,4.4873085E-2,2.4169032E-2,-2.510283E-2,-3.317036E-2,-4.0560003E-2,-6.4467445E-2,-3.09057E-4,1.4627123E-3,2.1388289E-2,2.814871E-2,5.860827E-4,5.426942E-2,-7.3748076E-4,3.632861E-2,-2.7492847E-2,-2.0169392E-2,-1.7634343E-2,-3.491593E-2,-3.4034584E-2,-4.7761545E-2,-8.150049E-2,-3.7846107E-2,-4.241339E-5,8.572117E-5,4.1327544E-6,1.4034341E-4,9.7153836E-4,1.204573E-3,1.2994286E-3,1.6463207E-3,2.1002606E-4,-1.0867933E-4,3.7328436E-3,2.008614E-3,3.388502E-5,-1.598547E-4,1.3741949E-3,2.0932937E-3,-1.6097185E-3,-1.0896953E-3,-1.2239249E-3,-7.201472E-4,-9.89862E-4,-3.4696265E-4,-2.090247E-3,-1.4420535E-3,-1.9593942E-3,-9.2059E-4,-1.5152242E-3,-2.691662E-3,-4.8221312E-3,-8.69278E-4,-7.138416E-4,-2.2753275E-3],"categories":[],"categories_nodes":[],"categories_segments":[],"categories_sizes":[],"default_left":[0,0,0,0,0,0,0,0,0,0,0,0,0,0,0,0,0,0,0,0,0,0,0,0,0,0,0,0,0,0,0,0,0,0,0,0,0,0,0,0,0,0,0,0,0,0,0,0,0,0,0,0,0,0,0,0,0,0,0,0,0,0,0],"id":15,"left_children":[1,3,5,7,9,11,13,15,17,19,21,23,25,27,29,31,33,35,37,39,41,43,45,47,49,51,53,55,57,59,61,-1,-1,-1,-1,-1,-1,-1,-1,-1,-1,-1,-1,-1,-1,-1,-1,-1,-1,-1,-1,-1,-1,-1,-1,-1,-1,-1,-1,-1,-1,-1,-1],"loss_changes":[1.1873074E0,9.331718E-2,3.3475757E-2,1.9351853E-1,2.9915899E-2,4.3046176E-3,1.303336E-2,5.074813E-4,5.2838624E-3,4.0301546E-2,9.3332246E-2,1.437828E-3,3.053397E-3,7.322341E-3,9.248078E-3,4.1464934E-4,4.3282053E-4,2.9192865E-4,1.932919E-3,1.8795622E-4,1.6045362E-2,3.3110552E-4,5.2081347E-3,1.6720146E-3,9.245835E-4,1.1086464E-5,2.8737783E-3,5.3023994E-3,3.596276E-3,9.468704E-3,1.0503568E-3,0E0,0E0,0E0,0E0,0E0,0E0,0E0,0E0,0E0,0E0,0E0,0E0,0E0,0E0,0E0,0E0,0E0,0E0,0E0,0E0,0E0,0E0,0E0,0E0,0E0,0E0,0E0,0E0,0E0,0E0,0E0,0E0],"parents":[2147483647,0,0,1,1,2,2,3,3,4,4,5,5,6,6,7,7,8,8,9,9,10,10,11,11,12,12,13,13,14,14,15,15,16,16,17,17,18,18,19,19,20,20,21,21,22,22,23,23,24,24,25,25,26,26,27,27,28,28,29,29,30,30],"right_children":[2,4,6,8,10,12,14,16,18,20,22,24,26,28,30,32,34,36,38,40,42,44,46,48,50,52,54,56,58,60,62,-1,-1,-1,-1,-1,-1,-1,-1,-1,-1,-1,-1,-1,-1,-1,-1,-1,-1,-1,-1,-1,-1,-1,-1,-1,-1,-1,-1,-1,-1,-1,-1],"split_conditions":[2E0,1.857E1,4.1004427E-2,1E0,-2.5762435E-2,1.545E1,6.534081E-2,2.9493037E-1,1.386E1,1E0,1E0,2.5370036E-4,4.518516E-2,2.053E1,9.224087E-1,3.2891252E-3,-2.2753836E-1,6.577537E-2,-2.1558012E-4,-1.0795408E0,-1.1197046E-2,2.0658568E-2,-1.8332617E-1,1.1351028E-2,2.7715704E-1,1.7446492E-2,7.705415E-2,7.1653056E-1,-5.002008E-2,1.3029677E0,-6.387476E-4,-4.241339E-5,8.572117E-5,4.1327544E-6,1.4034341E-4,9.7153836E-4,1.204573E-3,1.2994286E-3,1.6463207E-3,2.1002606E-4,-1.0867933E-4,3.7328436E-3,2.008614E-3,3.388502E-5,-1.598547E-4,1.3741949E-3,2.0932937E-3,-1.6097185E-3,-1.0896953E-3,-1.2239249E-3,-7.201472E-4,-9.89862E-4,-3.4696265E-4,-2.090247E-3,-1.4420535E-3,-1.9593942E-3,-9.2059E-4,-1.5152242E-3,-2.691662E-3,-4.8221312E-3,-8.69278E-4,-7.138416E-4,-2.2753275E-3],"split_indices":[6,157,11,6,311,157,3,68,157,6,6,216,262,308,193,359,25,111,2,355,7,3,333,9,44,264,372,403,0,75,367,0,0,0,0,0,0,0,0,0,0,0,0,0,0,0,0,0,0,0,0,0,0,0,0,0,0,0,0,0,0,0,0],"split_type":[0,0,0,0,0,0,0,0,0,0,0,0,0,0,0,0,0,0,0,0,0,0,0,0,0,0,0,0,0,0,0,0,0,0,0,0,0,0,0,0,0,0,0,0,0,0,0,0,0,0,0,0,0,0,0,0,0,0,0,0,0,0,0],"sum_hessian":[2.286E3,1.661E3,6.25E2,1.26E3,4.01E2,3.7E2,2.55E2,6.84E2,5.76E2,9.5E1,3.06E2,2.14E2,1.56E2,2.23E2,3.2E1,4.26E2,2.58E2,2.57E2,3.19E2,1.7E1,7.8E1,1.01E2,2.05E2,1.38E2,7.6E1,1.8E1,1.38E2,1.23E2,1E2,1.7E1,1.5E1,3.4E2,8.6E1,1.21E2,1.37E2,9.6E1,1.61E2,1.6E2,1.59E2,7E0,1E1,3.5E1,4.3E1,6.4E1,3.7E1,5.6E1,1.49E2,9E1,4.8E1,4.8E1,2.8E1,1.5E1,3E0,7.9E1,5.9E1,1.01E2,2.2E1,1.8E1,8.2E1,1.4E1,3E0,4E0,1.1E1],"tree_param":{"num_deleted":"0","num_feature":"460","num_nodes":"63","size_leaf_vector":"0"}},{"base_weights":[2.0275614E-3,1.6007265E-2,-3.505745E-2,2.2786547E-4,3.0704854E-2,-2.8664323E-2,-4.4038497E-2,2.5252225E-3,-6.879079E-5,2.7574787E-2,5.4239817E-2,-2.510283E-2,-3.317036E-2,-3.5967525E-2,-5.198596E-2,3.6017331E-3,-1.227469E-3,1.0577872E-3,-6.954568E-4,2.1944607E-2,3.1140218E-2,3.330982E-2,6.514236E-2,-2.7492847E-2,-2.0169392E-2,-1.7634343E-2,-3.491593E-2,-2.838534E-2,-4.5214154E-2,-7.336061E-2,-4.6259146E-2,-2.2304963E-4,2.2039663E-4,2.3956511E-4,-1.8224916E-4,1.651519E-4,1.3510724E-5,-5.975946E-5,7.001758E-5,9.854014E-4,1.2387927E-3,1.511335E-3,1.9785617E-3,2.2930873E-3,1.1520033E-3,1.7498545E-3,3.795011E-3,-1.6097185E-3,-1.0896953E-3,-1.2239249E-3,-7.201472E-4,-9.89862E-4,-3.4696265E-4,-2.090247E-3,-1.4420535E-3,-1.7888303E-3,-1.1170302E-3,-2.8944965E-3,-1.4306288E-3,-4.678167E-3,-1.5504743E-3,-1.2673982E-3,-2.5735933E-3],"categories":[],"categories_nodes":[],"categories_segments":[],"categories_sizes":[],"default_left":[0,0,0,0,0,0,0,0,0,0,0,0,0,0,0,0,0,0,0,0,0,0,0,0,0,0,0,0,0,0,0,0,0,0,0,0,0,0,0,0,0,0,0,0,0,0,0,0,0,0,0,0,0,0,0,0,0,0,0,0,0,0,0],"id":16,"left_children":[1,3,5,7,9,11,13,15,17,19,21,23,25,27,29,31,33,35,37,39,41,43,45,47,49,51,53,55,57,59,61,-1,-1,-1,-1,-1,-1,-1,-1,-1,-1,-1,-1,-1,-1,-1,-1,-1,-1,-1,-1,-1,-1,-1,-1,-1,-1,-1,-1,-1,-1,-1,-1],"loss_changes":[1.1873074E0,3.8566753E-1,3.3475757E-2,5.482938E-4,6.0435057E-2,4.3046176E-3,1.2745351E-2,3.805047E-4,5.055468E-4,1.3969839E-2,1.8251061E-2,1.437828E-3,3.053397E-3,6.827876E-3,8.513868E-3,3.6615343E-4,3.1572016E-4,4.2497015E-4,4.130158E-4,6.7329407E-4,5.0852597E-3,2.5453456E-3,9.19649E-3,1.6720146E-3,9.245835E-4,1.1086464E-5,2.8737783E-3,1.7270595E-3,7.0637837E-3,1.0438785E-2,3.7323385E-3,0E0,0E0,0E0,0E0,0E0,0E0,0E0,0E0,0E0,0E0,0E0,0E0,0E0,0E0,0E0,0E0,0E0,0E0,0E0,0E0,0E0,0E0,0E0,0E0,0E0,0E0,0E0,0E0,0E0,0E0,0E0,0E0],"parents":[2147483647,0,0,1,1,2,2,3,3,4,4,5,5,6,6,7,7,8,8,9,9,10,10,11,11,12,12,13,13,14,14,15,15,16,16,17,17,18,18,19,19,20,20,21,21,22,22,23,23,24,24,25,25,26,26,27,27,28,28,29,29,30,30],"right_children":[2,4,6,8,10,12,14,16,18,20,22,24,26,28,30,32,34,36,38,40,42,44,46,48,50,52,54,56,58,60,62,-1,-1,-1,-1,-1,-1,-1,-1,-1,-1,-1,-1,-1,-1,-1,-1,-1,-1,-1,-1,-1,-1,-1,-1,-1,-1,-1,-1,-1,-1,-1,-1],"split_conditions":[2E0,1E0,4.1004427E-2,-1.2459338E0,2.464E1,1.545E1,2.063E1,4.9574074E-1,-1.0576283E-2,1.441E1,-1.587412E-2,2.5370036E-4,4.518516E-2,3.3329016E-1,-4.0701028E-2,-1.4703883E0,-8.7500864E-1,-4.2653995E-4,3.7476642E-3,-5.220192E-1,4.937466E-2,-5.0999494E-3,4.1004427E-2,1.1351028E-2,2.7715704E-1,1.7446492E-2,7.705415E-2,-1.3976565E-1,1.3611069E0,3.371367E-1,-3.8967328E-3,-2.2304963E-4,2.2039663E-4,2.3956511E-4,-1.8224916E-4,1.651519E-4,1.3510724E-5,-5.975946E-5,7.001758E-5,9.854014E-4,1.2387927E-3,1.511335E-3,1.9785617E-3,2.2930873E-3,1.1520033E-3,1.7498545E-3,3.795011E-3,-1.6097185E-3,-1.0896953E-3,-1.2239249E-3,-7.201472E-4,-9.89862E-4,-3.4696265E-4,-2.090247E-3,-1.4420535E-3,-1.7888303E-3,-1.1170302E-3,-2.8944965E-3,-1.4306288E-3,-4.678167E-3,-1.5504743E-3,-1.2673982E-3,-2.5735933E-3],"split_indices":[6,6,11,243,157,157,157,456,3,157,0,216,262,149,266,335,292,216,365,338,162,167,162,9,44,264,372,125,149,72,210,0,0,0,0,0,0,0,0,0,0,0,0,0,0,0,0,0,0,0,0,0,0,0,0,0,0,0,0,0,0,0,0],"split_type":[0,0,0,0,0,0,0,0,0,0,0,0,0,0,0,0,0,0,0,0,0,0,0,0,0,0,0,0,0,0,0,0,0,0,0,0,0,0,0,0,0,0,0,0,0,0,0,0,0,0,0,0,0,0,0,0,0,0,0,0,0,0,0],"sum_hessian":[2.286E3,1.661E3,6.25E2,8.02E2,8.59E2,3.7E2,2.55E2,9E1,7.12E2,7.62E2,9.7E1,2.14E2,1.56E2,1.32E2,1.23E2,7E1,2E1,2.54E2,4.58E2,3.01E2,4.61E2,3.6E1,6.1E1,1.38E2,7.6E1,1.8E1,1.38E2,7.7E1,5.5E1,2.1E1,1.02E2,4E0,6.6E1,5E0,1.5E1,6.9E1,1.85E2,3.77E2,8.1E1,1.08E2,1.93E2,3.43E2,1.18E2,1.6E1,2E1,1.3E1,4.8E1,9E1,4.8E1,4.8E1,2.8E1,1.5E1,3E0,7.9E1,5.9E1,3.9E1,3.8E1,3.3E1,2.2E1,1.4E1,7E0,1.3E1,8.9E1],"tree_param":{"num_deleted":"0","num_feature":"460","num_nodes":"63","size_leaf_vector":"0"}},{"base_weights":[2.0275614E-3,1.6007265E-2,-3.505745E-2,2.2786547E-4,3.0704854E-2,-2.8664323E-2,-4.4038497E-2,2.5252225E-3,-6.879079E-5,2.7574787E-2,5.4239817E-2,-2.510283E-2,-3.317036E-2,-3.5967525E-2,-5.198596E-2,3.6017331E-3,-1.227469E-3,1.0577872E-3,-6.954568E-4,2.338501E-2,3.2171138E-2,3.330982E-2,6.514236E-2,-2.7492847E-2,-2.0169392E-2,-1.7634343E-2,-3.491593E-2,-2.838534E-2,-4.5214154E-2,-7.336061E-2,-4.6259146E-2,-2.2304963E-4,2.2039663E-4,2.3956511E-4,-1.8224916E-4,2.505862E-4,3.42817E-5,-5.975946E-5,7.001758E-5,9.635065E-4,1.2843995E-3,1.5397633E-3,2.0351023E-3,2.2930873E-3,1.1520033E-3,1.7498545E-3,3.795011E-3,-1.6097185E-3,-1.0896953E-3,-1.2239249E-3,-7.201472E-4,-9.89862E-4,-3.4696265E-4,-2.090247E-3,-1.4420535E-3,-1.7888303E-3,-1.1170302E-3,-2.8944965E-3,-1.4306288E-3,-4.678167E-3,-1.5504743E-3,-1.2209559E-3,-2.5664628E-3],"categories":[],"categories_nodes":[],"categories_segments":[],"categories_sizes":[],"default_left":[0,0,0,0,0,0,0,0,0,0,0,0,0,0,0,0,0,0,0,0,0,0,0,0,0,0,0,0,0,0,0,0,0,0,0,0,0,0,0,0,0,0,0,0,0,0,0,0,0,0,0,0,0,0,0,0,0,0,0,0,0,0,0],"id":17,"left_children":[1,3,5,7,9,11,13,15,17,19,21,23,25,27,29,31,33,35,37,39,41,43,45,47,49,51,53,55,57,59,61,-1,-1,-1,-1,-1,-1,-1,-1,-1,-1,-1,-1,-1,-1,-1,-1,-1,-1,-1,-1,-1,-1,-1,-1,-1,-1,-1,-1,-1,-1,-1,-1],"loss_changes":[1.1873074E0,3.8566753E-1,3.3475757E-2,5.482938E-4,6.0435057E-2,4.3046176E-3,1.2745351E-2,3.805047E-4,5.055468E-4,1.32082105E-2,1.8251061E-2,1.437828E-3,3.053397E-3,6.827876E-3,8.513868E-3,3.6615343E-4,3.1572016E-4,3.7912137E-4,4.130158E-4,1.211822E-3,4.5368075E-3,2.5453456E-3,9.19649E-3,1.6720146E-3,9.245835E-4,1.1086464E-5,2.8737783E-3,1.7270595E-3,7.0637837E-3,1.0438785E-2,3.7421882E-3,0E0,0E0,0E0,0E0,0E0,0E0,0E0,0E0,0E0,0E0,0E0,0E0,0E0,0E0,0E0,0E0,0E0,0E0,0E0,0E0,0E0,0E0,0E0,0E0,0E0,0E0,0E0,0E0,0E0,0E0,0E0,0E0],"parents":[2147483647,0,0,1,1,2,2,3,3,4,4,5,5,6,6,7,7,8,8,9,9,10,10,11,11,12,12,13,13,14,14,15,15,16,16,17,17,18,18,19,19,20,20,21,21,22,22,23,23,24,24,25,25,26,26,27,27,28,28,29,29,30,30],"right_children":[2,4,6,8,10,12,14,16,18,20,22,24,26,28,30,32,34,36,38,40,42,44,46,48,50,52,54,56,58,60,62,-1,-1,-1,-1,-1,-1,-1,-1,-1,-1,-1,-1,-1,-1,-1,-1,-1,-1,-1,-1,-1,-1,-1,-1,-1,-1,-1,-1,-1,-1,-1,-1],"split_conditions":[2E0,1E0,4.1004427E-2,-1.2459338E0,2.464E1,1.545E1,2.063E1,4.9574074E-1,-1.0576283E-2,1.593E1,-1.587412E-2,2.5370036E-4,4.518516E-2,3.3329016E-1,-4.0701028E-2,-1.4703883E0,-8.7500864E-1,-1.1944348E0,3.7476642E-3,-9.424963E-1,4.937466E-2,-5.0999494E-3,4.1004427E-2,1.1351028E-2,2.7715704E-1,1.7446492E-2,7.705415E-2,-1.3976565E-1,1.3611069E0,3.371367E-1,-9.7986525E-1,-2.2304963E-4,2.2039663E-4,2.3956511E-4,-1.8224916E-4,2.505862E-4,3.42817E-5,-5.975946E-5,7.001758E-5,9.635065E-4,1.2843995E-3,1.5397633E-3,2.0351023E-3,2.2930873E-3,1.1520033E-3,1.7498545E-3,3.795011E-3,-1.6097185E-3,-1.0896953E-3,-1.2239249E-3,-7.201472E-4,-9.89862E-4,-3.4696265E-4,-2.090247E-3,-1.4420535E-3,-1.7888303E-3,-1.1170302E-3,-2.8944965E-3,-1.4306288E-3,-4.678167E-3,-1.5504743E-3,-1.2209559E-3,-2.5664628E-3],"split_indices":[6,6,11,243,157,157,157,456,3,459,0,216,262,149,266,335,292,352,366,187,162,166,162,9,44,264,372,129,149,68,423,0,0,0,0,0,0,0,0,0,0,0,0,0,0,0,0,0,0,0,0,0,0,0,0,0,0,0,0,0,0,0,0],"split_type":[0,0,0,0,0,0,0,0,0,0,0,0,0,0,0,0,0,0,0,0,0,0,0,0,0,0,0,0,0,0,0,0,0,0,0,0,0,0,0,0,0,0,0,0,0,0,0,0,0,0,0,0,0,0,0,0,0,0,0,0,0,0,0],"sum_hessian":[2.286E3,1.661E3,6.25E2,8.02E2,8.59E2,3.7E2,2.55E2,9E1,7.12E2,7.62E2,9.7E1,2.14E2,1.56E2,1.32E2,1.23E2,7E1,2E1,2.54E2,4.58E2,4.05E2,3.57E2,3.6E1,6.1E1,1.38E2,7.6E1,1.8E1,1.38E2,7.7E1,5.5E1,2.1E1,1.02E2,4E0,6.6E1,5E0,1.5E1,2.3E1,2.31E2,3.77E2,8.1E1,7.4E1,3.31E2,2.54E2,1.03E2,1.6E1,2E1,1.3E1,4.8E1,9E1,4.8E1,4.8E1,2.8E1,1.5E1,3E0,7.9E1,5.9E1,3.9E1,3.8E1,3.3E1,2.2E1,1.4E1,7E0,1.2E1,9E1],"tree_param":{"num_deleted":"0","num_feature":"460","num_nodes":"63","size_leaf_vector":"0"}},{"base_weights":[2.0275614E-3,1.6007265E-2,-3.505745E-2,2.2786547E-4,3.0704854E-2,-2.8664323E-2,-4.4038497E-2,2.296648E-3,-7.9270016E-5,2.7574787E-2,5.4239817E-2,-2.510283E-2,-3.317036E-2,-4.0560003E-2,-6.4467445E-2,-3.2322556E-3,2.8247286E-3,1.2842581E-3,-5.829895E-4,2.1944607E-2,3.1140218E-2,6.514236E-2,3.330982E-2,-2.7492847E-2,-2.0169392E-2,-1.7634343E-2,-3.491593E-2,-3.4034584E-2,-4.7761545E-2,-8.150049E-2,-3.7846107E-2,2.600313E-5,-2.2564996E-4,1.7448951E-4,-1.0827642E-4,1.8377701E-4,2.4609593E-5,-2.0459365E-5,-2.0668677E-4,9.854014E-4,1.2387927E-3,1.511335E-3,1.9785617E-3,1.7498545E-3,3.795011E-3,2.2930873E-3,1.1520033E-3,-1.6097185E-3,-1.0896953E-3,-1.2239249E-3,-7.201472E-4,-9.89862E-4,-3.4696265E-4,-2.090247E-3,-1.4420535E-3,-1.9593942E-3,-9.2059E-4,-1.5152242E-3,-2.691662E-3,-4.8221312E-3,-8.69278E-4,-7.138416E-4,-2.2753275E-3],"categories":[],"categories_nodes":[],"categories_segments":[],"categories_sizes":[],"default_left":[0,0,0,0,0,0,0,0,0,0,0,0,0,0,0,0,0,0,0,0,0,0,0,0,0,0,0,0,0,0,0,0,0,0,0,0,0,0,0,0,0,0,0,0,0,0,0,0,0,0,0,0,0,0,0,0,0,0,0,0,0,0,0],"id":18,"left_children":[1,3,5,7,9,11,13,15,17,19,21,23,25,27,29,31,33,35,37,39,41,43,45,47,49,51,53,55,57,59,61,-1,-1,-1,-1,-1,-1,-1,-1,-1,-1,-1,-1,-1,-1,-1,-1,-1,-1,-1,-1,-1,-1,-1,-1,-1,-1,-1,-1,-1,-1,-1,-1],"loss_changes":[1.1873074E0,3.8566753E-1,3.3475757E-2,5.112229E-4,6.0435057E-2,4.3046176E-3,1.303336E-2,3.2191002E-4,4.8365604E-4,1.3969839E-2,1.8251061E-2,1.437828E-3,3.053397E-3,7.322341E-3,9.248078E-3,4.355253E-5,2.4355738E-4,3.3926967E-4,3.308527E-4,6.7329407E-4,5.0852597E-3,9.19649E-3,2.5453456E-3,1.6720146E-3,9.245835E-4,1.1086464E-5,2.8737783E-3,5.3023994E-3,3.596276E-3,9.468704E-3,1.0503568E-3,0E0,0E0,0E0,0E0,0E0,0E0,0E0,0E0,0E0,0E0,0E0,0E0,0E0,0E0,0E0,0E0,0E0,0E0,0E0,0E0,0E0,0E0,0E0,0E0,0E0,0E0,0E0,0E0,0E0,0E0,0E0,0E0],"parents":[2147483647,0,0,1,1,2,2,3,3,4,4,5,5,6,6,7,7,8,8,9,9,10,10,11,11,12,12,13,13,14,14,15,15,16,16,17,17,18,18,19,19,20,20,21,21,22,22,23,23,24,24,25,25,26,26,27,27,28,28,29,29,30,30],"right_children":[2,4,6,8,10,12,14,16,18,20,22,24,26,28,30,32,34,36,38,40,42,44,46,48,50,52,54,56,58,60,62,-1,-1,-1,-1,-1,-1,-1,-1,-1,-1,-1,-1,-1,-1,-1,-1,-1,-1,-1,-1,-1,-1,-1,-1,-1,-1,-1,-1,-1,-1,-1,-1],"split_conditions":[2E0,1E0,4.1004427E-2,-1.3063418E0,2.464E1,1.545E1,6.534081E-2,-1.3093239E0,-1.643709E-2,1.441E1,1.3853363E-2,2.5370036E-4,4.518516E-2,2.053E1,9.224087E-1,-1.5939234E-2,1.2659701E0,-6.0688786E-4,4.0986903E-2,-5.220192E-1,4.937466E-2,4.1004427E-2,-5.0999494E-3,1.1351028E-2,2.7715704E-1,1.7446492E-2,7.705415E-2,7.1653056E-1,-5.002008E-2,1.3029677E0,-6.387476E-4,2.600313E-5,-2.2564996E-4,1.7448951E-4,-1.0827642E-4,1.8377701E-4,2.4609593E-5,-2.0459365E-5,-2.0668677E-4,9.854014E-4,1.2387927E-3,1.511335E-3,1.9785617E-3,1.7498545E-3,3.795011E-3,2.2930873E-3,1.1520033E-3,-1.6097185E-3,-1.0896953E-3,-1.2239249E-3,-7.201472E-4,-9.89862E-4,-3.4696265E-4,-2.090247E-3,-1.4420535E-3,-1.9593942E-3,-9.2059E-4,-1.5152242E-3,-2.691662E-3,-4.8221312E-3,-8.69278E-4,-7.138416E-4,-2.2753275E-3],"split_indices":[6,6,11,242,157,157,3,339,3,157,7,217,262,308,193,4,200,216,2,342,163,162,166,9,44,264,372,403,0,75,367,0,0,0,0,0,0,0,0,0,0,0,0,0,0,0,0,0,0,0,0,0,0,0,0,0,0,0,0,0,0,0,0],"split_type":[0,0,0,0,0,0,0,0,0,0,0,0,0,0,0,0,0,0,0,0,0,0,0,0,0,0,0,0,0,0,0,0,0,0,0,0,0,0,0,0,0,0,0,0,0,0,0,0,0,0,0,0,0,0,0,0,0,0,0,0,0,0,0],"sum_hessian":[2.286E3,1.661E3,6.25E2,8.02E2,8.59E2,3.7E2,2.55E2,1.02E2,7E2,7.62E2,9.7E1,2.14E2,1.56E2,2.23E2,3.2E1,8E0,9.4E1,1.88E2,5.12E2,3.01E2,4.61E2,6.1E1,3.6E1,1.38E2,7.6E1,1.8E1,1.38E2,1.23E2,1E2,1.7E1,1.5E1,2E0,6E0,8.6E1,8E0,4.9E1,1.39E2,4.86E2,2.6E1,1.08E2,1.93E2,3.43E2,1.18E2,1.3E1,4.8E1,1.6E1,2E1,9E1,4.8E1,4.8E1,2.8E1,1.5E1,3E0,7.9E1,5.9E1,1.01E2,2.2E1,1.8E1,8.2E1,1.4E1,3E0,4E0,1.1E1],"tree_param":{"num_deleted":"0","num_feature":"460","num_nodes":"63","size_leaf_vector":"0"}}]},"name":"gbtree"},"learner_model_param":{"base_score":"0E0","boost_from_average":"0","num_class":"0","num_feature":"460","num_target":"1"},"objective":{"name":"reg:squarederror","reg_loss_param":{"scale_pos_weight":"1"}}},"version":[1,7,4]}