{"learner":{"attributes":{"best_iteration":"0","best_ntree_limit":"41","scikit_learn":"{\"objective\": \"reg:squarederror\", \"max_leaves\": null, \"max_bin\": null, \"grow_policy\": null, \"learning_rate\": 1.0, \"verbosity\": 0, \"booster\": null, \"tree_method\": \"hist\", \"gamma\": null, \"min_child_weight\": null, \"max_delta_step\": null, \"subsample\": 1.0, \"sampling_method\": null, \"colsample_bytree\": null, \"colsample_bylevel\": null, \"colsample_bynode\": 0.8, \"reg_alpha\": null, \"scale_pos_weight\": null, \"base_score\": 0, \"missing\": NaN, \"num_parallel_tree\": null, \"random_state\": null, \"n_jobs\": null, \"monotone_constraints\": null, \"interaction_constraints\": null, \"importance_type\": null, \"gpu_id\": null, \"validate_parameters\": null, \"predictor\": null, \"enable_categorical\": false, \"feature_types\": null, \"max_cat_to_onehot\": null, \"max_cat_threshold\": null, \"eval_metric\": \"mae\", \"early_stopping_rounds\": null, \"callbacks\": null, \"kwargs\": {\"eta\": 0.5691710858941449, \"nthread\": 3}, \"evals_result_\": {\"validation_0\": {\"mae\": [0.0219498446188085]}}, \"_estimator_type\": \"regressor\"}"},"feature_names":[],"feature_types":[],"gradient_booster":{"model":{"gbtree_model_param":{"num_parallel_tree":"41","num_trees":"41","size_leaf_vector":"0"},"tree_info":[0,0,0,0,0,0,0,0,0,0,0,0,0,0,0,0,0,0,0,0,0,0,0,0,0,0,0,0,0,0,0,0,0,0,0,0,0,0,0,0,0],"trees":[{"base_weights":[1.6291833E-3,-1.2711138E-2,2.7549295E-2,-3.0893438E-2,-3.3250533E-3,2.0291101E-2,5.6452826E-2,-1.2091405E-3,-5.840438E-4,-2.1345442E-4,4.91896E-5,3.7158348E-4,6.443665E-4,1.1755018E-3,2.697688E-3],"categories":[],"categories_nodes":[],"categories_segments":[],"categories_sizes":[],"default_left":[0,0,0,0,0,0,0,0,0,0,0,0,0,0,0],"id":0,"left_children":[1,3,5,7,9,11,13,-1,-1,-1,-1,-1,-1,-1,-1],"loss_changes":[8.192113E-1,2.4206471E-1,1.6353768E-1,6.150201E-2,2.7179258E-2,1.9086361E-2,6.487185E-2,0E0,0E0,0E0,0E0,0E0,0E0,0E0,0E0],"parents":[2147483647,0,0,1,1,2,2,3,3,4,4,5,5,6,6],"right_children":[2,4,6,8,10,12,14,-1,-1,-1,-1,-1,-1,-1,-1],"split_conditions":[7.1955286E-3,-1.6754922E-2,3.6376607E-2,-3.8552195E-2,-4.183242E-3,7.9865247E-1,7.347933E-2,-1.2091405E-3,-5.840438E-4,-2.1345442E-4,4.91896E-5,3.7158348E-4,6.443665E-4,1.1755018E-3,2.697688E-3],"split_indices":[13,13,14,13,13,44,13,0,0,0,0,0,0,0,0],"split_type":[0,0,0,0,0,0,0,0,0,0,0,0,0,0,0],"sum_hessian":[2.202E3,1.418E3,7.84E2,4.82E2,9.36E2,6.28E2,1.56E2,1.29E2,3.53E2,4.64E2,4.72E2,3.46E2,2.82E2,1.37E2,1.9E1],"tree_param":{"num_deleted":"0","num_feature":"460","num_nodes":"15","size_leaf_vector":"0"}},{"base_weights":[1.6291833E-3,-1.2711138E-2,2.7549295E-2,-3.0893438E-2,-3.3250533E-3,2.0291101E-2,5.6452826E-2,-1.2091405E-3,-5.840438E-4,-2.1345442E-4,4.91896E-5,3.634E-4,7.168471E-4,1.1755018E-3,2.697688E-3],"categories":[],"categories_nodes":[],"categories_segments":[],"categories_sizes":[],"default_left":[0,0,0,0,0,0,0,0,0,0,0,0,0,0,0],"id":1,"left_children":[1,3,5,7,9,11,13,-1,-1,-1,-1,-1,-1,-1,-1],"loss_changes":[8.192113E-1,2.4206471E-1,1.6353768E-1,6.150201E-2,2.7179258E-2,3.042239E-2,6.487185E-2,0E0,0E0,0E0,0E0,0E0,0E0,0E0,0E0],"parents":[2147483647,0,0,1,1,2,2,3,3,4,4,5,5,6,6],"right_children":[2,4,6,8,10,12,14,-1,-1,-1,-1,-1,-1,-1,-1],"split_conditions":[7.1955286E-3,-1.6754922E-2,3.6376607E-2,-3.8552195E-2,-4.183242E-3,2.14944E-2,7.347933E-2,-1.2091405E-3,-5.840438E-4,-2.1345442E-4,4.91896E-5,3.634E-4,7.168471E-4,1.1755018E-3,2.697688E-3],"split_indices":[13,14,14,13,13,13,13,0,0,0,0,0,0,0,0],"split_type":[0,0,0,0,0,0,0,0,0,0,0,0,0,0,0],"sum_hessian":[2.202E3,1.418E3,7.84E2,4.82E2,9.36E2,6.28E2,1.56E2,1.29E2,3.53E2,4.64E2,4.72E2,3.96E2,2.32E2,1.37E2,1.9E1],"tree_param":{"num_deleted":"0","num_feature":"460","num_nodes":"15","size_leaf_vector":"0"}},{"base_weights":[1.6291833E-3,-1.2711138E-2,2.7549295E-2,-3.0893438E-2,-3.3250533E-3,2.0291101E-2,5.6452826E-2,-1.2091405E-3,-5.840438E-4,-2.1345442E-4,4.91896E-5,3.634E-4,7.168471E-4,1.1600832E-3,2.4752775E-3],"categories":[],"categories_nodes":[],"categories_segments":[],"categories_sizes":[],"default_left":[0,0,0,0,0,0,0,0,0,0,0,0,0,0,0],"id":2,"left_children":[1,3,5,7,9,11,13,-1,-1,-1,-1,-1,-1,-1,-1],"loss_changes":[8.192113E-1,2.4206471E-1,1.6353768E-1,6.150201E-2,2.7179258E-2,3.042239E-2,5.8023453E-2,0E0,0E0,0E0,0E0,0E0,0E0,0E0,0E0],"parents":[2147483647,0,0,1,1,2,2,3,3,4,4,5,5,6,6],"right_children":[2,4,6,8,10,12,14,-1,-1,-1,-1,-1,-1,-1,-1],"split_conditions":[7.1955286E-3,-1.6754922E-2,3.6376607E-2,-3.8552195E-2,-4.183242E-3,2.14944E-2,1.0090906E-1,-1.2091405E-3,-5.840438E-4,-2.1345442E-4,4.91896E-5,3.634E-4,7.168471E-4,1.1600832E-3,2.4752775E-3],"split_indices":[13,14,13,13,13,13,11,0,0,0,0,0,0,0,0],"split_type":[0,0,0,0,0,0,0,0,0,0,0,0,0,0,0],"sum_hessian":[2.202E3,1.418E3,7.84E2,4.82E2,9.36E2,6.28E2,1.56E2,1.29E2,3.53E2,4.64E2,4.72E2,3.96E2,2.32E2,1.32E2,2.4E1],"tree_param":{"num_deleted":"0","num_feature":"460","num_nodes":"15","size_leaf_vector":"0"}},{"base_weights":[1.6291833E-3,-1.2711138E-2,2.7549295E-2,-3.0893438E-2,-3.3250533E-3,2.0291101E-2,5.6452826E-2,-1.2091405E-3,-5.840438E-4,-2.1345442E-4,4.91896E-5,3.634E-4,7.168471E-4,1.1755018E-3,2.697688E-3],"categories":[],"categories_nodes":[],"categories_segments":[],"categories_sizes":[],"default_left":[0,0,0,0,0,0,0,0,0,0,0,0,0,0,0],"id":3,"left_children":[1,3,5,7,9,11,13,-1,-1,-1,-1,-1,-1,-1,-1],"loss_changes":[8.192113E-1,2.4206471E-1,1.6353768E-1,6.150201E-2,2.7179258E-2,3.042239E-2,6.487185E-2,0E0,0E0,0E0,0E0,0E0,0E0,0E0,0E0],"parents":[2147483647,0,0,1,1,2,2,3,3,4,4,5,5,6,6],"right_children":[2,4,6,8,10,12,14,-1,-1,-1,-1,-1,-1,-1,-1],"split_conditions":[7.1955286E-3,-1.6754922E-2,3.6376607E-2,-3.8552195E-2,-4.183242E-3,2.14944E-2,7.347933E-2,-1.2091405E-3,-5.840438E-4,-2.1345442E-4,4.91896E-5,3.634E-4,7.168471E-4,1.1755018E-3,2.697688E-3],"split_indices":[14,13,13,13,13,13,13,0,0,0,0,0,0,0,0],"split_type":[0,0,0,0,0,0,0,0,0,0,0,0,0,0,0],"sum_hessian":[2.202E3,1.418E3,7.84E2,4.82E2,9.36E2,6.28E2,1.56E2,1.29E2,3.53E2,4.64E2,4.72E2,3.96E2,2.32E2,1.37E2,1.9E1],"tree_param":{"num_deleted":"0","num_feature":"460","num_nodes":"15","size_leaf_vector":"0"}},{"base_weights":[1.6291833E-3,-1.2711138E-2,2.7549295E-2,-3.0893438E-2,-3.3250533E-3,2.0291101E-2,5.6452826E-2,-1.2091405E-3,-5.840438E-4,-2.1345442E-4,4.91896E-5,3.634E-4,7.168471E-4,1.1755018E-3,2.697688E-3],"categories":[],"categories_nodes":[],"categories_segments":[],"categories_sizes":[],"default_left":[0,0,0,0,0,0,0,0,0,0,0,0,0,0,0],"id":4,"left_children":[1,3,5,7,9,11,13,-1,-1,-1,-1,-1,-1,-1,-1],"loss_changes":[8.192113E-1,2.4206471E-1,1.6353768E-1,6.150201E-2,2.7179258E-2,3.042239E-2,6.487185E-2,0E0,0E0,0E0,0E0,0E0,0E0,0E0,0E0],"parents":[2147483647,0,0,1,1,2,2,3,3,4,4,5,5,6,6],"right_children":[2,4,6,8,10,12,14,-1,-1,-1,-1,-1,-1,-1,-1],"split_conditions":[7.1955286E-3,-1.6754922E-2,3.6376607E-2,-3.8552195E-2,-4.183242E-3,2.14944E-2,7.347933E-2,-1.2091405E-3,-5.840438E-4,-2.1345442E-4,4.91896E-5,3.634E-4,7.168471E-4,1.1755018E-3,2.697688E-3],"split_indices":[13,13,13,13,13,13,13,0,0,0,0,0,0,0,0],"split_type":[0,0,0,0,0,0,0,0,0,0,0,0,0,0,0],"sum_hessian":[2.202E3,1.418E3,7.84E2,4.82E2,9.36E2,6.28E2,1.56E2,1.29E2,3.53E2,4.64E2,4.72E2,3.96E2,2.32E2,1.37E2,1.9E1],"tree_param":{"num_deleted":"0","num_feature":"460","num_nodes":"15","size_leaf_vector":"0"}},{"base_weights":[1.6291833E-3,-1.2711138E-2,2.7549295E-2,-3.0893438E-2,-3.3250533E-3,2.0291101E-2,5.6452826E-2,-1.2091405E-3,-5.840438E-4,-2.1345442E-4,4.91896E-5,3.634E-4,7.168471E-4,1.1755018E-3,2.697688E-3],"categories":[],"categories_nodes":[],"categories_segments":[],"categories_sizes":[],"default_left":[0,0,0,0,0,0,0,0,0,0,0,0,0,0,0],"id":5,"left_children":[1,3,5,7,9,11,13,-1,-1,-1,-1,-1,-1,-1,-1],"loss_changes":[8.192113E-1,2.4206471E-1,1.6353768E-1,6.150201E-2,2.7179258E-2,3.042239E-2,6.487185E-2,0E0,0E0,0E0,0E0,0E0,0E0,0E0,0E0],"parents":[2147483647,0,0,1,1,2,2,3,3,4,4,5,5,6,6],"right_children":[2,4,6,8,10,12,14,-1,-1,-1,-1,-1,-1,-1,-1],"split_conditions":[7.1955286E-3,-1.6754922E-2,3.6376607E-2,-3.8552195E-2,-4.183242E-3,2.14944E-2,7.347933E-2,-1.2091405E-3,-5.840438E-4,-2.1345442E-4,4.91896E-5,3.634E-4,7.168471E-4,1.1755018E-3,2.697688E-3],"split_indices":[13,14,13,13,13,14,13,0,0,0,0,0,0,0,0],"split_type":[0,0,0,0,0,0,0,0,0,0,0,0,0,0,0],"sum_hessian":[2.202E3,1.418E3,7.84E2,4.82E2,9.36E2,6.28E2,1.56E2,1.29E2,3.53E2,4.64E2,4.72E2,3.96E2,2.32E2,1.37E2,1.9E1],"tree_param":{"num_deleted":"0","num_feature":"460","num_nodes":"15","size_leaf_vector":"0"}},{"base_weights":[1.6291833E-3,-1.2711138E-2,2.7549295E-2,-3.0893438E-2,-3.3250533E-3,2.0291101E-2,5.6452826E-2,-1.2091405E-3,-5.840438E-4,-2.1345442E-4,4.91896E-5,3.634E-4,7.168471E-4,1.1755018E-3,2.697688E-3],"categories":[],"categories_nodes":[],"categories_segments":[],"categories_sizes":[],"default_left":[0,0,0,0,0,0,0,0,0,0,0,0,0,0,0],"id":6,"left_children":[1,3,5,7,9,11,13,-1,-1,-1,-1,-1,-1,-1,-1],"loss_changes":[8.192113E-1,2.4206471E-1,1.6353768E-1,6.150201E-2,2.7179258E-2,3.042239E-2,6.487185E-2,0E0,0E0,0E0,0E0,0E0,0E0,0E0,0E0],"parents":[2147483647,0,0,1,1,2,2,3,3,4,4,5,5,6,6],"right_children":[2,4,6,8,10,12,14,-1,-1,-1,-1,-1,-1,-1,-1],"split_conditions":[7.1955286E-3,-1.6754922E-2,3.6376607E-2,-3.8552195E-2,-4.183242E-3,2.14944E-2,7.347933E-2,-1.2091405E-3,-5.840438E-4,-2.1345442E-4,4.91896E-5,3.634E-4,7.168471E-4,1.1755018E-3,2.697688E-3],"split_indices":[13,13,13,13,14,13,13,0,0,0,0,0,0,0,0],"split_type":[0,0,0,0,0,0,0,0,0,0,0,0,0,0,0],"sum_hessian":[2.202E3,1.418E3,7.84E2,4.82E2,9.36E2,6.28E2,1.56E2,1.29E2,3.53E2,4.64E2,4.72E2,3.96E2,2.32E2,1.37E2,1.9E1],"tree_param":{"num_deleted":"0","num_feature":"460","num_nodes":"15","size_leaf_vector":"0"}},{"base_weights":[1.6291833E-3,-1.2711138E-2,2.7549295E-2,-3.0893438E-2,-3.3250533E-3,2.0291101E-2,5.6452826E-2,-1.2091405E-3,-5.840438E-4,-2.1345442E-4,4.91896E-5,3.634E-4,7.168471E-4,1.1755018E-3,2.697688E-3],"categories":[],"categories_nodes":[],"categories_segments":[],"categories_sizes":[],"default_left":[0,0,0,0,0,0,0,0,0,0,0,0,0,0,0],"id":7,"left_children":[1,3,5,7,9,11,13,-1,-1,-1,-1,-1,-1,-1,-1],"loss_changes":[8.192113E-1,2.4206471E-1,1.6353768E-1,6.150201E-2,2.7179258E-2,3.042239E-2,6.487185E-2,0E0,0E0,0E0,0E0,0E0,0E0,0E0,0E0],"parents":[2147483647,0,0,1,1,2,2,3,3,4,4,5,5,6,6],"right_children":[2,4,6,8,10,12,14,-1,-1,-1,-1,-1,-1,-1,-1],"split_conditions":[7.1955286E-3,-1.6754922E-2,3.6376607E-2,-3.8552195E-2,-4.183242E-3,2.14944E-2,7.347933E-2,-1.2091405E-3,-5.840438E-4,-2.1345442E-4,4.91896E-5,3.634E-4,7.168471E-4,1.1755018E-3,2.697688E-3],"split_indices":[13,13,13,13,13,13,13,0,0,0,0,0,0,0,0],"split_type":[0,0,0,0,0,0,0,0,0,0,0,0,0,0,0],"sum_hessian":[2.202E3,1.418E3,7.84E2,4.82E2,9.36E2,6.28E2,1.56E2,1.29E2,3.53E2,4.64E2,4.72E2,3.96E2,2.32E2,1.37E2,1.9E1],"tree_param":{"num_deleted":"0","num_feature":"460","num_nodes":"15","size_leaf_vector":"0"}},{"base_weights":[1.6291833E-3,-1.2711138E-2,2.7549295E-2,-3.0893438E-2,-3.3250533E-3,2.0291101E-2,5.6452826E-2,-1.2091405E-3,-5.840438E-4,-2.1345442E-4,4.91896E-5,3.7158348E-4,6.443665E-4,1.1755018E-3,2.697688E-3],"categories":[],"categories_nodes":[],"categories_segments":[],"categories_sizes":[],"default_left":[0,0,0,0,0,0,0,0,0,0,0,0,0,0,0],"id":8,"left_children":[1,3,5,7,9,11,13,-1,-1,-1,-1,-1,-1,-1,-1],"loss_changes":[8.192113E-1,2.4206471E-1,1.6353768E-1,6.150201E-2,2.7179258E-2,1.9086361E-2,6.487185E-2,0E0,0E0,0E0,0E0,0E0,0E0,0E0,0E0],"parents":[2147483647,0,0,1,1,2,2,3,3,4,4,5,5,6,6],"right_children":[2,4,6,8,10,12,14,-1,-1,-1,-1,-1,-1,-1,-1],"split_conditions":[7.1955286E-3,-1.6754922E-2,3.6376607E-2,-3.8552195E-2,-4.183242E-3,7.9865247E-1,7.347933E-2,-1.2091405E-3,-5.840438E-4,-2.1345442E-4,4.91896E-5,3.7158348E-4,6.443665E-4,1.1755018E-3,2.697688E-3],"split_indices":[13,13,14,13,14,44,13,0,0,0,0,0,0,0,0],"split_type":[0,0,0,0,0,0,0,0,0,0,0,0,0,0,0],"sum_hessian":[2.202E3,1.418E3,7.84E2,4.82E2,9.36E2,6.28E2,1.56E2,1.29E2,3.53E2,4.64E2,4.72E2,3.46E2,2.82E2,1.37E2,1.9E1],"tree_param":{"num_deleted":"0","num_feature":"460","num_nodes":"15","size_leaf_vector":"0"}},{"base_weights":[1.6291833E-3,-1.2711138E-2,2.7549295E-2,-3.0893438E-2,-3.3250533E-3,2.0291101E-2,5.6452826E-2,-1.2091405E-3,-5.840438E-4,-2.1345442E-4,4.91896E-5,3.634E-4,7.168471E-4,1.1755018E-3,2.697688E-3],"categories":[],"categories_nodes":[],"categories_segments":[],"categories_sizes":[],"default_left":[0,0,0,0,0,0,0,0,0,0,0,0,0,0,0],"id":9,"left_children":[1,3,5,7,9,11,13,-1,-1,-1,-1,-1,-1,-1,-1],"loss_changes":[8.192113E-1,2.4206471E-1,1.6353768E-1,6.150201E-2,2.7179258E-2,3.042239E-2,6.487185E-2,0E0,0E0,0E0,0E0,0E0,0E0,0E0,0E0],"parents":[2147483647,0,0,1,1,2,2,3,3,4,4,5,5,6,6],"right_children":[2,4,6,8,10,12,14,-1,-1,-1,-1,-1,-1,-1,-1],"split_conditions":[7.1955286E-3,-1.6754922E-2,3.6376607E-2,-3.8552195E-2,-4.183242E-3,2.14944E-2,7.347933E-2,-1.2091405E-3,-5.840438E-4,-2.1345442E-4,4.91896E-5,3.634E-4,7.168471E-4,1.1755018E-3,2.697688E-3],"split_indices":[13,13,13,13,13,13,13,0,0,0,0,0,0,0,0],"split_type":[0,0,0,0,0,0,0,0,0,0,0,0,0,0,0],"sum_hessian":[2.202E3,1.418E3,7.84E2,4.82E2,9.36E2,6.28E2,1.56E2,1.29E2,3.53E2,4.64E2,4.72E2,3.96E2,2.32E2,1.37E2,1.9E1],"tree_param":{"num_deleted":"0","num_feature":"460","num_nodes":"15","size_leaf_vector":"0"}},{"base_weights":[1.6291833E-3,-1.2711138E-2,2.7549295E-2,-3.0893438E-2,-3.3250533E-3,2.0291101E-2,5.6452826E-2,-1.2091405E-3,-5.840438E-4,-2.1345442E-4,4.91896E-5,3.634E-4,7.168471E-4,1.1755018E-3,2.697688E-3],"categories":[],"categories_nodes":[],"categories_segments":[],"categories_sizes":[],"default_left":[0,0,0,0,0,0,0,0,0,0,0,0,0,0,0],"id":10,"left_children":[1,3,5,7,9,11,13,-1,-1,-1,-1,-1,-1,-1,-1],"loss_changes":[8.192113E-1,2.4206471E-1,1.6353768E-1,6.150201E-2,2.7179258E-2,3.042239E-2,6.487185E-2,0E0,0E0,0E0,0E0,0E0,0E0,0E0,0E0],"parents":[2147483647,0,0,1,1,2,2,3,3,4,4,5,5,6,6],"right_children":[2,4,6,8,10,12,14,-1,-1,-1,-1,-1,-1,-1,-1],"split_conditions":[7.1955286E-3,-1.6754922E-2,3.6376607E-2,-3.8552195E-2,-4.183242E-3,2.14944E-2,7.347933E-2,-1.2091405E-3,-5.840438E-4,-2.1345442E-4,4.91896E-5,3.634E-4,7.168471E-4,1.1755018E-3,2.697688E-3],"split_indices":[13,13,14,13,13,13,13,0,0,0,0,0,0,0,0],"split_type":[0,0,0,0,0,0,0,0,0,0,0,0,0,0,0],"sum_hessian":[2.202E3,1.418E3,7.84E2,4.82E2,9.36E2,6.28E2,1.56E2,1.29E2,3.53E2,4.64E2,4.72E2,3.96E2,2.32E2,1.37E2,1.9E1],"tree_param":{"num_deleted":"0","num_feature":"460","num_nodes":"15","size_leaf_vector":"0"}},{"base_weights":[1.6291833E-3,-1.2711138E-2,2.7549295E-2,-3.0893438E-2,-3.3250533E-3,2.0291101E-2,5.6452826E-2,-1.2091405E-3,-5.840438E-4,-2.1345442E-4,4.91896E-5,3.634E-4,7.168471E-4,1.1755018E-3,2.697688E-3],"categories":[],"categories_nodes":[],"categories_segments":[],"categories_sizes":[],"default_left":[0,0,0,0,0,0,0,0,0,0,0,0,0,0,0],"id":11,"left_children":[1,3,5,7,9,11,13,-1,-1,-1,-1,-1,-1,-1,-1],"loss_changes":[8.192113E-1,2.4206471E-1,1.6353768E-1,6.150201E-2,2.7179258E-2,3.042239E-2,6.487185E-2,0E0,0E0,0E0,0E0,0E0,0E0,0E0,0E0],"parents":[2147483647,0,0,1,1,2,2,3,3,4,4,5,5,6,6],"right_children":[2,4,6,8,10,12,14,-1,-1,-1,-1,-1,-1,-1,-1],"split_conditions":[7.1955286E-3,-1.6754922E-2,3.6376607E-2,-3.8552195E-2,-4.183242E-3,2.14944E-2,7.347933E-2,-1.2091405E-3,-5.840438E-4,-2.1345442E-4,4.91896E-5,3.634E-4,7.168471E-4,1.1755018E-3,2.697688E-3],"split_indices":[13,13,13,14,13,13,13,0,0,0,0,0,0,0,0],"split_type":[0,0,0,0,0,0,0,0,0,0,0,0,0,0,0],"sum_hessian":[2.202E3,1.418E3,7.84E2,4.82E2,9.36E2,6.28E2,1.56E2,1.29E2,3.53E2,4.64E2,4.72E2,3.96E2,2.32E2,1.37E2,1.9E1],"tree_param":{"num_deleted":"0","num_feature":"460","num_nodes":"15","size_leaf_vector":"0"}},{"base_weights":[1.6291833E-3,-1.2711138E-2,2.7549295E-2,-3.0893438E-2,-3.3250533E-3,2.0291101E-2,5.6452826E-2,-1.2091405E-3,-5.840438E-4,-2.1345442E-4,4.91896E-5,3.634E-4,7.168471E-4,1.1755018E-3,2.697688E-3],"categories":[],"categories_nodes":[],"categories_segments":[],"categories_sizes":[],"default_left":[0,0,0,0,0,0,0,0,0,0,0,0,0,0,0],"id":12,"left_children":[1,3,5,7,9,11,13,-1,-1,-1,-1,-1,-1,-1,-1],"loss_changes":[8.192113E-1,2.4206471E-1,1.6353768E-1,6.150201E-2,2.7179258E-2,3.042239E-2,6.487185E-2,0E0,0E0,0E0,0E0,0E0,0E0,0E0,0E0],"parents":[2147483647,0,0,1,1,2,2,3,3,4,4,5,5,6,6],"right_children":[2,4,6,8,10,12,14,-1,-1,-1,-1,-1,-1,-1,-1],"split_conditions":[7.1955286E-3,-1.6754922E-2,3.6376607E-2,-3.8552195E-2,-4.183242E-3,2.14944E-2,7.347933E-2,-1.2091405E-3,-5.840438E-4,-2.1345442E-4,4.91896E-5,3.634E-4,7.168471E-4,1.1755018E-3,2.697688E-3],"split_indices":[13,13,14,13,13,14,13,0,0,0,0,0,0,0,0],"split_type":[0,0,0,0,0,0,0,0,0,0,0,0,0,0,0],"sum_hessian":[2.202E3,1.418E3,7.84E2,4.82E2,9.36E2,6.28E2,1.56E2,1.29E2,3.53E2,4.64E2,4.72E2,3.96E2,2.32E2,1.37E2,1.9E1],"tree_param":{"num_deleted":"0","num_feature":"460","num_nodes":"15","size_leaf_vector":"0"}},{"base_weights":[1.6291833E-3,-1.2711138E-2,2.7549295E-2,-3.4418978E-2,-6.1791944E-3,2.0291101E-2,5.6452826E-2,-1.2558611E-3,-5.9323374E-4,-4.6872624E-4,-3.1317173E-5,3.634E-4,7.168471E-4,1.1755018E-3,2.697688E-3],"categories":[],"categories_nodes":[],"categories_segments":[],"categories_sizes":[],"default_left":[0,0,0,0,0,0,0,0,0,0,0,0,0,0,0],"id":13,"left_children":[1,3,5,7,9,11,13,-1,-1,-1,-1,-1,-1,-1,-1],"loss_changes":[8.192113E-1,2.0099357E-1,1.6353768E-1,5.528134E-2,6.967369E-2,3.042239E-2,6.487185E-2,0E0,0E0,0E0,0E0,0E0,0E0,0E0,0E0],"parents":[2147483647,0,0,1,1,2,2,3,3,4,4,5,5,6,6],"right_children":[2,4,6,8,10,12,14,-1,-1,-1,-1,-1,-1,-1,-1],"split_conditions":[7.1955286E-3,-1.0607637E0,3.6376607E-2,-3.8552195E-2,-1.2227315E-2,2.14944E-2,7.347933E-2,-1.2558611E-3,-5.9323374E-4,-4.6872624E-4,-3.1317173E-5,3.634E-4,7.168471E-4,1.1755018E-3,2.697688E-3],"split_indices":[13,43,13,14,13,13,13,0,0,0,0,0,0,0,0],"split_type":[0,0,0,0,0,0,0,0,0,0,0,0,0,0,0],"sum_hessian":[2.202E3,1.418E3,7.84E2,3.27E2,1.091E3,6.28E2,1.56E2,1.2E2,2.07E2,2.97E2,7.94E2,3.96E2,2.32E2,1.37E2,1.9E1],"tree_param":{"num_deleted":"0","num_feature":"460","num_nodes":"15","size_leaf_vector":"0"}},{"base_weights":[1.6291833E-3,-1.2711138E-2,2.7549295E-2,-3.0893438E-2,-3.3250533E-3,2.0291101E-2,5.6452826E-2,-1.2091405E-3,-5.840438E-4,-2.1345442E-4,4.91896E-5,3.634E-4,7.168471E-4,1.1755018E-3,2.697688E-3],"categories":[],"categories_nodes":[],"categories_segments":[],"categories_sizes":[],"default_left":[0,0,0,0,0,0,0,0,0,0,0,0,0,0,0],"id":14,"left_children":[1,3,5,7,9,11,13,-1,-1,-1,-1,-1,-1,-1,-1],"loss_changes":[8.192113E-1,2.4206471E-1,1.6353768E-1,6.150201E-2,2.7179258E-2,3.042239E-2,6.487185E-2,0E0,0E0,0E0,0E0,0E0,0E0,0E0,0E0],"parents":[2147483647,0,0,1,1,2,2,3,3,4,4,5,5,6,6],"right_children":[2,4,6,8,10,12,14,-1,-1,-1,-1,-1,-1,-1,-1],"split_conditions":[7.1955286E-3,-1.6754922E-2,3.6376607E-2,-3.8552195E-2,-4.183242E-3,2.14944E-2,7.347933E-2,-1.2091405E-3,-5.840438E-4,-2.1345442E-4,4.91896E-5,3.634E-4,7.168471E-4,1.1755018E-3,2.697688E-3],"split_indices":[13,13,13,14,13,13,13,0,0,0,0,0,0,0,0],"split_type":[0,0,0,0,0,0,0,0,0,0,0,0,0,0,0],"sum_hessian":[2.202E3,1.418E3,7.84E2,4.82E2,9.36E2,6.28E2,1.56E2,1.29E2,3.53E2,4.64E2,4.72E2,3.96E2,2.32E2,1.37E2,1.9E1],"tree_param":{"num_deleted":"0","num_feature":"460","num_nodes":"15","size_leaf_vector":"0"}},{"base_weights":[1.6291833E-3,-1.2711138E-2,2.7549295E-2,-3.0893438E-2,-3.3250533E-3,2.0291101E-2,5.6452826E-2,-1.2091405E-3,-5.840438E-4,-2.1345442E-4,4.91896E-5,3.634E-4,7.168471E-4,1.1600832E-3,2.4752775E-3],"categories":[],"categories_nodes":[],"categories_segments":[],"categories_sizes":[],"default_left":[0,0,0,0,0,0,0,0,0,0,0,0,0,0,0],"id":15,"left_children":[1,3,5,7,9,11,13,-1,-1,-1,-1,-1,-1,-1,-1],"loss_changes":[8.192113E-1,2.4206471E-1,1.6353768E-1,6.150201E-2,2.7179258E-2,3.042239E-2,5.8023453E-2,0E0,0E0,0E0,0E0,0E0,0E0,0E0,0E0],"parents":[2147483647,0,0,1,1,2,2,3,3,4,4,5,5,6,6],"right_children":[2,4,6,8,10,12,14,-1,-1,-1,-1,-1,-1,-1,-1],"split_conditions":[7.1955286E-3,-1.6754922E-2,3.6376607E-2,-3.8552195E-2,-4.183242E-3,2.14944E-2,1.0090906E-1,-1.2091405E-3,-5.840438E-4,-2.1345442E-4,4.91896E-5,3.634E-4,7.168471E-4,1.1600832E-3,2.4752775E-3],"split_indices":[13,14,13,13,13,13,11,0,0,0,0,0,0,0,0],"split_type":[0,0,0,0,0,0,0,0,0,0,0,0,0,0,0],"sum_hessian":[2.202E3,1.418E3,7.84E2,4.82E2,9.36E2,6.28E2,1.56E2,1.29E2,3.53E2,4.64E2,4.72E2,3.96E2,2.32E2,1.32E2,2.4E1],"tree_param":{"num_deleted":"0","num_feature":"460","num_nodes":"15","size_leaf_vector":"0"}},{"base_weights":[1.6291833E-3,-1.2711138E-2,2.7549295E-2,-3.0893438E-2,-3.3250533E-3,2.0291101E-2,5.6452826E-2,-1.2091405E-3,-5.840438E-4,-2.1345442E-4,4.91896E-5,3.634E-4,7.168471E-4,1.1755018E-3,2.697688E-3],"categories":[],"categories_nodes":[],"categories_segments":[],"categories_sizes":[],"default_left":[0,0,0,0,0,0,0,0,0,0,0,0,0,0,0],"id":16,"left_children":[1,3,5,7,9,11,13,-1,-1,-1,-1,-1,-1,-1,-1],"loss_changes":[8.192113E-1,2.4206471E-1,1.6353768E-1,6.150201E-2,2.7179258E-2,3.042239E-2,6.487185E-2,0E0,0E0,0E0,0E0,0E0,0E0,0E0,0E0],"parents":[2147483647,0,0,1,1,2,2,3,3,4,4,5,5,6,6],"right_children":[2,4,6,8,10,12,14,-1,-1,-1,-1,-1,-1,-1,-1],"split_conditions":[7.1955286E-3,-1.6754922E-2,3.6376607E-2,-3.8552195E-2,-4.183242E-3,2.14944E-2,7.347933E-2,-1.2091405E-3,-5.840438E-4,-2.1345442E-4,4.91896E-5,3.634E-4,7.168471E-4,1.1755018E-3,2.697688E-3],"split_indices":[13,13,14,13,13,14,13,0,0,0,0,0,0,0,0],"split_type":[0,0,0,0,0,0,0,0,0,0,0,0,0,0,0],"sum_hessian":[2.202E3,1.418E3,7.84E2,4.82E2,9.36E2,6.28E2,1.56E2,1.29E2,3.53E2,4.64E2,4.72E2,3.96E2,2.32E2,1.37E2,1.9E1],"tree_param":{"num_deleted":"0","num_feature":"460","num_nodes":"15","size_leaf_vector":"0"}},{"base_weights":[1.6291833E-3,-1.2711138E-2,2.7549295E-2,-3.0893438E-2,-3.3250533E-3,2.0291101E-2,5.6452826E-2,-1.2091405E-3,-5.840438E-4,-2.1345442E-4,4.91896E-5,3.634E-4,7.168471E-4,1.1755018E-3,2.697688E-3],"categories":[],"categories_nodes":[],"categories_segments":[],"categories_sizes":[],"default_left":[0,0,0,0,0,0,0,0,0,0,0,0,0,0,0],"id":17,"left_children":[1,3,5,7,9,11,13,-1,-1,-1,-1,-1,-1,-1,-1],"loss_changes":[8.192113E-1,2.4206471E-1,1.6353768E-1,6.150201E-2,2.7179258E-2,3.042239E-2,6.487185E-2,0E0,0E0,0E0,0E0,0E0,0E0,0E0,0E0],"parents":[2147483647,0,0,1,1,2,2,3,3,4,4,5,5,6,6],"right_children":[2,4,6,8,10,12,14,-1,-1,-1,-1,-1,-1,-1,-1],"split_conditions":[7.1955286E-3,-1.6754922E-2,3.6376607E-2,-3.8552195E-2,-4.183242E-3,2.14944E-2,7.347933E-2,-1.2091405E-3,-5.840438E-4,-2.1345442E-4,4.91896E-5,3.634E-4,7.168471E-4,1.1755018E-3,2.697688E-3],"split_indices":[13,13,13,13,13,13,13,0,0,0,0,0,0,0,0],"split_type":[0,0,0,0,0,0,0,0,0,0,0,0,0,0,0],"sum_hessian":[2.202E3,1.418E3,7.84E2,4.82E2,9.36E2,6.28E2,1.56E2,1.29E2,3.53E2,4.64E2,4.72E2,3.96E2,2.32E2,1.37E2,1.9E1],"tree_param":{"num_deleted":"0","num_feature":"460","num_nodes":"15","size_leaf_vector":"0"}},{"base_weights":[1.6291833E-3,-1.2711138E-2,2.7549295E-2,-3.0893438E-2,-3.3250533E-3,2.0291101E-2,5.6452826E-2,-1.2091405E-3,-5.840438E-4,-2.1345442E-4,4.91896E-5,3.634E-4,7.168471E-4,1.1755018E-3,2.697688E-3],"categories":[],"categories_nodes":[],"categories_segments":[],"categories_sizes":[],"default_left":[0,0,0,0,0,0,0,0,0,0,0,0,0,0,0],"id":18,"left_children":[1,3,5,7,9,11,13,-1,-1,-1,-1,-1,-1,-1,-1],"loss_changes":[8.192113E-1,2.4206471E-1,1.6353768E-1,6.150201E-2,2.7179258E-2,3.042239E-2,6.487185E-2,0E0,0E0,0E0,0E0,0E0,0E0,0E0,0E0],"parents":[2147483647,0,0,1,1,2,2,3,3,4,4,5,5,6,6],"right_children":[2,4,6,8,10,12,14,-1,-1,-1,-1,-1,-1,-1,-1],"split_conditions":[7.1955286E-3,-1.6754922E-2,3.6376607E-2,-3.8552195E-2,-4.183242E-3,2.14944E-2,7.347933E-2,-1.2091405E-3,-5.840438E-4,-2.1345442E-4,4.91896E-5,3.634E-4,7.168471E-4,1.1755018E-3,2.697688E-3],"split_indices":[13,13,13,13,13,13,13,0,0,0,0,0,0,0,0],"split_type":[0,0,0,0,0,0,0,0,0,0,0,0,0,0,0],"sum_hessian":[2.202E3,1.418E3,7.84E2,4.82E2,9.36E2,6.28E2,1.56E2,1.29E2,3.53E2,4.64E2,4.72E2,3.96E2,2.32E2,1.37E2,1.9E1],"tree_param":{"num_deleted":"0","num_feature":"460","num_nodes":"15","size_leaf_vector":"0"}},{"base_weights":[1.6291833E-3,-1.2711138E-2,2.7549295E-2,-3.0893438E-2,-3.3250533E-3,2.0291101E-2,5.6452826E-2,-1.2091405E-3,-5.840438E-4,-2.1345442E-4,4.91896E-5,3.634E-4,7.168471E-4,1.1755018E-3,2.697688E-3],"categories":[],"categories_nodes":[],"categories_segments":[],"categories_sizes":[],"default_left":[0,0,0,0,0,0,0,0,0,0,0,0,0,0,0],"id":19,"left_children":[1,3,5,7,9,11,13,-1,-1,-1,-1,-1,-1,-1,-1],"loss_changes":[8.192113E-1,2.4206471E-1,1.6353768E-1,6.150201E-2,2.7179258E-2,3.042239E-2,6.487185E-2,0E0,0E0,0E0,0E0,0E0,0E0,0E0,0E0],"parents":[2147483647,0,0,1,1,2,2,3,3,4,4,5,5,6,6],"right_children":[2,4,6,8,10,12,14,-1,-1,-1,-1,-1,-1,-1,-1],"split_conditions":[7.1955286E-3,-1.6754922E-2,3.6376607E-2,-3.8552195E-2,-4.183242E-3,2.14944E-2,7.347933E-2,-1.2091405E-3,-5.840438E-4,-2.1345442E-4,4.91896E-5,3.634E-4,7.168471E-4,1.1755018E-3,2.697688E-3],"split_indices":[13,13,13,13,13,13,13,0,0,0,0,0,0,0,0],"split_type":[0,0,0,0,0,0,0,0,0,0,0,0,0,0,0],"sum_hessian":[2.202E3,1.418E3,7.84E2,4.82E2,9.36E2,6.28E2,1.56E2,1.29E2,3.53E2,4.64E2,4.72E2,3.96E2,2.32E2,1.37E2,1.9E1],"tree_param":{"num_deleted":"0","num_feature":"460","num_nodes":"15","size_leaf_vector":"0"}},{"base_weights":[1.6291833E-3,-1.2711138E-2,2.7549295E-2,-3.0893438E-2,-3.3250533E-3,2.0291101E-2,5.6452826E-2,-1.2091405E-3,-5.840438E-4,-2.1345442E-4,4.91896E-5,3.634E-4,7.168471E-4,1.1755018E-3,2.697688E-3],"categories":[],"categories_nodes":[],"categories_segments":[],"categories_sizes":[],"default_left":[0,0,0,0,0,0,0,0,0,0,0,0,0,0,0],"id":20,"left_children":[1,3,5,7,9,11,13,-1,-1,-1,-1,-1,-1,-1,-1],"loss_changes":[8.192113E-1,2.4206471E-1,1.6353768E-1,6.150201E-2,2.7179258E-2,3.042239E-2,6.487185E-2,0E0,0E0,0E0,0E0,0E0,0E0,0E0,0E0],"parents":[2147483647,0,0,1,1,2,2,3,3,4,4,5,5,6,6],"right_children":[2,4,6,8,10,12,14,-1,-1,-1,-1,-1,-1,-1,-1],"split_conditions":[7.1955286E-3,-1.6754922E-2,3.6376607E-2,-3.8552195E-2,-4.183242E-3,2.14944E-2,7.347933E-2,-1.2091405E-3,-5.840438E-4,-2.1345442E-4,4.91896E-5,3.634E-4,7.168471E-4,1.1755018E-3,2.697688E-3],"split_indices":[13,13,13,13,13,13,13,0,0,0,0,0,0,0,0],"split_type":[0,0,0,0,0,0,0,0,0,0,0,0,0,0,0],"sum_hessian":[2.202E3,1.418E3,7.84E2,4.82E2,9.36E2,6.28E2,1.56E2,1.29E2,3.53E2,4.64E2,4.72E2,3.96E2,2.32E2,1.37E2,1.9E1],"tree_param":{"num_deleted":"0","num_feature":"460","num_nodes":"15","size_leaf_vector":"0"}},{"base_weights":[1.6291833E-3,-1.2711138E-2,2.7549295E-2,-3.0893438E-2,-3.3250533E-3,2.0291101E-2,5.6452826E-2,-1.2091405E-3,-5.840438E-4,-2.1345442E-4,4.91896E-5,3.634E-4,7.168471E-4,1.1755018E-3,2.697688E-3],"categories":[],"categories_nodes":[],"categories_segments":[],"categories_sizes":[],"default_left":[0,0,0,0,0,0,0,0,0,0,0,0,0,0,0],"id":21,"left_children":[1,3,5,7,9,11,13,-1,-1,-1,-1,-1,-1,-1,-1],"loss_changes":[8.192113E-1,2.4206471E-1,1.6353768E-1,6.150201E-2,2.7179258E-2,3.042239E-2,6.487185E-2,0E0,0E0,0E0,0E0,0E0,0E0,0E0,0E0],"parents":[2147483647,0,0,1,1,2,2,3,3,4,4,5,5,6,6],"right_children":[2,4,6,8,10,12,14,-1,-1,-1,-1,-1,-1,-1,-1],"split_conditions":[7.1955286E-3,-1.6754922E-2,3.6376607E-2,-3.8552195E-2,-4.183242E-3,2.14944E-2,7.347933E-2,-1.2091405E-3,-5.840438E-4,-2.1345442E-4,4.91896E-5,3.634E-4,7.168471E-4,1.1755018E-3,2.697688E-3],"split_indices":[13,13,13,13,14,13,13,0,0,0,0,0,0,0,0],"split_type":[0,0,0,0,0,0,0,0,0,0,0,0,0,0,0],"sum_hessian":[2.202E3,1.418E3,7.84E2,4.82E2,9.36E2,6.28E2,1.56E2,1.29E2,3.53E2,4.64E2,4.72E2,3.96E2,2.32E2,1.37E2,1.9E1],"tree_param":{"num_deleted":"0","num_feature":"460","num_nodes":"15","size_leaf_vector":"0"}},{"base_weights":[1.6291833E-3,-1.2711138E-2,2.7549295E-2,-3.0893438E-2,-3.3250533E-3,2.0291101E-2,5.6452826E-2,-1.2091405E-3,-5.840438E-4,-2.1345442E-4,4.91896E-5,3.634E-4,7.168471E-4,1.1755018E-3,2.697688E-3],"categories":[],"categories_nodes":[],"categories_segments":[],"categories_sizes":[],"default_left":[0,0,0,0,0,0,0,0,0,0,0,0,0,0,0],"id":22,"left_children":[1,3,5,7,9,11,13,-1,-1,-1,-1,-1,-1,-1,-1],"loss_changes":[8.192113E-1,2.4206471E-1,1.6353768E-1,6.150201E-2,2.7179258E-2,3.042239E-2,6.487185E-2,0E0,0E0,0E0,0E0,0E0,0E0,0E0,0E0],"parents":[2147483647,0,0,1,1,2,2,3,3,4,4,5,5,6,6],"right_children":[2,4,6,8,10,12,14,-1,-1,-1,-1,-1,-1,-1,-1],"split_conditions":[7.1955286E-3,-1.6754922E-2,3.6376607E-2,-3.8552195E-2,-4.183242E-3,2.14944E-2,7.347933E-2,-1.2091405E-3,-5.840438E-4,-2.1345442E-4,4.91896E-5,3.634E-4,7.168471E-4,1.1755018E-3,2.697688E-3],"split_indices":[13,13,13,13,14,13,13,0,0,0,0,0,0,0,0],"split_type":[0,0,0,0,0,0,0,0,0,0,0,0,0,0,0],"sum_hessian":[2.202E3,1.418E3,7.84E2,4.82E2,9.36E2,6.28E2,1.56E2,1.29E2,3.53E2,4.64E2,4.72E2,3.96E2,2.32E2,1.37E2,1.9E1],"tree_param":{"num_deleted":"0","num_feature":"460","num_nodes":"15","size_leaf_vector":"0"}},{"base_weights":[1.6291833E-3,-1.2711138E-2,2.7549295E-2,-3.0893438E-2,-3.3250533E-3,2.0291101E-2,5.6452826E-2,-1.2091405E-3,-5.840438E-4,-2.1345442E-4,4.91896E-5,3.634E-4,7.168471E-4,1.1755018E-3,2.697688E-3],"categories":[],"categories_nodes":[],"categories_segments":[],"categories_sizes":[],"default_left":[0,0,0,0,0,0,0,0,0,0,0,0,0,0,0],"id":23,"left_children":[1,3,5,7,9,11,13,-1,-1,-1,-1,-1,-1,-1,-1],"loss_changes":[8.192113E-1,2.4206471E-1,1.6353768E-1,6.150201E-2,2.7179258E-2,3.042239E-2,6.487185E-2,0E0,0E0,0E0,0E0,0E0,0E0,0E0,0E0],"parents":[2147483647,0,0,1,1,2,2,3,3,4,4,5,5,6,6],"right_children":[2,4,6,8,10,12,14,-1,-1,-1,-1,-1,-1,-1,-1],"split_conditions":[7.1955286E-3,-1.6754922E-2,3.6376607E-2,-3.8552195E-2,-4.183242E-3,2.14944E-2,7.347933E-2,-1.2091405E-3,-5.840438E-4,-2.1345442E-4,4.91896E-5,3.634E-4,7.168471E-4,1.1755018E-3,2.697688E-3],"split_indices":[13,13,13,13,13,13,14,0,0,0,0,0,0,0,0],"split_type":[0,0,0,0,0,0,0,0,0,0,0,0,0,0,0],"sum_hessian":[2.202E3,1.418E3,7.84E2,4.82E2,9.36E2,6.28E2,1.56E2,1.29E2,3.53E2,4.64E2,4.72E2,3.96E2,2.32E2,1.37E2,1.9E1],"tree_param":{"num_deleted":"0","num_feature":"460","num_nodes":"15","size_leaf_vector":"0"}},{"base_weights":[1.6291833E-3,-1.2711138E-2,2.7549295E-2,-3.0893438E-2,-3.3250533E-3,2.0291101E-2,5.6452826E-2,-1.2091405E-3,-5.840438E-4,-2.1345442E-4,4.91896E-5,3.634E-4,7.168471E-4,1.1755018E-3,2.697688E-3],"categories":[],"categories_nodes":[],"categories_segments":[],"categories_sizes":[],"default_left":[0,0,0,0,0,0,0,0,0,0,0,0,0,0,0],"id":24,"left_children":[1,3,5,7,9,11,13,-1,-1,-1,-1,-1,-1,-1,-1],"loss_changes":[8.192113E-1,2.4206471E-1,1.6353768E-1,6.150201E-2,2.7179258E-2,3.042239E-2,6.487185E-2,0E0,0E0,0E0,0E0,0E0,0E0,0E0,0E0],"parents":[2147483647,0,0,1,1,2,2,3,3,4,4,5,5,6,6],"right_children":[2,4,6,8,10,12,14,-1,-1,-1,-1,-1,-1,-1,-1],"split_conditions":[7.1955286E-3,-1.6754922E-2,3.6376607E-2,-3.8552195E-2,-4.183242E-3,2.14944E-2,7.347933E-2,-1.2091405E-3,-5.840438E-4,-2.1345442E-4,4.91896E-5,3.634E-4,7.168471E-4,1.1755018E-3,2.697688E-3],"split_indices":[13,13,13,13,13,13,13,0,0,0,0,0,0,0,0],"split_type":[0,0,0,0,0,0,0,0,0,0,0,0,0,0,0],"sum_hessian":[2.202E3,1.418E3,7.84E2,4.82E2,9.36E2,6.28E2,1.56E2,1.29E2,3.53E2,4.64E2,4.72E2,3.96E2,2.32E2,1.37E2,1.9E1],"tree_param":{"num_deleted":"0","num_feature":"460","num_nodes":"15","size_leaf_vector":"0"}},{"base_weights":[1.6291833E-3,-1.2711138E-2,2.7549295E-2,-3.0893438E-2,-3.3250533E-3,2.0291101E-2,5.6452826E-2,-1.2091405E-3,-5.840438E-4,-2.1345442E-4,4.91896E-5,3.634E-4,7.168471E-4,1.1755018E-3,2.697688E-3],"categories":[],"categories_nodes":[],"categories_segments":[],"categories_sizes":[],"default_left":[0,0,0,0,0,0,0,0,0,0,0,0,0,0,0],"id":25,"left_children":[1,3,5,7,9,11,13,-1,-1,-1,-1,-1,-1,-1,-1],"loss_changes":[8.192113E-1,2.4206471E-1,1.6353768E-1,6.150201E-2,2.7179258E-2,3.042239E-2,6.487185E-2,0E0,0E0,0E0,0E0,0E0,0E0,0E0,0E0],"parents":[2147483647,0,0,1,1,2,2,3,3,4,4,5,5,6,6],"right_children":[2,4,6,8,10,12,14,-1,-1,-1,-1,-1,-1,-1,-1],"split_conditions":[7.1955286E-3,-1.6754922E-2,3.6376607E-2,-3.8552195E-2,-4.183242E-3,2.14944E-2,7.347933E-2,-1.2091405E-3,-5.840438E-4,-2.1345442E-4,4.91896E-5,3.634E-4,7.168471E-4,1.1755018E-3,2.697688E-3],"split_indices":[13,13,13,13,13,13,13,0,0,0,0,0,0,0,0],"split_type":[0,0,0,0,0,0,0,0,0,0,0,0,0,0,0],"sum_hessian":[2.202E3,1.418E3,7.84E2,4.82E2,9.36E2,6.28E2,1.56E2,1.29E2,3.53E2,4.64E2,4.72E2,3.96E2,2.32E2,1.37E2,1.9E1],"tree_param":{"num_deleted":"0","num_feature":"460","num_nodes":"15","size_leaf_vector":"0"}},{"base_weights":[1.6291833E-3,-1.2711138E-2,2.7549295E-2,-3.0893438E-2,-3.3250533E-3,2.0291101E-2,5.6452826E-2,-1.2091405E-3,-5.840438E-4,-2.1345442E-4,4.91896E-5,3.634E-4,7.168471E-4,1.1755018E-3,2.697688E-3],"categories":[],"categories_nodes":[],"categories_segments":[],"categories_sizes":[],"default_left":[0,0,0,0,0,0,0,0,0,0,0,0,0,0,0],"id":26,"left_children":[1,3,5,7,9,11,13,-1,-1,-1,-1,-1,-1,-1,-1],"loss_changes":[8.192113E-1,2.4206471E-1,1.6353768E-1,6.150201E-2,2.7179258E-2,3.042239E-2,6.487185E-2,0E0,0E0,0E0,0E0,0E0,0E0,0E0,0E0],"parents":[2147483647,0,0,1,1,2,2,3,3,4,4,5,5,6,6],"right_children":[2,4,6,8,10,12,14,-1,-1,-1,-1,-1,-1,-1,-1],"split_conditions":[7.1955286E-3,-1.6754922E-2,3.6376607E-2,-3.8552195E-2,-4.183242E-3,2.14944E-2,7.347933E-2,-1.2091405E-3,-5.840438E-4,-2.1345442E-4,4.91896E-5,3.634E-4,7.168471E-4,1.1755018E-3,2.697688E-3],"split_indices":[13,13,13,13,13,13,14,0,0,0,0,0,0,0,0],"split_type":[0,0,0,0,0,0,0,0,0,0,0,0,0,0,0],"sum_hessian":[2.202E3,1.418E3,7.84E2,4.82E2,9.36E2,6.28E2,1.56E2,1.29E2,3.53E2,4.64E2,4.72E2,3.96E2,2.32E2,1.37E2,1.9E1],"tree_param":{"num_deleted":"0","num_feature":"460","num_nodes":"15","size_leaf_vector":"0"}},{"base_weights":[1.6291833E-3,-1.2711138E-2,2.7549295E-2,-3.0893438E-2,-3.3250533E-3,2.0291101E-2,5.6452826E-2,-1.2091405E-3,-5.840438E-4,-2.1345442E-4,4.91896E-5,3.634E-4,7.168471E-4,1.1755018E-3,2.697688E-3],"categories":[],"categories_nodes":[],"categories_segments":[],"categories_sizes":[],"default_left":[0,0,0,0,0,0,0,0,0,0,0,0,0,0,0],"id":27,"left_children":[1,3,5,7,9,11,13,-1,-1,-1,-1,-1,-1,-1,-1],"loss_changes":[8.192113E-1,2.4206471E-1,1.6353768E-1,6.150201E-2,2.7179258E-2,3.042239E-2,6.487185E-2,0E0,0E0,0E0,0E0,0E0,0E0,0E0,0E0],"parents":[2147483647,0,0,1,1,2,2,3,3,4,4,5,5,6,6],"right_children":[2,4,6,8,10,12,14,-1,-1,-1,-1,-1,-1,-1,-1],"split_conditions":[7.1955286E-3,-1.6754922E-2,3.6376607E-2,-3.8552195E-2,-4.183242E-3,2.14944E-2,7.347933E-2,-1.2091405E-3,-5.840438E-4,-2.1345442E-4,4.91896E-5,3.634E-4,7.168471E-4,1.1755018E-3,2.697688E-3],"split_indices":[13,14,13,13,13,13,13,0,0,0,0,0,0,0,0],"split_type":[0,0,0,0,0,0,0,0,0,0,0,0,0,0,0],"sum_hessian":[2.202E3,1.418E3,7.84E2,4.82E2,9.36E2,6.28E2,1.56E2,1.29E2,3.53E2,4.64E2,4.72E2,3.96E2,2.32E2,1.37E2,1.9E1],"tree_param":{"num_deleted":"0","num_feature":"460","num_nodes":"15","size_leaf_vector":"0"}},{"base_weights":[1.6291833E-3,-1.2711138E-2,2.7549295E-2,-3.0893438E-2,-3.3250533E-3,2.0291101E-2,5.6452826E-2,-1.2091405E-3,-5.840438E-4,-2.1345442E-4,4.91896E-5,3.634E-4,7.168471E-4,1.1755018E-3,2.697688E-3],"categories":[],"categories_nodes":[],"categories_segments":[],"categories_sizes":[],"default_left":[0,0,0,0,0,0,0,0,0,0,0,0,0,0,0],"id":28,"left_children":[1,3,5,7,9,11,13,-1,-1,-1,-1,-1,-1,-1,-1],"loss_changes":[8.192113E-1,2.4206471E-1,1.6353768E-1,6.150201E-2,2.7179258E-2,3.042239E-2,6.487185E-2,0E0,0E0,0E0,0E0,0E0,0E0,0E0,0E0],"parents":[2147483647,0,0,1,1,2,2,3,3,4,4,5,5,6,6],"right_children":[2,4,6,8,10,12,14,-1,-1,-1,-1,-1,-1,-1,-1],"split_conditions":[7.1955286E-3,-1.6754922E-2,3.6376607E-2,-3.8552195E-2,-4.183242E-3,2.14944E-2,7.347933E-2,-1.2091405E-3,-5.840438E-4,-2.1345442E-4,4.91896E-5,3.634E-4,7.168471E-4,1.1755018E-3,2.697688E-3],"split_indices":[13,14,14,14,13,13,13,0,0,0,0,0,0,0,0],"split_type":[0,0,0,0,0,0,0,0,0,0,0,0,0,0,0],"sum_hessian":[2.202E3,1.418E3,7.84E2,4.82E2,9.36E2,6.28E2,1.56E2,1.29E2,3.53E2,4.64E2,4.72E2,3.96E2,2.32E2,1.37E2,1.9E1],"tree_param":{"num_deleted":"0","num_feature":"460","num_nodes":"15","size_leaf_vector":"0"}},{"base_weights":[1.6291833E-3,-1.2711138E-2,2.7549295E-2,-3.4418978E-2,-6.1791944E-3,2.0291101E-2,5.6452826E-2,-1.2558611E-3,-5.9323374E-4,-4.6872624E-4,-3.1317173E-5,3.634E-4,7.168471E-4,1.1755018E-3,2.697688E-3],"categories":[],"categories_nodes":[],"categories_segments":[],"categories_sizes":[],"default_left":[0,0,0,0,0,0,0,0,0,0,0,0,0,0,0],"id":29,"left_children":[1,3,5,7,9,11,13,-1,-1,-1,-1,-1,-1,-1,-1],"loss_changes":[8.192113E-1,2.0099357E-1,1.6353768E-1,5.528134E-2,6.967369E-2,3.042239E-2,6.487185E-2,0E0,0E0,0E0,0E0,0E0,0E0,0E0,0E0],"parents":[2147483647,0,0,1,1,2,2,3,3,4,4,5,5,6,6],"right_children":[2,4,6,8,10,12,14,-1,-1,-1,-1,-1,-1,-1,-1],"split_conditions":[7.1955286E-3,-1.0607637E0,3.6376607E-2,-3.8552195E-2,-1.2227315E-2,2.14944E-2,7.347933E-2,-1.2558611E-3,-5.9323374E-4,-4.6872624E-4,-3.1317173E-5,3.634E-4,7.168471E-4,1.1755018E-3,2.697688E-3],"split_indices":[14,47,13,13,13,13,14,0,0,0,0,0,0,0,0],"split_type":[0,0,0,0,0,0,0,0,0,0,0,0,0,0,0],"sum_hessian":[2.202E3,1.418E3,7.84E2,3.27E2,1.091E3,6.28E2,1.56E2,1.2E2,2.07E2,2.97E2,7.94E2,3.96E2,2.32E2,1.37E2,1.9E1],"tree_param":{"num_deleted":"0","num_feature":"460","num_nodes":"15","size_leaf_vector":"0"}},{"base_weights":[1.6291833E-3,-1.2711138E-2,2.7549295E-2,-3.0893438E-2,-3.3250533E-3,2.0291101E-2,5.6452826E-2,-1.2091405E-3,-5.840438E-4,-2.1345442E-4,4.91896E-5,3.634E-4,7.168471E-4,1.1755018E-3,2.697688E-3],"categories":[],"categories_nodes":[],"categories_segments":[],"categories_sizes":[],"default_left":[0,0,0,0,0,0,0,0,0,0,0,0,0,0,0],"id":30,"left_children":[1,3,5,7,9,11,13,-1,-1,-1,-1,-1,-1,-1,-1],"loss_changes":[8.192113E-1,2.4206471E-1,1.6353768E-1,6.150201E-2,2.7179258E-2,3.042239E-2,6.487185E-2,0E0,0E0,0E0,0E0,0E0,0E0,0E0,0E0],"parents":[2147483647,0,0,1,1,2,2,3,3,4,4,5,5,6,6],"right_children":[2,4,6,8,10,12,14,-1,-1,-1,-1,-1,-1,-1,-1],"split_conditions":[7.1955286E-3,-1.6754922E-2,3.6376607E-2,-3.8552195E-2,-4.183242E-3,2.14944E-2,7.347933E-2,-1.2091405E-3,-5.840438E-4,-2.1345442E-4,4.91896E-5,3.634E-4,7.168471E-4,1.1755018E-3,2.697688E-3],"split_indices":[13,13,13,13,13,13,13,0,0,0,0,0,0,0,0],"split_type":[0,0,0,0,0,0,0,0,0,0,0,0,0,0,0],"sum_hessian":[2.202E3,1.418E3,7.84E2,4.82E2,9.36E2,6.28E2,1.56E2,1.29E2,3.53E2,4.64E2,4.72E2,3.96E2,2.32E2,1.37E2,1.9E1],"tree_param":{"num_deleted":"0","num_feature":"460","num_nodes":"15","size_leaf_vector":"0"}},{"base_weights":[1.6291833E-3,-1.2711138E-2,2.7549295E-2,-3.0893438E-2,-3.3250533E-3,2.0291101E-2,5.6452826E-2,-1.2091405E-3,-5.840438E-4,-2.1345442E-4,4.91896E-5,3.634E-4,7.168471E-4,1.1755018E-3,2.697688E-3],"categories":[],"categories_nodes":[],"categories_segments":[],"categories_sizes":[],"default_left":[0,0,0,0,0,0,0,0,0,0,0,0,0,0,0],"id":31,"left_children":[1,3,5,7,9,11,13,-1,-1,-1,-1,-1,-1,-1,-1],"loss_changes":[8.192113E-1,2.4206471E-1,1.6353768E-1,6.150201E-2,2.7179258E-2,3.042239E-2,6.487185E-2,0E0,0E0,0E0,0E0,0E0,0E0,0E0,0E0],"parents":[2147483647,0,0,1,1,2,2,3,3,4,4,5,5,6,6],"right_children":[2,4,6,8,10,12,14,-1,-1,-1,-1,-1,-1,-1,-1],"split_conditions":[7.1955286E-3,-1.6754922E-2,3.6376607E-2,-3.8552195E-2,-4.183242E-3,2.14944E-2,7.347933E-2,-1.2091405E-3,-5.840438E-4,-2.1345442E-4,4.91896E-5,3.634E-4,7.168471E-4,1.1755018E-3,2.697688E-3],"split_indices":[14,13,13,13,13,13,13,0,0,0,0,0,0,0,0],"split_type":[0,0,0,0,0,0,0,0,0,0,0,0,0,0,0],"sum_hessian":[2.202E3,1.418E3,7.84E2,4.82E2,9.36E2,6.28E2,1.56E2,1.29E2,3.53E2,4.64E2,4.72E2,3.96E2,2.32E2,1.37E2,1.9E1],"tree_param":{"num_deleted":"0","num_feature":"460","num_nodes":"15","size_leaf_vector":"0"}},{"base_weights":[1.6291833E-3,-1.2711138E-2,2.7549295E-2,-3.0893438E-2,-3.3250533E-3,2.0291101E-2,5.6452826E-2,-1.2091405E-3,-5.840438E-4,-5.657796E-6,-2.6841846E-4,3.634E-4,7.168471E-4,1.1755018E-3,2.697688E-3],"categories":[],"categories_nodes":[],"categories_segments":[],"categories_sizes":[],"default_left":[0,0,0,0,0,0,0,0,0,0,0,0,0,0,0],"id":32,"left_children":[1,3,5,7,9,11,13,-1,-1,-1,-1,-1,-1,-1,-1],"loss_changes":[8.192113E-1,2.4206471E-1,1.6353768E-1,6.150201E-2,2.225607E-2,3.042239E-2,6.487185E-2,0E0,0E0,0E0,0E0,0E0,0E0,0E0,0E0],"parents":[2147483647,0,0,1,1,2,2,3,3,4,4,5,5,6,6],"right_children":[2,4,6,8,10,12,14,-1,-1,-1,-1,-1,-1,-1,-1],"split_conditions":[7.1955286E-3,-1.6754922E-2,3.6376607E-2,-3.8552195E-2,2E0,2.14944E-2,7.347933E-2,-1.2091405E-3,-5.840438E-4,-5.657796E-6,-2.6841846E-4,3.634E-4,7.168471E-4,1.1755018E-3,2.697688E-3],"split_indices":[13,13,13,14,6,13,14,0,0,0,0,0,0,0,0],"split_type":[0,0,0,0,0,0,0,0,0,0,0,0,0,0,0],"sum_hessian":[2.202E3,1.418E3,7.84E2,4.82E2,9.36E2,6.28E2,1.56E2,1.29E2,3.53E2,6.68E2,2.68E2,3.96E2,2.32E2,1.37E2,1.9E1],"tree_param":{"num_deleted":"0","num_feature":"460","num_nodes":"15","size_leaf_vector":"0"}},{"base_weights":[1.6291833E-3,-1.2711138E-2,2.7549295E-2,-3.0893438E-2,-3.3250533E-3,2.0291101E-2,5.6452826E-2,-1.2091405E-3,-5.840438E-4,-2.1345442E-4,4.91896E-5,3.634E-4,7.168471E-4,1.1755018E-3,2.697688E-3],"categories":[],"categories_nodes":[],"categories_segments":[],"categories_sizes":[],"default_left":[0,0,0,0,0,0,0,0,0,0,0,0,0,0,0],"id":33,"left_children":[1,3,5,7,9,11,13,-1,-1,-1,-1,-1,-1,-1,-1],"loss_changes":[8.192113E-1,2.4206471E-1,1.6353768E-1,6.150201E-2,2.7179258E-2,3.042239E-2,6.487185E-2,0E0,0E0,0E0,0E0,0E0,0E0,0E0,0E0],"parents":[2147483647,0,0,1,1,2,2,3,3,4,4,5,5,6,6],"right_children":[2,4,6,8,10,12,14,-1,-1,-1,-1,-1,-1,-1,-1],"split_conditions":[7.1955286E-3,-1.6754922E-2,3.6376607E-2,-3.8552195E-2,-4.183242E-3,2.14944E-2,7.347933E-2,-1.2091405E-3,-5.840438E-4,-2.1345442E-4,4.91896E-5,3.634E-4,7.168471E-4,1.1755018E-3,2.697688E-3],"split_indices":[13,13,13,13,13,13,14,0,0,0,0,0,0,0,0],"split_type":[0,0,0,0,0,0,0,0,0,0,0,0,0,0,0],"sum_hessian":[2.202E3,1.418E3,7.84E2,4.82E2,9.36E2,6.28E2,1.56E2,1.29E2,3.53E2,4.64E2,4.72E2,3.96E2,2.32E2,1.37E2,1.9E1],"tree_param":{"num_deleted":"0","num_feature":"460","num_nodes":"15","size_leaf_vector":"0"}},{"base_weights":[1.6291833E-3,-1.2711138E-2,2.7549295E-2,-3.0893438E-2,-3.3250533E-3,2.0291101E-2,5.6452826E-2,-1.2091405E-3,-5.840438E-4,-2.1345442E-4,4.91896E-5,3.634E-4,7.168471E-4,1.1755018E-3,2.697688E-3],"categories":[],"categories_nodes":[],"categories_segments":[],"categories_sizes":[],"default_left":[0,0,0,0,0,0,0,0,0,0,0,0,0,0,0],"id":34,"left_children":[1,3,5,7,9,11,13,-1,-1,-1,-1,-1,-1,-1,-1],"loss_changes":[8.192113E-1,2.4206471E-1,1.6353768E-1,6.150201E-2,2.7179258E-2,3.042239E-2,6.487185E-2,0E0,0E0,0E0,0E0,0E0,0E0,0E0,0E0],"parents":[2147483647,0,0,1,1,2,2,3,3,4,4,5,5,6,6],"right_children":[2,4,6,8,10,12,14,-1,-1,-1,-1,-1,-1,-1,-1],"split_conditions":[7.1955286E-3,-1.6754922E-2,3.6376607E-2,-3.8552195E-2,-4.183242E-3,2.14944E-2,7.347933E-2,-1.2091405E-3,-5.840438E-4,-2.1345442E-4,4.91896E-5,3.634E-4,7.168471E-4,1.1755018E-3,2.697688E-3],"split_indices":[13,13,13,13,13,13,13,0,0,0,0,0,0,0,0],"split_type":[0,0,0,0,0,0,0,0,0,0,0,0,0,0,0],"sum_hessian":[2.202E3,1.418E3,7.84E2,4.82E2,9.36E2,6.28E2,1.56E2,1.29E2,3.53E2,4.64E2,4.72E2,3.96E2,2.32E2,1.37E2,1.9E1],"tree_param":{"num_deleted":"0","num_feature":"460","num_nodes":"15","size_leaf_vector":"0"}},{"base_weights":[1.6291833E-3,-1.2711138E-2,2.7549295E-2,-3.4418978E-2,-6.1791944E-3,2.0291101E-2,5.6452826E-2,-1.2558611E-3,-5.9323374E-4,-4.6872624E-4,-3.1317173E-5,3.634E-4,7.168471E-4,1.1755018E-3,2.697688E-3],"categories":[],"categories_nodes":[],"categories_segments":[],"categories_sizes":[],"default_left":[0,0,0,0,0,0,0,0,0,0,0,0,0,0,0],"id":35,"left_children":[1,3,5,7,9,11,13,-1,-1,-1,-1,-1,-1,-1,-1],"loss_changes":[8.192113E-1,2.0099357E-1,1.6353768E-1,5.528134E-2,6.967369E-2,3.042239E-2,6.487185E-2,0E0,0E0,0E0,0E0,0E0,0E0,0E0,0E0],"parents":[2147483647,0,0,1,1,2,2,3,3,4,4,5,5,6,6],"right_children":[2,4,6,8,10,12,14,-1,-1,-1,-1,-1,-1,-1,-1],"split_conditions":[7.1955286E-3,-1.0607637E0,3.6376607E-2,-3.8552195E-2,-1.2227315E-2,2.14944E-2,7.347933E-2,-1.2558611E-3,-5.9323374E-4,-4.6872624E-4,-3.1317173E-5,3.634E-4,7.168471E-4,1.1755018E-3,2.697688E-3],"split_indices":[13,43,13,13,13,13,13,0,0,0,0,0,0,0,0],"split_type":[0,0,0,0,0,0,0,0,0,0,0,0,0,0,0],"sum_hessian":[2.202E3,1.418E3,7.84E2,3.27E2,1.091E3,6.28E2,1.56E2,1.2E2,2.07E2,2.97E2,7.94E2,3.96E2,2.32E2,1.37E2,1.9E1],"tree_param":{"num_deleted":"0","num_feature":"460","num_nodes":"15","size_leaf_vector":"0"}},{"base_weights":[1.6291833E-3,-1.2711138E-2,2.7549295E-2,-3.0893438E-2,-3.3250533E-3,2.0291101E-2,5.6452826E-2,-1.2091405E-3,-5.840438E-4,-2.1345442E-4,4.91896E-5,3.634E-4,7.168471E-4,1.1600832E-3,2.4752775E-3],"categories":[],"categories_nodes":[],"categories_segments":[],"categories_sizes":[],"default_left":[0,0,0,0,0,0,0,0,0,0,0,0,0,0,0],"id":36,"left_children":[1,3,5,7,9,11,13,-1,-1,-1,-1,-1,-1,-1,-1],"loss_changes":[8.192113E-1,2.4206471E-1,1.6353768E-1,6.150201E-2,2.7179258E-2,3.042239E-2,5.8023453E-2,0E0,0E0,0E0,0E0,0E0,0E0,0E0,0E0],"parents":[2147483647,0,0,1,1,2,2,3,3,4,4,5,5,6,6],"right_children":[2,4,6,8,10,12,14,-1,-1,-1,-1,-1,-1,-1,-1],"split_conditions":[7.1955286E-3,-1.6754922E-2,3.6376607E-2,-3.8552195E-2,-4.183242E-3,2.14944E-2,1.0090906E-1,-1.2091405E-3,-5.840438E-4,-2.1345442E-4,4.91896E-5,3.634E-4,7.168471E-4,1.1600832E-3,2.4752775E-3],"split_indices":[13,14,13,13,13,13,11,0,0,0,0,0,0,0,0],"split_type":[0,0,0,0,0,0,0,0,0,0,0,0,0,0,0],"sum_hessian":[2.202E3,1.418E3,7.84E2,4.82E2,9.36E2,6.28E2,1.56E2,1.29E2,3.53E2,4.64E2,4.72E2,3.96E2,2.32E2,1.32E2,2.4E1],"tree_param":{"num_deleted":"0","num_feature":"460","num_nodes":"15","size_leaf_vector":"0"}},{"base_weights":[1.6291833E-3,-1.2711138E-2,2.7549295E-2,-3.0893438E-2,-3.3250533E-3,2.0291101E-2,5.6452826E-2,-1.2091405E-3,-5.840438E-4,-2.1345442E-4,4.91896E-5,3.634E-4,7.168471E-4,1.1755018E-3,2.697688E-3],"categories":[],"categories_nodes":[],"categories_segments":[],"categories_sizes":[],"default_left":[0,0,0,0,0,0,0,0,0,0,0,0,0,0,0],"id":37,"left_children":[1,3,5,7,9,11,13,-1,-1,-1,-1,-1,-1,-1,-1],"loss_changes":[8.192113E-1,2.4206471E-1,1.6353768E-1,6.150201E-2,2.7179258E-2,3.042239E-2,6.487185E-2,0E0,0E0,0E0,0E0,0E0,0E0,0E0,0E0],"parents":[2147483647,0,0,1,1,2,2,3,3,4,4,5,5,6,6],"right_children":[2,4,6,8,10,12,14,-1,-1,-1,-1,-1,-1,-1,-1],"split_conditions":[7.1955286E-3,-1.6754922E-2,3.6376607E-2,-3.8552195E-2,-4.183242E-3,2.14944E-2,7.347933E-2,-1.2091405E-3,-5.840438E-4,-2.1345442E-4,4.91896E-5,3.634E-4,7.168471E-4,1.1755018E-3,2.697688E-3],"split_indices":[13,13,14,13,14,13,13,0,0,0,0,0,0,0,0],"split_type":[0,0,0,0,0,0,0,0,0,0,0,0,0,0,0],"sum_hessian":[2.202E3,1.418E3,7.84E2,4.82E2,9.36E2,6.28E2,1.56E2,1.29E2,3.53E2,4.64E2,4.72E2,3.96E2,2.32E2,1.37E2,1.9E1],"tree_param":{"num_deleted":"0","num_feature":"460","num_nodes":"15","size_leaf_vector":"0"}},{"base_weights":[1.6291833E-3,-1.2711138E-2,2.7549295E-2,-3.0893438E-2,-3.3250533E-3,2.0291101E-2,5.6452826E-2,-1.2091405E-3,-5.840438E-4,-2.1345442E-4,4.91896E-5,3.634E-4,7.168471E-4,1.1755018E-3,2.697688E-3],"categories":[],"categories_nodes":[],"categories_segments":[],"categories_sizes":[],"default_left":[0,0,0,0,0,0,0,0,0,0,0,0,0,0,0],"id":38,"left_children":[1,3,5,7,9,11,13,-1,-1,-1,-1,-1,-1,-1,-1],"loss_changes":[8.192113E-1,2.4206471E-1,1.6353768E-1,6.150201E-2,2.7179258E-2,3.042239E-2,6.487185E-2,0E0,0E0,0E0,0E0,0E0,0E0,0E0,0E0],"parents":[2147483647,0,0,1,1,2,2,3,3,4,4,5,5,6,6],"right_children":[2,4,6,8,10,12,14,-1,-1,-1,-1,-1,-1,-1,-1],"split_conditions":[7.1955286E-3,-1.6754922E-2,3.6376607E-2,-3.8552195E-2,-4.183242E-3,2.14944E-2,7.347933E-2,-1.2091405E-3,-5.840438E-4,-2.1345442E-4,4.91896E-5,3.634E-4,7.168471E-4,1.1755018E-3,2.697688E-3],"split_indices":[13,14,13,13,13,13,14,0,0,0,0,0,0,0,0],"split_type":[0,0,0,0,0,0,0,0,0,0,0,0,0,0,0],"sum_hessian":[2.202E3,1.418E3,7.84E2,4.82E2,9.36E2,6.28E2,1.56E2,1.29E2,3.53E2,4.64E2,4.72E2,3.96E2,2.32E2,1.37E2,1.9E1],"tree_param":{"num_deleted":"0","num_feature":"460","num_nodes":"15","size_leaf_vector":"0"}},{"base_weights":[1.6291833E-3,-1.2711138E-2,2.7549295E-2,-3.0893438E-2,-3.3250533E-3,2.0291101E-2,5.6452826E-2,-1.2091405E-3,-5.840438E-4,-2.1345442E-4,4.91896E-5,3.634E-4,7.168471E-4,1.1755018E-3,2.697688E-3],"categories":[],"categories_nodes":[],"categories_segments":[],"categories_sizes":[],"default_left":[0,0,0,0,0,0,0,0,0,0,0,0,0,0,0],"id":39,"left_children":[1,3,5,7,9,11,13,-1,-1,-1,-1,-1,-1,-1,-1],"loss_changes":[8.192113E-1,2.4206471E-1,1.6353768E-1,6.150201E-2,2.7179258E-2,3.042239E-2,6.487185E-2,0E0,0E0,0E0,0E0,0E0,0E0,0E0,0E0],"parents":[2147483647,0,0,1,1,2,2,3,3,4,4,5,5,6,6],"right_children":[2,4,6,8,10,12,14,-1,-1,-1,-1,-1,-1,-1,-1],"split_conditions":[7.1955286E-3,-1.6754922E-2,3.6376607E-2,-3.8552195E-2,-4.183242E-3,2.14944E-2,7.347933E-2,-1.2091405E-3,-5.840438E-4,-2.1345442E-4,4.91896E-5,3.634E-4,7.168471E-4,1.1755018E-3,2.697688E-3],"split_indices":[13,13,13,13,14,14,13,0,0,0,0,0,0,0,0],"split_type":[0,0,0,0,0,0,0,0,0,0,0,0,0,0,0],"sum_hessian":[2.202E3,1.418E3,7.84E2,4.82E2,9.36E2,6.28E2,1.56E2,1.29E2,3.53E2,4.64E2,4.72E2,3.96E2,2.32E2,1.37E2,1.9E1],"tree_param":{"num_deleted":"0","num_feature":"460","num_nodes":"15","size_leaf_vector":"0"}},{"base_weights":[1.6291833E-3,-1.2711138E-2,2.7549295E-2,-3.0893438E-2,-3.3250533E-3,2.0291101E-2,5.6452826E-2,-1.2091405E-3,-5.840438E-4,-2.1345442E-4,4.91896E-5,3.634E-4,7.168471E-4,1.1755018E-3,2.697688E-3],"categories":[],"categories_nodes":[],"categories_segments":[],"categories_sizes":[],"default_left":[0,0,0,0,0,0,0,0,0,0,0,0,0,0,0],"id":40,"left_children":[1,3,5,7,9,11,13,-1,-1,-1,-1,-1,-1,-1,-1],"loss_changes":[8.192113E-1,2.4206471E-1,1.6353768E-1,6.150201E-2,2.7179258E-2,3.042239E-2,6.487185E-2,0E0,0E0,0E0,0E0,0E0,0E0,0E0,0E0],"parents":[2147483647,0,0,1,1,2,2,3,3,4,4,5,5,6,6],"right_children":[2,4,6,8,10,12,14,-1,-1,-1,-1,-1,-1,-1,-1],"split_conditions":[7.1955286E-3,-1.6754922E-2,3.6376607E-2,-3.8552195E-2,-4.183242E-3,2.14944E-2,7.347933E-2,-1.2091405E-3,-5.840438E-4,-2.1345442E-4,4.91896E-5,3.634E-4,7.168471E-4,1.1755018E-3,2.697688E-3],"split_indices":[13,13,13,13,14,13,13,0,0,0,0,0,0,0,0],"split_type":[0,0,0,0,0,0,0,0,0,0,0,0,0,0,0],"sum_hessian":[2.202E3,1.418E3,7.84E2,4.82E2,9.36E2,6.28E2,1.56E2,1.29E2,3.53E2,4.64E2,4.72E2,3.96E2,2.32E2,1.37E2,1.9E1],"tree_param":{"num_deleted":"0","num_feature":"460","num_nodes":"15","size_leaf_vector":"0"}}]},"name":"gbtree"},"learner_model_param":{"base_score":"0E0","boost_from_average":"0","num_class":"0","num_feature":"460","num_target":"1"},"objective":{"name":"reg:squarederror","reg_loss_param":{"scale_pos_weight":"1"}}},"version":[1,7,1]}