{"learner":{"attributes":{"best_iteration":"0","best_ntree_limit":"46","scikit_learn":"{\"objective\": \"reg:squarederror\", \"max_leaves\": null, \"max_bin\": null, \"grow_policy\": null, \"learning_rate\": 1.0, \"verbosity\": 0, \"booster\": null, \"tree_method\": \"hist\", \"gamma\": null, \"min_child_weight\": null, \"max_delta_step\": null, \"subsample\": 1.0, \"sampling_method\": null, \"colsample_bytree\": null, \"colsample_bylevel\": null, \"colsample_bynode\": 0.8, \"reg_alpha\": null, \"scale_pos_weight\": null, \"base_score\": 0, \"missing\": NaN, \"num_parallel_tree\": null, \"random_state\": null, \"n_jobs\": null, \"monotone_constraints\": null, \"interaction_constraints\": null, \"importance_type\": null, \"gpu_id\": null, \"validate_parameters\": null, \"predictor\": null, \"enable_categorical\": false, \"feature_types\": null, \"max_cat_to_onehot\": null, \"max_cat_threshold\": null, \"eval_metric\": \"mae\", \"early_stopping_rounds\": null, \"callbacks\": null, \"kwargs\": {\"eta\": 0.9750777418058179, \"nthread\": 3}, \"evals_result_\": {\"validation_0\": {\"mae\": [0.01964786419669578]}}, \"_estimator_type\": \"regressor\"}"},"feature_names":[],"feature_types":[],"gradient_booster":{"model":{"gbtree_model_param":{"num_parallel_tree":"46","num_trees":"46","size_leaf_vector":"0"},"tree_info":[0,0,0,0,0,0,0,0,0,0,0,0,0,0,0,0,0,0,0,0,0,0,0,0,0,0,0,0,0,0,0,0,0,0,0,0,0,0,0,0,0,0,0,0,0,0],"trees":[{"base_weights":[1.611706E-3,1.2320127E-2,-2.2339156E-2,8.747544E-3,4.4486333E-2,-2.9687995E-2,6.7920624E-3,2.0251076E-3,1.5273898E-2,3.401481E-2,7.295623E-2,-3.5636857E-2,-2.239063E-2,3.0571509E-3,7.625153E-2,-3.80869E-5,2.930275E-4,2.565248E-4,5.2474503E-4,5.81345E-4,9.414448E-4,1.3262574E-3,2.3333288E-3,-1.1784042E-3,-7.2512816E-4,-5.060089E-4,2.0217072E-5,-3.1787262E-5,4.0155937E-4,4.5761367E-4,1.7813778E-3],"categories":[],"categories_nodes":[],"categories_segments":[],"categories_sizes":[],"default_left":[0,0,0,0,0,0,0,0,0,0,0,0,0,0,0,0,0,0,0,0,0,0,0,0,0,0,0,0,0,0,0],"id":0,"left_children":[1,3,5,7,9,11,13,15,17,19,21,23,25,27,29,-1,-1,-1,-1,-1,-1,-1,-1,-1,-1,-1,-1,-1,-1,-1,-1],"loss_changes":[5.6529164E-1,1.7462854E-1,1.4599055E-1,6.016282E-2,4.283312E-2,2.2817671E-2,3.5567533E-2,2.9313039E-2,2.1146879E-2,6.4781755E-3,9.88178E-3,1.0814279E-2,5.123906E-3,9.222673E-3,4.744567E-4,0E0,0E0,0E0,0E0,0E0,0E0,0E0,0E0,0E0,0E0,0E0,0E0,0E0,0E0,0E0,0E0],"parents":[2147483647,0,0,1,1,2,2,3,3,4,4,5,5,6,6,7,7,8,8,9,9,10,10,11,11,12,12,13,13,14,14],"right_children":[2,4,6,8,10,12,14,16,18,20,22,24,26,28,30,-1,-1,-1,-1,-1,-1,-1,-1,-1,-1,-1,-1,-1,-1,-1,-1],"split_conditions":[2E0,2.970294E-2,1.8379584E-2,1E0,6.987222E-2,-2.9349992E-1,9.059393E-2,1.0338005E-2,7.0082378E-3,1E0,1.1180247E-1,-1.3577669E0,1.0394902E0,5.094322E-2,-5.9274968E-2,-3.80869E-5,2.930275E-4,2.565248E-4,5.2474503E-4,5.81345E-4,9.414448E-4,1.3262574E-3,2.3333288E-3,-1.1784042E-3,-7.2512816E-4,-5.060089E-4,2.0217072E-5,-3.1787262E-5,4.0155937E-4,4.5761367E-4,1.7813778E-3],"split_indices":[6,13,14,6,12,43,13,13,14,6,11,250,35,7,0,0,0,0,0,0,0,0,0,0,0,0,0,0,0,0,0],"split_type":[0,0,0,0,0,0,0,0,0,0,0,0,0,0,0,0,0,0,0,0,0,0,0,0,0,0,0,0,0,0,0],"sum_hessian":[2.202E3,1.522E3,6.8E2,1.371E3,1.51E2,5.43E2,1.37E2,6.76E2,6.95E2,1.12E2,3.9E1,2.97E2,2.46E2,1.31E2,6E0,5.09E2,1.67E2,5.01E2,1.94E2,6.5E1,4.7E1,3.1E1,8E0,3E1,2.67E2,2.37E2,9E0,1.02E2,2.9E1,1E0,5E0],"tree_param":{"num_deleted":"0","num_feature":"460","num_nodes":"31","size_leaf_vector":"0"}},{"base_weights":[1.611706E-3,1.2320127E-2,-2.2339156E-2,8.747544E-3,4.4486333E-2,-2.9687995E-2,6.7920624E-3,2.0251076E-3,1.5273898E-2,3.401481E-2,7.295623E-2,-3.5636857E-2,-2.239063E-2,3.0571509E-3,7.625153E-2,-3.80869E-5,2.930275E-4,2.565248E-4,5.2474503E-4,5.81345E-4,9.414448E-4,1.3262574E-3,2.3333288E-3,-1.1784042E-3,-7.2512816E-4,-5.690878E-4,-3.3152165E-4,-3.1787262E-5,4.0155937E-4,4.5761367E-4,1.7813778E-3],"categories":[],"categories_nodes":[],"categories_segments":[],"categories_sizes":[],"default_left":[0,0,0,0,0,0,0,0,0,0,0,0,0,0,0,0,0,0,0,0,0,0,0,0,0,0,0,0,0,0,0],"id":1,"left_children":[1,3,5,7,9,11,13,15,17,19,21,23,25,27,29,-1,-1,-1,-1,-1,-1,-1,-1,-1,-1,-1,-1,-1,-1,-1,-1],"loss_changes":[5.6529164E-1,1.7462854E-1,1.4599055E-1,6.016282E-2,4.283312E-2,2.2817671E-2,3.5567533E-2,2.9313039E-2,2.1146879E-2,6.4781755E-3,9.88178E-3,1.0814279E-2,6.2807724E-3,9.222673E-3,4.744567E-4,0E0,0E0,0E0,0E0,0E0,0E0,0E0,0E0,0E0,0E0,0E0,0E0,0E0,0E0,0E0,0E0],"parents":[2147483647,0,0,1,1,2,2,3,3,4,4,5,5,6,6,7,7,8,8,9,9,10,10,11,11,12,12,13,13,14,14],"right_children":[2,4,6,8,10,12,14,16,18,20,22,24,26,28,30,-1,-1,-1,-1,-1,-1,-1,-1,-1,-1,-1,-1,-1,-1,-1,-1],"split_conditions":[2E0,2.970294E-2,1.8379584E-2,1E0,6.987222E-2,-2.9349992E-1,9.059393E-2,1.0338005E-2,7.0082378E-3,1E0,1.1180247E-1,-1.3577669E0,-1.6731818E-3,5.094322E-2,-5.9274968E-2,-3.80869E-5,2.930275E-4,2.565248E-4,5.2474503E-4,5.81345E-4,9.414448E-4,1.3262574E-3,2.3333288E-3,-1.1784042E-3,-7.2512816E-4,-5.690878E-4,-3.3152165E-4,-3.1787262E-5,4.0155937E-4,4.5761367E-4,1.7813778E-3],"split_indices":[6,13,13,6,11,43,14,13,13,6,11,254,0,7,0,0,0,0,0,0,0,0,0,0,0,0,0,0,0,0,0],"split_type":[0,0,0,0,0,0,0,0,0,0,0,0,0,0,0,0,0,0,0,0,0,0,0,0,0,0,0,0,0,0,0],"sum_hessian":[2.202E3,1.522E3,6.8E2,1.371E3,1.51E2,5.43E2,1.37E2,6.76E2,6.95E2,1.12E2,3.9E1,2.97E2,2.46E2,1.31E2,6E0,5.09E2,1.67E2,5.01E2,1.94E2,6.5E1,4.7E1,3.1E1,8E0,3E1,2.67E2,1.59E2,8.7E1,1.02E2,2.9E1,1E0,5E0],"tree_param":{"num_deleted":"0","num_feature":"460","num_nodes":"31","size_leaf_vector":"0"}},{"base_weights":[1.611706E-3,1.2320127E-2,-2.2339156E-2,8.747544E-3,4.4486333E-2,-2.9687995E-2,6.7920624E-3,2.0251076E-3,1.5273898E-2,3.401481E-2,7.295623E-2,-3.9781414E-2,-2.4711655E-2,3.0571509E-3,7.625153E-2,-3.80869E-5,2.930275E-4,2.565248E-4,5.2474503E-4,5.81345E-4,9.414448E-4,1.3262574E-3,2.3333288E-3,-2.1403288E-3,-8.2319044E-4,-5.1619817E-4,-1.115791E-3,-3.1787262E-5,4.0155937E-4,4.5761367E-4,1.7813778E-3],"categories":[],"categories_nodes":[],"categories_segments":[],"categories_sizes":[],"default_left":[0,0,0,0,0,0,0,0,0,0,0,0,0,0,0,0,0,0,0,0,0,0,0,0,0,0,0,0,0,0,0],"id":2,"left_children":[1,3,5,7,9,11,13,15,17,19,21,23,25,27,29,-1,-1,-1,-1,-1,-1,-1,-1,-1,-1,-1,-1,-1,-1,-1,-1],"loss_changes":[5.6529164E-1,1.7462854E-1,1.4599055E-1,6.016282E-2,4.283312E-2,2.634114E-2,3.5567533E-2,2.9313039E-2,2.1146879E-2,6.4781755E-3,9.88178E-3,1.6268313E-2,8.222029E-3,9.222673E-3,4.744567E-4,0E0,0E0,0E0,0E0,0E0,0E0,0E0,0E0,0E0,0E0,0E0,0E0,0E0,0E0,0E0,0E0],"parents":[2147483647,0,0,1,1,2,2,3,3,4,4,5,5,6,6,7,7,8,8,9,9,10,10,11,11,12,12,13,13,14,14],"right_children":[2,4,6,8,10,12,14,16,18,20,22,24,26,28,30,-1,-1,-1,-1,-1,-1,-1,-1,-1,-1,-1,-1,-1,-1,-1,-1],"split_conditions":[2E0,2.970294E-2,1.8379584E-2,1E0,6.987222E-2,-1.714539E-2,9.059393E-2,1.0338005E-2,7.0082378E-3,1E0,1.1180247E-1,-2.3420384E0,1.7594573E0,5.094322E-2,-5.9274968E-2,-3.80869E-5,2.930275E-4,2.565248E-4,5.2474503E-4,5.81345E-4,9.414448E-4,1.3262574E-3,2.3333288E-3,-2.1403288E-3,-8.2319044E-4,-5.1619817E-4,-1.115791E-3,-3.1787262E-5,4.0155937E-4,4.5761367E-4,1.7813778E-3],"split_indices":[6,13,13,6,11,13,14,13,13,6,12,402,176,8,0,0,0,0,0,0,0,0,0,0,0,0,0,0,0,0,0],"split_type":[0,0,0,0,0,0,0,0,0,0,0,0,0,0,0,0,0,0,0,0,0,0,0,0,0,0,0,0,0,0,0],"sum_hessian":[2.202E3,1.522E3,6.8E2,1.371E3,1.51E2,5.43E2,1.37E2,6.76E2,6.95E2,1.12E2,3.9E1,1.77E2,3.66E2,1.31E2,6E0,5.09E2,1.67E2,5.01E2,1.94E2,6.5E1,4.7E1,3.1E1,8E0,4E0,1.73E2,3.55E2,1.1E1,1.02E2,2.9E1,1E0,5E0],"tree_param":{"num_deleted":"0","num_feature":"460","num_nodes":"31","size_leaf_vector":"0"}},{"base_weights":[1.611706E-3,1.2320127E-2,-2.2339156E-2,8.747544E-3,4.4486333E-2,-2.9687995E-2,6.7920624E-3,2.0251076E-3,1.5273898E-2,3.401481E-2,7.295623E-2,-3.9781414E-2,-2.4711655E-2,3.0571509E-3,7.625153E-2,-3.80869E-5,2.930275E-4,2.565248E-4,5.2474503E-4,5.81345E-4,9.414448E-4,1.3262574E-3,2.3333288E-3,-2.1403288E-3,-8.2319044E-4,-5.1619817E-4,-1.115791E-3,-3.1787262E-5,4.0155937E-4,4.5761367E-4,1.7813778E-3],"categories":[],"categories_nodes":[],"categories_segments":[],"categories_sizes":[],"default_left":[0,0,0,0,0,0,0,0,0,0,0,0,0,0,0,0,0,0,0,0,0,0,0,0,0,0,0,0,0,0,0],"id":3,"left_children":[1,3,5,7,9,11,13,15,17,19,21,23,25,27,29,-1,-1,-1,-1,-1,-1,-1,-1,-1,-1,-1,-1,-1,-1,-1,-1],"loss_changes":[5.6529164E-1,1.7462854E-1,1.4599055E-1,6.016282E-2,4.283312E-2,2.634114E-2,3.5567533E-2,2.9313039E-2,2.1146879E-2,6.4781755E-3,9.88178E-3,1.6268313E-2,8.222029E-3,9.222673E-3,4.744567E-4,0E0,0E0,0E0,0E0,0E0,0E0,0E0,0E0,0E0,0E0,0E0,0E0,0E0,0E0,0E0,0E0],"parents":[2147483647,0,0,1,1,2,2,3,3,4,4,5,5,6,6,7,7,8,8,9,9,10,10,11,11,12,12,13,13,14,14],"right_children":[2,4,6,8,10,12,14,16,18,20,22,24,26,28,30,-1,-1,-1,-1,-1,-1,-1,-1,-1,-1,-1,-1,-1,-1,-1,-1],"split_conditions":[2E0,2.970294E-2,1.8379584E-2,1E0,6.987222E-2,-1.714539E-2,9.059393E-2,1.0338005E-2,7.0082378E-3,1E0,1.1180247E-1,-2.3420384E0,1.7594573E0,5.094322E-2,-5.9274968E-2,-3.80869E-5,2.930275E-4,2.565248E-4,5.2474503E-4,5.81345E-4,9.414448E-4,1.3262574E-3,2.3333288E-3,-2.1403288E-3,-8.2319044E-4,-5.1619817E-4,-1.115791E-3,-3.1787262E-5,4.0155937E-4,4.5761367E-4,1.7813778E-3],"split_indices":[6,14,13,6,11,13,13,13,13,6,11,402,176,7,0,0,0,0,0,0,0,0,0,0,0,0,0,0,0,0,0],"split_type":[0,0,0,0,0,0,0,0,0,0,0,0,0,0,0,0,0,0,0,0,0,0,0,0,0,0,0,0,0,0,0],"sum_hessian":[2.202E3,1.522E3,6.8E2,1.371E3,1.51E2,5.43E2,1.37E2,6.76E2,6.95E2,1.12E2,3.9E1,1.77E2,3.66E2,1.31E2,6E0,5.09E2,1.67E2,5.01E2,1.94E2,6.5E1,4.7E1,3.1E1,8E0,4E0,1.73E2,3.55E2,1.1E1,1.02E2,2.9E1,1E0,5E0],"tree_param":{"num_deleted":"0","num_feature":"460","num_nodes":"31","size_leaf_vector":"0"}},{"base_weights":[1.611706E-3,1.2320127E-2,-2.2339156E-2,6.365965E-3,2.8685726E-2,-2.9687995E-2,6.7920624E-3,-9.2576747E-4,1.3179912E-2,2.2363847E-2,5.9238035E-2,-3.9781414E-2,-2.4711655E-2,3.0571509E-3,7.625153E-2,-1.1925146E-4,7.338819E-5,1.8213142E-3,2.753447E-4,3.6260567E-4,6.31452E-4,1.1124114E-3,2.3333288E-3,-2.1403288E-3,-8.2319044E-4,-5.1619817E-4,-1.115791E-3,-3.1787262E-5,4.0155937E-4,4.5761367E-4,1.7813778E-3],"categories":[],"categories_nodes":[],"categories_segments":[],"categories_sizes":[],"default_left":[0,0,0,0,0,0,0,0,0,0,0,0,0,0,0,0,0,0,0,0,0,0,0,0,0,0,0,0,0,0,0],"id":4,"left_children":[1,3,5,7,9,11,13,15,17,19,21,23,25,27,29,-1,-1,-1,-1,-1,-1,-1,-1,-1,-1,-1,-1,-1,-1,-1,-1],"loss_changes":[5.6529164E-1,1.4822371E-1,1.4599055E-1,5.5560563E-2,7.70933E-2,2.634114E-2,3.5567533E-2,1.0629986E-2,1.9915983E-2,1.2354717E-2,2.1278858E-2,1.6268313E-2,8.222029E-3,9.222673E-3,4.744567E-4,0E0,0E0,0E0,0E0,0E0,0E0,0E0,0E0,0E0,0E0,0E0,0E0,0E0,0E0,0E0,0E0],"parents":[2147483647,0,0,1,1,2,2,3,3,4,4,5,5,6,6,7,7,8,8,9,9,10,10,11,11,12,12,13,13,14,14],"right_children":[2,4,6,8,10,12,14,16,18,20,22,24,26,28,30,-1,-1,-1,-1,-1,-1,-1,-1,-1,-1,-1,-1,-1,-1,-1,-1],"split_conditions":[2E0,5.539671E-1,1.8379584E-2,1E0,6.194695E-2,-1.714539E-2,9.059393E-2,-6.177057E-3,-1.9570129E0,1E0,1.1180247E-1,-2.3420384E0,1.7594573E0,5.094322E-2,-5.9274968E-2,-1.1925146E-4,7.338819E-5,1.8213142E-3,2.753447E-4,3.6260567E-4,6.31452E-4,1.1124114E-3,2.3333288E-3,-2.1403288E-3,-8.2319044E-4,-5.1619817E-4,-1.115791E-3,-3.1787262E-5,4.0155937E-4,4.5761367E-4,1.7813778E-3],"split_indices":[6,44,13,6,11,13,13,13,17,6,12,402,176,8,0,0,0,0,0,0,0,0,0,0,0,0,0,0,0,0,0],"split_type":[0,0,0,0,0,0,0,0,0,0,0,0,0,0,0,0,0,0,0,0,0,0,0,0,0,0,0,0,0,0,0],"sum_hessian":[2.202E3,1.522E3,6.8E2,1.117E3,4.05E2,5.43E2,1.37E2,5.4E2,5.77E2,3.37E2,6.8E1,1.77E2,3.66E2,1.31E2,6E0,2.62E2,2.78E2,3E0,5.74E2,1.84E2,1.53E2,6E1,8E0,4E0,1.73E2,3.55E2,1.1E1,1.02E2,2.9E1,1E0,5E0],"tree_param":{"num_deleted":"0","num_feature":"460","num_nodes":"31","size_leaf_vector":"0"}},{"base_weights":[1.611706E-3,1.2320127E-2,-2.2339156E-2,8.747544E-3,4.4486333E-2,-2.9687995E-2,6.7920624E-3,2.0251076E-3,1.5273898E-2,3.401481E-2,7.295623E-2,-3.9781414E-2,-2.4711655E-2,3.0571509E-3,7.625153E-2,-3.80869E-5,2.930275E-4,2.565248E-4,5.2474503E-4,5.81345E-4,9.414448E-4,1.3262574E-3,2.3333288E-3,-2.1403288E-3,-8.2319044E-4,-5.1619817E-4,-1.115791E-3,-3.1787262E-5,4.0155937E-4,4.5761367E-4,1.7813778E-3],"categories":[],"categories_nodes":[],"categories_segments":[],"categories_sizes":[],"default_left":[0,0,0,0,0,0,0,0,0,0,0,0,0,0,0,0,0,0,0,0,0,0,0,0,0,0,0,0,0,0,0],"id":5,"left_children":[1,3,5,7,9,11,13,15,17,19,21,23,25,27,29,-1,-1,-1,-1,-1,-1,-1,-1,-1,-1,-1,-1,-1,-1,-1,-1],"loss_changes":[5.6529164E-1,1.7462854E-1,1.4599055E-1,6.016282E-2,4.283312E-2,2.634114E-2,3.5567533E-2,2.9313039E-2,2.1146879E-2,6.4781755E-3,9.88178E-3,1.6268313E-2,8.222029E-3,9.222673E-3,4.744567E-4,0E0,0E0,0E0,0E0,0E0,0E0,0E0,0E0,0E0,0E0,0E0,0E0,0E0,0E0,0E0,0E0],"parents":[2147483647,0,0,1,1,2,2,3,3,4,4,5,5,6,6,7,7,8,8,9,9,10,10,11,11,12,12,13,13,14,14],"right_children":[2,4,6,8,10,12,14,16,18,20,22,24,26,28,30,-1,-1,-1,-1,-1,-1,-1,-1,-1,-1,-1,-1,-1,-1,-1,-1],"split_conditions":[2E0,2.970294E-2,1.8379584E-2,1E0,6.987222E-2,-1.714539E-2,9.059393E-2,1.0338005E-2,7.0082378E-3,1E0,1.1180247E-1,-2.3420384E0,1.7594573E0,5.094322E-2,-5.9274968E-2,-3.80869E-5,2.930275E-4,2.565248E-4,5.2474503E-4,5.81345E-4,9.414448E-4,1.3262574E-3,2.3333288E-3,-2.1403288E-3,-8.2319044E-4,-5.1619817E-4,-1.115791E-3,-3.1787262E-5,4.0155937E-4,4.5761367E-4,1.7813778E-3],"split_indices":[6,13,13,6,11,14,13,13,13,6,11,402,176,7,0,0,0,0,0,0,0,0,0,0,0,0,0,0,0,0,0],"split_type":[0,0,0,0,0,0,0,0,0,0,0,0,0,0,0,0,0,0,0,0,0,0,0,0,0,0,0,0,0,0,0],"sum_hessian":[2.202E3,1.522E3,6.8E2,1.371E3,1.51E2,5.43E2,1.37E2,6.76E2,6.95E2,1.12E2,3.9E1,1.77E2,3.66E2,1.31E2,6E0,5.09E2,1.67E2,5.01E2,1.94E2,6.5E1,4.7E1,3.1E1,8E0,4E0,1.73E2,3.55E2,1.1E1,1.02E2,2.9E1,1E0,5E0],"tree_param":{"num_deleted":"0","num_feature":"460","num_nodes":"31","size_leaf_vector":"0"}},{"base_weights":[1.611706E-3,1.2320127E-2,-2.2339156E-2,8.747544E-3,4.4486333E-2,-3.119287E-2,-4.2854314E-4,4.9877088E-3,1.803456E-2,3.401481E-2,7.295623E-2,-3.9781414E-2,-2.6128085E-2,-3.8207849E-3,6.338845E-2,-4.875946E-5,2.5696328E-4,2.6244458E-4,5.2499067E-4,5.81345E-4,9.414448E-4,1.3262574E-3,2.3333288E-3,-2.1403288E-3,-8.2319044E-4,-5.4265716E-4,-1.3497128E-3,-3.9100854E-4,7.527331E-5,1.6949736E-3,4.7882108E-4],"categories":[],"categories_nodes":[],"categories_segments":[],"categories_sizes":[],"default_left":[0,0,0,0,0,0,0,0,0,0,0,0,0,0,0,0,0,0,0,0,0,0,0,0,0,0,0,0,0,0,0],"id":6,"left_children":[1,3,5,7,9,11,13,15,17,19,21,23,25,27,29,-1,-1,-1,-1,-1,-1,-1,-1,-1,-1,-1,-1,-1,-1,-1,-1],"loss_changes":[5.6529164E-1,1.7462854E-1,1.3209406E-1,4.781709E-2,4.283312E-2,2.0057619E-2,4.2889282E-2,4.8343733E-2,1.4109507E-2,6.4781755E-3,9.88178E-3,1.6268313E-2,1.1362359E-2,1.9458836E-2,4.3134876E-3,0E0,0E0,0E0,0E0,0E0,0E0,0E0,0E0,0E0,0E0,0E0,0E0,0E0,0E0,0E0,0E0],"parents":[2147483647,0,0,1,1,2,2,3,3,4,4,5,5,6,6,7,7,8,8,9,9,10,10,11,11,12,12,13,13,14,14],"right_children":[2,4,6,8,10,12,14,16,18,20,22,24,26,28,30,-1,-1,-1,-1,-1,-1,-1,-1,-1,-1,-1,-1,-1,-1,-1,-1],"split_conditions":[2E0,2.970294E-2,4.3208832E-1,7.3865326E-3,6.987222E-2,-1.714539E-2,2.402607E0,1E0,1E0,1E0,1.1180247E-1,-2.3420384E0,1.7594573E0,1.8379584E-2,1.7381626E-3,-4.875946E-5,2.5696328E-4,2.6244458E-4,5.2499067E-4,5.81345E-4,9.414448E-4,1.3262574E-3,2.3333288E-3,-2.1403288E-3,-8.2319044E-4,-5.4265716E-4,-1.3497128E-3,-3.9100854E-4,7.527331E-5,1.6949736E-3,4.7882108E-4],"split_indices":[6,13,44,13,11,13,44,6,6,6,11,402,176,13,258,0,0,0,0,0,0,0,0,0,0,0,0,0,0,0,0],"split_type":[0,0,0,0,0,0,0,0,0,0,0,0,0,0,0,0,0,0,0,0,0,0,0,0,0,0,0,0,0,0,0],"sum_hessian":[2.202E3,1.522E3,6.8E2,1.371E3,1.51E2,4.84E2,1.96E2,9.77E2,3.94E2,1.12E2,3.9E1,1.77E2,3.07E2,1.87E2,9E0,4.75E2,5.02E2,2.01E2,1.93E2,6.5E1,4.7E1,3.1E1,8E0,4E0,1.73E2,2.99E2,8E0,6.3E1,1.24E2,6E0,3E0],"tree_param":{"num_deleted":"0","num_feature":"460","num_nodes":"31","size_leaf_vector":"0"}},{"base_weights":[1.611706E-3,1.2320127E-2,-2.2339156E-2,8.747544E-3,4.4486333E-2,-2.9687995E-2,6.7920624E-3,2.0251076E-3,1.5273898E-2,3.401481E-2,7.295623E-2,-3.9781414E-2,-2.4711655E-2,2.3520936E-3,6.338845E-2,-3.80869E-5,2.930275E-4,2.565248E-4,5.2474503E-4,2.5203326E-4,7.692627E-4,1.3262574E-3,2.3333288E-3,-2.1403288E-3,-8.2319044E-4,-5.1619817E-4,-1.115791E-3,-3.1787262E-5,3.655621E-4,1.6949736E-3,4.7882108E-4],"categories":[],"categories_nodes":[],"categories_segments":[],"categories_sizes":[],"default_left":[0,0,0,0,0,0,0,0,0,0,0,0,0,0,0,0,0,0,0,0,0,0,0,0,0,0,0,0,0,0,0],"id":7,"left_children":[1,3,5,7,9,11,13,15,17,19,21,23,25,27,29,-1,-1,-1,-1,-1,-1,-1,-1,-1,-1,-1,-1,-1,-1,-1,-1],"loss_changes":[5.6529164E-1,1.7462854E-1,1.4599055E-1,6.016282E-2,4.283312E-2,2.634114E-2,3.4528404E-2,2.9313039E-2,2.1146879E-2,3.0640215E-3,9.88178E-3,1.6268313E-2,8.222029E-3,7.1414206E-3,4.3134876E-3,0E0,0E0,0E0,0E0,0E0,0E0,0E0,0E0,0E0,0E0,0E0,0E0,0E0,0E0,0E0,0E0],"parents":[2147483647,0,0,1,1,2,2,3,3,4,4,5,5,6,6,7,7,8,8,9,9,10,10,11,11,12,12,13,13,14,14],"right_children":[2,4,6,8,10,12,14,16,18,20,22,24,26,28,30,-1,-1,-1,-1,-1,-1,-1,-1,-1,-1,-1,-1,-1,-1,-1,-1],"split_conditions":[2E0,2.970294E-2,1.8379584E-2,1E0,6.987222E-2,-1.714539E-2,2.402607E0,1.0338005E-2,7.0082378E-3,-1.5252508E0,1.1180247E-1,-2.3420384E0,1.7594573E0,5.094322E-2,1.7381626E-3,-3.80869E-5,2.930275E-4,2.565248E-4,5.2474503E-4,2.5203326E-4,7.692627E-4,1.3262574E-3,2.3333288E-3,-2.1403288E-3,-8.2319044E-4,-5.1619817E-4,-1.115791E-3,-3.1787262E-5,3.655621E-4,1.6949736E-3,4.7882108E-4],"split_indices":[6,14,13,6,11,13,44,13,13,84,11,402,180,7,258,0,0,0,0,0,0,0,0,0,0,0,0,0,0,0,0],"split_type":[0,0,0,0,0,0,0,0,0,0,0,0,0,0,0,0,0,0,0,0,0,0,0,0,0,0,0,0,0,0,0],"sum_hessian":[2.202E3,1.522E3,6.8E2,1.371E3,1.51E2,5.43E2,1.37E2,6.76E2,6.95E2,1.12E2,3.9E1,1.77E2,3.66E2,1.28E2,9E0,5.09E2,1.67E2,5.01E2,1.94E2,7E0,1.05E2,3.1E1,8E0,4E0,1.73E2,3.55E2,1.1E1,1.02E2,2.6E1,6E0,3E0],"tree_param":{"num_deleted":"0","num_feature":"460","num_nodes":"31","size_leaf_vector":"0"}},{"base_weights":[1.611706E-3,1.2320127E-2,-2.2339156E-2,8.747544E-3,4.4486333E-2,-2.9687995E-2,6.7920624E-3,2.0251076E-3,1.5273898E-2,3.401481E-2,7.295623E-2,-3.9781414E-2,-2.4711655E-2,3.0571509E-3,7.625153E-2,-3.80869E-5,2.930275E-4,2.565248E-4,5.2474503E-4,5.81345E-4,9.414448E-4,1.4117166E-3,2.5236795E-3,-2.1403288E-3,-8.2319044E-4,-5.1619817E-4,-1.115791E-3,-2.1114567E-5,4.421227E-4,4.5761367E-4,1.7813778E-3],"categories":[],"categories_nodes":[],"categories_segments":[],"categories_sizes":[],"default_left":[0,0,0,0,0,0,0,0,0,0,0,0,0,0,0,0,0,0,0,0,0,0,0,0,0,0,0,0,0,0,0],"id":8,"left_children":[1,3,5,7,9,11,13,15,17,19,21,23,25,27,29,-1,-1,-1,-1,-1,-1,-1,-1,-1,-1,-1,-1,-1,-1,-1,-1],"loss_changes":[5.6529164E-1,1.7462854E-1,1.4599055E-1,6.016282E-2,4.283312E-2,2.634114E-2,3.5567533E-2,2.9313039E-2,2.1146879E-2,6.4781755E-3,6.2936544E-3,1.6268313E-2,8.222029E-3,9.208683E-3,4.744567E-4,0E0,0E0,0E0,0E0,0E0,0E0,0E0,0E0,0E0,0E0,0E0,0E0,0E0,0E0,0E0,0E0],"parents":[2147483647,0,0,1,1,2,2,3,3,4,4,5,5,6,6,7,7,8,8,9,9,10,10,11,11,12,12,13,13,14,14],"right_children":[2,4,6,8,10,12,14,16,18,20,22,24,26,28,30,-1,-1,-1,-1,-1,-1,-1,-1,-1,-1,-1,-1,-1,-1,-1,-1],"split_conditions":[2E0,2.970294E-2,1.8379584E-2,1E0,6.987222E-2,-1.714539E-2,9.059393E-2,1.0338005E-2,7.0082378E-3,1E0,9.059393E-2,-2.3420384E0,1.7594573E0,4.8311774E-2,-5.9274968E-2,-3.80869E-5,2.930275E-4,2.565248E-4,5.2474503E-4,5.81345E-4,9.414448E-4,1.4117166E-3,2.5236795E-3,-2.1403288E-3,-8.2319044E-4,-5.1619817E-4,-1.115791E-3,-2.1114567E-5,4.421227E-4,4.5761367E-4,1.7813778E-3],"split_indices":[6,13,13,6,11,13,13,13,13,6,13,402,176,13,0,0,0,0,0,0,0,0,0,0,0,0,0,0,0,0,0],"split_type":[0,0,0,0,0,0,0,0,0,0,0,0,0,0,0,0,0,0,0,0,0,0,0,0,0,0,0,0,0,0,0],"sum_hessian":[2.202E3,1.522E3,6.8E2,1.371E3,1.51E2,5.43E2,1.37E2,6.76E2,6.95E2,1.12E2,3.9E1,1.77E2,3.66E2,1.31E2,6E0,5.09E2,1.67E2,5.01E2,1.94E2,6.5E1,4.7E1,3.5E1,4E0,4E0,1.73E2,3.55E2,1.1E1,1.07E2,2.4E1,1E0,5E0],"tree_param":{"num_deleted":"0","num_feature":"460","num_nodes":"31","size_leaf_vector":"0"}},{"base_weights":[1.611706E-3,1.2320127E-2,-2.2339156E-2,8.747544E-3,4.4486333E-2,-2.9687995E-2,6.7920624E-3,2.0251076E-3,1.5273898E-2,3.401481E-2,7.295623E-2,-3.9781414E-2,-2.4711655E-2,3.0571509E-3,7.625153E-2,-3.80869E-5,2.930275E-4,2.565248E-4,5.2474503E-4,5.81345E-4,9.414448E-4,1.3262574E-3,2.3333288E-3,-2.1403288E-3,-8.2319044E-4,-5.1619817E-4,-1.115791E-3,-3.1787262E-5,4.0155937E-4,4.5761367E-4,1.7813778E-3],"categories":[],"categories_nodes":[],"categories_segments":[],"categories_sizes":[],"default_left":[0,0,0,0,0,0,0,0,0,0,0,0,0,0,0,0,0,0,0,0,0,0,0,0,0,0,0,0,0,0,0],"id":9,"left_children":[1,3,5,7,9,11,13,15,17,19,21,23,25,27,29,-1,-1,-1,-1,-1,-1,-1,-1,-1,-1,-1,-1,-1,-1,-1,-1],"loss_changes":[5.6529164E-1,1.7462854E-1,1.4599055E-1,6.016282E-2,4.283312E-2,2.634114E-2,3.5567533E-2,2.9313039E-2,2.1146879E-2,6.4781755E-3,9.88178E-3,1.6268313E-2,8.222029E-3,9.222673E-3,4.744567E-4,0E0,0E0,0E0,0E0,0E0,0E0,0E0,0E0,0E0,0E0,0E0,0E0,0E0,0E0,0E0,0E0],"parents":[2147483647,0,0,1,1,2,2,3,3,4,4,5,5,6,6,7,7,8,8,9,9,10,10,11,11,12,12,13,13,14,14],"right_children":[2,4,6,8,10,12,14,16,18,20,22,24,26,28,30,-1,-1,-1,-1,-1,-1,-1,-1,-1,-1,-1,-1,-1,-1,-1,-1],"split_conditions":[2E0,2.970294E-2,1.8379584E-2,1E0,6.987222E-2,-1.714539E-2,9.059393E-2,1.0338005E-2,7.0082378E-3,1E0,1.1180247E-1,-2.3420384E0,1.7594573E0,5.094322E-2,-5.9274968E-2,-3.80869E-5,2.930275E-4,2.565248E-4,5.2474503E-4,5.81345E-4,9.414448E-4,1.3262574E-3,2.3333288E-3,-2.1403288E-3,-8.2319044E-4,-5.1619817E-4,-1.115791E-3,-3.1787262E-5,4.0155937E-4,4.5761367E-4,1.7813778E-3],"split_indices":[6,13,13,6,12,13,13,13,13,6,11,402,176,7,4,0,0,0,0,0,0,0,0,0,0,0,0,0,0,0,0],"split_type":[0,0,0,0,0,0,0,0,0,0,0,0,0,0,0,0,0,0,0,0,0,0,0,0,0,0,0,0,0,0,0],"sum_hessian":[2.202E3,1.522E3,6.8E2,1.371E3,1.51E2,5.43E2,1.37E2,6.76E2,6.95E2,1.12E2,3.9E1,1.77E2,3.66E2,1.31E2,6E0,5.09E2,1.67E2,5.01E2,1.94E2,6.5E1,4.7E1,3.1E1,8E0,4E0,1.73E2,3.55E2,1.1E1,1.02E2,2.9E1,1E0,5E0],"tree_param":{"num_deleted":"0","num_feature":"460","num_nodes":"31","size_leaf_vector":"0"}},{"base_weights":[1.611706E-3,1.2320127E-2,-2.2339156E-2,8.747544E-3,4.4486333E-2,-2.9687995E-2,6.7920624E-3,2.0251076E-3,1.5273898E-2,3.401481E-2,7.295623E-2,-3.9781414E-2,-2.4711655E-2,3.0571509E-3,7.625153E-2,-3.80869E-5,2.930275E-4,2.565248E-4,5.2474503E-4,5.81345E-4,9.414448E-4,1.3262574E-3,2.3333288E-3,-2.1403288E-3,-8.2319044E-4,-5.1619817E-4,-1.115791E-3,-3.1787262E-5,4.0155937E-4,4.5761367E-4,1.7813778E-3],"categories":[],"categories_nodes":[],"categories_segments":[],"categories_sizes":[],"default_left":[0,0,0,0,0,0,0,0,0,0,0,0,0,0,0,0,0,0,0,0,0,0,0,0,0,0,0,0,0,0,0],"id":10,"left_children":[1,3,5,7,9,11,13,15,17,19,21,23,25,27,29,-1,-1,-1,-1,-1,-1,-1,-1,-1,-1,-1,-1,-1,-1,-1,-1],"loss_changes":[5.6529164E-1,1.7462854E-1,1.4599055E-1,6.016282E-2,4.283312E-2,2.634114E-2,3.5567533E-2,2.9313039E-2,2.1146879E-2,6.4781755E-3,9.88178E-3,1.6268313E-2,8.222029E-3,9.222673E-3,4.744567E-4,0E0,0E0,0E0,0E0,0E0,0E0,0E0,0E0,0E0,0E0,0E0,0E0,0E0,0E0,0E0,0E0],"parents":[2147483647,0,0,1,1,2,2,3,3,4,4,5,5,6,6,7,7,8,8,9,9,10,10,11,11,12,12,13,13,14,14],"right_children":[2,4,6,8,10,12,14,16,18,20,22,24,26,28,30,-1,-1,-1,-1,-1,-1,-1,-1,-1,-1,-1,-1,-1,-1,-1,-1],"split_conditions":[2E0,2.970294E-2,1.8379584E-2,1E0,6.987222E-2,-1.714539E-2,9.059393E-2,1.0338005E-2,7.0082378E-3,1E0,1.1180247E-1,-2.3420384E0,1.7594573E0,5.094322E-2,-5.9274968E-2,-3.80869E-5,2.930275E-4,2.565248E-4,5.2474503E-4,5.81345E-4,9.414448E-4,1.3262574E-3,2.3333288E-3,-2.1403288E-3,-8.2319044E-4,-5.1619817E-4,-1.115791E-3,-3.1787262E-5,4.0155937E-4,4.5761367E-4,1.7813778E-3],"split_indices":[6,14,13,6,11,13,13,13,14,6,11,402,180,7,0,0,0,0,0,0,0,0,0,0,0,0,0,0,0,0,0],"split_type":[0,0,0,0,0,0,0,0,0,0,0,0,0,0,0,0,0,0,0,0,0,0,0,0,0,0,0,0,0,0,0],"sum_hessian":[2.202E3,1.522E3,6.8E2,1.371E3,1.51E2,5.43E2,1.37E2,6.76E2,6.95E2,1.12E2,3.9E1,1.77E2,3.66E2,1.31E2,6E0,5.09E2,1.67E2,5.01E2,1.94E2,6.5E1,4.7E1,3.1E1,8E0,4E0,1.73E2,3.55E2,1.1E1,1.02E2,2.9E1,1E0,5E0],"tree_param":{"num_deleted":"0","num_feature":"460","num_nodes":"31","size_leaf_vector":"0"}},{"base_weights":[1.611706E-3,1.2320127E-2,-2.2339156E-2,8.747544E-3,4.4486333E-2,-2.9687995E-2,6.7920624E-3,4.9877088E-3,1.803456E-2,3.401481E-2,7.295623E-2,-3.9781414E-2,-2.4711655E-2,3.0571509E-3,7.625153E-2,-4.875946E-5,2.5696328E-4,2.8326033E-4,4.9356034E-4,5.81345E-4,9.414448E-4,1.3262574E-3,2.3333288E-3,-2.1403288E-3,-8.2319044E-4,-5.1619817E-4,-1.115791E-3,-3.1787262E-5,4.0155937E-4,4.5761367E-4,1.7813778E-3],"categories":[],"categories_nodes":[],"categories_segments":[],"categories_sizes":[],"default_left":[0,0,0,0,0,0,0,0,0,0,0,0,0,0,0,0,0,0,0,0,0,0,0,0,0,0,0,0,0,0,0],"id":11,"left_children":[1,3,5,7,9,11,13,15,17,19,21,23,25,27,29,-1,-1,-1,-1,-1,-1,-1,-1,-1,-1,-1,-1,-1,-1,-1,-1],"loss_changes":[5.6529164E-1,1.7462854E-1,1.4599055E-1,4.781709E-2,4.283312E-2,2.634114E-2,3.5567533E-2,4.8343733E-2,8.934319E-3,6.4781755E-3,9.88178E-3,1.6268313E-2,8.222029E-3,9.222673E-3,4.744567E-4,0E0,0E0,0E0,0E0,0E0,0E0,0E0,0E0,0E0,0E0,0E0,0E0,0E0,0E0,0E0,0E0],"parents":[2147483647,0,0,1,1,2,2,3,3,4,4,5,5,6,6,7,7,8,8,9,9,10,10,11,11,12,12,13,13,14,14],"right_children":[2,4,6,8,10,12,14,16,18,20,22,24,26,28,30,-1,-1,-1,-1,-1,-1,-1,-1,-1,-1,-1,-1,-1,-1,-1,-1],"split_conditions":[2E0,2.970294E-2,1.8379584E-2,7.3865326E-3,6.987222E-2,-1.714539E-2,9.059393E-2,1E0,-3.6389658E-1,1E0,1.1180247E-1,-2.3420384E0,1.7594573E0,5.094322E-2,-5.9274968E-2,-4.875946E-5,2.5696328E-4,2.8326033E-4,4.9356034E-4,5.81345E-4,9.414448E-4,1.3262574E-3,2.3333288E-3,-2.1403288E-3,-8.2319044E-4,-5.1619817E-4,-1.115791E-3,-3.1787262E-5,4.0155937E-4,4.5761367E-4,1.7813778E-3],"split_indices":[6,13,14,13,11,13,13,6,36,6,11,406,176,7,0,0,0,0,0,0,0,0,0,0,0,0,0,0,0,0,0],"split_type":[0,0,0,0,0,0,0,0,0,0,0,0,0,0,0,0,0,0,0,0,0,0,0,0,0,0,0,0,0,0,0],"sum_hessian":[2.202E3,1.522E3,6.8E2,1.371E3,1.51E2,5.43E2,1.37E2,9.77E2,3.94E2,1.12E2,3.9E1,1.77E2,3.66E2,1.31E2,6E0,4.75E2,5.02E2,1.92E2,2.02E2,6.5E1,4.7E1,3.1E1,8E0,4E0,1.73E2,3.55E2,1.1E1,1.02E2,2.9E1,1E0,5E0],"tree_param":{"num_deleted":"0","num_feature":"460","num_nodes":"31","size_leaf_vector":"0"}},{"base_weights":[1.611706E-3,1.2320127E-2,-2.2339156E-2,8.747544E-3,4.4486333E-2,-2.9687995E-2,6.7920624E-3,2.0251076E-3,1.5273898E-2,3.401481E-2,7.295623E-2,-3.9781414E-2,-2.4711655E-2,3.0571509E-3,7.625153E-2,-3.80869E-5,2.930275E-4,2.565248E-4,5.2474503E-4,5.81345E-4,9.414448E-4,1.3262574E-3,2.3333288E-3,-2.1403288E-3,-8.2319044E-4,-5.1619817E-4,-1.115791E-3,-3.1787262E-5,4.0155937E-4,4.5761367E-4,1.7813778E-3],"categories":[],"categories_nodes":[],"categories_segments":[],"categories_sizes":[],"default_left":[0,0,0,0,0,0,0,0,0,0,0,0,0,0,0,0,0,0,0,0,0,0,0,0,0,0,0,0,0,0,0],"id":12,"left_children":[1,3,5,7,9,11,13,15,17,19,21,23,25,27,29,-1,-1,-1,-1,-1,-1,-1,-1,-1,-1,-1,-1,-1,-1,-1,-1],"loss_changes":[5.6529164E-1,1.7462854E-1,1.4599055E-1,6.016282E-2,4.283312E-2,2.634114E-2,3.5567533E-2,2.9313039E-2,2.1146879E-2,6.4781755E-3,9.88178E-3,1.6268313E-2,8.222029E-3,9.222673E-3,4.744567E-4,0E0,0E0,0E0,0E0,0E0,0E0,0E0,0E0,0E0,0E0,0E0,0E0,0E0,0E0,0E0,0E0],"parents":[2147483647,0,0,1,1,2,2,3,3,4,4,5,5,6,6,7,7,8,8,9,9,10,10,11,11,12,12,13,13,14,14],"right_children":[2,4,6,8,10,12,14,16,18,20,22,24,26,28,30,-1,-1,-1,-1,-1,-1,-1,-1,-1,-1,-1,-1,-1,-1,-1,-1],"split_conditions":[2E0,2.970294E-2,1.8379584E-2,1E0,6.987222E-2,-1.714539E-2,9.059393E-2,1.0338005E-2,7.0082378E-3,1E0,1.1180247E-1,-2.3420384E0,1.7594573E0,5.094322E-2,-5.9274968E-2,-3.80869E-5,2.930275E-4,2.565248E-4,5.2474503E-4,5.81345E-4,9.414448E-4,1.3262574E-3,2.3333288E-3,-2.1403288E-3,-8.2319044E-4,-5.1619817E-4,-1.115791E-3,-3.1787262E-5,4.0155937E-4,4.5761367E-4,1.7813778E-3],"split_indices":[6,13,13,6,11,13,13,13,14,6,12,402,176,7,0,0,0,0,0,0,0,0,0,0,0,0,0,0,0,0,0],"split_type":[0,0,0,0,0,0,0,0,0,0,0,0,0,0,0,0,0,0,0,0,0,0,0,0,0,0,0,0,0,0,0],"sum_hessian":[2.202E3,1.522E3,6.8E2,1.371E3,1.51E2,5.43E2,1.37E2,6.76E2,6.95E2,1.12E2,3.9E1,1.77E2,3.66E2,1.31E2,6E0,5.09E2,1.67E2,5.01E2,1.94E2,6.5E1,4.7E1,3.1E1,8E0,4E0,1.73E2,3.55E2,1.1E1,1.02E2,2.9E1,1E0,5E0],"tree_param":{"num_deleted":"0","num_feature":"460","num_nodes":"31","size_leaf_vector":"0"}},{"base_weights":[1.611706E-3,1.2320127E-2,-2.2339156E-2,8.747544E-3,4.4486333E-2,-2.9687995E-2,6.7920624E-3,2.0251076E-3,1.5273898E-2,3.401481E-2,7.295623E-2,-3.9781414E-2,-2.4711655E-2,3.0571509E-3,7.625153E-2,-3.80869E-5,2.930275E-4,2.565248E-4,5.2474503E-4,5.81345E-4,9.414448E-4,1.3262574E-3,2.3333288E-3,-2.1403288E-3,-8.2319044E-4,-5.1619817E-4,-1.115791E-3,-3.1787262E-5,4.0155937E-4,4.5761367E-4,1.7813778E-3],"categories":[],"categories_nodes":[],"categories_segments":[],"categories_sizes":[],"default_left":[0,0,0,0,0,0,0,0,0,0,0,0,0,0,0,0,0,0,0,0,0,0,0,0,0,0,0,0,0,0,0],"id":13,"left_children":[1,3,5,7,9,11,13,15,17,19,21,23,25,27,29,-1,-1,-1,-1,-1,-1,-1,-1,-1,-1,-1,-1,-1,-1,-1,-1],"loss_changes":[5.6529164E-1,1.7462854E-1,1.4599055E-1,6.016282E-2,4.283312E-2,2.634114E-2,3.5567533E-2,2.9313039E-2,2.1146879E-2,6.4781755E-3,9.88178E-3,1.6268313E-2,8.222029E-3,9.222673E-3,4.744567E-4,0E0,0E0,0E0,0E0,0E0,0E0,0E0,0E0,0E0,0E0,0E0,0E0,0E0,0E0,0E0,0E0],"parents":[2147483647,0,0,1,1,2,2,3,3,4,4,5,5,6,6,7,7,8,8,9,9,10,10,11,11,12,12,13,13,14,14],"right_children":[2,4,6,8,10,12,14,16,18,20,22,24,26,28,30,-1,-1,-1,-1,-1,-1,-1,-1,-1,-1,-1,-1,-1,-1,-1,-1],"split_conditions":[2E0,2.970294E-2,1.8379584E-2,1E0,6.987222E-2,-1.714539E-2,9.059393E-2,1.0338005E-2,7.0082378E-3,1E0,1.1180247E-1,-2.3420384E0,1.7594573E0,5.094322E-2,-5.9274968E-2,-3.80869E-5,2.930275E-4,2.565248E-4,5.2474503E-4,5.81345E-4,9.414448E-4,1.3262574E-3,2.3333288E-3,-2.1403288E-3,-8.2319044E-4,-5.1619817E-4,-1.115791E-3,-3.1787262E-5,4.0155937E-4,4.5761367E-4,1.7813778E-3],"split_indices":[6,13,14,6,11,13,13,13,14,6,11,406,176,7,0,0,0,0,0,0,0,0,0,0,0,0,0,0,0,0,0],"split_type":[0,0,0,0,0,0,0,0,0,0,0,0,0,0,0,0,0,0,0,0,0,0,0,0,0,0,0,0,0,0,0],"sum_hessian":[2.202E3,1.522E3,6.8E2,1.371E3,1.51E2,5.43E2,1.37E2,6.76E2,6.95E2,1.12E2,3.9E1,1.77E2,3.66E2,1.31E2,6E0,5.09E2,1.67E2,5.01E2,1.94E2,6.5E1,4.7E1,3.1E1,8E0,4E0,1.73E2,3.55E2,1.1E1,1.02E2,2.9E1,1E0,5E0],"tree_param":{"num_deleted":"0","num_feature":"460","num_nodes":"31","size_leaf_vector":"0"}},{"base_weights":[1.611706E-3,1.2320127E-2,-2.2339156E-2,8.747544E-3,4.4486333E-2,-2.9687995E-2,6.7920624E-3,2.0251076E-3,1.5273898E-2,3.401481E-2,7.295623E-2,-3.9781414E-2,-2.4711655E-2,3.0571509E-3,7.625153E-2,-3.80869E-5,2.930275E-4,2.565248E-4,5.2474503E-4,2.5203326E-4,7.692627E-4,1.3262574E-3,2.3333288E-3,-2.1403288E-3,-8.2319044E-4,-5.1619817E-4,-1.115791E-3,-3.1787262E-5,4.0155937E-4,4.5761367E-4,1.7813778E-3],"categories":[],"categories_nodes":[],"categories_segments":[],"categories_sizes":[],"default_left":[0,0,0,0,0,0,0,0,0,0,0,0,0,0,0,0,0,0,0,0,0,0,0,0,0,0,0,0,0,0,0],"id":14,"left_children":[1,3,5,7,9,11,13,15,17,19,21,23,25,27,29,-1,-1,-1,-1,-1,-1,-1,-1,-1,-1,-1,-1,-1,-1,-1,-1],"loss_changes":[5.6529164E-1,1.7462854E-1,1.4599055E-1,6.016282E-2,4.283312E-2,2.634114E-2,3.5567533E-2,2.9313039E-2,2.1146879E-2,3.0640215E-3,9.88178E-3,1.6268313E-2,8.222029E-3,9.222673E-3,4.744567E-4,0E0,0E0,0E0,0E0,0E0,0E0,0E0,0E0,0E0,0E0,0E0,0E0,0E0,0E0,0E0,0E0],"parents":[2147483647,0,0,1,1,2,2,3,3,4,4,5,5,6,6,7,7,8,8,9,9,10,10,11,11,12,12,13,13,14,14],"right_children":[2,4,6,8,10,12,14,16,18,20,22,24,26,28,30,-1,-1,-1,-1,-1,-1,-1,-1,-1,-1,-1,-1,-1,-1,-1,-1],"split_conditions":[2E0,2.970294E-2,1.8379584E-2,1E0,6.987222E-2,-1.714539E-2,9.059393E-2,1.0338005E-2,7.0082378E-3,-1.5252508E0,1.1180247E-1,-2.3420384E0,1.7594573E0,5.094322E-2,-5.9274968E-2,-3.80869E-5,2.930275E-4,2.565248E-4,5.2474503E-4,2.5203326E-4,7.692627E-4,1.3262574E-3,2.3333288E-3,-2.1403288E-3,-8.2319044E-4,-5.1619817E-4,-1.115791E-3,-3.1787262E-5,4.0155937E-4,4.5761367E-4,1.7813778E-3],"split_indices":[6,13,13,6,11,13,13,14,13,84,12,402,176,7,0,0,0,0,0,0,0,0,0,0,0,0,0,0,0,0,0],"split_type":[0,0,0,0,0,0,0,0,0,0,0,0,0,0,0,0,0,0,0,0,0,0,0,0,0,0,0,0,0,0,0],"sum_hessian":[2.202E3,1.522E3,6.8E2,1.371E3,1.51E2,5.43E2,1.37E2,6.76E2,6.95E2,1.12E2,3.9E1,1.77E2,3.66E2,1.31E2,6E0,5.09E2,1.67E2,5.01E2,1.94E2,7E0,1.05E2,3.1E1,8E0,4E0,1.73E2,3.55E2,1.1E1,1.02E2,2.9E1,1E0,5E0],"tree_param":{"num_deleted":"0","num_feature":"460","num_nodes":"31","size_leaf_vector":"0"}},{"base_weights":[1.611706E-3,1.2320127E-2,-2.2339156E-2,8.747544E-3,4.4486333E-2,-2.9687995E-2,6.7920624E-3,2.0251076E-3,1.5273898E-2,3.401481E-2,7.295623E-2,-3.9781414E-2,-2.4711655E-2,3.0571509E-3,7.625153E-2,-3.80869E-5,2.930275E-4,2.565248E-4,5.2474503E-4,5.81345E-4,9.414448E-4,1.3262574E-3,2.3333288E-3,-2.1403288E-3,-8.2319044E-4,-5.1619817E-4,-1.115791E-3,-2.1114567E-5,4.421227E-4,4.5761367E-4,1.7813778E-3],"categories":[],"categories_nodes":[],"categories_segments":[],"categories_sizes":[],"default_left":[0,0,0,0,0,0,0,0,0,0,0,0,0,0,0,0,0,0,0,0,0,0,0,0,0,0,0,0,0,0,0],"id":15,"left_children":[1,3,5,7,9,11,13,15,17,19,21,23,25,27,29,-1,-1,-1,-1,-1,-1,-1,-1,-1,-1,-1,-1,-1,-1,-1,-1],"loss_changes":[5.6529164E-1,1.7462854E-1,1.4599055E-1,6.016282E-2,4.283312E-2,2.634114E-2,3.5567533E-2,2.9313039E-2,2.1146879E-2,6.4781755E-3,9.88178E-3,1.6268313E-2,8.222029E-3,9.208683E-3,4.744567E-4,0E0,0E0,0E0,0E0,0E0,0E0,0E0,0E0,0E0,0E0,0E0,0E0,0E0,0E0,0E0,0E0],"parents":[2147483647,0,0,1,1,2,2,3,3,4,4,5,5,6,6,7,7,8,8,9,9,10,10,11,11,12,12,13,13,14,14],"right_children":[2,4,6,8,10,12,14,16,18,20,22,24,26,28,30,-1,-1,-1,-1,-1,-1,-1,-1,-1,-1,-1,-1,-1,-1,-1,-1],"split_conditions":[2E0,2.970294E-2,1.8379584E-2,1E0,6.987222E-2,-1.714539E-2,9.059393E-2,1.0338005E-2,7.0082378E-3,1E0,1.1180247E-1,-2.3420384E0,1.7594573E0,4.8311774E-2,-5.9274968E-2,-3.80869E-5,2.930275E-4,2.565248E-4,5.2474503E-4,5.81345E-4,9.414448E-4,1.3262574E-3,2.3333288E-3,-2.1403288E-3,-8.2319044E-4,-5.1619817E-4,-1.115791E-3,-2.1114567E-5,4.421227E-4,4.5761367E-4,1.7813778E-3],"split_indices":[6,13,14,6,11,14,13,13,13,6,11,402,176,13,0,0,0,0,0,0,0,0,0,0,0,0,0,0,0,0,0],"split_type":[0,0,0,0,0,0,0,0,0,0,0,0,0,0,0,0,0,0,0,0,0,0,0,0,0,0,0,0,0,0,0],"sum_hessian":[2.202E3,1.522E3,6.8E2,1.371E3,1.51E2,5.43E2,1.37E2,6.76E2,6.95E2,1.12E2,3.9E1,1.77E2,3.66E2,1.31E2,6E0,5.09E2,1.67E2,5.01E2,1.94E2,6.5E1,4.7E1,3.1E1,8E0,4E0,1.73E2,3.55E2,1.1E1,1.07E2,2.4E1,1E0,5E0],"tree_param":{"num_deleted":"0","num_feature":"460","num_nodes":"31","size_leaf_vector":"0"}},{"base_weights":[1.611706E-3,1.2320127E-2,-2.2339156E-2,8.747544E-3,4.4486333E-2,-2.9687995E-2,6.7920624E-3,4.9877088E-3,1.803456E-2,3.401481E-2,7.295623E-2,-3.9781414E-2,-2.4711655E-2,2.3520936E-3,6.338845E-2,-4.875946E-5,2.5696328E-4,2.8326033E-4,4.9356034E-4,5.81345E-4,9.414448E-4,1.3262574E-3,2.3333288E-3,-2.1403288E-3,-8.2319044E-4,-5.1619817E-4,-1.115791E-3,-3.1787262E-5,3.655621E-4,1.6949736E-3,4.7882108E-4],"categories":[],"categories_nodes":[],"categories_segments":[],"categories_sizes":[],"default_left":[0,0,0,0,0,0,0,0,0,0,0,0,0,0,0,0,0,0,0,0,0,0,0,0,0,0,0,0,0,0,0],"id":16,"left_children":[1,3,5,7,9,11,13,15,17,19,21,23,25,27,29,-1,-1,-1,-1,-1,-1,-1,-1,-1,-1,-1,-1,-1,-1,-1,-1],"loss_changes":[5.6529164E-1,1.7462854E-1,1.4599055E-1,4.781709E-2,4.283312E-2,2.634114E-2,3.4528404E-2,4.8343733E-2,8.934319E-3,6.4781755E-3,9.88178E-3,1.6268313E-2,8.222029E-3,7.1414206E-3,4.3134876E-3,0E0,0E0,0E0,0E0,0E0,0E0,0E0,0E0,0E0,0E0,0E0,0E0,0E0,0E0,0E0,0E0],"parents":[2147483647,0,0,1,1,2,2,3,3,4,4,5,5,6,6,7,7,8,8,9,9,10,10,11,11,12,12,13,13,14,14],"right_children":[2,4,6,8,10,12,14,16,18,20,22,24,26,28,30,-1,-1,-1,-1,-1,-1,-1,-1,-1,-1,-1,-1,-1,-1,-1,-1],"split_conditions":[2E0,2.970294E-2,1.8379584E-2,7.3865326E-3,6.987222E-2,-1.714539E-2,2.402607E0,1E0,-3.6389658E-1,1E0,1.1180247E-1,-2.3420384E0,1.7594573E0,5.094322E-2,1.7381626E-3,-4.875946E-5,2.5696328E-4,2.8326033E-4,4.9356034E-4,5.81345E-4,9.414448E-4,1.3262574E-3,2.3333288E-3,-2.1403288E-3,-8.2319044E-4,-5.1619817E-4,-1.115791E-3,-3.1787262E-5,3.655621E-4,1.6949736E-3,4.7882108E-4],"split_indices":[6,13,13,13,11,13,44,6,36,6,11,402,176,7,258,0,0,0,0,0,0,0,0,0,0,0,0,0,0,0,0],"split_type":[0,0,0,0,0,0,0,0,0,0,0,0,0,0,0,0,0,0,0,0,0,0,0,0,0,0,0,0,0,0,0],"sum_hessian":[2.202E3,1.522E3,6.8E2,1.371E3,1.51E2,5.43E2,1.37E2,9.77E2,3.94E2,1.12E2,3.9E1,1.77E2,3.66E2,1.28E2,9E0,4.75E2,5.02E2,1.92E2,2.02E2,6.5E1,4.7E1,3.1E1,8E0,4E0,1.73E2,3.55E2,1.1E1,1.02E2,2.6E1,6E0,3E0],"tree_param":{"num_deleted":"0","num_feature":"460","num_nodes":"31","size_leaf_vector":"0"}},{"base_weights":[1.611706E-3,1.2320127E-2,-2.2339156E-2,8.747544E-3,4.4486333E-2,-2.9687995E-2,6.7920624E-3,2.0251076E-3,1.5273898E-2,3.401481E-2,7.295623E-2,-3.9781414E-2,-2.4711655E-2,3.0571509E-3,7.625153E-2,-3.80869E-5,2.930275E-4,2.565248E-4,5.2474503E-4,5.81345E-4,9.414448E-4,1.3262574E-3,2.3333288E-3,-2.1403288E-3,-8.2319044E-4,-5.1619817E-4,-1.115791E-3,-3.1787262E-5,4.0155937E-4,4.5761367E-4,1.7813778E-3],"categories":[],"categories_nodes":[],"categories_segments":[],"categories_sizes":[],"default_left":[0,0,0,0,0,0,0,0,0,0,0,0,0,0,0,0,0,0,0,0,0,0,0,0,0,0,0,0,0,0,0],"id":17,"left_children":[1,3,5,7,9,11,13,15,17,19,21,23,25,27,29,-1,-1,-1,-1,-1,-1,-1,-1,-1,-1,-1,-1,-1,-1,-1,-1],"loss_changes":[5.6529164E-1,1.7462854E-1,1.4599055E-1,6.016282E-2,4.283312E-2,2.634114E-2,3.5567533E-2,2.9313039E-2,2.1146879E-2,6.4781755E-3,9.88178E-3,1.6268313E-2,8.222029E-3,9.222673E-3,4.744567E-4,0E0,0E0,0E0,0E0,0E0,0E0,0E0,0E0,0E0,0E0,0E0,0E0,0E0,0E0,0E0,0E0],"parents":[2147483647,0,0,1,1,2,2,3,3,4,4,5,5,6,6,7,7,8,8,9,9,10,10,11,11,12,12,13,13,14,14],"right_children":[2,4,6,8,10,12,14,16,18,20,22,24,26,28,30,-1,-1,-1,-1,-1,-1,-1,-1,-1,-1,-1,-1,-1,-1,-1,-1],"split_conditions":[2E0,2.970294E-2,1.8379584E-2,1E0,6.987222E-2,-1.714539E-2,9.059393E-2,1.0338005E-2,7.0082378E-3,1E0,1.1180247E-1,-2.3420384E0,1.7594573E0,5.094322E-2,-5.9274968E-2,-3.80869E-5,2.930275E-4,2.565248E-4,5.2474503E-4,5.81345E-4,9.414448E-4,1.3262574E-3,2.3333288E-3,-2.1403288E-3,-8.2319044E-4,-5.1619817E-4,-1.115791E-3,-3.1787262E-5,4.0155937E-4,4.5761367E-4,1.7813778E-3],"split_indices":[6,13,13,6,11,13,14,13,14,6,12,402,176,7,0,0,0,0,0,0,0,0,0,0,0,0,0,0,0,0,0],"split_type":[0,0,0,0,0,0,0,0,0,0,0,0,0,0,0,0,0,0,0,0,0,0,0,0,0,0,0,0,0,0,0],"sum_hessian":[2.202E3,1.522E3,6.8E2,1.371E3,1.51E2,5.43E2,1.37E2,6.76E2,6.95E2,1.12E2,3.9E1,1.77E2,3.66E2,1.31E2,6E0,5.09E2,1.67E2,5.01E2,1.94E2,6.5E1,4.7E1,3.1E1,8E0,4E0,1.73E2,3.55E2,1.1E1,1.02E2,2.9E1,1E0,5E0],"tree_param":{"num_deleted":"0","num_feature":"460","num_nodes":"31","size_leaf_vector":"0"}},{"base_weights":[1.611706E-3,1.2320127E-2,-2.2339156E-2,8.747544E-3,4.4486333E-2,-2.9687995E-2,6.7920624E-3,2.0251076E-3,1.5273898E-2,3.401481E-2,7.295623E-2,-3.9781414E-2,-2.4711655E-2,3.0571509E-3,7.625153E-2,-3.80869E-5,2.930275E-4,2.565248E-4,5.2474503E-4,5.81345E-4,9.414448E-4,1.3262574E-3,2.3333288E-3,-2.1403288E-3,-8.2319044E-4,-5.1619817E-4,-1.115791E-3,-3.1787262E-5,4.0155937E-4,4.5761367E-4,1.7813778E-3],"categories":[],"categories_nodes":[],"categories_segments":[],"categories_sizes":[],"default_left":[0,0,0,0,0,0,0,0,0,0,0,0,0,0,0,0,0,0,0,0,0,0,0,0,0,0,0,0,0,0,0],"id":18,"left_children":[1,3,5,7,9,11,13,15,17,19,21,23,25,27,29,-1,-1,-1,-1,-1,-1,-1,-1,-1,-1,-1,-1,-1,-1,-1,-1],"loss_changes":[5.6529164E-1,1.7462854E-1,1.4599055E-1,6.016282E-2,4.283312E-2,2.634114E-2,3.5567533E-2,2.9313039E-2,2.1146879E-2,6.4781755E-3,9.88178E-3,1.6268313E-2,8.222029E-3,9.222673E-3,4.744567E-4,0E0,0E0,0E0,0E0,0E0,0E0,0E0,0E0,0E0,0E0,0E0,0E0,0E0,0E0,0E0,0E0],"parents":[2147483647,0,0,1,1,2,2,3,3,4,4,5,5,6,6,7,7,8,8,9,9,10,10,11,11,12,12,13,13,14,14],"right_children":[2,4,6,8,10,12,14,16,18,20,22,24,26,28,30,-1,-1,-1,-1,-1,-1,-1,-1,-1,-1,-1,-1,-1,-1,-1,-1],"split_conditions":[2E0,2.970294E-2,1.8379584E-2,1E0,6.987222E-2,-1.714539E-2,9.059393E-2,1.0338005E-2,7.0082378E-3,1E0,1.1180247E-1,-2.3420384E0,1.7594573E0,5.094322E-2,-5.9274968E-2,-3.80869E-5,2.930275E-4,2.565248E-4,5.2474503E-4,5.81345E-4,9.414448E-4,1.3262574E-3,2.3333288E-3,-2.1403288E-3,-8.2319044E-4,-5.1619817E-4,-1.115791E-3,-3.1787262E-5,4.0155937E-4,4.5761367E-4,1.7813778E-3],"split_indices":[6,13,14,6,11,13,13,14,14,6,11,402,176,7,0,0,0,0,0,0,0,0,0,0,0,0,0,0,0,0,0],"split_type":[0,0,0,0,0,0,0,0,0,0,0,0,0,0,0,0,0,0,0,0,0,0,0,0,0,0,0,0,0,0,0],"sum_hessian":[2.202E3,1.522E3,6.8E2,1.371E3,1.51E2,5.43E2,1.37E2,6.76E2,6.95E2,1.12E2,3.9E1,1.77E2,3.66E2,1.31E2,6E0,5.09E2,1.67E2,5.01E2,1.94E2,6.5E1,4.7E1,3.1E1,8E0,4E0,1.73E2,3.55E2,1.1E1,1.02E2,2.9E1,1E0,5E0],"tree_param":{"num_deleted":"0","num_feature":"460","num_nodes":"31","size_leaf_vector":"0"}},{"base_weights":[1.611706E-3,1.2320127E-2,-2.2339156E-2,8.747544E-3,4.4486333E-2,-2.9687995E-2,6.7920624E-3,2.0251076E-3,1.5273898E-2,3.401481E-2,7.295623E-2,-3.9781414E-2,-2.4711655E-2,3.0571509E-3,7.625153E-2,-3.80869E-5,2.930275E-4,2.565248E-4,5.2474503E-4,5.81345E-4,9.414448E-4,1.4117166E-3,2.5236795E-3,-2.1403288E-3,-8.2319044E-4,-5.1619817E-4,-1.115791E-3,-3.1787262E-5,4.0155937E-4,4.5761367E-4,1.7813778E-3],"categories":[],"categories_nodes":[],"categories_segments":[],"categories_sizes":[],"default_left":[0,0,0,0,0,0,0,0,0,0,0,0,0,0,0,0,0,0,0,0,0,0,0,0,0,0,0,0,0,0,0],"id":19,"left_children":[1,3,5,7,9,11,13,15,17,19,21,23,25,27,29,-1,-1,-1,-1,-1,-1,-1,-1,-1,-1,-1,-1,-1,-1,-1,-1],"loss_changes":[5.6529164E-1,1.7462854E-1,1.4599055E-1,6.016282E-2,4.283312E-2,2.634114E-2,3.5567533E-2,2.9313039E-2,2.1146879E-2,6.4781755E-3,6.2936544E-3,1.6268313E-2,8.222029E-3,9.222673E-3,4.744567E-4,0E0,0E0,0E0,0E0,0E0,0E0,0E0,0E0,0E0,0E0,0E0,0E0,0E0,0E0,0E0,0E0],"parents":[2147483647,0,0,1,1,2,2,3,3,4,4,5,5,6,6,7,7,8,8,9,9,10,10,11,11,12,12,13,13,14,14],"right_children":[2,4,6,8,10,12,14,16,18,20,22,24,26,28,30,-1,-1,-1,-1,-1,-1,-1,-1,-1,-1,-1,-1,-1,-1,-1,-1],"split_conditions":[2E0,2.970294E-2,1.8379584E-2,1E0,6.987222E-2,-1.714539E-2,9.059393E-2,1.0338005E-2,7.0082378E-3,1E0,9.059393E-2,-2.3420384E0,1.7594573E0,5.094322E-2,-5.9274968E-2,-3.80869E-5,2.930275E-4,2.565248E-4,5.2474503E-4,5.81345E-4,9.414448E-4,1.4117166E-3,2.5236795E-3,-2.1403288E-3,-8.2319044E-4,-5.1619817E-4,-1.115791E-3,-3.1787262E-5,4.0155937E-4,4.5761367E-4,1.7813778E-3],"split_indices":[6,13,13,6,11,13,14,14,13,6,13,402,176,7,0,0,0,0,0,0,0,0,0,0,0,0,0,0,0,0,0],"split_type":[0,0,0,0,0,0,0,0,0,0,0,0,0,0,0,0,0,0,0,0,0,0,0,0,0,0,0,0,0,0,0],"sum_hessian":[2.202E3,1.522E3,6.8E2,1.371E3,1.51E2,5.43E2,1.37E2,6.76E2,6.95E2,1.12E2,3.9E1,1.77E2,3.66E2,1.31E2,6E0,5.09E2,1.67E2,5.01E2,1.94E2,6.5E1,4.7E1,3.5E1,4E0,4E0,1.73E2,3.55E2,1.1E1,1.02E2,2.9E1,1E0,5E0],"tree_param":{"num_deleted":"0","num_feature":"460","num_nodes":"31","size_leaf_vector":"0"}},{"base_weights":[1.611706E-3,-4.821904E-3,2.39953E-2,-1.0101509E-2,5.191316E-4,2.1123426E-2,8.438885E-2,3.4084825E-3,-3.5636857E-2,-2.0551942E-3,6.045842E-3,1.7010888E-2,3.3010837E-2,1.0576667E-1,4.1757926E-2,-1.00860634E-4,2.3397741E-4,-1.1784042E-3,-7.2512816E-4,1.6963478E-4,-5.5652653E-4,2.8194115E-4,-3.1327765E-4,5.150381E-4,-6.516592E-5,1.043534E-3,2.0702598E-4,1.1947348E-3,2.4919016E-3,1.161104E-3,3.008513E-4],"categories":[],"categories_nodes":[],"categories_segments":[],"categories_sizes":[],"default_left":[0,0,0,0,0,0,0,0,0,0,0,0,0,0,0,0,0,0,0,0,0,0,0,0,0,0,0,0,0,0,0],"id":20,"left_children":[1,3,5,7,9,11,13,15,17,19,21,23,25,27,29,-1,-1,-1,-1,-1,-1,-1,-1,-1,-1,-1,-1,-1,-1,-1,-1],"loss_changes":[3.1736383E-1,4.828118E-2,8.355129E-2,2.971513E-1,1.21343015E-2,2.2464424E-2,1.563324E-2,3.3432737E-2,1.0814279E-2,1.3529137E-1,3.856872E-2,4.712432E-2,4.1797295E-2,3.233552E-6,2.188839E-3,0E0,0E0,0E0,0E0,0E0,0E0,0E0,0E0,0E0,0E0,0E0,0E0,0E0,0E0,0E0,0E0],"parents":[2147483647,0,0,1,1,2,2,3,3,4,4,5,5,6,6,7,7,8,8,9,9,10,10,11,11,12,12,13,13,14,14],"right_children":[2,4,6,8,10,12,14,16,18,20,22,24,26,28,30,-1,-1,-1,-1,-1,-1,-1,-1,-1,-1,-1,-1,-1,-1,-1,-1],"split_conditions":[1.7259225E-2,-2.9349992E-1,1.066381E-1,2E0,1.040389E-3,5.7094526E-2,9.972025E-1,1E0,-1.3577669E0,2E0,2E0,2E0,2E0,-3.9015782E-1,7.6964475E-2,-1.00860634E-4,2.3397741E-4,-1.1784042E-3,-7.2512816E-4,1.6963478E-4,-5.5652653E-4,2.8194115E-4,-3.1327765E-4,5.150381E-4,-6.516592E-5,1.043534E-3,2.0702598E-4,1.1947348E-3,2.4919016E-3,1.161104E-3,3.008513E-4],"split_indices":[13,43,11,6,0,11,218,6,250,6,6,6,6,133,100,0,0,0,0,0,0,0,0,0,0,0,0,0,0,0,0],"split_type":[0,0,0,0,0,0,0,0,0,0,0,0,0,0,0,0,0,0,0,0,0,0,0,0,0,0,0,0,0,0,0],"sum_hessian":[2.202E3,1.711E3,4.91E2,8.6E2,8.51E2,4.7E2,2.1E1,5.63E2,2.97E2,5.81E2,2.7E2,3.51E2,1.19E2,1.3E1,8E0,2.69E2,2.94E2,3E1,2.67E2,4.1E2,1.71E2,2.02E2,6.8E1,2.63E2,8.8E1,7.2E1,4.7E1,3E0,1E1,5E0,3E0],"tree_param":{"num_deleted":"0","num_feature":"460","num_nodes":"31","size_leaf_vector":"0"}},{"base_weights":[1.611706E-3,1.2320127E-2,-2.2339156E-2,8.747544E-3,4.4486333E-2,-2.9687995E-2,6.7920624E-3,2.0251076E-3,1.5273898E-2,3.401481E-2,7.295623E-2,-3.9781414E-2,-2.4711655E-2,3.0571509E-3,7.625153E-2,-3.80869E-5,2.930275E-4,2.565248E-4,5.2474503E-4,2.5203326E-4,7.692627E-4,1.3262574E-3,2.3333288E-3,-2.1403288E-3,-8.2319044E-4,-5.1619817E-4,-1.115791E-3,-3.1787262E-5,4.0155937E-4,4.5761367E-4,1.7813778E-3],"categories":[],"categories_nodes":[],"categories_segments":[],"categories_sizes":[],"default_left":[0,0,0,0,0,0,0,0,0,0,0,0,0,0,0,0,0,0,0,0,0,0,0,0,0,0,0,0,0,0,0],"id":21,"left_children":[1,3,5,7,9,11,13,15,17,19,21,23,25,27,29,-1,-1,-1,-1,-1,-1,-1,-1,-1,-1,-1,-1,-1,-1,-1,-1],"loss_changes":[5.6529164E-1,1.7462854E-1,1.4599055E-1,6.016282E-2,4.283312E-2,2.634114E-2,3.5567533E-2,2.9313039E-2,2.1146879E-2,3.0640215E-3,9.88178E-3,1.6268313E-2,8.222029E-3,9.222673E-3,4.744567E-4,0E0,0E0,0E0,0E0,0E0,0E0,0E0,0E0,0E0,0E0,0E0,0E0,0E0,0E0,0E0,0E0],"parents":[2147483647,0,0,1,1,2,2,3,3,4,4,5,5,6,6,7,7,8,8,9,9,10,10,11,11,12,12,13,13,14,14],"right_children":[2,4,6,8,10,12,14,16,18,20,22,24,26,28,30,-1,-1,-1,-1,-1,-1,-1,-1,-1,-1,-1,-1,-1,-1,-1,-1],"split_conditions":[2E0,2.970294E-2,1.8379584E-2,1E0,6.987222E-2,-1.714539E-2,9.059393E-2,1.0338005E-2,7.0082378E-3,-1.5252508E0,1.1180247E-1,-2.3420384E0,1.7594573E0,5.094322E-2,-5.9274968E-2,-3.80869E-5,2.930275E-4,2.565248E-4,5.2474503E-4,2.5203326E-4,7.692627E-4,1.3262574E-3,2.3333288E-3,-2.1403288E-3,-8.2319044E-4,-5.1619817E-4,-1.115791E-3,-3.1787262E-5,4.0155937E-4,4.5761367E-4,1.7813778E-3],"split_indices":[6,13,13,6,11,13,13,14,13,84,11,402,176,7,4,0,0,0,0,0,0,0,0,0,0,0,0,0,0,0,0],"split_type":[0,0,0,0,0,0,0,0,0,0,0,0,0,0,0,0,0,0,0,0,0,0,0,0,0,0,0,0,0,0,0],"sum_hessian":[2.202E3,1.522E3,6.8E2,1.371E3,1.51E2,5.43E2,1.37E2,6.76E2,6.95E2,1.12E2,3.9E1,1.77E2,3.66E2,1.31E2,6E0,5.09E2,1.67E2,5.01E2,1.94E2,7E0,1.05E2,3.1E1,8E0,4E0,1.73E2,3.55E2,1.1E1,1.02E2,2.9E1,1E0,5E0],"tree_param":{"num_deleted":"0","num_feature":"460","num_nodes":"31","size_leaf_vector":"0"}},{"base_weights":[1.611706E-3,1.2320127E-2,-2.2339156E-2,8.747544E-3,4.4486333E-2,-2.9687995E-2,6.7920624E-3,2.0251076E-3,1.5273898E-2,3.401481E-2,7.295623E-2,-3.9781414E-2,-2.4711655E-2,3.0571509E-3,7.625153E-2,-3.80869E-5,2.930275E-4,2.565248E-4,5.2474503E-4,5.81345E-4,9.414448E-4,1.3262574E-3,2.3333288E-3,-2.1403288E-3,-8.2319044E-4,-5.1619817E-4,-1.115791E-3,-3.1787262E-5,4.0155937E-4,4.5761367E-4,1.7813778E-3],"categories":[],"categories_nodes":[],"categories_segments":[],"categories_sizes":[],"default_left":[0,0,0,0,0,0,0,0,0,0,0,0,0,0,0,0,0,0,0,0,0,0,0,0,0,0,0,0,0,0,0],"id":22,"left_children":[1,3,5,7,9,11,13,15,17,19,21,23,25,27,29,-1,-1,-1,-1,-1,-1,-1,-1,-1,-1,-1,-1,-1,-1,-1,-1],"loss_changes":[5.6529164E-1,1.7462854E-1,1.4599055E-1,6.016282E-2,4.283312E-2,2.634114E-2,3.5567533E-2,2.9313039E-2,2.1146879E-2,6.4781755E-3,9.88178E-3,1.6268313E-2,8.222029E-3,9.222673E-3,4.744567E-4,0E0,0E0,0E0,0E0,0E0,0E0,0E0,0E0,0E0,0E0,0E0,0E0,0E0,0E0,0E0,0E0],"parents":[2147483647,0,0,1,1,2,2,3,3,4,4,5,5,6,6,7,7,8,8,9,9,10,10,11,11,12,12,13,13,14,14],"right_children":[2,4,6,8,10,12,14,16,18,20,22,24,26,28,30,-1,-1,-1,-1,-1,-1,-1,-1,-1,-1,-1,-1,-1,-1,-1,-1],"split_conditions":[2E0,2.970294E-2,1.8379584E-2,1E0,6.987222E-2,-1.714539E-2,9.059393E-2,1.0338005E-2,7.0082378E-3,1E0,1.1180247E-1,-2.3420384E0,1.7594573E0,5.094322E-2,-5.9274968E-2,-3.80869E-5,2.930275E-4,2.565248E-4,5.2474503E-4,5.81345E-4,9.414448E-4,1.3262574E-3,2.3333288E-3,-2.1403288E-3,-8.2319044E-4,-5.1619817E-4,-1.115791E-3,-3.1787262E-5,4.0155937E-4,4.5761367E-4,1.7813778E-3],"split_indices":[6,13,13,6,11,13,13,13,13,6,11,402,176,7,0,0,0,0,0,0,0,0,0,0,0,0,0,0,0,0,0],"split_type":[0,0,0,0,0,0,0,0,0,0,0,0,0,0,0,0,0,0,0,0,0,0,0,0,0,0,0,0,0,0,0],"sum_hessian":[2.202E3,1.522E3,6.8E2,1.371E3,1.51E2,5.43E2,1.37E2,6.76E2,6.95E2,1.12E2,3.9E1,1.77E2,3.66E2,1.31E2,6E0,5.09E2,1.67E2,5.01E2,1.94E2,6.5E1,4.7E1,3.1E1,8E0,4E0,1.73E2,3.55E2,1.1E1,1.02E2,2.9E1,1E0,5E0],"tree_param":{"num_deleted":"0","num_feature":"460","num_nodes":"31","size_leaf_vector":"0"}},{"base_weights":[1.611706E-3,1.2320127E-2,-2.2339156E-2,8.747544E-3,4.4486333E-2,-2.9687995E-2,6.7920624E-3,4.9877088E-3,1.803456E-2,3.401481E-2,7.295623E-2,-3.9781414E-2,-2.4711655E-2,3.0571509E-3,7.625153E-2,-4.875946E-5,2.5696328E-4,2.6244458E-4,5.2499067E-4,5.81345E-4,9.414448E-4,1.3262574E-3,2.3333288E-3,-2.1403288E-3,-8.2319044E-4,-5.1619817E-4,-1.115791E-3,-2.1114567E-5,4.421227E-4,4.5761367E-4,1.7813778E-3],"categories":[],"categories_nodes":[],"categories_segments":[],"categories_sizes":[],"default_left":[0,0,0,0,0,0,0,0,0,0,0,0,0,0,0,0,0,0,0,0,0,0,0,0,0,0,0,0,0,0,0],"id":23,"left_children":[1,3,5,7,9,11,13,15,17,19,21,23,25,27,29,-1,-1,-1,-1,-1,-1,-1,-1,-1,-1,-1,-1,-1,-1,-1,-1],"loss_changes":[5.6529164E-1,1.7462854E-1,1.4599055E-1,4.781709E-2,4.283312E-2,2.634114E-2,3.5567533E-2,4.8343733E-2,1.4109507E-2,6.4781755E-3,9.88178E-3,1.6268313E-2,8.222029E-3,9.208683E-3,4.744567E-4,0E0,0E0,0E0,0E0,0E0,0E0,0E0,0E0,0E0,0E0,0E0,0E0,0E0,0E0,0E0,0E0],"parents":[2147483647,0,0,1,1,2,2,3,3,4,4,5,5,6,6,7,7,8,8,9,9,10,10,11,11,12,12,13,13,14,14],"right_children":[2,4,6,8,10,12,14,16,18,20,22,24,26,28,30,-1,-1,-1,-1,-1,-1,-1,-1,-1,-1,-1,-1,-1,-1,-1,-1],"split_conditions":[2E0,2.970294E-2,1.8379584E-2,7.3865326E-3,6.987222E-2,-1.714539E-2,9.059393E-2,1E0,1E0,1E0,1.1180247E-1,-2.3420384E0,1.7594573E0,4.8311774E-2,-5.9274968E-2,-4.875946E-5,2.5696328E-4,2.6244458E-4,5.2499067E-4,5.81345E-4,9.414448E-4,1.3262574E-3,2.3333288E-3,-2.1403288E-3,-8.2319044E-4,-5.1619817E-4,-1.115791E-3,-2.1114567E-5,4.421227E-4,4.5761367E-4,1.7813778E-3],"split_indices":[6,14,14,13,11,13,13,6,6,6,11,402,176,13,0,0,0,0,0,0,0,0,0,0,0,0,0,0,0,0,0],"split_type":[0,0,0,0,0,0,0,0,0,0,0,0,0,0,0,0,0,0,0,0,0,0,0,0,0,0,0,0,0,0,0],"sum_hessian":[2.202E3,1.522E3,6.8E2,1.371E3,1.51E2,5.43E2,1.37E2,9.77E2,3.94E2,1.12E2,3.9E1,1.77E2,3.66E2,1.31E2,6E0,4.75E2,5.02E2,2.01E2,1.93E2,6.5E1,4.7E1,3.1E1,8E0,4E0,1.73E2,3.55E2,1.1E1,1.07E2,2.4E1,1E0,5E0],"tree_param":{"num_deleted":"0","num_feature":"460","num_nodes":"31","size_leaf_vector":"0"}},{"base_weights":[1.611706E-3,1.2320127E-2,-2.2339156E-2,8.747544E-3,4.4486333E-2,-2.9687995E-2,6.7920624E-3,2.0251076E-3,1.5273898E-2,3.401481E-2,7.295623E-2,-3.9781414E-2,-2.4711655E-2,3.0571509E-3,7.625153E-2,-3.80869E-5,2.930275E-4,2.565248E-4,5.2474503E-4,5.81345E-4,9.414448E-4,1.3262574E-3,2.3333288E-3,-2.1403288E-3,-8.2319044E-4,-5.1619817E-4,-1.115791E-3,-3.1787262E-5,4.0155937E-4,4.5761367E-4,1.7813778E-3],"categories":[],"categories_nodes":[],"categories_segments":[],"categories_sizes":[],"default_left":[0,0,0,0,0,0,0,0,0,0,0,0,0,0,0,0,0,0,0,0,0,0,0,0,0,0,0,0,0,0,0],"id":24,"left_children":[1,3,5,7,9,11,13,15,17,19,21,23,25,27,29,-1,-1,-1,-1,-1,-1,-1,-1,-1,-1,-1,-1,-1,-1,-1,-1],"loss_changes":[5.6529164E-1,1.7462854E-1,1.4599055E-1,6.016282E-2,4.283312E-2,2.634114E-2,3.5567533E-2,2.9313039E-2,2.1146879E-2,6.4781755E-3,9.88178E-3,1.6268313E-2,8.222029E-3,9.222673E-3,4.744567E-4,0E0,0E0,0E0,0E0,0E0,0E0,0E0,0E0,0E0,0E0,0E0,0E0,0E0,0E0,0E0,0E0],"parents":[2147483647,0,0,1,1,2,2,3,3,4,4,5,5,6,6,7,7,8,8,9,9,10,10,11,11,12,12,13,13,14,14],"right_children":[2,4,6,8,10,12,14,16,18,20,22,24,26,28,30,-1,-1,-1,-1,-1,-1,-1,-1,-1,-1,-1,-1,-1,-1,-1,-1],"split_conditions":[2E0,2.970294E-2,1.8379584E-2,1E0,6.987222E-2,-1.714539E-2,9.059393E-2,1.0338005E-2,7.0082378E-3,1E0,1.1180247E-1,-2.3420384E0,1.7594573E0,5.094322E-2,-5.9274968E-2,-3.80869E-5,2.930275E-4,2.565248E-4,5.2474503E-4,5.81345E-4,9.414448E-4,1.3262574E-3,2.3333288E-3,-2.1403288E-3,-8.2319044E-4,-5.1619817E-4,-1.115791E-3,-3.1787262E-5,4.0155937E-4,4.5761367E-4,1.7813778E-3],"split_indices":[6,13,13,6,11,13,13,13,13,6,11,402,176,7,0,0,0,0,0,0,0,0,0,0,0,0,0,0,0,0,0],"split_type":[0,0,0,0,0,0,0,0,0,0,0,0,0,0,0,0,0,0,0,0,0,0,0,0,0,0,0,0,0,0,0],"sum_hessian":[2.202E3,1.522E3,6.8E2,1.371E3,1.51E2,5.43E2,1.37E2,6.76E2,6.95E2,1.12E2,3.9E1,1.77E2,3.66E2,1.31E2,6E0,5.09E2,1.67E2,5.01E2,1.94E2,6.5E1,4.7E1,3.1E1,8E0,4E0,1.73E2,3.55E2,1.1E1,1.02E2,2.9E1,1E0,5E0],"tree_param":{"num_deleted":"0","num_feature":"460","num_nodes":"31","size_leaf_vector":"0"}},{"base_weights":[1.611706E-3,1.2320127E-2,-2.2339156E-2,8.747544E-3,4.4486333E-2,-2.9687995E-2,6.7920624E-3,2.0251076E-3,1.5273898E-2,3.401481E-2,7.295623E-2,-3.9781414E-2,-2.4711655E-2,3.0571509E-3,7.625153E-2,-3.80869E-5,2.930275E-4,2.565248E-4,5.2474503E-4,2.5203326E-4,7.692627E-4,1.3262574E-3,2.3333288E-3,-2.1403288E-3,-8.2319044E-4,-5.1619817E-4,-1.115791E-3,-3.1787262E-5,4.0155937E-4,4.5761367E-4,1.7813778E-3],"categories":[],"categories_nodes":[],"categories_segments":[],"categories_sizes":[],"default_left":[0,0,0,0,0,0,0,0,0,0,0,0,0,0,0,0,0,0,0,0,0,0,0,0,0,0,0,0,0,0,0],"id":25,"left_children":[1,3,5,7,9,11,13,15,17,19,21,23,25,27,29,-1,-1,-1,-1,-1,-1,-1,-1,-1,-1,-1,-1,-1,-1,-1,-1],"loss_changes":[5.6529164E-1,1.7462854E-1,1.4599055E-1,6.016282E-2,4.283312E-2,2.634114E-2,3.5567533E-2,2.9313039E-2,2.1146879E-2,3.0640215E-3,9.88178E-3,1.6268313E-2,8.222029E-3,9.222673E-3,4.744567E-4,0E0,0E0,0E0,0E0,0E0,0E0,0E0,0E0,0E0,0E0,0E0,0E0,0E0,0E0,0E0,0E0],"parents":[2147483647,0,0,1,1,2,2,3,3,4,4,5,5,6,6,7,7,8,8,9,9,10,10,11,11,12,12,13,13,14,14],"right_children":[2,4,6,8,10,12,14,16,18,20,22,24,26,28,30,-1,-1,-1,-1,-1,-1,-1,-1,-1,-1,-1,-1,-1,-1,-1,-1],"split_conditions":[2E0,2.970294E-2,1.8379584E-2,1E0,6.987222E-2,-1.714539E-2,9.059393E-2,1.0338005E-2,7.0082378E-3,-1.5252508E0,1.1180247E-1,-2.3420384E0,1.7594573E0,5.094322E-2,-5.9274968E-2,-3.80869E-5,2.930275E-4,2.565248E-4,5.2474503E-4,2.5203326E-4,7.692627E-4,1.3262574E-3,2.3333288E-3,-2.1403288E-3,-8.2319044E-4,-5.1619817E-4,-1.115791E-3,-3.1787262E-5,4.0155937E-4,4.5761367E-4,1.7813778E-3],"split_indices":[6,13,13,6,12,13,14,13,14,84,12,402,176,7,0,0,0,0,0,0,0,0,0,0,0,0,0,0,0,0,0],"split_type":[0,0,0,0,0,0,0,0,0,0,0,0,0,0,0,0,0,0,0,0,0,0,0,0,0,0,0,0,0,0,0],"sum_hessian":[2.202E3,1.522E3,6.8E2,1.371E3,1.51E2,5.43E2,1.37E2,6.76E2,6.95E2,1.12E2,3.9E1,1.77E2,3.66E2,1.31E2,6E0,5.09E2,1.67E2,5.01E2,1.94E2,7E0,1.05E2,3.1E1,8E0,4E0,1.73E2,3.55E2,1.1E1,1.02E2,2.9E1,1E0,5E0],"tree_param":{"num_deleted":"0","num_feature":"460","num_nodes":"31","size_leaf_vector":"0"}},{"base_weights":[1.611706E-3,-4.821904E-3,2.39953E-2,6.600566E-3,-2.9827496E-2,2.1123426E-2,8.438885E-2,4.9877088E-3,1.4493901E-2,-3.9781414E-2,-2.4822982E-2,2.9044075E-2,1.399442E-3,1.0576667E-1,4.1757926E-2,-4.875946E-5,2.5696328E-4,2.5343892E-4,4.7592213E-4,-2.1403288E-3,-8.2319044E-4,-5.1827315E-4,-1.115791E-3,5.150381E-4,1.043534E-3,-8.583004E-5,3.115749E-4,1.1947348E-3,2.4919016E-3,1.161104E-3,3.008513E-4],"categories":[],"categories_nodes":[],"categories_segments":[],"categories_sizes":[],"default_left":[0,0,0,0,0,0,0,0,0,0,0,0,0,0,0,0,0,0,0,0,0,0,0,0,0,0,0,0,0,0,0],"id":26,"left_children":[1,3,5,7,9,11,13,15,17,19,21,23,25,27,29,-1,-1,-1,-1,-1,-1,-1,-1,-1,-1,-1,-1,-1,-1,-1,-1],"loss_changes":[3.1736383E-1,4.8918796E-1,8.355129E-2,1.4899161E-2,2.5762886E-2,7.354215E-2,1.563324E-2,4.8343733E-2,3.9198026E-3,1.6268313E-2,8.149818E-3,3.2957315E-2,9.462461E-3,3.233552E-6,2.188839E-3,0E0,0E0,0E0,0E0,0E0,0E0,0E0,0E0,0E0,0E0,0E0,0E0,0E0,0E0,0E0,0E0],"parents":[2147483647,0,0,1,1,2,2,3,3,4,4,5,5,6,6,7,7,8,8,9,9,10,10,11,11,12,12,13,13,14,14],"right_children":[2,4,6,8,10,12,14,16,18,20,22,24,26,28,30,-1,-1,-1,-1,-1,-1,-1,-1,-1,-1,-1,-1,-1,-1,-1,-1],"split_conditions":[1.7259225E-2,2E0,1.066381E-1,7.3865326E-3,-1.714539E-2,2E0,9.972025E-1,1E0,-2.5877136E-1,-2.3420384E0,1.7594573E0,5.7094526E-2,1.6931448E0,-6.2014544E-1,7.6964475E-2,-4.875946E-5,2.5696328E-4,2.5343892E-4,4.7592213E-4,-2.1403288E-3,-8.2319044E-4,-5.1827315E-4,-1.115791E-3,5.150381E-4,1.043534E-3,-8.583004E-5,3.115749E-4,1.1947348E-3,2.4919016E-3,1.161104E-3,3.008513E-4],"split_indices":[13,6,11,13,13,6,218,6,36,406,180,11,47,135,100,0,0,0,0,0,0,0,0,0,0,0,0,0,0,0,0],"split_type":[0,0,0,0,0,0,0,0,0,0,0,0,0,0,0,0,0,0,0,0,0,0,0,0,0,0,0,0,0,0,0],"sum_hessian":[2.202E3,1.711E3,4.91E2,1.175E3,5.36E2,4.7E2,2.1E1,9.77E2,1.98E2,1.77E2,3.59E2,3.35E2,1.35E2,1.3E1,8E0,4.75E2,5.02E2,1.45E2,5.3E1,4E0,1.73E2,3.48E2,1.1E1,2.63E2,7.2E1,9.6E1,3.9E1,3E0,1E1,5E0,3E0],"tree_param":{"num_deleted":"0","num_feature":"460","num_nodes":"31","size_leaf_vector":"0"}},{"base_weights":[1.611706E-3,1.2320127E-2,-2.2339156E-2,8.747544E-3,4.4486333E-2,-2.9687995E-2,6.7920624E-3,2.0251076E-3,1.5273898E-2,3.401481E-2,7.295623E-2,-3.9781414E-2,-2.4711655E-2,3.0571509E-3,7.625153E-2,-3.80869E-5,2.930275E-4,2.565248E-4,5.2474503E-4,5.81345E-4,9.414448E-4,1.3262574E-3,2.3333288E-3,-2.1403288E-3,-8.2319044E-4,-5.523518E-4,1.2647356E-4,-3.1787262E-5,4.0155937E-4,4.5761367E-4,1.7813778E-3],"categories":[],"categories_nodes":[],"categories_segments":[],"categories_sizes":[],"default_left":[0,0,0,0,0,0,0,0,0,0,0,0,0,0,0,0,0,0,0,0,0,0,0,0,0,0,0,0,0,0,0],"id":27,"left_children":[1,3,5,7,9,11,13,15,17,19,21,23,25,27,29,-1,-1,-1,-1,-1,-1,-1,-1,-1,-1,-1,-1,-1,-1,-1,-1],"loss_changes":[5.6529164E-1,1.7462854E-1,1.4599055E-1,6.016282E-2,4.283312E-2,2.634114E-2,3.5567533E-2,2.9313039E-2,2.1146879E-2,6.4781755E-3,9.88178E-3,1.6268313E-2,7.95193E-3,9.222673E-3,4.744567E-4,0E0,0E0,0E0,0E0,0E0,0E0,0E0,0E0,0E0,0E0,0E0,0E0,0E0,0E0,0E0,0E0],"parents":[2147483647,0,0,1,1,2,2,3,3,4,4,5,5,6,6,7,7,8,8,9,9,10,10,11,11,12,12,13,13,14,14],"right_children":[2,4,6,8,10,12,14,16,18,20,22,24,26,28,30,-1,-1,-1,-1,-1,-1,-1,-1,-1,-1,-1,-1,-1,-1,-1,-1],"split_conditions":[2E0,2.970294E-2,1.8379584E-2,1E0,6.987222E-2,-1.714539E-2,9.059393E-2,1.0338005E-2,7.0082378E-3,1E0,1.1180247E-1,-2.3420384E0,4.162015E-2,5.094322E-2,-5.9274968E-2,-3.80869E-5,2.930275E-4,2.565248E-4,5.2474503E-4,5.81345E-4,9.414448E-4,1.3262574E-3,2.3333288E-3,-2.1403288E-3,-8.2319044E-4,-5.523518E-4,1.2647356E-4,-3.1787262E-5,4.0155937E-4,4.5761367E-4,1.7813778E-3],"split_indices":[6,13,13,6,11,13,13,13,13,6,11,402,0,7,0,0,0,0,0,0,0,0,0,0,0,0,0,0,0,0,0],"split_type":[0,0,0,0,0,0,0,0,0,0,0,0,0,0,0,0,0,0,0,0,0,0,0,0,0,0,0,0,0,0,0],"sum_hessian":[2.202E3,1.522E3,6.8E2,1.371E3,1.51E2,5.43E2,1.37E2,6.76E2,6.95E2,1.12E2,3.9E1,1.77E2,3.66E2,1.31E2,6E0,5.09E2,1.67E2,5.01E2,1.94E2,6.5E1,4.7E1,3.1E1,8E0,4E0,1.73E2,3.58E2,8E0,1.02E2,2.9E1,1E0,5E0],"tree_param":{"num_deleted":"0","num_feature":"460","num_nodes":"31","size_leaf_vector":"0"}},{"base_weights":[1.611706E-3,1.2320127E-2,-2.2339156E-2,6.365965E-3,2.8685726E-2,-2.9687995E-2,6.7920624E-3,-9.2576747E-4,1.3179912E-2,2.2363847E-2,5.9238035E-2,-3.9781414E-2,-2.4711655E-2,3.0571509E-3,7.625153E-2,-1.1925146E-4,7.338819E-5,1.8213142E-3,2.753447E-4,3.6260567E-4,6.31452E-4,1.1124114E-3,2.3333288E-3,-2.1403288E-3,-8.2319044E-4,-5.1619817E-4,-1.115791E-3,-3.1787262E-5,4.0155937E-4,4.5761367E-4,1.7813778E-3],"categories":[],"categories_nodes":[],"categories_segments":[],"categories_sizes":[],"default_left":[0,0,0,0,0,0,0,0,0,0,0,0,0,0,0,0,0,0,0,0,0,0,0,0,0,0,0,0,0,0,0],"id":28,"left_children":[1,3,5,7,9,11,13,15,17,19,21,23,25,27,29,-1,-1,-1,-1,-1,-1,-1,-1,-1,-1,-1,-1,-1,-1,-1,-1],"loss_changes":[5.6529164E-1,1.4822371E-1,1.4599055E-1,5.5560563E-2,7.70933E-2,2.634114E-2,3.5567533E-2,1.0629986E-2,1.9915983E-2,1.2354717E-2,2.1278858E-2,1.6268313E-2,8.222029E-3,9.222673E-3,4.744567E-4,0E0,0E0,0E0,0E0,0E0,0E0,0E0,0E0,0E0,0E0,0E0,0E0,0E0,0E0,0E0,0E0],"parents":[2147483647,0,0,1,1,2,2,3,3,4,4,5,5,6,6,7,7,8,8,9,9,10,10,11,11,12,12,13,13,14,14],"right_children":[2,4,6,8,10,12,14,16,18,20,22,24,26,28,30,-1,-1,-1,-1,-1,-1,-1,-1,-1,-1,-1,-1,-1,-1,-1,-1],"split_conditions":[2E0,5.539671E-1,1.8379584E-2,1E0,6.194695E-2,-1.714539E-2,9.059393E-2,-6.177057E-3,-1.9570129E0,1E0,1.1180247E-1,-2.3420384E0,1.7594573E0,5.094322E-2,-5.9274968E-2,-1.1925146E-4,7.338819E-5,1.8213142E-3,2.753447E-4,3.6260567E-4,6.31452E-4,1.1124114E-3,2.3333288E-3,-2.1403288E-3,-8.2319044E-4,-5.1619817E-4,-1.115791E-3,-3.1787262E-5,4.0155937E-4,4.5761367E-4,1.7813778E-3],"split_indices":[6,44,14,6,12,13,13,13,17,6,12,402,180,7,4,0,0,0,0,0,0,0,0,0,0,0,0,0,0,0,0],"split_type":[0,0,0,0,0,0,0,0,0,0,0,0,0,0,0,0,0,0,0,0,0,0,0,0,0,0,0,0,0,0,0],"sum_hessian":[2.202E3,1.522E3,6.8E2,1.117E3,4.05E2,5.43E2,1.37E2,5.4E2,5.77E2,3.37E2,6.8E1,1.77E2,3.66E2,1.31E2,6E0,2.62E2,2.78E2,3E0,5.74E2,1.84E2,1.53E2,6E1,8E0,4E0,1.73E2,3.55E2,1.1E1,1.02E2,2.9E1,1E0,5E0],"tree_param":{"num_deleted":"0","num_feature":"460","num_nodes":"31","size_leaf_vector":"0"}},{"base_weights":[1.611706E-3,-4.821904E-3,2.39953E-2,6.600566E-3,-2.9827496E-2,2.1123426E-2,8.438885E-2,-6.1040337E-4,1.32243605E-2,-3.9781414E-2,-2.4822982E-2,1.7010888E-2,3.3010837E-2,1.0576667E-1,4.1757926E-2,-1.1925146E-4,7.906973E-5,1.8213142E-3,2.7695694E-4,-2.1403288E-3,-8.2319044E-4,-5.1827315E-4,-1.115791E-3,5.150381E-4,-6.516592E-5,1.043534E-3,2.0702598E-4,1.1947348E-3,2.4919016E-3,1.161104E-3,3.008513E-4],"categories":[],"categories_nodes":[],"categories_segments":[],"categories_sizes":[],"default_left":[0,0,0,0,0,0,0,0,0,0,0,0,0,0,0,0,0,0,0,0,0,0,0,0,0,0,0,0,0,0,0],"id":29,"left_children":[1,3,5,7,9,11,13,15,17,19,21,23,25,27,29,-1,-1,-1,-1,-1,-1,-1,-1,-1,-1,-1,-1,-1,-1,-1,-1],"loss_changes":[3.1736383E-1,4.8918796E-1,8.355129E-2,5.617852E-2,2.5762886E-2,2.2464424E-2,1.563324E-2,1.1699151E-2,1.9880861E-2,1.6268313E-2,8.149818E-3,4.712432E-2,4.1797295E-2,3.233552E-6,2.188839E-3,0E0,0E0,0E0,0E0,0E0,0E0,0E0,0E0,0E0,0E0,0E0,0E0,0E0,0E0,0E0,0E0],"parents":[2147483647,0,0,1,1,2,2,3,3,4,4,5,5,6,6,7,7,8,8,9,9,10,10,11,11,12,12,13,13,14,14],"right_children":[2,4,6,8,10,12,14,16,18,20,22,24,26,28,30,-1,-1,-1,-1,-1,-1,-1,-1,-1,-1,-1,-1,-1,-1,-1,-1],"split_conditions":[1.7259225E-2,2E0,1.066381E-1,1E0,-1.714539E-2,5.7094526E-2,9.972025E-1,-6.177057E-3,-1.9570129E0,-2.3420384E0,1.7594573E0,2E0,2E0,-3.9015782E-1,7.6964475E-2,-1.1925146E-4,7.906973E-5,1.8213142E-3,2.7695694E-4,-2.1403288E-3,-8.2319044E-4,-5.1827315E-4,-1.115791E-3,5.150381E-4,-6.516592E-5,1.043534E-3,2.0702598E-4,1.1947348E-3,2.4919016E-3,1.161104E-3,3.008513E-4],"split_indices":[13,6,11,6,13,11,218,13,17,402,176,6,6,133,100,0,0,0,0,0,0,0,0,0,0,0,0,0,0,0,0],"split_type":[0,0,0,0,0,0,0,0,0,0,0,0,0,0,0,0,0,0,0,0,0,0,0,0,0,0,0,0,0,0,0],"sum_hessian":[2.202E3,1.711E3,4.91E2,1.175E3,5.36E2,4.7E2,2.1E1,5.63E2,6.12E2,1.77E2,3.59E2,3.51E2,1.19E2,1.3E1,8E0,2.62E2,3.01E2,3E0,6.09E2,4E0,1.73E2,3.48E2,1.1E1,2.63E2,8.8E1,7.2E1,4.7E1,3E0,1E1,5E0,3E0],"tree_param":{"num_deleted":"0","num_feature":"460","num_nodes":"31","size_leaf_vector":"0"}},{"base_weights":[1.611706E-3,-4.821904E-3,2.39953E-2,6.600566E-3,-2.9827496E-2,2.1123426E-2,8.438885E-2,-6.1040337E-4,1.32243605E-2,-3.9781414E-2,-2.4822982E-2,1.7010888E-2,3.3010837E-2,1.0576667E-1,4.1757926E-2,-1.1925146E-4,7.906973E-5,1.8213142E-3,2.7695694E-4,-2.1403288E-3,-8.2319044E-4,-5.1827315E-4,-1.115791E-3,3.203219E-4,5.513577E-4,1.043534E-3,2.0702598E-4,1.1947348E-3,2.4919016E-3,1.161104E-3,3.008513E-4],"categories":[],"categories_nodes":[],"categories_segments":[],"categories_sizes":[],"default_left":[0,0,0,0,0,0,0,0,0,0,0,0,0,0,0,0,0,0,0,0,0,0,0,0,0,0,0,0,0,0,0],"id":30,"left_children":[1,3,5,7,9,11,13,15,17,19,21,23,25,27,29,-1,-1,-1,-1,-1,-1,-1,-1,-1,-1,-1,-1,-1,-1,-1,-1],"loss_changes":[3.1736383E-1,4.8918796E-1,8.355129E-2,5.617852E-2,2.5762886E-2,2.2464424E-2,1.563324E-2,1.1699151E-2,1.9880861E-2,1.6268313E-2,8.149818E-3,6.317407E-3,4.1797295E-2,3.233552E-6,2.188839E-3,0E0,0E0,0E0,0E0,0E0,0E0,0E0,0E0,0E0,0E0,0E0,0E0,0E0,0E0,0E0,0E0],"parents":[2147483647,0,0,1,1,2,2,3,3,4,4,5,5,6,6,7,7,8,8,9,9,10,10,11,11,12,12,13,13,14,14],"right_children":[2,4,6,8,10,12,14,16,18,20,22,24,26,28,30,-1,-1,-1,-1,-1,-1,-1,-1,-1,-1,-1,-1,-1,-1,-1,-1],"split_conditions":[1.7259225E-2,2E0,1.066381E-1,1E0,-1.714539E-2,5.7094526E-2,9.972025E-1,-6.177057E-3,-1.9570129E0,-2.3420384E0,1.7594573E0,1.5145227E0,2E0,-3.9015782E-1,7.6964475E-2,-1.1925146E-4,7.906973E-5,1.8213142E-3,2.7695694E-4,-2.1403288E-3,-8.2319044E-4,-5.1827315E-4,-1.115791E-3,3.203219E-4,5.513577E-4,1.043534E-3,2.0702598E-4,1.1947348E-3,2.4919016E-3,1.161104E-3,3.008513E-4],"split_indices":[14,6,11,6,13,11,222,13,17,402,180,44,6,133,100,0,0,0,0,0,0,0,0,0,0,0,0,0,0,0,0],"split_type":[0,0,0,0,0,0,0,0,0,0,0,0,0,0,0,0,0,0,0,0,0,0,0,0,0,0,0,0,0,0,0],"sum_hessian":[2.202E3,1.711E3,4.91E2,1.175E3,5.36E2,4.7E2,2.1E1,5.63E2,6.12E2,1.77E2,3.59E2,3.51E2,1.19E2,1.3E1,8E0,2.62E2,3.01E2,3E0,6.09E2,4E0,1.73E2,3.48E2,1.1E1,2.78E2,7.3E1,7.2E1,4.7E1,3E0,1E1,5E0,3E0],"tree_param":{"num_deleted":"0","num_feature":"460","num_nodes":"31","size_leaf_vector":"0"}},{"base_weights":[1.611706E-3,1.2320127E-2,-2.2339156E-2,6.365965E-3,2.8685726E-2,-2.9687995E-2,6.7920624E-3,-9.2576747E-4,1.3179912E-2,2.2363847E-2,5.9238035E-2,-3.9781414E-2,-2.4711655E-2,3.0571509E-3,7.625153E-2,-1.1925146E-4,7.338819E-5,1.8213142E-3,2.753447E-4,3.6260567E-4,6.31452E-4,1.1124114E-3,2.3333288E-3,-2.1403288E-3,-8.2319044E-4,-5.1619817E-4,-1.115791E-3,-3.1787262E-5,4.0155937E-4,4.5761367E-4,1.7813778E-3],"categories":[],"categories_nodes":[],"categories_segments":[],"categories_sizes":[],"default_left":[0,0,0,0,0,0,0,0,0,0,0,0,0,0,0,0,0,0,0,0,0,0,0,0,0,0,0,0,0,0,0],"id":31,"left_children":[1,3,5,7,9,11,13,15,17,19,21,23,25,27,29,-1,-1,-1,-1,-1,-1,-1,-1,-1,-1,-1,-1,-1,-1,-1,-1],"loss_changes":[5.6529164E-1,1.4822371E-1,1.4599055E-1,5.5560563E-2,7.70933E-2,2.634114E-2,3.5567533E-2,1.0629986E-2,1.9915983E-2,1.2354717E-2,2.1278858E-2,1.6268313E-2,8.222029E-3,9.222673E-3,4.744567E-4,0E0,0E0,0E0,0E0,0E0,0E0,0E0,0E0,0E0,0E0,0E0,0E0,0E0,0E0,0E0,0E0],"parents":[2147483647,0,0,1,1,2,2,3,3,4,4,5,5,6,6,7,7,8,8,9,9,10,10,11,11,12,12,13,13,14,14],"right_children":[2,4,6,8,10,12,14,16,18,20,22,24,26,28,30,-1,-1,-1,-1,-1,-1,-1,-1,-1,-1,-1,-1,-1,-1,-1,-1],"split_conditions":[2E0,5.539671E-1,1.8379584E-2,1E0,6.194695E-2,-1.714539E-2,9.059393E-2,-6.177057E-3,-1.9570129E0,1E0,1.1180247E-1,-2.3420384E0,1.7594573E0,5.094322E-2,-5.9274968E-2,-1.1925146E-4,7.338819E-5,1.8213142E-3,2.753447E-4,3.6260567E-4,6.31452E-4,1.1124114E-3,2.3333288E-3,-2.1403288E-3,-8.2319044E-4,-5.1619817E-4,-1.115791E-3,-3.1787262E-5,4.0155937E-4,4.5761367E-4,1.7813778E-3],"split_indices":[6,44,13,6,11,14,13,14,17,6,11,402,176,7,0,0,0,0,0,0,0,0,0,0,0,0,0,0,0,0,0],"split_type":[0,0,0,0,0,0,0,0,0,0,0,0,0,0,0,0,0,0,0,0,0,0,0,0,0,0,0,0,0,0,0],"sum_hessian":[2.202E3,1.522E3,6.8E2,1.117E3,4.05E2,5.43E2,1.37E2,5.4E2,5.77E2,3.37E2,6.8E1,1.77E2,3.66E2,1.31E2,6E0,2.62E2,2.78E2,3E0,5.74E2,1.84E2,1.53E2,6E1,8E0,4E0,1.73E2,3.55E2,1.1E1,1.02E2,2.9E1,1E0,5E0],"tree_param":{"num_deleted":"0","num_feature":"460","num_nodes":"31","size_leaf_vector":"0"}},{"base_weights":[1.611706E-3,1.2320127E-2,-2.2339156E-2,8.747544E-3,4.4486333E-2,-2.9687995E-2,6.7920624E-3,2.0251076E-3,1.5273898E-2,3.401481E-2,7.295623E-2,-3.9781414E-2,-2.4711655E-2,3.0571509E-3,7.625153E-2,-3.80869E-5,2.930275E-4,2.565248E-4,5.2474503E-4,5.81345E-4,9.414448E-4,1.3262574E-3,2.3333288E-3,-2.1403288E-3,-8.2319044E-4,-5.1619817E-4,-1.115791E-3,-3.1787262E-5,4.0155937E-4,4.5761367E-4,1.7813778E-3],"categories":[],"categories_nodes":[],"categories_segments":[],"categories_sizes":[],"default_left":[0,0,0,0,0,0,0,0,0,0,0,0,0,0,0,0,0,0,0,0,0,0,0,0,0,0,0,0,0,0,0],"id":32,"left_children":[1,3,5,7,9,11,13,15,17,19,21,23,25,27,29,-1,-1,-1,-1,-1,-1,-1,-1,-1,-1,-1,-1,-1,-1,-1,-1],"loss_changes":[5.6529164E-1,1.7462854E-1,1.4599055E-1,6.016282E-2,4.283312E-2,2.634114E-2,3.5567533E-2,2.9313039E-2,2.1146879E-2,6.4781755E-3,9.88178E-3,1.6268313E-2,8.222029E-3,9.222673E-3,4.744567E-4,0E0,0E0,0E0,0E0,0E0,0E0,0E0,0E0,0E0,0E0,0E0,0E0,0E0,0E0,0E0,0E0],"parents":[2147483647,0,0,1,1,2,2,3,3,4,4,5,5,6,6,7,7,8,8,9,9,10,10,11,11,12,12,13,13,14,14],"right_children":[2,4,6,8,10,12,14,16,18,20,22,24,26,28,30,-1,-1,-1,-1,-1,-1,-1,-1,-1,-1,-1,-1,-1,-1,-1,-1],"split_conditions":[2E0,2.970294E-2,1.8379584E-2,1E0,6.987222E-2,-1.714539E-2,9.059393E-2,1.0338005E-2,7.0082378E-3,1E0,1.1180247E-1,-2.3420384E0,1.7594573E0,5.094322E-2,-5.9274968E-2,-3.80869E-5,2.930275E-4,2.565248E-4,5.2474503E-4,5.81345E-4,9.414448E-4,1.3262574E-3,2.3333288E-3,-2.1403288E-3,-8.2319044E-4,-5.1619817E-4,-1.115791E-3,-3.1787262E-5,4.0155937E-4,4.5761367E-4,1.7813778E-3],"split_indices":[6,13,13,6,11,13,14,13,13,6,11,402,176,7,0,0,0,0,0,0,0,0,0,0,0,0,0,0,0,0,0],"split_type":[0,0,0,0,0,0,0,0,0,0,0,0,0,0,0,0,0,0,0,0,0,0,0,0,0,0,0,0,0,0,0],"sum_hessian":[2.202E3,1.522E3,6.8E2,1.371E3,1.51E2,5.43E2,1.37E2,6.76E2,6.95E2,1.12E2,3.9E1,1.77E2,3.66E2,1.31E2,6E0,5.09E2,1.67E2,5.01E2,1.94E2,6.5E1,4.7E1,3.1E1,8E0,4E0,1.73E2,3.55E2,1.1E1,1.02E2,2.9E1,1E0,5E0],"tree_param":{"num_deleted":"0","num_feature":"460","num_nodes":"31","size_leaf_vector":"0"}},{"base_weights":[1.611706E-3,1.2320127E-2,-2.2339156E-2,8.747544E-3,4.4486333E-2,-2.9687995E-2,6.7920624E-3,2.0251076E-3,1.5273898E-2,3.401481E-2,7.295623E-2,-3.9781414E-2,-2.4711655E-2,2.3520936E-3,6.338845E-2,-3.80869E-5,2.930275E-4,2.565248E-4,5.2474503E-4,5.81345E-4,9.414448E-4,1.3262574E-3,2.3333288E-3,-2.1403288E-3,-8.2319044E-4,-5.1619817E-4,-1.115791E-3,-3.1787262E-5,3.655621E-4,1.6949736E-3,4.7882108E-4],"categories":[],"categories_nodes":[],"categories_segments":[],"categories_sizes":[],"default_left":[0,0,0,0,0,0,0,0,0,0,0,0,0,0,0,0,0,0,0,0,0,0,0,0,0,0,0,0,0,0,0],"id":33,"left_children":[1,3,5,7,9,11,13,15,17,19,21,23,25,27,29,-1,-1,-1,-1,-1,-1,-1,-1,-1,-1,-1,-1,-1,-1,-1,-1],"loss_changes":[5.6529164E-1,1.7462854E-1,1.4599055E-1,6.016282E-2,4.283312E-2,2.634114E-2,3.4528404E-2,2.9313039E-2,2.1146879E-2,6.4781755E-3,9.88178E-3,1.6268313E-2,8.222029E-3,7.1414206E-3,4.3134876E-3,0E0,0E0,0E0,0E0,0E0,0E0,0E0,0E0,0E0,0E0,0E0,0E0,0E0,0E0,0E0,0E0],"parents":[2147483647,0,0,1,1,2,2,3,3,4,4,5,5,6,6,7,7,8,8,9,9,10,10,11,11,12,12,13,13,14,14],"right_children":[2,4,6,8,10,12,14,16,18,20,22,24,26,28,30,-1,-1,-1,-1,-1,-1,-1,-1,-1,-1,-1,-1,-1,-1,-1,-1],"split_conditions":[2E0,2.970294E-2,1.8379584E-2,1E0,6.987222E-2,-1.714539E-2,2.402607E0,1.0338005E-2,7.0082378E-3,1E0,1.1180247E-1,-2.3420384E0,1.7594573E0,5.094322E-2,1.7381626E-3,-3.80869E-5,2.930275E-4,2.565248E-4,5.2474503E-4,5.81345E-4,9.414448E-4,1.3262574E-3,2.3333288E-3,-2.1403288E-3,-8.2319044E-4,-5.1619817E-4,-1.115791E-3,-3.1787262E-5,3.655621E-4,1.6949736E-3,4.7882108E-4],"split_indices":[6,13,13,6,11,13,44,13,13,6,11,402,176,8,258,0,0,0,0,0,0,0,0,0,0,0,0,0,0,0,0],"split_type":[0,0,0,0,0,0,0,0,0,0,0,0,0,0,0,0,0,0,0,0,0,0,0,0,0,0,0,0,0,0,0],"sum_hessian":[2.202E3,1.522E3,6.8E2,1.371E3,1.51E2,5.43E2,1.37E2,6.76E2,6.95E2,1.12E2,3.9E1,1.77E2,3.66E2,1.28E2,9E0,5.09E2,1.67E2,5.01E2,1.94E2,6.5E1,4.7E1,3.1E1,8E0,4E0,1.73E2,3.55E2,1.1E1,1.02E2,2.6E1,6E0,3E0],"tree_param":{"num_deleted":"0","num_feature":"460","num_nodes":"31","size_leaf_vector":"0"}},{"base_weights":[1.611706E-3,1.2320127E-2,-2.2339156E-2,8.747544E-3,4.4486333E-2,-2.9687995E-2,6.7920624E-3,2.0251076E-3,1.5273898E-2,3.401481E-2,7.295623E-2,-3.9781414E-2,-2.4711655E-2,3.0571509E-3,7.625153E-2,-3.80869E-5,2.930275E-4,2.565248E-4,5.2474503E-4,5.81345E-4,9.414448E-4,1.3262574E-3,2.3333288E-3,-2.1403288E-3,-8.2319044E-4,-5.1619817E-4,-1.115791E-3,-3.1787262E-5,4.0155937E-4,4.5761367E-4,1.7813778E-3],"categories":[],"categories_nodes":[],"categories_segments":[],"categories_sizes":[],"default_left":[0,0,0,0,0,0,0,0,0,0,0,0,0,0,0,0,0,0,0,0,0,0,0,0,0,0,0,0,0,0,0],"id":34,"left_children":[1,3,5,7,9,11,13,15,17,19,21,23,25,27,29,-1,-1,-1,-1,-1,-1,-1,-1,-1,-1,-1,-1,-1,-1,-1,-1],"loss_changes":[5.6529164E-1,1.7462854E-1,1.4599055E-1,6.016282E-2,4.283312E-2,2.634114E-2,3.5567533E-2,2.9313039E-2,2.1146879E-2,6.4781755E-3,9.88178E-3,1.6268313E-2,8.222029E-3,9.222673E-3,4.744567E-4,0E0,0E0,0E0,0E0,0E0,0E0,0E0,0E0,0E0,0E0,0E0,0E0,0E0,0E0,0E0,0E0],"parents":[2147483647,0,0,1,1,2,2,3,3,4,4,5,5,6,6,7,7,8,8,9,9,10,10,11,11,12,12,13,13,14,14],"right_children":[2,4,6,8,10,12,14,16,18,20,22,24,26,28,30,-1,-1,-1,-1,-1,-1,-1,-1,-1,-1,-1,-1,-1,-1,-1,-1],"split_conditions":[2E0,2.970294E-2,1.8379584E-2,1E0,6.987222E-2,-1.714539E-2,9.059393E-2,1.0338005E-2,7.0082378E-3,1E0,1.1180247E-1,-2.3420384E0,1.7594573E0,5.094322E-2,-5.9274968E-2,-3.80869E-5,2.930275E-4,2.565248E-4,5.2474503E-4,5.81345E-4,9.414448E-4,1.3262574E-3,2.3333288E-3,-2.1403288E-3,-8.2319044E-4,-5.1619817E-4,-1.115791E-3,-3.1787262E-5,4.0155937E-4,4.5761367E-4,1.7813778E-3],"split_indices":[6,13,13,6,11,13,13,13,13,6,12,406,180,7,0,0,0,0,0,0,0,0,0,0,0,0,0,0,0,0,0],"split_type":[0,0,0,0,0,0,0,0,0,0,0,0,0,0,0,0,0,0,0,0,0,0,0,0,0,0,0,0,0,0,0],"sum_hessian":[2.202E3,1.522E3,6.8E2,1.371E3,1.51E2,5.43E2,1.37E2,6.76E2,6.95E2,1.12E2,3.9E1,1.77E2,3.66E2,1.31E2,6E0,5.09E2,1.67E2,5.01E2,1.94E2,6.5E1,4.7E1,3.1E1,8E0,4E0,1.73E2,3.55E2,1.1E1,1.02E2,2.9E1,1E0,5E0],"tree_param":{"num_deleted":"0","num_feature":"460","num_nodes":"31","size_leaf_vector":"0"}},{"base_weights":[1.611706E-3,1.2320127E-2,-2.2339156E-2,8.747544E-3,4.4486333E-2,-2.9687995E-2,6.7920624E-3,2.0251076E-3,1.5273898E-2,3.401481E-2,7.295623E-2,-3.9781414E-2,-2.4711655E-2,3.0571509E-3,7.625153E-2,-3.80869E-5,2.930275E-4,2.565248E-4,5.2474503E-4,5.81345E-4,9.414448E-4,1.3262574E-3,2.3333288E-3,-2.1403288E-3,-8.2319044E-4,-5.1619817E-4,-1.115791E-3,-3.1787262E-5,4.0155937E-4,4.5761367E-4,1.7813778E-3],"categories":[],"categories_nodes":[],"categories_segments":[],"categories_sizes":[],"default_left":[0,0,0,0,0,0,0,0,0,0,0,0,0,0,0,0,0,0,0,0,0,0,0,0,0,0,0,0,0,0,0],"id":35,"left_children":[1,3,5,7,9,11,13,15,17,19,21,23,25,27,29,-1,-1,-1,-1,-1,-1,-1,-1,-1,-1,-1,-1,-1,-1,-1,-1],"loss_changes":[5.6529164E-1,1.7462854E-1,1.4599055E-1,6.016282E-2,4.283312E-2,2.634114E-2,3.5567533E-2,2.9313039E-2,2.1146879E-2,6.4781755E-3,9.88178E-3,1.6268313E-2,8.222029E-3,9.222673E-3,4.744567E-4,0E0,0E0,0E0,0E0,0E0,0E0,0E0,0E0,0E0,0E0,0E0,0E0,0E0,0E0,0E0,0E0],"parents":[2147483647,0,0,1,1,2,2,3,3,4,4,5,5,6,6,7,7,8,8,9,9,10,10,11,11,12,12,13,13,14,14],"right_children":[2,4,6,8,10,12,14,16,18,20,22,24,26,28,30,-1,-1,-1,-1,-1,-1,-1,-1,-1,-1,-1,-1,-1,-1,-1,-1],"split_conditions":[2E0,2.970294E-2,1.8379584E-2,1E0,6.987222E-2,-1.714539E-2,9.059393E-2,1.0338005E-2,7.0082378E-3,1E0,1.1180247E-1,-2.3420384E0,1.7594573E0,5.094322E-2,-5.9274968E-2,-3.80869E-5,2.930275E-4,2.565248E-4,5.2474503E-4,5.81345E-4,9.414448E-4,1.3262574E-3,2.3333288E-3,-2.1403288E-3,-8.2319044E-4,-5.1619817E-4,-1.115791E-3,-3.1787262E-5,4.0155937E-4,4.5761367E-4,1.7813778E-3],"split_indices":[6,13,13,6,11,13,13,13,13,6,11,402,180,7,0,0,0,0,0,0,0,0,0,0,0,0,0,0,0,0,0],"split_type":[0,0,0,0,0,0,0,0,0,0,0,0,0,0,0,0,0,0,0,0,0,0,0,0,0,0,0,0,0,0,0],"sum_hessian":[2.202E3,1.522E3,6.8E2,1.371E3,1.51E2,5.43E2,1.37E2,6.76E2,6.95E2,1.12E2,3.9E1,1.77E2,3.66E2,1.31E2,6E0,5.09E2,1.67E2,5.01E2,1.94E2,6.5E1,4.7E1,3.1E1,8E0,4E0,1.73E2,3.55E2,1.1E1,1.02E2,2.9E1,1E0,5E0],"tree_param":{"num_deleted":"0","num_feature":"460","num_nodes":"31","size_leaf_vector":"0"}},{"base_weights":[1.611706E-3,1.2320127E-2,-2.2339156E-2,8.747544E-3,4.4486333E-2,-2.9687995E-2,6.7920624E-3,4.9877088E-3,1.803456E-2,3.401481E-2,7.295623E-2,-3.9781414E-2,-2.4711655E-2,3.0571509E-3,7.625153E-2,-4.875946E-5,2.5696328E-4,2.6244458E-4,5.2499067E-4,5.81345E-4,9.414448E-4,1.3262574E-3,2.3333288E-3,-2.1403288E-3,-8.2319044E-4,-5.1619817E-4,-1.115791E-3,-3.1787262E-5,4.0155937E-4,4.5761367E-4,1.7813778E-3],"categories":[],"categories_nodes":[],"categories_segments":[],"categories_sizes":[],"default_left":[0,0,0,0,0,0,0,0,0,0,0,0,0,0,0,0,0,0,0,0,0,0,0,0,0,0,0,0,0,0,0],"id":36,"left_children":[1,3,5,7,9,11,13,15,17,19,21,23,25,27,29,-1,-1,-1,-1,-1,-1,-1,-1,-1,-1,-1,-1,-1,-1,-1,-1],"loss_changes":[5.6529164E-1,1.7462854E-1,1.4599055E-1,4.781709E-2,4.283312E-2,2.634114E-2,3.5567533E-2,4.8343733E-2,1.4109507E-2,6.4781755E-3,9.88178E-3,1.6268313E-2,8.222029E-3,9.222673E-3,4.744567E-4,0E0,0E0,0E0,0E0,0E0,0E0,0E0,0E0,0E0,0E0,0E0,0E0,0E0,0E0,0E0,0E0],"parents":[2147483647,0,0,1,1,2,2,3,3,4,4,5,5,6,6,7,7,8,8,9,9,10,10,11,11,12,12,13,13,14,14],"right_children":[2,4,6,8,10,12,14,16,18,20,22,24,26,28,30,-1,-1,-1,-1,-1,-1,-1,-1,-1,-1,-1,-1,-1,-1,-1,-1],"split_conditions":[2E0,2.970294E-2,1.8379584E-2,7.3865326E-3,6.987222E-2,-1.714539E-2,9.059393E-2,1E0,1E0,1E0,1.1180247E-1,-2.3420384E0,1.7594573E0,5.094322E-2,-5.9274968E-2,-4.875946E-5,2.5696328E-4,2.6244458E-4,5.2499067E-4,5.81345E-4,9.414448E-4,1.3262574E-3,2.3333288E-3,-2.1403288E-3,-8.2319044E-4,-5.1619817E-4,-1.115791E-3,-3.1787262E-5,4.0155937E-4,4.5761367E-4,1.7813778E-3],"split_indices":[6,14,14,13,12,13,13,6,6,6,11,402,176,7,0,0,0,0,0,0,0,0,0,0,0,0,0,0,0,0,0],"split_type":[0,0,0,0,0,0,0,0,0,0,0,0,0,0,0,0,0,0,0,0,0,0,0,0,0,0,0,0,0,0,0],"sum_hessian":[2.202E3,1.522E3,6.8E2,1.371E3,1.51E2,5.43E2,1.37E2,9.77E2,3.94E2,1.12E2,3.9E1,1.77E2,3.66E2,1.31E2,6E0,4.75E2,5.02E2,2.01E2,1.93E2,6.5E1,4.7E1,3.1E1,8E0,4E0,1.73E2,3.55E2,1.1E1,1.02E2,2.9E1,1E0,5E0],"tree_param":{"num_deleted":"0","num_feature":"460","num_nodes":"31","size_leaf_vector":"0"}},{"base_weights":[1.611706E-3,1.2320127E-2,-2.2339156E-2,8.747544E-3,4.4486333E-2,-2.9687995E-2,6.7920624E-3,2.0251076E-3,1.5273898E-2,3.401481E-2,7.295623E-2,-3.9781414E-2,-2.4711655E-2,3.0571509E-3,7.625153E-2,-3.80869E-5,2.930275E-4,2.565248E-4,5.2474503E-4,5.81345E-4,9.414448E-4,1.3262574E-3,2.3333288E-3,-2.1403288E-3,-8.2319044E-4,-5.1619817E-4,-1.115791E-3,-3.1787262E-5,4.0155937E-4,4.5761367E-4,1.7813778E-3],"categories":[],"categories_nodes":[],"categories_segments":[],"categories_sizes":[],"default_left":[0,0,0,0,0,0,0,0,0,0,0,0,0,0,0,0,0,0,0,0,0,0,0,0,0,0,0,0,0,0,0],"id":37,"left_children":[1,3,5,7,9,11,13,15,17,19,21,23,25,27,29,-1,-1,-1,-1,-1,-1,-1,-1,-1,-1,-1,-1,-1,-1,-1,-1],"loss_changes":[5.6529164E-1,1.7462854E-1,1.4599055E-1,6.016282E-2,4.283312E-2,2.634114E-2,3.5567533E-2,2.9313039E-2,2.1146879E-2,6.4781755E-3,9.88178E-3,1.6268313E-2,8.222029E-3,9.222673E-3,4.744567E-4,0E0,0E0,0E0,0E0,0E0,0E0,0E0,0E0,0E0,0E0,0E0,0E0,0E0,0E0,0E0,0E0],"parents":[2147483647,0,0,1,1,2,2,3,3,4,4,5,5,6,6,7,7,8,8,9,9,10,10,11,11,12,12,13,13,14,14],"right_children":[2,4,6,8,10,12,14,16,18,20,22,24,26,28,30,-1,-1,-1,-1,-1,-1,-1,-1,-1,-1,-1,-1,-1,-1,-1,-1],"split_conditions":[2E0,2.970294E-2,1.8379584E-2,1E0,6.987222E-2,-1.714539E-2,9.059393E-2,1.0338005E-2,7.0082378E-3,1E0,1.1180247E-1,-2.3420384E0,1.7594573E0,5.094322E-2,-5.9274968E-2,-3.80869E-5,2.930275E-4,2.565248E-4,5.2474503E-4,5.81345E-4,9.414448E-4,1.3262574E-3,2.3333288E-3,-2.1403288E-3,-8.2319044E-4,-5.1619817E-4,-1.115791E-3,-3.1787262E-5,4.0155937E-4,4.5761367E-4,1.7813778E-3],"split_indices":[6,13,14,6,11,13,13,13,14,6,11,402,176,7,4,0,0,0,0,0,0,0,0,0,0,0,0,0,0,0,0],"split_type":[0,0,0,0,0,0,0,0,0,0,0,0,0,0,0,0,0,0,0,0,0,0,0,0,0,0,0,0,0,0,0],"sum_hessian":[2.202E3,1.522E3,6.8E2,1.371E3,1.51E2,5.43E2,1.37E2,6.76E2,6.95E2,1.12E2,3.9E1,1.77E2,3.66E2,1.31E2,6E0,5.09E2,1.67E2,5.01E2,1.94E2,6.5E1,4.7E1,3.1E1,8E0,4E0,1.73E2,3.55E2,1.1E1,1.02E2,2.9E1,1E0,5E0],"tree_param":{"num_deleted":"0","num_feature":"460","num_nodes":"31","size_leaf_vector":"0"}},{"base_weights":[1.611706E-3,1.2320127E-2,-2.2339156E-2,8.747544E-3,4.4486333E-2,-2.9687995E-2,6.7920624E-3,2.0251076E-3,1.5273898E-2,3.401481E-2,7.295623E-2,-3.9781414E-2,-2.4711655E-2,3.0571509E-3,7.625153E-2,-3.80869E-5,2.930275E-4,2.6609102E-4,5.460621E-4,5.81345E-4,9.414448E-4,1.3262574E-3,2.3333288E-3,-2.1403288E-3,-8.2319044E-4,-5.1619817E-4,-1.115791E-3,-3.1787262E-5,4.0155937E-4,4.5761367E-4,1.7813778E-3],"categories":[],"categories_nodes":[],"categories_segments":[],"categories_sizes":[],"default_left":[0,0,0,0,0,0,0,0,0,0,0,0,0,0,0,0,0,0,0,0,0,0,0,0,0,0,0,0,0,0,0],"id":38,"left_children":[1,3,5,7,9,11,13,15,17,19,21,23,25,27,29,-1,-1,-1,-1,-1,-1,-1,-1,-1,-1,-1,-1,-1,-1,-1,-1],"loss_changes":[5.6529164E-1,1.7462854E-1,1.4599055E-1,6.016282E-2,4.283312E-2,2.634114E-2,3.5567533E-2,2.9313039E-2,2.0479813E-2,6.4781755E-3,9.88178E-3,1.6268313E-2,8.222029E-3,9.222673E-3,4.744567E-4,0E0,0E0,0E0,0E0,0E0,0E0,0E0,0E0,0E0,0E0,0E0,0E0,0E0,0E0,0E0,0E0],"parents":[2147483647,0,0,1,1,2,2,3,3,4,4,5,5,6,6,7,7,8,8,9,9,10,10,11,11,12,12,13,13,14,14],"right_children":[2,4,6,8,10,12,14,16,18,20,22,24,26,28,30,-1,-1,-1,-1,-1,-1,-1,-1,-1,-1,-1,-1,-1,-1,-1,-1],"split_conditions":[2E0,2.970294E-2,1.8379584E-2,1E0,6.987222E-2,-1.714539E-2,9.059393E-2,1.0338005E-2,3.5398078E-1,1E0,1.1180247E-1,-2.3420384E0,1.7594573E0,5.094322E-2,-5.9274968E-2,-3.80869E-5,2.930275E-4,2.6609102E-4,5.460621E-4,5.81345E-4,9.414448E-4,1.3262574E-3,2.3333288E-3,-2.1403288E-3,-8.2319044E-4,-5.1619817E-4,-1.115791E-3,-3.1787262E-5,4.0155937E-4,4.5761367E-4,1.7813778E-3],"split_indices":[6,13,13,6,12,13,13,14,48,6,11,402,176,7,0,0,0,0,0,0,0,0,0,0,0,0,0,0,0,0,0],"split_type":[0,0,0,0,0,0,0,0,0,0,0,0,0,0,0,0,0,0,0,0,0,0,0,0,0,0,0,0,0,0,0],"sum_hessian":[2.202E3,1.522E3,6.8E2,1.371E3,1.51E2,5.43E2,1.37E2,6.76E2,6.95E2,1.12E2,3.9E1,1.77E2,3.66E2,1.31E2,6E0,5.09E2,1.67E2,5.33E2,1.62E2,6.5E1,4.7E1,3.1E1,8E0,4E0,1.73E2,3.55E2,1.1E1,1.02E2,2.9E1,1E0,5E0],"tree_param":{"num_deleted":"0","num_feature":"460","num_nodes":"31","size_leaf_vector":"0"}},{"base_weights":[1.611706E-3,1.2320127E-2,-2.2339156E-2,8.747544E-3,4.4486333E-2,-2.9687995E-2,6.7920624E-3,2.0251076E-3,1.5273898E-2,3.401481E-2,7.295623E-2,-3.9781414E-2,-2.4711655E-2,3.0571509E-3,7.625153E-2,-3.80869E-5,2.930275E-4,2.565248E-4,5.2474503E-4,5.81345E-4,9.414448E-4,1.3262574E-3,2.3333288E-3,-2.1836574E-3,-8.297266E-4,-5.1619817E-4,-1.115791E-3,-3.1787262E-5,4.0155937E-4,4.5761367E-4,1.7813778E-3],"categories":[],"categories_nodes":[],"categories_segments":[],"categories_sizes":[],"default_left":[0,0,0,0,0,0,0,0,0,0,0,0,0,0,0,0,0,0,0,0,0,0,0,0,0,0,0,0,0,0,0],"id":39,"left_children":[1,3,5,7,9,11,13,15,17,19,21,23,25,27,29,-1,-1,-1,-1,-1,-1,-1,-1,-1,-1,-1,-1,-1,-1,-1,-1],"loss_changes":[5.6529164E-1,1.7462854E-1,1.4599055E-1,6.016282E-2,4.283312E-2,2.634114E-2,3.5567533E-2,2.9313039E-2,2.1146879E-2,6.4781755E-3,9.88178E-3,1.3595164E-2,8.222029E-3,9.222673E-3,4.744567E-4,0E0,0E0,0E0,0E0,0E0,0E0,0E0,0E0,0E0,0E0,0E0,0E0,0E0,0E0,0E0,0E0],"parents":[2147483647,0,0,1,1,2,2,3,3,4,4,5,5,6,6,7,7,8,8,9,9,10,10,11,11,12,12,13,13,14,14],"right_children":[2,4,6,8,10,12,14,16,18,20,22,24,26,28,30,-1,-1,-1,-1,-1,-1,-1,-1,-1,-1,-1,-1,-1,-1,-1,-1],"split_conditions":[2E0,2.970294E-2,1.8379584E-2,1E0,6.987222E-2,-1.714539E-2,9.059393E-2,1.0338005E-2,7.0082378E-3,1E0,1.1180247E-1,-2.433396E0,1.7594573E0,5.094322E-2,-5.9274968E-2,-3.80869E-5,2.930275E-4,2.565248E-4,5.2474503E-4,5.81345E-4,9.414448E-4,1.3262574E-3,2.3333288E-3,-2.1836574E-3,-8.297266E-4,-5.1619817E-4,-1.115791E-3,-3.1787262E-5,4.0155937E-4,4.5761367E-4,1.7813778E-3],"split_indices":[6,13,13,6,11,14,13,13,13,6,12,403,176,7,0,0,0,0,0,0,0,0,0,0,0,0,0,0,0,0,0],"split_type":[0,0,0,0,0,0,0,0,0,0,0,0,0,0,0,0,0,0,0,0,0,0,0,0,0,0,0,0,0,0,0],"sum_hessian":[2.202E3,1.522E3,6.8E2,1.371E3,1.51E2,5.43E2,1.37E2,6.76E2,6.95E2,1.12E2,3.9E1,1.77E2,3.66E2,1.31E2,6E0,5.09E2,1.67E2,5.01E2,1.94E2,6.5E1,4.7E1,3.1E1,8E0,3E0,1.74E2,3.55E2,1.1E1,1.02E2,2.9E1,1E0,5E0],"tree_param":{"num_deleted":"0","num_feature":"460","num_nodes":"31","size_leaf_vector":"0"}},{"base_weights":[1.611706E-3,-5.3973217E-3,2.0562822E-2,6.180637E-3,-3.0287301E-2,1.8164877E-2,8.524163E-2,-1.12587E-3,1.2988325E-2,-3.9781414E-2,-2.5136882E-2,2.6074965E-2,-2.1619163E-3,2.3649717E-3,4.1757926E-2,-1.1925146E-4,6.8277615E-5,1.8213142E-3,2.7098E-4,-2.1403288E-3,-8.2319044E-4,-5.224857E-4,-1.2027511E-3,4.1541868E-4,8.767218E-4,-3.909776E-4,7.278804E-5,1.161104E-3,3.008513E-4],"categories":[],"categories_nodes":[],"categories_segments":[],"categories_sizes":[],"default_left":[0,0,0,0,0,0,0,0,0,0,0,0,0,0,0,0,0,0,0,0,0,0,0,0,0,0,0,0,0],"id":40,"left_children":[1,3,5,7,9,11,13,15,17,19,21,23,25,-1,27,-1,-1,-1,-1,-1,-1,-1,-1,-1,-1,-1,-1,-1,-1],"loss_changes":[2.9273304E-1,4.6386105E-1,9.0733826E-2,5.4679353E-2,2.3987234E-2,9.250873E-2,1.695937E-2,9.894498E-3,2.0032361E-2,1.6268313E-2,9.7875595E-3,4.0335745E-2,1.4184617E-2,0E0,2.188839E-3,0E0,0E0,0E0,0E0,0E0,0E0,0E0,0E0,0E0,0E0,0E0,0E0,0E0,0E0],"parents":[2147483647,0,0,1,1,2,2,3,3,4,4,5,5,6,6,7,7,8,8,9,9,10,10,11,11,12,12,14,14],"right_children":[2,4,6,8,10,12,14,16,18,20,22,24,26,-1,28,-1,-1,-1,-1,-1,-1,-1,-1,-1,-1,-1,-1,-1,-1],"split_conditions":[5.1550066E-1,2E0,1.066381E-1,1E0,-1.714539E-2,2E0,9.972025E-1,-6.177057E-3,-1.9570129E0,-2.3420384E0,1.7594573E0,4.7726646E-2,1.8379584E-2,2.3649717E-3,3.4118226E-1,-1.1925146E-4,6.8277615E-5,1.8213142E-3,2.7098E-4,-2.1403288E-3,-8.2319044E-4,-5.224857E-4,-1.2027511E-3,4.1541868E-4,8.767218E-4,-3.909776E-4,7.278804E-5,1.161104E-3,3.008513E-4],"split_indices":[44,6,11,6,13,6,218,13,17,406,176,11,13,0,106,0,0,0,0,0,0,0,0,0,0,0,0,0,0],"split_type":[0,0,0,0,0,0,0,0,0,0,0,0,0,0,0,0,0,0,0,0,0,0,0,0,0,0,0,0,0],"sum_hessian":[2.202E3,1.608E3,5.94E2,1.098E3,5.1E2,5.74E2,2E1,5.3E2,5.68E2,1.77E2,3.33E2,4.13E2,1.61E2,1.2E1,8E0,2.62E2,2.68E2,3E0,5.65E2,4E0,1.73E2,3.23E2,1E1,2.79E2,1.34E2,4.1E1,1.2E2,5E0,3E0],"tree_param":{"num_deleted":"0","num_feature":"460","num_nodes":"29","size_leaf_vector":"0"}},{"base_weights":[1.611706E-3,1.2320127E-2,-2.2339156E-2,8.747544E-3,4.4486333E-2,-2.9687995E-2,6.7920624E-3,2.0251076E-3,1.5273898E-2,3.401481E-2,7.295623E-2,-3.9781414E-2,-2.4711655E-2,3.0571509E-3,7.625153E-2,-3.80869E-5,2.930275E-4,2.565248E-4,5.2474503E-4,2.5203326E-4,7.692627E-4,1.3262574E-3,2.3333288E-3,-2.1403288E-3,-8.2319044E-4,-5.1619817E-4,-1.115791E-3,-3.1787262E-5,4.0155937E-4,4.5761367E-4,1.7813778E-3],"categories":[],"categories_nodes":[],"categories_segments":[],"categories_sizes":[],"default_left":[0,0,0,0,0,0,0,0,0,0,0,0,0,0,0,0,0,0,0,0,0,0,0,0,0,0,0,0,0,0,0],"id":41,"left_children":[1,3,5,7,9,11,13,15,17,19,21,23,25,27,29,-1,-1,-1,-1,-1,-1,-1,-1,-1,-1,-1,-1,-1,-1,-1,-1],"loss_changes":[5.6529164E-1,1.7462854E-1,1.4599055E-1,6.016282E-2,4.283312E-2,2.634114E-2,3.5567533E-2,2.9313039E-2,2.1146879E-2,3.0640215E-3,9.88178E-3,1.6268313E-2,8.222029E-3,9.222673E-3,4.744567E-4,0E0,0E0,0E0,0E0,0E0,0E0,0E0,0E0,0E0,0E0,0E0,0E0,0E0,0E0,0E0,0E0],"parents":[2147483647,0,0,1,1,2,2,3,3,4,4,5,5,6,6,7,7,8,8,9,9,10,10,11,11,12,12,13,13,14,14],"right_children":[2,4,6,8,10,12,14,16,18,20,22,24,26,28,30,-1,-1,-1,-1,-1,-1,-1,-1,-1,-1,-1,-1,-1,-1,-1,-1],"split_conditions":[2E0,2.970294E-2,1.8379584E-2,1E0,6.987222E-2,-1.714539E-2,9.059393E-2,1.0338005E-2,7.0082378E-3,-1.5252508E0,1.1180247E-1,-2.3420384E0,1.7594573E0,5.094322E-2,-5.9274968E-2,-3.80869E-5,2.930275E-4,2.565248E-4,5.2474503E-4,2.5203326E-4,7.692627E-4,1.3262574E-3,2.3333288E-3,-2.1403288E-3,-8.2319044E-4,-5.1619817E-4,-1.115791E-3,-3.1787262E-5,4.0155937E-4,4.5761367E-4,1.7813778E-3],"split_indices":[6,13,13,6,11,13,13,14,13,84,11,402,176,7,4,0,0,0,0,0,0,0,0,0,0,0,0,0,0,0,0],"split_type":[0,0,0,0,0,0,0,0,0,0,0,0,0,0,0,0,0,0,0,0,0,0,0,0,0,0,0,0,0,0,0],"sum_hessian":[2.202E3,1.522E3,6.8E2,1.371E3,1.51E2,5.43E2,1.37E2,6.76E2,6.95E2,1.12E2,3.9E1,1.77E2,3.66E2,1.31E2,6E0,5.09E2,1.67E2,5.01E2,1.94E2,7E0,1.05E2,3.1E1,8E0,4E0,1.73E2,3.55E2,1.1E1,1.02E2,2.9E1,1E0,5E0],"tree_param":{"num_deleted":"0","num_feature":"460","num_nodes":"31","size_leaf_vector":"0"}},{"base_weights":[1.611706E-3,1.2320127E-2,-2.2339156E-2,8.747544E-3,4.4486333E-2,-2.9687995E-2,6.7920624E-3,4.9877088E-3,1.803456E-2,3.401481E-2,7.295623E-2,-3.9781414E-2,-2.4711655E-2,3.0571509E-3,7.625153E-2,4.0966185E-4,8.5824395E-5,2.8326033E-4,4.9356034E-4,5.81345E-4,9.414448E-4,1.3262574E-3,2.3333288E-3,-2.1403288E-3,-8.2319044E-4,-5.1619817E-4,-1.115791E-3,-3.1787262E-5,4.0155937E-4,4.5761367E-4,1.7813778E-3],"categories":[],"categories_nodes":[],"categories_segments":[],"categories_sizes":[],"default_left":[0,0,0,0,0,0,0,0,0,0,0,0,0,0,0,0,0,0,0,0,0,0,0,0,0,0,0,0,0,0,0],"id":42,"left_children":[1,3,5,7,9,11,13,15,17,19,21,23,25,27,29,-1,-1,-1,-1,-1,-1,-1,-1,-1,-1,-1,-1,-1,-1,-1,-1],"loss_changes":[5.6529164E-1,1.7462854E-1,1.4599055E-1,4.781709E-2,4.283312E-2,2.634114E-2,3.5567533E-2,1.4016679E-2,8.934319E-3,6.4781755E-3,9.88178E-3,1.6268313E-2,8.222029E-3,9.222673E-3,4.744567E-4,0E0,0E0,0E0,0E0,0E0,0E0,0E0,0E0,0E0,0E0,0E0,0E0,0E0,0E0,0E0,0E0],"parents":[2147483647,0,0,1,1,2,2,3,3,4,4,5,5,6,6,7,7,8,8,9,9,10,10,11,11,12,12,13,13,14,14],"right_children":[2,4,6,8,10,12,14,16,18,20,22,24,26,28,30,-1,-1,-1,-1,-1,-1,-1,-1,-1,-1,-1,-1,-1,-1,-1,-1],"split_conditions":[2E0,2.970294E-2,1.8379584E-2,7.3865326E-3,6.987222E-2,-1.714539E-2,9.059393E-2,-1.666957E0,-3.6389658E-1,1E0,1.1180247E-1,-2.3420384E0,1.7594573E0,5.094322E-2,-5.9274968E-2,4.0966185E-4,8.5824395E-5,2.8326033E-4,4.9356034E-4,5.81345E-4,9.414448E-4,1.3262574E-3,2.3333288E-3,-2.1403288E-3,-8.2319044E-4,-5.1619817E-4,-1.115791E-3,-3.1787262E-5,4.0155937E-4,4.5761367E-4,1.7813778E-3],"split_indices":[6,13,13,13,11,13,14,29,36,6,12,402,176,7,0,0,0,0,0,0,0,0,0,0,0,0,0,0,0,0,0],"split_type":[0,0,0,0,0,0,0,0,0,0,0,0,0,0,0,0,0,0,0,0,0,0,0,0,0,0,0,0,0,0,0],"sum_hessian":[2.202E3,1.522E3,6.8E2,1.371E3,1.51E2,5.43E2,1.37E2,9.77E2,3.94E2,1.12E2,3.9E1,1.77E2,3.66E2,1.31E2,6E0,6.7E1,9.1E2,1.92E2,2.02E2,6.5E1,4.7E1,3.1E1,8E0,4E0,1.73E2,3.55E2,1.1E1,1.02E2,2.9E1,1E0,5E0],"tree_param":{"num_deleted":"0","num_feature":"460","num_nodes":"31","size_leaf_vector":"0"}},{"base_weights":[1.611706E-3,1.2320127E-2,-2.2339156E-2,8.747544E-3,4.4486333E-2,-2.9687995E-2,6.7920624E-3,2.0251076E-3,1.5273898E-2,4.0297866E-2,9.45114E-2,-3.5636857E-2,-2.239063E-2,3.0571509E-3,7.625153E-2,-3.80869E-5,2.930275E-4,2.6609102E-4,5.460621E-4,6.8345125E-4,1.216736E-3,2.187911E-3,3.607213E-4,-1.1784042E-3,-7.2512816E-4,-5.690878E-4,-3.3152165E-4,-3.1787262E-5,4.0155937E-4,4.5761367E-4,1.7813778E-3],"categories":[],"categories_nodes":[],"categories_segments":[],"categories_sizes":[],"default_left":[0,0,0,0,0,0,0,0,0,0,0,0,0,0,0,0,0,0,0,0,0,0,0,0,0,0,0,0,0,0,0],"id":43,"left_children":[1,3,5,7,9,11,13,15,17,19,21,23,25,27,29,-1,-1,-1,-1,-1,-1,-1,-1,-1,-1,-1,-1,-1,-1,-1,-1],"loss_changes":[5.6529164E-1,1.7462854E-1,1.4599055E-1,6.016282E-2,2.8039694E-2,2.2817671E-2,3.5567533E-2,2.9313039E-2,2.0479813E-2,1.7955676E-2,3.586173E-3,1.0814279E-2,6.2807724E-3,9.222673E-3,4.744567E-4,0E0,0E0,0E0,0E0,0E0,0E0,0E0,0E0,0E0,0E0,0E0,0E0,0E0,0E0,0E0,0E0],"parents":[2147483647,0,0,1,1,2,2,3,3,4,4,5,5,6,6,7,7,8,8,9,9,10,10,11,11,12,12,13,13,14,14],"right_children":[2,4,6,8,10,12,14,16,18,20,22,24,26,28,30,-1,-1,-1,-1,-1,-1,-1,-1,-1,-1,-1,-1,-1,-1,-1,-1],"split_conditions":[2E0,2.970294E-2,1.8379584E-2,1E0,7.347933E-2,-2.9349992E-1,9.059393E-2,1.0338005E-2,3.5398078E-1,6.194695E-2,1.7805085E0,-1.3577669E0,-1.6731818E-3,5.094322E-2,-5.9274968E-2,-3.80869E-5,2.930275E-4,2.6609102E-4,5.460621E-4,6.8345125E-4,1.216736E-3,2.187911E-3,3.607213E-4,-1.1784042E-3,-7.2512816E-4,-5.690878E-4,-3.3152165E-4,-3.1787262E-5,4.0155937E-4,4.5761367E-4,1.7813778E-3],"split_indices":[6,14,13,6,13,47,13,13,44,11,25,250,0,7,0,0,0,0,0,0,0,0,0,0,0,0,0,0,0,0,0],"split_type":[0,0,0,0,0,0,0,0,0,0,0,0,0,0,0,0,0,0,0,0,0,0,0,0,0,0,0,0,0,0,0],"sum_hessian":[2.202E3,1.522E3,6.8E2,1.371E3,1.51E2,5.43E2,1.37E2,6.76E2,6.95E2,1.41E2,1E1,2.97E2,2.46E2,1.31E2,6E0,5.09E2,1.67E2,5.33E2,1.62E2,9.2E1,4.9E1,9E0,1E0,3E1,2.67E2,1.59E2,8.7E1,1.02E2,2.9E1,1E0,5E0],"tree_param":{"num_deleted":"0","num_feature":"460","num_nodes":"31","size_leaf_vector":"0"}},{"base_weights":[1.611706E-3,1.2320127E-2,-2.2339156E-2,8.747544E-3,4.4486333E-2,-2.9687995E-2,6.7920624E-3,2.0251076E-3,1.5273898E-2,3.401481E-2,7.295623E-2,-3.9781414E-2,-2.4711655E-2,3.0571509E-3,7.625153E-2,-3.80869E-5,2.930275E-4,2.565248E-4,5.2474503E-4,5.81345E-4,9.414448E-4,1.3262574E-3,2.3333288E-3,-2.1403288E-3,-8.2319044E-4,-5.1619817E-4,-1.115791E-3,-3.1787262E-5,4.0155937E-4,4.5761367E-4,1.7813778E-3],"categories":[],"categories_nodes":[],"categories_segments":[],"categories_sizes":[],"default_left":[0,0,0,0,0,0,0,0,0,0,0,0,0,0,0,0,0,0,0,0,0,0,0,0,0,0,0,0,0,0,0],"id":44,"left_children":[1,3,5,7,9,11,13,15,17,19,21,23,25,27,29,-1,-1,-1,-1,-1,-1,-1,-1,-1,-1,-1,-1,-1,-1,-1,-1],"loss_changes":[5.6529164E-1,1.7462854E-1,1.4599055E-1,6.016282E-2,4.283312E-2,2.634114E-2,3.5567533E-2,2.9313039E-2,2.1146879E-2,6.4781755E-3,9.88178E-3,1.6268313E-2,8.222029E-3,9.222673E-3,4.744567E-4,0E0,0E0,0E0,0E0,0E0,0E0,0E0,0E0,0E0,0E0,0E0,0E0,0E0,0E0,0E0,0E0],"parents":[2147483647,0,0,1,1,2,2,3,3,4,4,5,5,6,6,7,7,8,8,9,9,10,10,11,11,12,12,13,13,14,14],"right_children":[2,4,6,8,10,12,14,16,18,20,22,24,26,28,30,-1,-1,-1,-1,-1,-1,-1,-1,-1,-1,-1,-1,-1,-1,-1,-1],"split_conditions":[2E0,2.970294E-2,1.8379584E-2,1E0,6.987222E-2,-1.714539E-2,9.059393E-2,1.0338005E-2,7.0082378E-3,1E0,1.1180247E-1,-2.3420384E0,1.7594573E0,5.094322E-2,-5.9274968E-2,-3.80869E-5,2.930275E-4,2.565248E-4,5.2474503E-4,5.81345E-4,9.414448E-4,1.3262574E-3,2.3333288E-3,-2.1403288E-3,-8.2319044E-4,-5.1619817E-4,-1.115791E-3,-3.1787262E-5,4.0155937E-4,4.5761367E-4,1.7813778E-3],"split_indices":[6,13,13,6,11,13,13,13,13,6,11,402,180,7,4,0,0,0,0,0,0,0,0,0,0,0,0,0,0,0,0],"split_type":[0,0,0,0,0,0,0,0,0,0,0,0,0,0,0,0,0,0,0,0,0,0,0,0,0,0,0,0,0,0,0],"sum_hessian":[2.202E3,1.522E3,6.8E2,1.371E3,1.51E2,5.43E2,1.37E2,6.76E2,6.95E2,1.12E2,3.9E1,1.77E2,3.66E2,1.31E2,6E0,5.09E2,1.67E2,5.01E2,1.94E2,6.5E1,4.7E1,3.1E1,8E0,4E0,1.73E2,3.55E2,1.1E1,1.02E2,2.9E1,1E0,5E0],"tree_param":{"num_deleted":"0","num_feature":"460","num_nodes":"31","size_leaf_vector":"0"}},{"base_weights":[1.611706E-3,1.2320127E-2,-2.2339156E-2,8.747544E-3,4.4486333E-2,-2.9687995E-2,6.7920624E-3,2.0251076E-3,1.5273898E-2,3.401481E-2,7.295623E-2,-3.9781414E-2,-2.4711655E-2,3.0571509E-3,7.625153E-2,-3.80869E-5,2.930275E-4,2.565248E-4,5.2474503E-4,5.81345E-4,9.414448E-4,1.3262574E-3,2.3333288E-3,-2.1403288E-3,-8.2319044E-4,-5.1619817E-4,-1.115791E-3,-3.1787262E-5,4.0155937E-4,4.5761367E-4,1.7813778E-3],"categories":[],"categories_nodes":[],"categories_segments":[],"categories_sizes":[],"default_left":[0,0,0,0,0,0,0,0,0,0,0,0,0,0,0,0,0,0,0,0,0,0,0,0,0,0,0,0,0,0,0],"id":45,"left_children":[1,3,5,7,9,11,13,15,17,19,21,23,25,27,29,-1,-1,-1,-1,-1,-1,-1,-1,-1,-1,-1,-1,-1,-1,-1,-1],"loss_changes":[5.6529164E-1,1.7462854E-1,1.4599055E-1,6.016282E-2,4.283312E-2,2.634114E-2,3.5567533E-2,2.9313039E-2,2.1146879E-2,6.4781755E-3,9.88178E-3,1.6268313E-2,8.222029E-3,9.222673E-3,4.744567E-4,0E0,0E0,0E0,0E0,0E0,0E0,0E0,0E0,0E0,0E0,0E0,0E0,0E0,0E0,0E0,0E0],"parents":[2147483647,0,0,1,1,2,2,3,3,4,4,5,5,6,6,7,7,8,8,9,9,10,10,11,11,12,12,13,13,14,14],"right_children":[2,4,6,8,10,12,14,16,18,20,22,24,26,28,30,-1,-1,-1,-1,-1,-1,-1,-1,-1,-1,-1,-1,-1,-1,-1,-1],"split_conditions":[2E0,2.970294E-2,1.8379584E-2,1E0,6.987222E-2,-1.714539E-2,9.059393E-2,1.0338005E-2,7.0082378E-3,1E0,1.1180247E-1,-2.3420384E0,1.7594573E0,5.094322E-2,-5.9274968E-2,-3.80869E-5,2.930275E-4,2.565248E-4,5.2474503E-4,5.81345E-4,9.414448E-4,1.3262574E-3,2.3333288E-3,-2.1403288E-3,-8.2319044E-4,-5.1619817E-4,-1.115791E-3,-3.1787262E-5,4.0155937E-4,4.5761367E-4,1.7813778E-3],"split_indices":[6,14,13,6,11,13,13,14,14,6,12,402,176,7,4,0,0,0,0,0,0,0,0,0,0,0,0,0,0,0,0],"split_type":[0,0,0,0,0,0,0,0,0,0,0,0,0,0,0,0,0,0,0,0,0,0,0,0,0,0,0,0,0,0,0],"sum_hessian":[2.202E3,1.522E3,6.8E2,1.371E3,1.51E2,5.43E2,1.37E2,6.76E2,6.95E2,1.12E2,3.9E1,1.77E2,3.66E2,1.31E2,6E0,5.09E2,1.67E2,5.01E2,1.94E2,6.5E1,4.7E1,3.1E1,8E0,4E0,1.73E2,3.55E2,1.1E1,1.02E2,2.9E1,1E0,5E0],"tree_param":{"num_deleted":"0","num_feature":"460","num_nodes":"31","size_leaf_vector":"0"}}]},"name":"gbtree"},"learner_model_param":{"base_score":"0E0","boost_from_average":"0","num_class":"0","num_feature":"460","num_target":"1"},"objective":{"name":"reg:squarederror","reg_loss_param":{"scale_pos_weight":"1"}}},"version":[1,7,1]}