{"learner":{"attributes":{"scikit_learn":"{\"_estimator_type\": \"regressor\"}"},"feature_names":[],"feature_types":[],"gradient_booster":{"model":{"gbtree_model_param":{"num_parallel_tree":"3","num_trees":"3"},"iteration_indptr":[0,3],"tree_info":[0,0,0],"trees":[{"base_weights":[2.0972549E-3,1.6031514E-3,8.590597E-2,1.651192E-2,-3.70994E-2,4.1964605E-2,1.7282797E-2,6.5423315E-5,1.0362806E-2,-1.1398363E-2,-2.777572E-2,9.769002E-3,-1.1276042E-3],"categories":[],"categories_nodes":[],"categories_segments":[],"categories_sizes":[],"default_left":[0,0,0,0,0,0,0,0,0,0,0,0,0],"id":0,"left_children":[1,3,5,7,9,-1,11,-1,-1,-1,-1,-1,-1],"loss_changes":[1.0596958E-1,1.4772456E0,3.463401E-2,4.3948227E-1,8.7044775E-2,0E0,2.533809E-3,0E0,0E0,0E0,0E0,0E0,0E0],"parents":[2147483647,0,0,1,1,2,2,3,3,4,4,6,6],"right_children":[2,4,6,8,10,-1,12,-1,-1,-1,-1,-1,-1],"split_conditions":[1.7854768E-1,2E0,-3.726736E-2,1E0,9.851629E-2,4.1964605E-2,1.4594073E-2,6.5423315E-5,1.0362806E-2,-1.1398363E-2,-2.777572E-2,9.769002E-3,-1.1276042E-3],"split_indices":[15,40,9,40,45,0,22,0,0,0,0,0,0],"split_type":[0,0,0,0,0,0,0,0,0,0,0,0,0],"sum_hessian":[2.566E3,2.554E3,1.2E1,1.845E3,7.09E2,6E0,6E0,8.72E2,9.73E2,6.72E2,3.7E1,3E0,3E0],"tree_param":{"num_deleted":"0","num_feature":"494","num_nodes":"13","size_leaf_vector":"1"}},{"base_weights":[2.0972549E-3,1.7124793E-2,-3.7092764E-2,2.0958798E-4,3.2133177E-2,-3.4192387E-2,-8.332716E-2,7.353339E-4,-3.752135E-5,9.747473E-3,2.6472753E-2,-9.501066E-3,-1.4340684E-2,-1.3312113E-2,-3.5754114E-2],"categories":[],"categories_nodes":[],"categories_segments":[],"categories_sizes":[],"default_left":[0,0,0,0,0,0,0,0,0,0,0,0,0,0,0],"id":1,"left_children":[1,3,5,7,9,11,13,-1,-1,-1,-1,-1,-1,-1,-1],"loss_changes":[1.5148653E0,4.7192395E-1,8.706373E-2,5.647863E-4,1.2767231E-1,3.027922E-2,2.869168E-2,0E0,0E0,0E0,0E0,0E0,0E0,0E0,0E0],"parents":[2147483647,0,0,1,1,2,2,3,3,4,4,5,5,6,6],"right_children":[2,4,6,8,10,12,14,-1,-1,-1,-1,-1,-1,-1,-1],"split_conditions":[2E0,1E0,9.851629E-2,-1.255262E0,3.447E1,4.149051E-2,-9.180672E-1,7.353339E-4,-3.752135E-5,9.747473E-3,2.6472753E-2,-9.501066E-3,-1.4340684E-2,-1.3312113E-2,-3.5754114E-2],"split_indices":[40,40,45,252,191,45,52,0,0,0,0,0,0,0,0],"split_type":[0,0,0,0,0,0,0,0,0,0,0,0,0,0,0],"sum_hessian":[2.566E3,1.856E3,7.1E2,8.74E2,9.82E2,6.73E2,3.7E1,1.19E2,7.55E2,9.3E2,5.2E1,4.17E2,2.56E2,1.6E1,2.1E1],"tree_param":{"num_deleted":"0","num_feature":"494","num_nodes":"15","size_leaf_vector":"1"}},{"base_weights":[2.0972549E-3,1.7124793E-2,-3.7092764E-2,1.5167745E-2,6.371704E-2,-3.4192387E-2,-8.332716E-2,7.214095E-5,9.695005E-3,-7.549161E-5,2.5368055E-2,-9.501066E-3,-1.4340684E-2,-1.3312113E-2,-3.5754114E-2],"categories":[],"categories_nodes":[],"categories_segments":[],"categories_sizes":[],"default_left":[0,0,0,0,0,0,0,0,0,0,0,0,0,0,0],"id":2,"left_children":[1,3,5,7,9,11,13,-1,-1,-1,-1,-1,-1,-1,-1],"loss_changes":[1.5148653E0,1.666103E-1,8.706373E-2,3.7203088E-1,5.8665335E-2,3.027922E-2,2.869168E-2,0E0,0E0,0E0,0E0,0E0,0E0,0E0,0E0],"parents":[2147483647,0,0,1,1,2,2,3,3,4,4,5,5,6,6],"right_children":[2,4,6,8,10,12,14,-1,-1,-1,-1,-1,-1,-1,-1],"split_conditions":[2E0,3.302E1,9.851629E-2,1E0,1E0,4.149051E-2,-9.180672E-1,7.214095E-5,9.695005E-3,-7.549161E-5,2.5368055E-2,-9.501066E-3,-1.4340684E-2,-1.3312113E-2,-3.5754114E-2],"split_indices":[40,191,46,40,40,46,52,0,0,0,0,0,0,0,0],"split_type":[0,0,0,0,0,0,0,0,0,0,0,0,0,0,0],"sum_hessian":[2.566E3,1.856E3,7.1E2,1.785E3,7.1E1,6.73E2,3.7E1,8.62E2,9.23E2,1.2E1,5.9E1,4.17E2,2.56E2,1.6E1,2.1E1],"tree_param":{"num_deleted":"0","num_feature":"494","num_nodes":"15","size_leaf_vector":"1"}}]},"name":"gbtree"},"learner_model_param":{"base_score":"0E0","boost_from_average":"0","num_class":"0","num_feature":"494","num_target":"1"},"objective":{"name":"reg:squarederror","reg_loss_param":{"scale_pos_weight":"1"}}},"version":[2,1,1]}