{"learner":{"attributes":{"scikit_learn":"{\"_estimator_type\": \"regressor\"}"},"feature_names":[],"feature_types":[],"gradient_booster":{"model":{"gbtree_model_param":{"num_parallel_tree":"46","num_trees":"46"},"iteration_indptr":[0,46],"tree_info":[0,0,0,0,0,0,0,0,0,0,0,0,0,0,0,0,0,0,0,0,0,0,0,0,0,0,0,0,0,0,0,0,0,0,0,0,0,0,0,0,0,0,0,0,0,0],"trees":[{"base_weights":[2.015165E-3,-2.9533269E-2,1.4643884E-2,-6.054211E-2,-2.042963E-2,6.161211E-3,3.75453E-2,-7.8751594E-2,-4.683264E-2,-1.4276988E-2,-3.3613995E-2,9.690124E-3,-4.99907E-3,3.3167586E-2,6.9572546E-2,-1.8190844E-3,-3.9410854E-5,-1.0639862E-3,2.2573127E-4,-4.931345E-4,-1.9234797E-4,-4.2660368E-4,-8.3147344E-4,1.0693681E-4,3.7007E-4,-2.9520044E-4,1.473932E-5,7.33729E-4,-6.9481565E-4,1.6907296E-3,-1.1003979E-3],"categories":[],"categories_nodes":[],"categories_segments":[],"categories_sizes":[],"default_left":[0,0,0,0,0,0,0,0,0,0,0,0,0,0,0,0,0,0,0,0,0,0,0,0,0,0,0,0,0,0,0],"id":0,"left_children":[1,3,5,7,9,11,13,15,17,19,21,23,25,27,29,-1,-1,-1,-1,-1,-1,-1,-1,-1,-1,-1,-1,-1,-1,-1,-1],"loss_changes":[1.0256598E0,2.0282042E-1,3.561342E-1,2.6438415E-2,4.472363E-2,5.3204164E-2,6.0312092E-2,2.4029613E-2,1.4592722E-2,1.740852E-2,8.666724E-3,3.5491146E-2,1.5916346E-2,2.1201134E-2,7.094556E-2,0E0,0E0,0E0,0E0,0E0,0E0,0E0,0E0,0E0,0E0,0E0,0E0,0E0,0E0,0E0,0E0],"parents":[2147483647,0,0,1,1,2,2,3,3,4,4,5,5,6,6,7,7,8,8,9,9,10,10,11,11,12,12,13,13,14,14],"right_children":[2,4,6,8,10,12,14,16,18,20,22,24,26,28,30,-1,-1,-1,-1,-1,-1,-1,-1,-1,-1,-1,-1,-1,-1,-1,-1],"split_conditions":[-9.001675E-3,-4.2837903E-2,1.8892217E-2,-5.897282E-2,2E0,2E0,5.6512292E-2,7.543715E-2,1.1792096E0,-2.3015324E-2,3.253889E-2,6.819028E-3,1.3635809E-3,1.9010891E-1,1.3658499E0,-1.8190844E-3,-3.9410854E-5,-1.0639862E-3,2.2573127E-4,-4.931345E-4,-1.9234797E-4,-4.2660368E-4,-8.3147344E-4,1.0693681E-4,3.7007E-4,-2.9520044E-4,1.473932E-5,7.33729E-4,-6.9481565E-4,1.6907296E-3,-1.1003979E-3],"split_indices":[47,47,47,48,40,40,47,27,59,47,45,47,47,143,412,0,0,0,0,0,0,0,0,0,0,0,0,0,0,0,0],"split_type":[0,0,0,0,0,0,0,0,0,0,0,0,0,0,0,0,0,0,0,0,0,0,0,0,0,0,0,0,0,0,0],"sum_hessian":[2.566E3,7.32E2,1.834E3,1.61E2,5.71E2,1.342E3,4.92E2,6.1E1,1E2,3.95E2,1.76E2,1.02E3,3.22E2,4.4E2,5.2E1,5.7E1,4E0,9.7E1,3E0,1.5E2,2.45E2,4.9E1,1.27E2,6.22E2,3.98E2,1.26E2,1.96E2,4.38E2,2E0,5E1,2E0],"tree_param":{"num_deleted":"0","num_feature":"494","num_nodes":"31","size_leaf_vector":"1"}},{"base_weights":[2.015165E-3,-2.9533269E-2,1.4643884E-2,-6.054211E-2,-2.042963E-2,6.161211E-3,3.75453E-2,-7.8751594E-2,-4.683264E-2,-2.771455E-2,-1.3139338E-2,9.690124E-3,-4.99907E-3,3.3167586E-2,6.9572546E-2,-1.8190844E-3,-3.9410854E-5,-1.0639862E-3,2.2573127E-4,-4.5758032E-4,-8.547934E-4,-1.7455456E-4,-5.5186445E-4,1.0693681E-4,3.7007E-4,-2.9520044E-4,1.473932E-5,7.345064E-4,-7.520879E-4,1.6907296E-3,-1.1003979E-3],"categories":[],"categories_nodes":[],"categories_segments":[],"categories_sizes":[],"default_left":[0,0,0,0,0,0,0,0,0,0,0,0,0,0,0,0,0,0,0,0,0,0,0,0,0,0,0,0,0,0,0],"id":1,"left_children":[1,3,5,7,9,11,13,15,17,19,21,23,25,27,29,-1,-1,-1,-1,-1,-1,-1,-1,-1,-1,-1,-1,-1,-1,-1,-1],"loss_changes":[1.0256598E0,2.0282042E-1,3.561342E-1,2.6438415E-2,2.9081166E-2,5.3204164E-2,6.0312092E-2,2.4029613E-2,1.4592722E-2,1.866068E-2,1.7644916E-2,3.5491146E-2,1.5916346E-2,2.3320854E-2,7.094556E-2,0E0,0E0,0E0,0E0,0E0,0E0,0E0,0E0,0E0,0E0,0E0,0E0,0E0,0E0,0E0,0E0],"parents":[2147483647,0,0,1,1,2,2,3,3,4,4,5,5,6,6,7,7,8,8,9,9,10,10,11,11,12,12,13,13,14,14],"right_children":[2,4,6,8,10,12,14,16,18,20,22,24,26,28,30,-1,-1,-1,-1,-1,-1,-1,-1,-1,-1,-1,-1,-1,-1,-1,-1],"split_conditions":[-9.001675E-3,-4.2837903E-2,1.8892217E-2,-5.897282E-2,-1.9658176E-2,2E0,5.6512292E-2,7.543715E-2,7.125646E-1,2E0,2E0,6.819028E-3,1.3635809E-3,1.0117263E-1,1.3658499E0,-1.8190844E-3,-3.9410854E-5,-1.0639862E-3,2.2573127E-4,-4.5758032E-4,-8.547934E-4,-1.7455456E-4,-5.5186445E-4,1.0693681E-4,3.7007E-4,-2.9520044E-4,1.473932E-5,7.345064E-4,-7.520879E-4,1.6907296E-3,-1.1003979E-3],"split_indices":[47,47,47,47,47,40,47,27,60,40,40,48,47,0,412,0,0,0,0,0,0,0,0,0,0,0,0,0,0,0,0],"split_type":[0,0,0,0,0,0,0,0,0,0,0,0,0,0,0,0,0,0,0,0,0,0,0,0,0,0,0,0,0,0,0],"sum_hessian":[2.566E3,7.32E2,1.834E3,1.61E2,5.71E2,1.342E3,4.92E2,6.1E1,1E2,2.8E2,2.91E2,1.02E3,3.22E2,4.4E2,5.2E1,5.7E1,4E0,9.7E1,3E0,1.85E2,9.5E1,2.1E2,8.1E1,6.22E2,3.98E2,1.26E2,1.96E2,4.38E2,2E0,5E1,2E0],"tree_param":{"num_deleted":"0","num_feature":"494","num_nodes":"31","size_leaf_vector":"1"}},{"base_weights":[2.015165E-3,-2.9533269E-2,1.4643884E-2,-6.054211E-2,-2.042963E-2,6.161211E-3,3.75453E-2,-7.8751594E-2,-4.683264E-2,-1.4276988E-2,-3.3613995E-2,9.690124E-3,-4.99907E-3,2.8376378E-2,4.9695037E-2,-1.8190844E-3,-3.9410854E-5,-1.0639862E-3,2.2573127E-4,-4.931345E-4,-1.9234797E-4,-4.2660368E-4,-8.3147344E-4,1.0693681E-4,3.7007E-4,-2.9520044E-4,1.473932E-5,6.266281E-4,-1.381739E-4,1.1308632E-3,-1.3749715E-3],"categories":[],"categories_nodes":[],"categories_segments":[],"categories_sizes":[],"default_left":[0,0,0,0,0,0,0,0,0,0,0,0,0,0,0,0,0,0,0,0,0,0,0,0,0,0,0,0,0,0,0],"id":2,"left_children":[1,3,5,7,9,11,13,15,17,19,21,23,25,27,29,-1,-1,-1,-1,-1,-1,-1,-1,-1,-1,-1,-1,-1,-1,-1,-1],"loss_changes":[1.0256598E0,2.0282042E-1,3.561342E-1,2.6438415E-2,4.472363E-2,5.3204164E-2,4.9613714E-2,2.4029613E-2,1.4592722E-2,1.740852E-2,8.666724E-3,3.5491146E-2,1.5916346E-2,5.281642E-3,6.777257E-2,0E0,0E0,0E0,0E0,0E0,0E0,0E0,0E0,0E0,0E0,0E0,0E0,0E0,0E0,0E0,0E0],"parents":[2147483647,0,0,1,1,2,2,3,3,4,4,5,5,6,6,7,7,8,8,9,9,10,10,11,11,12,12,13,13,14,14],"right_children":[2,4,6,8,10,12,14,16,18,20,22,24,26,28,30,-1,-1,-1,-1,-1,-1,-1,-1,-1,-1,-1,-1,-1,-1,-1,-1],"split_conditions":[-9.001675E-3,-4.2837903E-2,1.8892217E-2,-5.897282E-2,2E0,2E0,4.7187872E-2,7.543715E-2,1.1792096E0,-2.3015324E-2,3.253889E-2,6.819028E-3,1.3635809E-3,6.428766E-2,2.1687264E0,-1.8190844E-3,-3.9410854E-5,-1.0639862E-3,2.2573127E-4,-4.931345E-4,-1.9234797E-4,-4.2660368E-4,-8.3147344E-4,1.0693681E-4,3.7007E-4,-2.9520044E-4,1.473932E-5,6.266281E-4,-1.381739E-4,1.1308632E-3,-1.3749715E-3],"split_indices":[48,47,47,48,40,40,46,27,59,47,45,47,48,0,436,0,0,0,0,0,0,0,0,0,0,0,0,0,0,0,0],"split_type":[0,0,0,0,0,0,0,0,0,0,0,0,0,0,0,0,0,0,0,0,0,0,0,0,0,0,0,0,0,0,0],"sum_hessian":[2.566E3,7.32E2,1.834E3,1.61E2,5.71E2,1.342E3,4.92E2,6.1E1,1E2,3.95E2,1.76E2,1.02E3,3.22E2,2.88E2,2.04E2,5.7E1,4E0,9.7E1,3E0,1.5E2,2.45E2,4.9E1,1.27E2,6.22E2,3.98E2,1.26E2,1.96E2,2.85E2,3E0,2.02E2,2E0],"tree_param":{"num_deleted":"0","num_feature":"494","num_nodes":"31","size_leaf_vector":"1"}},{"base_weights":[2.015165E-3,-2.9533269E-2,1.4643884E-2,-6.054211E-2,-2.042963E-2,6.161211E-3,3.75453E-2,-7.8751594E-2,-4.683264E-2,-1.4276988E-2,-3.3613995E-2,9.690124E-3,-4.99907E-3,2.8376378E-2,4.9695037E-2,-1.8190844E-3,-3.9410854E-5,-1.0639862E-3,2.2573127E-4,-4.931345E-4,-1.9234797E-4,-4.2660368E-4,-8.3147344E-4,1.0693681E-4,3.7007E-4,-2.9520044E-4,1.473932E-5,6.958086E-4,3.9191407E-4,1.1308632E-3,-1.3749715E-3],"categories":[],"categories_nodes":[],"categories_segments":[],"categories_sizes":[],"default_left":[0,0,0,0,0,0,0,0,0,0,0,0,0,0,0,0,0,0,0,0,0,0,0,0,0,0,0,0,0,0,0],"id":3,"left_children":[1,3,5,7,9,11,13,15,17,19,21,23,25,27,29,-1,-1,-1,-1,-1,-1,-1,-1,-1,-1,-1,-1,-1,-1,-1,-1],"loss_changes":[1.0256598E0,2.0282042E-1,3.561342E-1,2.6438415E-2,4.472363E-2,5.3204164E-2,4.9613714E-2,2.4029613E-2,1.4592722E-2,1.740852E-2,8.666724E-3,3.5491146E-2,1.5916346E-2,8.6631775E-3,6.777257E-2,0E0,0E0,0E0,0E0,0E0,0E0,0E0,0E0,0E0,0E0,0E0,0E0,0E0,0E0,0E0,0E0],"parents":[2147483647,0,0,1,1,2,2,3,3,4,4,5,5,6,6,7,7,8,8,9,9,10,10,11,11,12,12,13,13,14,14],"right_children":[2,4,6,8,10,12,14,16,18,20,22,24,26,28,30,-1,-1,-1,-1,-1,-1,-1,-1,-1,-1,-1,-1,-1,-1,-1,-1],"split_conditions":[-9.001675E-3,-4.2837903E-2,1.8892217E-2,-5.897282E-2,2E0,2E0,4.7187872E-2,7.543715E-2,1.1792096E0,-2.3015324E-2,3.253889E-2,6.819028E-3,1.3635809E-3,2E0,2.1687264E0,-1.8190844E-3,-3.9410854E-5,-1.0639862E-3,2.2573127E-4,-4.931345E-4,-1.9234797E-4,-4.2660368E-4,-8.3147344E-4,1.0693681E-4,3.7007E-4,-2.9520044E-4,1.473932E-5,6.958086E-4,3.9191407E-4,1.1308632E-3,-1.3749715E-3],"split_indices":[47,48,47,47,40,40,45,27,59,48,45,47,47,40,436,0,0,0,0,0,0,0,0,0,0,0,0,0,0,0,0],"split_type":[0,0,0,0,0,0,0,0,0,0,0,0,0,0,0,0,0,0,0,0,0,0,0,0,0,0,0,0,0,0,0],"sum_hessian":[2.566E3,7.32E2,1.834E3,1.61E2,5.71E2,1.342E3,4.92E2,6.1E1,1E2,3.95E2,1.76E2,1.02E3,3.22E2,2.88E2,2.04E2,5.7E1,4E0,9.7E1,3E0,1.5E2,2.45E2,4.9E1,1.27E2,6.22E2,3.98E2,1.26E2,1.96E2,2.07E2,8.1E1,2.02E2,2E0],"tree_param":{"num_deleted":"0","num_feature":"494","num_nodes":"31","size_leaf_vector":"1"}},{"base_weights":[2.015165E-3,-2.9533269E-2,1.4643884E-2,-6.054211E-2,-2.042963E-2,6.161211E-3,3.75453E-2,-7.8751594E-2,-4.683264E-2,-1.4276988E-2,-3.3613995E-2,9.690124E-3,-4.99907E-3,3.3167586E-2,6.9572546E-2,-1.8190844E-3,-3.9410854E-5,-1.0639862E-3,2.2573127E-4,-4.7615066E-4,-2.0502972E-4,-4.2660368E-4,-8.3147344E-4,8.18972E-5,3.106281E-4,-2.9520044E-4,1.473932E-5,7.345064E-4,-7.520879E-4,1.6907296E-3,-1.1003979E-3],"categories":[],"categories_nodes":[],"categories_segments":[],"categories_sizes":[],"default_left":[0,0,0,0,0,0,0,0,0,0,0,0,0,0,0,0,0,0,0,0,0,0,0,0,0,0,0,0,0,0,0],"id":4,"left_children":[1,3,5,7,9,11,13,15,17,19,21,23,25,27,29,-1,-1,-1,-1,-1,-1,-1,-1,-1,-1,-1,-1,-1,-1,-1,-1],"loss_changes":[1.0256598E0,2.0282042E-1,3.561342E-1,2.6438415E-2,4.472363E-2,5.3204164E-2,6.0312092E-2,2.4029613E-2,1.4592722E-2,1.3917722E-2,8.666724E-3,2.7676217E-2,1.5916346E-2,2.3320854E-2,7.094556E-2,0E0,0E0,0E0,0E0,0E0,0E0,0E0,0E0,0E0,0E0,0E0,0E0,0E0,0E0,0E0,0E0],"parents":[2147483647,0,0,1,1,2,2,3,3,4,4,5,5,6,6,7,7,8,8,9,9,10,10,11,11,12,12,13,13,14,14],"right_children":[2,4,6,8,10,12,14,16,18,20,22,24,26,28,30,-1,-1,-1,-1,-1,-1,-1,-1,-1,-1,-1,-1,-1,-1,-1,-1],"split_conditions":[-9.001675E-3,-4.2837903E-2,1.8892217E-2,-5.897282E-2,2E0,2E0,5.6512292E-2,7.543715E-2,7.125646E-1,-9.9101037E-1,3.253889E-2,3.6570475E-2,1.3635809E-3,1.0117263E-1,1.3658499E0,-1.8190844E-3,-3.9410854E-5,-1.0639862E-3,2.2573127E-4,-4.7615066E-4,-2.0502972E-4,-4.2660368E-4,-8.3147344E-4,8.18972E-5,3.106281E-4,-2.9520044E-4,1.473932E-5,7.345064E-4,-7.520879E-4,1.6907296E-3,-1.1003979E-3],"split_indices":[47,47,47,47,40,40,47,27,60,52,45,77,47,0,416,0,0,0,0,0,0,0,0,0,0,0,0,0,0,0,0],"split_type":[0,0,0,0,0,0,0,0,0,0,0,0,0,0,0,0,0,0,0,0,0,0,0,0,0,0,0,0,0,0,0],"sum_hessian":[2.566E3,7.32E2,1.834E3,1.61E2,5.71E2,1.342E3,4.92E2,6.1E1,1E2,3.95E2,1.76E2,1.02E3,3.22E2,4.4E2,5.2E1,5.7E1,4E0,9.7E1,3E0,1.48E2,2.47E2,4.9E1,1.27E2,4.49E2,5.71E2,1.26E2,1.96E2,4.38E2,2E0,5E1,2E0],"tree_param":{"num_deleted":"0","num_feature":"494","num_nodes":"31","size_leaf_vector":"1"}},{"base_weights":[2.015165E-3,-2.9533269E-2,1.4643884E-2,-6.054211E-2,-2.042963E-2,6.161211E-3,3.75453E-2,-7.8751594E-2,-4.683264E-2,-2.771455E-2,-1.3139338E-2,9.690124E-3,-4.99907E-3,3.3167586E-2,6.9572546E-2,-1.7957578E-3,8.220808E-6,-1.0639862E-3,2.2573127E-4,-6.196793E-4,3.0037007E-4,-1.7455456E-4,-5.5186445E-4,1.0693681E-4,3.7007E-4,-2.9520044E-4,1.473932E-5,7.345064E-4,-7.520879E-4,1.6907296E-3,-1.1003979E-3],"categories":[],"categories_nodes":[],"categories_segments":[],"categories_sizes":[],"default_left":[0,0,0,0,0,0,0,0,0,0,0,0,0,0,0,0,0,0,0,0,0,0,0,0,0,0,0,0,0,0,0],"id":5,"left_children":[1,3,5,7,9,11,13,15,17,19,21,23,25,27,29,-1,-1,-1,-1,-1,-1,-1,-1,-1,-1,-1,-1,-1,-1,-1,-1],"loss_changes":[1.0256598E0,2.0282042E-1,3.561342E-1,2.6438415E-2,2.9081166E-2,5.3204164E-2,6.0312092E-2,1.9943923E-2,1.4592722E-2,1.090166E-2,1.7644916E-2,3.5491146E-2,1.5916346E-2,2.3320854E-2,7.094556E-2,0E0,0E0,0E0,0E0,0E0,0E0,0E0,0E0,0E0,0E0,0E0,0E0,0E0,0E0,0E0,0E0],"parents":[2147483647,0,0,1,1,2,2,3,3,4,4,5,5,6,6,7,7,8,8,9,9,10,10,11,11,12,12,13,13,14,14],"right_children":[2,4,6,8,10,12,14,16,18,20,22,24,26,28,30,-1,-1,-1,-1,-1,-1,-1,-1,-1,-1,-1,-1,-1,-1,-1,-1],"split_conditions":[-9.001675E-3,-4.2837903E-2,1.8892217E-2,-5.897282E-2,-1.9658176E-2,2E0,5.6512292E-2,9.2475556E-2,1.1792096E0,1.4672263E-1,2E0,6.819028E-3,1.3635809E-3,1.0117263E-1,1.3658499E0,-1.7957578E-3,8.220808E-6,-1.0639862E-3,2.2573127E-4,-6.196793E-4,3.0037007E-4,-1.7455456E-4,-5.5186445E-4,1.0693681E-4,3.7007E-4,-2.9520044E-4,1.473932E-5,7.345064E-4,-7.520879E-4,1.6907296E-3,-1.1003979E-3],"split_indices":[47,47,47,48,47,40,47,26,63,18,40,47,47,0,412,0,0,0,0,0,0,0,0,0,0,0,0,0,0,0,0],"split_type":[0,0,0,0,0,0,0,0,0,0,0,0,0,0,0,0,0,0,0,0,0,0,0,0,0,0,0,0,0,0,0],"sum_hessian":[2.566E3,7.32E2,1.834E3,1.61E2,5.71E2,1.342E3,4.92E2,6.1E1,1E2,2.8E2,2.91E2,1.02E3,3.22E2,4.4E2,5.2E1,5.8E1,3E0,9.7E1,3E0,2.76E2,4E0,2.1E2,8.1E1,6.22E2,3.98E2,1.26E2,1.96E2,4.38E2,2E0,5E1,2E0],"tree_param":{"num_deleted":"0","num_feature":"494","num_nodes":"31","size_leaf_vector":"1"}},{"base_weights":[2.015165E-3,-2.9533269E-2,1.4643884E-2,-6.054211E-2,-2.042963E-2,6.161211E-3,3.75453E-2,-7.8751594E-2,-4.683264E-2,-1.4276988E-2,-3.3613995E-2,1.2233639E-3,1.411938E-2,3.3167586E-2,6.9572546E-2,-1.8190844E-3,-3.9410854E-5,-1.0639862E-3,2.2573127E-4,-4.931345E-4,-1.9234797E-4,-4.2660368E-4,-8.3147344E-4,1.0693681E-4,-2.1002689E-4,3.7007E-4,7.955161E-5,7.345064E-4,-7.520879E-4,1.6907296E-3,-1.1003979E-3],"categories":[],"categories_nodes":[],"categories_segments":[],"categories_sizes":[],"default_left":[0,0,0,0,0,0,0,0,0,0,0,0,0,0,0,0,0,0,0,0,0,0,0,0,0,0,0,0,0,0,0],"id":6,"left_children":[1,3,5,7,9,11,13,15,17,19,21,23,25,27,29,-1,-1,-1,-1,-1,-1,-1,-1,-1,-1,-1,-1,-1,-1,-1,-1],"loss_changes":[1.0256598E0,2.0282042E-1,3.561342E-1,2.6438415E-2,4.472363E-2,5.2823626E-2,6.0312092E-2,2.4029613E-2,1.4592722E-2,1.740852E-2,8.666724E-3,3.3779256E-2,1.5393518E-2,2.3320854E-2,7.094556E-2,0E0,0E0,0E0,0E0,0E0,0E0,0E0,0E0,0E0,0E0,0E0,0E0,0E0,0E0,0E0,0E0],"parents":[2147483647,0,0,1,1,2,2,3,3,4,4,5,5,6,6,7,7,8,8,9,9,10,10,11,11,12,12,13,13,14,14],"right_children":[2,4,6,8,10,12,14,16,18,20,22,24,26,28,30,-1,-1,-1,-1,-1,-1,-1,-1,-1,-1,-1,-1,-1,-1,-1,-1],"split_conditions":[-9.001675E-3,-4.2837903E-2,1.8892217E-2,-5.897282E-2,2E0,6.819028E-3,5.6512292E-2,7.543715E-2,7.125646E-1,-2.3015324E-2,3.253889E-2,2E0,2E0,1.0117263E-1,1.3658499E0,-1.8190844E-3,-3.9410854E-5,-1.0639862E-3,2.2573127E-4,-4.931345E-4,-1.9234797E-4,-4.2660368E-4,-8.3147344E-4,1.0693681E-4,-2.1002689E-4,3.7007E-4,7.955161E-5,7.345064E-4,-7.520879E-4,1.6907296E-3,-1.1003979E-3],"split_indices":[47,48,47,47,40,47,47,27,60,48,45,40,40,0,412,0,0,0,0,0,0,0,0,0,0,0,0,0,0,0,0],"split_type":[0,0,0,0,0,0,0,0,0,0,0,0,0,0,0,0,0,0,0,0,0,0,0,0,0,0,0,0,0,0,0],"sum_hessian":[2.566E3,7.32E2,1.834E3,1.61E2,5.71E2,1.342E3,4.92E2,6.1E1,1E2,3.95E2,1.76E2,8.31E2,5.11E2,4.4E2,5.2E1,5.7E1,4E0,9.7E1,3E0,1.5E2,2.45E2,4.9E1,1.27E2,6.22E2,2.09E2,3.98E2,1.13E2,4.38E2,2E0,5E1,2E0],"tree_param":{"num_deleted":"0","num_feature":"494","num_nodes":"31","size_leaf_vector":"1"}},{"base_weights":[2.015165E-3,-2.9533269E-2,1.4643884E-2,-6.054211E-2,-2.042963E-2,6.161211E-3,3.75453E-2,-7.8751594E-2,-4.683264E-2,-1.4276988E-2,-3.3613995E-2,1.2233639E-3,1.411938E-2,3.3167586E-2,6.9572546E-2,-1.7957578E-3,8.220808E-6,-1.0639862E-3,2.2573127E-4,-4.931345E-4,-1.9234797E-4,-4.2660368E-4,-8.3147344E-4,1.0693681E-4,-2.1002689E-4,3.7007E-4,7.955161E-5,7.345064E-4,-7.520879E-4,1.6907296E-3,-1.1003979E-3],"categories":[],"categories_nodes":[],"categories_segments":[],"categories_sizes":[],"default_left":[0,0,0,0,0,0,0,0,0,0,0,0,0,0,0,0,0,0,0,0,0,0,0,0,0,0,0,0,0,0,0],"id":7,"left_children":[1,3,5,7,9,11,13,15,17,19,21,23,25,27,29,-1,-1,-1,-1,-1,-1,-1,-1,-1,-1,-1,-1,-1,-1,-1,-1],"loss_changes":[1.0256598E0,2.0282042E-1,3.561342E-1,2.6438415E-2,4.472363E-2,5.2823626E-2,6.0312092E-2,1.9943923E-2,1.4592722E-2,1.740852E-2,8.666724E-3,3.3779256E-2,1.5393518E-2,2.3320854E-2,7.094556E-2,0E0,0E0,0E0,0E0,0E0,0E0,0E0,0E0,0E0,0E0,0E0,0E0,0E0,0E0,0E0,0E0],"parents":[2147483647,0,0,1,1,2,2,3,3,4,4,5,5,6,6,7,7,8,8,9,9,10,10,11,11,12,12,13,13,14,14],"right_children":[2,4,6,8,10,12,14,16,18,20,22,24,26,28,30,-1,-1,-1,-1,-1,-1,-1,-1,-1,-1,-1,-1,-1,-1,-1,-1],"split_conditions":[-9.001675E-3,-4.2837903E-2,1.8892217E-2,-5.897282E-2,2E0,6.819028E-3,5.6512292E-2,9.2475556E-2,1.1792096E0,-2.3015324E-2,3.253889E-2,2E0,2E0,1.0117263E-1,1.3658499E0,-1.7957578E-3,8.220808E-6,-1.0639862E-3,2.2573127E-4,-4.931345E-4,-1.9234797E-4,-4.2660368E-4,-8.3147344E-4,1.0693681E-4,-2.1002689E-4,3.7007E-4,7.955161E-5,7.345064E-4,-7.520879E-4,1.6907296E-3,-1.1003979E-3],"split_indices":[47,47,48,47,40,47,47,26,59,47,45,40,40,0,412,0,0,0,0,0,0,0,0,0,0,0,0,0,0,0,0],"split_type":[0,0,0,0,0,0,0,0,0,0,0,0,0,0,0,0,0,0,0,0,0,0,0,0,0,0,0,0,0,0,0],"sum_hessian":[2.566E3,7.32E2,1.834E3,1.61E2,5.71E2,1.342E3,4.92E2,6.1E1,1E2,3.95E2,1.76E2,8.31E2,5.11E2,4.4E2,5.2E1,5.8E1,3E0,9.7E1,3E0,1.5E2,2.45E2,4.9E1,1.27E2,6.22E2,2.09E2,3.98E2,1.13E2,4.38E2,2E0,5E1,2E0],"tree_param":{"num_deleted":"0","num_feature":"494","num_nodes":"31","size_leaf_vector":"1"}},{"base_weights":[2.015165E-3,-2.9533269E-2,1.4643884E-2,-6.054211E-2,-2.042963E-2,6.161211E-3,3.75453E-2,-7.8751594E-2,-4.683264E-2,-1.4276988E-2,-3.3613995E-2,9.690124E-3,-4.99907E-3,3.3167586E-2,6.9572546E-2,-1.7957578E-3,8.220808E-6,-1.0639862E-3,2.2573127E-4,-4.931345E-4,-1.9234797E-4,-4.2660368E-4,-8.3147344E-4,1.0693681E-4,3.7007E-4,-2.9520044E-4,1.473932E-5,7.33729E-4,-6.9481565E-4,1.6907296E-3,-1.1003979E-3],"categories":[],"categories_nodes":[],"categories_segments":[],"categories_sizes":[],"default_left":[0,0,0,0,0,0,0,0,0,0,0,0,0,0,0,0,0,0,0,0,0,0,0,0,0,0,0,0,0,0,0],"id":8,"left_children":[1,3,5,7,9,11,13,15,17,19,21,23,25,27,29,-1,-1,-1,-1,-1,-1,-1,-1,-1,-1,-1,-1,-1,-1,-1,-1],"loss_changes":[1.0256598E0,2.0282042E-1,3.561342E-1,2.6438415E-2,4.472363E-2,5.3204164E-2,6.0312092E-2,1.9943923E-2,1.4592722E-2,1.740852E-2,8.666724E-3,3.5491146E-2,1.5916346E-2,2.1201134E-2,7.094556E-2,0E0,0E0,0E0,0E0,0E0,0E0,0E0,0E0,0E0,0E0,0E0,0E0,0E0,0E0,0E0,0E0],"parents":[2147483647,0,0,1,1,2,2,3,3,4,4,5,5,6,6,7,7,8,8,9,9,10,10,11,11,12,12,13,13,14,14],"right_children":[2,4,6,8,10,12,14,16,18,20,22,24,26,28,30,-1,-1,-1,-1,-1,-1,-1,-1,-1,-1,-1,-1,-1,-1,-1,-1],"split_conditions":[-9.001675E-3,-4.2837903E-2,1.8892217E-2,-5.897282E-2,2E0,2E0,5.6512292E-2,9.2475556E-2,7.811634E-1,-2.3015324E-2,3.253889E-2,6.819028E-3,1.3635809E-3,1.9010891E-1,1.3658499E0,-1.7957578E-3,8.220808E-6,-1.0639862E-3,2.2573127E-4,-4.931345E-4,-1.9234797E-4,-4.2660368E-4,-8.3147344E-4,1.0693681E-4,3.7007E-4,-2.9520044E-4,1.473932E-5,7.33729E-4,-6.9481565E-4,1.6907296E-3,-1.1003979E-3],"split_indices":[47,47,47,47,40,40,47,26,61,47,45,47,48,143,412,0,0,0,0,0,0,0,0,0,0,0,0,0,0,0,0],"split_type":[0,0,0,0,0,0,0,0,0,0,0,0,0,0,0,0,0,0,0,0,0,0,0,0,0,0,0,0,0,0,0],"sum_hessian":[2.566E3,7.32E2,1.834E3,1.61E2,5.71E2,1.342E3,4.92E2,6.1E1,1E2,3.95E2,1.76E2,1.02E3,3.22E2,4.4E2,5.2E1,5.8E1,3E0,9.7E1,3E0,1.5E2,2.45E2,4.9E1,1.27E2,6.22E2,3.98E2,1.26E2,1.96E2,4.38E2,2E0,5E1,2E0],"tree_param":{"num_deleted":"0","num_feature":"494","num_nodes":"31","size_leaf_vector":"1"}},{"base_weights":[2.015165E-3,-2.9533269E-2,1.4643884E-2,-6.054211E-2,-2.042963E-2,6.161211E-3,3.75453E-2,-7.8751594E-2,-4.683264E-2,-2.771455E-2,-1.3139338E-2,9.690124E-3,-4.99907E-3,3.3167586E-2,6.9572546E-2,-1.7957578E-3,8.220808E-6,-1.0639862E-3,2.2573127E-4,-4.5758032E-4,-8.547934E-4,-1.7455456E-4,-5.5186445E-4,1.0693681E-4,3.7007E-4,-2.9520044E-4,1.473932E-5,7.345064E-4,-7.520879E-4,1.6907296E-3,-1.1003979E-3],"categories":[],"categories_nodes":[],"categories_segments":[],"categories_sizes":[],"default_left":[0,0,0,0,0,0,0,0,0,0,0,0,0,0,0,0,0,0,0,0,0,0,0,0,0,0,0,0,0,0,0],"id":9,"left_children":[1,3,5,7,9,11,13,15,17,19,21,23,25,27,29,-1,-1,-1,-1,-1,-1,-1,-1,-1,-1,-1,-1,-1,-1,-1,-1],"loss_changes":[1.0256598E0,2.0282042E-1,3.561342E-1,2.6438415E-2,2.9081166E-2,5.3204164E-2,6.0312092E-2,1.9943923E-2,1.4592722E-2,1.866068E-2,1.7644916E-2,3.5491146E-2,1.5916346E-2,2.3320854E-2,7.094556E-2,0E0,0E0,0E0,0E0,0E0,0E0,0E0,0E0,0E0,0E0,0E0,0E0,0E0,0E0,0E0,0E0],"parents":[2147483647,0,0,1,1,2,2,3,3,4,4,5,5,6,6,7,7,8,8,9,9,10,10,11,11,12,12,13,13,14,14],"right_children":[2,4,6,8,10,12,14,16,18,20,22,24,26,28,30,-1,-1,-1,-1,-1,-1,-1,-1,-1,-1,-1,-1,-1,-1,-1,-1],"split_conditions":[-9.001675E-3,-4.2837903E-2,1.8892217E-2,-5.897282E-2,-1.9658176E-2,2E0,5.6512292E-2,9.2475556E-2,1.1792096E0,2E0,2E0,6.819028E-3,1.3635809E-3,1.0117263E-1,1.3658499E0,-1.7957578E-3,8.220808E-6,-1.0639862E-3,2.2573127E-4,-4.5758032E-4,-8.547934E-4,-1.7455456E-4,-5.5186445E-4,1.0693681E-4,3.7007E-4,-2.9520044E-4,1.473932E-5,7.345064E-4,-7.520879E-4,1.6907296E-3,-1.1003979E-3],"split_indices":[48,47,48,47,47,40,47,26,59,40,40,47,48,0,412,0,0,0,0,0,0,0,0,0,0,0,0,0,0,0,0],"split_type":[0,0,0,0,0,0,0,0,0,0,0,0,0,0,0,0,0,0,0,0,0,0,0,0,0,0,0,0,0,0,0],"sum_hessian":[2.566E3,7.32E2,1.834E3,1.61E2,5.71E2,1.342E3,4.92E2,6.1E1,1E2,2.8E2,2.91E2,1.02E3,3.22E2,4.4E2,5.2E1,5.8E1,3E0,9.7E1,3E0,1.85E2,9.5E1,2.1E2,8.1E1,6.22E2,3.98E2,1.26E2,1.96E2,4.38E2,2E0,5E1,2E0],"tree_param":{"num_deleted":"0","num_feature":"494","num_nodes":"31","size_leaf_vector":"1"}},{"base_weights":[2.015165E-3,-2.9533269E-2,1.4643884E-2,-6.054211E-2,-2.042963E-2,6.161211E-3,3.75453E-2,-4.939951E-2,-8.358558E-2,-1.4276988E-2,-3.3613995E-2,9.690124E-3,-4.99907E-3,3.3167586E-2,6.9572546E-2,-1.1036558E-3,-2.1312322E-4,-1.956591E-3,4.6390685E-4,-4.931345E-4,-1.9234797E-4,-4.2660368E-4,-8.3147344E-4,1.0693681E-4,3.7007E-4,-2.9520044E-4,1.473932E-5,7.345064E-4,-7.520879E-4,1.6907296E-3,-1.1003979E-3],"categories":[],"categories_nodes":[],"categories_segments":[],"categories_sizes":[],"default_left":[0,0,0,0,0,0,0,0,0,0,0,0,0,0,0,0,0,0,0,0,0,0,0,0,0,0,0,0,0,0,0],"id":10,"left_children":[1,3,5,7,9,11,13,15,17,19,21,23,25,27,29,-1,-1,-1,-1,-1,-1,-1,-1,-1,-1,-1,-1,-1,-1,-1,-1],"loss_changes":[1.0256598E0,2.0282042E-1,3.561342E-1,2.584976E-2,4.472363E-2,5.3204164E-2,6.0312092E-2,4.5665205E-3,4.0004253E-2,1.740852E-2,8.666724E-3,3.5491146E-2,1.5916346E-2,2.3320854E-2,7.094556E-2,0E0,0E0,0E0,0E0,0E0,0E0,0E0,0E0,0E0,0E0,0E0,0E0,0E0,0E0,0E0,0E0],"parents":[2147483647,0,0,1,1,2,2,3,3,4,4,5,5,6,6,7,7,8,8,9,9,10,10,11,11,12,12,13,13,14,14],"right_children":[2,4,6,8,10,12,14,16,18,20,22,24,26,28,30,-1,-1,-1,-1,-1,-1,-1,-1,-1,-1,-1,-1,-1,-1,-1,-1],"split_conditions":[-9.001675E-3,-4.2837903E-2,1.8892217E-2,1.0155921E-1,2E0,2E0,5.6512292E-2,-8.381351E-1,2.1018991E0,-2.3015324E-2,3.253889E-2,6.819028E-3,1.3635809E-3,1.0117263E-1,1.3658499E0,-1.1036558E-3,-2.1312322E-4,-1.956591E-3,4.6390685E-4,-4.931345E-4,-1.9234797E-4,-4.2660368E-4,-8.3147344E-4,1.0693681E-4,3.7007E-4,-2.9520044E-4,1.473932E-5,7.345064E-4,-7.520879E-4,1.6907296E-3,-1.1003979E-3],"split_indices":[47,47,48,45,40,40,47,76,422,47,45,48,48,0,412,0,0,0,0,0,0,0,0,0,0,0,0,0,0,0,0],"split_type":[0,0,0,0,0,0,0,0,0,0,0,0,0,0,0,0,0,0,0,0,0,0,0,0,0,0,0,0,0,0,0],"sum_hessian":[2.566E3,7.32E2,1.834E3,1.61E2,5.71E2,1.342E3,4.92E2,1.17E2,4.4E1,3.95E2,1.76E2,1.02E3,3.22E2,4.4E2,5.2E1,1.12E2,5E0,4.2E1,2E0,1.5E2,2.45E2,4.9E1,1.27E2,6.22E2,3.98E2,1.26E2,1.96E2,4.38E2,2E0,5E1,2E0],"tree_param":{"num_deleted":"0","num_feature":"494","num_nodes":"31","size_leaf_vector":"1"}},{"base_weights":[2.015165E-3,-2.9533269E-2,1.4643884E-2,-6.054211E-2,-2.042963E-2,6.161211E-3,3.75453E-2,-7.8751594E-2,-4.683264E-2,-1.4276988E-2,-3.3613995E-2,9.690124E-3,-4.99907E-3,3.3167586E-2,6.9572546E-2,-1.7957578E-3,8.220808E-6,-1.0639862E-3,2.2573127E-4,-4.931345E-4,-1.9234797E-4,-4.2660368E-4,-8.3147344E-4,1.0693681E-4,3.7007E-4,-2.9520044E-4,1.473932E-5,7.345064E-4,-7.520879E-4,1.6907296E-3,-1.1003979E-3],"categories":[],"categories_nodes":[],"categories_segments":[],"categories_sizes":[],"default_left":[0,0,0,0,0,0,0,0,0,0,0,0,0,0,0,0,0,0,0,0,0,0,0,0,0,0,0,0,0,0,0],"id":11,"left_children":[1,3,5,7,9,11,13,15,17,19,21,23,25,27,29,-1,-1,-1,-1,-1,-1,-1,-1,-1,-1,-1,-1,-1,-1,-1,-1],"loss_changes":[1.0256598E0,2.0282042E-1,3.561342E-1,2.6438415E-2,4.472363E-2,5.3204164E-2,6.0312092E-2,1.9943923E-2,1.4592722E-2,1.740852E-2,8.666724E-3,3.5491146E-2,1.5916346E-2,2.3320854E-2,7.094556E-2,0E0,0E0,0E0,0E0,0E0,0E0,0E0,0E0,0E0,0E0,0E0,0E0,0E0,0E0,0E0,0E0],"parents":[2147483647,0,0,1,1,2,2,3,3,4,4,5,5,6,6,7,7,8,8,9,9,10,10,11,11,12,12,13,13,14,14],"right_children":[2,4,6,8,10,12,14,16,18,20,22,24,26,28,30,-1,-1,-1,-1,-1,-1,-1,-1,-1,-1,-1,-1,-1,-1,-1,-1],"split_conditions":[-9.001675E-3,-4.2837903E-2,1.8892217E-2,-5.897282E-2,2E0,2E0,5.6512292E-2,9.2475556E-2,7.125646E-1,-2.3015324E-2,3.253889E-2,6.819028E-3,1.3635809E-3,1.0117263E-1,1.3658499E0,-1.7957578E-3,8.220808E-6,-1.0639862E-3,2.2573127E-4,-4.931345E-4,-1.9234797E-4,-4.2660368E-4,-8.3147344E-4,1.0693681E-4,3.7007E-4,-2.9520044E-4,1.473932E-5,7.345064E-4,-7.520879E-4,1.6907296E-3,-1.1003979E-3],"split_indices":[47,47,47,48,40,40,47,26,60,47,45,47,47,0,412,0,0,0,0,0,0,0,0,0,0,0,0,0,0,0,0],"split_type":[0,0,0,0,0,0,0,0,0,0,0,0,0,0,0,0,0,0,0,0,0,0,0,0,0,0,0,0,0,0,0],"sum_hessian":[2.566E3,7.32E2,1.834E3,1.61E2,5.71E2,1.342E3,4.92E2,6.1E1,1E2,3.95E2,1.76E2,1.02E3,3.22E2,4.4E2,5.2E1,5.8E1,3E0,9.7E1,3E0,1.5E2,2.45E2,4.9E1,1.27E2,6.22E2,3.98E2,1.26E2,1.96E2,4.38E2,2E0,5E1,2E0],"tree_param":{"num_deleted":"0","num_feature":"494","num_nodes":"31","size_leaf_vector":"1"}},{"base_weights":[2.015165E-3,-2.9533269E-2,1.4643884E-2,-6.054211E-2,-2.042963E-2,6.161211E-3,3.75453E-2,-7.8751594E-2,-4.683264E-2,-2.771455E-2,-1.3139338E-2,9.690124E-3,-4.99907E-3,3.3167586E-2,6.9572546E-2,-1.8190844E-3,-3.9410854E-5,-1.0639862E-3,2.2573127E-4,-4.5758032E-4,-8.547934E-4,-1.7455456E-4,-5.5186445E-4,1.0693681E-4,3.7007E-4,-2.9520044E-4,1.473932E-5,7.33729E-4,-6.9481565E-4,1.6907296E-3,-1.1003979E-3],"categories":[],"categories_nodes":[],"categories_segments":[],"categories_sizes":[],"default_left":[0,0,0,0,0,0,0,0,0,0,0,0,0,0,0,0,0,0,0,0,0,0,0,0,0,0,0,0,0,0,0],"id":12,"left_children":[1,3,5,7,9,11,13,15,17,19,21,23,25,27,29,-1,-1,-1,-1,-1,-1,-1,-1,-1,-1,-1,-1,-1,-1,-1,-1],"loss_changes":[1.0256598E0,2.0282042E-1,3.561342E-1,2.6438415E-2,2.9081166E-2,5.3204164E-2,6.0312092E-2,2.4029613E-2,1.4592722E-2,1.866068E-2,1.7644916E-2,3.5491146E-2,1.5916346E-2,2.1201134E-2,7.094556E-2,0E0,0E0,0E0,0E0,0E0,0E0,0E0,0E0,0E0,0E0,0E0,0E0,0E0,0E0,0E0,0E0],"parents":[2147483647,0,0,1,1,2,2,3,3,4,4,5,5,6,6,7,7,8,8,9,9,10,10,11,11,12,12,13,13,14,14],"right_children":[2,4,6,8,10,12,14,16,18,20,22,24,26,28,30,-1,-1,-1,-1,-1,-1,-1,-1,-1,-1,-1,-1,-1,-1,-1,-1],"split_conditions":[-9.001675E-3,-4.2837903E-2,1.8892217E-2,-5.897282E-2,-1.9658176E-2,2E0,5.6512292E-2,7.543715E-2,1.1792096E0,2E0,2E0,6.819028E-3,1.3635809E-3,1.9010891E-1,1.3658499E0,-1.8190844E-3,-3.9410854E-5,-1.0639862E-3,2.2573127E-4,-4.5758032E-4,-8.547934E-4,-1.7455456E-4,-5.5186445E-4,1.0693681E-4,3.7007E-4,-2.9520044E-4,1.473932E-5,7.33729E-4,-6.9481565E-4,1.6907296E-3,-1.1003979E-3],"split_indices":[48,48,47,48,47,40,48,27,59,40,40,47,47,143,412,0,0,0,0,0,0,0,0,0,0,0,0,0,0,0,0],"split_type":[0,0,0,0,0,0,0,0,0,0,0,0,0,0,0,0,0,0,0,0,0,0,0,0,0,0,0,0,0,0,0],"sum_hessian":[2.566E3,7.32E2,1.834E3,1.61E2,5.71E2,1.342E3,4.92E2,6.1E1,1E2,2.8E2,2.91E2,1.02E3,3.22E2,4.4E2,5.2E1,5.7E1,4E0,9.7E1,3E0,1.85E2,9.5E1,2.1E2,8.1E1,6.22E2,3.98E2,1.26E2,1.96E2,4.38E2,2E0,5E1,2E0],"tree_param":{"num_deleted":"0","num_feature":"494","num_nodes":"31","size_leaf_vector":"1"}},{"base_weights":[2.015165E-3,-2.9533269E-2,1.4643884E-2,-6.054211E-2,-2.042963E-2,6.161211E-3,3.75453E-2,-7.8751594E-2,-4.683264E-2,-1.4276988E-2,-3.3613995E-2,9.690124E-3,-4.99907E-3,3.3167586E-2,6.9572546E-2,-1.7957578E-3,8.220808E-6,-1.0639862E-3,2.2573127E-4,-4.931345E-4,-1.9234797E-4,-4.2660368E-4,-8.3147344E-4,1.0693681E-4,3.7007E-4,-2.9520044E-4,1.473932E-5,7.345064E-4,-7.520879E-4,1.6907296E-3,-1.1003979E-3],"categories":[],"categories_nodes":[],"categories_segments":[],"categories_sizes":[],"default_left":[0,0,0,0,0,0,0,0,0,0,0,0,0,0,0,0,0,0,0,0,0,0,0,0,0,0,0,0,0,0,0],"id":13,"left_children":[1,3,5,7,9,11,13,15,17,19,21,23,25,27,29,-1,-1,-1,-1,-1,-1,-1,-1,-1,-1,-1,-1,-1,-1,-1,-1],"loss_changes":[1.0256598E0,2.0282042E-1,3.561342E-1,2.6438415E-2,4.472363E-2,5.3204164E-2,6.0312092E-2,1.9943923E-2,1.4592722E-2,1.740852E-2,8.666724E-3,3.5491146E-2,1.5916346E-2,2.3320854E-2,7.094556E-2,0E0,0E0,0E0,0E0,0E0,0E0,0E0,0E0,0E0,0E0,0E0,0E0,0E0,0E0,0E0,0E0],"parents":[2147483647,0,0,1,1,2,2,3,3,4,4,5,5,6,6,7,7,8,8,9,9,10,10,11,11,12,12,13,13,14,14],"right_children":[2,4,6,8,10,12,14,16,18,20,22,24,26,28,30,-1,-1,-1,-1,-1,-1,-1,-1,-1,-1,-1,-1,-1,-1,-1,-1],"split_conditions":[-9.001675E-3,-4.2837903E-2,1.8892217E-2,-5.897282E-2,2E0,2E0,5.6512292E-2,9.2475556E-2,1.1792096E0,-2.3015324E-2,3.253889E-2,6.819028E-3,1.3635809E-3,1.0117263E-1,1.3658499E0,-1.7957578E-3,8.220808E-6,-1.0639862E-3,2.2573127E-4,-4.931345E-4,-1.9234797E-4,-4.2660368E-4,-8.3147344E-4,1.0693681E-4,3.7007E-4,-2.9520044E-4,1.473932E-5,7.345064E-4,-7.520879E-4,1.6907296E-3,-1.1003979E-3],"split_indices":[47,47,48,47,40,40,47,26,59,47,45,47,48,0,412,0,0,0,0,0,0,0,0,0,0,0,0,0,0,0,0],"split_type":[0,0,0,0,0,0,0,0,0,0,0,0,0,0,0,0,0,0,0,0,0,0,0,0,0,0,0,0,0,0,0],"sum_hessian":[2.566E3,7.32E2,1.834E3,1.61E2,5.71E2,1.342E3,4.92E2,6.1E1,1E2,3.95E2,1.76E2,1.02E3,3.22E2,4.4E2,5.2E1,5.8E1,3E0,9.7E1,3E0,1.5E2,2.45E2,4.9E1,1.27E2,6.22E2,3.98E2,1.26E2,1.96E2,4.38E2,2E0,5E1,2E0],"tree_param":{"num_deleted":"0","num_feature":"494","num_nodes":"31","size_leaf_vector":"1"}},{"base_weights":[2.015165E-3,-2.2781838E-2,1.690686E-2,-6.054211E-2,-1.4928952E-2,9.888853E-3,4.438394E-2,-7.8751594E-2,-4.683264E-2,-2.7568966E-2,-7.2820093E-3,2.135997E-3,1.6678521E-2,4.5829188E-2,-1.3749715E-3,-1.8190844E-3,-3.9410854E-5,-1.0639862E-3,2.2573127E-4,2.631111E-4,-6.114984E-4,-7.3008276E-5,-4.0341733E-4,3.1466323E-5,6.693243E-4,4.340903E-4,1.2852837E-4,8.5420423E-4,1.6290752E-3],"categories":[],"categories_nodes":[],"categories_segments":[],"categories_sizes":[],"default_left":[0,0,0,0,0,0,0,0,0,0,0,0,0,0,0,0,0,0,0,0,0,0,0,0,0,0,0,0,0],"id":14,"left_children":[1,3,5,7,9,11,13,15,17,19,21,23,25,27,-1,-1,-1,-1,-1,-1,-1,-1,-1,-1,-1,-1,-1,-1,-1],"loss_changes":[9.505629E-1,2.8282988E-1,3.0832192E-1,2.6438415E-2,7.700622E-2,6.755164E-2,6.230575E-2,2.4029613E-2,1.4592722E-2,8.070692E-3,2.2180215E-2,1.1757695E-2,2.3788348E-2,4.986137E-2,0E0,0E0,0E0,0E0,0E0,0E0,0E0,0E0,0E0,0E0,0E0,0E0,0E0,0E0,0E0],"parents":[2147483647,0,0,1,1,2,2,3,3,4,4,5,5,6,6,7,7,8,8,9,9,10,10,11,11,12,12,13,13],"right_children":[2,4,6,8,10,12,14,16,18,20,22,24,26,28,-1,-1,-1,-1,-1,-1,-1,-1,-1,-1,-1,-1,-1,-1,-1],"split_conditions":[-2.690934E-1,-4.2837903E-2,2.6362533E-2,-5.897282E-2,-1.8603884E-2,6.819028E-3,2.9175656E0,7.543715E-2,1.1792096E0,-8.002014E-2,2E0,7.585689E-2,2E0,5.6512292E-2,-1.3749715E-3,-1.8190844E-3,-3.9410854E-5,-1.0639862E-3,2.2573127E-4,2.631111E-4,-6.114984E-4,-7.3008276E-5,-4.0341733E-4,3.1466323E-5,6.693243E-4,4.340903E-4,1.2852837E-4,8.5420423E-4,1.6290752E-3],"split_indices":[78,48,47,47,47,47,438,27,59,141,40,46,40,48,0,0,0,0,0,0,0,0,0,0,0,0,0,0,0],"split_type":[0,0,0,0,0,0,0,0,0,0,0,0,0,0,0,0,0,0,0,0,0,0,0,0,0,0,0,0,0],"sum_hessian":[2.566E3,9.62E2,1.604E3,1.61E2,8.01E2,1.282E3,3.22E2,6.1E1,1E2,2.98E2,5.03E2,6.01E2,6.81E2,3.2E2,2E0,5.7E1,4E0,9.7E1,3E0,3E0,2.95E2,3.77E2,1.26E2,5.91E2,1E1,5.19E2,1.62E2,2.69E2,5.1E1],"tree_param":{"num_deleted":"0","num_feature":"494","num_nodes":"29","size_leaf_vector":"1"}},{"base_weights":[2.015165E-3,-2.9533269E-2,1.4643884E-2,-6.054211E-2,-2.042963E-2,6.161211E-3,3.75453E-2,-7.8751594E-2,-4.683264E-2,-1.4276988E-2,-3.3613995E-2,9.690124E-3,-4.99907E-3,3.3167586E-2,6.9572546E-2,-1.8190844E-3,-3.9410854E-5,-1.0639862E-3,2.2573127E-4,-4.931345E-4,-1.9234797E-4,-4.2660368E-4,-8.3147344E-4,1.0693681E-4,3.7007E-4,-2.9520044E-4,1.473932E-5,7.345064E-4,-7.520879E-4,1.6907296E-3,-1.1003979E-3],"categories":[],"categories_nodes":[],"categories_segments":[],"categories_sizes":[],"default_left":[0,0,0,0,0,0,0,0,0,0,0,0,0,0,0,0,0,0,0,0,0,0,0,0,0,0,0,0,0,0,0],"id":15,"left_children":[1,3,5,7,9,11,13,15,17,19,21,23,25,27,29,-1,-1,-1,-1,-1,-1,-1,-1,-1,-1,-1,-1,-1,-1,-1,-1],"loss_changes":[1.0256598E0,2.0282042E-1,3.561342E-1,2.6438415E-2,4.472363E-2,5.3204164E-2,6.0312092E-2,2.4029613E-2,1.4592722E-2,1.740852E-2,8.666724E-3,3.5491146E-2,1.5916346E-2,2.3320854E-2,7.094556E-2,0E0,0E0,0E0,0E0,0E0,0E0,0E0,0E0,0E0,0E0,0E0,0E0,0E0,0E0,0E0,0E0],"parents":[2147483647,0,0,1,1,2,2,3,3,4,4,5,5,6,6,7,7,8,8,9,9,10,10,11,11,12,12,13,13,14,14],"right_children":[2,4,6,8,10,12,14,16,18,20,22,24,26,28,30,-1,-1,-1,-1,-1,-1,-1,-1,-1,-1,-1,-1,-1,-1,-1,-1],"split_conditions":[-9.001675E-3,-4.2837903E-2,1.8892217E-2,-5.897282E-2,2E0,2E0,5.6512292E-2,7.543715E-2,7.125646E-1,-2.3015324E-2,3.253889E-2,6.819028E-3,1.3635809E-3,1.0117263E-1,1.3658499E0,-1.8190844E-3,-3.9410854E-5,-1.0639862E-3,2.2573127E-4,-4.931345E-4,-1.9234797E-4,-4.2660368E-4,-8.3147344E-4,1.0693681E-4,3.7007E-4,-2.9520044E-4,1.473932E-5,7.345064E-4,-7.520879E-4,1.6907296E-3,-1.1003979E-3],"split_indices":[47,47,47,47,40,40,47,27,60,48,45,47,48,0,412,0,0,0,0,0,0,0,0,0,0,0,0,0,0,0,0],"split_type":[0,0,0,0,0,0,0,0,0,0,0,0,0,0,0,0,0,0,0,0,0,0,0,0,0,0,0,0,0,0,0],"sum_hessian":[2.566E3,7.32E2,1.834E3,1.61E2,5.71E2,1.342E3,4.92E2,6.1E1,1E2,3.95E2,1.76E2,1.02E3,3.22E2,4.4E2,5.2E1,5.7E1,4E0,9.7E1,3E0,1.5E2,2.45E2,4.9E1,1.27E2,6.22E2,3.98E2,1.26E2,1.96E2,4.38E2,2E0,5E1,2E0],"tree_param":{"num_deleted":"0","num_feature":"494","num_nodes":"31","size_leaf_vector":"1"}},{"base_weights":[2.015165E-3,-2.9533269E-2,1.4643884E-2,-6.054211E-2,-2.042963E-2,6.161211E-3,3.75453E-2,-7.8751594E-2,-4.683264E-2,-1.4276988E-2,-3.3613995E-2,9.690124E-3,-4.99907E-3,3.3167586E-2,6.9572546E-2,-1.8190844E-3,-3.9410854E-5,-1.0639862E-3,2.2573127E-4,-4.931345E-4,-1.9234797E-4,-4.2660368E-4,-8.3147344E-4,1.0693681E-4,3.7007E-4,-2.9520044E-4,1.473932E-5,7.345064E-4,-7.520879E-4,1.6907296E-3,-1.1003979E-3],"categories":[],"categories_nodes":[],"categories_segments":[],"categories_sizes":[],"default_left":[0,0,0,0,0,0,0,0,0,0,0,0,0,0,0,0,0,0,0,0,0,0,0,0,0,0,0,0,0,0,0],"id":16,"left_children":[1,3,5,7,9,11,13,15,17,19,21,23,25,27,29,-1,-1,-1,-1,-1,-1,-1,-1,-1,-1,-1,-1,-1,-1,-1,-1],"loss_changes":[1.0256598E0,2.0282042E-1,3.561342E-1,2.6438415E-2,4.472363E-2,5.3204164E-2,6.0312092E-2,2.4029613E-2,1.4592722E-2,1.740852E-2,8.666724E-3,3.5491146E-2,1.5916346E-2,2.3320854E-2,7.094556E-2,0E0,0E0,0E0,0E0,0E0,0E0,0E0,0E0,0E0,0E0,0E0,0E0,0E0,0E0,0E0,0E0],"parents":[2147483647,0,0,1,1,2,2,3,3,4,4,5,5,6,6,7,7,8,8,9,9,10,10,11,11,12,12,13,13,14,14],"right_children":[2,4,6,8,10,12,14,16,18,20,22,24,26,28,30,-1,-1,-1,-1,-1,-1,-1,-1,-1,-1,-1,-1,-1,-1,-1,-1],"split_conditions":[-9.001675E-3,-4.2837903E-2,1.8892217E-2,-5.897282E-2,2E0,2E0,5.6512292E-2,7.543715E-2,1.1792096E0,-2.3015324E-2,3.253889E-2,6.819028E-3,1.3635809E-3,1.0117263E-1,1.3658499E0,-1.8190844E-3,-3.9410854E-5,-1.0639862E-3,2.2573127E-4,-4.931345E-4,-1.9234797E-4,-4.2660368E-4,-8.3147344E-4,1.0693681E-4,3.7007E-4,-2.9520044E-4,1.473932E-5,7.345064E-4,-7.520879E-4,1.6907296E-3,-1.1003979E-3],"split_indices":[47,47,48,47,40,40,47,27,59,47,45,47,48,0,412,0,0,0,0,0,0,0,0,0,0,0,0,0,0,0,0],"split_type":[0,0,0,0,0,0,0,0,0,0,0,0,0,0,0,0,0,0,0,0,0,0,0,0,0,0,0,0,0,0,0],"sum_hessian":[2.566E3,7.32E2,1.834E3,1.61E2,5.71E2,1.342E3,4.92E2,6.1E1,1E2,3.95E2,1.76E2,1.02E3,3.22E2,4.4E2,5.2E1,5.7E1,4E0,9.7E1,3E0,1.5E2,2.45E2,4.9E1,1.27E2,6.22E2,3.98E2,1.26E2,1.96E2,4.38E2,2E0,5E1,2E0],"tree_param":{"num_deleted":"0","num_feature":"494","num_nodes":"31","size_leaf_vector":"1"}},{"base_weights":[2.015165E-3,-2.9533269E-2,1.4643884E-2,-6.054211E-2,-2.042963E-2,6.161211E-3,3.75453E-2,-7.8751594E-2,-4.683264E-2,-2.771455E-2,-1.3139338E-2,9.690124E-3,-4.99907E-3,3.3167586E-2,6.9572546E-2,-1.7957578E-3,8.220808E-6,-1.0639862E-3,2.2573127E-4,-4.5758032E-4,-8.547934E-4,-1.7455456E-4,-5.5186445E-4,1.0693681E-4,3.7007E-4,-2.9520044E-4,1.473932E-5,7.33729E-4,-6.9481565E-4,1.6907296E-3,-1.1003979E-3],"categories":[],"categories_nodes":[],"categories_segments":[],"categories_sizes":[],"default_left":[0,0,0,0,0,0,0,0,0,0,0,0,0,0,0,0,0,0,0,0,0,0,0,0,0,0,0,0,0,0,0],"id":17,"left_children":[1,3,5,7,9,11,13,15,17,19,21,23,25,27,29,-1,-1,-1,-1,-1,-1,-1,-1,-1,-1,-1,-1,-1,-1,-1,-1],"loss_changes":[1.0256598E0,2.0282042E-1,3.561342E-1,2.6438415E-2,2.9081166E-2,5.3204164E-2,6.0312092E-2,1.9943923E-2,1.4592722E-2,1.866068E-2,1.7644916E-2,3.5491146E-2,1.5916346E-2,2.1201134E-2,7.094556E-2,0E0,0E0,0E0,0E0,0E0,0E0,0E0,0E0,0E0,0E0,0E0,0E0,0E0,0E0,0E0,0E0],"parents":[2147483647,0,0,1,1,2,2,3,3,4,4,5,5,6,6,7,7,8,8,9,9,10,10,11,11,12,12,13,13,14,14],"right_children":[2,4,6,8,10,12,14,16,18,20,22,24,26,28,30,-1,-1,-1,-1,-1,-1,-1,-1,-1,-1,-1,-1,-1,-1,-1,-1],"split_conditions":[-9.001675E-3,-4.2837903E-2,1.8892217E-2,-5.897282E-2,-1.9658176E-2,2E0,5.6512292E-2,9.2475556E-2,7.125646E-1,2E0,2E0,6.819028E-3,1.3635809E-3,1.9010891E-1,1.3658499E0,-1.7957578E-3,8.220808E-6,-1.0639862E-3,2.2573127E-4,-4.5758032E-4,-8.547934E-4,-1.7455456E-4,-5.5186445E-4,1.0693681E-4,3.7007E-4,-2.9520044E-4,1.473932E-5,7.33729E-4,-6.9481565E-4,1.6907296E-3,-1.1003979E-3],"split_indices":[47,47,47,47,47,40,47,26,60,40,40,48,47,143,412,0,0,0,0,0,0,0,0,0,0,0,0,0,0,0,0],"split_type":[0,0,0,0,0,0,0,0,0,0,0,0,0,0,0,0,0,0,0,0,0,0,0,0,0,0,0,0,0,0,0],"sum_hessian":[2.566E3,7.32E2,1.834E3,1.61E2,5.71E2,1.342E3,4.92E2,6.1E1,1E2,2.8E2,2.91E2,1.02E3,3.22E2,4.4E2,5.2E1,5.8E1,3E0,9.7E1,3E0,1.85E2,9.5E1,2.1E2,8.1E1,6.22E2,3.98E2,1.26E2,1.96E2,4.38E2,2E0,5E1,2E0],"tree_param":{"num_deleted":"0","num_feature":"494","num_nodes":"31","size_leaf_vector":"1"}},{"base_weights":[2.015165E-3,-2.9533269E-2,1.4643884E-2,-6.054211E-2,-2.042963E-2,3.200344E-3,2.7728263E-2,-7.8751594E-2,-4.683264E-2,-1.4276988E-2,-3.3613995E-2,6.96515E-3,-8.47367E-3,1.9598681E-2,4.891211E-2,-1.8190844E-3,-3.9410854E-5,-1.0639862E-3,2.2573127E-4,-4.931345E-4,-1.9234797E-4,-4.2660368E-4,-8.3147344E-4,1.2464165E-4,6.982326E-4,-2.9520044E-4,-5.3472573E-5,3.1775693E-4,5.766115E-4,1.1078409E-3,-1.3749715E-3],"categories":[],"categories_nodes":[],"categories_segments":[],"categories_sizes":[],"default_left":[0,0,0,0,0,0,0,0,0,0,0,0,0,0,0,0,0,0,0,0,0,0,0,0,0,0,0,0,0,0,0],"id":18,"left_children":[1,3,5,7,9,11,13,15,17,19,21,23,25,27,29,-1,-1,-1,-1,-1,-1,-1,-1,-1,-1,-1,-1,-1,-1,-1,-1],"loss_changes":[1.0256598E0,2.0282042E-1,2.748517E-1,2.6438415E-2,4.472363E-2,4.3527223E-2,1.4375454E-1,2.4029613E-2,1.4592722E-2,1.740852E-2,8.666724E-3,2.240542E-2,7.296866E-3,2.0047233E-2,6.688845E-2,0E0,0E0,0E0,0E0,0E0,0E0,0E0,0E0,0E0,0E0,0E0,0E0,0E0,0E0,0E0,0E0],"parents":[2147483647,0,0,1,1,2,2,3,3,4,4,5,5,6,6,7,7,8,8,9,9,10,10,11,11,12,12,13,13,14,14],"right_children":[2,4,6,8,10,12,14,16,18,20,22,24,26,28,30,-1,-1,-1,-1,-1,-1,-1,-1,-1,-1,-1,-1,-1,-1,-1,-1],"split_conditions":[-9.001675E-3,-4.2837903E-2,4.001402E-1,-5.897282E-2,2E0,2E0,3.092374E-2,7.543715E-2,1.1792096E0,-2.3015324E-2,3.253889E-2,2.576E1,1.3635809E-3,1.8892217E-2,2.1687264E0,-1.8190844E-3,-3.9410854E-5,-1.0639862E-3,2.2573127E-4,-4.931345E-4,-1.9234797E-4,-4.2660368E-4,-8.3147344E-4,1.2464165E-4,6.982326E-4,-2.9520044E-4,-5.3472573E-5,3.1775693E-4,5.766115E-4,1.1078409E-3,-1.3749715E-3],"split_indices":[47,47,78,47,40,40,47,27,59,47,45,191,47,47,436,0,0,0,0,0,0,0,0,0,0,0,0,0,0,0,0],"split_type":[0,0,0,0,0,0,0,0,0,0,0,0,0,0,0,0,0,0,0,0,0,0,0,0,0,0,0,0,0,0,0],"sum_hessian":[2.566E3,7.32E2,1.834E3,1.61E2,5.71E2,9.81E2,8.53E2,6.1E1,1E2,3.95E2,1.76E2,7.43E2,2.38E2,6.22E2,2.31E2,5.7E1,4E0,9.7E1,3E0,1.5E2,2.45E2,4.9E1,1.27E2,7.13E2,3E1,1.26E2,1.12E2,3.69E2,2.53E2,2.29E2,2E0],"tree_param":{"num_deleted":"0","num_feature":"494","num_nodes":"31","size_leaf_vector":"1"}},{"base_weights":[2.015165E-3,-2.9533269E-2,1.4643884E-2,-6.054211E-2,-2.042963E-2,6.161211E-3,3.75453E-2,-7.8751594E-2,-4.683264E-2,-1.4276988E-2,-3.3613995E-2,9.690124E-3,-4.99907E-3,3.3167586E-2,6.9572546E-2,-1.8190844E-3,-3.9410854E-5,-1.0639862E-3,2.2573127E-4,-4.931345E-4,-1.9234797E-4,-4.2660368E-4,-8.3147344E-4,1.0693681E-4,3.7007E-4,-2.9520044E-4,1.473932E-5,7.345064E-4,-7.520879E-4,1.6907296E-3,-1.1003979E-3],"categories":[],"categories_nodes":[],"categories_segments":[],"categories_sizes":[],"default_left":[0,0,0,0,0,0,0,0,0,0,0,0,0,0,0,0,0,0,0,0,0,0,0,0,0,0,0,0,0,0,0],"id":19,"left_children":[1,3,5,7,9,11,13,15,17,19,21,23,25,27,29,-1,-1,-1,-1,-1,-1,-1,-1,-1,-1,-1,-1,-1,-1,-1,-1],"loss_changes":[1.0256598E0,2.0282042E-1,3.561342E-1,2.6438415E-2,4.472363E-2,5.3204164E-2,6.0312092E-2,2.4029613E-2,1.4592722E-2,1.740852E-2,8.666724E-3,3.5491146E-2,1.5916346E-2,2.3320854E-2,7.094556E-2,0E0,0E0,0E0,0E0,0E0,0E0,0E0,0E0,0E0,0E0,0E0,0E0,0E0,0E0,0E0,0E0],"parents":[2147483647,0,0,1,1,2,2,3,3,4,4,5,5,6,6,7,7,8,8,9,9,10,10,11,11,12,12,13,13,14,14],"right_children":[2,4,6,8,10,12,14,16,18,20,22,24,26,28,30,-1,-1,-1,-1,-1,-1,-1,-1,-1,-1,-1,-1,-1,-1,-1,-1],"split_conditions":[-9.001675E-3,-4.2837903E-2,1.8892217E-2,-5.897282E-2,2E0,2E0,5.6512292E-2,7.543715E-2,1.1792096E0,-2.3015324E-2,3.253889E-2,6.819028E-3,1.3635809E-3,1.0117263E-1,1.6679374E0,-1.8190844E-3,-3.9410854E-5,-1.0639862E-3,2.2573127E-4,-4.931345E-4,-1.9234797E-4,-4.2660368E-4,-8.3147344E-4,1.0693681E-4,3.7007E-4,-2.9520044E-4,1.473932E-5,7.345064E-4,-7.520879E-4,1.6907296E-3,-1.1003979E-3],"split_indices":[47,48,47,47,40,40,47,27,59,47,45,48,47,0,413,0,0,0,0,0,0,0,0,0,0,0,0,0,0,0,0],"split_type":[0,0,0,0,0,0,0,0,0,0,0,0,0,0,0,0,0,0,0,0,0,0,0,0,0,0,0,0,0,0,0],"sum_hessian":[2.566E3,7.32E2,1.834E3,1.61E2,5.71E2,1.342E3,4.92E2,6.1E1,1E2,3.95E2,1.76E2,1.02E3,3.22E2,4.4E2,5.2E1,5.7E1,4E0,9.7E1,3E0,1.5E2,2.45E2,4.9E1,1.27E2,6.22E2,3.98E2,1.26E2,1.96E2,4.38E2,2E0,5E1,2E0],"tree_param":{"num_deleted":"0","num_feature":"494","num_nodes":"31","size_leaf_vector":"1"}},{"base_weights":[2.015165E-3,-2.9533269E-2,1.4643884E-2,-6.054211E-2,-2.042963E-2,6.161211E-3,3.75453E-2,-7.8751594E-2,-4.683264E-2,-1.4276988E-2,-3.3613995E-2,9.690124E-3,-4.99907E-3,3.3167586E-2,6.9572546E-2,-1.8190844E-3,-3.9410854E-5,-1.0639862E-3,2.2573127E-4,-4.931345E-4,-1.9234797E-4,-4.2660368E-4,-8.3147344E-4,1.0693681E-4,3.7007E-4,-2.9520044E-4,1.473932E-5,7.33729E-4,-6.9481565E-4,1.6907296E-3,-1.1003979E-3],"categories":[],"categories_nodes":[],"categories_segments":[],"categories_sizes":[],"default_left":[0,0,0,0,0,0,0,0,0,0,0,0,0,0,0,0,0,0,0,0,0,0,0,0,0,0,0,0,0,0,0],"id":20,"left_children":[1,3,5,7,9,11,13,15,17,19,21,23,25,27,29,-1,-1,-1,-1,-1,-1,-1,-1,-1,-1,-1,-1,-1,-1,-1,-1],"loss_changes":[1.0256598E0,2.0282042E-1,3.561342E-1,2.6438415E-2,4.472363E-2,5.3204164E-2,6.0312092E-2,2.4029613E-2,1.4592722E-2,1.740852E-2,8.666724E-3,3.5491146E-2,1.5916346E-2,2.1201134E-2,7.094556E-2,0E0,0E0,0E0,0E0,0E0,0E0,0E0,0E0,0E0,0E0,0E0,0E0,0E0,0E0,0E0,0E0],"parents":[2147483647,0,0,1,1,2,2,3,3,4,4,5,5,6,6,7,7,8,8,9,9,10,10,11,11,12,12,13,13,14,14],"right_children":[2,4,6,8,10,12,14,16,18,20,22,24,26,28,30,-1,-1,-1,-1,-1,-1,-1,-1,-1,-1,-1,-1,-1,-1,-1,-1],"split_conditions":[-9.001675E-3,-4.2837903E-2,1.8892217E-2,-5.897282E-2,2E0,2E0,5.6512292E-2,7.543715E-2,1.1792096E0,-2.3015324E-2,3.253889E-2,6.819028E-3,1.3635809E-3,1.9010891E-1,1.3658499E0,-1.8190844E-3,-3.9410854E-5,-1.0639862E-3,2.2573127E-4,-4.931345E-4,-1.9234797E-4,-4.2660368E-4,-8.3147344E-4,1.0693681E-4,3.7007E-4,-2.9520044E-4,1.473932E-5,7.33729E-4,-6.9481565E-4,1.6907296E-3,-1.1003979E-3],"split_indices":[47,47,47,47,40,40,48,27,59,47,45,47,47,144,412,0,0,0,0,0,0,0,0,0,0,0,0,0,0,0,0],"split_type":[0,0,0,0,0,0,0,0,0,0,0,0,0,0,0,0,0,0,0,0,0,0,0,0,0,0,0,0,0,0,0],"sum_hessian":[2.566E3,7.32E2,1.834E3,1.61E2,5.71E2,1.342E3,4.92E2,6.1E1,1E2,3.95E2,1.76E2,1.02E3,3.22E2,4.4E2,5.2E1,5.7E1,4E0,9.7E1,3E0,1.5E2,2.45E2,4.9E1,1.27E2,6.22E2,3.98E2,1.26E2,1.96E2,4.38E2,2E0,5E1,2E0],"tree_param":{"num_deleted":"0","num_feature":"494","num_nodes":"31","size_leaf_vector":"1"}},{"base_weights":[2.015165E-3,-2.9533269E-2,1.4643884E-2,-6.054211E-2,-2.042963E-2,6.161211E-3,3.75453E-2,-7.8751594E-2,-4.683264E-2,-2.771455E-2,-1.3139338E-2,9.690124E-3,-4.99907E-3,3.3167586E-2,6.9572546E-2,-1.8190844E-3,-3.9410854E-5,-1.0639862E-3,2.2573127E-4,-4.5758032E-4,-8.547934E-4,-1.7455456E-4,-5.5186445E-4,1.0693681E-4,3.7007E-4,-2.9520044E-4,1.473932E-5,7.33729E-4,-6.9481565E-4,1.6907296E-3,-1.1003979E-3],"categories":[],"categories_nodes":[],"categories_segments":[],"categories_sizes":[],"default_left":[0,0,0,0,0,0,0,0,0,0,0,0,0,0,0,0,0,0,0,0,0,0,0,0,0,0,0,0,0,0,0],"id":21,"left_children":[1,3,5,7,9,11,13,15,17,19,21,23,25,27,29,-1,-1,-1,-1,-1,-1,-1,-1,-1,-1,-1,-1,-1,-1,-1,-1],"loss_changes":[1.0256598E0,2.0282042E-1,3.561342E-1,2.6438415E-2,2.9081166E-2,5.3204164E-2,6.0312092E-2,2.4029613E-2,1.4592722E-2,1.866068E-2,1.7644916E-2,3.5491146E-2,1.5916346E-2,2.1201134E-2,7.094556E-2,0E0,0E0,0E0,0E0,0E0,0E0,0E0,0E0,0E0,0E0,0E0,0E0,0E0,0E0,0E0,0E0],"parents":[2147483647,0,0,1,1,2,2,3,3,4,4,5,5,6,6,7,7,8,8,9,9,10,10,11,11,12,12,13,13,14,14],"right_children":[2,4,6,8,10,12,14,16,18,20,22,24,26,28,30,-1,-1,-1,-1,-1,-1,-1,-1,-1,-1,-1,-1,-1,-1,-1,-1],"split_conditions":[-9.001675E-3,-4.2837903E-2,1.8892217E-2,-5.897282E-2,-1.9658176E-2,2E0,5.6512292E-2,7.543715E-2,1.1792096E0,2E0,2E0,6.819028E-3,1.3635809E-3,1.9010891E-1,1.3658499E0,-1.8190844E-3,-3.9410854E-5,-1.0639862E-3,2.2573127E-4,-4.5758032E-4,-8.547934E-4,-1.7455456E-4,-5.5186445E-4,1.0693681E-4,3.7007E-4,-2.9520044E-4,1.473932E-5,7.33729E-4,-6.9481565E-4,1.6907296E-3,-1.1003979E-3],"split_indices":[47,47,47,47,47,40,48,27,59,40,40,47,47,143,412,0,0,0,0,0,0,0,0,0,0,0,0,0,0,0,0],"split_type":[0,0,0,0,0,0,0,0,0,0,0,0,0,0,0,0,0,0,0,0,0,0,0,0,0,0,0,0,0,0,0],"sum_hessian":[2.566E3,7.32E2,1.834E3,1.61E2,5.71E2,1.342E3,4.92E2,6.1E1,1E2,2.8E2,2.91E2,1.02E3,3.22E2,4.4E2,5.2E1,5.7E1,4E0,9.7E1,3E0,1.85E2,9.5E1,2.1E2,8.1E1,6.22E2,3.98E2,1.26E2,1.96E2,4.38E2,2E0,5E1,2E0],"tree_param":{"num_deleted":"0","num_feature":"494","num_nodes":"31","size_leaf_vector":"1"}},{"base_weights":[2.015165E-3,-2.9533269E-2,1.4643884E-2,-6.054211E-2,-2.042963E-2,6.161211E-3,3.75453E-2,-7.8751594E-2,-4.683264E-2,-2.771455E-2,-1.3139338E-2,1.2233639E-3,1.411938E-2,3.3167586E-2,6.9572546E-2,-1.8190844E-3,-3.9410854E-5,-1.0639862E-3,2.2573127E-4,-4.5758032E-4,-8.547934E-4,-5.617843E-4,-2.4826237E-4,1.0693681E-4,-2.1002689E-4,3.7007E-4,7.955161E-5,7.345064E-4,-7.520879E-4,1.6907296E-3,-1.1003979E-3],"categories":[],"categories_nodes":[],"categories_segments":[],"categories_sizes":[],"default_left":[0,0,0,0,0,0,0,0,0,0,0,0,0,0,0,0,0,0,0,0,0,0,0,0,0,0,0,0,0,0,0],"id":22,"left_children":[1,3,5,7,9,11,13,15,17,19,21,23,25,27,29,-1,-1,-1,-1,-1,-1,-1,-1,-1,-1,-1,-1,-1,-1,-1,-1],"loss_changes":[1.0256598E0,2.0282042E-1,3.561342E-1,2.6438415E-2,2.9081166E-2,5.2823626E-2,6.0312092E-2,2.4029613E-2,1.4592722E-2,1.866068E-2,5.2621625E-3,3.3779256E-2,1.5393518E-2,2.3320854E-2,7.094556E-2,0E0,0E0,0E0,0E0,0E0,0E0,0E0,0E0,0E0,0E0,0E0,0E0,0E0,0E0,0E0,0E0],"parents":[2147483647,0,0,1,1,2,2,3,3,4,4,5,5,6,6,7,7,8,8,9,9,10,10,11,11,12,12,13,13,14,14],"right_children":[2,4,6,8,10,12,14,16,18,20,22,24,26,28,30,-1,-1,-1,-1,-1,-1,-1,-1,-1,-1,-1,-1,-1,-1,-1,-1],"split_conditions":[-9.001675E-3,-4.2837903E-2,1.8892217E-2,-5.897282E-2,-1.9658176E-2,6.819028E-3,5.6512292E-2,7.543715E-2,1.1792096E0,2E0,-3.2388505E-2,2E0,2E0,1.0117263E-1,1.3658499E0,-1.8190844E-3,-3.9410854E-5,-1.0639862E-3,2.2573127E-4,-4.5758032E-4,-8.547934E-4,-5.617843E-4,-2.4826237E-4,1.0693681E-4,-2.1002689E-4,3.7007E-4,7.955161E-5,7.345064E-4,-7.520879E-4,1.6907296E-3,-1.1003979E-3],"split_indices":[47,47,47,47,48,47,47,27,59,40,198,40,40,0,412,0,0,0,0,0,0,0,0,0,0,0,0,0,0,0,0],"split_type":[0,0,0,0,0,0,0,0,0,0,0,0,0,0,0,0,0,0,0,0,0,0,0,0,0,0,0,0,0,0,0],"sum_hessian":[2.566E3,7.32E2,1.834E3,1.61E2,5.71E2,1.342E3,4.92E2,6.1E1,1E2,2.8E2,2.91E2,8.31E2,5.11E2,4.4E2,5.2E1,5.7E1,4E0,9.7E1,3E0,1.85E2,9.5E1,2.8E1,2.63E2,6.22E2,2.09E2,3.98E2,1.13E2,4.38E2,2E0,5E1,2E0],"tree_param":{"num_deleted":"0","num_feature":"494","num_nodes":"31","size_leaf_vector":"1"}},{"base_weights":[2.015165E-3,-2.9533269E-2,1.4643884E-2,-6.054211E-2,-2.042963E-2,6.161211E-3,3.75453E-2,-7.8751594E-2,-4.683264E-2,-1.4276988E-2,-3.3613995E-2,9.690124E-3,-4.99907E-3,3.3167586E-2,6.9572546E-2,-1.8190844E-3,-3.9410854E-5,-1.0639862E-3,2.2573127E-4,-4.931345E-4,-1.9234797E-4,-4.2660368E-4,-8.3147344E-4,1.0693681E-4,3.7007E-4,-2.9520044E-4,1.473932E-5,7.345064E-4,-7.520879E-4,1.6907296E-3,-1.1003979E-3],"categories":[],"categories_nodes":[],"categories_segments":[],"categories_sizes":[],"default_left":[0,0,0,0,0,0,0,0,0,0,0,0,0,0,0,0,0,0,0,0,0,0,0,0,0,0,0,0,0,0,0],"id":23,"left_children":[1,3,5,7,9,11,13,15,17,19,21,23,25,27,29,-1,-1,-1,-1,-1,-1,-1,-1,-1,-1,-1,-1,-1,-1,-1,-1],"loss_changes":[1.0256598E0,2.0282042E-1,3.561342E-1,2.6438415E-2,4.472363E-2,5.3204164E-2,6.0312092E-2,2.4029613E-2,1.4592722E-2,1.740852E-2,8.666724E-3,3.5491146E-2,1.5916346E-2,2.3320854E-2,7.094556E-2,0E0,0E0,0E0,0E0,0E0,0E0,0E0,0E0,0E0,0E0,0E0,0E0,0E0,0E0,0E0,0E0],"parents":[2147483647,0,0,1,1,2,2,3,3,4,4,5,5,6,6,7,7,8,8,9,9,10,10,11,11,12,12,13,13,14,14],"right_children":[2,4,6,8,10,12,14,16,18,20,22,24,26,28,30,-1,-1,-1,-1,-1,-1,-1,-1,-1,-1,-1,-1,-1,-1,-1,-1],"split_conditions":[-9.001675E-3,-4.2837903E-2,1.8892217E-2,-5.897282E-2,2E0,2E0,5.6512292E-2,7.543715E-2,1.1792096E0,-2.3015324E-2,3.253889E-2,6.819028E-3,1.3635809E-3,1.0117263E-1,1.6679374E0,-1.8190844E-3,-3.9410854E-5,-1.0639862E-3,2.2573127E-4,-4.931345E-4,-1.9234797E-4,-4.2660368E-4,-8.3147344E-4,1.0693681E-4,3.7007E-4,-2.9520044E-4,1.473932E-5,7.345064E-4,-7.520879E-4,1.6907296E-3,-1.1003979E-3],"split_indices":[48,47,47,47,40,40,48,27,59,47,45,47,47,0,413,0,0,0,0,0,0,0,0,0,0,0,0,0,0,0,0],"split_type":[0,0,0,0,0,0,0,0,0,0,0,0,0,0,0,0,0,0,0,0,0,0,0,0,0,0,0,0,0,0,0],"sum_hessian":[2.566E3,7.32E2,1.834E3,1.61E2,5.71E2,1.342E3,4.92E2,6.1E1,1E2,3.95E2,1.76E2,1.02E3,3.22E2,4.4E2,5.2E1,5.7E1,4E0,9.7E1,3E0,1.5E2,2.45E2,4.9E1,1.27E2,6.22E2,3.98E2,1.26E2,1.96E2,4.38E2,2E0,5E1,2E0],"tree_param":{"num_deleted":"0","num_feature":"494","num_nodes":"31","size_leaf_vector":"1"}},{"base_weights":[2.015165E-3,-2.9533269E-2,1.4643884E-2,-6.054211E-2,-2.042963E-2,6.161211E-3,3.75453E-2,-7.8751594E-2,-4.683264E-2,-1.4276988E-2,-3.3613995E-2,9.690124E-3,-4.99907E-3,3.3167586E-2,6.9572546E-2,-1.8190844E-3,-3.9410854E-5,-1.0639862E-3,2.2573127E-4,-4.931345E-4,-1.9234797E-4,-4.2660368E-4,-8.3147344E-4,1.0693681E-4,3.7007E-4,-2.9520044E-4,1.473932E-5,7.345064E-4,-7.520879E-4,1.6907296E-3,-1.1003979E-3],"categories":[],"categories_nodes":[],"categories_segments":[],"categories_sizes":[],"default_left":[0,0,0,0,0,0,0,0,0,0,0,0,0,0,0,0,0,0,0,0,0,0,0,0,0,0,0,0,0,0,0],"id":24,"left_children":[1,3,5,7,9,11,13,15,17,19,21,23,25,27,29,-1,-1,-1,-1,-1,-1,-1,-1,-1,-1,-1,-1,-1,-1,-1,-1],"loss_changes":[1.0256598E0,2.0282042E-1,3.561342E-1,2.6438415E-2,4.472363E-2,5.3204164E-2,6.0312092E-2,2.4029613E-2,1.4592722E-2,1.740852E-2,8.666724E-3,3.5491146E-2,1.5916346E-2,2.3320854E-2,7.094556E-2,0E0,0E0,0E0,0E0,0E0,0E0,0E0,0E0,0E0,0E0,0E0,0E0,0E0,0E0,0E0,0E0],"parents":[2147483647,0,0,1,1,2,2,3,3,4,4,5,5,6,6,7,7,8,8,9,9,10,10,11,11,12,12,13,13,14,14],"right_children":[2,4,6,8,10,12,14,16,18,20,22,24,26,28,30,-1,-1,-1,-1,-1,-1,-1,-1,-1,-1,-1,-1,-1,-1,-1,-1],"split_conditions":[-9.001675E-3,-4.2837903E-2,1.8892217E-2,-5.897282E-2,2E0,2E0,5.6512292E-2,7.543715E-2,7.125646E-1,-2.3015324E-2,3.253889E-2,6.819028E-3,1.3635809E-3,1.0117263E-1,1.3658499E0,-1.8190844E-3,-3.9410854E-5,-1.0639862E-3,2.2573127E-4,-4.931345E-4,-1.9234797E-4,-4.2660368E-4,-8.3147344E-4,1.0693681E-4,3.7007E-4,-2.9520044E-4,1.473932E-5,7.345064E-4,-7.520879E-4,1.6907296E-3,-1.1003979E-3],"split_indices":[47,47,47,47,40,40,47,27,60,48,45,48,48,0,412,0,0,0,0,0,0,0,0,0,0,0,0,0,0,0,0],"split_type":[0,0,0,0,0,0,0,0,0,0,0,0,0,0,0,0,0,0,0,0,0,0,0,0,0,0,0,0,0,0,0],"sum_hessian":[2.566E3,7.32E2,1.834E3,1.61E2,5.71E2,1.342E3,4.92E2,6.1E1,1E2,3.95E2,1.76E2,1.02E3,3.22E2,4.4E2,5.2E1,5.7E1,4E0,9.7E1,3E0,1.5E2,2.45E2,4.9E1,1.27E2,6.22E2,3.98E2,1.26E2,1.96E2,4.38E2,2E0,5E1,2E0],"tree_param":{"num_deleted":"0","num_feature":"494","num_nodes":"31","size_leaf_vector":"1"}},{"base_weights":[2.015165E-3,-2.9533269E-2,1.4643884E-2,-6.054211E-2,-2.042963E-2,6.161211E-3,3.75453E-2,-7.8751594E-2,-4.683264E-2,-2.771455E-2,-1.3139338E-2,9.690124E-3,-4.99907E-3,3.3167586E-2,6.9572546E-2,-1.8190844E-3,-3.9410854E-5,-1.0639862E-3,2.2573127E-4,-4.5758032E-4,-8.547934E-4,-5.617843E-4,-2.4826237E-4,1.0693681E-4,3.7007E-4,-2.9520044E-4,1.473932E-5,7.33729E-4,-6.9481565E-4,1.6907296E-3,-1.1003979E-3],"categories":[],"categories_nodes":[],"categories_segments":[],"categories_sizes":[],"default_left":[0,0,0,0,0,0,0,0,0,0,0,0,0,0,0,0,0,0,0,0,0,0,0,0,0,0,0,0,0,0,0],"id":25,"left_children":[1,3,5,7,9,11,13,15,17,19,21,23,25,27,29,-1,-1,-1,-1,-1,-1,-1,-1,-1,-1,-1,-1,-1,-1,-1,-1],"loss_changes":[1.0256598E0,2.0282042E-1,3.561342E-1,2.6438415E-2,2.9081166E-2,5.3204164E-2,6.0312092E-2,2.4029613E-2,1.4592722E-2,1.866068E-2,5.2621625E-3,3.5491146E-2,1.5916346E-2,2.1201134E-2,7.094556E-2,0E0,0E0,0E0,0E0,0E0,0E0,0E0,0E0,0E0,0E0,0E0,0E0,0E0,0E0,0E0,0E0],"parents":[2147483647,0,0,1,1,2,2,3,3,4,4,5,5,6,6,7,7,8,8,9,9,10,10,11,11,12,12,13,13,14,14],"right_children":[2,4,6,8,10,12,14,16,18,20,22,24,26,28,30,-1,-1,-1,-1,-1,-1,-1,-1,-1,-1,-1,-1,-1,-1,-1,-1],"split_conditions":[-9.001675E-3,-4.2837903E-2,1.8892217E-2,-5.897282E-2,-1.9658176E-2,2E0,5.6512292E-2,7.543715E-2,1.1792096E0,2E0,-3.2388505E-2,6.819028E-3,1.3635809E-3,1.9010891E-1,1.3658499E0,-1.8190844E-3,-3.9410854E-5,-1.0639862E-3,2.2573127E-4,-4.5758032E-4,-8.547934E-4,-5.617843E-4,-2.4826237E-4,1.0693681E-4,3.7007E-4,-2.9520044E-4,1.473932E-5,7.33729E-4,-6.9481565E-4,1.6907296E-3,-1.1003979E-3],"split_indices":[47,47,48,47,47,40,47,27,59,40,198,47,47,143,412,0,0,0,0,0,0,0,0,0,0,0,0,0,0,0,0],"split_type":[0,0,0,0,0,0,0,0,0,0,0,0,0,0,0,0,0,0,0,0,0,0,0,0,0,0,0,0,0,0,0],"sum_hessian":[2.566E3,7.32E2,1.834E3,1.61E2,5.71E2,1.342E3,4.92E2,6.1E1,1E2,2.8E2,2.91E2,1.02E3,3.22E2,4.4E2,5.2E1,5.7E1,4E0,9.7E1,3E0,1.85E2,9.5E1,2.8E1,2.63E2,6.22E2,3.98E2,1.26E2,1.96E2,4.38E2,2E0,5E1,2E0],"tree_param":{"num_deleted":"0","num_feature":"494","num_nodes":"31","size_leaf_vector":"1"}},{"base_weights":[2.015165E-3,-2.9533269E-2,1.4643884E-2,-6.054211E-2,-2.042963E-2,6.161211E-3,3.75453E-2,-7.8751594E-2,-4.683264E-2,-2.771455E-2,-1.3139338E-2,9.690124E-3,-4.99907E-3,3.3167586E-2,6.9572546E-2,-1.8190844E-3,-3.9410854E-5,-1.0639862E-3,2.2573127E-4,-4.5758032E-4,-8.547934E-4,-1.7455456E-4,-5.5186445E-4,1.0693681E-4,3.7007E-4,-2.9520044E-4,1.473932E-5,7.345064E-4,-7.520879E-4,1.6907296E-3,-1.1003979E-3],"categories":[],"categories_nodes":[],"categories_segments":[],"categories_sizes":[],"default_left":[0,0,0,0,0,0,0,0,0,0,0,0,0,0,0,0,0,0,0,0,0,0,0,0,0,0,0,0,0,0,0],"id":26,"left_children":[1,3,5,7,9,11,13,15,17,19,21,23,25,27,29,-1,-1,-1,-1,-1,-1,-1,-1,-1,-1,-1,-1,-1,-1,-1,-1],"loss_changes":[1.0256598E0,2.0282042E-1,3.561342E-1,2.6438415E-2,2.9081166E-2,5.3204164E-2,6.0312092E-2,2.4029613E-2,1.4592722E-2,1.866068E-2,1.7644916E-2,3.5491146E-2,1.5916346E-2,2.3320854E-2,7.094556E-2,0E0,0E0,0E0,0E0,0E0,0E0,0E0,0E0,0E0,0E0,0E0,0E0,0E0,0E0,0E0,0E0],"parents":[2147483647,0,0,1,1,2,2,3,3,4,4,5,5,6,6,7,7,8,8,9,9,10,10,11,11,12,12,13,13,14,14],"right_children":[2,4,6,8,10,12,14,16,18,20,22,24,26,28,30,-1,-1,-1,-1,-1,-1,-1,-1,-1,-1,-1,-1,-1,-1,-1,-1],"split_conditions":[-9.001675E-3,-4.2837903E-2,1.8892217E-2,-5.897282E-2,-1.9658176E-2,2E0,5.6512292E-2,7.543715E-2,1.1792096E0,2E0,2E0,6.819028E-3,1.3635809E-3,1.0117263E-1,1.3658499E0,-1.8190844E-3,-3.9410854E-5,-1.0639862E-3,2.2573127E-4,-4.5758032E-4,-8.547934E-4,-1.7455456E-4,-5.5186445E-4,1.0693681E-4,3.7007E-4,-2.9520044E-4,1.473932E-5,7.345064E-4,-7.520879E-4,1.6907296E-3,-1.1003979E-3],"split_indices":[47,47,47,47,48,40,47,27,59,40,40,47,47,0,412,0,0,0,0,0,0,0,0,0,0,0,0,0,0,0,0],"split_type":[0,0,0,0,0,0,0,0,0,0,0,0,0,0,0,0,0,0,0,0,0,0,0,0,0,0,0,0,0,0,0],"sum_hessian":[2.566E3,7.32E2,1.834E3,1.61E2,5.71E2,1.342E3,4.92E2,6.1E1,1E2,2.8E2,2.91E2,1.02E3,3.22E2,4.4E2,5.2E1,5.7E1,4E0,9.7E1,3E0,1.85E2,9.5E1,2.1E2,8.1E1,6.22E2,3.98E2,1.26E2,1.96E2,4.38E2,2E0,5E1,2E0],"tree_param":{"num_deleted":"0","num_feature":"494","num_nodes":"31","size_leaf_vector":"1"}},{"base_weights":[2.015165E-3,-2.9533269E-2,1.4643884E-2,-6.054211E-2,-2.042963E-2,6.161211E-3,3.75453E-2,-7.8751594E-2,-4.683264E-2,-1.4276988E-2,-3.3613995E-2,9.690124E-3,-4.99907E-3,3.3167586E-2,6.9572546E-2,-1.7957578E-3,8.220808E-6,-1.0639862E-3,2.2573127E-4,-4.931345E-4,-1.9234797E-4,-4.2660368E-4,-8.3147344E-4,1.0693681E-4,3.7007E-4,-2.9520044E-4,1.473932E-5,7.345064E-4,-7.520879E-4,1.6907296E-3,-1.1003979E-3],"categories":[],"categories_nodes":[],"categories_segments":[],"categories_sizes":[],"default_left":[0,0,0,0,0,0,0,0,0,0,0,0,0,0,0,0,0,0,0,0,0,0,0,0,0,0,0,0,0,0,0],"id":27,"left_children":[1,3,5,7,9,11,13,15,17,19,21,23,25,27,29,-1,-1,-1,-1,-1,-1,-1,-1,-1,-1,-1,-1,-1,-1,-1,-1],"loss_changes":[1.0256598E0,2.0282042E-1,3.561342E-1,2.6438415E-2,4.472363E-2,5.3204164E-2,6.0312092E-2,1.9943923E-2,1.4592722E-2,1.740852E-2,8.666724E-3,3.5491146E-2,1.5916346E-2,2.3320854E-2,7.094556E-2,0E0,0E0,0E0,0E0,0E0,0E0,0E0,0E0,0E0,0E0,0E0,0E0,0E0,0E0,0E0,0E0],"parents":[2147483647,0,0,1,1,2,2,3,3,4,4,5,5,6,6,7,7,8,8,9,9,10,10,11,11,12,12,13,13,14,14],"right_children":[2,4,6,8,10,12,14,16,18,20,22,24,26,28,30,-1,-1,-1,-1,-1,-1,-1,-1,-1,-1,-1,-1,-1,-1,-1,-1],"split_conditions":[-9.001675E-3,-4.2837903E-2,1.8892217E-2,-5.897282E-2,2E0,2E0,5.6512292E-2,9.2475556E-2,7.125646E-1,-2.3015324E-2,3.253889E-2,6.819028E-3,1.3635809E-3,1.0117263E-1,1.3658499E0,-1.7957578E-3,8.220808E-6,-1.0639862E-3,2.2573127E-4,-4.931345E-4,-1.9234797E-4,-4.2660368E-4,-8.3147344E-4,1.0693681E-4,3.7007E-4,-2.9520044E-4,1.473932E-5,7.345064E-4,-7.520879E-4,1.6907296E-3,-1.1003979E-3],"split_indices":[47,47,47,47,40,40,47,26,60,47,45,47,47,0,412,0,0,0,0,0,0,0,0,0,0,0,0,0,0,0,0],"split_type":[0,0,0,0,0,0,0,0,0,0,0,0,0,0,0,0,0,0,0,0,0,0,0,0,0,0,0,0,0,0,0],"sum_hessian":[2.566E3,7.32E2,1.834E3,1.61E2,5.71E2,1.342E3,4.92E2,6.1E1,1E2,3.95E2,1.76E2,1.02E3,3.22E2,4.4E2,5.2E1,5.8E1,3E0,9.7E1,3E0,1.5E2,2.45E2,4.9E1,1.27E2,6.22E2,3.98E2,1.26E2,1.96E2,4.38E2,2E0,5E1,2E0],"tree_param":{"num_deleted":"0","num_feature":"494","num_nodes":"31","size_leaf_vector":"1"}},{"base_weights":[2.015165E-3,-2.9533269E-2,1.4643884E-2,-6.054211E-2,-2.042963E-2,6.161211E-3,3.75453E-2,-7.8751594E-2,-4.683264E-2,-1.4276988E-2,-3.3613995E-2,9.690124E-3,-4.99907E-3,3.3167586E-2,6.9572546E-2,-1.7957578E-3,8.220808E-6,-1.0639862E-3,2.2573127E-4,-4.931345E-4,-1.9234797E-4,-4.2660368E-4,-8.3147344E-4,1.0693681E-4,3.7007E-4,-2.9520044E-4,1.473932E-5,7.345064E-4,-7.520879E-4,1.6907296E-3,-1.1003979E-3],"categories":[],"categories_nodes":[],"categories_segments":[],"categories_sizes":[],"default_left":[0,0,0,0,0,0,0,0,0,0,0,0,0,0,0,0,0,0,0,0,0,0,0,0,0,0,0,0,0,0,0],"id":28,"left_children":[1,3,5,7,9,11,13,15,17,19,21,23,25,27,29,-1,-1,-1,-1,-1,-1,-1,-1,-1,-1,-1,-1,-1,-1,-1,-1],"loss_changes":[1.0256598E0,2.0282042E-1,3.561342E-1,2.6438415E-2,4.472363E-2,5.3204164E-2,6.0312092E-2,1.9943923E-2,1.4592722E-2,1.740852E-2,8.666724E-3,3.5491146E-2,1.5916346E-2,2.3320854E-2,7.094556E-2,0E0,0E0,0E0,0E0,0E0,0E0,0E0,0E0,0E0,0E0,0E0,0E0,0E0,0E0,0E0,0E0],"parents":[2147483647,0,0,1,1,2,2,3,3,4,4,5,5,6,6,7,7,8,8,9,9,10,10,11,11,12,12,13,13,14,14],"right_children":[2,4,6,8,10,12,14,16,18,20,22,24,26,28,30,-1,-1,-1,-1,-1,-1,-1,-1,-1,-1,-1,-1,-1,-1,-1,-1],"split_conditions":[-9.001675E-3,-4.2837903E-2,1.8892217E-2,-5.897282E-2,2E0,2E0,5.6512292E-2,9.2475556E-2,7.125646E-1,-2.3015324E-2,3.253889E-2,6.819028E-3,1.3635809E-3,1.0117263E-1,1.6679374E0,-1.7957578E-3,8.220808E-6,-1.0639862E-3,2.2573127E-4,-4.931345E-4,-1.9234797E-4,-4.2660368E-4,-8.3147344E-4,1.0693681E-4,3.7007E-4,-2.9520044E-4,1.473932E-5,7.345064E-4,-7.520879E-4,1.6907296E-3,-1.1003979E-3],"split_indices":[47,47,47,47,40,40,47,26,60,47,45,47,47,0,413,0,0,0,0,0,0,0,0,0,0,0,0,0,0,0,0],"split_type":[0,0,0,0,0,0,0,0,0,0,0,0,0,0,0,0,0,0,0,0,0,0,0,0,0,0,0,0,0,0,0],"sum_hessian":[2.566E3,7.32E2,1.834E3,1.61E2,5.71E2,1.342E3,4.92E2,6.1E1,1E2,3.95E2,1.76E2,1.02E3,3.22E2,4.4E2,5.2E1,5.8E1,3E0,9.7E1,3E0,1.5E2,2.45E2,4.9E1,1.27E2,6.22E2,3.98E2,1.26E2,1.96E2,4.38E2,2E0,5E1,2E0],"tree_param":{"num_deleted":"0","num_feature":"494","num_nodes":"31","size_leaf_vector":"1"}},{"base_weights":[2.015165E-3,-2.9533269E-2,1.4643884E-2,-6.054211E-2,-2.042963E-2,6.161211E-3,3.75453E-2,-7.8751594E-2,-4.683264E-2,-2.771455E-2,-1.3139338E-2,9.690124E-3,-4.99907E-3,3.3167586E-2,6.9572546E-2,-1.8190844E-3,-3.9410854E-5,-1.0639862E-3,2.2573127E-4,-4.5758032E-4,-8.547934E-4,-1.7455456E-4,-5.5186445E-4,1.0693681E-4,3.7007E-4,-2.9520044E-4,1.473932E-5,7.345064E-4,-7.520879E-4,1.6907296E-3,-1.1003979E-3],"categories":[],"categories_nodes":[],"categories_segments":[],"categories_sizes":[],"default_left":[0,0,0,0,0,0,0,0,0,0,0,0,0,0,0,0,0,0,0,0,0,0,0,0,0,0,0,0,0,0,0],"id":29,"left_children":[1,3,5,7,9,11,13,15,17,19,21,23,25,27,29,-1,-1,-1,-1,-1,-1,-1,-1,-1,-1,-1,-1,-1,-1,-1,-1],"loss_changes":[1.0256598E0,2.0282042E-1,3.561342E-1,2.6438415E-2,2.9081166E-2,5.3204164E-2,6.0312092E-2,2.4029613E-2,1.4592722E-2,1.866068E-2,1.7644916E-2,3.5491146E-2,1.5916346E-2,2.3320854E-2,7.094556E-2,0E0,0E0,0E0,0E0,0E0,0E0,0E0,0E0,0E0,0E0,0E0,0E0,0E0,0E0,0E0,0E0],"parents":[2147483647,0,0,1,1,2,2,3,3,4,4,5,5,6,6,7,7,8,8,9,9,10,10,11,11,12,12,13,13,14,14],"right_children":[2,4,6,8,10,12,14,16,18,20,22,24,26,28,30,-1,-1,-1,-1,-1,-1,-1,-1,-1,-1,-1,-1,-1,-1,-1,-1],"split_conditions":[-9.001675E-3,-4.2837903E-2,1.8892217E-2,-5.897282E-2,-1.9658176E-2,2E0,5.6512292E-2,7.543715E-2,7.125646E-1,2E0,2E0,6.819028E-3,1.3635809E-3,1.0117263E-1,1.6679374E0,-1.8190844E-3,-3.9410854E-5,-1.0639862E-3,2.2573127E-4,-4.5758032E-4,-8.547934E-4,-1.7455456E-4,-5.5186445E-4,1.0693681E-4,3.7007E-4,-2.9520044E-4,1.473932E-5,7.345064E-4,-7.520879E-4,1.6907296E-3,-1.1003979E-3],"split_indices":[47,47,47,47,47,40,47,27,60,40,40,47,47,0,413,0,0,0,0,0,0,0,0,0,0,0,0,0,0,0,0],"split_type":[0,0,0,0,0,0,0,0,0,0,0,0,0,0,0,0,0,0,0,0,0,0,0,0,0,0,0,0,0,0,0],"sum_hessian":[2.566E3,7.32E2,1.834E3,1.61E2,5.71E2,1.342E3,4.92E2,6.1E1,1E2,2.8E2,2.91E2,1.02E3,3.22E2,4.4E2,5.2E1,5.7E1,4E0,9.7E1,3E0,1.85E2,9.5E1,2.1E2,8.1E1,6.22E2,3.98E2,1.26E2,1.96E2,4.38E2,2E0,5E1,2E0],"tree_param":{"num_deleted":"0","num_feature":"494","num_nodes":"31","size_leaf_vector":"1"}},{"base_weights":[2.015165E-3,-2.9533269E-2,1.4643884E-2,-1.9980855E-2,-4.7453787E-2,6.161211E-3,3.75453E-2,-1.4691049E-2,-3.1816028E-2,-6.8127796E-2,-2.9374026E-2,9.690124E-3,-4.99907E-3,3.3167586E-2,6.9572546E-2,-4.850308E-4,-1.9331192E-4,-4.2660368E-4,-8.0676493E-4,-1.1207626E-3,-1.9069064E-3,-8.436207E-4,-2.1876932E-4,1.0693681E-4,3.7007E-4,-2.9520044E-4,1.473932E-5,7.33729E-4,-6.9481565E-4,1.6907296E-3,-1.1003979E-3],"categories":[],"categories_nodes":[],"categories_segments":[],"categories_sizes":[],"default_left":[0,0,0,0,0,0,0,0,0,0,0,0,0,0,0,0,0,0,0,0,0,0,0,0,0,0,0,0,0,0,0],"id":30,"left_children":[1,3,5,7,9,11,13,15,17,19,21,23,25,27,29,-1,-1,-1,-1,-1,-1,-1,-1,-1,-1,-1,-1,-1,-1,-1,-1],"loss_changes":[1.0256598E0,1.2219888E-1,3.561342E-1,2.8619379E-2,8.656186E-2,5.3204164E-2,6.0312092E-2,1.440715E-2,6.5772682E-3,1.9246519E-2,2.430293E-2,3.5491146E-2,1.5916346E-2,2.1201134E-2,7.094556E-2,0E0,0E0,0E0,0E0,0E0,0E0,0E0,0E0,0E0,0E0,0E0,0E0,0E0,0E0,0E0,0E0],"parents":[2147483647,0,0,1,1,2,2,3,3,4,4,5,5,6,6,7,7,8,8,9,9,10,10,11,11,12,12,13,13,14,14],"right_children":[2,4,6,8,10,12,14,16,18,20,22,24,26,28,30,-1,-1,-1,-1,-1,-1,-1,-1,-1,-1,-1,-1,-1,-1,-1,-1],"split_conditions":[-9.001675E-3,5.662853E-2,1.8892217E-2,2E0,-4.9872678E-2,2E0,5.6512292E-2,-1.9658176E-2,3.253889E-2,9.851629E-2,-5.0400305E-1,6.819028E-3,1.3635809E-3,1.9010891E-1,1.3658499E0,-4.850308E-4,-1.9331192E-4,-4.2660368E-4,-8.0676493E-4,-1.1207626E-3,-1.9069064E-3,-8.436207E-4,-2.1876932E-4,1.0693681E-4,3.7007E-4,-2.9520044E-4,1.473932E-5,7.33729E-4,-6.9481565E-4,1.6907296E-3,-1.1003979E-3],"split_indices":[47,45,47,40,47,40,47,47,45,45,51,47,47,143,412,0,0,0,0,0,0,0,0,0,0,0,0,0,0,0,0],"split_type":[0,0,0,0,0,0,0,0,0,0,0,0,0,0,0,0,0,0,0,0,0,0,0,0,0,0,0,0,0,0,0],"sum_hessian":[2.566E3,7.32E2,1.834E3,4.83E2,2.49E2,1.342E3,4.92E2,3.4E2,1.43E2,1.11E2,1.38E2,1.02E3,3.22E2,4.4E2,5.2E1,1.42E2,1.98E2,4.9E1,9.4E1,6.8E1,4.3E1,9E1,4.8E1,6.22E2,3.98E2,1.26E2,1.96E2,4.38E2,2E0,5E1,2E0],"tree_param":{"num_deleted":"0","num_feature":"494","num_nodes":"31","size_leaf_vector":"1"}},{"base_weights":[2.015165E-3,-2.9533269E-2,1.4643884E-2,-6.054211E-2,-2.042963E-2,6.161211E-3,3.75453E-2,-7.8751594E-2,-4.683264E-2,-1.4276988E-2,-3.3613995E-2,9.690124E-3,-4.99907E-3,3.3167586E-2,6.9572546E-2,-1.8190844E-3,-3.9410854E-5,-1.0639862E-3,2.2573127E-4,-4.931345E-4,-1.9234797E-4,-4.2660368E-4,-8.3147344E-4,1.0693681E-4,3.7007E-4,-2.9520044E-4,1.473932E-5,7.345064E-4,-7.520879E-4,1.6907296E-3,-1.1003979E-3],"categories":[],"categories_nodes":[],"categories_segments":[],"categories_sizes":[],"default_left":[0,0,0,0,0,0,0,0,0,0,0,0,0,0,0,0,0,0,0,0,0,0,0,0,0,0,0,0,0,0,0],"id":31,"left_children":[1,3,5,7,9,11,13,15,17,19,21,23,25,27,29,-1,-1,-1,-1,-1,-1,-1,-1,-1,-1,-1,-1,-1,-1,-1,-1],"loss_changes":[1.0256598E0,2.0282042E-1,3.561342E-1,2.6438415E-2,4.472363E-2,5.3204164E-2,6.0312092E-2,2.4029613E-2,1.4592722E-2,1.740852E-2,8.666724E-3,3.5491146E-2,1.5916346E-2,2.3320854E-2,7.094556E-2,0E0,0E0,0E0,0E0,0E0,0E0,0E0,0E0,0E0,0E0,0E0,0E0,0E0,0E0,0E0,0E0],"parents":[2147483647,0,0,1,1,2,2,3,3,4,4,5,5,6,6,7,7,8,8,9,9,10,10,11,11,12,12,13,13,14,14],"right_children":[2,4,6,8,10,12,14,16,18,20,22,24,26,28,30,-1,-1,-1,-1,-1,-1,-1,-1,-1,-1,-1,-1,-1,-1,-1,-1],"split_conditions":[-9.001675E-3,-4.2837903E-2,1.8892217E-2,-5.897282E-2,2E0,2E0,5.6512292E-2,7.543715E-2,7.125646E-1,-2.3015324E-2,3.253889E-2,6.819028E-3,1.3635809E-3,1.0117263E-1,1.3658499E0,-1.8190844E-3,-3.9410854E-5,-1.0639862E-3,2.2573127E-4,-4.931345E-4,-1.9234797E-4,-4.2660368E-4,-8.3147344E-4,1.0693681E-4,3.7007E-4,-2.9520044E-4,1.473932E-5,7.345064E-4,-7.520879E-4,1.6907296E-3,-1.1003979E-3],"split_indices":[47,48,48,47,40,40,47,27,60,48,45,47,47,0,412,0,0,0,0,0,0,0,0,0,0,0,0,0,0,0,0],"split_type":[0,0,0,0,0,0,0,0,0,0,0,0,0,0,0,0,0,0,0,0,0,0,0,0,0,0,0,0,0,0,0],"sum_hessian":[2.566E3,7.32E2,1.834E3,1.61E2,5.71E2,1.342E3,4.92E2,6.1E1,1E2,3.95E2,1.76E2,1.02E3,3.22E2,4.4E2,5.2E1,5.7E1,4E0,9.7E1,3E0,1.5E2,2.45E2,4.9E1,1.27E2,6.22E2,3.98E2,1.26E2,1.96E2,4.38E2,2E0,5E1,2E0],"tree_param":{"num_deleted":"0","num_feature":"494","num_nodes":"31","size_leaf_vector":"1"}},{"base_weights":[2.015165E-3,-2.9533269E-2,1.4643884E-2,-6.054211E-2,-2.042963E-2,6.161211E-3,3.75453E-2,-7.8751594E-2,-4.683264E-2,-1.4276988E-2,-3.3613995E-2,9.690124E-3,-4.99907E-3,3.3167586E-2,6.9572546E-2,-1.8190844E-3,-3.9410854E-5,-1.0639862E-3,2.2573127E-4,-4.931345E-4,-1.9234797E-4,-4.2660368E-4,-8.3147344E-4,1.0693681E-4,3.7007E-4,-2.9520044E-4,1.473932E-5,7.345064E-4,-7.520879E-4,1.6907296E-3,-1.1003979E-3],"categories":[],"categories_nodes":[],"categories_segments":[],"categories_sizes":[],"default_left":[0,0,0,0,0,0,0,0,0,0,0,0,0,0,0,0,0,0,0,0,0,0,0,0,0,0,0,0,0,0,0],"id":32,"left_children":[1,3,5,7,9,11,13,15,17,19,21,23,25,27,29,-1,-1,-1,-1,-1,-1,-1,-1,-1,-1,-1,-1,-1,-1,-1,-1],"loss_changes":[1.0256598E0,2.0282042E-1,3.561342E-1,2.6438415E-2,4.472363E-2,5.3204164E-2,6.0312092E-2,2.4029613E-2,1.4592722E-2,1.740852E-2,8.666724E-3,3.5491146E-2,1.5916346E-2,2.3320854E-2,7.094556E-2,0E0,0E0,0E0,0E0,0E0,0E0,0E0,0E0,0E0,0E0,0E0,0E0,0E0,0E0,0E0,0E0],"parents":[2147483647,0,0,1,1,2,2,3,3,4,4,5,5,6,6,7,7,8,8,9,9,10,10,11,11,12,12,13,13,14,14],"right_children":[2,4,6,8,10,12,14,16,18,20,22,24,26,28,30,-1,-1,-1,-1,-1,-1,-1,-1,-1,-1,-1,-1,-1,-1,-1,-1],"split_conditions":[-9.001675E-3,-4.2837903E-2,1.8892217E-2,-5.897282E-2,2E0,2E0,5.6512292E-2,7.543715E-2,7.125646E-1,-2.3015324E-2,3.253889E-2,6.819028E-3,1.3635809E-3,1.0117263E-1,1.3658499E0,-1.8190844E-3,-3.9410854E-5,-1.0639862E-3,2.2573127E-4,-4.931345E-4,-1.9234797E-4,-4.2660368E-4,-8.3147344E-4,1.0693681E-4,3.7007E-4,-2.9520044E-4,1.473932E-5,7.345064E-4,-7.520879E-4,1.6907296E-3,-1.1003979E-3],"split_indices":[48,47,48,47,40,40,47,27,60,47,45,47,48,0,412,0,0,0,0,0,0,0,0,0,0,0,0,0,0,0,0],"split_type":[0,0,0,0,0,0,0,0,0,0,0,0,0,0,0,0,0,0,0,0,0,0,0,0,0,0,0,0,0,0,0],"sum_hessian":[2.566E3,7.32E2,1.834E3,1.61E2,5.71E2,1.342E3,4.92E2,6.1E1,1E2,3.95E2,1.76E2,1.02E3,3.22E2,4.4E2,5.2E1,5.7E1,4E0,9.7E1,3E0,1.5E2,2.45E2,4.9E1,1.27E2,6.22E2,3.98E2,1.26E2,1.96E2,4.38E2,2E0,5E1,2E0],"tree_param":{"num_deleted":"0","num_feature":"494","num_nodes":"31","size_leaf_vector":"1"}},{"base_weights":[2.015165E-3,-2.9533269E-2,1.4643884E-2,-6.054211E-2,-2.042963E-2,6.161211E-3,3.75453E-2,-7.8751594E-2,-4.683264E-2,-2.771455E-2,-1.3139338E-2,9.690124E-3,-4.99907E-3,3.3167586E-2,6.9572546E-2,-1.8190844E-3,-3.9410854E-5,-1.0639862E-3,2.2573127E-4,-4.5758032E-4,-8.547934E-4,-5.617843E-4,-2.4826237E-4,1.0693681E-4,3.7007E-4,-2.9520044E-4,1.473932E-5,7.345064E-4,-7.520879E-4,1.6907296E-3,-1.1003979E-3],"categories":[],"categories_nodes":[],"categories_segments":[],"categories_sizes":[],"default_left":[0,0,0,0,0,0,0,0,0,0,0,0,0,0,0,0,0,0,0,0,0,0,0,0,0,0,0,0,0,0,0],"id":33,"left_children":[1,3,5,7,9,11,13,15,17,19,21,23,25,27,29,-1,-1,-1,-1,-1,-1,-1,-1,-1,-1,-1,-1,-1,-1,-1,-1],"loss_changes":[1.0256598E0,2.0282042E-1,3.561342E-1,2.6438415E-2,2.9081166E-2,5.3204164E-2,6.0312092E-2,2.4029613E-2,1.4592722E-2,1.866068E-2,5.2621625E-3,3.5491146E-2,1.5916346E-2,2.3320854E-2,7.094556E-2,0E0,0E0,0E0,0E0,0E0,0E0,0E0,0E0,0E0,0E0,0E0,0E0,0E0,0E0,0E0,0E0],"parents":[2147483647,0,0,1,1,2,2,3,3,4,4,5,5,6,6,7,7,8,8,9,9,10,10,11,11,12,12,13,13,14,14],"right_children":[2,4,6,8,10,12,14,16,18,20,22,24,26,28,30,-1,-1,-1,-1,-1,-1,-1,-1,-1,-1,-1,-1,-1,-1,-1,-1],"split_conditions":[-9.001675E-3,-4.2837903E-2,1.8892217E-2,-5.897282E-2,-1.9658176E-2,2E0,5.6512292E-2,7.543715E-2,1.1792096E0,2E0,-3.2388505E-2,6.819028E-3,1.3635809E-3,1.0117263E-1,1.3658499E0,-1.8190844E-3,-3.9410854E-5,-1.0639862E-3,2.2573127E-4,-4.5758032E-4,-8.547934E-4,-5.617843E-4,-2.4826237E-4,1.0693681E-4,3.7007E-4,-2.9520044E-4,1.473932E-5,7.345064E-4,-7.520879E-4,1.6907296E-3,-1.1003979E-3],"split_indices":[47,47,48,47,47,40,47,27,59,40,198,47,47,0,412,0,0,0,0,0,0,0,0,0,0,0,0,0,0,0,0],"split_type":[0,0,0,0,0,0,0,0,0,0,0,0,0,0,0,0,0,0,0,0,0,0,0,0,0,0,0,0,0,0,0],"sum_hessian":[2.566E3,7.32E2,1.834E3,1.61E2,5.71E2,1.342E3,4.92E2,6.1E1,1E2,2.8E2,2.91E2,1.02E3,3.22E2,4.4E2,5.2E1,5.7E1,4E0,9.7E1,3E0,1.85E2,9.5E1,2.8E1,2.63E2,6.22E2,3.98E2,1.26E2,1.96E2,4.38E2,2E0,5E1,2E0],"tree_param":{"num_deleted":"0","num_feature":"494","num_nodes":"31","size_leaf_vector":"1"}},{"base_weights":[2.015165E-3,-2.9533269E-2,1.4643884E-2,-6.054211E-2,-2.042963E-2,6.161211E-3,3.75453E-2,-7.8751594E-2,-4.683264E-2,-1.4276988E-2,-3.3613995E-2,1.2233639E-3,1.411938E-2,3.3167586E-2,6.9572546E-2,-1.8190844E-3,-3.9410854E-5,-1.0639862E-3,2.2573127E-4,-4.931345E-4,-1.9234797E-4,-4.2660368E-4,-8.3147344E-4,1.0693681E-4,-2.1002689E-4,3.7007E-4,7.955161E-5,7.33729E-4,-6.9481565E-4,1.6907296E-3,-1.1003979E-3],"categories":[],"categories_nodes":[],"categories_segments":[],"categories_sizes":[],"default_left":[0,0,0,0,0,0,0,0,0,0,0,0,0,0,0,0,0,0,0,0,0,0,0,0,0,0,0,0,0,0,0],"id":34,"left_children":[1,3,5,7,9,11,13,15,17,19,21,23,25,27,29,-1,-1,-1,-1,-1,-1,-1,-1,-1,-1,-1,-1,-1,-1,-1,-1],"loss_changes":[1.0256598E0,2.0282042E-1,3.561342E-1,2.6438415E-2,4.472363E-2,5.2823626E-2,6.0312092E-2,2.4029613E-2,1.4592722E-2,1.740852E-2,8.666724E-3,3.3779256E-2,1.5393518E-2,2.1201134E-2,7.094556E-2,0E0,0E0,0E0,0E0,0E0,0E0,0E0,0E0,0E0,0E0,0E0,0E0,0E0,0E0,0E0,0E0],"parents":[2147483647,0,0,1,1,2,2,3,3,4,4,5,5,6,6,7,7,8,8,9,9,10,10,11,11,12,12,13,13,14,14],"right_children":[2,4,6,8,10,12,14,16,18,20,22,24,26,28,30,-1,-1,-1,-1,-1,-1,-1,-1,-1,-1,-1,-1,-1,-1,-1,-1],"split_conditions":[-9.001675E-3,-4.2837903E-2,1.8892217E-2,-5.897282E-2,2E0,6.819028E-3,5.6512292E-2,7.543715E-2,1.1792096E0,-2.3015324E-2,3.253889E-2,2E0,2E0,1.9010891E-1,1.6679374E0,-1.8190844E-3,-3.9410854E-5,-1.0639862E-3,2.2573127E-4,-4.931345E-4,-1.9234797E-4,-4.2660368E-4,-8.3147344E-4,1.0693681E-4,-2.1002689E-4,3.7007E-4,7.955161E-5,7.33729E-4,-6.9481565E-4,1.6907296E-3,-1.1003979E-3],"split_indices":[47,48,47,47,40,47,47,27,59,47,46,40,40,143,413,0,0,0,0,0,0,0,0,0,0,0,0,0,0,0,0],"split_type":[0,0,0,0,0,0,0,0,0,0,0,0,0,0,0,0,0,0,0,0,0,0,0,0,0,0,0,0,0,0,0],"sum_hessian":[2.566E3,7.32E2,1.834E3,1.61E2,5.71E2,1.342E3,4.92E2,6.1E1,1E2,3.95E2,1.76E2,8.31E2,5.11E2,4.4E2,5.2E1,5.7E1,4E0,9.7E1,3E0,1.5E2,2.45E2,4.9E1,1.27E2,6.22E2,2.09E2,3.98E2,1.13E2,4.38E2,2E0,5E1,2E0],"tree_param":{"num_deleted":"0","num_feature":"494","num_nodes":"31","size_leaf_vector":"1"}},{"base_weights":[2.015165E-3,-2.9533269E-2,1.4643884E-2,-6.054211E-2,-2.042963E-2,6.161211E-3,3.75453E-2,-7.8751594E-2,-4.683264E-2,-1.4276988E-2,-3.3613995E-2,9.690124E-3,-4.99907E-3,3.3167586E-2,6.9572546E-2,-1.7957578E-3,8.220808E-6,-1.0639862E-3,2.2573127E-4,-4.931345E-4,-1.9234797E-4,-4.2660368E-4,-8.3147344E-4,1.0693681E-4,3.7007E-4,-2.9520044E-4,1.473932E-5,7.345064E-4,-7.520879E-4,1.6907296E-3,-1.1003979E-3],"categories":[],"categories_nodes":[],"categories_segments":[],"categories_sizes":[],"default_left":[0,0,0,0,0,0,0,0,0,0,0,0,0,0,0,0,0,0,0,0,0,0,0,0,0,0,0,0,0,0,0],"id":35,"left_children":[1,3,5,7,9,11,13,15,17,19,21,23,25,27,29,-1,-1,-1,-1,-1,-1,-1,-1,-1,-1,-1,-1,-1,-1,-1,-1],"loss_changes":[1.0256598E0,2.0282042E-1,3.561342E-1,2.6438415E-2,4.472363E-2,5.3204164E-2,6.0312092E-2,1.9943923E-2,1.4592722E-2,1.740852E-2,8.666724E-3,3.5491146E-2,1.5916346E-2,2.3320854E-2,7.094556E-2,0E0,0E0,0E0,0E0,0E0,0E0,0E0,0E0,0E0,0E0,0E0,0E0,0E0,0E0,0E0,0E0],"parents":[2147483647,0,0,1,1,2,2,3,3,4,4,5,5,6,6,7,7,8,8,9,9,10,10,11,11,12,12,13,13,14,14],"right_children":[2,4,6,8,10,12,14,16,18,20,22,24,26,28,30,-1,-1,-1,-1,-1,-1,-1,-1,-1,-1,-1,-1,-1,-1,-1,-1],"split_conditions":[-9.001675E-3,-4.2837903E-2,1.8892217E-2,-5.897282E-2,2E0,2E0,5.6512292E-2,9.2475556E-2,1.1792096E0,-2.3015324E-2,3.253889E-2,6.819028E-3,1.3635809E-3,1.0117263E-1,1.3658499E0,-1.7957578E-3,8.220808E-6,-1.0639862E-3,2.2573127E-4,-4.931345E-4,-1.9234797E-4,-4.2660368E-4,-8.3147344E-4,1.0693681E-4,3.7007E-4,-2.9520044E-4,1.473932E-5,7.345064E-4,-7.520879E-4,1.6907296E-3,-1.1003979E-3],"split_indices":[47,48,47,47,40,40,47,26,59,47,45,47,48,0,412,0,0,0,0,0,0,0,0,0,0,0,0,0,0,0,0],"split_type":[0,0,0,0,0,0,0,0,0,0,0,0,0,0,0,0,0,0,0,0,0,0,0,0,0,0,0,0,0,0,0],"sum_hessian":[2.566E3,7.32E2,1.834E3,1.61E2,5.71E2,1.342E3,4.92E2,6.1E1,1E2,3.95E2,1.76E2,1.02E3,3.22E2,4.4E2,5.2E1,5.8E1,3E0,9.7E1,3E0,1.5E2,2.45E2,4.9E1,1.27E2,6.22E2,3.98E2,1.26E2,1.96E2,4.38E2,2E0,5E1,2E0],"tree_param":{"num_deleted":"0","num_feature":"494","num_nodes":"31","size_leaf_vector":"1"}},{"base_weights":[2.015165E-3,-2.9533269E-2,1.4643884E-2,-6.054211E-2,-2.042963E-2,6.161211E-3,3.75453E-2,-7.8751594E-2,-4.683264E-2,-1.4276988E-2,-3.3613995E-2,9.690124E-3,-4.99907E-3,3.3167586E-2,6.9572546E-2,-1.8190844E-3,-3.9410854E-5,-1.0639862E-3,2.2573127E-4,-4.931345E-4,-1.9234797E-4,-4.2660368E-4,-8.3147344E-4,1.0693681E-4,3.7007E-4,-2.9520044E-4,1.473932E-5,7.345064E-4,-7.520879E-4,1.6907296E-3,-1.1003979E-3],"categories":[],"categories_nodes":[],"categories_segments":[],"categories_sizes":[],"default_left":[0,0,0,0,0,0,0,0,0,0,0,0,0,0,0,0,0,0,0,0,0,0,0,0,0,0,0,0,0,0,0],"id":36,"left_children":[1,3,5,7,9,11,13,15,17,19,21,23,25,27,29,-1,-1,-1,-1,-1,-1,-1,-1,-1,-1,-1,-1,-1,-1,-1,-1],"loss_changes":[1.0256598E0,2.0282042E-1,3.561342E-1,2.6438415E-2,4.472363E-2,5.3204164E-2,6.0312092E-2,2.4029613E-2,1.4592722E-2,1.740852E-2,8.666724E-3,3.5491146E-2,1.5916346E-2,2.3320854E-2,7.094556E-2,0E0,0E0,0E0,0E0,0E0,0E0,0E0,0E0,0E0,0E0,0E0,0E0,0E0,0E0,0E0,0E0],"parents":[2147483647,0,0,1,1,2,2,3,3,4,4,5,5,6,6,7,7,8,8,9,9,10,10,11,11,12,12,13,13,14,14],"right_children":[2,4,6,8,10,12,14,16,18,20,22,24,26,28,30,-1,-1,-1,-1,-1,-1,-1,-1,-1,-1,-1,-1,-1,-1,-1,-1],"split_conditions":[-9.001675E-3,-4.2837903E-2,1.8892217E-2,-5.897282E-2,2E0,2E0,5.6512292E-2,7.543715E-2,1.1792096E0,-2.3015324E-2,3.253889E-2,6.819028E-3,1.3635809E-3,1.0117263E-1,1.3658499E0,-1.8190844E-3,-3.9410854E-5,-1.0639862E-3,2.2573127E-4,-4.931345E-4,-1.9234797E-4,-4.2660368E-4,-8.3147344E-4,1.0693681E-4,3.7007E-4,-2.9520044E-4,1.473932E-5,7.345064E-4,-7.520879E-4,1.6907296E-3,-1.1003979E-3],"split_indices":[47,47,47,47,40,40,47,27,59,47,45,47,47,0,412,0,0,0,0,0,0,0,0,0,0,0,0,0,0,0,0],"split_type":[0,0,0,0,0,0,0,0,0,0,0,0,0,0,0,0,0,0,0,0,0,0,0,0,0,0,0,0,0,0,0],"sum_hessian":[2.566E3,7.32E2,1.834E3,1.61E2,5.71E2,1.342E3,4.92E2,6.1E1,1E2,3.95E2,1.76E2,1.02E3,3.22E2,4.4E2,5.2E1,5.7E1,4E0,9.7E1,3E0,1.5E2,2.45E2,4.9E1,1.27E2,6.22E2,3.98E2,1.26E2,1.96E2,4.38E2,2E0,5E1,2E0],"tree_param":{"num_deleted":"0","num_feature":"494","num_nodes":"31","size_leaf_vector":"1"}},{"base_weights":[2.015165E-3,-2.9533269E-2,1.4643884E-2,-6.054211E-2,-2.042963E-2,6.161211E-3,3.75453E-2,-7.8751594E-2,-4.683264E-2,-1.4276988E-2,-3.3613995E-2,9.690124E-3,-4.99907E-3,3.3167586E-2,6.9572546E-2,-1.7957578E-3,8.220808E-6,-1.0639862E-3,2.2573127E-4,-4.931345E-4,-1.9234797E-4,-4.2660368E-4,-8.3147344E-4,1.0693681E-4,3.7007E-4,-2.9520044E-4,1.473932E-5,7.33729E-4,-6.9481565E-4,1.6907296E-3,-1.1003979E-3],"categories":[],"categories_nodes":[],"categories_segments":[],"categories_sizes":[],"default_left":[0,0,0,0,0,0,0,0,0,0,0,0,0,0,0,0,0,0,0,0,0,0,0,0,0,0,0,0,0,0,0],"id":37,"left_children":[1,3,5,7,9,11,13,15,17,19,21,23,25,27,29,-1,-1,-1,-1,-1,-1,-1,-1,-1,-1,-1,-1,-1,-1,-1,-1],"loss_changes":[1.0256598E0,2.0282042E-1,3.561342E-1,2.6438415E-2,4.472363E-2,5.3204164E-2,6.0312092E-2,1.9943923E-2,1.4592722E-2,1.740852E-2,8.666724E-3,3.5491146E-2,1.5916346E-2,2.1201134E-2,7.094556E-2,0E0,0E0,0E0,0E0,0E0,0E0,0E0,0E0,0E0,0E0,0E0,0E0,0E0,0E0,0E0,0E0],"parents":[2147483647,0,0,1,1,2,2,3,3,4,4,5,5,6,6,7,7,8,8,9,9,10,10,11,11,12,12,13,13,14,14],"right_children":[2,4,6,8,10,12,14,16,18,20,22,24,26,28,30,-1,-1,-1,-1,-1,-1,-1,-1,-1,-1,-1,-1,-1,-1,-1,-1],"split_conditions":[-9.001675E-3,-4.2837903E-2,1.8892217E-2,-5.897282E-2,2E0,2E0,5.6512292E-2,9.2475556E-2,1.1792096E0,-2.3015324E-2,3.253889E-2,6.819028E-3,1.3635809E-3,1.9010891E-1,1.3658499E0,-1.7957578E-3,8.220808E-6,-1.0639862E-3,2.2573127E-4,-4.931345E-4,-1.9234797E-4,-4.2660368E-4,-8.3147344E-4,1.0693681E-4,3.7007E-4,-2.9520044E-4,1.473932E-5,7.33729E-4,-6.9481565E-4,1.6907296E-3,-1.1003979E-3],"split_indices":[47,47,47,47,40,40,47,26,59,48,45,47,48,143,412,0,0,0,0,0,0,0,0,0,0,0,0,0,0,0,0],"split_type":[0,0,0,0,0,0,0,0,0,0,0,0,0,0,0,0,0,0,0,0,0,0,0,0,0,0,0,0,0,0,0],"sum_hessian":[2.566E3,7.32E2,1.834E3,1.61E2,5.71E2,1.342E3,4.92E2,6.1E1,1E2,3.95E2,1.76E2,1.02E3,3.22E2,4.4E2,5.2E1,5.8E1,3E0,9.7E1,3E0,1.5E2,2.45E2,4.9E1,1.27E2,6.22E2,3.98E2,1.26E2,1.96E2,4.38E2,2E0,5E1,2E0],"tree_param":{"num_deleted":"0","num_feature":"494","num_nodes":"31","size_leaf_vector":"1"}},{"base_weights":[2.015165E-3,-2.9533269E-2,1.4643884E-2,-6.054211E-2,-2.042963E-2,6.161211E-3,3.75453E-2,-7.8751594E-2,-4.683264E-2,-1.4276988E-2,-3.3613995E-2,1.2233639E-3,1.411938E-2,3.3167586E-2,6.9572546E-2,-1.8190844E-3,-3.9410854E-5,-1.0639862E-3,2.2573127E-4,-4.931345E-4,-1.9234797E-4,-4.2660368E-4,-8.3147344E-4,1.7430031E-5,8.5997675E-4,3.7007E-4,7.955161E-5,7.345064E-4,-7.520879E-4,1.6907296E-3,-1.1003979E-3],"categories":[],"categories_nodes":[],"categories_segments":[],"categories_sizes":[],"default_left":[0,0,0,0,0,0,0,0,0,0,0,0,0,0,0,0,0,0,0,0,0,0,0,0,0,0,0,0,0,0,0],"id":38,"left_children":[1,3,5,7,9,11,13,15,17,19,21,23,25,27,29,-1,-1,-1,-1,-1,-1,-1,-1,-1,-1,-1,-1,-1,-1,-1,-1],"loss_changes":[1.0256598E0,2.0282042E-1,3.561342E-1,2.6438415E-2,4.472363E-2,5.2823626E-2,6.0312092E-2,2.4029613E-2,1.4592722E-2,1.740852E-2,8.666724E-3,1.336807E-2,1.5393518E-2,2.3320854E-2,7.094556E-2,0E0,0E0,0E0,0E0,0E0,0E0,0E0,0E0,0E0,0E0,0E0,0E0,0E0,0E0,0E0,0E0],"parents":[2147483647,0,0,1,1,2,2,3,3,4,4,5,5,6,6,7,7,8,8,9,9,10,10,11,11,12,12,13,13,14,14],"right_children":[2,4,6,8,10,12,14,16,18,20,22,24,26,28,30,-1,-1,-1,-1,-1,-1,-1,-1,-1,-1,-1,-1,-1,-1,-1,-1],"split_conditions":[-9.001675E-3,-4.2837903E-2,1.8892217E-2,-5.897282E-2,2E0,6.819028E-3,5.6512292E-2,7.543715E-2,1.1792096E0,-2.3015324E-2,3.253889E-2,7.585689E-2,2E0,1.0117263E-1,1.3658499E0,-1.8190844E-3,-3.9410854E-5,-1.0639862E-3,2.2573127E-4,-4.931345E-4,-1.9234797E-4,-4.2660368E-4,-8.3147344E-4,1.7430031E-5,8.5997675E-4,3.7007E-4,7.955161E-5,7.345064E-4,-7.520879E-4,1.6907296E-3,-1.1003979E-3],"split_indices":[47,47,47,47,40,47,47,27,59,47,45,45,40,0,412,0,0,0,0,0,0,0,0,0,0,0,0,0,0,0,0],"split_type":[0,0,0,0,0,0,0,0,0,0,0,0,0,0,0,0,0,0,0,0,0,0,0,0,0,0,0,0,0,0,0],"sum_hessian":[2.566E3,7.32E2,1.834E3,1.61E2,5.71E2,1.342E3,4.92E2,6.1E1,1E2,3.95E2,1.76E2,8.31E2,5.11E2,4.4E2,5.2E1,5.7E1,4E0,9.7E1,3E0,1.5E2,2.45E2,4.9E1,1.27E2,8.26E2,5E0,3.98E2,1.13E2,4.38E2,2E0,5E1,2E0],"tree_param":{"num_deleted":"0","num_feature":"494","num_nodes":"31","size_leaf_vector":"1"}},{"base_weights":[2.015165E-3,-2.9533269E-2,1.4643884E-2,-6.054211E-2,-2.042963E-2,6.161211E-3,3.75453E-2,-7.8751594E-2,-4.683264E-2,-1.4276988E-2,-3.3613995E-2,1.2233639E-3,1.411938E-2,3.3167586E-2,6.9572546E-2,-1.7957578E-3,8.220808E-6,-1.0639862E-3,2.2573127E-4,-4.931345E-4,-1.9234797E-4,-4.2660368E-4,-8.3147344E-4,1.0693681E-4,-2.1002689E-4,-2.7656023E-4,3.1483278E-4,7.345064E-4,-7.520879E-4,1.6907296E-3,-1.1003979E-3],"categories":[],"categories_nodes":[],"categories_segments":[],"categories_sizes":[],"default_left":[0,0,0,0,0,0,0,0,0,0,0,0,0,0,0,0,0,0,0,0,0,0,0,0,0,0,0,0,0,0,0],"id":39,"left_children":[1,3,5,7,9,11,13,15,17,19,21,23,25,27,29,-1,-1,-1,-1,-1,-1,-1,-1,-1,-1,-1,-1,-1,-1,-1,-1],"loss_changes":[1.0256598E0,2.0282042E-1,3.561342E-1,2.6438415E-2,4.472363E-2,5.2823626E-2,6.0312092E-2,1.9943923E-2,1.4592722E-2,1.740852E-2,8.666724E-3,3.3779256E-2,5.7537705E-3,2.3320854E-2,7.094556E-2,0E0,0E0,0E0,0E0,0E0,0E0,0E0,0E0,0E0,0E0,0E0,0E0,0E0,0E0,0E0,0E0],"parents":[2147483647,0,0,1,1,2,2,3,3,4,4,5,5,6,6,7,7,8,8,9,9,10,10,11,11,12,12,13,13,14,14],"right_children":[2,4,6,8,10,12,14,16,18,20,22,24,26,28,30,-1,-1,-1,-1,-1,-1,-1,-1,-1,-1,-1,-1,-1,-1,-1,-1],"split_conditions":[-9.001675E-3,-4.2837903E-2,1.8892217E-2,-5.897282E-2,2E0,6.819028E-3,5.6512292E-2,9.2475556E-2,1.1792096E0,-2.3015324E-2,3.253889E-2,2E0,-1.5824544E-1,1.0117263E-1,1.3658499E0,-1.7957578E-3,8.220808E-6,-1.0639862E-3,2.2573127E-4,-4.931345E-4,-1.9234797E-4,-4.2660368E-4,-8.3147344E-4,1.0693681E-4,-2.1002689E-4,-2.7656023E-4,3.1483278E-4,7.345064E-4,-7.520879E-4,1.6907296E-3,-1.1003979E-3],"split_indices":[47,47,47,47,40,47,47,26,59,48,46,40,141,0,412,0,0,0,0,0,0,0,0,0,0,0,0,0,0,0,0],"split_type":[0,0,0,0,0,0,0,0,0,0,0,0,0,0,0,0,0,0,0,0,0,0,0,0,0,0,0,0,0,0,0],"sum_hessian":[2.566E3,7.32E2,1.834E3,1.61E2,5.71E2,1.342E3,4.92E2,6.1E1,1E2,3.95E2,1.76E2,8.31E2,5.11E2,4.4E2,5.2E1,5.8E1,3E0,9.7E1,3E0,1.5E2,2.45E2,4.9E1,1.27E2,6.22E2,2.09E2,5E0,5.06E2,4.38E2,2E0,5E1,2E0],"tree_param":{"num_deleted":"0","num_feature":"494","num_nodes":"31","size_leaf_vector":"1"}},{"base_weights":[2.015165E-3,-2.9533269E-2,1.4643884E-2,-6.054211E-2,-2.042963E-2,6.161211E-3,3.75453E-2,-7.8751594E-2,-4.683264E-2,-1.4276988E-2,-3.3613995E-2,9.690124E-3,-4.99907E-3,3.3167586E-2,6.9572546E-2,-1.8190844E-3,-3.9410854E-5,-1.0639862E-3,2.2573127E-4,-4.931345E-4,-1.9234797E-4,-4.2660368E-4,-8.3147344E-4,1.0693681E-4,3.7007E-4,-2.9520044E-4,1.473932E-5,7.345064E-4,-7.520879E-4,1.6907296E-3,-1.1003979E-3],"categories":[],"categories_nodes":[],"categories_segments":[],"categories_sizes":[],"default_left":[0,0,0,0,0,0,0,0,0,0,0,0,0,0,0,0,0,0,0,0,0,0,0,0,0,0,0,0,0,0,0],"id":40,"left_children":[1,3,5,7,9,11,13,15,17,19,21,23,25,27,29,-1,-1,-1,-1,-1,-1,-1,-1,-1,-1,-1,-1,-1,-1,-1,-1],"loss_changes":[1.0256598E0,2.0282042E-1,3.561342E-1,2.6438415E-2,4.472363E-2,5.3204164E-2,6.0312092E-2,2.4029613E-2,1.4592722E-2,1.740852E-2,8.666724E-3,3.5491146E-2,1.5916346E-2,2.3320854E-2,7.094556E-2,0E0,0E0,0E0,0E0,0E0,0E0,0E0,0E0,0E0,0E0,0E0,0E0,0E0,0E0,0E0,0E0],"parents":[2147483647,0,0,1,1,2,2,3,3,4,4,5,5,6,6,7,7,8,8,9,9,10,10,11,11,12,12,13,13,14,14],"right_children":[2,4,6,8,10,12,14,16,18,20,22,24,26,28,30,-1,-1,-1,-1,-1,-1,-1,-1,-1,-1,-1,-1,-1,-1,-1,-1],"split_conditions":[-9.001675E-3,-4.2837903E-2,1.8892217E-2,-5.897282E-2,2E0,2E0,5.6512292E-2,7.543715E-2,1.1792096E0,-2.3015324E-2,3.253889E-2,6.819028E-3,1.3635809E-3,1.0117263E-1,1.3658499E0,-1.8190844E-3,-3.9410854E-5,-1.0639862E-3,2.2573127E-4,-4.931345E-4,-1.9234797E-4,-4.2660368E-4,-8.3147344E-4,1.0693681E-4,3.7007E-4,-2.9520044E-4,1.473932E-5,7.345064E-4,-7.520879E-4,1.6907296E-3,-1.1003979E-3],"split_indices":[47,47,47,47,40,40,47,27,59,47,46,48,47,0,412,0,0,0,0,0,0,0,0,0,0,0,0,0,0,0,0],"split_type":[0,0,0,0,0,0,0,0,0,0,0,0,0,0,0,0,0,0,0,0,0,0,0,0,0,0,0,0,0,0,0],"sum_hessian":[2.566E3,7.32E2,1.834E3,1.61E2,5.71E2,1.342E3,4.92E2,6.1E1,1E2,3.95E2,1.76E2,1.02E3,3.22E2,4.4E2,5.2E1,5.7E1,4E0,9.7E1,3E0,1.5E2,2.45E2,4.9E1,1.27E2,6.22E2,3.98E2,1.26E2,1.96E2,4.38E2,2E0,5E1,2E0],"tree_param":{"num_deleted":"0","num_feature":"494","num_nodes":"31","size_leaf_vector":"1"}},{"base_weights":[2.015165E-3,-2.9533269E-2,1.4643884E-2,-6.054211E-2,-2.042963E-2,6.161211E-3,3.75453E-2,-7.8751594E-2,-4.683264E-2,-1.4276988E-2,-3.3613995E-2,1.2233639E-3,1.411938E-2,3.3167586E-2,6.9572546E-2,-1.8190844E-3,-3.9410854E-5,-1.0639862E-3,2.2573127E-4,-4.931345E-4,-1.9234797E-4,-4.2660368E-4,-8.3147344E-4,1.0693681E-4,-2.1002689E-4,3.7007E-4,7.955161E-5,7.345064E-4,-7.520879E-4,1.6907296E-3,-1.1003979E-3],"categories":[],"categories_nodes":[],"categories_segments":[],"categories_sizes":[],"default_left":[0,0,0,0,0,0,0,0,0,0,0,0,0,0,0,0,0,0,0,0,0,0,0,0,0,0,0,0,0,0,0],"id":41,"left_children":[1,3,5,7,9,11,13,15,17,19,21,23,25,27,29,-1,-1,-1,-1,-1,-1,-1,-1,-1,-1,-1,-1,-1,-1,-1,-1],"loss_changes":[1.0256598E0,2.0282042E-1,3.561342E-1,2.6438415E-2,4.472363E-2,5.2823626E-2,6.0312092E-2,2.4029613E-2,1.4592722E-2,1.740852E-2,8.666724E-3,3.3779256E-2,1.5393518E-2,2.3320854E-2,7.094556E-2,0E0,0E0,0E0,0E0,0E0,0E0,0E0,0E0,0E0,0E0,0E0,0E0,0E0,0E0,0E0,0E0],"parents":[2147483647,0,0,1,1,2,2,3,3,4,4,5,5,6,6,7,7,8,8,9,9,10,10,11,11,12,12,13,13,14,14],"right_children":[2,4,6,8,10,12,14,16,18,20,22,24,26,28,30,-1,-1,-1,-1,-1,-1,-1,-1,-1,-1,-1,-1,-1,-1,-1,-1],"split_conditions":[-9.001675E-3,-4.2837903E-2,1.8892217E-2,-5.897282E-2,2E0,6.819028E-3,5.6512292E-2,7.543715E-2,1.1792096E0,-2.3015324E-2,3.253889E-2,2E0,2E0,1.0117263E-1,1.9053904E0,-1.8190844E-3,-3.9410854E-5,-1.0639862E-3,2.2573127E-4,-4.931345E-4,-1.9234797E-4,-4.2660368E-4,-8.3147344E-4,1.0693681E-4,-2.1002689E-4,3.7007E-4,7.955161E-5,7.345064E-4,-7.520879E-4,1.6907296E-3,-1.1003979E-3],"split_indices":[47,47,47,47,40,47,47,27,59,47,45,40,40,0,414,0,0,0,0,0,0,0,0,0,0,0,0,0,0,0,0],"split_type":[0,0,0,0,0,0,0,0,0,0,0,0,0,0,0,0,0,0,0,0,0,0,0,0,0,0,0,0,0,0,0],"sum_hessian":[2.566E3,7.32E2,1.834E3,1.61E2,5.71E2,1.342E3,4.92E2,6.1E1,1E2,3.95E2,1.76E2,8.31E2,5.11E2,4.4E2,5.2E1,5.7E1,4E0,9.7E1,3E0,1.5E2,2.45E2,4.9E1,1.27E2,6.22E2,2.09E2,3.98E2,1.13E2,4.38E2,2E0,5E1,2E0],"tree_param":{"num_deleted":"0","num_feature":"494","num_nodes":"31","size_leaf_vector":"1"}},{"base_weights":[2.015165E-3,-2.9533269E-2,1.4643884E-2,-6.054211E-2,-2.042963E-2,6.161211E-3,3.75453E-2,-7.8751594E-2,-4.683264E-2,-1.4276988E-2,-3.3613995E-2,9.690124E-3,-4.99907E-3,3.3167586E-2,6.9572546E-2,-1.7762299E-3,1.0384226E-4,-1.0639862E-3,2.2573127E-4,-4.931345E-4,-1.9234797E-4,-4.2660368E-4,-8.3147344E-4,1.0693681E-4,3.7007E-4,-2.9520044E-4,1.473932E-5,7.345064E-4,-7.520879E-4,1.6907296E-3,-1.1003979E-3],"categories":[],"categories_nodes":[],"categories_segments":[],"categories_sizes":[],"default_left":[0,0,0,0,0,0,0,0,0,0,0,0,0,0,0,0,0,0,0,0,0,0,0,0,0,0,0,0,0,0,0],"id":42,"left_children":[1,3,5,7,9,11,13,15,17,19,21,23,25,27,29,-1,-1,-1,-1,-1,-1,-1,-1,-1,-1,-1,-1,-1,-1,-1,-1],"loss_changes":[1.0256598E0,2.0282042E-1,3.561342E-1,2.6438415E-2,4.472363E-2,5.3204164E-2,6.0312092E-2,1.7604768E-2,1.4592722E-2,1.740852E-2,8.666724E-3,3.5491146E-2,1.5916346E-2,2.3320854E-2,7.094556E-2,0E0,0E0,0E0,0E0,0E0,0E0,0E0,0E0,0E0,0E0,0E0,0E0,0E0,0E0,0E0,0E0],"parents":[2147483647,0,0,1,1,2,2,3,3,4,4,5,5,6,6,7,7,8,8,9,9,10,10,11,11,12,12,13,13,14,14],"right_children":[2,4,6,8,10,12,14,16,18,20,22,24,26,28,30,-1,-1,-1,-1,-1,-1,-1,-1,-1,-1,-1,-1,-1,-1,-1,-1],"split_conditions":[-9.001675E-3,-4.2837903E-2,1.8892217E-2,-5.897282E-2,2E0,2E0,5.6512292E-2,1.3327776E-1,1.1792096E0,-2.3015324E-2,3.253889E-2,6.819028E-3,1.3635809E-3,1.0117263E-1,1.3658499E0,-1.7762299E-3,1.0384226E-4,-1.0639862E-3,2.2573127E-4,-4.931345E-4,-1.9234797E-4,-4.2660368E-4,-8.3147344E-4,1.0693681E-4,3.7007E-4,-2.9520044E-4,1.473932E-5,7.345064E-4,-7.520879E-4,1.6907296E-3,-1.1003979E-3],"split_indices":[47,47,47,47,40,40,48,1,59,47,46,47,47,0,412,0,0,0,0,0,0,0,0,0,0,0,0,0,0,0,0],"split_type":[0,0,0,0,0,0,0,0,0,0,0,0,0,0,0,0,0,0,0,0,0,0,0,0,0,0,0,0,0,0,0],"sum_hessian":[2.566E3,7.32E2,1.834E3,1.61E2,5.71E2,1.342E3,4.92E2,6.1E1,1E2,3.95E2,1.76E2,1.02E3,3.22E2,4.4E2,5.2E1,5.9E1,2E0,9.7E1,3E0,1.5E2,2.45E2,4.9E1,1.27E2,6.22E2,3.98E2,1.26E2,1.96E2,4.38E2,2E0,5E1,2E0],"tree_param":{"num_deleted":"0","num_feature":"494","num_nodes":"31","size_leaf_vector":"1"}},{"base_weights":[2.015165E-3,-2.9533269E-2,1.4643884E-2,-6.054211E-2,-2.042963E-2,6.161211E-3,3.75453E-2,-7.8751594E-2,-4.683264E-2,-1.4276988E-2,-3.3613995E-2,9.690124E-3,-4.99907E-3,3.3167586E-2,6.9572546E-2,-1.8190844E-3,-3.9410854E-5,-1.0639862E-3,2.2573127E-4,-4.931345E-4,-1.9234797E-4,-4.2660368E-4,-8.3147344E-4,1.0693681E-4,3.7007E-4,-2.9520044E-4,1.473932E-5,7.345064E-4,-7.520879E-4,1.6907296E-3,-1.1003979E-3],"categories":[],"categories_nodes":[],"categories_segments":[],"categories_sizes":[],"default_left":[0,0,0,0,0,0,0,0,0,0,0,0,0,0,0,0,0,0,0,0,0,0,0,0,0,0,0,0,0,0,0],"id":43,"left_children":[1,3,5,7,9,11,13,15,17,19,21,23,25,27,29,-1,-1,-1,-1,-1,-1,-1,-1,-1,-1,-1,-1,-1,-1,-1,-1],"loss_changes":[1.0256598E0,2.0282042E-1,3.561342E-1,2.6438415E-2,4.472363E-2,5.3204164E-2,6.0312092E-2,2.4029613E-2,1.4592722E-2,1.740852E-2,8.666724E-3,3.5491146E-2,1.5916346E-2,2.3320854E-2,7.094556E-2,0E0,0E0,0E0,0E0,0E0,0E0,0E0,0E0,0E0,0E0,0E0,0E0,0E0,0E0,0E0,0E0],"parents":[2147483647,0,0,1,1,2,2,3,3,4,4,5,5,6,6,7,7,8,8,9,9,10,10,11,11,12,12,13,13,14,14],"right_children":[2,4,6,8,10,12,14,16,18,20,22,24,26,28,30,-1,-1,-1,-1,-1,-1,-1,-1,-1,-1,-1,-1,-1,-1,-1,-1],"split_conditions":[-9.001675E-3,-4.2837903E-2,1.8892217E-2,-5.897282E-2,2E0,2E0,5.6512292E-2,7.543715E-2,1.1792096E0,-2.3015324E-2,3.253889E-2,6.819028E-3,1.3635809E-3,1.0117263E-1,1.3658499E0,-1.8190844E-3,-3.9410854E-5,-1.0639862E-3,2.2573127E-4,-4.931345E-4,-1.9234797E-4,-4.2660368E-4,-8.3147344E-4,1.0693681E-4,3.7007E-4,-2.9520044E-4,1.473932E-5,7.345064E-4,-7.520879E-4,1.6907296E-3,-1.1003979E-3],"split_indices":[48,47,47,47,40,40,47,27,59,47,45,47,48,0,412,0,0,0,0,0,0,0,0,0,0,0,0,0,0,0,0],"split_type":[0,0,0,0,0,0,0,0,0,0,0,0,0,0,0,0,0,0,0,0,0,0,0,0,0,0,0,0,0,0,0],"sum_hessian":[2.566E3,7.32E2,1.834E3,1.61E2,5.71E2,1.342E3,4.92E2,6.1E1,1E2,3.95E2,1.76E2,1.02E3,3.22E2,4.4E2,5.2E1,5.7E1,4E0,9.7E1,3E0,1.5E2,2.45E2,4.9E1,1.27E2,6.22E2,3.98E2,1.26E2,1.96E2,4.38E2,2E0,5E1,2E0],"tree_param":{"num_deleted":"0","num_feature":"494","num_nodes":"31","size_leaf_vector":"1"}},{"base_weights":[2.015165E-3,-2.2781838E-2,1.690686E-2,-6.054211E-2,-1.4928952E-2,9.888853E-3,4.438394E-2,-7.8751594E-2,-4.683264E-2,-2.7568966E-2,-7.2820093E-3,2.135997E-3,1.6678521E-2,4.5829188E-2,-1.3749715E-3,-1.8190844E-3,-3.9410854E-5,-1.0639862E-3,2.2573127E-4,-4.491809E-4,-8.639133E-4,-7.3008276E-5,-4.0341733E-4,1.3692751E-4,-2.0440492E-4,2.882987E-4,4.840748E-4,8.5420423E-4,1.6290752E-3],"categories":[],"categories_nodes":[],"categories_segments":[],"categories_sizes":[],"default_left":[0,0,0,0,0,0,0,0,0,0,0,0,0,0,0,0,0,0,0,0,0,0,0,0,0,0,0,0,0],"id":44,"left_children":[1,3,5,7,9,11,13,15,17,19,21,23,25,27,-1,-1,-1,-1,-1,-1,-1,-1,-1,-1,-1,-1,-1,-1,-1],"loss_changes":[9.505629E-1,2.8282988E-1,3.0832192E-1,2.6438415E-2,7.700622E-2,6.755164E-2,6.230575E-2,2.4029613E-2,1.4592722E-2,2.2101998E-2,2.2180215E-2,2.9295933E-2,1.1899635E-2,4.986137E-2,0E0,0E0,0E0,0E0,0E0,0E0,0E0,0E0,0E0,0E0,0E0,0E0,0E0,0E0,0E0],"parents":[2147483647,0,0,1,1,2,2,3,3,4,4,5,5,6,6,7,7,8,8,9,9,10,10,11,11,12,12,13,13],"right_children":[2,4,6,8,10,12,14,16,18,20,22,24,26,28,-1,-1,-1,-1,-1,-1,-1,-1,-1,-1,-1,-1,-1,-1,-1],"split_conditions":[-2.690934E-1,-4.2837903E-2,2.6362533E-2,-5.897282E-2,-1.8603884E-2,6.819028E-3,2.9175656E0,7.543715E-2,1.1792096E0,2E0,2E0,2E0,1.685925E-2,5.6512292E-2,-1.3749715E-3,-1.8190844E-3,-3.9410854E-5,-1.0639862E-3,2.2573127E-4,-4.491809E-4,-8.639133E-4,-7.3008276E-5,-4.0341733E-4,1.3692751E-4,-2.0440492E-4,2.882987E-4,4.840748E-4,8.5420423E-4,1.6290752E-3],"split_indices":[78,48,47,47,47,47,438,27,59,40,40,40,48,47,0,0,0,0,0,0,0,0,0,0,0,0,0,0,0],"split_type":[0,0,0,0,0,0,0,0,0,0,0,0,0,0,0,0,0,0,0,0,0,0,0,0,0,0,0,0,0],"sum_hessian":[2.566E3,9.62E2,1.604E3,1.61E2,8.01E2,1.282E3,3.22E2,6.1E1,1E2,2.98E2,5.03E2,6.01E2,6.81E2,3.2E2,2E0,5.7E1,4E0,9.7E1,3E0,1.97E2,1.01E2,3.77E2,1.26E2,4.43E2,1.58E2,4.31E2,2.5E2,2.69E2,5.1E1],"tree_param":{"num_deleted":"0","num_feature":"494","num_nodes":"29","size_leaf_vector":"1"}},{"base_weights":[2.015165E-3,-2.9533269E-2,1.4643884E-2,-6.054211E-2,-2.042963E-2,6.161211E-3,3.75453E-2,-7.8751594E-2,-4.683264E-2,-1.4276988E-2,-3.3613995E-2,9.690124E-3,-4.99907E-3,2.8376378E-2,4.9695037E-2,-1.8190844E-3,-3.9410854E-5,-1.0639862E-3,2.2573127E-4,-4.7615066E-4,-2.0502972E-4,-4.2660368E-4,-8.3147344E-4,9.3676616E-5,3.3394023E-4,-2.9520044E-4,1.473932E-5,6.958086E-4,3.9191407E-4,1.1308632E-3,-1.3749715E-3],"categories":[],"categories_nodes":[],"categories_segments":[],"categories_sizes":[],"default_left":[0,0,0,0,0,0,0,0,0,0,0,0,0,0,0,0,0,0,0,0,0,0,0,0,0,0,0,0,0,0,0],"id":45,"left_children":[1,3,5,7,9,11,13,15,17,19,21,23,25,27,29,-1,-1,-1,-1,-1,-1,-1,-1,-1,-1,-1,-1,-1,-1,-1,-1],"loss_changes":[1.0256598E0,2.0282042E-1,3.561342E-1,2.6438415E-2,4.472363E-2,5.3204164E-2,4.9613714E-2,2.4029613E-2,1.4592722E-2,1.3917722E-2,8.666724E-3,3.0983947E-2,1.5916346E-2,8.6631775E-3,6.777257E-2,0E0,0E0,0E0,0E0,0E0,0E0,0E0,0E0,0E0,0E0,0E0,0E0,0E0,0E0,0E0,0E0],"parents":[2147483647,0,0,1,1,2,2,3,3,4,4,5,5,6,6,7,7,8,8,9,9,10,10,11,11,12,12,13,13,14,14],"right_children":[2,4,6,8,10,12,14,16,18,20,22,24,26,28,30,-1,-1,-1,-1,-1,-1,-1,-1,-1,-1,-1,-1,-1,-1,-1,-1],"split_conditions":[-9.001675E-3,-4.2837903E-2,1.8892217E-2,-5.897282E-2,2E0,2E0,4.7187872E-2,7.543715E-2,7.125646E-1,-9.9101037E-1,3.253889E-2,1.5419686E-1,1.3635809E-3,2E0,2.265241E0,-1.8190844E-3,-3.9410854E-5,-1.0639862E-3,2.2573127E-4,-4.7615066E-4,-2.0502972E-4,-4.2660368E-4,-8.3147344E-4,9.3676616E-5,3.3394023E-4,-2.9520044E-4,1.473932E-5,6.958086E-4,3.9191407E-4,1.1308632E-3,-1.3749715E-3],"split_indices":[47,47,47,47,40,40,45,27,60,52,45,82,48,40,437,0,0,0,0,0,0,0,0,0,0,0,0,0,0,0,0],"split_type":[0,0,0,0,0,0,0,0,0,0,0,0,0,0,0,0,0,0,0,0,0,0,0,0,0,0,0,0,0,0,0],"sum_hessian":[2.566E3,7.32E2,1.834E3,1.61E2,5.71E2,1.342E3,4.92E2,6.1E1,1E2,3.95E2,1.76E2,1.02E3,3.22E2,2.88E2,2.04E2,5.7E1,4E0,9.7E1,3E0,1.48E2,2.47E2,4.9E1,1.27E2,5.27E2,4.93E2,1.26E2,1.96E2,2.07E2,8.1E1,2.02E2,2E0],"tree_param":{"num_deleted":"0","num_feature":"494","num_nodes":"31","size_leaf_vector":"1"}}]},"name":"gbtree"},"learner_model_param":{"base_score":"0E0","boost_from_average":"0","num_class":"0","num_feature":"494","num_target":"1"},"objective":{"name":"reg:squarederror","reg_loss_param":{"scale_pos_weight":"1"}}},"version":[2,1,1]}