{"learner":{"attributes":{"scikit_learn":"{\"_estimator_type\": \"regressor\"}"},"feature_names":[],"feature_types":[],"gradient_booster":{"model":{"gbtree_model_param":{"num_parallel_tree":"11","num_trees":"11"},"iteration_indptr":[0,11],"tree_info":[0,0,0,0,0,0,0,0,0,0,0],"trees":[{"base_weights":[2.053456E-3,-4.039847E-3,2.2289254E-2,7.363357E-3,-3.48165E-2,3.4636136E-2,-6.5257614E-3,-1.679565E-3,1.5703494E-2,-4.8290633E-2,-2.7576456E-2,2.648956E-2,6.5985434E-2,-8.375237E-3,5.7819015E-3,-1.1033578E-3,-3.726064E-2,1.4726042E-2,6.4073615E-2,-4.998695E-2,5.9190667E-3,-3.0524336E-2,-1.5350063E-2,1.8596262E-2,3.318255E-2,5.2255305E-4,6.724434E-2,-6.6623036E-3,-5.817085E-3,-4.329731E-3,3.7598852E-3,9.144712E-5,-3.7626433E-3,2.3325587E-2,9.904255E-3,7.99001E-3,2.1545531E-2,-3.9954286E-2,-7.5497665E-2,-3.1678263E-2,-5.3285067E-3,-1.789063E-2,2.4605705E-3,1.0619456E-2,2.4535095E-2,2.7710985E-2,4.1208036E-2,6.86661E-2,1.3547579E-3,-3.2624327E-2,-4.180987E-3,-1.7349586E-3,-8.190536E-3,2.183361E-3,1.1301885E-2,1.6729105E-2,3.3987105E-2,1.0908395E-2,-1.3601722E-2,2.233822E-3,-6.0603365E-5,-4.2052094E-2,-1.251238E-2,-4.9228415E-2,-9.76301E-2,-2.1867037E-2,-3.471992E-2,2.7644492E-3,-1.3143757E-3,-2.5949918E-2,-1.2091674E-2,-4.824474E-3,1.1052593E-3,1.1963859E-2,-9.6354925E-4,5.3729495E-4,2.5195194E-2,-2.359486E-3,2.8305847E-2,8.270699E-4,4.230387E-2,6.918876E-2,6.340635E-4,-3.7207715E-2,-1.1329153E-3,-2.213856E-2,1.3655209E-4,-2.0691862E-4,1.0948735E-3,5.816588E-4,-8.407961E-4,-6.236297E-4,2.5986592E-4,1.2090917E-3,-3.114975E-4,3.3275722E-4,1.6918432E-3,4.6477126E-4,3.2763353E-3,6.8375707E-4,1.4849318E-3,-3.225894E-3,4.4942962E-4,-1.9183918E-3,-4.107318E-3,-4.296793E-5,-1.5624072E-3,-1.8997239E-3,-5.806621E-3,-1.4369793E-3,-9.378608E-3,-8.1294915E-4,-2.15981E-3,-2.0510827E-3,-3.4537246E-3,4.125511E-4,-3.402654E-4,-3.420583E-4,-2.587488E-3,-4.2539142E-4,-1.5166722E-3,-5.440263E-4,-2.7822562E-5,1.1905074E-3,-6.222055E-4,3.5310924E-4,2.3477345E-3,1.3555333E-4,-4.0367674E-4,2.643269E-3,6.6315243E-4,6.3773774E-4,3.9196247E-3,6.396224E-4,6.338347E-3,-4.142963E-4,-3.5262976E-3,-2.7492983E-4,1.4618947E-4,-3.3200209E-3,-8.2667924E-5,-2.881054E-4,1.3170843E-3],"categories":[],"categories_nodes":[],"categories_segments":[],"categories_sizes":[],"default_left":[0,0,0,0,0,0,0,0,0,0,0,0,0,0,0,0,0,0,0,0,0,0,0,0,0,0,0,0,0,0,0,0,0,0,0,0,0,0,0,0,0,0,0,0,0,0,0,0,0,0,0,0,0,0,0,0,0,0,0,0,0,0,0,0,0,0,0,0,0,0,0,0,0,0,0,0,0,0,0,0,0,0,0,0,0,0,0,0,0,0,0,0,0,0,0,0,0,0,0,0,0,0,0,0,0,0,0,0,0,0,0,0,0,0,0,0,0,0,0,0,0,0,0,0,0,0,0,0,0,0,0,0,0,0,0,0,0,0,0,0,0,0,0],"id":0,"left_children":[1,3,5,7,9,11,13,15,17,19,21,23,25,27,-1,29,31,33,35,37,-1,39,41,43,45,-1,47,49,-1,51,53,-1,-1,55,57,-1,59,61,63,65,67,69,71,73,75,77,79,81,-1,83,85,87,89,91,93,95,97,99,101,-1,-1,103,105,107,109,111,113,115,-1,117,119,121,-1,123,-1,-1,125,127,129,-1,131,133,-1,135,137,139,141,-1,-1,-1,-1,-1,-1,-1,-1,-1,-1,-1,-1,-1,-1,-1,-1,-1,-1,-1,-1,-1,-1,-1,-1,-1,-1,-1,-1,-1,-1,-1,-1,-1,-1,-1,-1,-1,-1,-1,-1,-1,-1,-1,-1,-1,-1,-1,-1,-1,-1,-1,-1,-1,-1,-1,-1],"loss_changes":[3.1703514E-1,6.946021E-1,2.1236455E-1,1.09059885E-1,4.819596E-2,1.0125369E-1,2.5073275E-2,1.4146106E-2,3.272353E-2,4.496631E-2,1.13892555E-2,1.5899599E-2,5.2103996E-3,1.5772771E-2,0E0,1.0843997E-2,1.8626908E-3,3.003262E-2,8.499254E-3,3.7531793E-2,0E0,7.721573E-3,3.525747E-3,6.8453997E-3,4.3905675E-3,0E0,3.032416E-3,1.0993134E-2,0E0,4.114802E-3,3.2076526E-3,0E0,0E0,1.6861007E-2,1.17747E-2,0E0,6.541703E-4,6.3082874E-3,1.3488799E-2,5.779773E-3,1.3020767E-3,2.143206E-3,1.0237072E-3,2.4913568E-3,6.597489E-4,2.2574514E-3,1.1677667E-3,1.0994971E-3,0E0,2.0386E-3,1.2801934E-2,1.961204E-3,2.740262E-3,1.4753512E-3,1.519883E-3,3.9504394E-3,5.255446E-3,8.121945E-3,9.048755E-3,0E0,0E0,5.397737E-3,7.634789E-4,7.612884E-3,5.523622E-3,1.1222325E-3,5.4222047E-3,1.7791387E-4,0E0,1.0723285E-3,1.2633633E-3,4.1670442E-5,0E0,1.7801644E-3,0E0,0E0,8.534901E-4,5.992766E-5,1.1921376E-3,0E0,8.9785457E-4,1.1125803E-3,0E0,1.4098361E-4,4.0510076E-5,9.6703395E-3,6.5897885E-3,0E0,0E0,0E0,0E0,0E0,0E0,0E0,0E0,0E0,0E0,0E0,0E0,0E0,0E0,0E0,0E0,0E0,0E0,0E0,0E0,0E0,0E0,0E0,0E0,0E0,0E0,0E0,0E0,0E0,0E0,0E0,0E0,0E0,0E0,0E0,0E0,0E0,0E0,0E0,0E0,0E0,0E0,0E0,0E0,0E0,0E0,0E0,0E0,0E0,0E0,0E0,0E0,0E0,0E0,0E0,0E0],"parents":[2147483647,0,0,1,1,2,2,3,3,4,4,5,5,6,6,7,7,8,8,9,9,10,10,11,11,12,12,13,13,15,15,16,16,17,17,18,18,19,19,21,21,22,22,23,23,24,24,26,26,27,27,29,29,30,30,33,33,34,34,36,36,37,37,38,38,39,39,40,40,41,41,42,42,43,43,44,44,45,45,46,46,47,47,49,49,50,50,51,51,52,52,53,53,54,54,55,55,56,56,57,57,58,58,61,61,62,62,63,63,64,64,65,65,66,66,67,67,69,69,70,70,71,71,73,73,76,76,77,77,78,78,80,80,81,81,83,83,84,84,85,85,86,86],"right_children":[2,4,6,8,10,12,14,16,18,20,22,24,26,28,-1,30,32,34,36,38,-1,40,42,44,46,-1,48,50,-1,52,54,-1,-1,56,58,-1,60,62,64,66,68,70,72,74,76,78,80,82,-1,84,86,88,90,92,94,96,98,100,102,-1,-1,104,106,108,110,112,114,116,-1,118,120,122,-1,124,-1,-1,126,128,130,-1,132,134,-1,136,138,140,142,-1,-1,-1,-1,-1,-1,-1,-1,-1,-1,-1,-1,-1,-1,-1,-1,-1,-1,-1,-1,-1,-1,-1,-1,-1,-1,-1,-1,-1,-1,-1,-1,-1,-1,-1,-1,-1,-1,-1,-1,-1,-1,-1,-1,-1,-1,-1,-1,-1,-1,-1,-1,-1,-1,-1,-1],"split_conditions":[1.6265124E-2,2E0,2E0,1E0,-1.4224306E-2,5.759391E-2,2.7775598E-1,3.302E1,1.07978076E-1,1.6597429E-1,8.965897E-3,1E0,-1.6676758E-1,2.9175656E0,5.7819015E-3,3.2535961E-3,-7.9984665E-2,-1.0628951E-1,-3.3453974E-1,2.468E1,5.9190667E-3,2.3939585E-2,1.193181E0,2.2753756E-2,2.7639259E-2,5.2255305E-4,1.2095975E-1,-1.3252615E0,-5.817085E-3,1.522E1,2.9033673E-1,9.144712E-5,-3.7626433E-3,3.166768E-2,2.0678824E-1,7.99001E-3,-3.8804304E-2,-1.2481472E-1,8.26282E-3,5.936397E-2,1.2798155E-2,3.4185147E-1,6.4229596E-1,7.202489E-2,-1.7374992E0,-1.878675E0,-2.3500254E0,1.7437524E0,1.3547579E-3,4.2742554E-2,1.0405914E-1,2.1270157E-1,-1.6300861E0,-5.4960556E-2,1.0898815E0,-3.8140847E-3,-1.0143331E-1,-3.9076146E-1,-7.575258E-2,2.233822E-3,-6.0603365E-5,-9.0397364E-1,-1.86901E0,-1.4289216E0,-9.209107E-2,-9.8527366E-1,1.8642966E-2,5.954954E-2,-1.3143757E-3,-7.3757946E-1,-3.1617162E-1,2.6670888E-3,1.1052593E-3,1.8095268E0,-9.6354925E-4,5.3729495E-4,-3.7355937E-2,-9.1195E-3,9.0798706E-2,8.270699E-4,-1.7086827E0,-9.441444E-2,6.340635E-4,-5.5286895E-2,2.7798924E-3,5.675542E-3,1.3178155E0,-2.0691862E-4,1.0948735E-3,5.816588E-4,-8.407961E-4,-6.236297E-4,2.5986592E-4,1.2090917E-3,-3.114975E-4,3.3275722E-4,1.6918432E-3,4.6477126E-4,3.2763353E-3,6.8375707E-4,1.4849318E-3,-3.225894E-3,4.4942962E-4,-1.9183918E-3,-4.107318E-3,-4.296793E-5,-1.5624072E-3,-1.8997239E-3,-5.806621E-3,-1.4369793E-3,-9.378608E-3,-8.1294915E-4,-2.15981E-3,-2.0510827E-3,-3.4537246E-3,4.125511E-4,-3.402654E-4,-3.420583E-4,-2.587488E-3,-4.2539142E-4,-1.5166722E-3,-5.440263E-4,-2.7822562E-5,1.1905074E-3,-6.222055E-4,3.5310924E-4,2.3477345E-3,1.3555333E-4,-4.0367674E-4,2.643269E-3,6.6315243E-4,6.3773774E-4,3.9196247E-3,6.396224E-4,6.338347E-3,-4.142963E-4,-3.5262976E-3,-2.7492983E-4,1.4618947E-4,-3.3200209E-3,-8.2667924E-5,-2.881054E-4,1.3170843E-3],"split_indices":[47,40,40,40,41,45,144,191,3,1,47,40,1,438,0,47,10,177,133,191,0,0,435,48,47,0,21,485,0,191,71,0,0,46,147,0,1,81,320,447,17,79,51,196,234,210,380,234,0,37,51,145,202,7,113,399,141,76,48,0,0,486,61,59,29,118,45,1,0,261,322,10,0,280,0,0,26,0,196,0,422,30,0,24,1,345,68,0,0,0,0,0,0,0,0,0,0,0,0,0,0,0,0,0,0,0,0,0,0,0,0,0,0,0,0,0,0,0,0,0,0,0,0,0,0,0,0,0,0,0,0,0,0,0,0,0,0,0,0,0,0,0,0],"split_type":[0,0,0,0,0,0,0,0,0,0,0,0,0,0,0,0,0,0,0,0,0,0,0,0,0,0,0,0,0,0,0,0,0,0,0,0,0,0,0,0,0,0,0,0,0,0,0,0,0,0,0,0,0,0,0,0,0,0,0,0,0,0,0,0,0,0,0,0,0,0,0,0,0,0,0,0,0,0,0,0,0,0,0,0,0,0,0,0,0,0,0,0,0,0,0,0,0,0,0,0,0,0,0,0,0,0,0,0,0,0,0,0,0,0,0,0,0,0,0,0,0,0,0,0,0,0,0,0,0,0,0,0,0,0,0,0,0,0,0,0,0,0,0],"sum_hessian":[2.566E3,1.974E3,5.92E2,1.442E3,5.32E2,4.14E2,1.78E2,6.93E2,7.49E2,1.8E2,3.52E2,3.33E2,8.1E1,1.76E2,2E0,6.85E2,8E0,7.38E2,1.1E1,1.79E2,1E0,2.8E2,7.2E1,1.58E2,1.75E2,2E0,7.9E1,1.74E2,2E0,4.12E2,2.73E2,1E0,7E0,2.61E2,4.77E2,5E0,6E0,1.34E2,4.5E1,2.67E2,1.3E1,6.3E1,9E0,7.1E1,8.7E1,1.12E2,6.3E1,7.6E1,3E0,1.2E1,1.62E2,2.49E2,1.63E2,2.29E2,4.4E1,1.66E2,9.5E1,4.59E2,1.8E1,5E0,1E0,1.23E2,1.1E1,2.5E1,2E1,6.9E1,1.98E2,8E0,5E0,2.2E1,4.1E1,6E0,3E0,6.8E1,3E0,4E0,8.3E1,2E0,1.1E2,3E0,6E1,7.5E1,1E0,1E1,2E0,2.9E1,1.33E2,2.42E2,7E0,1E1,1.53E2,1.4E1,2.15E2,3.9E1,5E0,2.2E1,1.44E2,7E0,8.8E1,2.87E2,1.72E2,7E0,1.1E1,1.9E1,1.04E2,4E0,7E0,1.1E1,1.4E1,2E0,1.8E1,1.1E1,5.8E1,4.7E1,1.51E2,7E0,1E0,3E0,1.9E1,1.8E1,2.3E1,4E0,2E0,6.5E1,3E0,3E0,8E1,1E0,1E0,1.05E2,5E0,2E0,5.8E1,1E0,7.4E1,1E0,9E0,1E0,1E0,1.6E1,1.3E1,1.1E2,2.3E1],"tree_param":{"num_deleted":"0","num_feature":"494","num_nodes":"143","size_leaf_vector":"1"}},{"base_weights":[2.053456E-3,1.349291E-2,-2.7781194E-2,8.251106E-3,3.970664E-2,-3.721729E-2,-1.0604108E-2,-9.889384E-4,1.668687E-2,3.0681279E-2,6.1678898E-2,-3.7867192E-2,5.9190667E-3,-1.43153425E-2,2.0054778E-2,-5.216798E-3,4.539924E-3,2.5572212E-2,1.1441176E-2,2.2436138E-2,3.7211742E-2,4.3117784E-2,7.687832E-2,-3.3623807E-2,-6.712562E-2,-1.1145506E-2,-5.482024E-2,5.0002886E-3,5.898465E-3,-3.7682962E-3,-2.5247272E-2,1.298664E-3,7.962818E-3,2.3285482E-2,7.44418E-2,4.647248E-3,1.5196267E-2,1.9320298E-2,3.1474715E-3,3.8828094E-2,1.4823244E-2,3.8418468E-4,4.3700308E-2,2.0095916E-2,7.368124E-3,-3.9337363E-2,-2.8356658E-2,-7.754795E-2,-1.9985668E-2,-1.2606815E-2,1.7091999E-2,-5.660829E-3,-1.0185684E-1,-6.449949E-3,1.805397E-3,-1.7349586E-3,-7.1313577E-3,-3.4157634E-2,1.0386653E-3,-1.5627522E-3,4.2152363E-3,9.162228E-3,-3.5315359E-3,1.478862E-2,2.9911894E-2,1.6933763E-3,7.894331E-3,-2.1853901E-2,8.014606E-3,1.3849054E-2,4.3224907E-3,2.038461E-2,5.9236567E-3,4.0012557E-2,1.4861272E-2,2.4001459E-3,1.620921E-3,8.321762E-4,4.06077E-3,1.3316298E-4,2.0426097E-3,-4.0333025E-2,-9.614194E-3,-2.9742053E-2,-1.0847605E-2,-2.1443577E-2,-8.471362E-2,-2.692306E-3,2.3363284E-3,-3.4142307E-3,-1.0786882E-2,-1.2467639E-3,2.147319E-3,2.7646075E-4,-1.1936657E-2,-1.1258582E-3,-9.939182E-3,-1.4135133E-2,8.391031E-3,-2.0691862E-4,1.0948735E-3,7.182104E-4,-7.411192E-4,-3.1048438E-4,-3.7080375E-3,-5.334658E-4,5.9214805E-4,-4.7902754E-6,-1.0102988E-3,6.2105816E-4,-2.6217537E-4,-1.3914009E-4,9.251608E-4,3.2164188E-4,-1.1646914E-3,1.4984772E-3,3.627941E-4,2.7894177E-3,-4.7607633E-4,-3.1281894E-3,7.8953135E-6,1.8850362E-3,5.44418E-4,1.4584179E-3,5.676882E-4,1.9178758E-3,3.191755E-4,5.8860175E-4,9.409758E-6,5.4236833E-4,3.682242E-3,1.5968955E-3,-2.1545321E-4,2.1597662E-5,2.4455597E-4,-3.7203766E-3,-2.48056E-4,-1.0849464E-3,2.5608545E-4,-2.3150947E-3,-3.5414554E-3,-1.2057254E-3,1.6566555E-4,-2.103453E-3,-1.7928019E-4,-8.085592E-3,-3.1314956E-4,3.3342117E-4,-1.2844315E-4,-2.269699E-3,-6.8334537E-4,1.8906135E-4,-2.872597E-4,-1.2512994E-4,-1.1825891E-3,-1.434787E-4,-1.4908599E-3,8.786469E-4,1.6966522E-5],"categories":[],"categories_nodes":[],"categories_segments":[],"categories_sizes":[],"default_left":[0,0,0,0,0,0,0,0,0,0,0,0,0,0,0,0,0,0,0,0,0,0,0,0,0,0,0,0,0,0,0,0,0,0,0,0,0,0,0,0,0,0,0,0,0,0,0,0,0,0,0,0,0,0,0,0,0,0,0,0,0,0,0,0,0,0,0,0,0,0,0,0,0,0,0,0,0,0,0,0,0,0,0,0,0,0,0,0,0,0,0,0,0,0,0,0,0,0,0,0,0,0,0,0,0,0,0,0,0,0,0,0,0,0,0,0,0,0,0,0,0,0,0,0,0,0,0,0,0,0,0,0,0,0,0,0,0,0,0,0,0,0,0,0,0,0,0,0,0,0,0,0,0,0,0,0,0,0,0],"id":1,"left_children":[1,3,5,7,9,11,13,15,17,19,21,23,-1,25,27,29,31,33,35,37,39,41,43,45,47,49,51,-1,53,55,57,59,61,63,65,67,69,71,-1,73,75,-1,77,79,-1,81,83,85,87,89,91,93,95,97,-1,99,101,103,105,107,109,111,113,115,117,-1,-1,119,121,123,-1,125,127,129,131,133,-1,-1,-1,-1,-1,135,137,139,141,143,145,-1,147,-1,149,151,-1,-1,153,-1,-1,155,157,-1,-1,-1,-1,-1,-1,-1,-1,-1,-1,-1,-1,-1,-1,-1,-1,-1,-1,-1,-1,-1,-1,-1,-1,-1,-1,-1,-1,-1,-1,-1,-1,-1,-1,-1,-1,-1,-1,-1,-1,-1,-1,-1,-1,-1,-1,-1,-1,-1,-1,-1,-1,-1,-1,-1,-1,-1,-1,-1,-1],"loss_changes":[8.7790394E-1,2.5445718E-1,1.14382386E-1,1.2110094E-1,5.559984E-2,3.792125E-2,3.0103331E-2,1.746224E-2,3.6969423E-2,9.610355E-3,1.459983E-2,5.0091922E-2,0E0,2.7825993E-2,1.337417E-2,1.198758E-2,3.5635908E-3,2.8213471E-2,1.2952231E-2,2.0560361E-3,2.652064E-3,4.881099E-4,5.534798E-3,8.871764E-3,2.2372425E-2,9.641917E-3,3.5266884E-2,0E0,4.5217555E-3,2.6845015E-3,6.6645164E-3,1.4385018E-3,2.2615418E-3,1.5000999E-2,3.44982E-3,1.7302357E-2,1.2450792E-2,9.4949827E-4,0E0,1.3671219E-3,3.5722833E-4,0E0,2.7842075E-4,2.1071802E-4,0E0,4.3708086E-3,4.417151E-3,1.2239397E-2,3.2169311E-3,8.274674E-3,1.5250451E-3,7.096282E-4,1.2878329E-3,2.0666597E-3,0E0,1.961204E-3,2.4798643E-3,3.8628355E-3,4.928124E-4,1.2673679E-3,1.6379199E-3,1.5980266E-3,1.2512926E-3,2.2363495E-3,4.8219413E-3,0E0,0E0,6.0697915E-3,3.9830143E-3,5.0706677E-3,0E0,7.8700855E-4,3.326306E-5,1.0175109E-3,5.9092534E-4,1.8451756E-6,0E0,0E0,0E0,0E0,0E0,3.6661625E-3,3.8928486E-4,5.061224E-3,7.1516307E-4,1.600436E-4,1.2137592E-2,0E0,5.0485032E-5,0E0,8.66445E-3,5.7897138E-5,0E0,0E0,2.5515095E-5,0E0,0E0,2.3511308E-4,6.776024E-5,0E0,0E0,0E0,0E0,0E0,0E0,0E0,0E0,0E0,0E0,0E0,0E0,0E0,0E0,0E0,0E0,0E0,0E0,0E0,0E0,0E0,0E0,0E0,0E0,0E0,0E0,0E0,0E0,0E0,0E0,0E0,0E0,0E0,0E0,0E0,0E0,0E0,0E0,0E0,0E0,0E0,0E0,0E0,0E0,0E0,0E0,0E0,0E0,0E0,0E0,0E0,0E0,0E0,0E0,0E0,0E0,0E0,0E0,0E0,0E0],"parents":[2147483647,0,0,1,1,2,2,3,3,4,4,5,5,6,6,7,7,8,8,9,9,10,10,11,11,13,13,14,14,15,15,16,16,17,17,18,18,19,19,20,20,21,21,22,22,23,23,24,24,25,25,26,26,28,28,29,29,30,30,31,31,32,32,33,33,34,34,35,35,36,36,37,37,39,39,40,40,42,42,43,43,45,45,46,46,47,47,48,48,49,49,50,50,51,51,52,52,53,53,55,55,56,56,57,57,58,58,59,59,60,60,61,61,62,62,63,63,64,64,67,67,68,68,69,69,71,71,72,72,73,73,74,74,75,75,81,81,82,82,83,83,84,84,85,85,86,86,88,88,90,90,91,91,94,94,97,97,98,98],"right_children":[2,4,6,8,10,12,14,16,18,20,22,24,-1,26,28,30,32,34,36,38,40,42,44,46,48,50,52,-1,54,56,58,60,62,64,66,68,70,72,-1,74,76,-1,78,80,-1,82,84,86,88,90,92,94,96,98,-1,100,102,104,106,108,110,112,114,116,118,-1,-1,120,122,124,-1,126,128,130,132,134,-1,-1,-1,-1,-1,136,138,140,142,144,146,-1,148,-1,150,152,-1,-1,154,-1,-1,156,158,-1,-1,-1,-1,-1,-1,-1,-1,-1,-1,-1,-1,-1,-1,-1,-1,-1,-1,-1,-1,-1,-1,-1,-1,-1,-1,-1,-1,-1,-1,-1,-1,-1,-1,-1,-1,-1,-1,-1,-1,-1,-1,-1,-1,-1,-1,-1,-1,-1,-1,-1,-1,-1,-1,-1,-1,-1,-1,-1,-1],"split_conditions":[2E0,2.0550812E-2,8.965897E-3,1E0,3.9156117E-2,1.9016653E-1,1.5107614E0,3.2535961E-3,-1.4575636E-1,1E0,6.794644E-2,2.552E1,5.9190667E-3,8.2934305E-2,-4.1399454E-3,2.523E1,-5.661745E-1,7.9242274E-2,-9.313493E-1,4.9005844E-2,3.1253424E-2,-7.955918E-2,-1.7690204E0,-8.721688E-3,9.027463E-1,7.770515E-2,4.5346433E-1,5.0002886E-3,1.2482852E0,1.522E1,3.5262653E-1,3.4033173E-1,5.4134578E-2,2.5442706E-2,-5.2666362E-2,-1.837249E-2,9.79122E-2,6.1244833E-1,3.1474715E-3,1.474287E0,-1.676284E-2,3.8418468E-4,-1.0924964E0,-2.178727E-2,7.368124E-3,1.8041056E0,1.0303606E0,-9.809826E-1,-2.388486E-1,-1.5697814E0,-1.8541113E-2,-1.7523421E-2,1.4184716E-2,1.7412126E-2,1.805397E-3,2.1270157E-1,-1.6300861E0,-1.1743064E0,-4.3037274E-1,3.2226097E-2,5.91362E-2,-5.2777313E-2,-2.9447103E-2,8.450719E-3,2.4261456E0,1.6933763E-3,7.894331E-3,7.3913736E-3,-2.8378423E-2,8.946717E-1,4.3224907E-3,2.3763396E-2,7.510921E-2,-2.4230132E0,1.6526358E-2,-5.128308E-2,1.620921E-3,8.321762E-4,4.06077E-3,1.3316298E-4,2.0426097E-3,2.0293922E0,3.1603668E-2,3.8889285E-2,2.2229271E-2,1.6336057E-2,3.997435E-2,-2.692306E-3,4.6541067E-3,-3.4142307E-3,3.4905085E-3,-6.113984E-2,2.147319E-3,2.7646075E-4,-1.01352766E-1,-1.1258582E-3,-9.939182E-3,-3.8804304E-2,-1.5140372E-2,-2.0691862E-4,1.0948735E-3,7.182104E-4,-7.411192E-4,-3.1048438E-4,-3.7080375E-3,-5.334658E-4,5.9214805E-4,-4.7902754E-6,-1.0102988E-3,6.2105816E-4,-2.6217537E-4,-1.3914009E-4,9.251608E-4,3.2164188E-4,-1.1646914E-3,1.4984772E-3,3.627941E-4,2.7894177E-3,-4.7607633E-4,-3.1281894E-3,7.8953135E-6,1.8850362E-3,5.44418E-4,1.4584179E-3,5.676882E-4,1.9178758E-3,3.191755E-4,5.8860175E-4,9.409758E-6,5.4236833E-4,3.682242E-3,1.5968955E-3,-2.1545321E-4,2.1597662E-5,2.4455597E-4,-3.7203766E-3,-2.48056E-4,-1.0849464E-3,2.5608545E-4,-2.3150947E-3,-3.5414554E-3,-1.2057254E-3,1.6566555E-4,-2.103453E-3,-1.7928019E-4,-8.085592E-3,-3.1314956E-4,3.3342117E-4,-1.2844315E-4,-2.269699E-3,-6.8334537E-4,1.8906135E-4,-2.872597E-4,-1.2512994E-4,-1.1825891E-3,-1.434787E-4,-1.4908599E-3,8.786469E-4,1.6966522E-5],"split_indices":[40,47,47,40,48,45,170,47,177,40,45,191,0,3,399,191,70,46,51,45,49,24,227,47,276,15,277,0,53,191,492,82,445,46,42,194,3,175,0,226,26,0,67,0,0,419,86,270,53,486,21,10,2,6,0,145,202,485,76,345,153,29,141,246,380,0,0,18,49,84,0,18,13,380,6,0,0,0,0,0,0,204,11,196,29,3,199,0,1,0,41,0,0,0,1,0,0,13,19,0,0,0,0,0,0,0,0,0,0,0,0,0,0,0,0,0,0,0,0,0,0,0,0,0,0,0,0,0,0,0,0,0,0,0,0,0,0,0,0,0,0,0,0,0,0,0,0,0,0,0,0,0,0,0,0,0,0,0,0],"split_type":[0,0,0,0,0,0,0,0,0,0,0,0,0,0,0,0,0,0,0,0,0,0,0,0,0,0,0,0,0,0,0,0,0,0,0,0,0,0,0,0,0,0,0,0,0,0,0,0,0,0,0,0,0,0,0,0,0,0,0,0,0,0,0,0,0,0,0,0,0,0,0,0,0,0,0,0,0,0,0,0,0,0,0,0,0,0,0,0,0,0,0,0,0,0,0,0,0,0,0,0,0,0,0,0,0,0,0,0,0,0,0,0,0,0,0,0,0,0,0,0,0,0,0,0,0,0,0,0,0,0,0,0,0,0,0,0,0,0,0,0,0,0,0,0,0,0,0,0,0,0,0,0,0,0,0,0,0,0,0],"sum_hessian":[2.566E3,1.856E3,7.1E2,1.55E3,3.06E2,4.56E2,2.54E2,7.41E2,8.09E2,2.22E2,8.4E1,4.55E2,1E0,2.28E2,2.6E1,4.2E2,3.21E2,2.96E2,5.13E2,1.04E2,1.18E2,4.3E1,4.1E1,4.03E2,5.2E1,2.15E2,1.3E1,5E0,2.1E1,3.95E2,2.5E1,1.67E2,1.54E2,2.87E2,9E0,1.85E2,3.28E2,8.9E1,1.5E1,1.08E2,1E1,1E0,4.2E1,4E0,3.7E1,1.84E2,2.19E2,4.1E1,1.1E1,2.06E2,9E0,8E0,5E0,1.2E1,9E0,2.49E2,1.46E2,1.8E1,7E0,8.5E1,8.2E1,1.4E2,1.4E1,1.3E2,1.57E2,3E0,6E0,1.9E1,1.66E2,3.19E2,9E0,8.1E1,8E0,1.01E2,7E0,3E0,7E0,2E0,4E1,1E0,3E0,1.77E2,7E0,2.01E2,1.8E1,6E0,3.5E1,7E0,4E0,1E1,1.96E2,3E0,6E0,4E0,4E0,1E0,4E0,8E0,4E0,2.42E2,7E0,8E0,1.38E2,4E0,1.4E1,3E0,4E0,7.6E1,9E0,6E1,2.2E1,1.2E1,1.28E2,9E0,5E0,1.11E2,1.9E1,1.54E2,3E0,1.1E1,8E0,1.9E1,1.47E2,2.45E2,7.4E1,7.7E1,4E0,7E0,1E0,2E0,9.9E1,6E0,1E0,1E0,2E0,1.74E2,3E0,6E0,1E0,1.45E2,5.6E1,1.5E1,3E0,5E0,1E0,3.3E1,2E0,3E0,1E0,3.3E1,1.63E2,1E0,2E0,1E0,3E0,2E0,6E0,3E0,1E0],"tree_param":{"num_deleted":"0","num_feature":"494","num_nodes":"159","size_leaf_vector":"1"}},{"base_weights":[2.053456E-3,1.349291E-2,-2.7781194E-2,8.251106E-3,3.970664E-2,-3.721729E-2,-1.0604108E-2,-9.889384E-4,1.668687E-2,3.1849355E-2,7.2062336E-2,-3.7867192E-2,5.9190667E-3,-1.43153425E-2,2.0054778E-2,-5.216798E-3,4.539924E-3,2.5572212E-2,1.1441176E-2,2.3555674E-2,3.8525734E-2,8.121041E-4,7.383839E-2,-5.3236663E-2,-3.200089E-2,-1.1145506E-2,-5.482024E-2,5.0002886E-3,5.898465E-3,-3.732154E-3,-2.4292419E-2,1.298664E-3,7.962818E-3,2.3285482E-2,7.44418E-2,1.0518892E-2,4.3224907E-3,1.8425526E-2,3.1277142E-2,3.1732146E-2,4.7079023E-2,6.7801233E-3,7.494376E-4,-4.6776857E-2,-8.276383E-2,-2.8924905E-2,-4.2202458E-2,-1.2606815E-2,1.7091999E-2,-5.660829E-3,-1.0185684E-1,1.9023204E-2,-7.552749E-3,-1.7349586E-3,-7.0797508E-3,-3.32258E-2,1.9955203E-4,-1.5627522E-3,4.2152363E-3,9.043248E-3,-2.5307047E-3,1.478862E-2,2.9911894E-2,1.6933763E-3,7.894331E-3,6.2809684E-3,1.6983401E-2,1.9603629E-2,5.6891707E-3,3.216602E-2,4.585726E-4,3.3490796E-2,1.0767371E-2,3.870951E-4,4.7645945E-2,-4.062704E-2,-6.743452E-2,-7.804004E-3,-6.9091324E-4,-2.0585833E-3,-2.982767E-2,-4.6967134E-2,-9.739587E-3,-3.4142307E-3,-1.0786882E-2,-1.2467639E-3,2.147319E-3,2.7646075E-4,-1.1936657E-2,-1.1258582E-3,-9.939182E-3,1.8678418E-3,1.6966522E-5,7.2242673E-3,-1.3553099E-2,-2.0691862E-4,1.0948735E-3,7.182104E-4,-7.3749304E-4,-3.8148844E-4,-3.729394E-3,7.450346E-4,-9.601209E-4,-4.7902754E-6,-1.0102988E-3,6.2105816E-4,-2.6217537E-4,9.30977E-4,-8.904575E-5,5.7988305E-4,-9.70992E-4,1.4984772E-3,3.627941E-4,2.7894177E-3,-4.7607633E-4,-2.4649003E-3,6.6522736E-4,1.8647204E-3,8.437154E-4,3.4688515E-4,1.8512716E-3,-9.202063E-5,6.832527E-4,2.9666063E-3,2.962128E-4,3.10156E-3,3.6371505E-4,-3.5452646E-5,1.3725109E-3,8.321762E-4,4.4197245E-3,-2.066588E-3,-4.1909874E-3,-7.4805566E-3,-2.5360994E-3,3.1977898E-4,-8.539564E-4,-2.7648266E-3,-2.9982466E-4,-7.830427E-5,-4.4788816E-3,-1.5426051E-3,1.03802486E-4,-2.269699E-3,-6.8334537E-4,1.8906135E-4,-2.872597E-4,-1.2512994E-4,-1.1825891E-3,7.930496E-4,-6.1845567E-6,-1.4908599E-3,-2.7072074E-5],"categories":[],"categories_nodes":[],"categories_segments":[],"categories_sizes":[],"default_left":[0,0,0,0,0,0,0,0,0,0,0,0,0,0,0,0,0,0,0,0,0,0,0,0,0,0,0,0,0,0,0,0,0,0,0,0,0,0,0,0,0,0,0,0,0,0,0,0,0,0,0,0,0,0,0,0,0,0,0,0,0,0,0,0,0,0,0,0,0,0,0,0,0,0,0,0,0,0,0,0,0,0,0,0,0,0,0,0,0,0,0,0,0,0,0,0,0,0,0,0,0,0,0,0,0,0,0,0,0,0,0,0,0,0,0,0,0,0,0,0,0,0,0,0,0,0,0,0,0,0,0,0,0,0,0,0,0,0,0,0,0,0,0,0,0,0,0,0,0,0,0,0,0],"id":2,"left_children":[1,3,5,7,9,11,13,15,17,19,21,23,-1,25,27,29,31,33,35,37,39,-1,41,43,45,47,49,-1,51,53,55,57,59,61,63,65,-1,67,69,71,73,-1,-1,75,77,79,81,83,85,87,89,91,93,95,97,99,101,103,105,107,109,111,113,-1,-1,115,117,119,121,123,-1,125,127,-1,129,131,133,-1,-1,135,137,139,141,-1,143,145,-1,-1,147,-1,-1,-1,-1,149,151,-1,-1,-1,-1,-1,-1,-1,-1,-1,-1,-1,-1,-1,-1,-1,-1,-1,-1,-1,-1,-1,-1,-1,-1,-1,-1,-1,-1,-1,-1,-1,-1,-1,-1,-1,-1,-1,-1,-1,-1,-1,-1,-1,-1,-1,-1,-1,-1,-1,-1,-1,-1,-1,-1,-1,-1,-1,-1],"loss_changes":[8.7790394E-1,2.5445718E-1,1.14382386E-1,1.2110094E-1,7.167104E-2,3.792125E-2,3.0103331E-2,1.746224E-2,3.6969423E-2,1.1341929E-2,4.5241714E-3,3.6183357E-2,0E0,2.7825993E-2,1.337417E-2,1.1707587E-2,3.5635908E-3,2.8213471E-2,1.5682466E-2,3.0641854E-3,3.4208745E-3,0E0,8.8462234E-4,1.1655927E-2,6.975651E-3,9.641917E-3,3.5266884E-2,0E0,4.6680802E-3,2.610729E-3,6.5837745E-3,1.4385018E-3,1.8486474E-3,1.5000999E-2,3.44982E-3,1.3569806E-2,0E0,8.6579286E-4,5.3921714E-4,2.052106E-3,7.022768E-4,0E0,0E0,5.374387E-3,2.2101104E-3,6.3643605E-3,9.764299E-3,8.274674E-3,1.5250451E-3,7.096282E-4,1.2878329E-3,3.6145514E-4,1.5350754E-3,1.961204E-3,2.4662884E-3,4.463425E-3,1.2061262E-3,1.2673679E-3,1.6379199E-3,1.7464114E-3,1.4388227E-3,2.2363495E-3,4.8219413E-3,0E0,0E0,1.1360439E-2,4.8374273E-3,6.3120946E-4,1.574721E-4,2.4758652E-4,0E0,1.0128021E-3,5.491184E-4,0E0,6.458536E-4,5.671695E-3,4.857242E-3,0E0,0E0,5.8993563E-4,3.7526935E-3,6.448984E-3,1.0807381E-3,0E0,8.66445E-3,5.7897138E-5,0E0,0E0,2.5515095E-5,0E0,0E0,0E0,0E0,6.737947E-5,4.0037208E-4,0E0,0E0,0E0,0E0,0E0,0E0,0E0,0E0,0E0,0E0,0E0,0E0,0E0,0E0,0E0,0E0,0E0,0E0,0E0,0E0,0E0,0E0,0E0,0E0,0E0,0E0,0E0,0E0,0E0,0E0,0E0,0E0,0E0,0E0,0E0,0E0,0E0,0E0,0E0,0E0,0E0,0E0,0E0,0E0,0E0,0E0,0E0,0E0,0E0,0E0,0E0,0E0,0E0,0E0,0E0,0E0,0E0,0E0],"parents":[2147483647,0,0,1,1,2,2,3,3,4,4,5,5,6,6,7,7,8,8,9,9,10,10,11,11,13,13,14,14,15,15,16,16,17,17,18,18,19,19,20,20,22,22,23,23,24,24,25,25,26,26,28,28,29,29,30,30,31,31,32,32,33,33,34,34,35,35,37,37,38,38,39,39,40,40,43,43,44,44,45,45,46,46,47,47,48,48,49,49,50,50,51,51,52,52,53,53,54,54,55,55,56,56,57,57,58,58,59,59,60,60,61,61,62,62,65,65,66,66,67,67,68,68,69,69,71,71,72,72,74,74,75,75,76,76,79,79,80,80,81,81,82,82,84,84,85,85,88,88,93,93,94,94],"right_children":[2,4,6,8,10,12,14,16,18,20,22,24,-1,26,28,30,32,34,36,38,40,-1,42,44,46,48,50,-1,52,54,56,58,60,62,64,66,-1,68,70,72,74,-1,-1,76,78,80,82,84,86,88,90,92,94,96,98,100,102,104,106,108,110,112,114,-1,-1,116,118,120,122,124,-1,126,128,-1,130,132,134,-1,-1,136,138,140,142,-1,144,146,-1,-1,148,-1,-1,-1,-1,150,152,-1,-1,-1,-1,-1,-1,-1,-1,-1,-1,-1,-1,-1,-1,-1,-1,-1,-1,-1,-1,-1,-1,-1,-1,-1,-1,-1,-1,-1,-1,-1,-1,-1,-1,-1,-1,-1,-1,-1,-1,-1,-1,-1,-1,-1,-1,-1,-1,-1,-1,-1,-1,-1,-1,-1,-1,-1,-1],"split_conditions":[2E0,2.0550812E-2,8.965897E-3,1E0,6.794644E-2,1.6597429E-1,1.5107614E0,3.2535961E-3,-1.4575636E-1,1E0,-1.6676758E-1,-2.589192E-2,5.9190667E-3,8.2934305E-2,-4.1399454E-3,2.357E1,-5.661745E-1,7.9242274E-2,1.07978076E-1,4.4535093E-2,3.092374E-2,8.121041E-4,1.07978076E-1,8.047028E-2,1.899E1,7.770515E-2,4.5346433E-1,5.0002886E-3,2.412137E-3,1.522E1,4.0855733E-1,3.4033173E-1,2.0363268E-2,2.5442706E-2,-5.2666362E-2,-3.9076146E-1,4.3224907E-3,2.3763396E-2,1.5737375E0,6.9103315E-2,-9.9604145E-2,6.7801233E-3,7.494376E-4,2.3582115E0,1.6148937E-1,-1.4836001E0,1.1706254E0,-1.5697814E0,-2.9767004E-1,-1.7523421E-2,1.4184716E-2,1.3766825E-2,-1.7075537E-3,2.1270157E-1,-1.6300861E0,-1.5912334E-2,5.834329E-3,3.2226097E-2,5.91362E-2,1.068033E0,1.333E1,8.450719E-3,2.4261456E0,1.6933763E-3,7.894331E-3,-5.3840715E-2,3.917552E-1,-1.189009E0,-1.3809998E-3,3.3307276E-3,4.585726E-4,8.021822E-2,-5.8465886E-1,3.870951E-4,-1.0924964E0,-8.994523E-1,1.9396567E0,-7.804004E-3,-6.9091324E-4,8.5802E-3,9.60663E-1,-9.920634E-2,2.273E1,-3.4142307E-3,3.4905085E-3,-6.113984E-2,2.147319E-3,2.7646075E-4,-1.01352766E-1,-1.1258582E-3,-9.939182E-3,1.8678418E-3,1.6966522E-5,7.78076E-3,2.732716E-2,-2.0691862E-4,1.0948735E-3,7.182104E-4,-7.3749304E-4,-3.8148844E-4,-3.729394E-3,7.450346E-4,-9.601209E-4,-4.7902754E-6,-1.0102988E-3,6.2105816E-4,-2.6217537E-4,9.30977E-4,-8.904575E-5,5.7988305E-4,-9.70992E-4,1.4984772E-3,3.627941E-4,2.7894177E-3,-4.7607633E-4,-2.4649003E-3,6.6522736E-4,1.8647204E-3,8.437154E-4,3.4688515E-4,1.8512716E-3,-9.202063E-5,6.832527E-4,2.9666063E-3,2.962128E-4,3.10156E-3,3.6371505E-4,-3.5452646E-5,1.3725109E-3,8.321762E-4,4.4197245E-3,-2.066588E-3,-4.1909874E-3,-7.4805566E-3,-2.5360994E-3,3.1977898E-4,-8.539564E-4,-2.7648266E-3,-2.9982466E-4,-7.830427E-5,-4.4788816E-3,-1.5426051E-3,1.03802486E-4,-2.269699E-3,-6.8334537E-4,1.8906135E-4,-2.872597E-4,-1.2512994E-4,-1.1825891E-3,7.930496E-4,-6.1845567E-6,-1.4908599E-3,-2.7072074E-5],"split_indices":[40,47,47,40,45,1,170,47,177,40,37,41,0,3,399,342,70,45,3,45,47,0,19,196,191,15,277,0,28,191,287,78,30,45,41,76,0,18,385,449,5,0,0,154,45,62,361,486,109,10,2,38,244,145,202,36,24,345,153,454,493,246,380,0,0,36,271,320,31,244,0,33,120,0,71,86,151,0,0,33,54,449,342,0,42,0,0,0,1,0,0,0,0,0,15,0,0,0,0,0,0,0,0,0,0,0,0,0,0,0,0,0,0,0,0,0,0,0,0,0,0,0,0,0,0,0,0,0,0,0,0,0,0,0,0,0,0,0,0,0,0,0,0,0,0,0,0,0,0,0,0,0,0],"split_type":[0,0,0,0,0,0,0,0,0,0,0,0,0,0,0,0,0,0,0,0,0,0,0,0,0,0,0,0,0,0,0,0,0,0,0,0,0,0,0,0,0,0,0,0,0,0,0,0,0,0,0,0,0,0,0,0,0,0,0,0,0,0,0,0,0,0,0,0,0,0,0,0,0,0,0,0,0,0,0,0,0,0,0,0,0,0,0,0,0,0,0,0,0,0,0,0,0,0,0,0,0,0,0,0,0,0,0,0,0,0,0,0,0,0,0,0,0,0,0,0,0,0,0,0,0,0,0,0,0,0,0,0,0,0,0,0,0,0,0,0,0,0,0,0,0,0,0,0,0,0,0,0,0],"sum_hessian":[2.566E3,1.856E3,7.1E2,1.55E3,3.06E2,4.56E2,2.54E2,7.41E2,8.09E2,2.51E2,5.5E1,4.55E2,1E0,2.28E2,2.6E1,4.2E2,3.21E2,2.96E2,5.13E2,1.18E2,1.33E2,2E0,5.3E1,1.19E2,3.36E2,2.15E2,1.3E1,5E0,2.1E1,3.93E2,2.7E1,1.67E2,1.54E2,2.87E2,9E0,5.04E2,9E0,7.7E1,4.1E1,8.2E1,5.1E1,5.2E1,1E0,1.04E2,1.5E1,2.67E2,6.9E1,2.06E2,9E0,8E0,5E0,1E1,1.1E1,2.49E2,1.44E2,1.9E1,8E0,8.5E1,8.2E1,1.4E2,1.4E1,1.3E2,1.57E2,3E0,6E0,3.08E2,1.96E2,6.9E1,8E0,3.9E1,2E0,7.4E1,8E0,1E0,5E1,8.7E1,1.7E1,1.4E1,1E0,9E0,2.58E2,5.9E1,1E1,1E1,1.96E2,3E0,6E0,4E0,4E0,1E0,4E0,9E0,1E0,3E0,8E0,2.42E2,7E0,8E0,1.36E2,5E0,1.4E1,5E0,3E0,7.6E1,9E0,6E1,2.2E1,1.25E2,1.5E1,7E0,7E0,1.11E2,1.9E1,1.54E2,3E0,7E0,3.01E2,1.31E2,6.5E1,4E0,6.5E1,2E0,6E0,3.8E1,1E0,7.2E1,2E0,3E0,5E0,2E0,4.8E1,2.4E1,6.3E1,1E1,7E0,6E0,3E0,2.52E2,6E0,3E0,5.6E1,5E0,5E0,3.3E1,1.63E2,1E0,2E0,1E0,3E0,2E0,1E0,6E0,2E0],"tree_param":{"num_deleted":"0","num_feature":"494","num_nodes":"153","size_leaf_vector":"1"}},{"base_weights":[2.053456E-3,1.349291E-2,-2.7781194E-2,8.251106E-3,3.970664E-2,-3.721729E-2,-1.0604108E-2,-9.889384E-4,1.668687E-2,3.1849355E-2,7.2062336E-2,-3.7867192E-2,5.9190667E-3,-1.43153425E-2,2.0054778E-2,-5.216798E-3,4.539924E-3,2.5572212E-2,1.1441176E-2,2.3555674E-2,3.8525734E-2,2.5739167E-2,7.592236E-2,-3.3623807E-2,-6.712562E-2,-1.1145506E-2,-5.482024E-2,5.0002886E-3,5.898465E-3,-3.732154E-3,-2.4292419E-2,1.298664E-3,7.962818E-3,2.3285482E-2,7.44418E-2,1.0518892E-2,4.3224907E-3,1.8425526E-2,3.1277142E-2,3.1732146E-2,4.7079023E-2,1.3316298E-4,2.5658335E-3,6.9681937E-3,8.8196713E-4,-3.9337363E-2,-2.8356658E-2,-7.754795E-2,-1.9985668E-2,-3.4142307E-3,-9.334064E-3,-5.660829E-3,-1.0185684E-1,1.9023204E-2,-7.552749E-3,-1.7349586E-3,-7.0797508E-3,-3.194966E-2,4.224366E-3,-1.5627522E-3,4.2152363E-3,9.162228E-3,-3.5315359E-3,1.478862E-2,2.9911894E-2,1.6933763E-3,7.894331E-3,6.2809684E-3,1.6983401E-2,1.9603629E-2,5.6891707E-3,3.216602E-2,4.585726E-4,3.3490796E-2,1.0767371E-2,3.870951E-4,4.7645945E-2,-4.0333025E-2,-9.614194E-3,-2.9742053E-2,-1.0847605E-2,-2.1443577E-2,-8.471362E-2,-2.692306E-3,2.3363284E-3,-1.4840321E-2,-5.0511246E-4,2.7646075E-4,-1.1936657E-2,-1.1258582E-3,-9.939182E-3,1.8678418E-3,1.6966522E-5,7.2242673E-3,-1.3553099E-2,-2.0691862E-4,1.0948735E-3,7.182104E-4,-7.3749304E-4,-6.3461676E-4,-3.555378E-3,-6.259944E-4,7.450346E-4,-4.7902754E-6,-1.0102988E-3,6.2105816E-4,-2.6217537E-4,-1.3914009E-4,9.251608E-4,3.2164188E-4,-1.1646914E-3,1.4984772E-3,3.627941E-4,2.7894177E-3,-4.7607633E-4,-2.4649003E-3,6.6522736E-4,1.8647204E-3,8.437154E-4,1.8506757E-3,3.5267352E-4,-9.202063E-5,6.832527E-4,2.9666063E-3,2.962128E-4,3.10156E-3,3.6371505E-4,-3.5452646E-5,1.3725109E-3,8.321762E-4,4.4197245E-3,-3.7203766E-3,-2.48056E-4,2.5608545E-4,-1.0849464E-3,-2.3150947E-3,-3.5414554E-3,-1.2057254E-3,1.6566555E-4,-1.7928019E-4,-2.103453E-3,-8.085592E-3,-3.1314956E-4,3.3342117E-4,-1.2844315E-4,-1.0417684E-3,-2.6163645E-3,8.595574E-4,-1.2996993E-3,-1.2512994E-4,-1.1825891E-3,7.930496E-4,-6.1845567E-6,-1.4908599E-3,-2.7072074E-5],"categories":[],"categories_nodes":[],"categories_segments":[],"categories_sizes":[],"default_left":[0,0,0,0,0,0,0,0,0,0,0,0,0,0,0,0,0,0,0,0,0,0,0,0,0,0,0,0,0,0,0,0,0,0,0,0,0,0,0,0,0,0,0,0,0,0,0,0,0,0,0,0,0,0,0,0,0,0,0,0,0,0,0,0,0,0,0,0,0,0,0,0,0,0,0,0,0,0,0,0,0,0,0,0,0,0,0,0,0,0,0,0,0,0,0,0,0,0,0,0,0,0,0,0,0,0,0,0,0,0,0,0,0,0,0,0,0,0,0,0,0,0,0,0,0,0,0,0,0,0,0,0,0,0,0,0,0,0,0,0,0,0,0,0,0,0,0,0,0,0,0,0,0,0,0],"id":3,"left_children":[1,3,5,7,9,11,13,15,17,19,21,23,-1,25,27,29,31,33,35,37,39,41,43,45,47,49,51,-1,53,55,57,59,61,63,65,67,-1,69,71,73,75,-1,-1,-1,-1,77,79,81,83,-1,85,87,89,91,93,95,97,99,101,103,105,107,109,111,113,-1,-1,115,117,119,121,123,-1,125,127,-1,129,131,133,135,137,139,141,-1,143,145,147,-1,149,-1,-1,-1,-1,151,153,-1,-1,-1,-1,-1,-1,-1,-1,-1,-1,-1,-1,-1,-1,-1,-1,-1,-1,-1,-1,-1,-1,-1,-1,-1,-1,-1,-1,-1,-1,-1,-1,-1,-1,-1,-1,-1,-1,-1,-1,-1,-1,-1,-1,-1,-1,-1,-1,-1,-1,-1,-1,-1,-1,-1,-1,-1,-1,-1,-1],"loss_changes":[8.7790394E-1,2.5445718E-1,1.14382386E-1,1.2110094E-1,7.167104E-2,3.792125E-2,3.0103331E-2,1.746224E-2,3.6969423E-2,1.1341929E-2,4.508376E-3,5.0091922E-2,0E0,2.7825993E-2,1.337417E-2,1.1707587E-2,3.5635908E-3,2.8213471E-2,1.5682466E-2,3.0641854E-3,3.4208745E-3,4.1886885E-4,2.7513504E-4,8.871764E-3,2.2372425E-2,9.377902E-3,3.5266884E-2,0E0,4.6680802E-3,2.610729E-3,6.9556963E-3,1.4385018E-3,2.2615418E-3,1.5000999E-2,3.44982E-3,1.3569806E-2,0E0,8.6579286E-4,5.3921714E-4,2.052106E-3,7.022768E-4,0E0,0E0,0E0,0E0,4.3708086E-3,4.417151E-3,1.2239397E-2,3.2169311E-3,0E0,1.0089321E-2,7.096282E-4,1.2878329E-3,3.6145514E-4,1.5350754E-3,1.961204E-3,2.4662884E-3,3.471313E-3,5.6637137E-4,1.2673679E-3,1.6379199E-3,1.5980266E-3,1.2512926E-3,2.2363495E-3,4.8219413E-3,0E0,0E0,1.1360439E-2,4.8374273E-3,6.16489E-4,1.574721E-4,2.4758652E-4,0E0,1.0128021E-3,5.491184E-4,0E0,6.458536E-4,3.6661625E-3,3.8928486E-4,5.061224E-3,7.1516307E-4,1.600436E-4,1.2137592E-2,0E0,5.0485032E-5,5.0430074E-3,1.1807033E-2,0E0,2.5515095E-5,0E0,0E0,0E0,0E0,6.737947E-5,4.0037208E-4,0E0,0E0,0E0,0E0,0E0,0E0,0E0,0E0,0E0,0E0,0E0,0E0,0E0,0E0,0E0,0E0,0E0,0E0,0E0,0E0,0E0,0E0,0E0,0E0,0E0,0E0,0E0,0E0,0E0,0E0,0E0,0E0,0E0,0E0,0E0,0E0,0E0,0E0,0E0,0E0,0E0,0E0,0E0,0E0,0E0,0E0,0E0,0E0,0E0,0E0,0E0,0E0,0E0,0E0,0E0,0E0,0E0,0E0,0E0,0E0],"parents":[2147483647,0,0,1,1,2,2,3,3,4,4,5,5,6,6,7,7,8,8,9,9,10,10,11,11,13,13,14,14,15,15,16,16,17,17,18,18,19,19,20,20,21,21,22,22,23,23,24,24,25,25,26,26,28,28,29,29,30,30,31,31,32,32,33,33,34,34,35,35,37,37,38,38,39,39,40,40,45,45,46,46,47,47,48,48,50,50,51,51,52,52,53,53,54,54,55,55,56,56,57,57,58,58,59,59,60,60,61,61,62,62,63,63,64,64,67,67,68,68,69,69,70,70,71,71,73,73,74,74,76,76,77,77,78,78,79,79,80,80,81,81,82,82,84,84,85,85,86,86,88,88,93,93,94,94],"right_children":[2,4,6,8,10,12,14,16,18,20,22,24,-1,26,28,30,32,34,36,38,40,42,44,46,48,50,52,-1,54,56,58,60,62,64,66,68,-1,70,72,74,76,-1,-1,-1,-1,78,80,82,84,-1,86,88,90,92,94,96,98,100,102,104,106,108,110,112,114,-1,-1,116,118,120,122,124,-1,126,128,-1,130,132,134,136,138,140,142,-1,144,146,148,-1,150,-1,-1,-1,-1,152,154,-1,-1,-1,-1,-1,-1,-1,-1,-1,-1,-1,-1,-1,-1,-1,-1,-1,-1,-1,-1,-1,-1,-1,-1,-1,-1,-1,-1,-1,-1,-1,-1,-1,-1,-1,-1,-1,-1,-1,-1,-1,-1,-1,-1,-1,-1,-1,-1,-1,-1,-1,-1,-1,-1,-1,-1,-1,-1,-1,-1],"split_conditions":[2E0,2.0550812E-2,8.965897E-3,1E0,6.794644E-2,1.6597429E-1,1.5107614E0,3.2535961E-3,-1.4575636E-1,1E0,-1.7385044E0,2.552E1,5.9190667E-3,8.2934305E-2,-4.1399454E-3,2.357E1,-5.661745E-1,7.9242274E-2,1.07978076E-1,4.4535093E-2,3.092374E-2,-1.6676758E-1,1.3123052E-1,-8.721688E-3,9.027463E-1,-1.5697814E0,4.5346433E-1,5.0002886E-3,2.412137E-3,1.522E1,4.95995E-1,3.4033173E-1,5.4134578E-2,2.5442706E-2,-5.2666362E-2,-3.9076146E-1,4.3224907E-3,2.3763396E-2,1.5737375E0,6.9103315E-2,-1.1942184E-1,1.3316298E-4,2.5658335E-3,6.9681937E-3,8.8196713E-4,1.8041056E0,1.0303606E0,-9.809826E-1,-3.781922E-1,-3.4142307E-3,2.5131438E-2,-1.7523421E-2,1.4184716E-2,1.3766825E-2,-1.7075537E-3,2.1270157E-1,-1.6300861E0,-1.5912334E-2,-7.4450664E-2,3.2226097E-2,5.91362E-2,-5.2777313E-2,-2.9447103E-2,8.450719E-3,2.4261456E0,1.6933763E-3,7.894331E-3,-5.3840715E-2,3.917552E-1,6.1244833E-1,-1.3809998E-3,3.3307276E-3,4.585726E-4,8.021822E-2,-5.8465886E-1,3.870951E-4,-1.0924964E0,2.0293922E0,-6.245724E-2,3.8889285E-2,2.2229271E-2,-7.9984665E-2,3.997435E-2,-2.692306E-3,4.6541067E-3,5.2976668E-2,1.9008955E-1,2.7646075E-4,-6.113984E-2,-1.1258582E-3,-9.939182E-3,1.8678418E-3,1.6966522E-5,7.78076E-3,2.732716E-2,-2.0691862E-4,1.0948735E-3,7.182104E-4,-7.3749304E-4,-6.3461676E-4,-3.555378E-3,-6.259944E-4,7.450346E-4,-4.7902754E-6,-1.0102988E-3,6.2105816E-4,-2.6217537E-4,-1.3914009E-4,9.251608E-4,3.2164188E-4,-1.1646914E-3,1.4984772E-3,3.627941E-4,2.7894177E-3,-4.7607633E-4,-2.4649003E-3,6.6522736E-4,1.8647204E-3,8.437154E-4,1.8506757E-3,3.5267352E-4,-9.202063E-5,6.832527E-4,2.9666063E-3,2.962128E-4,3.10156E-3,3.6371505E-4,-3.5452646E-5,1.3725109E-3,8.321762E-4,4.4197245E-3,-3.7203766E-3,-2.48056E-4,2.5608545E-4,-1.0849464E-3,-2.3150947E-3,-3.5414554E-3,-1.2057254E-3,1.6566555E-4,-1.7928019E-4,-2.103453E-3,-8.085592E-3,-3.1314956E-4,3.3342117E-4,-1.2844315E-4,-1.0417684E-3,-2.6163645E-3,8.595574E-4,-1.2996993E-3,-1.2512994E-4,-1.1825891E-3,7.930496E-4,-6.1845567E-6,-1.4908599E-3,-2.7072074E-5],"split_indices":[40,47,47,40,45,1,170,47,177,40,227,191,0,3,399,342,70,45,3,45,47,1,10,47,276,486,277,0,28,191,285,78,446,46,41,76,0,18,389,449,11,0,0,0,0,419,86,270,52,0,47,10,2,38,244,145,202,36,18,345,153,29,141,246,384,0,0,36,271,175,31,244,0,33,124,0,71,204,12,196,29,4,198,0,1,348,221,0,0,0,0,0,0,0,15,0,0,0,0,0,0,0,0,0,0,0,0,0,0,0,0,0,0,0,0,0,0,0,0,0,0,0,0,0,0,0,0,0,0,0,0,0,0,0,0,0,0,0,0,0,0,0,0,0,0,0,0,0,0,0,0,0,0,0,0],"split_type":[0,0,0,0,0,0,0,0,0,0,0,0,0,0,0,0,0,0,0,0,0,0,0,0,0,0,0,0,0,0,0,0,0,0,0,0,0,0,0,0,0,0,0,0,0,0,0,0,0,0,0,0,0,0,0,0,0,0,0,0,0,0,0,0,0,0,0,0,0,0,0,0,0,0,0,0,0,0,0,0,0,0,0,0,0,0,0,0,0,0,0,0,0,0,0,0,0,0,0,0,0,0,0,0,0,0,0,0,0,0,0,0,0,0,0,0,0,0,0,0,0,0,0,0,0,0,0,0,0,0,0,0,0,0,0,0,0,0,0,0,0,0,0,0,0,0,0,0,0,0,0,0,0,0,0],"sum_hessian":[2.566E3,1.856E3,7.1E2,1.55E3,3.06E2,4.56E2,2.54E2,7.41E2,8.09E2,2.51E2,5.5E1,4.55E2,1E0,2.28E2,2.6E1,4.2E2,3.21E2,2.96E2,5.13E2,1.18E2,1.33E2,6E0,4.9E1,4.03E2,5.2E1,2.15E2,1.3E1,5E0,2.1E1,3.93E2,2.7E1,1.67E2,1.54E2,2.87E2,9E0,5.04E2,9E0,7.7E1,4.1E1,8.2E1,5.1E1,1E0,5E0,4.8E1,1E0,1.84E2,2.19E2,4.1E1,1.1E1,1E1,2.05E2,8E0,5E0,1E1,1.1E1,2.49E2,1.44E2,2.1E1,6E0,8.5E1,8.2E1,1.4E2,1.4E1,1.3E2,1.57E2,3E0,6E0,3.08E2,1.96E2,6.9E1,8E0,3.9E1,2E0,7.4E1,8E0,1E0,5E1,1.77E2,7E0,2.01E2,1.8E1,6E0,3.5E1,7E0,4E0,1.25E2,8E1,4E0,4E0,1E0,4E0,9E0,1E0,3E0,8E0,2.42E2,7E0,8E0,1.36E2,6E0,1.5E1,1E0,5E0,7.6E1,9E0,6E1,2.2E1,1.2E1,1.28E2,9E0,5E0,1.11E2,1.9E1,1.54E2,3E0,7E0,3.01E2,1.31E2,6.5E1,6.5E1,4E0,2E0,6E0,3.8E1,1E0,7.2E1,2E0,3E0,5E0,2E0,4.8E1,1.74E2,3E0,1E0,6E0,1.45E2,5.6E1,1.5E1,3E0,1E0,5E0,3.3E1,2E0,3E0,1E0,1.05E2,2E1,4.7E1,3.3E1,1E0,3E0,2E0,1E0,6E0,2E0],"tree_param":{"num_deleted":"0","num_feature":"494","num_nodes":"155","size_leaf_vector":"1"}},{"base_weights":[2.053456E-3,-4.039847E-3,2.2289254E-2,7.363357E-3,-3.48165E-2,3.4636136E-2,-6.5257614E-3,1.1530985E-2,2.636983E-3,-4.8290633E-2,-2.7576456E-2,2.648956E-2,6.5985434E-2,-8.375237E-3,5.7819015E-3,1.0919538E-3,2.171943E-2,-5.003481E-3,9.214956E-3,-4.998695E-2,5.9190667E-3,-3.0524336E-2,-1.5350063E-2,1.8596262E-2,3.318255E-2,5.2255305E-4,6.724434E-2,-6.6623036E-3,-5.817085E-3,1.883731E-3,-2.892728E-2,1.574308E-2,3.232406E-2,-3.6612663E-3,-2.8043522E-2,8.252585E-3,4.930664E-2,-3.9954286E-2,-7.5497665E-2,-3.1678263E-2,-5.3285067E-3,-1.789063E-2,2.4605705E-3,1.0619456E-2,2.4535095E-2,2.7710985E-2,4.1208036E-2,6.86661E-2,1.3547579E-3,-3.2624327E-2,-4.180987E-3,1.1979733E-4,1.0290809E-2,-3.982849E-4,-3.4154025E-3,1.0413806E-2,2.0356622E-2,9.175925E-3,3.6045726E-2,-6.0128135E-4,-7.027473E-3,-2.296351E-3,-3.3068698E-2,9.462227E-3,-1.796583E-2,4.78504E-3,5.910238E-4,-4.2052094E-2,-1.251238E-2,-2.7844187E-2,-8.583983E-2,-4.6574187E-2,-2.9306047E-2,2.7644492E-3,-1.3143757E-3,-2.5949918E-2,-1.2091674E-2,-4.824474E-3,1.1052593E-3,1.1963859E-2,-9.6354925E-4,3.5310924E-4,2.5113257E-2,-2.359486E-3,2.8305847E-2,8.270699E-4,4.230387E-2,6.918876E-2,6.340635E-4,-3.6736015E-2,-2.35934E-3,-2.213856E-2,1.3655209E-4,-2.781654E-4,4.032454E-4,-6.727196E-4,1.0186179E-3,-1.1682097E-3,1.0464123E-3,9.468918E-4,2.0539933E-3,1.628189E-3,-3.0071838E-4,2.616997E-3,5.0939913E-3,8.1195096E-5,-9.784442E-4,-7.5282523E-4,2.8435775E-4,-4.5202614E-5,-2.5663548E-4,-3.1235989E-3,-3.7016286E-4,5.391105E-4,1.3927747E-3,-3.716718E-3,5.1682594E-4,-1.9183918E-3,-4.107318E-3,-4.296793E-5,-1.5624072E-3,-3.034332E-3,9.417712E-5,-1.8326755E-3,-8.541703E-3,-5.345297E-3,-1.9055074E-3,-1.9528496E-3,-2.8989841E-3,4.125511E-4,-3.402654E-4,-3.420583E-4,-2.587488E-3,-4.2539142E-4,-1.5166722E-3,-5.440263E-4,-2.7822562E-5,1.1905074E-3,-6.222055E-4,5.3729495E-4,2.3477345E-3,-4.0367674E-4,1.3555333E-4,2.643269E-3,6.6315243E-4,6.3773774E-4,3.9196247E-3,6.396224E-4,6.338347E-3,-2.7492983E-4,-3.5262976E-3,1.4618947E-4,-4.142963E-4,-3.3200209E-3,-8.2667924E-5,-2.881054E-4,1.3170843E-3],"categories":[],"categories_nodes":[],"categories_segments":[],"categories_sizes":[],"default_left":[0,0,0,0,0,0,0,0,0,0,0,0,0,0,0,0,0,0,0,0,0,0,0,0,0,0,0,0,0,0,0,0,0,0,0,0,0,0,0,0,0,0,0,0,0,0,0,0,0,0,0,0,0,0,0,0,0,0,0,0,0,0,0,0,0,0,0,0,0,0,0,0,0,0,0,0,0,0,0,0,0,0,0,0,0,0,0,0,0,0,0,0,0,0,0,0,0,0,0,0,0,0,0,0,0,0,0,0,0,0,0,0,0,0,0,0,0,0,0,0,0,0,0,0,0,0,0,0,0,0,0,0,0,0,0,0,0,0,0,0,0,0,0,0,0,0,0,0,0,0,0,0,0,0,0,0,0],"id":4,"left_children":[1,3,5,7,9,11,13,15,17,19,21,23,25,27,-1,29,31,33,35,37,-1,39,41,43,45,-1,47,49,-1,51,53,55,57,59,61,63,65,67,69,71,73,75,77,79,81,83,85,87,-1,89,91,93,95,-1,-1,97,99,101,103,105,107,109,111,113,115,-1,-1,117,119,121,123,125,127,129,-1,131,133,135,-1,137,-1,-1,139,141,143,-1,145,147,-1,149,151,153,155,-1,-1,-1,-1,-1,-1,-1,-1,-1,-1,-1,-1,-1,-1,-1,-1,-1,-1,-1,-1,-1,-1,-1,-1,-1,-1,-1,-1,-1,-1,-1,-1,-1,-1,-1,-1,-1,-1,-1,-1,-1,-1,-1,-1,-1,-1,-1,-1,-1,-1,-1,-1,-1,-1,-1,-1,-1,-1,-1,-1,-1,-1,-1,-1],"loss_changes":[3.1703514E-1,6.946021E-1,2.1236455E-1,2.8372057E-2,4.819596E-2,1.0125369E-1,2.5073275E-2,8.150505E-2,3.4364544E-2,4.496631E-2,1.13892555E-2,1.5899599E-2,5.2103996E-3,1.5772771E-2,0E0,9.243059E-3,2.306363E-2,9.495101E-3,1.2939269E-2,3.7531793E-2,0E0,7.721573E-3,3.525747E-3,6.8453997E-3,4.3905675E-3,0E0,3.032416E-3,1.0993134E-2,0E0,5.557374E-3,1.6275235E-3,5.60908E-3,1.0810226E-2,3.1083878E-3,1.971718E-3,1.1990776E-2,1.13332644E-4,6.3082874E-3,1.64859E-2,5.4460764E-3,1.3020767E-3,2.143206E-3,1.0237072E-3,2.4913568E-3,7.819198E-4,2.2574514E-3,1.1677667E-3,1.0994971E-3,0E0,1.6065836E-3,1.2801934E-2,4.3359892E-3,1.2997352E-3,0E0,0E0,3.6075283E-3,2.2520013E-3,2.6855543E-3,1.2136325E-2,2.4889354E-3,1.9109515E-3,1.4739162E-6,1.0432955E-4,6.928105E-3,9.91185E-3,0E0,0E0,5.397737E-3,7.634789E-4,2.1812273E-3,1.4581144E-2,6.3219443E-3,2.8154403E-3,1.7791387E-4,0E0,1.0723285E-3,1.2633633E-3,4.1670442E-5,0E0,1.7801644E-3,0E0,0E0,7.313192E-4,5.992766E-5,1.1921376E-3,0E0,8.9785457E-4,1.1125803E-3,0E0,5.47925E-4,6.558575E-5,9.6703395E-3,6.5897885E-3,0E0,0E0,0E0,0E0,0E0,0E0,0E0,0E0,0E0,0E0,0E0,0E0,0E0,0E0,0E0,0E0,0E0,0E0,0E0,0E0,0E0,0E0,0E0,0E0,0E0,0E0,0E0,0E0,0E0,0E0,0E0,0E0,0E0,0E0,0E0,0E0,0E0,0E0,0E0,0E0,0E0,0E0,0E0,0E0,0E0,0E0,0E0,0E0,0E0,0E0,0E0,0E0,0E0,0E0,0E0,0E0,0E0,0E0,0E0,0E0,0E0,0E0,0E0,0E0],"parents":[2147483647,0,0,1,1,2,2,3,3,4,4,5,5,6,6,7,7,8,8,9,9,10,10,11,11,12,12,13,13,15,15,16,16,17,17,18,18,19,19,21,21,22,22,23,23,24,24,26,26,27,27,29,29,30,30,31,31,32,32,33,33,34,34,35,35,36,36,37,37,38,38,39,39,40,40,41,41,42,42,43,43,44,44,45,45,46,46,47,47,49,49,50,50,51,51,52,52,55,55,56,56,57,57,58,58,59,59,60,60,61,61,62,62,63,63,64,64,67,67,68,68,69,69,70,70,71,71,72,72,73,73,75,75,76,76,77,77,79,79,82,82,83,83,84,84,86,86,87,87,89,89,90,90,91,91,92,92],"right_children":[2,4,6,8,10,12,14,16,18,20,22,24,26,28,-1,30,32,34,36,38,-1,40,42,44,46,-1,48,50,-1,52,54,56,58,60,62,64,66,68,70,72,74,76,78,80,82,84,86,88,-1,90,92,94,96,-1,-1,98,100,102,104,106,108,110,112,114,116,-1,-1,118,120,122,124,126,128,130,-1,132,134,136,-1,138,-1,-1,140,142,144,-1,146,148,-1,150,152,154,156,-1,-1,-1,-1,-1,-1,-1,-1,-1,-1,-1,-1,-1,-1,-1,-1,-1,-1,-1,-1,-1,-1,-1,-1,-1,-1,-1,-1,-1,-1,-1,-1,-1,-1,-1,-1,-1,-1,-1,-1,-1,-1,-1,-1,-1,-1,-1,-1,-1,-1,-1,-1,-1,-1,-1,-1,-1,-1,-1,-1,-1,-1,-1,-1],"split_conditions":[1.6265124E-2,2E0,2E0,1.883937E-1,-1.4224306E-2,5.759391E-2,2.7775598E-1,1E0,1E0,1.9016653E-1,8.965897E-3,1E0,-1.6676758E-1,2.9175656E0,5.7819015E-3,7.8080565E-2,3.4531217E-2,2.552E1,1.07978076E-1,2.468E1,5.9190667E-3,2.3939585E-2,1.193181E0,2.2753756E-2,2.7639259E-2,5.2255305E-4,1.2095975E-1,-1.3252615E0,-5.817085E-3,2.7627817E-1,-1.0210429E-4,1.0612169E-3,-1.0928717E0,2.5827803E-2,-5.0530573E-3,1.24082945E-1,2.7335249E-2,-1.2481472E-1,-9.26366E-1,-3.6452215E-2,1.2798155E-2,3.4185147E-1,6.4229596E-1,7.202489E-2,-3.7355937E-2,-1.878675E0,-2.3500254E0,1.7437524E0,1.3547579E-3,1.5201976E0,1.0405914E-1,2.1328495E-1,-1.7485926E-3,-3.982849E-4,-3.4154025E-3,-3.8830936E-2,1.7353257E-2,5.902964E-3,2.8095476E-2,1.8429871E0,5.6054867E-3,4.3639187E-2,4.894727E-2,-5.0179535E-1,-1.9057693E0,4.78504E-3,5.910238E-4,-9.0397364E-1,-1.86901E0,-2.3015324E-2,-9.9604145E-2,8.257276E-1,5.913685E-2,5.954954E-2,-1.3143757E-3,-7.3757946E-1,-3.1617162E-1,2.6670888E-3,1.1052593E-3,1.8095268E0,-9.6354925E-4,3.5310924E-4,-1.7374992E0,-3.375191E-2,9.0798706E-2,8.270699E-4,-1.7086827E0,-9.441444E-2,6.340635E-4,-5.102882E-2,-1.4622814E-2,5.675542E-3,1.3178155E0,-2.781654E-4,4.032454E-4,-6.727196E-4,1.0186179E-3,-1.1682097E-3,1.0464123E-3,9.468918E-4,2.0539933E-3,1.628189E-3,-3.0071838E-4,2.616997E-3,5.0939913E-3,8.1195096E-5,-9.784442E-4,-7.5282523E-4,2.8435775E-4,-4.5202614E-5,-2.5663548E-4,-3.1235989E-3,-3.7016286E-4,5.391105E-4,1.3927747E-3,-3.716718E-3,5.1682594E-4,-1.9183918E-3,-4.107318E-3,-4.296793E-5,-1.5624072E-3,-3.034332E-3,9.417712E-5,-1.8326755E-3,-8.541703E-3,-5.345297E-3,-1.9055074E-3,-1.9528496E-3,-2.8989841E-3,4.125511E-4,-3.402654E-4,-3.420583E-4,-2.587488E-3,-4.2539142E-4,-1.5166722E-3,-5.440263E-4,-2.7822562E-5,1.1905074E-3,-6.222055E-4,5.3729495E-4,2.3477345E-3,-4.0367674E-4,1.3555333E-4,2.643269E-3,6.6315243E-4,6.3773774E-4,3.9196247E-3,6.396224E-4,6.338347E-3,-2.7492983E-4,-3.5262976E-3,1.4618947E-4,-4.142963E-4,-3.3200209E-3,-8.2667924E-5,-2.881054E-4,1.3170843E-3],"split_indices":[47,40,40,177,41,46,144,40,40,45,47,40,1,438,0,13,45,191,3,191,0,0,435,47,47,0,21,485,0,68,99,47,279,347,394,45,4,77,310,193,17,75,51,196,26,210,380,234,0,229,51,78,100,0,0,0,46,28,38,154,393,1,28,76,57,0,0,486,61,47,39,83,447,1,0,261,318,10,0,276,0,0,234,1,197,0,426,30,0,4,0,345,68,0,0,0,0,0,0,0,0,0,0,0,0,0,0,0,0,0,0,0,0,0,0,0,0,0,0,0,0,0,0,0,0,0,0,0,0,0,0,0,0,0,0,0,0,0,0,0,0,0,0,0,0,0,0,0,0,0,0,0,0,0,0,0,0],"split_type":[0,0,0,0,0,0,0,0,0,0,0,0,0,0,0,0,0,0,0,0,0,0,0,0,0,0,0,0,0,0,0,0,0,0,0,0,0,0,0,0,0,0,0,0,0,0,0,0,0,0,0,0,0,0,0,0,0,0,0,0,0,0,0,0,0,0,0,0,0,0,0,0,0,0,0,0,0,0,0,0,0,0,0,0,0,0,0,0,0,0,0,0,0,0,0,0,0,0,0,0,0,0,0,0,0,0,0,0,0,0,0,0,0,0,0,0,0,0,0,0,0,0,0,0,0,0,0,0,0,0,0,0,0,0,0,0,0,0,0,0,0,0,0,0,0,0,0,0,0,0,0,0,0,0,0,0,0],"sum_hessian":[2.566E3,1.974E3,5.92E2,1.442E3,5.32E2,4.14E2,1.78E2,7.64E2,6.78E2,1.8E2,3.52E2,3.33E2,8.1E1,1.76E2,2E0,3.79E2,3.85E2,3.14E2,3.64E2,1.79E2,1E0,2.8E2,7.2E1,1.58E2,1.75E2,2E0,7.9E1,1.74E2,2E0,3.72E2,7E0,2.51E2,1.34E2,3E2,1.4E1,3.59E2,5E0,1.34E2,4.5E1,2.67E2,1.3E1,6.3E1,9E0,7.1E1,8.7E1,1.12E2,6.3E1,7.6E1,3E0,1.2E1,1.62E2,3.1E2,6.2E1,3E0,4E0,1.21E2,1.3E2,2E1,1.14E2,1.59E2,1.41E2,3E0,1.1E1,3.45E2,1.4E1,4E0,1E0,1.23E2,1.1E1,1E1,3.5E1,2.9E1,2.38E2,8E0,5E0,2.2E1,4.1E1,6E0,3E0,6.8E1,3E0,3E0,8.4E1,2E0,1.1E2,3E0,6E1,7.5E1,1E0,1E1,2E0,2.9E1,1.33E2,1.79E2,1.31E2,2E0,6E1,4E0,1.17E2,2.7E1,1.03E2,1.1E1,9E0,8.9E1,2.5E1,1.41E2,1.8E1,1.26E2,1.5E1,2E0,1E0,1E1,1E0,2.19E2,1.26E2,6E0,8E0,1.9E1,1.04E2,4E0,7E0,8E0,2E0,5E0,3E1,1.7E1,1.2E1,6.6E1,1.72E2,7E0,1E0,3E0,1.9E1,1.8E1,2.3E1,4E0,2E0,6.5E1,3E0,4E0,8E1,1E0,1E0,1.05E2,5E0,2E0,5.8E1,1E0,7.4E1,1E0,9E0,1E0,1E0,1.6E1,1.3E1,1.1E2,2.3E1],"tree_param":{"num_deleted":"0","num_feature":"494","num_nodes":"157","size_leaf_vector":"1"}},{"base_weights":[2.053456E-3,1.349291E-2,-2.7781194E-2,8.251106E-3,3.970664E-2,-3.721729E-2,-1.0604108E-2,-9.889384E-4,1.668687E-2,3.1849355E-2,7.2062336E-2,-3.7867192E-2,5.9190667E-3,-1.43153425E-2,2.0054778E-2,-5.216798E-3,4.539924E-3,2.5572212E-2,1.1441176E-2,2.3555674E-2,3.8525734E-2,8.121041E-4,7.383839E-2,-5.3236663E-2,-3.200089E-2,-1.1145506E-2,-5.482024E-2,5.0002886E-3,5.898465E-3,-3.7682962E-3,-2.5247272E-2,1.298664E-3,7.962818E-3,2.3285482E-2,7.44418E-2,1.0518892E-2,4.3224907E-3,1.8425526E-2,3.1277142E-2,3.1732146E-2,4.7079023E-2,6.7801233E-3,7.494376E-4,-4.2911075E-2,-7.825447E-2,-2.8830463E-2,-4.2185638E-2,-1.2606815E-2,1.7091999E-2,-5.660829E-3,-1.0185684E-1,1.9023204E-2,-7.552749E-3,-1.7349586E-3,-7.1313577E-3,-3.4157634E-2,1.0386653E-3,-1.5627522E-3,4.2152363E-3,9.162228E-3,-3.5315359E-3,1.478862E-2,2.9911894E-2,1.6933763E-3,7.894331E-3,6.2809684E-3,1.6983401E-2,1.9603629E-2,5.6891707E-3,3.216602E-2,4.585726E-4,3.3490796E-2,1.0767371E-2,3.870951E-4,4.7645945E-2,-4.4848215E-2,-9.881686E-3,-1.239178E-3,-8.3529554E-2,-2.0585833E-3,-2.9736916E-2,-1.9424956E-2,-4.7951546E-2,-3.4142307E-3,-1.0786882E-2,-1.2467639E-3,2.147319E-3,2.7646075E-4,-1.1936657E-2,-1.1258582E-3,-9.939182E-3,1.6966522E-5,1.8678418E-3,7.2242673E-3,-1.3553099E-2,-2.0691862E-4,1.0948735E-3,7.182104E-4,-7.411192E-4,-3.1048438E-4,-3.7080375E-3,-5.334658E-4,5.9214805E-4,-4.7902754E-6,-1.0102988E-3,6.2105816E-4,-2.6217537E-4,-1.3914009E-4,9.251608E-4,3.2164188E-4,-1.1646914E-3,1.4984772E-3,3.627941E-4,2.7894177E-3,-4.7607633E-4,-2.4649003E-3,6.6522736E-4,1.8647204E-3,8.437154E-4,3.4688515E-4,1.8512716E-3,-9.202063E-5,6.832527E-4,2.9666063E-3,2.962128E-4,4.1140305E-4,3.098381E-3,-3.5452646E-5,1.3725109E-3,8.321762E-4,4.4197245E-3,-5.7987927E-4,-4.1813017E-3,-1.2296952E-3,1.04569895E-4,-1.442956E-3,-8.136791E-3,3.1977898E-4,-8.539564E-4,-2.8392877E-3,-1.4288302E-3,-2.2165598E-3,2.0979149E-5,-2.767832E-3,-5.609428E-3,-2.269699E-3,-6.8334537E-4,1.8906135E-4,-2.872597E-4,-1.2512994E-4,-1.1825891E-3,7.930496E-4,-6.1845567E-6,-2.7072074E-5,-1.4908599E-3],"categories":[],"categories_nodes":[],"categories_segments":[],"categories_sizes":[],"default_left":[0,0,0,0,0,0,0,0,0,0,0,0,0,0,0,0,0,0,0,0,0,0,0,0,0,0,0,0,0,0,0,0,0,0,0,0,0,0,0,0,0,0,0,0,0,0,0,0,0,0,0,0,0,0,0,0,0,0,0,0,0,0,0,0,0,0,0,0,0,0,0,0,0,0,0,0,0,0,0,0,0,0,0,0,0,0,0,0,0,0,0,0,0,0,0,0,0,0,0,0,0,0,0,0,0,0,0,0,0,0,0,0,0,0,0,0,0,0,0,0,0,0,0,0,0,0,0,0,0,0,0,0,0,0,0,0,0,0,0,0,0,0,0,0,0,0,0,0,0,0,0,0,0,0,0],"id":5,"left_children":[1,3,5,7,9,11,13,15,17,19,21,23,-1,25,27,29,31,33,35,37,39,-1,41,43,45,47,49,-1,51,53,55,57,59,61,63,65,-1,67,69,71,73,-1,-1,75,77,79,81,83,85,87,89,91,93,95,97,99,101,103,105,107,109,111,113,-1,-1,115,117,119,121,123,-1,125,127,-1,129,131,133,-1,135,137,139,141,143,-1,145,147,-1,-1,149,-1,-1,-1,-1,151,153,-1,-1,-1,-1,-1,-1,-1,-1,-1,-1,-1,-1,-1,-1,-1,-1,-1,-1,-1,-1,-1,-1,-1,-1,-1,-1,-1,-1,-1,-1,-1,-1,-1,-1,-1,-1,-1,-1,-1,-1,-1,-1,-1,-1,-1,-1,-1,-1,-1,-1,-1,-1,-1,-1,-1,-1,-1,-1,-1,-1],"loss_changes":[8.7790394E-1,2.5445718E-1,1.14382386E-1,1.2110094E-1,7.167104E-2,3.792125E-2,3.0103331E-2,1.746224E-2,3.6969423E-2,1.1341929E-2,4.5241714E-3,3.6183357E-2,0E0,2.7825993E-2,1.337417E-2,1.198758E-2,3.5635908E-3,2.8213471E-2,1.5682466E-2,3.0641854E-3,3.4208745E-3,0E0,8.8462234E-4,2.144152E-2,7.297635E-3,9.641917E-3,3.5266884E-2,0E0,4.6680802E-3,2.6845015E-3,6.6645164E-3,1.4385018E-3,2.2615418E-3,1.5000999E-2,3.44982E-3,1.3569806E-2,0E0,8.6579286E-4,5.3921714E-4,2.052106E-3,7.022768E-4,0E0,0E0,4.620835E-3,7.49287E-3,6.3200444E-3,6.917089E-3,8.274674E-3,1.5250451E-3,7.096282E-4,1.2878329E-3,3.6145514E-4,1.5350754E-3,1.961204E-3,2.4798643E-3,3.8628355E-3,4.928124E-4,1.2673679E-3,1.6379199E-3,1.5980266E-3,1.2512926E-3,2.2363495E-3,4.8219413E-3,0E0,0E0,1.1360439E-2,4.8374273E-3,6.3120946E-4,1.574721E-4,2.4758652E-4,0E0,8.562952E-4,5.491184E-4,0E0,6.458536E-4,2.95569E-3,4.0857715E-4,0E0,7.461548E-3,5.8993563E-4,3.95678E-3,1.965627E-3,8.086085E-3,0E0,8.66445E-3,5.7897138E-5,0E0,0E0,2.5515095E-5,0E0,0E0,0E0,0E0,6.737947E-5,4.0037208E-4,0E0,0E0,0E0,0E0,0E0,0E0,0E0,0E0,0E0,0E0,0E0,0E0,0E0,0E0,0E0,0E0,0E0,0E0,0E0,0E0,0E0,0E0,0E0,0E0,0E0,0E0,0E0,0E0,0E0,0E0,0E0,0E0,0E0,0E0,0E0,0E0,0E0,0E0,0E0,0E0,0E0,0E0,0E0,0E0,0E0,0E0,0E0,0E0,0E0,0E0,0E0,0E0,0E0,0E0,0E0,0E0,0E0,0E0,0E0,0E0],"parents":[2147483647,0,0,1,1,2,2,3,3,4,4,5,5,6,6,7,7,8,8,9,9,10,10,11,11,13,13,14,14,15,15,16,16,17,17,18,18,19,19,20,20,22,22,23,23,24,24,25,25,26,26,28,28,29,29,30,30,31,31,32,32,33,33,34,34,35,35,37,37,38,38,39,39,40,40,43,43,44,44,45,45,46,46,47,47,48,48,49,49,50,50,51,51,52,52,53,53,54,54,55,55,56,56,57,57,58,58,59,59,60,60,61,61,62,62,65,65,66,66,67,67,68,68,69,69,71,71,72,72,74,74,75,75,76,76,78,78,79,79,80,80,81,81,82,82,84,84,85,85,88,88,93,93,94,94],"right_children":[2,4,6,8,10,12,14,16,18,20,22,24,-1,26,28,30,32,34,36,38,40,-1,42,44,46,48,50,-1,52,54,56,58,60,62,64,66,-1,68,70,72,74,-1,-1,76,78,80,82,84,86,88,90,92,94,96,98,100,102,104,106,108,110,112,114,-1,-1,116,118,120,122,124,-1,126,128,-1,130,132,134,-1,136,138,140,142,144,-1,146,148,-1,-1,150,-1,-1,-1,-1,152,154,-1,-1,-1,-1,-1,-1,-1,-1,-1,-1,-1,-1,-1,-1,-1,-1,-1,-1,-1,-1,-1,-1,-1,-1,-1,-1,-1,-1,-1,-1,-1,-1,-1,-1,-1,-1,-1,-1,-1,-1,-1,-1,-1,-1,-1,-1,-1,-1,-1,-1,-1,-1,-1,-1,-1,-1,-1,-1,-1,-1],"split_conditions":[2E0,2.0550812E-2,8.965897E-3,1E0,6.794644E-2,1.6597429E-1,1.5107614E0,3.2535961E-3,-1.4575636E-1,1E0,-1.6676758E-1,-2.589192E-2,5.9190667E-3,8.2934305E-2,-6.522125E-1,2.523E1,-5.661745E-1,7.9242274E-2,1.07978076E-1,4.4535093E-2,3.092374E-2,8.121041E-4,1.07978076E-1,2.576E1,1.874E1,7.770515E-2,4.5346433E-1,5.0002886E-3,2.412137E-3,1.522E1,3.5262653E-1,3.4033173E-1,5.4134578E-2,2.5442706E-2,-5.2666362E-2,-3.9076146E-1,4.3224907E-3,2.3763396E-2,1.5737375E0,6.9103315E-2,-9.9604145E-2,6.7801233E-3,7.494376E-4,4.37559E-3,-1.0309283E-2,-1.4836001E0,-7.257057E-1,-1.5697814E0,-1.8541113E-2,-1.7523421E-2,-7.9984665E-2,7.212898E-3,-1.7075537E-3,2.1270157E-1,-1.6300861E0,-1.1743064E0,-3.7882037E-2,3.2226097E-2,5.91362E-2,-5.2777313E-2,-2.9447103E-2,8.450719E-3,2.4261456E0,1.6933763E-3,7.894331E-3,-5.3840715E-2,3.917552E-1,-1.189009E0,-1.3809998E-3,3.3307276E-3,4.585726E-4,-8.453925E-2,-5.8465886E-1,3.870951E-4,-1.0924964E0,-1.0120006E0,7.945543E-3,-1.239178E-3,-1.0009365E0,8.5802E-3,1.0858768E0,9.5556396E-1,-2.2407784E-3,-3.4142307E-3,3.4905085E-3,-6.113984E-2,2.147319E-3,2.7646075E-4,-6.113984E-2,-1.1258582E-3,-9.939182E-3,1.6966522E-5,1.8678418E-3,7.78076E-3,2.6362533E-2,-2.0691862E-4,1.0948735E-3,7.182104E-4,-7.411192E-4,-3.1048438E-4,-3.7080375E-3,-5.334658E-4,5.9214805E-4,-4.7902754E-6,-1.0102988E-3,6.2105816E-4,-2.6217537E-4,-1.3914009E-4,9.251608E-4,3.2164188E-4,-1.1646914E-3,1.4984772E-3,3.627941E-4,2.7894177E-3,-4.7607633E-4,-2.4649003E-3,6.6522736E-4,1.8647204E-3,8.437154E-4,3.4688515E-4,1.8512716E-3,-9.202063E-5,6.832527E-4,2.9666063E-3,2.962128E-4,4.1140305E-4,3.098381E-3,-3.5452646E-5,1.3725109E-3,8.321762E-4,4.4197245E-3,-5.7987927E-4,-4.1813017E-3,-1.2296952E-3,1.04569895E-4,-1.442956E-3,-8.136791E-3,3.1977898E-4,-8.539564E-4,-2.8392877E-3,-1.4288302E-3,-2.2165598E-3,2.0979149E-5,-2.767832E-3,-5.609428E-3,-2.269699E-3,-6.8334537E-4,1.8906135E-4,-2.872597E-4,-1.2512994E-4,-1.1825891E-3,7.930496E-4,-6.1845567E-6,-2.7072074E-5,-1.4908599E-3],"split_indices":[40,47,47,40,46,1,170,47,181,40,37,41,0,3,430,191,70,46,3,45,47,0,19,191,342,15,277,0,28,191,492,78,445,45,42,76,0,18,385,450,5,0,0,395,149,62,458,486,21,10,6,41,244,145,202,485,9,346,153,29,141,246,384,0,0,36,271,320,31,244,0,31,120,0,67,69,18,0,274,33,86,381,19,0,41,0,0,0,0,0,0,0,0,0,47,0,0,0,0,0,0,0,0,0,0,0,0,0,0,0,0,0,0,0,0,0,0,0,0,0,0,0,0,0,0,0,0,0,0,0,0,0,0,0,0,0,0,0,0,0,0,0,0,0,0,0,0,0,0,0,0,0,0,0,0],"split_type":[0,0,0,0,0,0,0,0,0,0,0,0,0,0,0,0,0,0,0,0,0,0,0,0,0,0,0,0,0,0,0,0,0,0,0,0,0,0,0,0,0,0,0,0,0,0,0,0,0,0,0,0,0,0,0,0,0,0,0,0,0,0,0,0,0,0,0,0,0,0,0,0,0,0,0,0,0,0,0,0,0,0,0,0,0,0,0,0,0,0,0,0,0,0,0,0,0,0,0,0,0,0,0,0,0,0,0,0,0,0,0,0,0,0,0,0,0,0,0,0,0,0,0,0,0,0,0,0,0,0,0,0,0,0,0,0,0,0,0,0,0,0,0,0,0,0,0,0,0,0,0,0,0,0,0],"sum_hessian":[2.566E3,1.856E3,7.1E2,1.55E3,3.06E2,4.56E2,2.54E2,7.41E2,8.09E2,2.51E2,5.5E1,4.55E2,1E0,2.28E2,2.6E1,4.2E2,3.21E2,2.96E2,5.13E2,1.18E2,1.33E2,2E0,5.3E1,1.19E2,3.36E2,2.15E2,1.3E1,5E0,2.1E1,3.95E2,2.5E1,1.67E2,1.54E2,2.87E2,9E0,5.04E2,9E0,7.7E1,4.1E1,8.2E1,5.1E1,5.2E1,1E0,9E1,2.9E1,2.65E2,7.1E1,2.06E2,9E0,8E0,5E0,1E1,1.1E1,2.49E2,1.46E2,1.8E1,7E0,8.5E1,8.2E1,1.4E2,1.4E1,1.3E2,1.57E2,3E0,6E0,3.08E2,1.96E2,6.9E1,8E0,3.9E1,2E0,7.4E1,8E0,1E0,5E1,8.4E1,6E0,3E0,2.6E1,9E0,2.56E2,1.7E1,5.4E1,1E1,1.96E2,3E0,6E0,4E0,4E0,1E0,4E0,1E0,9E0,3E0,8E0,2.42E2,7E0,8E0,1.38E2,4E0,1.4E1,3E0,4E0,7.6E1,9E0,6E1,2.2E1,1.2E1,1.28E2,9E0,5E0,1.11E2,1.9E1,1.54E2,3E0,7E0,3.01E2,1.31E2,6.5E1,4E0,6.5E1,2E0,6E0,3.8E1,1E0,2E0,7.2E1,3E0,5E0,2E0,4.8E1,3E0,8.1E1,4E0,2E0,3E0,2.3E1,6E0,3E0,2.28E2,2.8E1,1.3E1,4E0,2.8E1,2.6E1,3.3E1,1.63E2,1E0,2E0,1E0,3E0,2E0,1E0,2E0,6E0],"tree_param":{"num_deleted":"0","num_feature":"494","num_nodes":"155","size_leaf_vector":"1"}},{"base_weights":[2.053456E-3,1.349291E-2,-2.7781194E-2,8.251106E-3,3.970664E-2,-3.721729E-2,-1.0604108E-2,-9.889384E-4,1.668687E-2,3.1849355E-2,7.2062336E-2,-3.7867192E-2,5.9190667E-3,-1.43153425E-2,2.0054778E-2,-5.216798E-3,4.539924E-3,2.5572212E-2,1.1441176E-2,2.644858E-2,4.0053327E-2,8.121041E-4,7.383839E-2,-3.3623807E-2,-6.712562E-2,-1.1145506E-2,-5.482024E-2,5.0002886E-3,5.898465E-3,-3.7682962E-3,-2.5247272E-2,1.298664E-3,7.962818E-3,2.3285482E-2,7.44418E-2,1.0518892E-2,4.3224907E-3,2.7107332E-2,6.214028E-3,6.461859E-4,4.0895846E-2,6.7801233E-3,7.494376E-4,-3.9337363E-2,-2.8356658E-2,-7.754795E-2,-1.9985668E-2,-1.2606815E-2,1.7091999E-2,-5.660829E-3,-1.0185684E-1,1.9023204E-2,-7.552749E-3,-1.7349586E-3,-7.1313577E-3,-3.4157634E-2,1.0386653E-3,-1.5627522E-3,4.2152363E-3,9.162228E-3,-3.5315359E-3,1.478862E-2,2.9911894E-2,1.6933763E-3,7.894331E-3,6.2809684E-3,1.6983401E-2,1.9211322E-2,3.318922E-2,6.308208E-4,9.409758E-6,4.1202027E-2,2.962128E-4,-4.0333025E-2,-9.614194E-3,-2.9742053E-2,-1.0847605E-2,-2.1443577E-2,-8.471362E-2,-2.692306E-3,2.3363284E-3,-3.4142307E-3,-1.0786882E-2,-1.2467639E-3,2.147319E-3,2.7646075E-4,-1.1936657E-2,-1.1258582E-3,-9.939182E-3,1.6966522E-5,1.8678418E-3,-1.2446351E-2,7.930496E-4,-2.0691862E-4,1.0948735E-3,7.182104E-4,-7.411192E-4,-3.1048438E-4,-3.7080375E-3,-5.334658E-4,5.9214805E-4,-5.317169E-4,1.20723475E-4,6.2105816E-4,-2.6217537E-4,-1.3914009E-4,9.251608E-4,3.2164188E-4,-1.1646914E-3,1.4984772E-3,3.627941E-4,2.7894177E-3,-4.7607633E-4,-2.4649003E-3,6.6522736E-4,1.8647204E-3,8.437154E-4,1.7772317E-3,-1.3221233E-4,3.1892709E-3,1.1874712E-3,1.1538339E-3,3.8250152E-3,-3.7203766E-3,-2.48056E-4,-1.0849464E-3,2.5608545E-4,-2.3150947E-3,-3.5414554E-3,-1.2057254E-3,1.6566555E-4,-2.103453E-3,-1.7928019E-4,-8.085592E-3,-3.1314956E-4,-1.2844315E-4,3.3342117E-4,-2.269699E-3,-6.8334537E-4,1.8906135E-4,-2.872597E-4,-1.2512994E-4,-1.1825891E-3,-1.4908599E-3,-2.6683101E-5],"categories":[],"categories_nodes":[],"categories_segments":[],"categories_sizes":[],"default_left":[0,0,0,0,0,0,0,0,0,0,0,0,0,0,0,0,0,0,0,0,0,0,0,0,0,0,0,0,0,0,0,0,0,0,0,0,0,0,0,0,0,0,0,0,0,0,0,0,0,0,0,0,0,0,0,0,0,0,0,0,0,0,0,0,0,0,0,0,0,0,0,0,0,0,0,0,0,0,0,0,0,0,0,0,0,0,0,0,0,0,0,0,0,0,0,0,0,0,0,0,0,0,0,0,0,0,0,0,0,0,0,0,0,0,0,0,0,0,0,0,0,0,0,0,0,0,0,0,0,0,0,0,0,0,0,0,0,0,0,0,0,0,0,0,0],"id":6,"left_children":[1,3,5,7,9,11,13,15,17,19,21,23,-1,25,27,29,31,33,35,37,39,-1,41,43,45,47,49,-1,51,53,55,57,59,61,63,65,-1,67,69,-1,71,-1,-1,73,75,77,79,81,83,85,87,89,91,93,95,97,99,101,103,105,107,109,111,-1,-1,113,115,117,119,-1,-1,121,-1,123,125,127,129,131,133,-1,135,-1,137,139,-1,-1,141,-1,-1,-1,-1,143,-1,-1,-1,-1,-1,-1,-1,-1,-1,-1,-1,-1,-1,-1,-1,-1,-1,-1,-1,-1,-1,-1,-1,-1,-1,-1,-1,-1,-1,-1,-1,-1,-1,-1,-1,-1,-1,-1,-1,-1,-1,-1,-1,-1,-1,-1,-1,-1,-1,-1,-1,-1,-1],"loss_changes":[8.7790394E-1,2.5445718E-1,1.14382386E-1,1.2110094E-1,7.167104E-2,3.792125E-2,3.0103331E-2,1.746224E-2,3.6969423E-2,8.076131E-3,4.5241714E-3,5.0091922E-2,0E0,2.7825993E-2,1.337417E-2,1.198758E-2,3.5635908E-3,2.8213471E-2,1.5682466E-2,1.6540438E-3,1.7648488E-3,0E0,8.8462234E-4,8.871764E-3,2.2372425E-2,9.641917E-3,3.5266884E-2,0E0,4.6680802E-3,2.6845015E-3,6.6645164E-3,1.4385018E-3,2.2615418E-3,1.5000999E-2,3.44982E-3,1.3569806E-2,0E0,5.5787116E-3,3.771641E-5,0E0,6.5745413E-4,0E0,0E0,4.3708086E-3,4.417151E-3,1.2239397E-2,3.2169311E-3,8.274674E-3,1.5250451E-3,7.096282E-4,1.2878329E-3,3.6145514E-4,1.4408248E-3,1.961204E-3,2.4798643E-3,3.8628355E-3,4.928124E-4,1.1136187E-3,1.6379199E-3,1.5980266E-3,1.2512926E-3,2.2363495E-3,4.8219413E-3,0E0,0E0,1.1360439E-2,4.8374273E-3,6.095208E-4,1.8252879E-3,0E0,0E0,6.631911E-4,0E0,3.6661625E-3,3.8928486E-4,5.061224E-3,7.1516307E-4,1.600436E-4,1.2137592E-2,0E0,5.0485032E-5,0E0,8.66445E-3,5.7897138E-5,0E0,0E0,2.5515095E-5,0E0,0E0,0E0,0E0,5.6205713E-4,0E0,0E0,0E0,0E0,0E0,0E0,0E0,0E0,0E0,0E0,0E0,0E0,0E0,0E0,0E0,0E0,0E0,0E0,0E0,0E0,0E0,0E0,0E0,0E0,0E0,0E0,0E0,0E0,0E0,0E0,0E0,0E0,0E0,0E0,0E0,0E0,0E0,0E0,0E0,0E0,0E0,0E0,0E0,0E0,0E0,0E0,0E0,0E0,0E0,0E0,0E0,0E0,0E0],"parents":[2147483647,0,0,1,1,2,2,3,3,4,4,5,5,6,6,7,7,8,8,9,9,10,10,11,11,13,13,14,14,15,15,16,16,17,17,18,18,19,19,20,20,22,22,23,23,24,24,25,25,26,26,28,28,29,29,30,30,31,31,32,32,33,33,34,34,35,35,37,37,38,38,40,40,43,43,44,44,45,45,46,46,47,47,48,48,49,49,50,50,51,51,52,52,53,53,54,54,55,55,56,56,57,57,58,58,59,59,60,60,61,61,62,62,65,65,66,66,67,67,68,68,71,71,73,73,74,74,75,75,76,76,77,77,78,78,80,80,82,82,83,83,86,86,91,91],"right_children":[2,4,6,8,10,12,14,16,18,20,22,24,-1,26,28,30,32,34,36,38,40,-1,42,44,46,48,50,-1,52,54,56,58,60,62,64,66,-1,68,70,-1,72,-1,-1,74,76,78,80,82,84,86,88,90,92,94,96,98,100,102,104,106,108,110,112,-1,-1,114,116,118,120,-1,-1,122,-1,124,126,128,130,132,134,-1,136,-1,138,140,-1,-1,142,-1,-1,-1,-1,144,-1,-1,-1,-1,-1,-1,-1,-1,-1,-1,-1,-1,-1,-1,-1,-1,-1,-1,-1,-1,-1,-1,-1,-1,-1,-1,-1,-1,-1,-1,-1,-1,-1,-1,-1,-1,-1,-1,-1,-1,-1,-1,-1,-1,-1,-1,-1,-1,-1,-1,-1,-1,-1],"split_conditions":[2E0,2.0550812E-2,8.965897E-3,1E0,6.794644E-2,1.6597429E-1,1.5107614E0,3.2535961E-3,-1.4575636E-1,4.4535093E-2,-1.6676758E-1,2.552E1,5.9190667E-3,8.2934305E-2,-4.1399454E-3,2.523E1,-5.661745E-1,7.9242274E-2,1.07978076E-1,1.0179998E0,-1.7521234E0,8.121041E-4,1.07978076E-1,-8.721688E-3,9.027463E-1,7.770515E-2,4.5346433E-1,5.0002886E-3,2.412137E-3,1.522E1,3.5262653E-1,3.4033173E-1,5.4134578E-2,2.5442706E-2,-5.2666362E-2,-3.9076146E-1,4.3224907E-3,1E0,3.848617E-2,6.461859E-4,9.3512265E-3,6.7801233E-3,7.494376E-4,1.8041056E0,1.0303606E0,-9.809826E-1,-3.781922E-1,-1.5697814E0,-2.9767004E-1,-1.7523421E-2,1.4184716E-2,7.212898E-3,1.3754264E0,2.1270157E-1,-1.6300861E0,-1.1743064E0,-3.7882037E-2,-2.6427588E-1,5.91362E-2,-5.2777313E-2,-2.9447103E-2,8.450719E-3,2.4261456E0,1.6933763E-3,7.894331E-3,-5.3840715E-2,3.917552E-1,1.6357592E0,6.171497E-2,6.308208E-4,9.409758E-6,-9.980135E-1,2.962128E-4,2.0293922E0,3.1603668E-2,3.8889285E-2,2.2229271E-2,1.6336057E-2,3.997435E-2,-2.692306E-3,-6.245724E-2,-3.4142307E-3,3.4905085E-3,-6.113984E-2,2.147319E-3,2.7646075E-4,-6.113984E-2,-1.1258582E-3,-9.939182E-3,1.6966522E-5,1.8678418E-3,2.732716E-2,7.930496E-4,-2.0691862E-4,1.0948735E-3,7.182104E-4,-7.411192E-4,-3.1048438E-4,-3.7080375E-3,-5.334658E-4,5.9214805E-4,-5.317169E-4,1.20723475E-4,6.2105816E-4,-2.6217537E-4,-1.3914009E-4,9.251608E-4,3.2164188E-4,-1.1646914E-3,1.4984772E-3,3.627941E-4,2.7894177E-3,-4.7607633E-4,-2.4649003E-3,6.6522736E-4,1.8647204E-3,8.437154E-4,1.7772317E-3,-1.3221233E-4,3.1892709E-3,1.1874712E-3,1.1538339E-3,3.8250152E-3,-3.7203766E-3,-2.48056E-4,-1.0849464E-3,2.5608545E-4,-2.3150947E-3,-3.5414554E-3,-1.2057254E-3,1.6566555E-4,-2.103453E-3,-1.7928019E-4,-8.085592E-3,-3.1314956E-4,-1.2844315E-4,3.3342117E-4,-2.269699E-3,-6.8334537E-4,1.8906135E-4,-2.872597E-4,-1.2512994E-4,-1.1825891E-3,-1.4908599E-3,-2.6683101E-5],"split_indices":[40,47,47,40,45,1,170,47,177,45,37,191,0,3,400,191,70,45,3,175,238,0,19,47,276,15,277,0,28,191,488,78,445,45,41,76,0,40,5,0,244,0,0,419,86,274,52,486,109,10,2,41,52,146,202,485,9,277,153,29,141,246,384,0,0,36,271,229,449,0,0,67,0,204,11,197,29,3,198,0,2,0,42,0,0,0,0,0,0,0,0,15,0,0,0,0,0,0,0,0,0,0,0,0,0,0,0,0,0,0,0,0,0,0,0,0,0,0,0,0,0,0,0,0,0,0,0,0,0,0,0,0,0,0,0,0,0,0,0,0,0,0,0,0,0],"split_type":[0,0,0,0,0,0,0,0,0,0,0,0,0,0,0,0,0,0,0,0,0,0,0,0,0,0,0,0,0,0,0,0,0,0,0,0,0,0,0,0,0,0,0,0,0,0,0,0,0,0,0,0,0,0,0,0,0,0,0,0,0,0,0,0,0,0,0,0,0,0,0,0,0,0,0,0,0,0,0,0,0,0,0,0,0,0,0,0,0,0,0,0,0,0,0,0,0,0,0,0,0,0,0,0,0,0,0,0,0,0,0,0,0,0,0,0,0,0,0,0,0,0,0,0,0,0,0,0,0,0,0,0,0,0,0,0,0,0,0,0,0,0,0,0,0],"sum_hessian":[2.566E3,1.856E3,7.1E2,1.55E3,3.06E2,4.56E2,2.54E2,7.41E2,8.09E2,2.51E2,5.5E1,4.55E2,1E0,2.28E2,2.6E1,4.2E2,3.21E2,2.96E2,5.13E2,1.59E2,9.2E1,2E0,5.3E1,4.03E2,5.2E1,2.15E2,1.3E1,5E0,2.1E1,3.95E2,2.5E1,1.67E2,1.54E2,2.87E2,9E0,5.04E2,9E0,1.53E2,6E0,3E0,8.9E1,5.2E1,1E0,1.84E2,2.19E2,4.1E1,1.1E1,2.06E2,9E0,8E0,5E0,1E1,1.1E1,2.49E2,1.46E2,1.8E1,7E0,8.5E1,8.2E1,1.4E2,1.4E1,1.3E2,1.57E2,3E0,6E0,3.08E2,1.96E2,7.2E1,8.1E1,5E0,1E0,8.8E1,1E0,1.77E2,7E0,2.01E2,1.8E1,6E0,3.5E1,7E0,4E0,1E1,1.96E2,3E0,6E0,4E0,4E0,1E0,4E0,1E0,9E0,9E0,2E0,2.42E2,7E0,8E0,1.38E2,4E0,1.4E1,3E0,4E0,3.3E1,5.2E1,6E1,2.2E1,1.2E1,1.28E2,9E0,5E0,1.11E2,1.9E1,1.54E2,3E0,7E0,3.01E2,1.31E2,6.5E1,7.1E1,1E0,7.2E1,9E0,4E0,8.4E1,1.74E2,3E0,6E0,1E0,1.45E2,5.6E1,1.5E1,3E0,5E0,1E0,3.3E1,2E0,1E0,3E0,3.3E1,1.63E2,1E0,2E0,1E0,3E0,6E0,3E0],"tree_param":{"num_deleted":"0","num_feature":"494","num_nodes":"145","size_leaf_vector":"1"}},{"base_weights":[2.053456E-3,1.349291E-2,-2.7781194E-2,8.251106E-3,3.970664E-2,-3.721729E-2,-1.0604108E-2,1.2495638E-2,2.9571566E-3,3.1849355E-2,7.2062336E-2,-3.2478854E-2,-5.5308584E-2,-1.43153425E-2,2.0054778E-2,1.9681128E-3,2.2602042E-2,-4.882665E-3,9.647451E-3,2.3555674E-2,3.8525734E-2,8.121041E-4,7.383839E-2,-3.8125563E-2,-2.7554717E-2,-5.9554726E-2,5.34579E-2,-5.3536464E-2,-1.1239729E-2,5.0002886E-3,5.898465E-3,2.7885342E-3,-2.9670075E-2,1.9622276E-2,4.4117387E-2,-3.5567475E-3,-2.8043522E-2,8.5771065E-3,5.0434727E-2,1.8425526E-2,3.1277142E-2,3.1732146E-2,4.7079023E-2,6.7801233E-3,7.494376E-4,-3.8657814E-2,2.1010474E-3,-2.9276622E-2,-7.95719E-3,-6.7831196E-2,-3.1673517E-2,1.5569491E-4,5.9190667E-3,-8.495988E-3,-1.6866023E-2,-9.820862E-3,-5.132964E-3,1.9023204E-2,-7.552749E-3,-1.1073997E-3,6.7951567E-3,-3.4100458E-3,-3.982849E-4,9.713351E-3,2.211738E-2,6.1512977E-2,2.6941558E-2,-8.986144E-4,-7.873051E-3,-2.296351E-3,-3.3068698E-2,9.772327E-3,-1.796583E-2,4.862585E-3,5.910238E-4,1.9603629E-2,5.6891707E-3,3.216602E-2,4.585726E-4,3.3490796E-2,1.0767371E-2,3.870951E-4,4.7645945E-2,-3.9280325E-2,-2.728616E-3,2.5608545E-4,-1.7330052E-5,-2.994762E-2,-5.725015E-3,-1.8603921E-2,1.3527302E-3,-9.583542E-2,-5.476263E-2,-4.088733E-3,-3.9335642E-2,9.393829E-4,-2.0142572E-3,-1.5093202E-2,-1.3858445E-3,1.8678418E-3,1.6966522E-5,7.2242673E-3,-1.3553099E-2,-2.9316384E-4,7.0856453E-4,7.5486704E-4,9.155278E-5,-2.371273E-4,1.0796054E-3,1.6325114E-3,2.510105E-3,7.2548585E-4,6.5020868E-3,-1.5254385E-6,2.8124773E-3,-1.5345692E-4,1.1540632E-3,4.2256626E-4,-8.3396264E-4,-4.5202614E-5,-2.5663548E-4,-3.7016286E-4,-3.1235989E-3,5.391105E-4,1.434931E-3,-3.716718E-3,5.1682594E-4,3.4688515E-4,1.8512716E-3,-9.202063E-5,6.832527E-4,2.9666063E-3,2.962128E-4,3.10156E-3,3.6371505E-4,-3.5452646E-5,1.3725109E-3,8.321762E-4,4.4197245E-3,-1.2819899E-3,-3.6818963E-3,-4.3223365E-4,4.8119724E-5,-7.5927057E-4,-2.798376E-3,-6.4492406E-4,-1.3575981E-4,-2.1402263E-3,4.1830805E-5,-3.70031E-4,4.3118733E-4,-1.2013906E-3,-9.47349E-3,-2.6280086E-3,-5.71821E-3,-6.7472487E-4,2.7554948E-4,-3.9146314E-3,-8.2843617E-4,-1.5507037E-3,-2.6767782E-4,6.119297E-4,-1.0204834E-3,7.930496E-4,-6.1845567E-6,-1.4908599E-3,-2.7072074E-5],"categories":[],"categories_nodes":[],"categories_segments":[],"categories_sizes":[],"default_left":[0,0,0,0,0,0,0,0,0,0,0,0,0,0,0,0,0,0,0,0,0,0,0,0,0,0,0,0,0,0,0,0,0,0,0,0,0,0,0,0,0,0,0,0,0,0,0,0,0,0,0,0,0,0,0,0,0,0,0,0,0,0,0,0,0,0,0,0,0,0,0,0,0,0,0,0,0,0,0,0,0,0,0,0,0,0,0,0,0,0,0,0,0,0,0,0,0,0,0,0,0,0,0,0,0,0,0,0,0,0,0,0,0,0,0,0,0,0,0,0,0,0,0,0,0,0,0,0,0,0,0,0,0,0,0,0,0,0,0,0,0,0,0,0,0,0,0,0,0,0,0,0,0,0,0,0,0,0,0,0,0,0,0,0,0,0,0],"id":7,"left_children":[1,3,5,7,9,11,13,15,17,19,21,23,25,27,29,31,33,35,37,39,41,-1,43,45,47,49,51,53,55,-1,57,59,61,63,65,67,69,71,73,75,77,79,81,-1,-1,83,85,87,89,91,93,-1,-1,-1,95,97,-1,99,101,103,105,-1,-1,107,109,111,113,115,117,119,121,123,125,-1,-1,127,129,131,-1,133,135,-1,137,139,141,-1,-1,143,145,147,149,151,153,155,157,-1,-1,159,161,-1,-1,163,165,-1,-1,-1,-1,-1,-1,-1,-1,-1,-1,-1,-1,-1,-1,-1,-1,-1,-1,-1,-1,-1,-1,-1,-1,-1,-1,-1,-1,-1,-1,-1,-1,-1,-1,-1,-1,-1,-1,-1,-1,-1,-1,-1,-1,-1,-1,-1,-1,-1,-1,-1,-1,-1,-1,-1,-1,-1,-1,-1,-1,-1,-1,-1,-1],"loss_changes":[8.7790394E-1,2.5445718E-1,1.14382386E-1,3.4785576E-2,7.167104E-2,3.3958375E-2,3.0103331E-2,9.1473E-2,3.6594566E-2,1.1341929E-2,4.5241714E-3,7.164091E-3,5.1578283E-2,2.60601E-2,1.337417E-2,1.1279782E-2,2.554755E-2,9.58919E-3,1.5117079E-2,3.0641854E-3,3.4208745E-3,0E0,8.8462234E-4,3.7764013E-3,6.35384E-3,1.4092088E-2,2.6801052E-3,1.8693112E-2,1.232449E-2,0E0,4.6680802E-3,6.5317526E-3,1.6880222E-3,9.022519E-3,1.02662E-2,3.5125548E-3,1.971718E-3,1.2264833E-2,1.6421266E-4,8.6579286E-4,5.3921714E-4,2.052106E-3,7.022768E-4,0E0,0E0,3.3241808E-3,9.813957E-6,2.5040358E-3,2.1570227E-3,8.409739E-3,5.012812E-3,0E0,0E0,0E0,2.4137243E-3,9.498788E-3,0E0,3.6145514E-4,1.5350754E-3,4.108938E-3,1.7734207E-3,0E0,0E0,2.3309775E-3,5.5968612E-3,1.0612458E-2,3.34079E-3,2.1460457E-3,2.0331964E-3,1.4739162E-6,1.0432955E-4,7.9422295E-3,9.91185E-3,0E0,0E0,6.3120946E-4,1.574721E-4,2.4758652E-4,0E0,1.0128021E-3,5.491184E-4,0E0,6.458536E-4,3.203541E-3,4.7152556E-5,0E0,0E0,2.5627762E-3,2.0361593E-5,9.739897E-4,3.1532167E-4,7.628739E-3,5.4855794E-3,2.810764E-4,1.0745674E-3,0E0,0E0,2.999723E-3,7.0953025E-3,0E0,0E0,6.737947E-5,4.0037208E-4,0E0,0E0,0E0,0E0,0E0,0E0,0E0,0E0,0E0,0E0,0E0,0E0,0E0,0E0,0E0,0E0,0E0,0E0,0E0,0E0,0E0,0E0,0E0,0E0,0E0,0E0,0E0,0E0,0E0,0E0,0E0,0E0,0E0,0E0,0E0,0E0,0E0,0E0,0E0,0E0,0E0,0E0,0E0,0E0,0E0,0E0,0E0,0E0,0E0,0E0,0E0,0E0,0E0,0E0,0E0,0E0,0E0,0E0,0E0,0E0,0E0,0E0,0E0,0E0],"parents":[2147483647,0,0,1,1,2,2,3,3,4,4,5,5,6,6,7,7,8,8,9,9,10,10,11,11,12,12,13,13,14,14,15,15,16,16,17,17,18,18,19,19,20,20,22,22,23,23,24,24,25,25,26,26,27,27,28,28,30,30,31,31,32,32,33,33,34,34,35,35,36,36,37,37,38,38,39,39,40,40,41,41,42,42,45,45,46,46,47,47,48,48,49,49,50,50,54,54,55,55,57,57,58,58,59,59,60,60,63,63,64,64,65,65,66,66,67,67,68,68,69,69,70,70,71,71,72,72,75,75,76,76,77,77,79,79,80,80,82,82,83,83,84,84,87,87,88,88,89,89,90,90,91,91,92,92,93,93,94,94,97,97,98,98,101,101,102,102],"right_children":[2,4,6,8,10,12,14,16,18,20,22,24,26,28,30,32,34,36,38,40,42,-1,44,46,48,50,52,54,56,-1,58,60,62,64,66,68,70,72,74,76,78,80,82,-1,-1,84,86,88,90,92,94,-1,-1,-1,96,98,-1,100,102,104,106,-1,-1,108,110,112,114,116,118,120,122,124,126,-1,-1,128,130,132,-1,134,136,-1,138,140,142,-1,-1,144,146,148,150,152,154,156,158,-1,-1,160,162,-1,-1,164,166,-1,-1,-1,-1,-1,-1,-1,-1,-1,-1,-1,-1,-1,-1,-1,-1,-1,-1,-1,-1,-1,-1,-1,-1,-1,-1,-1,-1,-1,-1,-1,-1,-1,-1,-1,-1,-1,-1,-1,-1,-1,-1,-1,-1,-1,-1,-1,-1,-1,-1,-1,-1,-1,-1,-1,-1,-1,-1,-1,-1,-1,-1,-1,-1],"split_conditions":[2E0,2.0550812E-2,8.965897E-3,1.883937E-1,6.794644E-2,2.149E1,1.5107614E0,1E0,1E0,1E0,-1.6676758E-1,-8.721688E-3,1.0572618E-2,-5.6976076E-2,-4.1399454E-3,7.8080565E-2,5.244063E-2,2.552E1,1.07978076E-1,4.4535093E-2,3.092374E-2,8.121041E-4,1.07978076E-1,2.7858468E-3,5.706177E-1,4.7883487E-1,-1.9844251E-3,-3.7902255E-2,1.7930392E0,5.0002886E-3,2.412137E-3,2.0438112E-1,-2.4035538E-3,1.9549415E-2,-5.426224E-1,1.544E1,-5.0530573E-3,1.24082945E-1,2.7335249E-2,2.3763396E-2,1.5737375E0,6.9103315E-2,-9.9604145E-2,6.7801233E-3,7.494376E-4,2.0293922E0,3.3110503E-2,9.1064006E-1,-1.3098725E-2,-7.7005905E-1,-7.799571E-3,1.5569491E-4,5.9190667E-3,-8.495988E-3,-2.4804711E-2,2.5131438E-2,-5.132964E-3,1.3766825E-2,-1.7075537E-3,1.685253E-1,1.8789409E-2,-3.4100458E-3,-3.982849E-4,-1.5267189E-2,6.819028E-3,-7.9896855E-1,-1.09422E0,2.1270157E-1,-1.4077443E0,4.3639187E-2,-6.0779836E-2,-5.0179535E-1,-1.9057693E0,4.862585E-3,5.910238E-4,-1.189009E0,-1.3809998E-3,3.3307276E-3,4.585726E-4,8.021822E-2,-5.8465886E-1,3.870951E-4,-1.0924964E0,-3.8830936E-2,4.0045395E-3,2.5608545E-4,-1.7330052E-5,-1.3113954E0,-5.8482704E-3,1.8129185E-2,8.753085E-2,1.14516154E-1,-3.157795E-1,-9.602831E-3,6.064653E-2,9.393829E-4,-2.0142572E-3,7.925276E-1,1.353093E-2,1.8678418E-3,1.6966522E-5,3.032901E-2,2.732716E-2,-2.9316384E-4,7.0856453E-4,7.5486704E-4,9.155278E-5,-2.371273E-4,1.0796054E-3,1.6325114E-3,2.510105E-3,7.2548585E-4,6.5020868E-3,-1.5254385E-6,2.8124773E-3,-1.5345692E-4,1.1540632E-3,4.2256626E-4,-8.3396264E-4,-4.5202614E-5,-2.5663548E-4,-3.7016286E-4,-3.1235989E-3,5.391105E-4,1.434931E-3,-3.716718E-3,5.1682594E-4,3.4688515E-4,1.8512716E-3,-9.202063E-5,6.832527E-4,2.9666063E-3,2.962128E-4,3.10156E-3,3.6371505E-4,-3.5452646E-5,1.3725109E-3,8.321762E-4,4.4197245E-3,-1.2819899E-3,-3.6818963E-3,-4.3223365E-4,4.8119724E-5,-7.5927057E-4,-2.798376E-3,-6.4492406E-4,-1.3575981E-4,-2.1402263E-3,4.1830805E-5,-3.70031E-4,4.3118733E-4,-1.2013906E-3,-9.47349E-3,-2.6280086E-3,-5.71821E-3,-6.7472487E-4,2.7554948E-4,-3.9146314E-3,-8.2843617E-4,-1.5507037E-3,-2.6767782E-4,6.119297E-4,-1.0204834E-3,7.930496E-4,-6.1845567E-6,-1.4908599E-3,-2.7072074E-5],"split_indices":[40,47,47,177,45,191,170,40,40,40,37,47,249,349,399,13,45,191,3,45,47,0,19,250,74,439,1,43,387,0,28,82,34,45,154,191,393,45,4,18,389,449,5,0,0,204,0,54,26,234,25,0,0,0,13,47,0,38,245,68,30,0,0,198,47,303,485,145,103,1,30,80,53,0,0,320,31,244,0,33,120,0,67,30,0,0,0,118,9,25,118,303,184,4,29,0,0,108,224,0,0,2,15,0,0,0,0,0,0,0,0,0,0,0,0,0,0,0,0,0,0,0,0,0,0,0,0,0,0,0,0,0,0,0,0,0,0,0,0,0,0,0,0,0,0,0,0,0,0,0,0,0,0,0,0,0,0,0,0,0,0,0,0,0,0,0,0],"split_type":[0,0,0,0,0,0,0,0,0,0,0,0,0,0,0,0,0,0,0,0,0,0,0,0,0,0,0,0,0,0,0,0,0,0,0,0,0,0,0,0,0,0,0,0,0,0,0,0,0,0,0,0,0,0,0,0,0,0,0,0,0,0,0,0,0,0,0,0,0,0,0,0,0,0,0,0,0,0,0,0,0,0,0,0,0,0,0,0,0,0,0,0,0,0,0,0,0,0,0,0,0,0,0,0,0,0,0,0,0,0,0,0,0,0,0,0,0,0,0,0,0,0,0,0,0,0,0,0,0,0,0,0,0,0,0,0,0,0,0,0,0,0,0,0,0,0,0,0,0,0,0,0,0,0,0,0,0,0,0,0,0,0,0,0,0,0,0],"sum_hessian":[2.566E3,1.856E3,7.1E2,1.55E3,3.06E2,4.56E2,2.54E2,8.58E2,6.92E2,2.51E2,5.5E1,3.68E2,8.8E1,2.28E2,2.6E1,4.22E2,4.36E2,3.19E2,3.73E2,1.18E2,1.33E2,2E0,5.3E1,1.62E2,2.06E2,8.6E1,2E0,1.3E1,2.15E2,5E0,2.1E1,4.14E2,8E0,3.88E2,4.8E1,3.05E2,1.4E1,3.67E2,6E0,7.7E1,4.1E1,8.2E1,5.1E1,5.2E1,1E0,1.6E2,2E0,1.88E2,1.8E1,6.3E1,2.3E1,1E0,1E0,4E0,9E0,2.12E2,3E0,1E1,1.1E1,2.11E2,2.03E2,5E0,3E0,8.1E1,3.07E2,2E1,2.8E1,1.91E2,1.14E2,3E0,1.1E1,3.53E2,1.4E1,5E0,1E0,6.9E1,8E0,3.9E1,2E0,7.4E1,8E0,1E0,5E1,1.57E2,3E0,1E0,1E0,1.82E2,6E0,7E0,1.1E1,1.4E1,4.9E1,6E0,1.7E1,1E0,8E0,1.29E2,8.3E1,9E0,1E0,3E0,8E0,1.72E2,3.9E1,1.6E2,4.3E1,1.2E1,6.9E1,1.82E2,1.25E2,4E0,1.6E1,4E0,2.4E1,1.83E2,8E0,1E1,1.04E2,2E0,1E0,1E0,1E1,2.19E2,1.34E2,6E0,8E0,4E0,6.5E1,2E0,6E0,3.8E1,1E0,7.2E1,2E0,3E0,5E0,2E0,4.8E1,9E0,1.48E2,1E0,2E0,8E0,1.74E2,3E0,3E0,5E0,2E0,4E0,7E0,2E0,1.2E1,1.5E1,3.4E1,4E0,2E0,1.4E1,3E0,1.1E2,1.9E1,4.6E1,3.7E1,2E0,1E0,6E0,2E0],"tree_param":{"num_deleted":"0","num_feature":"494","num_nodes":"167","size_leaf_vector":"1"}},{"base_weights":[2.053456E-3,-4.039847E-3,2.2289254E-2,7.363357E-3,-3.48165E-2,3.4636136E-2,-6.5257614E-3,-1.679565E-3,1.5703494E-2,-3.013893E-2,-5.664534E-2,2.648956E-2,6.5985434E-2,-8.375237E-3,5.7819015E-3,-1.1033578E-3,-3.726064E-2,1.4726042E-2,6.4073615E-2,-3.388603E-2,-1.6295815E-2,-6.0168497E-2,5.9190667E-3,1.8596262E-2,3.318255E-2,2.5453376E-2,6.8678476E-2,-5.8841235E-3,-4.4816565E-2,-4.329731E-3,3.7598852E-3,9.144712E-5,-3.7626433E-3,2.3325587E-2,9.904255E-3,7.99001E-3,2.1545531E-2,-3.9444074E-2,-2.9690096E-2,-1.8484807E-2,-4.862789E-5,-7.010599E-2,-2.9191459E-2,1.0619456E-2,2.4535095E-2,2.7710985E-2,4.1208036E-2,2.5118645E-3,1.3316298E-4,4.7147702E-2,7.747623E-2,-3.2624327E-2,-3.250442E-3,-5.319875E-3,-5.918741E-3,-1.7349586E-3,-8.190536E-3,2.183361E-3,1.1301885E-2,1.6729105E-2,3.3987105E-2,1.0908395E-2,-1.3601722E-2,-6.0603365E-5,2.233822E-3,-4.5462128E-2,-2.9046597E-2,-3.0909881E-2,-9.028383E-3,-1.0708738E-2,-2.4176983E-2,-8.3949603E-4,4.556443E-3,-4.109541E-2,-8.588071E-2,1.7367098E-3,-3.6457412E-2,1.1963859E-2,-9.6354925E-4,3.5310924E-4,2.5113257E-2,-2.359486E-3,2.8305847E-2,5.4236833E-4,4.202969E-2,3.870951E-4,4.380561E-3,7.1150376E-3,8.8196713E-4,-3.6736015E-2,-2.35934E-3,-2.0358946E-2,8.725728E-4,-9.6222E-4,5.9698615E-4,-2.0691862E-4,1.0948735E-3,5.816588E-4,-8.407961E-4,-6.236297E-4,2.5986592E-4,1.2090917E-3,-3.114975E-4,3.3275722E-4,1.6918432E-3,5.204727E-4,3.270214E-3,6.8375707E-4,1.4849318E-3,-3.225894E-3,4.4942962E-4,-9.6265296E-4,-4.2970143E-3,-2.7476232E-3,1.852318E-4,-1.7656097E-3,-2.9867631E-3,-2.0007687E-3,7.276557E-5,-1.3184426E-3,-2.1332898E-4,-3.697001E-4,-2.4272134E-3,4.3362925E-6,6.175389E-4,-4.628206E-3,-1.0136471E-3,-8.271465E-3,-1.0415539E-3,-6.026655E-4,9.758109E-4,-3.6404107E-3,-2.1322614E-5,1.1905074E-3,-6.222055E-4,5.3729495E-4,2.3477345E-3,1.3555333E-4,-4.0367674E-4,2.643269E-3,6.6315243E-4,6.3773774E-4,3.8927046E-3,-2.7492983E-4,-3.5262976E-3,1.4618947E-4,-4.142963E-4,-3.114029E-3,-8.2667924E-5,-8.186228E-4,5.6168763E-4],"categories":[],"categories_nodes":[],"categories_segments":[],"categories_sizes":[],"default_left":[0,0,0,0,0,0,0,0,0,0,0,0,0,0,0,0,0,0,0,0,0,0,0,0,0,0,0,0,0,0,0,0,0,0,0,0,0,0,0,0,0,0,0,0,0,0,0,0,0,0,0,0,0,0,0,0,0,0,0,0,0,0,0,0,0,0,0,0,0,0,0,0,0,0,0,0,0,0,0,0,0,0,0,0,0,0,0,0,0,0,0,0,0,0,0,0,0,0,0,0,0,0,0,0,0,0,0,0,0,0,0,0,0,0,0,0,0,0,0,0,0,0,0,0,0,0,0,0,0,0,0,0,0,0,0,0,0,0,0,0,0,0,0,0,0,0,0,0,0,0,0],"id":8,"left_children":[1,3,5,7,9,11,13,15,17,19,21,23,25,27,-1,29,31,33,35,37,39,41,-1,43,45,47,49,51,53,55,57,-1,-1,59,61,-1,63,65,67,69,71,73,75,77,79,81,83,-1,-1,85,87,89,91,93,-1,95,97,99,101,103,105,107,109,-1,-1,111,113,115,117,119,121,-1,123,125,127,129,131,133,-1,-1,135,137,139,-1,141,-1,-1,-1,-1,143,145,147,149,-1,-1,-1,-1,-1,-1,-1,-1,-1,-1,-1,-1,-1,-1,-1,-1,-1,-1,-1,-1,-1,-1,-1,-1,-1,-1,-1,-1,-1,-1,-1,-1,-1,-1,-1,-1,-1,-1,-1,-1,-1,-1,-1,-1,-1,-1,-1,-1,-1,-1,-1,-1,-1,-1,-1,-1,-1,-1],"loss_changes":[3.1703514E-1,6.946021E-1,2.1236455E-1,1.09059885E-1,4.9504995E-2,1.0125369E-1,2.5073275E-2,1.4146106E-2,3.272353E-2,2.1530002E-2,5.0788254E-2,1.5899599E-2,3.9246976E-3,1.5458408E-2,0E0,1.0843997E-2,1.8626908E-3,3.003262E-2,8.499254E-3,4.625827E-3,3.5893638E-3,2.1565557E-2,0E0,6.8453997E-3,4.3905675E-3,4.008445E-4,3.6270618E-3,1.17245745E-2,7.776018E-3,4.114802E-3,3.2076526E-3,0E0,0E0,1.6861007E-2,1.17747E-2,0E0,6.541703E-4,4.861161E-3,4.4806004E-3,3.1626709E-3,7.6074974E-4,1.9615948E-2,6.2574595E-3,2.4913568E-3,7.819198E-4,2.2574514E-3,1.1588931E-3,0E0,0E0,7.206425E-4,3.964007E-4,1.6065836E-3,1.1268933E-2,6.46566E-4,0E0,1.961204E-3,2.740262E-3,1.4753512E-3,1.519883E-3,3.9504394E-3,4.8806295E-3,8.121945E-3,9.048755E-3,0E0,0E0,3.7859678E-3,2.3803934E-3,2.508834E-3,2.0941054E-3,1.2621614E-3,2.1598116E-3,0E0,1.2003278E-4,6.8203844E-3,1.2071162E-2,8.156433E-4,2.8303973E-3,1.7801644E-3,0E0,0E0,7.313192E-4,5.992766E-5,1.1921376E-3,0E0,8.693114E-4,0E0,0E0,0E0,0E0,5.47925E-4,6.558575E-5,8.284595E-3,7.0325583E-3,0E0,0E0,0E0,0E0,0E0,0E0,0E0,0E0,0E0,0E0,0E0,0E0,0E0,0E0,0E0,0E0,0E0,0E0,0E0,0E0,0E0,0E0,0E0,0E0,0E0,0E0,0E0,0E0,0E0,0E0,0E0,0E0,0E0,0E0,0E0,0E0,0E0,0E0,0E0,0E0,0E0,0E0,0E0,0E0,0E0,0E0,0E0,0E0,0E0,0E0,0E0,0E0,0E0,0E0,0E0,0E0,0E0,0E0],"parents":[2147483647,0,0,1,1,2,2,3,3,4,4,5,5,6,6,7,7,8,8,9,9,10,10,11,11,12,12,13,13,15,15,16,16,17,17,18,18,19,19,20,20,21,21,23,23,24,24,25,25,26,26,27,27,28,28,29,29,30,30,33,33,34,34,36,36,37,37,38,38,39,39,40,40,41,41,42,42,43,43,44,44,45,45,46,46,49,49,50,50,51,51,52,52,53,53,55,55,56,56,57,57,58,58,59,59,60,60,61,61,62,62,65,65,66,66,67,67,68,68,69,69,70,70,72,72,73,73,74,74,75,75,76,76,77,77,80,80,81,81,82,82,84,84,89,89,90,90,91,91,92,92],"right_children":[2,4,6,8,10,12,14,16,18,20,22,24,26,28,-1,30,32,34,36,38,40,42,-1,44,46,48,50,52,54,56,58,-1,-1,60,62,-1,64,66,68,70,72,74,76,78,80,82,84,-1,-1,86,88,90,92,94,-1,96,98,100,102,104,106,108,110,-1,-1,112,114,116,118,120,122,-1,124,126,128,130,132,134,-1,-1,136,138,140,-1,142,-1,-1,-1,-1,144,146,148,150,-1,-1,-1,-1,-1,-1,-1,-1,-1,-1,-1,-1,-1,-1,-1,-1,-1,-1,-1,-1,-1,-1,-1,-1,-1,-1,-1,-1,-1,-1,-1,-1,-1,-1,-1,-1,-1,-1,-1,-1,-1,-1,-1,-1,-1,-1,-1,-1,-1,-1,-1,-1,-1,-1,-1,-1,-1,-1],"split_conditions":[1.6265124E-2,2E0,2E0,1E0,2.228E1,5.759391E-2,2.7775598E-1,3.302E1,1.07978076E-1,2.981626E-1,1.6597429E-1,1E0,-1.7385044E0,8.2734264E-2,5.7819015E-3,3.2535961E-3,-7.9984665E-2,-1.0628951E-1,-3.3453974E-1,-1.1995067E-2,4.3018106E-1,4.7883487E-1,5.9190667E-3,2.2753756E-2,2.7639259E-2,1.0758406E-1,6.8599164E-2,-1.3252615E0,-4.4732234E-1,1.522E1,2.9033673E-1,9.144712E-5,-3.7626433E-3,3.166768E-2,2.0678824E-1,7.99001E-3,1.2252652E-2,6.441587E-3,7.2827524E-1,-5.807612E-3,-1.7265864E-2,8.997431E-2,-4.121405E-2,7.202489E-2,-3.7355937E-2,-1.878675E0,-1.9583559E0,2.5118645E-3,1.3316298E-4,-1.1746613E-1,1.3123052E-1,1.385358E0,1.0405914E-1,-3.2815084E-2,-5.918741E-3,2.1270157E-1,-1.6300861E0,-5.4960556E-2,1.0898815E0,-3.8140847E-3,-3.4702983E-2,-3.9076146E-1,-7.575258E-2,-6.0603365E-5,2.233822E-3,-1.5539747E0,6.064653E-2,-1.0295452E0,-7.32239E-3,1.2275372E-2,-5.7371955E-2,-8.3949603E-4,-3.864449E-2,3.1370614E-2,5.8271554E-3,-9.602831E-3,3.361E1,1.8095268E0,-9.6354925E-4,3.5310924E-4,-1.8519858E0,-9.1195E-3,9.0798706E-2,5.4236833E-4,-1.7086827E0,3.870951E-4,4.380561E-3,7.1150376E-3,8.8196713E-4,-5.102882E-2,-1.4622814E-2,5.675542E-3,2.5131438E-2,-9.6222E-4,5.9698615E-4,-2.0691862E-4,1.0948735E-3,5.816588E-4,-8.407961E-4,-6.236297E-4,2.5986592E-4,1.2090917E-3,-3.114975E-4,3.3275722E-4,1.6918432E-3,5.204727E-4,3.270214E-3,6.8375707E-4,1.4849318E-3,-3.225894E-3,4.4942962E-4,-9.6265296E-4,-4.2970143E-3,-2.7476232E-3,1.852318E-4,-1.7656097E-3,-2.9867631E-3,-2.0007687E-3,7.276557E-5,-1.3184426E-3,-2.1332898E-4,-3.697001E-4,-2.4272134E-3,4.3362925E-6,6.175389E-4,-4.628206E-3,-1.0136471E-3,-8.271465E-3,-1.0415539E-3,-6.026655E-4,9.758109E-4,-3.6404107E-3,-2.1322614E-5,1.1905074E-3,-6.222055E-4,5.3729495E-4,2.3477345E-3,1.3555333E-4,-4.0367674E-4,2.643269E-3,6.6315243E-4,6.3773774E-4,3.8927046E-3,-2.7492983E-4,-3.5262976E-3,1.4618947E-4,-4.142963E-4,-3.114029E-3,-8.2667924E-5,-8.186228E-4,5.6168763E-4],"split_indices":[47,40,40,40,191,45,144,191,3,75,1,40,227,23,0,47,10,177,133,47,70,435,0,48,48,2,45,485,361,191,71,0,0,45,147,0,2,247,74,8,23,296,39,197,26,210,355,0,0,18,10,227,51,1,0,145,202,7,109,399,36,76,47,0,0,275,11,377,350,47,292,0,220,32,248,4,342,276,0,0,236,0,197,0,426,0,0,0,0,4,0,345,48,0,0,0,0,0,0,0,0,0,0,0,0,0,0,0,0,0,0,0,0,0,0,0,0,0,0,0,0,0,0,0,0,0,0,0,0,0,0,0,0,0,0,0,0,0,0,0,0,0,0,0,0,0,0,0,0,0,0],"split_type":[0,0,0,0,0,0,0,0,0,0,0,0,0,0,0,0,0,0,0,0,0,0,0,0,0,0,0,0,0,0,0,0,0,0,0,0,0,0,0,0,0,0,0,0,0,0,0,0,0,0,0,0,0,0,0,0,0,0,0,0,0,0,0,0,0,0,0,0,0,0,0,0,0,0,0,0,0,0,0,0,0,0,0,0,0,0,0,0,0,0,0,0,0,0,0,0,0,0,0,0,0,0,0,0,0,0,0,0,0,0,0,0,0,0,0,0,0,0,0,0,0,0,0,0,0,0,0,0,0,0,0,0,0,0,0,0,0,0,0,0,0,0,0,0,0,0,0,0,0,0,0],"sum_hessian":[2.566E3,1.974E3,5.92E2,1.442E3,5.32E2,4.14E2,1.78E2,6.93E2,7.49E2,4.44E2,8.8E1,3.33E2,8.1E1,1.76E2,2E0,6.85E2,8E0,7.38E2,1.1E1,3.46E2,9.8E1,8.7E1,1E0,1.58E2,1.75E2,7E0,7.4E1,1.68E2,8E0,4.12E2,2.73E2,1E0,7E0,2.61E2,4.77E2,5E0,6E0,1.38E2,2.08E2,8.6E1,1.2E1,6.3E1,2.4E1,7.1E1,8.7E1,1.12E2,6.3E1,6E0,1E0,2.7E1,4.7E1,1.2E1,1.56E2,4E0,4E0,2.49E2,1.63E2,2.29E2,4.4E1,1.66E2,9.5E1,4.59E2,1.8E1,1E0,5E0,8.1E1,5.7E1,1.95E2,1.3E1,4E1,4.6E1,3E0,9E0,2.6E1,3.7E1,5E0,1.9E1,6.8E1,3E0,3E0,8.4E1,2E0,1.1E2,2E0,6.1E1,1E0,2.6E1,4.6E1,1E0,1E1,2E0,2.8E1,1.28E2,3E0,1E0,2.42E2,7E0,1E1,1.53E2,1.4E1,2.15E2,3.9E1,5E0,2.2E1,1.44E2,7E0,8.8E1,2.87E2,1.72E2,7E0,1.1E1,5E0,7.6E1,5.5E1,2E0,3.3E1,1.62E2,4E0,9E0,2.6E1,1.4E1,6E0,4E1,4E0,5E0,1.8E1,8E0,3.4E1,3E0,3E0,2E0,1.7E1,2E0,6.5E1,3E0,4E0,8E1,1E0,1E0,1.05E2,5E0,2E0,5.9E1,1E0,9E0,1E0,1E0,1.5E1,1.3E1,4.4E1,8.4E1],"tree_param":{"num_deleted":"0","num_feature":"494","num_nodes":"151","size_leaf_vector":"1"}},{"base_weights":[2.053456E-3,-4.039847E-3,2.2289254E-2,-1.1971223E-2,6.522663E-4,3.4636136E-2,-6.5257614E-3,3.2705518E-3,-4.4851836E-2,9.531731E-3,-2.6807707E-2,2.8090853E-2,5.0318673E-2,-8.375237E-3,5.7819015E-3,-8.257171E-3,1.0848291E-2,-4.6167742E-2,5.9190667E-3,1.0039666E-3,1.8907463E-2,-6.458187E-2,-2.4870463E-2,2.3251971E-2,4.9417015E-2,3.291185E-2,7.013216E-2,-6.6623036E-3,-5.817085E-3,-5.604575E-3,-2.2904932E-2,3.0684829E-2,7.6060463E-3,-6.0484968E-2,-3.8993858E-2,-7.388643E-4,8.032888E-3,1.4084258E-2,2.914359E-2,-8.583993E-2,3.1391636E-3,-2.9103586E-2,-1.5039559E-2,1.7590605E-2,2.8279912E-2,7.981239E-4,5.132851E-2,3.4363836E-2,4.8407135E-4,7.243421E-2,1.443848E-3,-3.2624327E-2,-4.180987E-3,-6.3371267E-3,5.930203E-3,-3.1145956E-2,-1.7608542E-4,3.2175493E-3,3.78834E-2,6.2008067E-3,5.077538E-2,-6.6707745E-2,-2.3496857E-2,-5.2004743E-2,-3.4077276E-2,-2.5200294E-3,4.4204253E-3,1.185644E-2,2.2261855E-3,9.96354E-3,1.8307893E-2,2.6340466E-2,6.5867856E-2,-1.7405892E-3,-8.666669E-3,-4.7990875E-4,1.0279538E-3,-1.19431615E-2,-3.0282186E-2,-1.0431975E-2,-2.494714E-2,1.1739091E-2,2.3843804E-2,3.0167941E-2,1.0628447E-2,5.2477144E-2,8.640481E-4,3.749224E-4,3.5115507E-2,6.6819653E-4,-4.8174942E-4,7.494376E-4,6.658136E-3,-3.7207715E-2,-1.1329153E-3,-2.213856E-2,1.3655209E-4,-1.02585545E-4,-7.3913875E-4,-7.218265E-5,7.6693424E-4,-5.0431566E-4,-3.4269053E-3,4.7515906E-4,-5.003141E-4,9.405769E-4,-5.7350873E-4,2.0306017E-3,4.733838E-3,-8.304177E-4,7.685067E-4,4.937636E-3,5.910238E-4,-1.178829E-3,-6.3501545E-3,-2.720767E-3,-6.0418766E-4,-4.913162E-3,-5.186936E-4,-8.674061E-4,-3.2460063E-3,-1.7808129E-4,-1.8191307E-3,5.0631055E-4,-4.4616027E-4,-6.44673E-4,1.1722281E-3,-2.9805332E-4,7.2071096E-4,1.0232363E-3,-9.342052E-5,1.7562917E-3,3.948951E-4,9.088365E-4,2.6421903E-3,6.8434128E-3,2.7488636E-9,-1.3924072E-3,-3.1494114E-4,-1.3000593E-3,-2.8745553E-3,-1.1294276E-3,1.06181076E-4,-3.3812498E-4,-2.547289E-3,-8.6615654E-4,1.1906977E-3,2.2805568E-3,6.0654536E-4,-3.7415928E-4,2.8082177E-3,1.3811005E-3,-1.8427992E-5,4.828957E-3,5.075467E-4,3.2335508E-3,1.4867808E-4,-4.142963E-4,-3.5262976E-3,1.4618947E-4,-2.7492983E-4,-3.3200209E-3,-8.2667924E-5,-2.881054E-4,1.3170843E-3],"categories":[],"categories_nodes":[],"categories_segments":[],"categories_sizes":[],"default_left":[0,0,0,0,0,0,0,0,0,0,0,0,0,0,0,0,0,0,0,0,0,0,0,0,0,0,0,0,0,0,0,0,0,0,0,0,0,0,0,0,0,0,0,0,0,0,0,0,0,0,0,0,0,0,0,0,0,0,0,0,0,0,0,0,0,0,0,0,0,0,0,0,0,0,0,0,0,0,0,0,0,0,0,0,0,0,0,0,0,0,0,0,0,0,0,0,0,0,0,0,0,0,0,0,0,0,0,0,0,0,0,0,0,0,0,0,0,0,0,0,0,0,0,0,0,0,0,0,0,0,0,0,0,0,0,0,0,0,0,0,0,0,0,0,0,0,0,0,0,0,0,0,0,0,0,0,0,0,0,0,0,0,0,0,0],"id":9,"left_children":[1,3,5,7,9,11,13,15,17,19,21,23,25,27,-1,29,31,33,-1,35,37,39,41,43,45,47,49,51,-1,53,55,57,59,61,63,65,67,69,71,73,75,77,79,81,83,-1,85,87,89,91,-1,93,95,97,99,101,103,105,107,109,111,113,115,117,119,121,123,125,127,129,131,133,135,-1,-1,-1,-1,137,139,141,143,145,147,149,151,153,-1,-1,155,-1,-1,-1,-1,157,159,161,163,-1,-1,-1,-1,-1,-1,-1,-1,-1,-1,-1,-1,-1,-1,-1,-1,-1,-1,-1,-1,-1,-1,-1,-1,-1,-1,-1,-1,-1,-1,-1,-1,-1,-1,-1,-1,-1,-1,-1,-1,-1,-1,-1,-1,-1,-1,-1,-1,-1,-1,-1,-1,-1,-1,-1,-1,-1,-1,-1,-1,-1,-1,-1,-1,-1,-1,-1,-1],"loss_changes":[3.1703514E-1,7.3597305E-2,2.1236455E-1,3.6879185E-1,3.0433473E-1,3.8563192E-2,2.5073275E-2,4.438254E-2,4.2732865E-2,7.53397E-2,1.7500699E-2,2.761449E-2,3.411734E-2,1.5772771E-2,0E0,7.46351E-3,1.8980198E-2,1.6753078E-2,0E0,6.1061657E-3,2.0936161E-2,1.9523427E-2,1.096344E-2,5.6523383E-3,2.7650744E-3,3.198944E-3,3.1676888E-3,1.0993134E-2,0E0,1.5914608E-3,5.6028143E-3,7.93878E-3,1.5252545E-2,1.1869878E-2,5.1104426E-3,3.7184267E-3,2.118837E-3,4.8655383E-3,9.3099475E-3,8.556023E-4,5.916504E-4,3.0207336E-3,3.5560094E-3,3.770709E-3,3.3038706E-3,0E0,9.057075E-4,1.0657385E-3,3.5510346E-4,7.7325106E-4,0E0,2.0386E-3,1.2801934E-2,1.5231245E-3,2.2231191E-4,3.0613896E-3,4.0290746E-4,1.0107321E-3,3.7901327E-3,9.283001E-3,1.940243E-4,7.4201226E-3,1.0289392E-3,2.7585477E-3,4.0533394E-3,2.8267507E-3,1.1966724E-3,1.4348011E-3,1.4275827E-3,2.3637023E-3,1.866553E-3,5.1820725E-3,4.95835E-3,0E0,0E0,0E0,0E0,3.5564578E-4,2.6632398E-3,1.6608103E-3,1.5138928E-3,2.4257554E-3,7.351823E-4,3.204994E-3,8.495434E-4,5.540103E-4,0E0,0E0,7.97309E-4,0E0,0E0,0E0,0E0,1.4098361E-4,4.0510076E-5,9.6703395E-3,6.5897885E-3,0E0,0E0,0E0,0E0,0E0,0E0,0E0,0E0,0E0,0E0,0E0,0E0,0E0,0E0,0E0,0E0,0E0,0E0,0E0,0E0,0E0,0E0,0E0,0E0,0E0,0E0,0E0,0E0,0E0,0E0,0E0,0E0,0E0,0E0,0E0,0E0,0E0,0E0,0E0,0E0,0E0,0E0,0E0,0E0,0E0,0E0,0E0,0E0,0E0,0E0,0E0,0E0,0E0,0E0,0E0,0E0,0E0,0E0,0E0,0E0,0E0,0E0,0E0,0E0,0E0,0E0,0E0,0E0],"parents":[2147483647,0,0,1,1,2,2,3,3,4,4,5,5,6,6,7,7,8,8,9,9,10,10,11,11,12,12,13,13,15,15,16,16,17,17,19,19,20,20,21,21,22,22,23,23,24,24,25,25,26,26,27,27,29,29,30,30,31,31,32,32,33,33,34,34,35,35,36,36,37,37,38,38,39,39,40,40,41,41,42,42,43,43,44,44,46,46,47,47,48,48,49,49,51,51,52,52,53,53,54,54,55,55,56,56,57,57,58,58,59,59,60,60,61,61,62,62,63,63,64,64,65,65,66,66,67,67,68,68,69,69,70,70,71,71,72,72,77,77,78,78,79,79,80,80,81,81,82,82,83,83,84,84,85,85,88,88,93,93,94,94,95,95,96,96],"right_children":[2,4,6,8,10,12,14,16,18,20,22,24,26,28,-1,30,32,34,-1,36,38,40,42,44,46,48,50,52,-1,54,56,58,60,62,64,66,68,70,72,74,76,78,80,82,84,-1,86,88,90,92,-1,94,96,98,100,102,104,106,108,110,112,114,116,118,120,122,124,126,128,130,132,134,136,-1,-1,-1,-1,138,140,142,144,146,148,150,152,154,-1,-1,156,-1,-1,-1,-1,158,160,162,164,-1,-1,-1,-1,-1,-1,-1,-1,-1,-1,-1,-1,-1,-1,-1,-1,-1,-1,-1,-1,-1,-1,-1,-1,-1,-1,-1,-1,-1,-1,-1,-1,-1,-1,-1,-1,-1,-1,-1,-1,-1,-1,-1,-1,-1,-1,-1,-1,-1,-1,-1,-1,-1,-1,-1,-1,-1,-1,-1,-1,-1,-1,-1,-1,-1,-1,-1,-1],"split_conditions":[1.6265124E-2,-9.001675E-3,2E0,2E0,2E0,1.2607443E-1,2.7775598E-1,1E0,1.6597429E-1,1E0,-5.5459414E-2,5.0342984E-2,6.0316097E-2,2.9175656E0,5.7819015E-3,2.251E1,-1.5592012E-1,-7.788151E-3,5.9190667E-3,-2.7903585E-2,2.9403437E-2,1.046292E0,3.7025854E-1,3.3797167E-2,-1.6676758E-1,1.548068E-1,1.4589489E0,-1.3252615E0,-5.817085E-3,5.8491486E-3,3.5262653E-1,-6.5204984E-1,1.07978076E-1,1.0331488E-3,-3.5057E-2,9.427395E-3,-8.124052E-3,2.7658313E-3,7.204115E-2,-1.3809998E-3,-3.473018E-2,-1.2823569E0,5.703217E-1,1E0,-1.0710867E-2,7.981239E-4,1.695205E-1,2.37159E-2,-3.6025334E-2,-1.6676758E-1,1.443848E-3,4.2742554E-2,1.0405914E-1,-9.888549E-3,-1.6663035E-2,-1.1743064E0,-1.0025052E0,-3.0064428E-2,1.7244156E-4,-4.9871624E-2,-4.1398544E-2,-1.5295625E0,6.172929E-1,3.995713E-1,-1.3344312E0,5.7762463E-2,1.6803088E0,-1.8083707E0,3.875402E-2,1.1619601E0,1.5530958E0,-1.0455855E0,8.4390394E-2,-1.7405892E-3,-8.666669E-3,-4.7990875E-4,1.0279538E-3,2.0301326E-4,-1.2956661E0,5.8089596E-1,-8.375484E-1,-2.8314486E-1,2.8965076E-2,-3.028712E-2,1.6041917E-1,1.2095975E-1,8.640481E-4,3.749224E-4,1.801387E0,6.6819653E-4,-4.8174942E-4,7.494376E-4,6.658136E-3,-5.5286895E-2,-1.4622814E-2,5.675542E-3,1.3178155E0,-1.02585545E-4,-7.3913875E-4,-7.218265E-5,7.6693424E-4,-5.0431566E-4,-3.4269053E-3,4.7515906E-4,-5.003141E-4,9.405769E-4,-5.7350873E-4,2.0306017E-3,4.733838E-3,-8.304177E-4,7.685067E-4,4.937636E-3,5.910238E-4,-1.178829E-3,-6.3501545E-3,-2.720767E-3,-6.0418766E-4,-4.913162E-3,-5.186936E-4,-8.674061E-4,-3.2460063E-3,-1.7808129E-4,-1.8191307E-3,5.0631055E-4,-4.4616027E-4,-6.44673E-4,1.1722281E-3,-2.9805332E-4,7.2071096E-4,1.0232363E-3,-9.342052E-5,1.7562917E-3,3.948951E-4,9.088365E-4,2.6421903E-3,6.8434128E-3,2.7488636E-9,-1.3924072E-3,-3.1494114E-4,-1.3000593E-3,-2.8745553E-3,-1.1294276E-3,1.06181076E-4,-3.3812498E-4,-2.547289E-3,-8.6615654E-4,1.1906977E-3,2.2805568E-3,6.0654536E-4,-3.7415928E-4,2.8082177E-3,1.3811005E-3,-1.8427992E-5,4.828957E-3,5.075467E-4,3.2335508E-3,1.4867808E-4,-4.142963E-4,-3.5262976E-3,1.4618947E-4,-2.7492983E-4,-3.3200209E-3,-8.2667924E-5,-2.881054E-4,1.3170843E-3],"split_indices":[47,48,40,40,40,145,143,40,1,40,343,45,45,438,0,493,177,49,0,69,45,84,75,45,1,298,62,485,0,93,488,414,3,99,13,47,147,47,45,35,0,118,254,40,148,0,447,45,1,33,0,37,55,153,19,485,214,147,39,43,5,477,260,51,461,12,117,411,218,284,422,259,0,0,0,0,0,395,318,70,219,75,32,43,102,9,0,0,109,0,0,0,0,24,0,345,68,0,0,0,0,0,0,0,0,0,0,0,0,0,0,0,0,0,0,0,0,0,0,0,0,0,0,0,0,0,0,0,0,0,0,0,0,0,0,0,0,0,0,0,0,0,0,0,0,0,0,0,0,0,0,0,0,0,0,0,0,0,0,0,0,0,0,0,0],"split_type":[0,0,0,0,0,0,0,0,0,0,0,0,0,0,0,0,0,0,0,0,0,0,0,0,0,0,0,0,0,0,0,0,0,0,0,0,0,0,0,0,0,0,0,0,0,0,0,0,0,0,0,0,0,0,0,0,0,0,0,0,0,0,0,0,0,0,0,0,0,0,0,0,0,0,0,0,0,0,0,0,0,0,0,0,0,0,0,0,0,0,0,0,0,0,0,0,0,0,0,0,0,0,0,0,0,0,0,0,0,0,0,0,0,0,0,0,0,0,0,0,0,0,0,0,0,0,0,0,0,0,0,0,0,0,0,0,0,0,0,0,0,0,0,0,0,0,0,0,0,0,0,0,0,0,0,0,0,0,0,0,0,0,0,0,0],"sum_hessian":[2.566E3,1.974E3,5.92E2,7.32E2,1.242E3,4.14E2,1.78E2,5.02E2,2.3E2,9.4E2,3.02E2,2.98E2,1.16E2,1.76E2,2E0,1.99E2,3.03E2,2.29E2,1E0,4.94E2,4.46E2,1E1,2.92E2,2.48E2,5E1,6.6E1,5E1,1.74E2,2E0,1.72E2,2.7E1,3.9E1,2.64E2,6.9E1,1.6E2,3.98E2,9.6E1,3.08E2,1.38E2,7E0,3E0,2E2,9.2E1,1.23E2,1.25E2,3E0,4.7E1,6.3E1,3E0,4.7E1,3E0,1.2E1,1.62E2,1.63E2,9E0,1.9E1,8E0,9E0,3E1,2.59E2,5E0,5.7E1,1.2E1,3.6E1,1.24E2,2.97E2,1.01E2,5.6E1,4E1,1.61E2,1.47E2,1.33E2,5E0,2E0,5E0,2E0,1E0,1.5E1,1.85E2,6.7E1,2.5E1,6.8E1,5.5E1,1.11E2,1.4E1,4.5E1,2E0,2E0,6.1E1,1E0,2E0,1E0,4.6E1,1E1,2E0,2.9E1,1.33E2,4.3E1,1.2E2,3E0,6E0,5E0,1.4E1,4E0,4E0,5E0,4E0,1.8E1,1.2E1,3.2E1,2.27E2,4E0,1E0,4E0,5.3E1,7E0,5E0,3.4E1,2E0,9E0,1.15E2,2.91E2,6E0,9.1E1,1E1,2E0,5.4E1,2.1E1,1.9E1,1.44E2,1.7E1,1.36E2,1.1E1,2.1E1,1.12E2,4E0,1E0,9E0,6E0,1.7E1,1.68E2,5.7E1,1E1,4E0,2.1E1,3E0,6.5E1,5E1,5E0,2E0,1.09E2,9E0,5E0,4.4E1,1E0,6E1,1E0,1E0,9E0,1E0,1E0,1.6E1,1.3E1,1.1E2,2.3E1],"tree_param":{"num_deleted":"0","num_feature":"494","num_nodes":"165","size_leaf_vector":"1"}},{"base_weights":[2.053456E-3,1.349291E-2,-2.7781194E-2,8.251106E-3,3.970664E-2,-3.721729E-2,-1.0604108E-2,-9.889384E-4,1.668687E-2,3.1849355E-2,7.2062336E-2,-3.7867192E-2,5.9190667E-3,-1.43153425E-2,2.0054778E-2,-5.216798E-3,4.539924E-3,2.5572212E-2,1.1441176E-2,2.3555674E-2,3.8525734E-2,8.121041E-4,7.383839E-2,-5.3236663E-2,-3.200089E-2,-1.1145506E-2,-5.482024E-2,5.0002886E-3,5.898465E-3,-3.7682962E-3,-2.5247272E-2,1.298664E-3,7.962818E-3,2.1525098E-2,4.198066E-2,1.0518892E-2,4.3224907E-3,1.8425526E-2,3.1277142E-2,3.1732146E-2,4.7079023E-2,6.7801233E-3,7.494376E-4,-4.6776857E-2,-8.276383E-2,-2.8924905E-2,-4.2202458E-2,-3.4142307E-3,-9.334064E-3,-5.660829E-3,-1.0185684E-1,1.9023204E-2,-7.552749E-3,-1.7349586E-3,-7.1313577E-3,-3.4157634E-2,1.0386653E-3,-1.5627522E-3,4.2152363E-3,9.162228E-3,-3.5315359E-3,1.4745887E-2,2.8621513E-2,1.0452138E-2,4.735088E-2,6.2809684E-3,1.6983401E-2,1.9567804E-2,5.9236567E-3,3.216602E-2,4.585726E-4,3.3490796E-2,1.0767371E-2,3.870951E-4,4.7645945E-2,-3.9817706E-2,-7.107651E-2,-7.804004E-3,-6.9091324E-4,-2.0585833E-3,-2.982767E-2,-4.6967134E-2,-9.739587E-3,-1.4840321E-2,-5.0511246E-4,2.7646075E-4,-1.1936657E-2,-1.1258582E-3,-9.939182E-3,1.8678418E-3,1.6966522E-5,7.2242673E-3,-1.3553099E-2,-2.0691862E-4,1.0948735E-3,7.182104E-4,-7.411192E-4,-3.1048438E-4,-3.7080375E-3,-5.334658E-4,5.9214805E-4,-4.7902754E-6,-1.0102988E-3,6.2105816E-4,-2.6217537E-4,-1.3914009E-4,9.251608E-4,3.2164188E-4,-1.1646914E-3,1.4953027E-3,3.627941E-4,-7.5824093E-4,2.741031E-3,4.50853E-5,1.5773786E-3,2.49006E-3,5.1733158E-3,-2.4649003E-3,6.6522736E-4,1.8647204E-3,8.437154E-4,1.8506757E-3,3.191755E-4,5.8860175E-4,9.409758E-6,2.9666063E-3,2.962128E-4,3.10156E-3,3.6371505E-4,-3.5452646E-5,1.3725109E-3,8.321762E-4,4.4197245E-3,-3.708001E-3,1.04569895E-4,-7.1325283E-3,-1.3295067E-3,3.1977898E-4,-8.539564E-4,-2.7648266E-3,-2.9982466E-4,-7.830427E-5,-4.4788816E-3,-1.3490226E-3,3.2996738E-4,-1.0417684E-3,-2.6163645E-3,8.595574E-4,-1.2996993E-3,-1.2512994E-4,-1.1825891E-3,7.930496E-4,-6.1845567E-6,-2.7072074E-5,-1.4908599E-3],"categories":[],"categories_nodes":[],"categories_segments":[],"categories_sizes":[],"default_left":[0,0,0,0,0,0,0,0,0,0,0,0,0,0,0,0,0,0,0,0,0,0,0,0,0,0,0,0,0,0,0,0,0,0,0,0,0,0,0,0,0,0,0,0,0,0,0,0,0,0,0,0,0,0,0,0,0,0,0,0,0,0,0,0,0,0,0,0,0,0,0,0,0,0,0,0,0,0,0,0,0,0,0,0,0,0,0,0,0,0,0,0,0,0,0,0,0,0,0,0,0,0,0,0,0,0,0,0,0,0,0,0,0,0,0,0,0,0,0,0,0,0,0,0,0,0,0,0,0,0,0,0,0,0,0,0,0,0,0,0,0,0,0,0,0,0,0,0,0,0,0,0,0,0,0],"id":10,"left_children":[1,3,5,7,9,11,13,15,17,19,21,23,-1,25,27,29,31,33,35,37,39,-1,41,43,45,47,49,-1,51,53,55,57,59,61,63,65,-1,67,69,71,73,-1,-1,75,77,79,81,-1,83,85,87,89,91,93,95,97,99,101,103,105,107,109,111,113,115,117,119,121,123,125,-1,127,129,-1,131,133,135,-1,-1,137,139,141,143,145,147,-1,149,-1,-1,-1,-1,151,153,-1,-1,-1,-1,-1,-1,-1,-1,-1,-1,-1,-1,-1,-1,-1,-1,-1,-1,-1,-1,-1,-1,-1,-1,-1,-1,-1,-1,-1,-1,-1,-1,-1,-1,-1,-1,-1,-1,-1,-1,-1,-1,-1,-1,-1,-1,-1,-1,-1,-1,-1,-1,-1,-1,-1,-1,-1,-1,-1,-1,-1,-1],"loss_changes":[8.7790394E-1,2.5445718E-1,1.14382386E-1,1.2110094E-1,7.167104E-2,3.792125E-2,3.0103331E-2,1.746224E-2,3.6969423E-2,1.1341929E-2,4.5241714E-3,3.6183357E-2,0E0,2.7825993E-2,1.337417E-2,1.198758E-2,3.5635908E-3,1.714474E-2,1.5682466E-2,3.0641854E-3,3.4208745E-3,0E0,8.8462234E-4,1.1655927E-2,6.975651E-3,9.377902E-3,3.5266884E-2,0E0,4.6680802E-3,2.6845015E-3,6.6645164E-3,1.4385018E-3,2.2615418E-3,1.05684325E-2,7.996894E-3,1.3569806E-2,0E0,7.947087E-4,5.3921714E-4,2.052106E-3,7.022768E-4,0E0,0E0,9.603918E-3,2.2101104E-3,6.3643605E-3,9.764299E-3,0E0,1.0089321E-2,7.096282E-4,1.2878329E-3,3.6145514E-4,1.5350754E-3,1.961204E-3,2.4798643E-3,3.8628355E-3,4.928124E-4,1.2673679E-3,1.6379199E-3,1.5980266E-3,1.2512926E-3,2.2199973E-3,7.3703006E-3,7.984416E-4,4.2882636E-3,1.1360439E-2,4.8374273E-3,6.98464E-4,3.326306E-5,2.4758652E-4,0E0,1.0128021E-3,5.491184E-4,0E0,6.458536E-4,3.7183762E-3,4.8915297E-3,0E0,0E0,5.8993563E-4,3.7526935E-3,6.448984E-3,1.0479041E-3,5.0430074E-3,1.1807033E-2,0E0,2.5515095E-5,0E0,0E0,0E0,0E0,6.737947E-5,4.0037208E-4,0E0,0E0,0E0,0E0,0E0,0E0,0E0,0E0,0E0,0E0,0E0,0E0,0E0,0E0,0E0,0E0,0E0,0E0,0E0,0E0,0E0,0E0,0E0,0E0,0E0,0E0,0E0,0E0,0E0,0E0,0E0,0E0,0E0,0E0,0E0,0E0,0E0,0E0,0E0,0E0,0E0,0E0,0E0,0E0,0E0,0E0,0E0,0E0,0E0,0E0,0E0,0E0,0E0,0E0,0E0,0E0,0E0,0E0,0E0,0E0,0E0,0E0],"parents":[2147483647,0,0,1,1,2,2,3,3,4,4,5,5,6,6,7,7,8,8,9,9,10,10,11,11,13,13,14,14,15,15,16,16,17,17,18,18,19,19,20,20,22,22,23,23,24,24,25,25,26,26,28,28,29,29,30,30,31,31,32,32,33,33,34,34,35,35,37,37,38,38,39,39,40,40,43,43,44,44,45,45,46,46,48,48,49,49,50,50,51,51,52,52,53,53,54,54,55,55,56,56,57,57,58,58,59,59,60,60,61,61,62,62,63,63,64,64,65,65,66,66,67,67,68,68,69,69,71,71,72,72,74,74,75,75,76,76,79,79,80,80,81,81,82,82,83,83,84,84,86,86,91,91,92,92],"right_children":[2,4,6,8,10,12,14,16,18,20,22,24,-1,26,28,30,32,34,36,38,40,-1,42,44,46,48,50,-1,52,54,56,58,60,62,64,66,-1,68,70,72,74,-1,-1,76,78,80,82,-1,84,86,88,90,92,94,96,98,100,102,104,106,108,110,112,114,116,118,120,122,124,126,-1,128,130,-1,132,134,136,-1,-1,138,140,142,144,146,148,-1,150,-1,-1,-1,-1,152,154,-1,-1,-1,-1,-1,-1,-1,-1,-1,-1,-1,-1,-1,-1,-1,-1,-1,-1,-1,-1,-1,-1,-1,-1,-1,-1,-1,-1,-1,-1,-1,-1,-1,-1,-1,-1,-1,-1,-1,-1,-1,-1,-1,-1,-1,-1,-1,-1,-1,-1,-1,-1,-1,-1,-1,-1,-1,-1,-1,-1,-1,-1],"split_conditions":[2E0,2.0550812E-2,8.965897E-3,1E0,6.794644E-2,1.6597429E-1,1.5107614E0,3.2535961E-3,-1.4575636E-1,1E0,-1.6676758E-1,-2.589192E-2,5.9190667E-3,8.2934305E-2,-4.1399454E-3,2.523E1,-5.661745E-1,1.6089097E-2,1.07978076E-1,4.4535093E-2,3.092374E-2,8.121041E-4,1.07978076E-1,8.047028E-2,1.899E1,-1.5697814E0,6.1523277E-1,5.0002886E-3,2.412137E-3,1.522E1,3.5262653E-1,3.4033173E-1,5.4134578E-2,2.5442706E-2,-1.1043526E0,-3.9076146E-1,4.3224907E-3,6.1244833E-1,1.5737375E0,6.9103315E-2,-9.9604145E-2,6.7801233E-3,7.494376E-4,2.3763396E-2,7.078012E-2,-1.4836001E0,1.1706254E0,-3.4142307E-3,2.5131438E-2,-1.7523421E-2,-7.4563384E-2,1.3766825E-2,-1.7075537E-3,2.1270157E-1,-1.6300861E0,-1.1743064E0,-3.7882037E-2,3.2226097E-2,5.91362E-2,-5.2777313E-2,-2.9447103E-2,8.450719E-3,-1.4919114E0,-1.6994547E-3,4.2514913E-2,-5.3840715E-2,3.917552E-1,2.3763396E-2,7.510921E-2,3.3307276E-3,4.585726E-4,8.021822E-2,-5.8465886E-1,3.870951E-4,-1.0924964E0,2.1796005E0,1.6040177E0,-7.804004E-3,-6.9091324E-4,8.5802E-3,9.60663E-1,-9.920634E-2,2.0223819E-2,5.2976668E-2,1.9008955E-1,2.7646075E-4,-6.113984E-2,-1.1258582E-3,-9.939182E-3,1.8678418E-3,1.6966522E-5,7.78076E-3,2.6362533E-2,-2.0691862E-4,1.0948735E-3,7.182104E-4,-7.411192E-4,-3.1048438E-4,-3.7080375E-3,-5.334658E-4,5.9214805E-4,-4.7902754E-6,-1.0102988E-3,6.2105816E-4,-2.6217537E-4,-1.3914009E-4,9.251608E-4,3.2164188E-4,-1.1646914E-3,1.4953027E-3,3.627941E-4,-7.5824093E-4,2.741031E-3,4.50853E-5,1.5773786E-3,2.49006E-3,5.1733158E-3,-2.4649003E-3,6.6522736E-4,1.8647204E-3,8.437154E-4,1.8506757E-3,3.191755E-4,5.8860175E-4,9.409758E-6,2.9666063E-3,2.962128E-4,3.10156E-3,3.6371505E-4,-3.5452646E-5,1.3725109E-3,8.321762E-4,4.4197245E-3,-3.708001E-3,1.04569895E-4,-7.1325283E-3,-1.3295067E-3,3.1977898E-4,-8.539564E-4,-2.7648266E-3,-2.9982466E-4,-7.830427E-5,-4.4788816E-3,-1.3490226E-3,3.2996738E-4,-1.0417684E-3,-2.6163645E-3,8.595574E-4,-1.2996993E-3,-1.2512994E-4,-1.1825891E-3,7.930496E-4,-6.1845567E-6,-2.7072074E-5,-1.4908599E-3],"split_indices":[40,48,47,40,46,1,174,47,177,40,37,41,0,3,399,191,70,0,3,46,47,0,19,196,191,486,278,0,28,191,488,82,445,45,52,76,0,175,385,449,5,0,0,38,36,62,361,0,47,10,4,38,244,145,202,485,9,345,157,29,141,247,326,242,46,36,271,18,13,244,0,33,124,0,71,420,423,0,0,33,54,449,13,347,221,0,0,0,0,0,0,0,47,0,0,0,0,0,0,0,0,0,0,0,0,0,0,0,0,0,0,0,0,0,0,0,0,0,0,0,0,0,0,0,0,0,0,0,0,0,0,0,0,0,0,0,0,0,0,0,0,0,0,0,0,0,0,0,0,0,0,0,0,0,0],"split_type":[0,0,0,0,0,0,0,0,0,0,0,0,0,0,0,0,0,0,0,0,0,0,0,0,0,0,0,0,0,0,0,0,0,0,0,0,0,0,0,0,0,0,0,0,0,0,0,0,0,0,0,0,0,0,0,0,0,0,0,0,0,0,0,0,0,0,0,0,0,0,0,0,0,0,0,0,0,0,0,0,0,0,0,0,0,0,0,0,0,0,0,0,0,0,0,0,0,0,0,0,0,0,0,0,0,0,0,0,0,0,0,0,0,0,0,0,0,0,0,0,0,0,0,0,0,0,0,0,0,0,0,0,0,0,0,0,0,0,0,0,0,0,0,0,0,0,0,0,0,0,0,0,0,0,0],"sum_hessian":[2.566E3,1.856E3,7.1E2,1.55E3,3.06E2,4.56E2,2.54E2,7.41E2,8.09E2,2.51E2,5.5E1,4.55E2,1E0,2.28E2,2.6E1,4.2E2,3.21E2,2.96E2,5.13E2,1.18E2,1.33E2,2E0,5.3E1,1.19E2,3.36E2,2.15E2,1.3E1,5E0,2.1E1,3.95E2,2.5E1,1.67E2,1.54E2,2.43E2,5.3E1,5.04E2,9E0,7.7E1,4.1E1,8.2E1,5.1E1,5.2E1,1E0,1.04E2,1.5E1,2.67E2,6.9E1,1E1,2.05E2,8E0,5E0,1E1,1.1E1,2.49E2,1.46E2,1.8E1,7E0,8.5E1,8.2E1,1.4E2,1.4E1,1.29E2,1.14E2,9E0,4.4E1,3.08E2,1.96E2,6.9E1,8E0,3.9E1,2E0,7.4E1,8E0,1E0,5E1,8.7E1,1.7E1,1.4E1,1E0,9E0,2.58E2,5.9E1,1E1,1.25E2,8E1,4E0,4E0,1E0,4E0,9E0,1E0,3E0,8E0,2.42E2,7E0,8E0,1.38E2,4E0,1.4E1,3E0,4E0,7.6E1,9E0,6E1,2.2E1,1.2E1,1.28E2,9E0,5E0,1.1E2,1.9E1,4E0,1.1E2,5E0,4E0,1.8E1,2.6E1,7E0,3.01E2,1.31E2,6.5E1,6.5E1,4E0,7E0,1E0,3.8E1,1E0,7.2E1,2E0,3E0,5E0,2E0,4.8E1,8.5E1,2E0,1.4E1,3E0,6E0,3E0,2.52E2,6E0,3E0,5.6E1,7E0,3E0,1.05E2,2E1,4.7E1,3.3E1,1E0,3E0,2E0,1E0,2E0,6E0],"tree_param":{"num_deleted":"0","num_feature":"494","num_nodes":"155","size_leaf_vector":"1"}}]},"name":"gbtree"},"learner_model_param":{"base_score":"0E0","boost_from_average":"0","num_class":"0","num_feature":"494","num_target":"1"},"objective":{"name":"reg:squarederror","reg_loss_param":{"scale_pos_weight":"1"}}},"version":[2,1,1]}