{"learner":{"attributes":{"best_iteration":"0","best_ntree_limit":"33","scikit_learn":"{\"objective\": \"reg:squarederror\", \"max_leaves\": null, \"max_bin\": null, \"grow_policy\": null, \"learning_rate\": 1.0, \"verbosity\": 0, \"booster\": null, \"tree_method\": \"hist\", \"gamma\": null, \"min_child_weight\": null, \"max_delta_step\": null, \"subsample\": 1.0, \"sampling_method\": null, \"colsample_bytree\": null, \"colsample_bylevel\": null, \"colsample_bynode\": 0.8, \"reg_alpha\": null, \"scale_pos_weight\": null, \"base_score\": 0, \"missing\": NaN, \"num_parallel_tree\": null, \"random_state\": null, \"n_jobs\": null, \"monotone_constraints\": null, \"interaction_constraints\": null, \"importance_type\": null, \"gpu_id\": null, \"validate_parameters\": null, \"predictor\": null, \"enable_categorical\": false, \"feature_types\": null, \"max_cat_to_onehot\": null, \"max_cat_threshold\": null, \"eval_metric\": \"mae\", \"early_stopping_rounds\": null, \"callbacks\": null, \"kwargs\": {\"eta\": 0.8510574032532194, \"nthread\": 3}, \"evals_result_\": {\"validation_0\": {\"mae\": [0.01938896184652943]}}, \"_estimator_type\": \"regressor\"}"},"feature_names":[],"feature_types":[],"gradient_booster":{"model":{"gbtree_model_param":{"num_parallel_tree":"33","num_trees":"33","size_leaf_vector":"0"},"tree_info":[0,0,0,0,0,0,0,0,0,0,0,0,0,0,0,0,0,0,0,0,0,0,0,0,0,0,0,0,0,0,0,0,0],"trees":[{"base_weights":[1.5494009E-3,-4.7598775E-3,2.396622E-2,6.604307E-3,-2.9685065E-2,2.1055974E-2,8.438885E-2,-5.4461585E-4,1.3209543E-2,-3.5748284E-2,-2.1075942E-2,2.9187571E-2,1.1700692E-3,1.0576667E-1,4.1757926E-2,-1.673266E-4,1.12827E-4,2.5388016E-3,3.8570559E-4,-1.6668974E-3,-1.0070052E-3,-1.2775939E-3,-5.9367117E-4,7.1972184E-4,1.4546232E-3,-1.2762136E-4,4.4433324E-4,1.6653879E-3,3.4735599E-3,4.1936847E-4,1.6185086E-3],"categories":[],"categories_nodes":[],"categories_segments":[],"categories_sizes":[],"default_left":[0,0,0,0,0,0,0,0,0,0,0,0,0,0,0,0,0,0,0,0,0,0,0,0,0,0,0,0,0,0,0],"id":0,"left_children":[1,3,5,7,9,11,13,15,17,19,21,23,25,27,29,-1,-1,-1,-1,-1,-1,-1,-1,-1,-1,-1,-1,-1,-1,-1,-1],"loss_changes":[3.1296596E-1,4.893765E-1,8.368361E-2,5.605771E-2,2.7486265E-2,7.51583E-2,1.563324E-2,1.2149776E-2,1.9888729E-2,1.3491005E-2,6.249264E-3,3.2616407E-2,9.937146E-3,3.233552E-6,2.188839E-3,0E0,0E0,0E0,0E0,0E0,0E0,0E0,0E0,0E0,0E0,0E0,0E0,0E0,0E0,0E0,0E0],"parents":[2147483647,0,0,1,1,2,2,3,3,4,4,5,5,6,6,7,7,8,8,9,9,10,10,11,11,12,12,13,13,14,14],"right_children":[2,4,6,8,10,12,14,16,18,20,22,24,26,28,30,-1,-1,-1,-1,-1,-1,-1,-1,-1,-1,-1,-1,-1,-1,-1,-1],"split_conditions":[1.7641297E-2,2E0,1.066381E-1,1E0,-3.9789486E-3,2E0,1.0035746E0,-5.975596E-3,-1.9570129E0,-1.3591809E0,-1.2863518E0,5.719952E-2,1.6920534E0,-3.7681922E-1,-1.932463E-2,-1.673266E-4,1.12827E-4,2.5388016E-3,3.8570559E-4,-1.6668974E-3,-1.0070052E-3,-1.2775939E-3,-5.9367117E-4,7.1972184E-4,1.4546232E-3,-1.2762136E-4,4.4433324E-4,1.6653879E-3,3.4735599E-3,4.1936847E-4,1.6185086E-3],"split_indices":[67,60,65,60,67,60,272,68,75,304,391,65,97,187,24,0,0,0,0,0,0,0,0,0,0,0,0,0,0,0,0],"split_type":[0,0,0,0,0,0,0,0,0,0,0,0,0,0,0,0,0,0,0,0,0,0,0,0,0,0,0,0,0,0,0],"sum_hessian":[2.211E3,1.726E3,4.85E2,1.186E3,5.4E2,4.64E2,2.1E1,5.7E2,6.16E2,3.15E2,2.25E2,3.29E2,1.35E2,1.3E1,8E0,2.63E2,3.07E2,3E0,6.13E2,3.4E1,2.81E2,1.3E1,2.12E2,2.57E2,7.2E1,9.7E1,3.8E1,3E0,1E1,3E0,5E0],"tree_param":{"num_deleted":"0","num_feature":"514","num_nodes":"31","size_leaf_vector":"0"}},{"base_weights":[1.5494009E-3,1.2247179E-2,-2.2315934E-2,8.67957E-3,4.4486333E-2,-2.9592076E-2,6.478067E-3,4.9434584E-3,1.7889759E-2,3.401481E-2,7.295623E-2,-3.5748284E-2,-2.1079347E-2,2.757072E-3,7.625153E-2,5.710438E-4,1.18298216E-4,3.6087513E-4,7.3181256E-4,8.103597E-4,1.3123171E-3,1.8487225E-3,3.252519E-3,-1.6668974E-3,-1.0070052E-3,-1.2775939E-3,-5.950132E-4,-5.4621614E-5,5.5974943E-4,6.378857E-4,2.4831328E-3],"categories":[],"categories_nodes":[],"categories_segments":[],"categories_sizes":[],"default_left":[0,0,0,0,0,0,0,0,0,0,0,0,0,0,0,0,0,0,0,0,0,0,0,0,0,0,0,0,0,0,0],"id":1,"left_children":[1,3,5,7,9,11,13,15,17,19,21,23,25,27,29,-1,-1,-1,-1,-1,-1,-1,-1,-1,-1,-1,-1,-1,-1,-1,-1],"loss_changes":[5.650103E-1,1.753594E-1,1.4370555E-1,4.729452E-2,4.283312E-2,2.7912557E-2,3.587788E-2,1.4103562E-2,1.4576346E-2,6.4781755E-3,9.88178E-3,1.3491005E-2,6.2341243E-3,9.563055E-3,4.744567E-4,0E0,0E0,0E0,0E0,0E0,0E0,0E0,0E0,0E0,0E0,0E0,0E0,0E0,0E0,0E0,0E0],"parents":[2147483647,0,0,1,1,2,2,3,3,4,4,5,5,6,6,7,7,8,8,9,9,10,10,11,11,12,12,13,13,14,14],"right_children":[2,4,6,8,10,12,14,16,18,20,22,24,26,28,30,-1,-1,-1,-1,-1,-1,-1,-1,-1,-1,-1,-1,-1,-1,-1,-1],"split_conditions":[2E0,2.970294E-2,1.8798687E-2,7.3996745E-3,6.985029E-2,-3.9789486E-3,9.059393E-2,-1.666957E0,1E0,1E0,1.1180247E-1,-1.3591809E0,-1.2863518E0,5.094322E-2,-5.9274968E-2,5.710438E-4,1.18298216E-4,3.6087513E-4,7.3181256E-4,8.103597E-4,1.3123171E-3,1.8487225E-3,3.252519E-3,-1.6668974E-3,-1.0070052E-3,-1.2775939E-3,-5.950132E-4,-5.4621614E-5,5.5974943E-4,6.378857E-4,2.4831328E-3],"split_indices":[60,68,67,67,65,67,67,79,60,60,65,304,391,61,0,0,0,0,0,0,0,0,0,0,0,0,0,0,0,0,0],"split_type":[0,0,0,0,0,0,0,0,0,0,0,0,0,0,0,0,0,0,0,0,0,0,0,0,0,0,0,0,0,0,0],"sum_hessian":[2.211E3,1.527E3,6.84E2,1.376E3,1.51E2,5.46E2,1.38E2,9.8E2,3.96E2,1.12E2,3.9E1,3.15E2,2.31E2,1.32E2,6E0,6.7E1,9.13E2,2.04E2,1.92E2,6.5E1,4.7E1,3.1E1,8E0,3.4E1,2.81E2,1.3E1,2.18E2,1.03E2,2.9E1,1E0,5E0],"tree_param":{"num_deleted":"0","num_feature":"514","num_nodes":"31","size_leaf_vector":"0"}},{"base_weights":[1.5494009E-3,1.2247179E-2,-2.2315934E-2,8.67957E-3,4.4486333E-2,-2.9592076E-2,6.478067E-3,1.995063E-3,1.5198177E-2,3.401481E-2,7.295623E-2,-3.5748284E-2,-2.1079347E-2,2.757072E-3,7.625153E-2,-7.09403E-5,3.5753878E-4,3.5535533E-4,7.314683E-4,8.103597E-4,1.3123171E-3,1.8487225E-3,3.252519E-3,-1.6668974E-3,-1.0070052E-3,-1.2775939E-3,-5.950132E-4,-5.4621614E-5,5.5974943E-4,6.378857E-4,2.4831328E-3],"categories":[],"categories_nodes":[],"categories_segments":[],"categories_sizes":[],"default_left":[0,0,0,0,0,0,0,0,0,0,0,0,0,0,0,0,0,0,0,0,0,0,0,0,0,0,0,0,0,0,0],"id":2,"left_children":[1,3,5,7,9,11,13,15,17,19,21,23,25,27,29,-1,-1,-1,-1,-1,-1,-1,-1,-1,-1,-1,-1,-1,-1,-1,-1],"loss_changes":[5.650103E-1,1.753594E-1,1.4370555E-1,5.997061E-2,4.283312E-2,2.7912557E-2,3.587788E-2,2.8976815E-2,2.1348849E-2,6.4781755E-3,9.88178E-3,1.3491005E-2,6.2341243E-3,9.563055E-3,4.744567E-4,0E0,0E0,0E0,0E0,0E0,0E0,0E0,0E0,0E0,0E0,0E0,0E0,0E0,0E0,0E0,0E0],"parents":[2147483647,0,0,1,1,2,2,3,3,4,4,5,5,6,6,7,7,8,8,9,9,10,10,11,11,12,12,13,13,14,14],"right_children":[2,4,6,8,10,12,14,16,18,20,22,24,26,28,30,-1,-1,-1,-1,-1,-1,-1,-1,-1,-1,-1,-1,-1,-1,-1,-1],"split_conditions":[2E0,2.970294E-2,1.8798687E-2,1E0,6.985029E-2,-3.9789486E-3,9.059393E-2,7.2258813E-3,7.0430296E-3,1E0,1.1180247E-1,-1.3591809E0,-1.2863518E0,5.094322E-2,-5.9274968E-2,-7.09403E-5,3.5753878E-4,3.5535533E-4,7.314683E-4,8.103597E-4,1.3123171E-3,1.8487225E-3,3.252519E-3,-1.6668974E-3,-1.0070052E-3,-1.2775939E-3,-5.950132E-4,-5.4621614E-5,5.5974943E-4,6.378857E-4,2.4831328E-3],"split_indices":[60,67,68,60,65,67,67,67,67,60,65,308,391,61,0,0,0,0,0,0,0,0,0,0,0,0,0,0,0,0,0],"split_type":[0,0,0,0,0,0,0,0,0,0,0,0,0,0,0,0,0,0,0,0,0,0,0,0,0,0,0,0,0,0,0],"sum_hessian":[2.211E3,1.527E3,6.84E2,1.376E3,1.51E2,5.46E2,1.38E2,6.8E2,6.96E2,1.12E2,3.9E1,3.15E2,2.31E2,1.32E2,6E0,4.72E2,2.08E2,5.03E2,1.93E2,6.5E1,4.7E1,3.1E1,8E0,3.4E1,2.81E2,1.3E1,2.18E2,1.03E2,2.9E1,1E0,5E0],"tree_param":{"num_deleted":"0","num_feature":"514","num_nodes":"31","size_leaf_vector":"0"}},{"base_weights":[1.5494009E-3,1.2247179E-2,-2.2315934E-2,8.67957E-3,4.4486333E-2,-2.9592076E-2,6.478067E-3,1.995063E-3,1.5198177E-2,3.401481E-2,7.295623E-2,-3.5748284E-2,-2.1079347E-2,2.757072E-3,7.625153E-2,-7.09403E-5,3.5753878E-4,3.5535533E-4,7.314683E-4,8.103597E-4,1.3123171E-3,1.8487225E-3,3.252519E-3,-1.6668974E-3,-1.0070052E-3,-1.2775939E-3,-5.950132E-4,-5.4621614E-5,5.5974943E-4,6.378857E-4,2.4831328E-3],"categories":[],"categories_nodes":[],"categories_segments":[],"categories_sizes":[],"default_left":[0,0,0,0,0,0,0,0,0,0,0,0,0,0,0,0,0,0,0,0,0,0,0,0,0,0,0,0,0,0,0],"id":3,"left_children":[1,3,5,7,9,11,13,15,17,19,21,23,25,27,29,-1,-1,-1,-1,-1,-1,-1,-1,-1,-1,-1,-1,-1,-1,-1,-1],"loss_changes":[5.650103E-1,1.753594E-1,1.4370555E-1,5.997061E-2,4.283312E-2,2.7912557E-2,3.587788E-2,2.8976815E-2,2.1348849E-2,6.4781755E-3,9.88178E-3,1.3491005E-2,6.2341243E-3,9.563055E-3,4.744567E-4,0E0,0E0,0E0,0E0,0E0,0E0,0E0,0E0,0E0,0E0,0E0,0E0,0E0,0E0,0E0,0E0],"parents":[2147483647,0,0,1,1,2,2,3,3,4,4,5,5,6,6,7,7,8,8,9,9,10,10,11,11,12,12,13,13,14,14],"right_children":[2,4,6,8,10,12,14,16,18,20,22,24,26,28,30,-1,-1,-1,-1,-1,-1,-1,-1,-1,-1,-1,-1,-1,-1,-1,-1],"split_conditions":[2E0,2.970294E-2,1.8798687E-2,1E0,6.985029E-2,-3.9789486E-3,9.059393E-2,7.2258813E-3,7.0430296E-3,1E0,1.1180247E-1,-1.3591809E0,-1.2863518E0,5.094322E-2,-5.9274968E-2,-7.09403E-5,3.5753878E-4,3.5535533E-4,7.314683E-4,8.103597E-4,1.3123171E-3,1.8487225E-3,3.252519E-3,-1.6668974E-3,-1.0070052E-3,-1.2775939E-3,-5.950132E-4,-5.4621614E-5,5.5974943E-4,6.378857E-4,2.4831328E-3],"split_indices":[60,67,67,60,66,67,67,67,67,60,66,304,391,62,0,0,0,0,0,0,0,0,0,0,0,0,0,0,0,0,0],"split_type":[0,0,0,0,0,0,0,0,0,0,0,0,0,0,0,0,0,0,0,0,0,0,0,0,0,0,0,0,0,0,0],"sum_hessian":[2.211E3,1.527E3,6.84E2,1.376E3,1.51E2,5.46E2,1.38E2,6.8E2,6.96E2,1.12E2,3.9E1,3.15E2,2.31E2,1.32E2,6E0,4.72E2,2.08E2,5.03E2,1.93E2,6.5E1,4.7E1,3.1E1,8E0,3.4E1,2.81E2,1.3E1,2.18E2,1.03E2,2.9E1,1E0,5E0],"tree_param":{"num_deleted":"0","num_feature":"514","num_nodes":"31","size_leaf_vector":"0"}},{"base_weights":[1.5494009E-3,1.2247179E-2,-2.2315934E-2,8.67957E-3,4.4486333E-2,-2.9592076E-2,6.478067E-3,1.995063E-3,1.5198177E-2,3.401481E-2,7.295623E-2,-3.5748284E-2,-2.1079347E-2,2.757072E-3,7.625153E-2,-7.09403E-5,3.5753878E-4,3.5535533E-4,7.314683E-4,8.103597E-4,1.3123171E-3,1.8487225E-3,3.252519E-3,-1.6668974E-3,-1.0070052E-3,-1.2775939E-3,-5.950132E-4,-5.4621614E-5,5.5974943E-4,6.378857E-4,2.4831328E-3],"categories":[],"categories_nodes":[],"categories_segments":[],"categories_sizes":[],"default_left":[0,0,0,0,0,0,0,0,0,0,0,0,0,0,0,0,0,0,0,0,0,0,0,0,0,0,0,0,0,0,0],"id":4,"left_children":[1,3,5,7,9,11,13,15,17,19,21,23,25,27,29,-1,-1,-1,-1,-1,-1,-1,-1,-1,-1,-1,-1,-1,-1,-1,-1],"loss_changes":[5.650103E-1,1.753594E-1,1.4370555E-1,5.997061E-2,4.283312E-2,2.7912557E-2,3.587788E-2,2.8976815E-2,2.1348849E-2,6.4781755E-3,9.88178E-3,1.3491005E-2,6.2341243E-3,9.563055E-3,4.744567E-4,0E0,0E0,0E0,0E0,0E0,0E0,0E0,0E0,0E0,0E0,0E0,0E0,0E0,0E0,0E0,0E0],"parents":[2147483647,0,0,1,1,2,2,3,3,4,4,5,5,6,6,7,7,8,8,9,9,10,10,11,11,12,12,13,13,14,14],"right_children":[2,4,6,8,10,12,14,16,18,20,22,24,26,28,30,-1,-1,-1,-1,-1,-1,-1,-1,-1,-1,-1,-1,-1,-1,-1,-1],"split_conditions":[2E0,2.970294E-2,1.8798687E-2,1E0,6.985029E-2,-3.9789486E-3,9.059393E-2,7.2258813E-3,7.0430296E-3,1E0,1.1180247E-1,-1.3591809E0,-1.2863518E0,5.094322E-2,-5.9274968E-2,-7.09403E-5,3.5753878E-4,3.5535533E-4,7.314683E-4,8.103597E-4,1.3123171E-3,1.8487225E-3,3.252519E-3,-1.6668974E-3,-1.0070052E-3,-1.2775939E-3,-5.950132E-4,-5.4621614E-5,5.5974943E-4,6.378857E-4,2.4831328E-3],"split_indices":[60,67,68,60,65,68,67,67,67,60,65,308,391,61,0,0,0,0,0,0,0,0,0,0,0,0,0,0,0,0,0],"split_type":[0,0,0,0,0,0,0,0,0,0,0,0,0,0,0,0,0,0,0,0,0,0,0,0,0,0,0,0,0,0,0],"sum_hessian":[2.211E3,1.527E3,6.84E2,1.376E3,1.51E2,5.46E2,1.38E2,6.8E2,6.96E2,1.12E2,3.9E1,3.15E2,2.31E2,1.32E2,6E0,4.72E2,2.08E2,5.03E2,1.93E2,6.5E1,4.7E1,3.1E1,8E0,3.4E1,2.81E2,1.3E1,2.18E2,1.03E2,2.9E1,1E0,5E0],"tree_param":{"num_deleted":"0","num_feature":"514","num_nodes":"31","size_leaf_vector":"0"}},{"base_weights":[1.5494009E-3,1.2247179E-2,-2.2315934E-2,8.67957E-3,4.4486333E-2,-2.9592076E-2,6.478067E-3,1.995063E-3,1.5198177E-2,3.401481E-2,7.295623E-2,-3.5748284E-2,-2.1079347E-2,2.757072E-3,7.625153E-2,-7.09403E-5,3.5753878E-4,3.5535533E-4,7.314683E-4,8.103597E-4,1.3123171E-3,1.8487225E-3,3.252519E-3,-1.6668974E-3,-1.0070052E-3,-1.2775939E-3,-5.950132E-4,-5.4621614E-5,5.5974943E-4,6.378857E-4,2.4831328E-3],"categories":[],"categories_nodes":[],"categories_segments":[],"categories_sizes":[],"default_left":[0,0,0,0,0,0,0,0,0,0,0,0,0,0,0,0,0,0,0,0,0,0,0,0,0,0,0,0,0,0,0],"id":5,"left_children":[1,3,5,7,9,11,13,15,17,19,21,23,25,27,29,-1,-1,-1,-1,-1,-1,-1,-1,-1,-1,-1,-1,-1,-1,-1,-1],"loss_changes":[5.650103E-1,1.753594E-1,1.4370555E-1,5.997061E-2,4.283312E-2,2.7912557E-2,3.587788E-2,2.8976815E-2,2.1348849E-2,6.4781755E-3,9.88178E-3,1.3491005E-2,6.2341243E-3,9.563055E-3,4.744567E-4,0E0,0E0,0E0,0E0,0E0,0E0,0E0,0E0,0E0,0E0,0E0,0E0,0E0,0E0,0E0,0E0],"parents":[2147483647,0,0,1,1,2,2,3,3,4,4,5,5,6,6,7,7,8,8,9,9,10,10,11,11,12,12,13,13,14,14],"right_children":[2,4,6,8,10,12,14,16,18,20,22,24,26,28,30,-1,-1,-1,-1,-1,-1,-1,-1,-1,-1,-1,-1,-1,-1,-1,-1],"split_conditions":[2E0,2.970294E-2,1.8798687E-2,1E0,6.985029E-2,-3.9789486E-3,9.059393E-2,7.2258813E-3,7.0430296E-3,1E0,1.1180247E-1,-1.3591809E0,-1.2863518E0,5.094322E-2,-5.9274968E-2,-7.09403E-5,3.5753878E-4,3.5535533E-4,7.314683E-4,8.103597E-4,1.3123171E-3,1.8487225E-3,3.252519E-3,-1.6668974E-3,-1.0070052E-3,-1.2775939E-3,-5.950132E-4,-5.4621614E-5,5.5974943E-4,6.378857E-4,2.4831328E-3],"split_indices":[60,68,67,60,65,67,67,67,67,60,65,304,391,62,4,0,0,0,0,0,0,0,0,0,0,0,0,0,0,0,0],"split_type":[0,0,0,0,0,0,0,0,0,0,0,0,0,0,0,0,0,0,0,0,0,0,0,0,0,0,0,0,0,0,0],"sum_hessian":[2.211E3,1.527E3,6.84E2,1.376E3,1.51E2,5.46E2,1.38E2,6.8E2,6.96E2,1.12E2,3.9E1,3.15E2,2.31E2,1.32E2,6E0,4.72E2,2.08E2,5.03E2,1.93E2,6.5E1,4.7E1,3.1E1,8E0,3.4E1,2.81E2,1.3E1,2.18E2,1.03E2,2.9E1,1E0,5E0],"tree_param":{"num_deleted":"0","num_feature":"514","num_nodes":"31","size_leaf_vector":"0"}},{"base_weights":[1.5494009E-3,1.2247179E-2,-2.2315934E-2,8.67957E-3,4.4486333E-2,-2.9592076E-2,6.478067E-3,1.995063E-3,1.5198177E-2,3.401481E-2,7.295623E-2,-3.5748284E-2,-2.1079347E-2,2.757072E-3,7.625153E-2,-7.09403E-5,3.5753878E-4,3.5535533E-4,7.314683E-4,8.103597E-4,1.3123171E-3,1.8487225E-3,3.252519E-3,-1.6668974E-3,-1.0070052E-3,-1.2775939E-3,-5.950132E-4,-5.4621614E-5,5.5974943E-4,6.378857E-4,2.4831328E-3],"categories":[],"categories_nodes":[],"categories_segments":[],"categories_sizes":[],"default_left":[0,0,0,0,0,0,0,0,0,0,0,0,0,0,0,0,0,0,0,0,0,0,0,0,0,0,0,0,0,0,0],"id":6,"left_children":[1,3,5,7,9,11,13,15,17,19,21,23,25,27,29,-1,-1,-1,-1,-1,-1,-1,-1,-1,-1,-1,-1,-1,-1,-1,-1],"loss_changes":[5.650103E-1,1.753594E-1,1.4370555E-1,5.997061E-2,4.283312E-2,2.7912557E-2,3.587788E-2,2.8976815E-2,2.1348849E-2,6.4781755E-3,9.88178E-3,1.3491005E-2,6.2341243E-3,9.563055E-3,4.744567E-4,0E0,0E0,0E0,0E0,0E0,0E0,0E0,0E0,0E0,0E0,0E0,0E0,0E0,0E0,0E0,0E0],"parents":[2147483647,0,0,1,1,2,2,3,3,4,4,5,5,6,6,7,7,8,8,9,9,10,10,11,11,12,12,13,13,14,14],"right_children":[2,4,6,8,10,12,14,16,18,20,22,24,26,28,30,-1,-1,-1,-1,-1,-1,-1,-1,-1,-1,-1,-1,-1,-1,-1,-1],"split_conditions":[2E0,2.970294E-2,1.8798687E-2,1E0,6.985029E-2,-3.9789486E-3,9.059393E-2,7.2258813E-3,7.0430296E-3,1E0,1.1180247E-1,-1.3591809E0,-1.2863518E0,5.094322E-2,-5.9274968E-2,-7.09403E-5,3.5753878E-4,3.5535533E-4,7.314683E-4,8.103597E-4,1.3123171E-3,1.8487225E-3,3.252519E-3,-1.6668974E-3,-1.0070052E-3,-1.2775939E-3,-5.950132E-4,-5.4621614E-5,5.5974943E-4,6.378857E-4,2.4831328E-3],"split_indices":[60,67,68,60,65,67,67,67,67,60,65,304,395,61,0,0,0,0,0,0,0,0,0,0,0,0,0,0,0,0,0],"split_type":[0,0,0,0,0,0,0,0,0,0,0,0,0,0,0,0,0,0,0,0,0,0,0,0,0,0,0,0,0,0,0],"sum_hessian":[2.211E3,1.527E3,6.84E2,1.376E3,1.51E2,5.46E2,1.38E2,6.8E2,6.96E2,1.12E2,3.9E1,3.15E2,2.31E2,1.32E2,6E0,4.72E2,2.08E2,5.03E2,1.93E2,6.5E1,4.7E1,3.1E1,8E0,3.4E1,2.81E2,1.3E1,2.18E2,1.03E2,2.9E1,1E0,5E0],"tree_param":{"num_deleted":"0","num_feature":"514","num_nodes":"31","size_leaf_vector":"0"}},{"base_weights":[1.5494009E-3,1.2247179E-2,-2.2315934E-2,8.67957E-3,4.4486333E-2,-2.9592076E-2,6.478067E-3,1.995063E-3,1.5198177E-2,3.401481E-2,7.295623E-2,-3.5748284E-2,-2.1079347E-2,2.757072E-3,7.625153E-2,-7.09403E-5,3.5753878E-4,3.5535533E-4,7.314683E-4,8.103597E-4,1.3123171E-3,1.8487225E-3,3.252519E-3,-1.9368356E-3,-1.0313024E-3,-1.2775939E-3,-5.950132E-4,-3.940798E-5,6.1629224E-4,6.378857E-4,2.4831328E-3],"categories":[],"categories_nodes":[],"categories_segments":[],"categories_sizes":[],"default_left":[0,0,0,0,0,0,0,0,0,0,0,0,0,0,0,0,0,0,0,0,0,0,0,0,0,0,0,0,0,0,0],"id":7,"left_children":[1,3,5,7,9,11,13,15,17,19,21,23,25,27,29,-1,-1,-1,-1,-1,-1,-1,-1,-1,-1,-1,-1,-1,-1,-1,-1],"loss_changes":[5.650103E-1,1.753594E-1,1.4370555E-1,5.997061E-2,4.283312E-2,2.7912557E-2,3.587788E-2,2.8976815E-2,2.1348849E-2,6.4781755E-3,9.88178E-3,1.3092488E-2,6.2341243E-3,9.513842E-3,4.744567E-4,0E0,0E0,0E0,0E0,0E0,0E0,0E0,0E0,0E0,0E0,0E0,0E0,0E0,0E0,0E0,0E0],"parents":[2147483647,0,0,1,1,2,2,3,3,4,4,5,5,6,6,7,7,8,8,9,9,10,10,11,11,12,12,13,13,14,14],"right_children":[2,4,6,8,10,12,14,16,18,20,22,24,26,28,30,-1,-1,-1,-1,-1,-1,-1,-1,-1,-1,-1,-1,-1,-1,-1,-1],"split_conditions":[2E0,2.970294E-2,1.8798687E-2,1E0,6.985029E-2,-3.9789486E-3,9.059393E-2,7.2258813E-3,7.0430296E-3,1E0,1.1180247E-1,-7.531642E-2,-1.2863518E0,4.8096284E-2,-5.9274968E-2,-7.09403E-5,3.5753878E-4,3.5535533E-4,7.314683E-4,8.103597E-4,1.3123171E-3,1.8487225E-3,3.252519E-3,-1.9368356E-3,-1.0313024E-3,-1.2775939E-3,-5.950132E-4,-3.940798E-5,6.1629224E-4,6.378857E-4,2.4831328E-3],"split_indices":[60,67,67,60,65,68,68,67,67,60,65,27,391,67,0,0,0,0,0,0,0,0,0,0,0,0,0,0,0,0,0],"split_type":[0,0,0,0,0,0,0,0,0,0,0,0,0,0,0,0,0,0,0,0,0,0,0,0,0,0,0,0,0,0,0],"sum_hessian":[2.211E3,1.527E3,6.84E2,1.376E3,1.51E2,5.46E2,1.38E2,6.8E2,6.96E2,1.12E2,3.9E1,3.15E2,2.31E2,1.32E2,6E0,4.72E2,2.08E2,5.03E2,1.93E2,6.5E1,4.7E1,3.1E1,8E0,1.6E1,2.99E2,1.3E1,2.18E2,1.08E2,2.4E1,1E0,5E0],"tree_param":{"num_deleted":"0","num_feature":"514","num_nodes":"31","size_leaf_vector":"0"}},{"base_weights":[1.5494009E-3,1.2247179E-2,-2.2315934E-2,8.67957E-3,4.4486333E-2,-2.9592076E-2,6.478067E-3,1.995063E-3,1.5198177E-2,3.401481E-2,7.295623E-2,-3.5748284E-2,-2.1079347E-2,2.757072E-3,7.625153E-2,-7.09403E-5,3.5753878E-4,3.5535533E-4,7.314683E-4,8.103597E-4,1.3123171E-3,1.8487225E-3,3.252519E-3,-1.6668974E-3,-1.0070052E-3,-1.2775939E-3,-5.950132E-4,-5.4621614E-5,5.5974943E-4,6.378857E-4,2.4831328E-3],"categories":[],"categories_nodes":[],"categories_segments":[],"categories_sizes":[],"default_left":[0,0,0,0,0,0,0,0,0,0,0,0,0,0,0,0,0,0,0,0,0,0,0,0,0,0,0,0,0,0,0],"id":8,"left_children":[1,3,5,7,9,11,13,15,17,19,21,23,25,27,29,-1,-1,-1,-1,-1,-1,-1,-1,-1,-1,-1,-1,-1,-1,-1,-1],"loss_changes":[5.650103E-1,1.753594E-1,1.4370555E-1,5.997061E-2,4.283312E-2,2.7912557E-2,3.587788E-2,2.8976815E-2,2.1348849E-2,6.4781755E-3,9.88178E-3,1.3491005E-2,6.2341243E-3,9.563055E-3,4.744567E-4,0E0,0E0,0E0,0E0,0E0,0E0,0E0,0E0,0E0,0E0,0E0,0E0,0E0,0E0,0E0,0E0],"parents":[2147483647,0,0,1,1,2,2,3,3,4,4,5,5,6,6,7,7,8,8,9,9,10,10,11,11,12,12,13,13,14,14],"right_children":[2,4,6,8,10,12,14,16,18,20,22,24,26,28,30,-1,-1,-1,-1,-1,-1,-1,-1,-1,-1,-1,-1,-1,-1,-1,-1],"split_conditions":[2E0,2.970294E-2,1.8798687E-2,1E0,6.985029E-2,-3.9789486E-3,9.059393E-2,7.2258813E-3,7.0430296E-3,1E0,1.1180247E-1,-1.3591809E0,-1.2863518E0,5.094322E-2,-5.9274968E-2,-7.09403E-5,3.5753878E-4,3.5535533E-4,7.314683E-4,8.103597E-4,1.3123171E-3,1.8487225E-3,3.252519E-3,-1.6668974E-3,-1.0070052E-3,-1.2775939E-3,-5.950132E-4,-5.4621614E-5,5.5974943E-4,6.378857E-4,2.4831328E-3],"split_indices":[60,67,67,60,65,67,67,68,67,60,65,304,395,61,4,0,0,0,0,0,0,0,0,0,0,0,0,0,0,0,0],"split_type":[0,0,0,0,0,0,0,0,0,0,0,0,0,0,0,0,0,0,0,0,0,0,0,0,0,0,0,0,0,0,0],"sum_hessian":[2.211E3,1.527E3,6.84E2,1.376E3,1.51E2,5.46E2,1.38E2,6.8E2,6.96E2,1.12E2,3.9E1,3.15E2,2.31E2,1.32E2,6E0,4.72E2,2.08E2,5.03E2,1.93E2,6.5E1,4.7E1,3.1E1,8E0,3.4E1,2.81E2,1.3E1,2.18E2,1.03E2,2.9E1,1E0,5E0],"tree_param":{"num_deleted":"0","num_feature":"514","num_nodes":"31","size_leaf_vector":"0"}},{"base_weights":[1.5494009E-3,1.2247179E-2,-2.2315934E-2,8.67957E-3,4.4486333E-2,-2.9592076E-2,6.478067E-3,1.995063E-3,1.5198177E-2,4.0297866E-2,9.45114E-2,-3.5748284E-2,-2.1079347E-2,2.757072E-3,7.625153E-2,-7.09403E-5,3.5753878E-4,3.5535533E-4,7.314683E-4,9.526896E-4,1.6960563E-3,5.028236E-4,3.0498153E-3,-1.6668974E-3,-1.0070052E-3,-1.2775939E-3,-5.950132E-4,-5.4621614E-5,5.5974943E-4,6.378857E-4,2.4831328E-3],"categories":[],"categories_nodes":[],"categories_segments":[],"categories_sizes":[],"default_left":[0,0,0,0,0,0,0,0,0,0,0,0,0,0,0,0,0,0,0,0,0,0,0,0,0,0,0,0,0,0,0],"id":9,"left_children":[1,3,5,7,9,11,13,15,17,19,21,23,25,27,29,-1,-1,-1,-1,-1,-1,-1,-1,-1,-1,-1,-1,-1,-1,-1,-1],"loss_changes":[5.650103E-1,1.753594E-1,1.4370555E-1,5.997061E-2,2.8039694E-2,2.7912557E-2,3.587788E-2,2.8976815E-2,2.1348849E-2,1.7955676E-2,3.586173E-3,1.3491005E-2,6.2341243E-3,9.563055E-3,4.744567E-4,0E0,0E0,0E0,0E0,0E0,0E0,0E0,0E0,0E0,0E0,0E0,0E0,0E0,0E0,0E0,0E0],"parents":[2147483647,0,0,1,1,2,2,3,3,4,4,5,5,6,6,7,7,8,8,9,9,10,10,11,11,12,12,13,13,14,14],"right_children":[2,4,6,8,10,12,14,16,18,20,22,24,26,28,30,-1,-1,-1,-1,-1,-1,-1,-1,-1,-1,-1,-1,-1,-1,-1,-1],"split_conditions":[2E0,2.970294E-2,1.8798687E-2,1E0,7.347933E-2,-3.9789486E-3,9.059393E-2,7.2258813E-3,7.0430296E-3,6.1917014E-2,-6.4363934E-2,-1.3591809E0,-1.2863518E0,5.094322E-2,-3.1497672E-2,-7.09403E-5,3.5753878E-4,3.5535533E-4,7.314683E-4,9.526896E-4,1.6960563E-3,5.028236E-4,3.0498153E-3,-1.6668974E-3,-1.0070052E-3,-1.2775939E-3,-5.950132E-4,-5.4621614E-5,5.5974943E-4,6.378857E-4,2.4831328E-3],"split_indices":[60,67,67,60,67,68,67,67,68,65,40,304,391,61,5,0,0,0,0,0,0,0,0,0,0,0,0,0,0,0,0],"split_type":[0,0,0,0,0,0,0,0,0,0,0,0,0,0,0,0,0,0,0,0,0,0,0,0,0,0,0,0,0,0,0],"sum_hessian":[2.211E3,1.527E3,6.84E2,1.376E3,1.51E2,5.46E2,1.38E2,6.8E2,6.96E2,1.41E2,1E1,3.15E2,2.31E2,1.32E2,6E0,4.72E2,2.08E2,5.03E2,1.93E2,9.2E1,4.9E1,1E0,9E0,3.4E1,2.81E2,1.3E1,2.18E2,1.03E2,2.9E1,1E0,5E0],"tree_param":{"num_deleted":"0","num_feature":"514","num_nodes":"31","size_leaf_vector":"0"}},{"base_weights":[1.5494009E-3,-4.7598775E-3,2.396622E-2,6.604307E-3,-2.9685065E-2,2.1055974E-2,8.438885E-2,4.9434584E-3,1.4443379E-2,-3.5748284E-2,-2.1075942E-2,1.6995845E-2,3.32651E-2,1.0576667E-1,4.1757926E-2,5.710438E-4,1.18298216E-4,2.461584E-4,5.948171E-4,-1.6668974E-3,-1.0070052E-3,-1.2775939E-3,-5.9367117E-4,7.255025E-4,-9.430948E-5,1.4645653E-3,2.913971E-4,1.6653879E-3,3.4735599E-3,4.1936847E-4,1.6185086E-3],"categories":[],"categories_nodes":[],"categories_segments":[],"categories_sizes":[],"default_left":[0,0,0,0,0,0,0,0,0,0,0,0,0,0,0,0,0,0,0,0,0,0,0,0,0,0,0,0,0,0,0],"id":10,"left_children":[1,3,5,7,9,11,13,15,17,19,21,23,25,27,29,-1,-1,-1,-1,-1,-1,-1,-1,-1,-1,-1,-1,-1,-1,-1,-1],"loss_changes":[3.1296596E-1,4.893765E-1,8.368361E-2,1.5382763E-2,2.7486265E-2,2.2484988E-2,1.563324E-2,1.4103562E-2,6.6247024E-3,1.3491005E-2,6.249264E-3,4.909704E-2,4.0508047E-2,3.233552E-6,2.188839E-3,0E0,0E0,0E0,0E0,0E0,0E0,0E0,0E0,0E0,0E0,0E0,0E0,0E0,0E0,0E0,0E0],"parents":[2147483647,0,0,1,1,2,2,3,3,4,4,5,5,6,6,7,7,8,8,9,9,10,10,11,11,12,12,13,13,14,14],"right_children":[2,4,6,8,10,12,14,16,18,20,22,24,26,28,30,-1,-1,-1,-1,-1,-1,-1,-1,-1,-1,-1,-1,-1,-1,-1,-1],"split_conditions":[1.7641297E-2,2E0,1.066381E-1,7.3996745E-3,-3.9789486E-3,5.800848E-2,9.393017E-1,-1.666957E0,1E0,-1.3591809E0,-1.2863518E0,2E0,2E0,-3.6297575E-1,-1.932463E-2,5.710438E-4,1.18298216E-4,2.461584E-4,5.948171E-4,-1.6668974E-3,-1.0070052E-3,-1.2775939E-3,-5.9367117E-4,7.255025E-4,-9.430948E-5,1.4645653E-3,2.913971E-4,1.6653879E-3,3.4735599E-3,4.1936847E-4,1.6185086E-3],"split_indices":[67,60,65,67,67,65,273,79,60,304,391,60,60,188,24,0,0,0,0,0,0,0,0,0,0,0,0,0,0,0,0],"split_type":[0,0,0,0,0,0,0,0,0,0,0,0,0,0,0,0,0,0,0,0,0,0,0,0,0,0,0,0,0,0,0],"sum_hessian":[2.211E3,1.726E3,4.85E2,1.186E3,5.4E2,4.64E2,2.1E1,9.8E2,2.06E2,3.15E2,2.25E2,3.5E2,1.14E2,1.3E1,8E0,6.7E1,9.13E2,9.4E1,1.12E2,3.4E1,2.81E2,1.3E1,2.12E2,2.6E2,9E1,6.9E1,4.5E1,3E0,1E1,3E0,5E0],"tree_param":{"num_deleted":"0","num_feature":"514","num_nodes":"31","size_leaf_vector":"0"}},{"base_weights":[1.5494009E-3,1.2247179E-2,-2.2315934E-2,8.67957E-3,4.4486333E-2,-2.9592076E-2,6.478067E-3,1.995063E-3,1.5198177E-2,3.401481E-2,7.295623E-2,-3.5748284E-2,-2.1079347E-2,2.757072E-3,7.625153E-2,-7.09403E-5,3.5753878E-4,3.5535533E-4,7.314683E-4,8.103597E-4,1.3123171E-3,1.8487225E-3,3.252519E-3,-1.6668974E-3,-1.0070052E-3,-1.2775939E-3,-5.950132E-4,-5.4621614E-5,5.5974943E-4,6.378857E-4,2.4831328E-3],"categories":[],"categories_nodes":[],"categories_segments":[],"categories_sizes":[],"default_left":[0,0,0,0,0,0,0,0,0,0,0,0,0,0,0,0,0,0,0,0,0,0,0,0,0,0,0,0,0,0,0],"id":11,"left_children":[1,3,5,7,9,11,13,15,17,19,21,23,25,27,29,-1,-1,-1,-1,-1,-1,-1,-1,-1,-1,-1,-1,-1,-1,-1,-1],"loss_changes":[5.650103E-1,1.753594E-1,1.4370555E-1,5.997061E-2,4.283312E-2,2.7912557E-2,3.587788E-2,2.8976815E-2,2.1348849E-2,6.4781755E-3,9.88178E-3,1.3491005E-2,6.2341243E-3,9.563055E-3,4.744567E-4,0E0,0E0,0E0,0E0,0E0,0E0,0E0,0E0,0E0,0E0,0E0,0E0,0E0,0E0,0E0,0E0],"parents":[2147483647,0,0,1,1,2,2,3,3,4,4,5,5,6,6,7,7,8,8,9,9,10,10,11,11,12,12,13,13,14,14],"right_children":[2,4,6,8,10,12,14,16,18,20,22,24,26,28,30,-1,-1,-1,-1,-1,-1,-1,-1,-1,-1,-1,-1,-1,-1,-1,-1],"split_conditions":[2E0,2.970294E-2,1.8798687E-2,1E0,6.985029E-2,-3.9789486E-3,9.059393E-2,7.2258813E-3,7.0430296E-3,1E0,1.1180247E-1,-1.3591809E0,-1.2863518E0,5.094322E-2,-5.9274968E-2,-7.09403E-5,3.5753878E-4,3.5535533E-4,7.314683E-4,8.103597E-4,1.3123171E-3,1.8487225E-3,3.252519E-3,-1.6668974E-3,-1.0070052E-3,-1.2775939E-3,-5.950132E-4,-5.4621614E-5,5.5974943E-4,6.378857E-4,2.4831328E-3],"split_indices":[60,67,67,60,65,67,67,67,68,60,65,304,395,61,0,0,0,0,0,0,0,0,0,0,0,0,0,0,0,0,0],"split_type":[0,0,0,0,0,0,0,0,0,0,0,0,0,0,0,0,0,0,0,0,0,0,0,0,0,0,0,0,0,0,0],"sum_hessian":[2.211E3,1.527E3,6.84E2,1.376E3,1.51E2,5.46E2,1.38E2,6.8E2,6.96E2,1.12E2,3.9E1,3.15E2,2.31E2,1.32E2,6E0,4.72E2,2.08E2,5.03E2,1.93E2,6.5E1,4.7E1,3.1E1,8E0,3.4E1,2.81E2,1.3E1,2.18E2,1.03E2,2.9E1,1E0,5E0],"tree_param":{"num_deleted":"0","num_feature":"514","num_nodes":"31","size_leaf_vector":"0"}},{"base_weights":[1.5494009E-3,1.2247179E-2,-2.2315934E-2,8.67957E-3,4.4486333E-2,-3.115131E-2,-5.815425E-4,1.995063E-3,1.5198177E-2,3.401481E-2,7.295623E-2,-3.9824866E-2,-2.615869E-2,-3.9453236E-3,6.338845E-2,-7.09403E-5,3.5753878E-4,3.5535533E-4,7.314683E-4,8.103597E-4,1.3123171E-3,1.8487225E-3,3.252519E-3,-2.9834886E-3,-1.1481503E-3,-7.5784797E-4,-1.8814178E-3,-5.3406984E-4,9.523046E-5,2.3626904E-3,6.674476E-4],"categories":[],"categories_nodes":[],"categories_segments":[],"categories_sizes":[],"default_left":[0,0,0,0,0,0,0,0,0,0,0,0,0,0,0,0,0,0,0,0,0,0,0,0,0,0,0,0,0,0,0],"id":12,"left_children":[1,3,5,7,9,11,13,15,17,19,21,23,25,27,29,-1,-1,-1,-1,-1,-1,-1,-1,-1,-1,-1,-1,-1,-1,-1,-1],"loss_changes":[5.650103E-1,1.753594E-1,1.3152343E-1,5.997061E-2,4.283312E-2,2.0047188E-2,4.307112E-2,2.8976815E-2,2.1348849E-2,6.4781755E-3,9.88178E-3,1.624614E-2,1.1335015E-2,1.8476957E-2,4.3134876E-3,0E0,0E0,0E0,0E0,0E0,0E0,0E0,0E0,0E0,0E0,0E0,0E0,0E0,0E0,0E0,0E0],"parents":[2147483647,0,0,1,1,2,2,3,3,4,4,5,5,6,6,7,7,8,8,9,9,10,10,11,11,12,12,13,13,14,14],"right_children":[2,4,6,8,10,12,14,16,18,20,22,24,26,28,30,-1,-1,-1,-1,-1,-1,-1,-1,-1,-1,-1,-1,-1,-1,-1,-1],"split_conditions":[2E0,2.970294E-2,4.3343478E-1,1E0,6.985029E-2,-1.7004386E-2,2.402607E0,7.2258813E-3,7.0430296E-3,1E0,1.1180247E-1,-2.3076723E0,1.7584573E0,1.8798687E-2,-4.1780113E-3,-7.09403E-5,3.5753878E-4,3.5535533E-4,7.314683E-4,8.103597E-4,1.3123171E-3,1.8487225E-3,3.252519E-3,-2.9834886E-3,-1.1481503E-3,-7.5784797E-4,-1.8814178E-3,-5.3406984E-4,9.523046E-5,2.3626904E-3,6.674476E-4],"split_indices":[60,67,98,60,66,67,98,67,67,60,65,456,230,67,8,0,0,0,0,0,0,0,0,0,0,0,0,0,0,0,0],"split_type":[0,0,0,0,0,0,0,0,0,0,0,0,0,0,0,0,0,0,0,0,0,0,0,0,0,0,0,0,0,0,0],"sum_hessian":[2.211E3,1.527E3,6.84E2,1.376E3,1.51E2,4.86E2,1.98E2,6.8E2,6.96E2,1.12E2,3.9E1,1.75E2,3.11E2,1.89E2,9E0,4.72E2,2.08E2,5.03E2,1.93E2,6.5E1,4.7E1,3.1E1,8E0,4E0,1.71E2,3.03E2,8E0,6.4E1,1.25E2,6E0,3E0],"tree_param":{"num_deleted":"0","num_feature":"514","num_nodes":"31","size_leaf_vector":"0"}},{"base_weights":[1.5494009E-3,1.2247179E-2,-2.2315934E-2,8.67957E-3,4.4486333E-2,-2.9592076E-2,6.478067E-3,1.995063E-3,1.5198177E-2,3.401481E-2,7.295623E-2,-3.5748284E-2,-2.1079347E-2,2.757072E-3,7.625153E-2,-7.09403E-5,3.5753878E-4,3.5535533E-4,7.314683E-4,8.103597E-4,1.3123171E-3,1.8487225E-3,3.252519E-3,-1.6668974E-3,-1.0070052E-3,-1.2775939E-3,-5.950132E-4,-5.4621614E-5,5.5974943E-4,6.378857E-4,2.4831328E-3],"categories":[],"categories_nodes":[],"categories_segments":[],"categories_sizes":[],"default_left":[0,0,0,0,0,0,0,0,0,0,0,0,0,0,0,0,0,0,0,0,0,0,0,0,0,0,0,0,0,0,0],"id":13,"left_children":[1,3,5,7,9,11,13,15,17,19,21,23,25,27,29,-1,-1,-1,-1,-1,-1,-1,-1,-1,-1,-1,-1,-1,-1,-1,-1],"loss_changes":[5.650103E-1,1.753594E-1,1.4370555E-1,5.997061E-2,4.283312E-2,2.7912557E-2,3.587788E-2,2.8976815E-2,2.1348849E-2,6.4781755E-3,9.88178E-3,1.3491005E-2,6.2341243E-3,9.563055E-3,4.744567E-4,0E0,0E0,0E0,0E0,0E0,0E0,0E0,0E0,0E0,0E0,0E0,0E0,0E0,0E0,0E0,0E0],"parents":[2147483647,0,0,1,1,2,2,3,3,4,4,5,5,6,6,7,7,8,8,9,9,10,10,11,11,12,12,13,13,14,14],"right_children":[2,4,6,8,10,12,14,16,18,20,22,24,26,28,30,-1,-1,-1,-1,-1,-1,-1,-1,-1,-1,-1,-1,-1,-1,-1,-1],"split_conditions":[2E0,2.970294E-2,1.8798687E-2,1E0,6.985029E-2,-3.9789486E-3,9.059393E-2,7.2258813E-3,7.0430296E-3,1E0,1.1180247E-1,-1.3591809E0,-1.2863518E0,5.094322E-2,-5.9274968E-2,-7.09403E-5,3.5753878E-4,3.5535533E-4,7.314683E-4,8.103597E-4,1.3123171E-3,1.8487225E-3,3.252519E-3,-1.6668974E-3,-1.0070052E-3,-1.2775939E-3,-5.950132E-4,-5.4621614E-5,5.5974943E-4,6.378857E-4,2.4831328E-3],"split_indices":[60,67,67,60,65,67,67,67,67,60,65,304,391,62,0,0,0,0,0,0,0,0,0,0,0,0,0,0,0,0,0],"split_type":[0,0,0,0,0,0,0,0,0,0,0,0,0,0,0,0,0,0,0,0,0,0,0,0,0,0,0,0,0,0,0],"sum_hessian":[2.211E3,1.527E3,6.84E2,1.376E3,1.51E2,5.46E2,1.38E2,6.8E2,6.96E2,1.12E2,3.9E1,3.15E2,2.31E2,1.32E2,6E0,4.72E2,2.08E2,5.03E2,1.93E2,6.5E1,4.7E1,3.1E1,8E0,3.4E1,2.81E2,1.3E1,2.18E2,1.03E2,2.9E1,1E0,5E0],"tree_param":{"num_deleted":"0","num_feature":"514","num_nodes":"31","size_leaf_vector":"0"}},{"base_weights":[1.5494009E-3,-4.7598775E-3,2.396622E-2,-1.0005075E-2,4.90829E-4,2.1055974E-2,8.438885E-2,3.345315E-3,-3.5634693E-2,-2.1119232E-3,6.0140328E-3,1.6995845E-2,3.32651E-2,1.0576667E-1,4.1757926E-2,-1.3965897E-4,3.2258668E-4,-1.9432334E-3,-1.0136019E-3,2.3897944E-4,-7.8038924E-4,3.9289365E-4,-4.2298148E-4,7.255025E-4,-9.430948E-5,1.4645653E-3,2.913971E-4,1.6653879E-3,3.4735599E-3,4.1936847E-4,1.6185086E-3],"categories":[],"categories_nodes":[],"categories_segments":[],"categories_sizes":[],"default_left":[0,0,0,0,0,0,0,0,0,0,0,0,0,0,0,0,0,0,0,0,0,0,0,0,0,0,0,0,0,0,0],"id":14,"left_children":[1,3,5,7,9,11,13,15,17,19,21,23,25,27,29,-1,-1,-1,-1,-1,-1,-1,-1,-1,-1,-1,-1,-1,-1,-1,-1],"loss_changes":[3.1296596E-1,4.7568202E-2,8.368361E-2,2.9575008E-1,1.243316E-2,2.2484988E-2,1.563324E-2,3.3088047E-2,1.6289532E-2,1.391873E-1,3.863895E-2,4.909704E-2,4.0508047E-2,3.233552E-6,2.188839E-3,0E0,0E0,0E0,0E0,0E0,0E0,0E0,0E0,0E0,0E0,0E0,0E0,0E0,0E0,0E0,0E0],"parents":[2147483647,0,0,1,1,2,2,3,3,4,4,5,5,6,6,7,7,8,8,9,9,10,10,11,11,12,12,13,13,14,14],"right_children":[2,4,6,8,10,12,14,16,18,20,22,24,26,28,30,-1,-1,-1,-1,-1,-1,-1,-1,-1,-1,-1,-1,-1,-1,-1,-1],"split_conditions":[1.7641297E-2,-2.9135942E-1,1.066381E-1,2E0,1.1210247E-3,5.800848E-2,1.0035746E0,1E0,-4.533625E-2,2E0,2E0,2E0,2E0,-3.6297575E-1,-1.932463E-2,-1.3965897E-4,3.2258668E-4,-1.9432334E-3,-1.0136019E-3,2.3897944E-4,-7.8038924E-4,3.9289365E-4,-4.2298148E-4,7.255025E-4,-9.430948E-5,1.4645653E-3,2.913971E-4,1.6653879E-3,3.4735599E-3,4.1936847E-4,1.6185086E-3],"split_indices":[67,97,65,60,0,65,272,60,26,60,60,60,60,188,24,0,0,0,0,0,0,0,0,0,0,0,0,0,0,0,0],"split_type":[0,0,0,0,0,0,0,0,0,0,0,0,0,0,0,0,0,0,0,0,0,0,0,0,0,0,0,0,0,0,0],"sum_hessian":[2.211E3,1.726E3,4.85E2,8.63E2,8.63E2,4.64E2,2.1E1,5.68E2,2.95E2,5.87E2,2.76E2,3.5E2,1.14E2,1.3E1,8E0,2.72E2,2.96E2,1.9E1,2.76E2,4.13E2,1.74E2,2.05E2,7.1E1,2.6E2,9E1,6.9E1,4.5E1,3E0,1E1,3E0,5E0],"tree_param":{"num_deleted":"0","num_feature":"514","num_nodes":"31","size_leaf_vector":"0"}},{"base_weights":[1.5494009E-3,1.2247179E-2,-2.2315934E-2,6.135999E-3,2.8041508E-2,-2.9592076E-2,6.478067E-3,-1.1520339E-3,1.2903653E-2,2.1910736E-2,5.8907844E-2,-3.5748284E-2,-2.1079347E-2,2.757072E-3,7.625153E-2,-1.673266E-4,9.517486E-5,2.5388016E-3,3.7523394E-4,4.8752007E-4,8.781586E-4,1.5432801E-3,3.252519E-3,-1.6668974E-3,-1.0070052E-3,-1.2775939E-3,-5.950132E-4,-5.4621614E-5,5.5974943E-4,6.378857E-4,2.4831328E-3],"categories":[],"categories_nodes":[],"categories_segments":[],"categories_sizes":[],"default_left":[0,0,0,0,0,0,0,0,0,0,0,0,0,0,0,0,0,0,0,0,0,0,0,0,0,0,0,0,0,0,0],"id":15,"left_children":[1,3,5,7,9,11,13,15,17,19,21,23,25,27,29,-1,-1,-1,-1,-1,-1,-1,-1,-1,-1,-1,-1,-1,-1,-1,-1],"loss_changes":[5.650103E-1,1.4731354E-1,1.4370555E-1,5.441801E-2,7.932311E-2,2.7912557E-2,3.587788E-2,9.99684E-3,2.008199E-2,1.4226779E-2,2.1582723E-2,1.3491005E-2,6.2341243E-3,9.563055E-3,4.744567E-4,0E0,0E0,0E0,0E0,0E0,0E0,0E0,0E0,0E0,0E0,0E0,0E0,0E0,0E0,0E0,0E0],"parents":[2147483647,0,0,1,1,2,2,3,3,4,4,5,5,6,6,7,7,8,8,9,9,10,10,11,11,12,12,13,13,14,14],"right_children":[2,4,6,8,10,12,14,16,18,20,22,24,26,28,30,-1,-1,-1,-1,-1,-1,-1,-1,-1,-1,-1,-1,-1,-1,-1,-1],"split_conditions":[2E0,5.157675E-1,1.8798687E-2,1E0,6.1917014E-2,-3.9789486E-3,9.059393E-2,-5.975596E-3,-1.9570129E0,1E0,1.1180247E-1,-1.3591809E0,-1.2863518E0,5.094322E-2,-5.9274968E-2,-1.673266E-4,9.517486E-5,2.5388016E-3,3.7523394E-4,4.8752007E-4,8.781586E-4,1.5432801E-3,3.252519E-3,-1.6668974E-3,-1.0070052E-3,-1.2775939E-3,-5.950132E-4,-5.4621614E-5,5.5974943E-4,6.378857E-4,2.4831328E-3],"split_indices":[60,98,67,60,65,67,68,67,71,60,65,304,395,61,0,0,0,0,0,0,0,0,0,0,0,0,0,0,0,0,0],"split_type":[0,0,0,0,0,0,0,0,0,0,0,0,0,0,0,0,0,0,0,0,0,0,0,0,0,0,0,0,0,0,0],"sum_hessian":[2.211E3,1.527E3,6.84E2,1.102E3,4.25E2,5.46E2,1.38E2,5.31E2,5.71E2,3.56E2,6.9E1,3.15E2,2.31E2,1.32E2,6E0,2.63E2,2.68E2,3E0,5.68E2,1.97E2,1.59E2,6.1E1,8E0,3.4E1,2.81E2,1.3E1,2.18E2,1.03E2,2.9E1,1E0,5E0],"tree_param":{"num_deleted":"0","num_feature":"514","num_nodes":"31","size_leaf_vector":"0"}},{"base_weights":[1.5494009E-3,1.2247179E-2,-2.2315934E-2,8.67957E-3,4.4486333E-2,-2.9592076E-2,6.478067E-3,1.995063E-3,1.5198177E-2,3.401481E-2,7.295623E-2,-3.5748284E-2,-2.1079347E-2,2.757072E-3,7.625153E-2,-7.09403E-5,3.5753878E-4,3.5535533E-4,7.314683E-4,8.103597E-4,1.3123171E-3,1.8487225E-3,3.252519E-3,-1.6668974E-3,-1.0070052E-3,-1.2775939E-3,-5.950132E-4,-3.940798E-5,6.1629224E-4,6.378857E-4,2.4831328E-3],"categories":[],"categories_nodes":[],"categories_segments":[],"categories_sizes":[],"default_left":[0,0,0,0,0,0,0,0,0,0,0,0,0,0,0,0,0,0,0,0,0,0,0,0,0,0,0,0,0,0,0],"id":16,"left_children":[1,3,5,7,9,11,13,15,17,19,21,23,25,27,29,-1,-1,-1,-1,-1,-1,-1,-1,-1,-1,-1,-1,-1,-1,-1,-1],"loss_changes":[5.650103E-1,1.753594E-1,1.4370555E-1,5.997061E-2,4.283312E-2,2.7912557E-2,3.587788E-2,2.8976815E-2,2.1348849E-2,6.4781755E-3,9.88178E-3,1.3491005E-2,6.2341243E-3,9.513842E-3,4.744567E-4,0E0,0E0,0E0,0E0,0E0,0E0,0E0,0E0,0E0,0E0,0E0,0E0,0E0,0E0,0E0,0E0],"parents":[2147483647,0,0,1,1,2,2,3,3,4,4,5,5,6,6,7,7,8,8,9,9,10,10,11,11,12,12,13,13,14,14],"right_children":[2,4,6,8,10,12,14,16,18,20,22,24,26,28,30,-1,-1,-1,-1,-1,-1,-1,-1,-1,-1,-1,-1,-1,-1,-1,-1],"split_conditions":[2E0,2.970294E-2,1.8798687E-2,1E0,6.985029E-2,-3.9789486E-3,9.059393E-2,7.2258813E-3,7.0430296E-3,1E0,1.1180247E-1,-1.3591809E0,-1.2863518E0,4.8096284E-2,-5.9274968E-2,-7.09403E-5,3.5753878E-4,3.5535533E-4,7.314683E-4,8.103597E-4,1.3123171E-3,1.8487225E-3,3.252519E-3,-1.6668974E-3,-1.0070052E-3,-1.2775939E-3,-5.950132E-4,-3.940798E-5,6.1629224E-4,6.378857E-4,2.4831328E-3],"split_indices":[60,67,67,60,66,67,67,67,67,60,65,304,391,67,0,0,0,0,0,0,0,0,0,0,0,0,0,0,0,0,0],"split_type":[0,0,0,0,0,0,0,0,0,0,0,0,0,0,0,0,0,0,0,0,0,0,0,0,0,0,0,0,0,0,0],"sum_hessian":[2.211E3,1.527E3,6.84E2,1.376E3,1.51E2,5.46E2,1.38E2,6.8E2,6.96E2,1.12E2,3.9E1,3.15E2,2.31E2,1.32E2,6E0,4.72E2,2.08E2,5.03E2,1.93E2,6.5E1,4.7E1,3.1E1,8E0,3.4E1,2.81E2,1.3E1,2.18E2,1.08E2,2.4E1,1E0,5E0],"tree_param":{"num_deleted":"0","num_feature":"514","num_nodes":"31","size_leaf_vector":"0"}},{"base_weights":[1.5494009E-3,-4.7598775E-3,2.396622E-2,6.604307E-3,-2.9685065E-2,2.1055974E-2,8.438885E-2,-5.4461585E-4,1.3209543E-2,-3.5748284E-2,-2.1075942E-2,2.9187571E-2,1.1700692E-3,1.0576667E-1,4.1757926E-2,-1.673266E-4,1.12827E-4,2.5388016E-3,3.8570559E-4,-1.6668974E-3,-1.0070052E-3,-1.2775939E-3,-5.9367117E-4,7.1972184E-4,1.4546232E-3,-1.2762136E-4,4.4433324E-4,1.6653879E-3,3.4735599E-3,4.1936847E-4,1.6185086E-3],"categories":[],"categories_nodes":[],"categories_segments":[],"categories_sizes":[],"default_left":[0,0,0,0,0,0,0,0,0,0,0,0,0,0,0,0,0,0,0,0,0,0,0,0,0,0,0,0,0,0,0],"id":17,"left_children":[1,3,5,7,9,11,13,15,17,19,21,23,25,27,29,-1,-1,-1,-1,-1,-1,-1,-1,-1,-1,-1,-1,-1,-1,-1,-1],"loss_changes":[3.1296596E-1,4.893765E-1,8.368361E-2,5.605771E-2,2.7486265E-2,7.51583E-2,1.563324E-2,1.2149776E-2,1.9888729E-2,1.3491005E-2,6.249264E-3,3.2616407E-2,9.937146E-3,3.233552E-6,2.188839E-3,0E0,0E0,0E0,0E0,0E0,0E0,0E0,0E0,0E0,0E0,0E0,0E0,0E0,0E0,0E0,0E0],"parents":[2147483647,0,0,1,1,2,2,3,3,4,4,5,5,6,6,7,7,8,8,9,9,10,10,11,11,12,12,13,13,14,14],"right_children":[2,4,6,8,10,12,14,16,18,20,22,24,26,28,30,-1,-1,-1,-1,-1,-1,-1,-1,-1,-1,-1,-1,-1,-1,-1,-1],"split_conditions":[1.7641297E-2,2E0,1.066381E-1,1E0,-3.9789486E-3,2E0,1.0035746E0,-5.975596E-3,-1.9570129E0,-1.3591809E0,-1.2863518E0,5.719952E-2,1.6920534E0,-3.7681922E-1,-6.0965127E-4,-1.673266E-4,1.12827E-4,2.5388016E-3,3.8570559E-4,-1.6668974E-3,-1.0070052E-3,-1.2775939E-3,-5.9367117E-4,7.1972184E-4,1.4546232E-3,-1.2762136E-4,4.4433324E-4,1.6653879E-3,3.4735599E-3,4.1936847E-4,1.6185086E-3],"split_indices":[67,60,65,60,67,60,272,67,71,304,391,65,97,187,25,0,0,0,0,0,0,0,0,0,0,0,0,0,0,0,0],"split_type":[0,0,0,0,0,0,0,0,0,0,0,0,0,0,0,0,0,0,0,0,0,0,0,0,0,0,0,0,0,0,0],"sum_hessian":[2.211E3,1.726E3,4.85E2,1.186E3,5.4E2,4.64E2,2.1E1,5.7E2,6.16E2,3.15E2,2.25E2,3.29E2,1.35E2,1.3E1,8E0,2.63E2,3.07E2,3E0,6.13E2,3.4E1,2.81E2,1.3E1,2.12E2,2.57E2,7.2E1,9.7E1,3.8E1,3E0,1E1,3E0,5E0],"tree_param":{"num_deleted":"0","num_feature":"514","num_nodes":"31","size_leaf_vector":"0"}},{"base_weights":[1.5494009E-3,1.2247179E-2,-2.2315934E-2,8.67957E-3,4.4486333E-2,-2.9592076E-2,6.478067E-3,4.9434584E-3,1.7889759E-2,3.401481E-2,7.295623E-2,-3.5748284E-2,-2.1079347E-2,2.757072E-3,7.625153E-2,-6.878103E-5,3.559685E-4,3.6087513E-4,7.3181256E-4,8.103597E-4,1.3123171E-3,1.8487225E-3,3.252519E-3,-1.6668974E-3,-1.0070052E-3,-1.2775939E-3,-5.950132E-4,-5.4621614E-5,5.5974943E-4,6.378857E-4,2.4831328E-3],"categories":[],"categories_nodes":[],"categories_segments":[],"categories_sizes":[],"default_left":[0,0,0,0,0,0,0,0,0,0,0,0,0,0,0,0,0,0,0,0,0,0,0,0,0,0,0,0,0,0,0],"id":18,"left_children":[1,3,5,7,9,11,13,15,17,19,21,23,25,27,29,-1,-1,-1,-1,-1,-1,-1,-1,-1,-1,-1,-1,-1,-1,-1,-1],"loss_changes":[5.650103E-1,1.753594E-1,1.4370555E-1,4.729452E-2,4.283312E-2,2.7912557E-2,3.587788E-2,4.816947E-2,1.4576346E-2,6.4781755E-3,9.88178E-3,1.3491005E-2,6.2341243E-3,9.563055E-3,4.744567E-4,0E0,0E0,0E0,0E0,0E0,0E0,0E0,0E0,0E0,0E0,0E0,0E0,0E0,0E0,0E0,0E0],"parents":[2147483647,0,0,1,1,2,2,3,3,4,4,5,5,6,6,7,7,8,8,9,9,10,10,11,11,12,12,13,13,14,14],"right_children":[2,4,6,8,10,12,14,16,18,20,22,24,26,28,30,-1,-1,-1,-1,-1,-1,-1,-1,-1,-1,-1,-1,-1,-1,-1,-1],"split_conditions":[2E0,2.970294E-2,1.8798687E-2,7.3996745E-3,6.985029E-2,-3.9789486E-3,9.059393E-2,1E0,1E0,1E0,1.1180247E-1,-1.3591809E0,-1.2863518E0,5.094322E-2,-5.9274968E-2,-6.878103E-5,3.559685E-4,3.6087513E-4,7.3181256E-4,8.103597E-4,1.3123171E-3,1.8487225E-3,3.252519E-3,-1.6668974E-3,-1.0070052E-3,-1.2775939E-3,-5.950132E-4,-5.4621614E-5,5.5974943E-4,6.378857E-4,2.4831328E-3],"split_indices":[60,67,67,67,65,67,68,60,60,60,65,304,391,61,4,0,0,0,0,0,0,0,0,0,0,0,0,0,0,0,0],"split_type":[0,0,0,0,0,0,0,0,0,0,0,0,0,0,0,0,0,0,0,0,0,0,0,0,0,0,0,0,0,0,0],"sum_hessian":[2.211E3,1.527E3,6.84E2,1.376E3,1.51E2,5.46E2,1.38E2,9.8E2,3.96E2,1.12E2,3.9E1,3.15E2,2.31E2,1.32E2,6E0,4.76E2,5.04E2,2.04E2,1.92E2,6.5E1,4.7E1,3.1E1,8E0,3.4E1,2.81E2,1.3E1,2.18E2,1.03E2,2.9E1,1E0,5E0],"tree_param":{"num_deleted":"0","num_feature":"514","num_nodes":"31","size_leaf_vector":"0"}},{"base_weights":[1.5494009E-3,-4.7598775E-3,2.396622E-2,-1.0005075E-2,4.90829E-4,2.1055974E-2,8.438885E-2,3.345315E-3,-3.5634693E-2,9.589382E-3,-2.2405496E-2,2.9187571E-2,1.1700692E-3,1.0576667E-1,4.1757926E-2,-1.3965897E-4,3.2258668E-4,-1.9432334E-3,-1.0136019E-3,9.599797E-5,4.7093516E-4,-7.120659E-4,9.3160335E-5,7.1972184E-4,1.4546232E-3,-1.2762136E-4,4.4433324E-4,1.6653879E-3,3.4735599E-3,4.1936847E-4,1.6185086E-3],"categories":[],"categories_nodes":[],"categories_segments":[],"categories_sizes":[],"default_left":[0,0,0,0,0,0,0,0,0,0,0,0,0,0,0,0,0,0,0,0,0,0,0,0,0,0,0,0,0,0,0],"id":19,"left_children":[1,3,5,7,9,11,13,15,17,19,21,23,25,27,29,-1,-1,-1,-1,-1,-1,-1,-1,-1,-1,-1,-1,-1,-1,-1,-1],"loss_changes":[3.1296596E-1,4.7568202E-2,8.368361E-2,2.9575008E-1,1.802063E-1,7.51583E-2,1.563324E-2,3.3088047E-2,1.6289532E-2,2.360716E-2,6.9211796E-3,3.2616407E-2,9.937146E-3,3.233552E-6,2.188839E-3,0E0,0E0,0E0,0E0,0E0,0E0,0E0,0E0,0E0,0E0,0E0,0E0,0E0,0E0,0E0,0E0],"parents":[2147483647,0,0,1,1,2,2,3,3,4,4,5,5,6,6,7,7,8,8,9,9,10,10,11,11,12,12,13,13,14,14],"right_children":[2,4,6,8,10,12,14,16,18,20,22,24,26,28,30,-1,-1,-1,-1,-1,-1,-1,-1,-1,-1,-1,-1,-1,-1,-1,-1],"split_conditions":[1.7641297E-2,-2.9135942E-1,1.066381E-1,2E0,2E0,2E0,1.0035746E0,1E0,-4.533625E-2,1E0,1.156923E0,5.719952E-2,1.6920534E0,-3.7681922E-1,-1.932463E-2,-1.3965897E-4,3.2258668E-4,-1.9432334E-3,-1.0136019E-3,9.599797E-5,4.7093516E-4,-7.120659E-4,9.3160335E-5,7.1972184E-4,1.4546232E-3,-1.2762136E-4,4.4433324E-4,1.6653879E-3,3.4735599E-3,4.1936847E-4,1.6185086E-3],"split_indices":[67,97,65,60,60,60,272,60,26,60,88,66,101,187,24,0,0,0,0,0,0,0,0,0,0,0,0,0,0,0,0],"split_type":[0,0,0,0,0,0,0,0,0,0,0,0,0,0,0,0,0,0,0,0,0,0,0,0,0,0,0,0,0,0,0],"sum_hessian":[2.211E3,1.726E3,4.85E2,8.63E2,8.63E2,4.64E2,2.1E1,5.68E2,2.95E2,6.18E2,2.45E2,3.29E2,1.35E2,1.3E1,8E0,2.72E2,2.96E2,1.9E1,2.76E2,2.98E2,3.2E2,2.35E2,1E1,2.57E2,7.2E1,9.7E1,3.8E1,3E0,1E1,3E0,5E0],"tree_param":{"num_deleted":"0","num_feature":"514","num_nodes":"31","size_leaf_vector":"0"}},{"base_weights":[1.5494009E-3,1.2247179E-2,-2.2315934E-2,8.67957E-3,4.4486333E-2,-2.9592076E-2,6.478067E-3,1.995063E-3,1.5198177E-2,3.401481E-2,7.295623E-2,-3.5748284E-2,-2.1079347E-2,2.757072E-3,7.625153E-2,-7.09403E-5,3.5753878E-4,3.5535533E-4,7.314683E-4,8.103597E-4,1.3123171E-3,1.8487225E-3,3.252519E-3,-1.6668974E-3,-1.0070052E-3,-1.2775939E-3,-5.950132E-4,-5.4621614E-5,5.5974943E-4,6.378857E-4,2.4831328E-3],"categories":[],"categories_nodes":[],"categories_segments":[],"categories_sizes":[],"default_left":[0,0,0,0,0,0,0,0,0,0,0,0,0,0,0,0,0,0,0,0,0,0,0,0,0,0,0,0,0,0,0],"id":20,"left_children":[1,3,5,7,9,11,13,15,17,19,21,23,25,27,29,-1,-1,-1,-1,-1,-1,-1,-1,-1,-1,-1,-1,-1,-1,-1,-1],"loss_changes":[5.650103E-1,1.753594E-1,1.4370555E-1,5.997061E-2,4.283312E-2,2.7912557E-2,3.587788E-2,2.8976815E-2,2.1348849E-2,6.4781755E-3,9.88178E-3,1.3491005E-2,6.2341243E-3,9.563055E-3,4.744567E-4,0E0,0E0,0E0,0E0,0E0,0E0,0E0,0E0,0E0,0E0,0E0,0E0,0E0,0E0,0E0,0E0],"parents":[2147483647,0,0,1,1,2,2,3,3,4,4,5,5,6,6,7,7,8,8,9,9,10,10,11,11,12,12,13,13,14,14],"right_children":[2,4,6,8,10,12,14,16,18,20,22,24,26,28,30,-1,-1,-1,-1,-1,-1,-1,-1,-1,-1,-1,-1,-1,-1,-1,-1],"split_conditions":[2E0,2.970294E-2,1.8798687E-2,1E0,6.985029E-2,-3.9789486E-3,9.059393E-2,7.2258813E-3,7.0430296E-3,1E0,1.1180247E-1,-1.3591809E0,-1.2863518E0,5.094322E-2,-3.1497672E-2,-7.09403E-5,3.5753878E-4,3.5535533E-4,7.314683E-4,8.103597E-4,1.3123171E-3,1.8487225E-3,3.252519E-3,-1.6668974E-3,-1.0070052E-3,-1.2775939E-3,-5.950132E-4,-5.4621614E-5,5.5974943E-4,6.378857E-4,2.4831328E-3],"split_indices":[60,67,67,60,65,67,68,67,67,60,66,308,391,61,5,0,0,0,0,0,0,0,0,0,0,0,0,0,0,0,0],"split_type":[0,0,0,0,0,0,0,0,0,0,0,0,0,0,0,0,0,0,0,0,0,0,0,0,0,0,0,0,0,0,0],"sum_hessian":[2.211E3,1.527E3,6.84E2,1.376E3,1.51E2,5.46E2,1.38E2,6.8E2,6.96E2,1.12E2,3.9E1,3.15E2,2.31E2,1.32E2,6E0,4.72E2,2.08E2,5.03E2,1.93E2,6.5E1,4.7E1,3.1E1,8E0,3.4E1,2.81E2,1.3E1,2.18E2,1.03E2,2.9E1,1E0,5E0],"tree_param":{"num_deleted":"0","num_feature":"514","num_nodes":"31","size_leaf_vector":"0"}},{"base_weights":[1.5494009E-3,-4.7598775E-3,2.396622E-2,6.604307E-3,-2.9685065E-2,2.1055974E-2,8.438885E-2,-5.4461585E-4,1.3209543E-2,-3.5748284E-2,-2.1075942E-2,2.9187571E-2,1.1700692E-3,1.0576667E-1,4.1757926E-2,-1.673266E-4,1.12827E-4,2.5388016E-3,3.8570559E-4,-1.6668974E-3,-1.0070052E-3,-1.2775939E-3,-5.9367117E-4,7.1972184E-4,1.4546232E-3,-1.2762136E-4,4.4433324E-4,1.6653879E-3,3.4735599E-3,4.1936847E-4,1.6185086E-3],"categories":[],"categories_nodes":[],"categories_segments":[],"categories_sizes":[],"default_left":[0,0,0,0,0,0,0,0,0,0,0,0,0,0,0,0,0,0,0,0,0,0,0,0,0,0,0,0,0,0,0],"id":21,"left_children":[1,3,5,7,9,11,13,15,17,19,21,23,25,27,29,-1,-1,-1,-1,-1,-1,-1,-1,-1,-1,-1,-1,-1,-1,-1,-1],"loss_changes":[3.1296596E-1,4.893765E-1,8.368361E-2,5.605771E-2,2.7486265E-2,7.51583E-2,1.563324E-2,1.2149776E-2,1.9888729E-2,1.3491005E-2,6.249264E-3,3.2616407E-2,9.937146E-3,3.233552E-6,2.188839E-3,0E0,0E0,0E0,0E0,0E0,0E0,0E0,0E0,0E0,0E0,0E0,0E0,0E0,0E0,0E0,0E0],"parents":[2147483647,0,0,1,1,2,2,3,3,4,4,5,5,6,6,7,7,8,8,9,9,10,10,11,11,12,12,13,13,14,14],"right_children":[2,4,6,8,10,12,14,16,18,20,22,24,26,28,30,-1,-1,-1,-1,-1,-1,-1,-1,-1,-1,-1,-1,-1,-1,-1,-1],"split_conditions":[1.7641297E-2,2E0,1.066381E-1,1E0,-3.9789486E-3,2E0,1.0035746E0,-5.975596E-3,-1.9570129E0,-1.3591809E0,-1.2863518E0,5.719952E-2,1.6920534E0,-3.7681922E-1,-6.0965127E-4,-1.673266E-4,1.12827E-4,2.5388016E-3,3.8570559E-4,-1.6668974E-3,-1.0070052E-3,-1.2775939E-3,-5.9367117E-4,7.1972184E-4,1.4546232E-3,-1.2762136E-4,4.4433324E-4,1.6653879E-3,3.4735599E-3,4.1936847E-4,1.6185086E-3],"split_indices":[67,60,65,60,67,60,272,68,75,308,391,65,101,187,25,0,0,0,0,0,0,0,0,0,0,0,0,0,0,0,0],"split_type":[0,0,0,0,0,0,0,0,0,0,0,0,0,0,0,0,0,0,0,0,0,0,0,0,0,0,0,0,0,0,0],"sum_hessian":[2.211E3,1.726E3,4.85E2,1.186E3,5.4E2,4.64E2,2.1E1,5.7E2,6.16E2,3.15E2,2.25E2,3.29E2,1.35E2,1.3E1,8E0,2.63E2,3.07E2,3E0,6.13E2,3.4E1,2.81E2,1.3E1,2.12E2,2.57E2,7.2E1,9.7E1,3.8E1,3E0,1E1,3E0,5E0],"tree_param":{"num_deleted":"0","num_feature":"514","num_nodes":"31","size_leaf_vector":"0"}},{"base_weights":[1.5494009E-3,1.2247179E-2,-2.2315934E-2,8.67957E-3,4.4486333E-2,-2.9592076E-2,6.478067E-3,4.9434584E-3,1.7889759E-2,3.401481E-2,7.295623E-2,-3.466579E-2,-2.0754967E-2,2.757072E-3,7.625153E-2,-6.878103E-5,3.559685E-4,3.6087513E-4,7.3181256E-4,1.054793E-3,-2.0235624E-4,1.8487225E-3,3.252519E-3,-1.9028222E-3,-9.923505E-4,-7.25853E-4,-2.84492E-4,-5.4621614E-5,5.5974943E-4,6.378857E-4,2.4831328E-3],"categories":[],"categories_nodes":[],"categories_segments":[],"categories_sizes":[],"default_left":[0,0,0,0,0,0,0,0,0,0,0,0,0,0,0,0,0,0,0,0,0,0,0,0,0,0,0,0,0,0,0],"id":22,"left_children":[1,3,5,7,9,11,13,15,17,19,21,23,25,27,29,-1,-1,-1,-1,-1,-1,-1,-1,-1,-1,-1,-1,-1,-1,-1,-1],"loss_changes":[5.650103E-1,1.753594E-1,1.4370555E-1,4.729452E-2,4.283312E-2,2.3806334E-2,3.587788E-2,4.816947E-2,1.4576346E-2,3.8805306E-3,9.88178E-3,1.6611874E-2,7.1183965E-3,9.563055E-3,4.744567E-4,0E0,0E0,0E0,0E0,0E0,0E0,0E0,0E0,0E0,0E0,0E0,0E0,0E0,0E0,0E0,0E0],"parents":[2147483647,0,0,1,1,2,2,3,3,4,4,5,5,6,6,7,7,8,8,9,9,10,10,11,11,12,12,13,13,14,14],"right_children":[2,4,6,8,10,12,14,16,18,20,22,24,26,28,30,-1,-1,-1,-1,-1,-1,-1,-1,-1,-1,-1,-1,-1,-1,-1,-1],"split_conditions":[2E0,2.970294E-2,1.8798687E-2,7.3996745E-3,6.985029E-2,-8.91742E-2,9.059393E-2,1E0,1E0,5.7318486E-2,1.1180247E-1,-4.533625E-2,4.0671085E-3,5.094322E-2,-5.9274968E-2,-6.878103E-5,3.559685E-4,3.6087513E-4,7.3181256E-4,1.054793E-3,-2.0235624E-4,1.8487225E-3,3.252519E-3,-1.9028222E-3,-9.923505E-4,-7.25853E-4,-2.84492E-4,-5.4621614E-5,5.5974943E-4,6.378857E-4,2.4831328E-3],"split_indices":[60,67,68,67,65,97,67,60,60,58,65,26,0,61,0,0,0,0,0,0,0,0,0,0,0,0,0,0,0,0,0],"split_type":[0,0,0,0,0,0,0,0,0,0,0,0,0,0,0,0,0,0,0,0,0,0,0,0,0,0,0,0,0,0,0],"sum_hessian":[2.211E3,1.527E3,6.84E2,1.376E3,1.51E2,5.46E2,1.38E2,9.8E2,3.96E2,1.12E2,3.9E1,3.45E2,2.01E2,1.32E2,6E0,4.76E2,5.04E2,2.04E2,1.92E2,1.1E2,2E0,3.1E1,8E0,2E1,3.25E2,1.56E2,4.5E1,1.03E2,2.9E1,1E0,5E0],"tree_param":{"num_deleted":"0","num_feature":"514","num_nodes":"31","size_leaf_vector":"0"}},{"base_weights":[1.5494009E-3,1.2247179E-2,-2.2315934E-2,6.0654287E-3,2.74221E-2,-3.115131E-2,-5.815425E-4,-1.0713902E-3,1.2734292E-2,2.1546943E-2,5.8869734E-2,-3.9824866E-2,-2.615869E-2,-3.9453236E-3,6.338845E-2,-1.673266E-4,1.0303008E-4,2.5388016E-3,3.6979184E-4,4.3242364E-4,8.446841E-4,1.5380098E-3,3.252519E-3,-2.9834886E-3,-1.1481503E-3,-7.5784797E-4,-1.8814178E-3,-5.3406984E-4,9.523046E-5,2.3626904E-3,6.674476E-4],"categories":[],"categories_nodes":[],"categories_segments":[],"categories_sizes":[],"default_left":[0,0,0,0,0,0,0,0,0,0,0,0,0,0,0,0,0,0,0,0,0,0,0,0,0,0,0,0,0,0,0],"id":23,"left_children":[1,3,5,7,9,11,13,15,17,19,21,23,25,27,29,-1,-1,-1,-1,-1,-1,-1,-1,-1,-1,-1,-1,-1,-1,-1,-1],"loss_changes":[5.650103E-1,1.4317167E-1,1.3152343E-1,5.1748827E-2,8.039534E-2,2.0047188E-2,4.307112E-2,1.048585E-2,2.0185784E-2,1.6823411E-2,2.169013E-2,1.624614E-2,1.1335015E-2,1.8476957E-2,4.3134876E-3,0E0,0E0,0E0,0E0,0E0,0E0,0E0,0E0,0E0,0E0,0E0,0E0,0E0,0E0,0E0,0E0],"parents":[2147483647,0,0,1,1,2,2,3,3,4,4,5,5,6,6,7,7,8,8,9,9,10,10,11,11,12,12,13,13,14,14],"right_children":[2,4,6,8,10,12,14,16,18,20,22,24,26,28,30,-1,-1,-1,-1,-1,-1,-1,-1,-1,-1,-1,-1,-1,-1,-1,-1],"split_conditions":[2E0,5.226223E-1,4.3343478E-1,1E0,6.1065342E-2,-1.7004386E-2,2.402607E0,-5.975596E-3,-1.9570129E0,3.5267856E-2,1.1180247E-1,-2.3076723E0,1.7584573E0,1.8798687E-2,-4.1780113E-3,-1.673266E-4,1.0303008E-4,2.5388016E-3,3.6979184E-4,4.3242364E-4,8.446841E-4,1.5380098E-3,3.252519E-3,-2.9834886E-3,-1.1481503E-3,-7.5784797E-4,-1.8814178E-3,-5.3406984E-4,9.523046E-5,2.3626904E-3,6.674476E-4],"split_indices":[60,97,98,60,65,67,98,67,75,65,66,456,230,67,8,0,0,0,0,0,0,0,0,0,0,0,0,0,0,0,0],"split_type":[0,0,0,0,0,0,0,0,0,0,0,0,0,0,0,0,0,0,0,0,0,0,0,0,0,0,0,0,0,0,0],"sum_hessian":[2.211E3,1.527E3,6.84E2,1.086E3,4.41E2,4.86E2,1.98E2,5.25E2,5.61E2,3.73E2,6.8E1,1.75E2,3.11E2,1.89E2,9E0,2.63E2,2.62E2,3E0,5.58E2,1.75E2,1.98E2,6E1,8E0,4E0,1.71E2,3.03E2,8E0,6.4E1,1.25E2,6E0,3E0],"tree_param":{"num_deleted":"0","num_feature":"514","num_nodes":"31","size_leaf_vector":"0"}},{"base_weights":[1.5494009E-3,1.2247179E-2,-2.2315934E-2,8.67957E-3,4.4486333E-2,-2.9592076E-2,6.478067E-3,1.995063E-3,1.5198177E-2,3.401481E-2,7.295623E-2,-3.5748284E-2,-2.1079347E-2,2.757072E-3,7.625153E-2,-7.09403E-5,3.5753878E-4,3.7336248E-4,7.7600864E-4,8.103597E-4,1.3123171E-3,1.8487225E-3,3.252519E-3,-1.6668974E-3,-1.0070052E-3,-1.2775939E-3,-5.950132E-4,-5.4621614E-5,5.5974943E-4,6.378857E-4,2.4831328E-3],"categories":[],"categories_nodes":[],"categories_segments":[],"categories_sizes":[],"default_left":[0,0,0,0,0,0,0,0,0,0,0,0,0,0,0,0,0,0,0,0,0,0,0,0,0,0,0,0,0,0,0],"id":24,"left_children":[1,3,5,7,9,11,13,15,17,19,21,23,25,27,29,-1,-1,-1,-1,-1,-1,-1,-1,-1,-1,-1,-1,-1,-1,-1,-1],"loss_changes":[5.650103E-1,1.753594E-1,1.4370555E-1,5.997061E-2,4.283312E-2,2.7912557E-2,3.587788E-2,2.8976815E-2,2.0561114E-2,6.4781755E-3,9.88178E-3,1.3491005E-2,6.2341243E-3,9.563055E-3,4.744567E-4,0E0,0E0,0E0,0E0,0E0,0E0,0E0,0E0,0E0,0E0,0E0,0E0,0E0,0E0,0E0,0E0],"parents":[2147483647,0,0,1,1,2,2,3,3,4,4,5,5,6,6,7,7,8,8,9,9,10,10,11,11,12,12,13,13,14,14],"right_children":[2,4,6,8,10,12,14,16,18,20,22,24,26,28,30,-1,-1,-1,-1,-1,-1,-1,-1,-1,-1,-1,-1,-1,-1,-1,-1],"split_conditions":[2E0,2.970294E-2,1.8798687E-2,1E0,6.985029E-2,-3.9789486E-3,9.059393E-2,7.2258813E-3,4.0836146E-1,1E0,1.1180247E-1,-1.3591809E0,-1.2863518E0,5.094322E-2,-5.9274968E-2,-7.09403E-5,3.5753878E-4,3.7336248E-4,7.7600864E-4,8.103597E-4,1.3123171E-3,1.8487225E-3,3.252519E-3,-1.6668974E-3,-1.0070052E-3,-1.2775939E-3,-5.950132E-4,-5.4621614E-5,5.5974943E-4,6.378857E-4,2.4831328E-3],"split_indices":[60,67,67,60,65,68,68,67,98,60,65,304,395,61,0,0,0,0,0,0,0,0,0,0,0,0,0,0,0,0,0],"split_type":[0,0,0,0,0,0,0,0,0,0,0,0,0,0,0,0,0,0,0,0,0,0,0,0,0,0,0,0,0,0,0],"sum_hessian":[2.211E3,1.527E3,6.84E2,1.376E3,1.51E2,5.46E2,1.38E2,6.8E2,6.96E2,1.12E2,3.9E1,3.15E2,2.31E2,1.32E2,6E0,4.72E2,2.08E2,5.47E2,1.49E2,6.5E1,4.7E1,3.1E1,8E0,3.4E1,2.81E2,1.3E1,2.18E2,1.03E2,2.9E1,1E0,5E0],"tree_param":{"num_deleted":"0","num_feature":"514","num_nodes":"31","size_leaf_vector":"0"}},{"base_weights":[1.5494009E-3,1.2247179E-2,-2.2315934E-2,8.67957E-3,4.4486333E-2,-2.9592076E-2,6.478067E-3,1.995063E-3,1.5198177E-2,3.401481E-2,7.295623E-2,-3.5748284E-2,-2.1079347E-2,2.757072E-3,7.625153E-2,-7.09403E-5,3.5753878E-4,3.5535533E-4,7.314683E-4,8.103597E-4,1.3123171E-3,1.8487225E-3,3.252519E-3,-1.6668974E-3,-1.0070052E-3,-1.2775939E-3,-5.950132E-4,-5.4621614E-5,5.5974943E-4,6.378857E-4,2.4831328E-3],"categories":[],"categories_nodes":[],"categories_segments":[],"categories_sizes":[],"default_left":[0,0,0,0,0,0,0,0,0,0,0,0,0,0,0,0,0,0,0,0,0,0,0,0,0,0,0,0,0,0,0],"id":25,"left_children":[1,3,5,7,9,11,13,15,17,19,21,23,25,27,29,-1,-1,-1,-1,-1,-1,-1,-1,-1,-1,-1,-1,-1,-1,-1,-1],"loss_changes":[5.650103E-1,1.753594E-1,1.4370555E-1,5.997061E-2,4.283312E-2,2.7912557E-2,3.587788E-2,2.8976815E-2,2.1348849E-2,6.4781755E-3,9.88178E-3,1.3491005E-2,6.2341243E-3,9.563055E-3,4.744567E-4,0E0,0E0,0E0,0E0,0E0,0E0,0E0,0E0,0E0,0E0,0E0,0E0,0E0,0E0,0E0,0E0],"parents":[2147483647,0,0,1,1,2,2,3,3,4,4,5,5,6,6,7,7,8,8,9,9,10,10,11,11,12,12,13,13,14,14],"right_children":[2,4,6,8,10,12,14,16,18,20,22,24,26,28,30,-1,-1,-1,-1,-1,-1,-1,-1,-1,-1,-1,-1,-1,-1,-1,-1],"split_conditions":[2E0,2.970294E-2,1.8798687E-2,1E0,6.985029E-2,-3.9789486E-3,9.059393E-2,7.2258813E-3,7.0430296E-3,1E0,1.1180247E-1,-1.3591809E0,-1.2863518E0,5.094322E-2,-5.9274968E-2,-7.09403E-5,3.5753878E-4,3.5535533E-4,7.314683E-4,8.103597E-4,1.3123171E-3,1.8487225E-3,3.252519E-3,-1.6668974E-3,-1.0070052E-3,-1.2775939E-3,-5.950132E-4,-5.4621614E-5,5.5974943E-4,6.378857E-4,2.4831328E-3],"split_indices":[60,67,67,60,65,68,67,67,67,60,65,304,391,61,0,0,0,0,0,0,0,0,0,0,0,0,0,0,0,0,0],"split_type":[0,0,0,0,0,0,0,0,0,0,0,0,0,0,0,0,0,0,0,0,0,0,0,0,0,0,0,0,0,0,0],"sum_hessian":[2.211E3,1.527E3,6.84E2,1.376E3,1.51E2,5.46E2,1.38E2,6.8E2,6.96E2,1.12E2,3.9E1,3.15E2,2.31E2,1.32E2,6E0,4.72E2,2.08E2,5.03E2,1.93E2,6.5E1,4.7E1,3.1E1,8E0,3.4E1,2.81E2,1.3E1,2.18E2,1.03E2,2.9E1,1E0,5E0],"tree_param":{"num_deleted":"0","num_feature":"514","num_nodes":"31","size_leaf_vector":"0"}},{"base_weights":[1.5494009E-3,1.2247179E-2,-2.2315934E-2,8.67957E-3,4.4486333E-2,-2.9592076E-2,6.478067E-3,1.995063E-3,1.5198177E-2,3.401481E-2,7.295623E-2,-3.5748284E-2,-2.1079347E-2,2.757072E-3,7.625153E-2,-7.09403E-5,3.5753878E-4,3.5535533E-4,7.314683E-4,8.103597E-4,1.3123171E-3,1.8487225E-3,3.252519E-3,-2.664225E-3,-1.0544737E-3,-1.2775939E-3,-5.950132E-4,-5.4621614E-5,5.5974943E-4,6.378857E-4,2.4831328E-3],"categories":[],"categories_nodes":[],"categories_segments":[],"categories_sizes":[],"default_left":[0,0,0,0,0,0,0,0,0,0,0,0,0,0,0,0,0,0,0,0,0,0,0,0,0,0,0,0,0,0,0],"id":26,"left_children":[1,3,5,7,9,11,13,15,17,19,21,23,25,27,29,-1,-1,-1,-1,-1,-1,-1,-1,-1,-1,-1,-1,-1,-1,-1,-1],"loss_changes":[5.650103E-1,1.753594E-1,1.4370555E-1,5.997061E-2,4.283312E-2,2.7912557E-2,3.587788E-2,2.8976815E-2,2.1348849E-2,6.4781755E-3,9.88178E-3,1.26131475E-2,6.2341243E-3,9.563055E-3,4.744567E-4,0E0,0E0,0E0,0E0,0E0,0E0,0E0,0E0,0E0,0E0,0E0,0E0,0E0,0E0,0E0,0E0],"parents":[2147483647,0,0,1,1,2,2,3,3,4,4,5,5,6,6,7,7,8,8,9,9,10,10,11,11,12,12,13,13,14,14],"right_children":[2,4,6,8,10,12,14,16,18,20,22,24,26,28,30,-1,-1,-1,-1,-1,-1,-1,-1,-1,-1,-1,-1,-1,-1,-1,-1],"split_conditions":[2E0,2.970294E-2,1.8798687E-2,1E0,6.985029E-2,-3.9789486E-3,9.059393E-2,7.2258813E-3,7.0430296E-3,1E0,1.1180247E-1,-9.62608E-2,-1.2863518E0,5.094322E-2,-5.9274968E-2,-7.09403E-5,3.5753878E-4,3.5535533E-4,7.314683E-4,8.103597E-4,1.3123171E-3,1.8487225E-3,3.252519E-3,-2.664225E-3,-1.0544737E-3,-1.2775939E-3,-5.950132E-4,-5.4621614E-5,5.5974943E-4,6.378857E-4,2.4831328E-3],"split_indices":[60,67,67,60,65,67,67,68,67,60,66,53,391,61,0,0,0,0,0,0,0,0,0,0,0,0,0,0,0,0,0],"split_type":[0,0,0,0,0,0,0,0,0,0,0,0,0,0,0,0,0,0,0,0,0,0,0,0,0,0,0,0,0,0,0],"sum_hessian":[2.211E3,1.527E3,6.84E2,1.376E3,1.51E2,5.46E2,1.38E2,6.8E2,6.96E2,1.12E2,3.9E1,3.15E2,2.31E2,1.32E2,6E0,4.72E2,2.08E2,5.03E2,1.93E2,6.5E1,4.7E1,3.1E1,8E0,4E0,3.11E2,1.3E1,2.18E2,1.03E2,2.9E1,1E0,5E0],"tree_param":{"num_deleted":"0","num_feature":"514","num_nodes":"31","size_leaf_vector":"0"}},{"base_weights":[1.5494009E-3,1.2247179E-2,-2.2315934E-2,8.67957E-3,4.4486333E-2,-2.9592076E-2,6.478067E-3,1.995063E-3,1.5198177E-2,3.401481E-2,7.295623E-2,-3.5748284E-2,-2.1079347E-2,2.757072E-3,7.625153E-2,-7.09403E-5,3.5753878E-4,3.5535533E-4,7.314683E-4,1.054793E-3,-2.0235624E-4,1.8487225E-3,3.252519E-3,-1.6668974E-3,-1.0070052E-3,-1.2775939E-3,-5.950132E-4,-5.4621614E-5,5.5974943E-4,6.378857E-4,2.4831328E-3],"categories":[],"categories_nodes":[],"categories_segments":[],"categories_sizes":[],"default_left":[0,0,0,0,0,0,0,0,0,0,0,0,0,0,0,0,0,0,0,0,0,0,0,0,0,0,0,0,0,0,0],"id":27,"left_children":[1,3,5,7,9,11,13,15,17,19,21,23,25,27,29,-1,-1,-1,-1,-1,-1,-1,-1,-1,-1,-1,-1,-1,-1,-1,-1],"loss_changes":[5.650103E-1,1.753594E-1,1.4370555E-1,5.997061E-2,4.283312E-2,2.7912557E-2,3.587788E-2,2.8976815E-2,2.1348849E-2,3.8805306E-3,9.88178E-3,1.3491005E-2,6.2341243E-3,9.563055E-3,4.744567E-4,0E0,0E0,0E0,0E0,0E0,0E0,0E0,0E0,0E0,0E0,0E0,0E0,0E0,0E0,0E0,0E0],"parents":[2147483647,0,0,1,1,2,2,3,3,4,4,5,5,6,6,7,7,8,8,9,9,10,10,11,11,12,12,13,13,14,14],"right_children":[2,4,6,8,10,12,14,16,18,20,22,24,26,28,30,-1,-1,-1,-1,-1,-1,-1,-1,-1,-1,-1,-1,-1,-1,-1,-1],"split_conditions":[2E0,2.970294E-2,1.8798687E-2,1E0,6.985029E-2,-3.9789486E-3,9.059393E-2,7.2258813E-3,7.0430296E-3,5.7318486E-2,1.1180247E-1,-1.3591809E0,-1.2863518E0,5.094322E-2,-5.9274968E-2,-7.09403E-5,3.5753878E-4,3.5535533E-4,7.314683E-4,1.054793E-3,-2.0235624E-4,1.8487225E-3,3.252519E-3,-1.6668974E-3,-1.0070052E-3,-1.2775939E-3,-5.950132E-4,-5.4621614E-5,5.5974943E-4,6.378857E-4,2.4831328E-3],"split_indices":[60,67,68,60,65,67,67,67,67,58,66,304,391,61,0,0,0,0,0,0,0,0,0,0,0,0,0,0,0,0,0],"split_type":[0,0,0,0,0,0,0,0,0,0,0,0,0,0,0,0,0,0,0,0,0,0,0,0,0,0,0,0,0,0,0],"sum_hessian":[2.211E3,1.527E3,6.84E2,1.376E3,1.51E2,5.46E2,1.38E2,6.8E2,6.96E2,1.12E2,3.9E1,3.15E2,2.31E2,1.32E2,6E0,4.72E2,2.08E2,5.03E2,1.93E2,1.1E2,2E0,3.1E1,8E0,3.4E1,2.81E2,1.3E1,2.18E2,1.03E2,2.9E1,1E0,5E0],"tree_param":{"num_deleted":"0","num_feature":"514","num_nodes":"31","size_leaf_vector":"0"}},{"base_weights":[1.5494009E-3,1.2247179E-2,-2.2315934E-2,8.67957E-3,4.4486333E-2,-2.9592076E-2,6.478067E-3,1.995063E-3,1.5198177E-2,3.401481E-2,7.295623E-2,-3.5748284E-2,-2.1079347E-2,2.757072E-3,7.625153E-2,-7.09403E-5,3.5753878E-4,3.5535533E-4,7.314683E-4,8.103597E-4,1.3123171E-3,1.8487225E-3,3.252519E-3,-1.6668974E-3,-1.0070052E-3,-1.2775939E-3,-5.950132E-4,-5.4621614E-5,5.5974943E-4,6.378857E-4,2.4831328E-3],"categories":[],"categories_nodes":[],"categories_segments":[],"categories_sizes":[],"default_left":[0,0,0,0,0,0,0,0,0,0,0,0,0,0,0,0,0,0,0,0,0,0,0,0,0,0,0,0,0,0,0],"id":28,"left_children":[1,3,5,7,9,11,13,15,17,19,21,23,25,27,29,-1,-1,-1,-1,-1,-1,-1,-1,-1,-1,-1,-1,-1,-1,-1,-1],"loss_changes":[5.650103E-1,1.753594E-1,1.4370555E-1,5.997061E-2,4.283312E-2,2.7912557E-2,3.587788E-2,2.8976815E-2,2.1348849E-2,6.4781755E-3,9.88178E-3,1.3491005E-2,6.2341243E-3,9.563055E-3,4.744567E-4,0E0,0E0,0E0,0E0,0E0,0E0,0E0,0E0,0E0,0E0,0E0,0E0,0E0,0E0,0E0,0E0],"parents":[2147483647,0,0,1,1,2,2,3,3,4,4,5,5,6,6,7,7,8,8,9,9,10,10,11,11,12,12,13,13,14,14],"right_children":[2,4,6,8,10,12,14,16,18,20,22,24,26,28,30,-1,-1,-1,-1,-1,-1,-1,-1,-1,-1,-1,-1,-1,-1,-1,-1],"split_conditions":[2E0,2.970294E-2,1.8798687E-2,1E0,6.985029E-2,-3.9789486E-3,9.059393E-2,7.2258813E-3,7.0430296E-3,1E0,1.1180247E-1,-1.3591809E0,-1.2863518E0,5.094322E-2,-5.9274968E-2,-7.09403E-5,3.5753878E-4,3.5535533E-4,7.314683E-4,8.103597E-4,1.3123171E-3,1.8487225E-3,3.252519E-3,-1.6668974E-3,-1.0070052E-3,-1.2775939E-3,-5.950132E-4,-5.4621614E-5,5.5974943E-4,6.378857E-4,2.4831328E-3],"split_indices":[60,67,67,60,66,67,67,68,67,60,65,304,391,61,0,0,0,0,0,0,0,0,0,0,0,0,0,0,0,0,0],"split_type":[0,0,0,0,0,0,0,0,0,0,0,0,0,0,0,0,0,0,0,0,0,0,0,0,0,0,0,0,0,0,0],"sum_hessian":[2.211E3,1.527E3,6.84E2,1.376E3,1.51E2,5.46E2,1.38E2,6.8E2,6.96E2,1.12E2,3.9E1,3.15E2,2.31E2,1.32E2,6E0,4.72E2,2.08E2,5.03E2,1.93E2,6.5E1,4.7E1,3.1E1,8E0,3.4E1,2.81E2,1.3E1,2.18E2,1.03E2,2.9E1,1E0,5E0],"tree_param":{"num_deleted":"0","num_feature":"514","num_nodes":"31","size_leaf_vector":"0"}},{"base_weights":[1.5494009E-3,1.2247179E-2,-2.2315934E-2,8.67957E-3,4.4486333E-2,-2.9592076E-2,6.478067E-3,1.995063E-3,1.5198177E-2,3.401481E-2,7.295623E-2,-3.5748284E-2,-2.1079347E-2,2.757072E-3,7.625153E-2,-7.09403E-5,3.5753878E-4,3.5535533E-4,7.314683E-4,8.103597E-4,1.3123171E-3,1.8487225E-3,3.252519E-3,-1.6668974E-3,-1.0070052E-3,-1.2775939E-3,-5.950132E-4,-5.4621614E-5,5.5974943E-4,6.378857E-4,2.4831328E-3],"categories":[],"categories_nodes":[],"categories_segments":[],"categories_sizes":[],"default_left":[0,0,0,0,0,0,0,0,0,0,0,0,0,0,0,0,0,0,0,0,0,0,0,0,0,0,0,0,0,0,0],"id":29,"left_children":[1,3,5,7,9,11,13,15,17,19,21,23,25,27,29,-1,-1,-1,-1,-1,-1,-1,-1,-1,-1,-1,-1,-1,-1,-1,-1],"loss_changes":[5.650103E-1,1.753594E-1,1.4370555E-1,5.997061E-2,4.283312E-2,2.7912557E-2,3.587788E-2,2.8976815E-2,2.1348849E-2,6.4781755E-3,9.88178E-3,1.3491005E-2,6.2341243E-3,9.563055E-3,4.744567E-4,0E0,0E0,0E0,0E0,0E0,0E0,0E0,0E0,0E0,0E0,0E0,0E0,0E0,0E0,0E0,0E0],"parents":[2147483647,0,0,1,1,2,2,3,3,4,4,5,5,6,6,7,7,8,8,9,9,10,10,11,11,12,12,13,13,14,14],"right_children":[2,4,6,8,10,12,14,16,18,20,22,24,26,28,30,-1,-1,-1,-1,-1,-1,-1,-1,-1,-1,-1,-1,-1,-1,-1,-1],"split_conditions":[2E0,2.970294E-2,1.8798687E-2,1E0,6.985029E-2,-3.9789486E-3,9.059393E-2,7.2258813E-3,7.0430296E-3,1E0,1.1180247E-1,-1.3591809E0,-1.2863518E0,5.094322E-2,-5.9274968E-2,-7.09403E-5,3.5753878E-4,3.5535533E-4,7.314683E-4,8.103597E-4,1.3123171E-3,1.8487225E-3,3.252519E-3,-1.6668974E-3,-1.0070052E-3,-1.2775939E-3,-5.950132E-4,-5.4621614E-5,5.5974943E-4,6.378857E-4,2.4831328E-3],"split_indices":[60,68,67,60,65,67,68,67,67,60,65,304,395,62,0,0,0,0,0,0,0,0,0,0,0,0,0,0,0,0,0],"split_type":[0,0,0,0,0,0,0,0,0,0,0,0,0,0,0,0,0,0,0,0,0,0,0,0,0,0,0,0,0,0,0],"sum_hessian":[2.211E3,1.527E3,6.84E2,1.376E3,1.51E2,5.46E2,1.38E2,6.8E2,6.96E2,1.12E2,3.9E1,3.15E2,2.31E2,1.32E2,6E0,4.72E2,2.08E2,5.03E2,1.93E2,6.5E1,4.7E1,3.1E1,8E0,3.4E1,2.81E2,1.3E1,2.18E2,1.03E2,2.9E1,1E0,5E0],"tree_param":{"num_deleted":"0","num_feature":"514","num_nodes":"31","size_leaf_vector":"0"}},{"base_weights":[1.5494009E-3,1.2247179E-2,-2.2315934E-2,8.67957E-3,4.4486333E-2,-2.9592076E-2,6.478067E-3,1.995063E-3,1.5198177E-2,3.401481E-2,7.295623E-2,-3.5748284E-2,-2.1079347E-2,2.757072E-3,7.625153E-2,-7.09403E-5,3.5753878E-4,3.5535533E-4,7.314683E-4,8.103597E-4,1.3123171E-3,1.8487225E-3,3.252519E-3,-1.6668974E-3,-1.0070052E-3,-1.2775939E-3,-5.950132E-4,-5.4621614E-5,5.5974943E-4,6.378857E-4,2.4831328E-3],"categories":[],"categories_nodes":[],"categories_segments":[],"categories_sizes":[],"default_left":[0,0,0,0,0,0,0,0,0,0,0,0,0,0,0,0,0,0,0,0,0,0,0,0,0,0,0,0,0,0,0],"id":30,"left_children":[1,3,5,7,9,11,13,15,17,19,21,23,25,27,29,-1,-1,-1,-1,-1,-1,-1,-1,-1,-1,-1,-1,-1,-1,-1,-1],"loss_changes":[5.650103E-1,1.753594E-1,1.4370555E-1,5.997061E-2,4.283312E-2,2.7912557E-2,3.587788E-2,2.8976815E-2,2.1348849E-2,6.4781755E-3,9.88178E-3,1.3491005E-2,6.2341243E-3,9.563055E-3,4.744567E-4,0E0,0E0,0E0,0E0,0E0,0E0,0E0,0E0,0E0,0E0,0E0,0E0,0E0,0E0,0E0,0E0],"parents":[2147483647,0,0,1,1,2,2,3,3,4,4,5,5,6,6,7,7,8,8,9,9,10,10,11,11,12,12,13,13,14,14],"right_children":[2,4,6,8,10,12,14,16,18,20,22,24,26,28,30,-1,-1,-1,-1,-1,-1,-1,-1,-1,-1,-1,-1,-1,-1,-1,-1],"split_conditions":[2E0,2.970294E-2,1.8798687E-2,1E0,6.985029E-2,-3.9789486E-3,9.059393E-2,7.2258813E-3,7.0430296E-3,1E0,1.1180247E-1,-1.3591809E0,-1.2863518E0,5.094322E-2,-3.1497672E-2,-7.09403E-5,3.5753878E-4,3.5535533E-4,7.314683E-4,8.103597E-4,1.3123171E-3,1.8487225E-3,3.252519E-3,-1.6668974E-3,-1.0070052E-3,-1.2775939E-3,-5.950132E-4,-5.4621614E-5,5.5974943E-4,6.378857E-4,2.4831328E-3],"split_indices":[60,67,68,60,65,67,68,67,67,60,65,304,391,61,5,0,0,0,0,0,0,0,0,0,0,0,0,0,0,0,0],"split_type":[0,0,0,0,0,0,0,0,0,0,0,0,0,0,0,0,0,0,0,0,0,0,0,0,0,0,0,0,0,0,0],"sum_hessian":[2.211E3,1.527E3,6.84E2,1.376E3,1.51E2,5.46E2,1.38E2,6.8E2,6.96E2,1.12E2,3.9E1,3.15E2,2.31E2,1.32E2,6E0,4.72E2,2.08E2,5.03E2,1.93E2,6.5E1,4.7E1,3.1E1,8E0,3.4E1,2.81E2,1.3E1,2.18E2,1.03E2,2.9E1,1E0,5E0],"tree_param":{"num_deleted":"0","num_feature":"514","num_nodes":"31","size_leaf_vector":"0"}},{"base_weights":[1.5494009E-3,-4.7598775E-3,2.396622E-2,6.604307E-3,-2.9685065E-2,2.1055974E-2,8.438885E-2,-5.4461585E-4,1.3209543E-2,-3.5748284E-2,-2.1075942E-2,2.9187571E-2,1.1700692E-3,1.0576667E-1,4.1757926E-2,-1.673266E-4,1.12827E-4,2.5388016E-3,3.8570559E-4,-1.6668974E-3,-1.0070052E-3,-1.2775939E-3,-5.9367117E-4,7.1972184E-4,1.4546232E-3,-1.2762136E-4,4.4433324E-4,1.6653879E-3,3.4735599E-3,4.1936847E-4,1.6185086E-3],"categories":[],"categories_nodes":[],"categories_segments":[],"categories_sizes":[],"default_left":[0,0,0,0,0,0,0,0,0,0,0,0,0,0,0,0,0,0,0,0,0,0,0,0,0,0,0,0,0,0,0],"id":31,"left_children":[1,3,5,7,9,11,13,15,17,19,21,23,25,27,29,-1,-1,-1,-1,-1,-1,-1,-1,-1,-1,-1,-1,-1,-1,-1,-1],"loss_changes":[3.1296596E-1,4.893765E-1,8.368361E-2,5.605771E-2,2.7486265E-2,7.51583E-2,1.563324E-2,1.2149776E-2,1.9888729E-2,1.3491005E-2,6.249264E-3,3.2616407E-2,9.937146E-3,3.233552E-6,2.188839E-3,0E0,0E0,0E0,0E0,0E0,0E0,0E0,0E0,0E0,0E0,0E0,0E0,0E0,0E0,0E0,0E0],"parents":[2147483647,0,0,1,1,2,2,3,3,4,4,5,5,6,6,7,7,8,8,9,9,10,10,11,11,12,12,13,13,14,14],"right_children":[2,4,6,8,10,12,14,16,18,20,22,24,26,28,30,-1,-1,-1,-1,-1,-1,-1,-1,-1,-1,-1,-1,-1,-1,-1,-1],"split_conditions":[1.7641297E-2,2E0,1.066381E-1,1E0,-3.9789486E-3,2E0,1.0035746E0,-5.975596E-3,-1.9570129E0,-1.3591809E0,-1.2863518E0,5.719952E-2,1.6920534E0,-3.7681922E-1,-1.932463E-2,-1.673266E-4,1.12827E-4,2.5388016E-3,3.8570559E-4,-1.6668974E-3,-1.0070052E-3,-1.2775939E-3,-5.9367117E-4,7.1972184E-4,1.4546232E-3,-1.2762136E-4,4.4433324E-4,1.6653879E-3,3.4735599E-3,4.1936847E-4,1.6185086E-3],"split_indices":[67,60,65,60,67,60,272,67,71,304,391,65,97,187,24,0,0,0,0,0,0,0,0,0,0,0,0,0,0,0,0],"split_type":[0,0,0,0,0,0,0,0,0,0,0,0,0,0,0,0,0,0,0,0,0,0,0,0,0,0,0,0,0,0,0],"sum_hessian":[2.211E3,1.726E3,4.85E2,1.186E3,5.4E2,4.64E2,2.1E1,5.7E2,6.16E2,3.15E2,2.25E2,3.29E2,1.35E2,1.3E1,8E0,2.63E2,3.07E2,3E0,6.13E2,3.4E1,2.81E2,1.3E1,2.12E2,2.57E2,7.2E1,9.7E1,3.8E1,3E0,1E1,3E0,5E0],"tree_param":{"num_deleted":"0","num_feature":"514","num_nodes":"31","size_leaf_vector":"0"}},{"base_weights":[1.5494009E-3,1.2247179E-2,-2.2315934E-2,8.67957E-3,4.4486333E-2,-2.9592076E-2,6.478067E-3,4.9434584E-3,1.7889759E-2,3.401481E-2,7.295623E-2,-3.5748284E-2,-2.1079347E-2,2.757072E-3,7.625153E-2,-6.878103E-5,3.559685E-4,3.6087513E-4,7.3181256E-4,8.103597E-4,1.3123171E-3,1.8487225E-3,3.252519E-3,-1.6668974E-3,-1.0070052E-3,-1.2775939E-3,-5.950132E-4,-5.4621614E-5,5.5974943E-4,6.378857E-4,2.4831328E-3],"categories":[],"categories_nodes":[],"categories_segments":[],"categories_sizes":[],"default_left":[0,0,0,0,0,0,0,0,0,0,0,0,0,0,0,0,0,0,0,0,0,0,0,0,0,0,0,0,0,0,0],"id":32,"left_children":[1,3,5,7,9,11,13,15,17,19,21,23,25,27,29,-1,-1,-1,-1,-1,-1,-1,-1,-1,-1,-1,-1,-1,-1,-1,-1],"loss_changes":[5.650103E-1,1.753594E-1,1.4370555E-1,4.729452E-2,4.283312E-2,2.7912557E-2,3.587788E-2,4.816947E-2,1.4576346E-2,6.4781755E-3,9.88178E-3,1.3491005E-2,6.2341243E-3,9.563055E-3,4.744567E-4,0E0,0E0,0E0,0E0,0E0,0E0,0E0,0E0,0E0,0E0,0E0,0E0,0E0,0E0,0E0,0E0],"parents":[2147483647,0,0,1,1,2,2,3,3,4,4,5,5,6,6,7,7,8,8,9,9,10,10,11,11,12,12,13,13,14,14],"right_children":[2,4,6,8,10,12,14,16,18,20,22,24,26,28,30,-1,-1,-1,-1,-1,-1,-1,-1,-1,-1,-1,-1,-1,-1,-1,-1],"split_conditions":[2E0,2.970294E-2,1.8798687E-2,7.3996745E-3,6.985029E-2,-3.9789486E-3,9.059393E-2,1E0,1E0,1E0,1.1180247E-1,-1.3591809E0,-1.2863518E0,5.094322E-2,-5.9274968E-2,-6.878103E-5,3.559685E-4,3.6087513E-4,7.3181256E-4,8.103597E-4,1.3123171E-3,1.8487225E-3,3.252519E-3,-1.6668974E-3,-1.0070052E-3,-1.2775939E-3,-5.950132E-4,-5.4621614E-5,5.5974943E-4,6.378857E-4,2.4831328E-3],"split_indices":[60,67,67,67,65,67,67,60,60,60,65,304,391,61,4,0,0,0,0,0,0,0,0,0,0,0,0,0,0,0,0],"split_type":[0,0,0,0,0,0,0,0,0,0,0,0,0,0,0,0,0,0,0,0,0,0,0,0,0,0,0,0,0,0,0],"sum_hessian":[2.211E3,1.527E3,6.84E2,1.376E3,1.51E2,5.46E2,1.38E2,9.8E2,3.96E2,1.12E2,3.9E1,3.15E2,2.31E2,1.32E2,6E0,4.76E2,5.04E2,2.04E2,1.92E2,6.5E1,4.7E1,3.1E1,8E0,3.4E1,2.81E2,1.3E1,2.18E2,1.03E2,2.9E1,1E0,5E0],"tree_param":{"num_deleted":"0","num_feature":"514","num_nodes":"31","size_leaf_vector":"0"}}]},"name":"gbtree"},"learner_model_param":{"base_score":"0E0","boost_from_average":"0","num_class":"0","num_feature":"514","num_target":"1"},"objective":{"name":"reg:squarederror","reg_loss_param":{"scale_pos_weight":"1"}}},"version":[1,7,4]}