{"learner":{"attributes":{"best_iteration":"0","best_ntree_limit":"43","scikit_learn":"{\"objective\": \"reg:squarederror\", \"max_leaves\": null, \"max_bin\": null, \"grow_policy\": null, \"learning_rate\": 1.0, \"verbosity\": 0, \"booster\": null, \"tree_method\": \"hist\", \"gamma\": null, \"min_child_weight\": null, \"max_delta_step\": null, \"subsample\": 1.0, \"sampling_method\": null, \"colsample_bytree\": null, \"colsample_bylevel\": null, \"colsample_bynode\": 0.8, \"reg_alpha\": null, \"scale_pos_weight\": null, \"base_score\": 0, \"missing\": NaN, \"num_parallel_tree\": null, \"random_state\": null, \"n_jobs\": null, \"monotone_constraints\": null, \"interaction_constraints\": null, \"importance_type\": null, \"gpu_id\": null, \"validate_parameters\": null, \"predictor\": null, \"enable_categorical\": false, \"feature_types\": null, \"max_cat_to_onehot\": null, \"max_cat_threshold\": null, \"eval_metric\": \"mae\", \"early_stopping_rounds\": null, \"callbacks\": null, \"kwargs\": {\"eta\": 0.14520412931120513, \"nthread\": 3}, \"evals_result_\": {\"validation_0\": {\"mae\": [0.0216872447287474]}}, \"_estimator_type\": \"regressor\"}"},"feature_names":[],"feature_types":[],"gradient_booster":{"model":{"gbtree_model_param":{"num_parallel_tree":"43","num_trees":"43","size_leaf_vector":"0"},"tree_info":[0,0,0,0,0,0,0,0,0,0,0,0,0,0,0,0,0,0,0,0,0,0,0,0,0,0,0,0,0,0,0,0,0,0,0,0,0,0,0,0,0,0,0],"trees":[{"base_weights":[1.4926624E-3,-1.2799015E-2,2.7294938E-2,-3.0897023E-2,-3.432357E-3,2.0086503E-2,5.5436686E-2,-4.9240466E-2,-2.3823367E-2,-9.301541E-3,1.566206E-3,1.4924817E-2,2.6168074E-2,4.7218192E-2,1.005502E-1,5.1054935E-4,-1.1692736E-3,-5.8353285E-4,4.424647E-4,-1.3421838E-4,-4.0031935E-4,9.666767E-5,-1.1741149E-4,4.2116092E-4,1.6872748E-4,4.201135E-4,6.9058395E-4,-1.7534354E-4,1.1109508E-3,2.3958336E-3,2.8294465E-4],"categories":[],"categories_nodes":[],"categories_segments":[],"categories_sizes":[],"default_left":[0,0,0,0,0,0,0,0,0,0,0,0,0,0,0,0,0,0,0,0,0,0,0,0,0,0,0,0,0,0,0],"id":0,"left_children":[1,3,5,7,9,11,13,15,17,19,21,23,25,27,29,-1,-1,-1,-1,-1,-1,-1,-1,-1,-1,-1,-1,-1,-1,-1,-1],"loss_changes":[8.204279E-1,2.4243143E-1,1.5752578E-1,5.980131E-2,2.7826305E-2,1.8793136E-2,4.5078933E-2,1.3142824E-2,2.0891756E-2,1.1879973E-2,8.870821E-3,8.180141E-3,6.621778E-3,5.347818E-3,1.0437965E-3,0E0,0E0,0E0,0E0,0E0,0E0,0E0,0E0,0E0,0E0,0E0,0E0,0E0,0E0,0E0,0E0],"parents":[2147483647,0,0,1,1,2,2,3,3,4,4,5,5,6,6,7,7,8,8,9,9,10,10,11,11,12,12,13,13,14,14],"right_children":[2,4,6,8,10,12,14,16,18,20,22,24,26,28,30,-1,-1,-1,-1,-1,-1,-1,-1,-1,-1,-1,-1,-1,-1,-1,-1],"split_conditions":[7.1955286E-3,-1.680113E-2,3.6376607E-2,-3.856927E-2,-4.7623506E-3,7.9209137E-1,7.347933E-2,-1.9135252E0,1.8747604E0,2E0,2E0,2E0,2.1278359E-2,-1.7502073E0,3.2153306E0,5.1054935E-4,-1.1692736E-3,-5.8353285E-4,4.424647E-4,-1.3421838E-4,-4.0031935E-4,9.666767E-5,-1.1741149E-4,4.2116092E-4,1.6872748E-4,4.201135E-4,6.9058395E-4,-1.7534354E-4,1.1109508E-3,2.3958336E-3,2.8294465E-4],"split_indices":[13,13,14,13,13,44,13,443,168,6,6,6,13,339,52,0,0,0,0,0,0,0,0,0,0,0,0,0,0,0,0],"split_type":[0,0,0,0,0,0,0,0,0,0,0,0,0,0,0,0,0,0,0,0,0,0,0,0,0,0,0,0,0,0,0],"sum_hessian":[2.219E3,1.429E3,7.9E2,4.85E2,9.44E2,6.33E2,1.57E2,1.3E2,3.55E2,4.33E2,5.11E2,3.48E2,2.85E2,1.38E2,1.9E1,1E0,1.29E2,3.46E2,9E0,3.03E2,1.3E2,3.68E2,1.43E2,2.43E2,1.05E2,9.2E1,1.93E2,1E0,1.37E2,1.8E1,1E0],"tree_param":{"num_deleted":"0","num_feature":"460","num_nodes":"31","size_leaf_vector":"0"}},{"base_weights":[1.4926624E-3,-1.2799015E-2,2.7294938E-2,-3.0897023E-2,-3.432357E-3,2.0086503E-2,5.5436686E-2,-4.9240466E-2,-2.3823367E-2,-9.301541E-3,1.566206E-3,1.4924817E-2,2.6168074E-2,4.7218192E-2,1.005502E-1,2.053675E-4,-1.1704484E-3,-5.8353285E-4,4.424647E-4,-1.3421838E-4,-4.0031935E-4,9.666767E-5,-1.1741149E-4,2.9888886E-4,5.183614E-4,4.201135E-4,6.9058395E-4,-1.7534354E-4,1.1109508E-3,2.3958336E-3,2.8294465E-4],"categories":[],"categories_nodes":[],"categories_segments":[],"categories_sizes":[],"default_left":[0,0,0,0,0,0,0,0,0,0,0,0,0,0,0,0,0,0,0,0,0,0,0,0,0,0,0,0,0,0,0],"id":1,"left_children":[1,3,5,7,9,11,13,15,17,19,21,23,25,27,29,-1,-1,-1,-1,-1,-1,-1,-1,-1,-1,-1,-1,-1,-1,-1,-1],"loss_changes":[8.204279E-1,2.4243143E-1,1.5752578E-1,5.980131E-2,2.7826305E-2,1.8793136E-2,4.5078933E-2,9.742767E-3,2.0891756E-2,1.1879973E-2,8.870821E-3,4.498288E-3,6.621778E-3,5.347818E-3,1.0437965E-3,0E0,0E0,0E0,0E0,0E0,0E0,0E0,0E0,0E0,0E0,0E0,0E0,0E0,0E0,0E0,0E0],"parents":[2147483647,0,0,1,1,2,2,3,3,4,4,5,5,6,6,7,7,8,8,9,9,10,10,11,11,12,12,13,13,14,14],"right_children":[2,4,6,8,10,12,14,16,18,20,22,24,26,28,30,-1,-1,-1,-1,-1,-1,-1,-1,-1,-1,-1,-1,-1,-1,-1,-1],"split_conditions":[7.1955286E-3,-1.680113E-2,3.6376607E-2,-3.856927E-2,-4.7623506E-3,7.9209137E-1,7.347933E-2,-1.8428161E0,1.8747604E0,2E0,2E0,1.837363E-2,2.1278359E-2,-1.7502073E0,3.2153306E0,2.053675E-4,-1.1704484E-3,-5.8353285E-4,4.424647E-4,-1.3421838E-4,-4.0031935E-4,9.666767E-5,-1.1741149E-4,2.9888886E-4,5.183614E-4,4.201135E-4,6.9058395E-4,-1.7534354E-4,1.1109508E-3,2.3958336E-3,2.8294465E-4],"split_indices":[14,13,13,13,13,44,14,420,172,6,6,13,13,335,52,0,0,0,0,0,0,0,0,0,0,0,0,0,0,0,0],"split_type":[0,0,0,0,0,0,0,0,0,0,0,0,0,0,0,0,0,0,0,0,0,0,0,0,0,0,0,0,0,0,0],"sum_hessian":[2.219E3,1.429E3,7.9E2,4.85E2,9.44E2,6.33E2,1.57E2,1.3E2,3.55E2,4.33E2,5.11E2,3.48E2,2.85E2,1.38E2,1.9E1,2E0,1.28E2,3.46E2,9E0,3.03E2,1.3E2,3.68E2,1.43E2,2.78E2,7E1,9.2E1,1.93E2,1E0,1.37E2,1.8E1,1E0],"tree_param":{"num_deleted":"0","num_feature":"460","num_nodes":"31","size_leaf_vector":"0"}},{"base_weights":[1.4926624E-3,-1.2799015E-2,2.7294938E-2,-3.0897023E-2,-3.432357E-3,2.0086503E-2,5.5436686E-2,-4.9240466E-2,-2.3823367E-2,-9.301541E-3,1.566206E-3,1.44186765E-2,2.8896242E-2,4.7218192E-2,1.005502E-1,5.1054935E-4,-1.1692736E-3,-5.8353285E-4,4.424647E-4,-1.3421838E-4,-4.0031935E-4,-1.7233151E-5,1.0395616E-4,3.9699805E-4,1.7963715E-4,6.818972E-4,-6.460598E-5,-1.7534354E-4,1.1109508E-3,2.3958336E-3,2.8294465E-4],"categories":[],"categories_nodes":[],"categories_segments":[],"categories_sizes":[],"default_left":[0,0,0,0,0,0,0,0,0,0,0,0,0,0,0,0,0,0,0,0,0,0,0,0,0,0,0,0,0,0,0],"id":2,"left_children":[1,3,5,7,9,11,13,15,17,19,21,23,25,27,29,-1,-1,-1,-1,-1,-1,-1,-1,-1,-1,-1,-1,-1,-1,-1,-1],"loss_changes":[8.204279E-1,2.4243143E-1,1.5752578E-1,5.980131E-2,2.7826305E-2,3.050685E-2,4.5078933E-2,1.3142824E-2,2.0891756E-2,1.1879973E-2,3.453733E-3,6.582059E-3,3.5585612E-3,5.347818E-3,1.0437965E-3,0E0,0E0,0E0,0E0,0E0,0E0,0E0,0E0,0E0,0E0,0E0,0E0,0E0,0E0,0E0,0E0],"parents":[2147483647,0,0,1,1,2,2,3,3,4,4,5,5,6,6,7,7,8,8,9,9,10,10,11,11,12,12,13,13,14,14],"right_children":[2,4,6,8,10,12,14,16,18,20,22,24,26,28,30,-1,-1,-1,-1,-1,-1,-1,-1,-1,-1,-1,-1,-1,-1,-1,-1],"split_conditions":[7.1955286E-3,-1.680113E-2,3.6376607E-2,-3.856927E-2,-4.7623506E-3,2.0898057E-2,7.347933E-2,-1.9135252E0,1.8747604E0,2E0,1.852603E-3,2E0,1.9125205E0,-1.7502073E0,3.2153306E0,5.1054935E-4,-1.1692736E-3,-5.8353285E-4,4.424647E-4,-1.3421838E-4,-4.0031935E-4,-1.7233151E-5,1.0395616E-4,3.9699805E-4,1.7963715E-4,6.818972E-4,-6.460598E-5,-1.7534354E-4,1.1109508E-3,2.3958336E-3,2.8294465E-4],"split_indices":[13,13,13,13,13,13,14,443,168,6,14,6,95,335,52,0,0,0,0,0,0,0,0,0,0,0,0,0,0,0,0],"split_type":[0,0,0,0,0,0,0,0,0,0,0,0,0,0,0,0,0,0,0,0,0,0,0,0,0,0,0,0,0,0,0],"sum_hessian":[2.219E3,1.429E3,7.9E2,4.85E2,9.44E2,6.33E2,1.57E2,1.3E2,3.55E2,4.33E2,5.11E2,3.9E2,2.43E2,1.38E2,1.9E1,1E0,1.29E2,3.46E2,9E0,3.03E2,1.3E2,2.86E2,2.25E2,2.76E2,1.14E2,2.4E2,3E0,1E0,1.37E2,1.8E1,1E0],"tree_param":{"num_deleted":"0","num_feature":"460","num_nodes":"31","size_leaf_vector":"0"}},{"base_weights":[1.4926624E-3,-1.2799015E-2,2.7294938E-2,-3.0897023E-2,-3.432357E-3,2.0086503E-2,5.5436686E-2,-4.9240466E-2,-2.3823367E-2,-9.301541E-3,1.566206E-3,1.44186765E-2,2.8896242E-2,4.7218192E-2,1.005502E-1,5.1054935E-4,-1.1692736E-3,-5.8353285E-4,4.424647E-4,-1.3421838E-4,-4.0031935E-4,-1.7233151E-5,1.0395616E-4,3.9699805E-4,1.7963715E-4,6.818972E-4,-6.460598E-5,-1.7534354E-4,1.1109508E-3,2.3958336E-3,2.8294465E-4],"categories":[],"categories_nodes":[],"categories_segments":[],"categories_sizes":[],"default_left":[0,0,0,0,0,0,0,0,0,0,0,0,0,0,0,0,0,0,0,0,0,0,0,0,0,0,0,0,0,0,0],"id":3,"left_children":[1,3,5,7,9,11,13,15,17,19,21,23,25,27,29,-1,-1,-1,-1,-1,-1,-1,-1,-1,-1,-1,-1,-1,-1,-1,-1],"loss_changes":[8.204279E-1,2.4243143E-1,1.5752578E-1,5.980131E-2,2.7826305E-2,3.050685E-2,4.5078933E-2,1.3142824E-2,2.0891756E-2,1.1879973E-2,3.453733E-3,6.582059E-3,3.5585612E-3,5.347818E-3,1.0437965E-3,0E0,0E0,0E0,0E0,0E0,0E0,0E0,0E0,0E0,0E0,0E0,0E0,0E0,0E0,0E0,0E0],"parents":[2147483647,0,0,1,1,2,2,3,3,4,4,5,5,6,6,7,7,8,8,9,9,10,10,11,11,12,12,13,13,14,14],"right_children":[2,4,6,8,10,12,14,16,18,20,22,24,26,28,30,-1,-1,-1,-1,-1,-1,-1,-1,-1,-1,-1,-1,-1,-1,-1,-1],"split_conditions":[7.1955286E-3,-1.680113E-2,3.6376607E-2,-3.856927E-2,-4.7623506E-3,2.0898057E-2,7.347933E-2,-1.9135252E0,1.8747604E0,2E0,1.852603E-3,2E0,1.9125205E0,-1.7502073E0,3.2153306E0,5.1054935E-4,-1.1692736E-3,-5.8353285E-4,4.424647E-4,-1.3421838E-4,-4.0031935E-4,-1.7233151E-5,1.0395616E-4,3.9699805E-4,1.7963715E-4,6.818972E-4,-6.460598E-5,-1.7534354E-4,1.1109508E-3,2.3958336E-3,2.8294465E-4],"split_indices":[13,14,13,13,13,13,13,447,168,6,13,6,91,335,52,0,0,0,0,0,0,0,0,0,0,0,0,0,0,0,0],"split_type":[0,0,0,0,0,0,0,0,0,0,0,0,0,0,0,0,0,0,0,0,0,0,0,0,0,0,0,0,0,0,0],"sum_hessian":[2.219E3,1.429E3,7.9E2,4.85E2,9.44E2,6.33E2,1.57E2,1.3E2,3.55E2,4.33E2,5.11E2,3.9E2,2.43E2,1.38E2,1.9E1,1E0,1.29E2,3.46E2,9E0,3.03E2,1.3E2,2.86E2,2.25E2,2.76E2,1.14E2,2.4E2,3E0,1E0,1.37E2,1.8E1,1E0],"tree_param":{"num_deleted":"0","num_feature":"460","num_nodes":"31","size_leaf_vector":"0"}},{"base_weights":[1.4926624E-3,-1.2799015E-2,2.7294938E-2,-3.4428224E-2,-6.228304E-3,2.0086503E-2,5.5436686E-2,-5.108541E-2,-2.419815E-2,-1.8907176E-2,-1.3271781E-3,1.44186765E-2,2.8896242E-2,4.7218192E-2,1.005502E-1,5.1054935E-4,-1.2142948E-3,-6.2487496E-4,-2.2893806E-4,-4.7527743E-4,8.9667365E-4,-1.24427E-4,6.6991546E-5,3.9699805E-4,1.7963715E-4,6.818972E-4,-6.460598E-5,-1.7534354E-4,1.1109508E-3,2.3958336E-3,2.8294465E-4],"categories":[],"categories_nodes":[],"categories_segments":[],"categories_sizes":[],"default_left":[0,0,0,0,0,0,0,0,0,0,0,0,0,0,0,0,0,0,0,0,0,0,0,0,0,0,0,0,0,0,0],"id":4,"left_children":[1,3,5,7,9,11,13,15,17,19,21,23,25,27,29,-1,-1,-1,-1,-1,-1,-1,-1,-1,-1,-1,-1,-1,-1,-1,-1],"loss_changes":[8.204279E-1,2.028715E-1,1.5752578E-1,5.3036124E-2,6.8403825E-2,3.050685E-2,4.5078933E-2,1.3666511E-2,7.335767E-3,2.9351093E-2,1.3555424E-2,6.582059E-3,3.5585612E-3,5.347818E-3,1.0437965E-3,0E0,0E0,0E0,0E0,0E0,0E0,0E0,0E0,0E0,0E0,0E0,0E0,0E0,0E0,0E0,0E0],"parents":[2147483647,0,0,1,1,2,2,3,3,4,4,5,5,6,6,7,7,8,8,9,9,10,10,11,11,12,12,13,13,14,14],"right_children":[2,4,6,8,10,12,14,16,18,20,22,24,26,28,30,-1,-1,-1,-1,-1,-1,-1,-1,-1,-1,-1,-1,-1,-1,-1,-1],"split_conditions":[7.1955286E-3,-1.0624758E0,3.6376607E-2,-3.856927E-2,-1.1957504E-2,2.0898057E-2,7.347933E-2,-1.9135252E0,-1.7146042E-2,1.8545098E0,-2.2763114E-3,2E0,1.9125205E0,-1.7502073E0,3.2153306E0,5.1054935E-4,-1.2142948E-3,-6.2487496E-4,-2.2893806E-4,-4.7527743E-4,8.9667365E-4,-1.24427E-4,6.6991546E-5,3.9699805E-4,1.7963715E-4,6.818972E-4,-6.460598E-5,-1.7534354E-4,1.1109508E-3,2.3958336E-3,2.8294465E-4],"split_indices":[14,43,13,13,13,13,13,443,13,168,13,6,95,335,56,0,0,0,0,0,0,0,0,0,0,0,0,0,0,0,0],"split_type":[0,0,0,0,0,0,0,0,0,0,0,0,0,0,0,0,0,0,0,0,0,0,0,0,0,0,0,0,0,0,0],"sum_hessian":[2.219E3,1.429E3,7.9E2,3.3E2,1.099E3,6.33E2,1.57E2,1.21E2,2.09E2,3.04E2,7.95E2,3.9E2,2.43E2,1.38E2,1.9E1,1E0,1.2E2,1.74E2,3.5E1,2.98E2,6E0,4.06E2,3.89E2,2.76E2,1.14E2,2.4E2,3E0,1E0,1.37E2,1.8E1,1E0],"tree_param":{"num_deleted":"0","num_feature":"460","num_nodes":"31","size_leaf_vector":"0"}},{"base_weights":[1.4926624E-3,-1.2799015E-2,2.7294938E-2,-3.0897023E-2,-3.432357E-3,2.0086503E-2,5.5436686E-2,-4.9240466E-2,-2.3823367E-2,-9.301541E-3,1.566206E-3,1.44186765E-2,2.8896242E-2,4.7218192E-2,1.005502E-1,5.1054935E-4,-1.1692736E-3,-5.8353285E-4,4.424647E-4,-1.3421838E-4,-4.0031935E-4,9.666767E-5,-1.1741149E-4,3.9699805E-4,1.7963715E-4,6.818972E-4,-6.460598E-5,-1.7534354E-4,1.1109508E-3,2.3958336E-3,2.8294465E-4],"categories":[],"categories_nodes":[],"categories_segments":[],"categories_sizes":[],"default_left":[0,0,0,0,0,0,0,0,0,0,0,0,0,0,0,0,0,0,0,0,0,0,0,0,0,0,0,0,0,0,0],"id":5,"left_children":[1,3,5,7,9,11,13,15,17,19,21,23,25,27,29,-1,-1,-1,-1,-1,-1,-1,-1,-1,-1,-1,-1,-1,-1,-1,-1],"loss_changes":[8.204279E-1,2.4243143E-1,1.5752578E-1,5.980131E-2,2.7826305E-2,3.050685E-2,4.5078933E-2,1.3142824E-2,2.0891756E-2,1.1879973E-2,8.870821E-3,6.582059E-3,3.5585612E-3,5.347818E-3,1.0437965E-3,0E0,0E0,0E0,0E0,0E0,0E0,0E0,0E0,0E0,0E0,0E0,0E0,0E0,0E0,0E0,0E0],"parents":[2147483647,0,0,1,1,2,2,3,3,4,4,5,5,6,6,7,7,8,8,9,9,10,10,11,11,12,12,13,13,14,14],"right_children":[2,4,6,8,10,12,14,16,18,20,22,24,26,28,30,-1,-1,-1,-1,-1,-1,-1,-1,-1,-1,-1,-1,-1,-1,-1,-1],"split_conditions":[7.1955286E-3,-1.680113E-2,3.6376607E-2,-3.856927E-2,-4.7623506E-3,2.0898057E-2,7.347933E-2,-1.9135252E0,1.8747604E0,2E0,2E0,2E0,1.9125205E0,-1.7502073E0,3.2153306E0,5.1054935E-4,-1.1692736E-3,-5.8353285E-4,4.424647E-4,-1.3421838E-4,-4.0031935E-4,9.666767E-5,-1.1741149E-4,3.9699805E-4,1.7963715E-4,6.818972E-4,-6.460598E-5,-1.7534354E-4,1.1109508E-3,2.3958336E-3,2.8294465E-4],"split_indices":[13,13,13,13,13,14,13,447,168,6,6,6,91,335,52,0,0,0,0,0,0,0,0,0,0,0,0,0,0,0,0],"split_type":[0,0,0,0,0,0,0,0,0,0,0,0,0,0,0,0,0,0,0,0,0,0,0,0,0,0,0,0,0,0,0],"sum_hessian":[2.219E3,1.429E3,7.9E2,4.85E2,9.44E2,6.33E2,1.57E2,1.3E2,3.55E2,4.33E2,5.11E2,3.9E2,2.43E2,1.38E2,1.9E1,1E0,1.29E2,3.46E2,9E0,3.03E2,1.3E2,3.68E2,1.43E2,2.76E2,1.14E2,2.4E2,3E0,1E0,1.37E2,1.8E1,1E0],"tree_param":{"num_deleted":"0","num_feature":"460","num_nodes":"31","size_leaf_vector":"0"}},{"base_weights":[1.4926624E-3,-1.2799015E-2,2.7294938E-2,-3.0897023E-2,-3.432357E-3,2.2459429E-2,6.340703E-2,-4.9240466E-2,-2.3823367E-2,-9.301541E-3,1.566206E-3,1.61153E-2,3.4835305E-2,4.703238E-2,9.411414E-2,5.1054935E-4,-1.1692736E-3,-5.8353285E-4,4.424647E-4,-1.3421838E-4,-4.0031935E-4,9.666767E-5,-1.1741149E-4,4.4112996E-4,1.9433562E-4,8.174268E-4,-2.2653992E-4,1.5970394E-4,1.1624852E-3,2.8294465E-4,2.2264482E-3],"categories":[],"categories_nodes":[],"categories_segments":[],"categories_sizes":[],"default_left":[0,0,0,0,0,0,0,0,0,0,0,0,0,0,0,0,0,0,0,0,0,0,0,0,0,0,0,0,0,0,0],"id":6,"left_children":[1,3,5,7,9,11,13,15,17,19,21,23,25,27,29,-1,-1,-1,-1,-1,-1,-1,-1,-1,-1,-1,-1,-1,-1,-1,-1],"loss_changes":[8.204279E-1,2.4243143E-1,1.342017E-1,5.980131E-2,2.7826305E-2,5.358982E-2,3.2979995E-2,1.3142824E-2,2.0891756E-2,1.1879973E-2,8.870821E-3,9.9515915E-3,4.330933E-3,6.802246E-3,3.6296248E-4,0E0,0E0,0E0,0E0,0E0,0E0,0E0,0E0,0E0,0E0,0E0,0E0,0E0,0E0,0E0,0E0],"parents":[2147483647,0,0,1,1,2,2,3,3,4,4,5,5,6,6,7,7,8,8,9,9,10,10,11,11,12,12,13,13,14,14],"right_children":[2,4,6,8,10,12,14,16,18,20,22,24,26,28,30,-1,-1,-1,-1,-1,-1,-1,-1,-1,-1,-1,-1,-1,-1,-1,-1],"split_conditions":[7.1955286E-3,-1.680113E-2,6.757386E-2,-3.856927E-2,-4.7623506E-3,2.5247654E-2,6.424314E-2,-1.9135252E0,1.8747604E0,2E0,2E0,2E0,2.475947E0,2.1278359E-2,-2.5587277E0,5.1054935E-4,-1.1692736E-3,-5.8353285E-4,4.424647E-4,-1.3421838E-4,-4.0031935E-4,9.666767E-5,-1.1741149E-4,4.4112996E-4,1.9433562E-4,8.174268E-4,-2.2653992E-4,1.5970394E-4,1.1624852E-3,2.8294465E-4,2.2264482E-3],"split_indices":[13,13,11,13,14,13,13,443,168,6,6,6,69,13,202,0,0,0,0,0,0,0,0,0,0,0,0,0,0,0,0],"split_type":[0,0,0,0,0,0,0,0,0,0,0,0,0,0,0,0,0,0,0,0,0,0,0,0,0,0,0,0,0,0,0],"sum_hessian":[2.219E3,1.429E3,7.9E2,4.85E2,9.44E2,7.01E2,8.9E1,1.3E2,3.55E2,4.33E2,5.11E2,4.68E2,2.33E2,6.3E1,2.6E1,1E0,1.29E2,3.46E2,9E0,3.03E2,1.3E2,3.68E2,1.43E2,3.39E2,1.29E2,2.32E2,1E0,5E0,5.8E1,1E0,2.5E1],"tree_param":{"num_deleted":"0","num_feature":"460","num_nodes":"31","size_leaf_vector":"0"}},{"base_weights":[1.4926624E-3,-1.2799015E-2,2.7294938E-2,-3.0897023E-2,-3.432357E-3,2.0086503E-2,5.5436686E-2,-4.9240466E-2,-2.3823367E-2,-9.301541E-3,1.566206E-3,1.44186765E-2,2.8896242E-2,4.609517E-2,9.130707E-2,5.1054935E-4,-1.1692736E-3,-5.8353285E-4,4.424647E-4,-2.3251085E-4,3.6433223E-4,9.666767E-5,-1.1741149E-4,3.9699805E-4,1.7963715E-4,6.818972E-4,-6.460598E-5,1.7854092E-5,1.0958946E-3,2.2793538E-3,6.342011E-4],"categories":[],"categories_nodes":[],"categories_segments":[],"categories_sizes":[],"default_left":[0,0,0,0,0,0,0,0,0,0,0,0,0,0,0,0,0,0,0,0,0,0,0,0,0,0,0,0,0,0,0],"id":7,"left_children":[1,3,5,7,9,11,13,15,17,19,21,23,25,27,29,-1,-1,-1,-1,-1,-1,-1,-1,-1,-1,-1,-1,-1,-1,-1,-1],"loss_changes":[8.204279E-1,2.4243143E-1,1.5752578E-1,5.980131E-2,2.7826305E-2,3.050685E-2,4.0986955E-2,1.3142824E-2,2.0891756E-2,8.051157E-3,8.870821E-3,6.582059E-3,3.5585612E-3,6.090611E-3,4.862666E-3,0E0,0E0,0E0,0E0,0E0,0E0,0E0,0E0,0E0,0E0,0E0,0E0,0E0,0E0,0E0,0E0],"parents":[2147483647,0,0,1,1,2,2,3,3,4,4,5,5,6,6,7,7,8,8,9,9,10,10,11,11,12,12,13,13,14,14],"right_children":[2,4,6,8,10,12,14,16,18,20,22,24,26,28,30,-1,-1,-1,-1,-1,-1,-1,-1,-1,-1,-1,-1,-1,-1,-1,-1],"split_conditions":[7.1955286E-3,-1.680113E-2,3.6376607E-2,-3.856927E-2,-4.7623506E-3,2.0898057E-2,9.323189E-2,-1.9135252E0,1.8747604E0,1.9191991E0,2E0,2E0,1.9125205E0,-1.700922E0,1.6663793E0,5.1054935E-4,-1.1692736E-3,-5.8353285E-4,4.424647E-4,-2.3251085E-4,3.6433223E-4,9.666767E-5,-1.1741149E-4,3.9699805E-4,1.7963715E-4,6.818972E-4,-6.460598E-5,1.7854092E-5,1.0958946E-3,2.2793538E-3,6.342011E-4],"split_indices":[13,14,13,13,13,13,11,443,168,229,6,6,91,171,226,0,0,0,0,0,0,0,0,0,0,0,0,0,0,0,0],"split_type":[0,0,0,0,0,0,0,0,0,0,0,0,0,0,0,0,0,0,0,0,0,0,0,0,0,0,0,0,0,0,0],"sum_hessian":[2.219E3,1.429E3,7.9E2,4.85E2,9.44E2,6.33E2,1.57E2,1.3E2,3.55E2,4.33E2,5.11E2,3.9E2,2.43E2,1.3E2,2.7E1,1E0,1.29E2,3.46E2,9E0,4.23E2,1E1,3.68E2,1.43E2,2.76E2,1.14E2,2.4E2,3E0,3E0,1.27E2,2.3E1,4E0],"tree_param":{"num_deleted":"0","num_feature":"460","num_nodes":"31","size_leaf_vector":"0"}},{"base_weights":[1.4926624E-3,-1.2799015E-2,2.7294938E-2,-3.0897023E-2,-3.432357E-3,2.0086503E-2,5.5436686E-2,-4.9240466E-2,-2.3823367E-2,-9.301541E-3,1.566206E-3,1.44186765E-2,2.8896242E-2,4.7218192E-2,1.005502E-1,5.1054935E-4,-1.1692736E-3,-5.8353285E-4,4.424647E-4,-1.3421838E-4,-4.0031935E-4,9.666767E-5,-1.1741149E-4,-3.3631176E-4,3.413339E-4,6.818972E-4,-6.460598E-5,-1.7534354E-4,1.1109508E-3,2.3958336E-3,2.8294465E-4],"categories":[],"categories_nodes":[],"categories_segments":[],"categories_sizes":[],"default_left":[0,0,0,0,0,0,0,0,0,0,0,0,0,0,0,0,0,0,0,0,0,0,0,0,0,0,0,0,0,0,0],"id":8,"left_children":[1,3,5,7,9,11,13,15,17,19,21,23,25,27,29,-1,-1,-1,-1,-1,-1,-1,-1,-1,-1,-1,-1,-1,-1,-1,-1],"loss_changes":[8.204279E-1,2.4243143E-1,1.5752578E-1,5.980131E-2,2.7826305E-2,3.050685E-2,4.5078933E-2,1.3142824E-2,2.0891756E-2,1.1879973E-2,8.870821E-3,3.5727546E-3,3.5585612E-3,5.347818E-3,1.0437965E-3,0E0,0E0,0E0,0E0,0E0,0E0,0E0,0E0,0E0,0E0,0E0,0E0,0E0,0E0,0E0,0E0],"parents":[2147483647,0,0,1,1,2,2,3,3,4,4,5,5,6,6,7,7,8,8,9,9,10,10,11,11,12,12,13,13,14,14],"right_children":[2,4,6,8,10,12,14,16,18,20,22,24,26,28,30,-1,-1,-1,-1,-1,-1,-1,-1,-1,-1,-1,-1,-1,-1,-1,-1],"split_conditions":[7.1955286E-3,-1.680113E-2,3.6376607E-2,-3.856927E-2,-4.7623506E-3,2.0898057E-2,7.347933E-2,-1.9135252E0,1.8747604E0,2E0,2E0,-2.267173E0,1.9125205E0,-1.7502073E0,3.2153306E0,5.1054935E-4,-1.1692736E-3,-5.8353285E-4,4.424647E-4,-1.3421838E-4,-4.0031935E-4,9.666767E-5,-1.1741149E-4,-3.3631176E-4,3.413339E-4,6.818972E-4,-6.460598E-5,-1.7534354E-4,1.1109508E-3,2.3958336E-3,2.8294465E-4],"split_indices":[13,13,13,13,13,13,13,443,168,6,6,76,95,339,52,0,0,0,0,0,0,0,0,0,0,0,0,0,0,0,0],"split_type":[0,0,0,0,0,0,0,0,0,0,0,0,0,0,0,0,0,0,0,0,0,0,0,0,0,0,0,0,0,0,0],"sum_hessian":[2.219E3,1.429E3,7.9E2,4.85E2,9.44E2,6.33E2,1.57E2,1.3E2,3.55E2,4.33E2,5.11E2,3.9E2,2.43E2,1.38E2,1.9E1,1E0,1.29E2,3.46E2,9E0,3.03E2,1.3E2,3.68E2,1.43E2,2E0,3.88E2,2.4E2,3E0,1E0,1.37E2,1.8E1,1E0],"tree_param":{"num_deleted":"0","num_feature":"460","num_nodes":"31","size_leaf_vector":"0"}},{"base_weights":[1.4926624E-3,-1.2799015E-2,2.7294938E-2,-3.0897023E-2,-3.432357E-3,2.0086503E-2,5.5436686E-2,-4.9240466E-2,-2.3823367E-2,-9.301541E-3,1.566206E-3,1.44186765E-2,2.8896242E-2,4.7218192E-2,1.005502E-1,5.1054935E-4,-1.1692736E-3,-5.8353285E-4,4.424647E-4,-1.3421838E-4,-4.0031935E-4,9.666767E-5,-1.1741149E-4,3.9699805E-4,1.7963715E-4,6.818972E-4,-6.460598E-5,-1.7534354E-4,1.1109508E-3,2.3958336E-3,2.8294465E-4],"categories":[],"categories_nodes":[],"categories_segments":[],"categories_sizes":[],"default_left":[0,0,0,0,0,0,0,0,0,0,0,0,0,0,0,0,0,0,0,0,0,0,0,0,0,0,0,0,0,0,0],"id":9,"left_children":[1,3,5,7,9,11,13,15,17,19,21,23,25,27,29,-1,-1,-1,-1,-1,-1,-1,-1,-1,-1,-1,-1,-1,-1,-1,-1],"loss_changes":[8.204279E-1,2.4243143E-1,1.5752578E-1,5.980131E-2,2.7826305E-2,3.050685E-2,4.5078933E-2,1.3142824E-2,2.0891756E-2,1.1879973E-2,8.870821E-3,6.582059E-3,3.5585612E-3,5.347818E-3,1.0437965E-3,0E0,0E0,0E0,0E0,0E0,0E0,0E0,0E0,0E0,0E0,0E0,0E0,0E0,0E0,0E0,0E0],"parents":[2147483647,0,0,1,1,2,2,3,3,4,4,5,5,6,6,7,7,8,8,9,9,10,10,11,11,12,12,13,13,14,14],"right_children":[2,4,6,8,10,12,14,16,18,20,22,24,26,28,30,-1,-1,-1,-1,-1,-1,-1,-1,-1,-1,-1,-1,-1,-1,-1,-1],"split_conditions":[7.1955286E-3,-1.680113E-2,3.6376607E-2,-3.856927E-2,-4.7623506E-3,2.0898057E-2,7.347933E-2,-1.9135252E0,1.8747604E0,2E0,2E0,2E0,1.9125205E0,-1.7502073E0,3.2153306E0,5.1054935E-4,-1.1692736E-3,-5.8353285E-4,4.424647E-4,-1.3421838E-4,-4.0031935E-4,9.666767E-5,-1.1741149E-4,3.9699805E-4,1.7963715E-4,6.818972E-4,-6.460598E-5,-1.7534354E-4,1.1109508E-3,2.3958336E-3,2.8294465E-4],"split_indices":[13,13,13,13,13,13,13,447,168,6,6,6,91,335,52,0,0,0,0,0,0,0,0,0,0,0,0,0,0,0,0],"split_type":[0,0,0,0,0,0,0,0,0,0,0,0,0,0,0,0,0,0,0,0,0,0,0,0,0,0,0,0,0,0,0],"sum_hessian":[2.219E3,1.429E3,7.9E2,4.85E2,9.44E2,6.33E2,1.57E2,1.3E2,3.55E2,4.33E2,5.11E2,3.9E2,2.43E2,1.38E2,1.9E1,1E0,1.29E2,3.46E2,9E0,3.03E2,1.3E2,3.68E2,1.43E2,2.76E2,1.14E2,2.4E2,3E0,1E0,1.37E2,1.8E1,1E0],"tree_param":{"num_deleted":"0","num_feature":"460","num_nodes":"31","size_leaf_vector":"0"}},{"base_weights":[1.4926624E-3,-1.2799015E-2,2.7294938E-2,-3.0897023E-2,-3.432357E-3,2.0086503E-2,5.5436686E-2,-4.9240466E-2,-2.3823367E-2,-9.301541E-3,1.566206E-3,1.44186765E-2,2.8896242E-2,4.7218192E-2,1.005502E-1,5.1054935E-4,-1.1692736E-3,-5.8353285E-4,4.424647E-4,-1.3421838E-4,-4.0031935E-4,-1.7233151E-5,1.0395616E-4,3.9699805E-4,1.7963715E-4,6.818972E-4,-6.460598E-5,-1.7534354E-4,1.1109508E-3,2.8294465E-4,2.3958336E-3],"categories":[],"categories_nodes":[],"categories_segments":[],"categories_sizes":[],"default_left":[0,0,0,0,0,0,0,0,0,0,0,0,0,0,0,0,0,0,0,0,0,0,0,0,0,0,0,0,0,0,0],"id":10,"left_children":[1,3,5,7,9,11,13,15,17,19,21,23,25,27,29,-1,-1,-1,-1,-1,-1,-1,-1,-1,-1,-1,-1,-1,-1,-1,-1],"loss_changes":[8.204279E-1,2.4243143E-1,1.5752578E-1,5.980131E-2,2.7826305E-2,3.050685E-2,4.5078933E-2,1.3142824E-2,2.0891756E-2,1.1879973E-2,3.453733E-3,6.582059E-3,3.5585612E-3,5.347818E-3,1.0437965E-3,0E0,0E0,0E0,0E0,0E0,0E0,0E0,0E0,0E0,0E0,0E0,0E0,0E0,0E0,0E0,0E0],"parents":[2147483647,0,0,1,1,2,2,3,3,4,4,5,5,6,6,7,7,8,8,9,9,10,10,11,11,12,12,13,13,14,14],"right_children":[2,4,6,8,10,12,14,16,18,20,22,24,26,28,30,-1,-1,-1,-1,-1,-1,-1,-1,-1,-1,-1,-1,-1,-1,-1,-1],"split_conditions":[7.1955286E-3,-1.680113E-2,3.6376607E-2,-3.856927E-2,-4.7623506E-3,2.0898057E-2,7.347933E-2,-1.9135252E0,1.8747604E0,2E0,1.852603E-3,2E0,1.9125205E0,-1.7502073E0,-1.6165216E0,5.1054935E-4,-1.1692736E-3,-5.8353285E-4,4.424647E-4,-1.3421838E-4,-4.0031935E-4,-1.7233151E-5,1.0395616E-4,3.9699805E-4,1.7963715E-4,6.818972E-4,-6.460598E-5,-1.7534354E-4,1.1109508E-3,2.8294465E-4,2.3958336E-3],"split_indices":[13,14,13,13,13,13,13,443,172,6,13,6,91,335,200,0,0,0,0,0,0,0,0,0,0,0,0,0,0,0,0],"split_type":[0,0,0,0,0,0,0,0,0,0,0,0,0,0,0,0,0,0,0,0,0,0,0,0,0,0,0,0,0,0,0],"sum_hessian":[2.219E3,1.429E3,7.9E2,4.85E2,9.44E2,6.33E2,1.57E2,1.3E2,3.55E2,4.33E2,5.11E2,3.9E2,2.43E2,1.38E2,1.9E1,1E0,1.29E2,3.46E2,9E0,3.03E2,1.3E2,2.86E2,2.25E2,2.76E2,1.14E2,2.4E2,3E0,1E0,1.37E2,1E0,1.8E1],"tree_param":{"num_deleted":"0","num_feature":"460","num_nodes":"31","size_leaf_vector":"0"}},{"base_weights":[1.4926624E-3,-1.2799015E-2,2.7294938E-2,-3.0897023E-2,-3.432357E-3,2.0086503E-2,5.5436686E-2,-4.9240466E-2,-2.3823367E-2,-9.301541E-3,1.566206E-3,1.44186765E-2,2.8896242E-2,4.7218192E-2,1.005502E-1,5.1054935E-4,-1.1692736E-3,-5.8353285E-4,4.424647E-4,-1.3421838E-4,-4.0031935E-4,9.666767E-5,-1.1741149E-4,3.9699805E-4,1.7963715E-4,6.807036E-4,-1.626604E-5,-1.7534354E-4,1.1109508E-3,2.3958336E-3,2.8294465E-4],"categories":[],"categories_nodes":[],"categories_segments":[],"categories_sizes":[],"default_left":[0,0,0,0,0,0,0,0,0,0,0,0,0,0,0,0,0,0,0,0,0,0,0,0,0,0,0,0,0,0,0],"id":11,"left_children":[1,3,5,7,9,11,13,15,17,19,21,23,25,27,29,-1,-1,-1,-1,-1,-1,-1,-1,-1,-1,-1,-1,-1,-1,-1,-1],"loss_changes":[8.204279E-1,2.4243143E-1,1.5752578E-1,5.980131E-2,2.7826305E-2,3.050685E-2,4.5078933E-2,1.3142824E-2,2.0891756E-2,1.1879973E-2,8.870821E-3,6.582059E-3,2.7844459E-3,5.347818E-3,1.0437965E-3,0E0,0E0,0E0,0E0,0E0,0E0,0E0,0E0,0E0,0E0,0E0,0E0,0E0,0E0,0E0,0E0],"parents":[2147483647,0,0,1,1,2,2,3,3,4,4,5,5,6,6,7,7,8,8,9,9,10,10,11,11,12,12,13,13,14,14],"right_children":[2,4,6,8,10,12,14,16,18,20,22,24,26,28,30,-1,-1,-1,-1,-1,-1,-1,-1,-1,-1,-1,-1,-1,-1,-1,-1],"split_conditions":[7.1955286E-3,-1.680113E-2,3.6376607E-2,-3.856927E-2,-4.7623506E-3,2.0898057E-2,7.347933E-2,-1.9135252E0,1.8747604E0,2E0,2E0,2E0,2.475947E0,-1.7502073E0,3.2153306E0,5.1054935E-4,-1.1692736E-3,-5.8353285E-4,4.424647E-4,-1.3421838E-4,-4.0031935E-4,9.666767E-5,-1.1741149E-4,3.9699805E-4,1.7963715E-4,6.807036E-4,-1.626604E-5,-1.7534354E-4,1.1109508E-3,2.3958336E-3,2.8294465E-4],"split_indices":[13,13,14,13,13,13,13,443,168,6,6,6,73,335,52,0,0,0,0,0,0,0,0,0,0,0,0,0,0,0,0],"split_type":[0,0,0,0,0,0,0,0,0,0,0,0,0,0,0,0,0,0,0,0,0,0,0,0,0,0,0,0,0,0,0],"sum_hessian":[2.219E3,1.429E3,7.9E2,4.85E2,9.44E2,6.33E2,1.57E2,1.3E2,3.55E2,4.33E2,5.11E2,3.9E2,2.43E2,1.38E2,1.9E1,1E0,1.29E2,3.46E2,9E0,3.03E2,1.3E2,3.68E2,1.43E2,2.76E2,1.14E2,2.4E2,3E0,1E0,1.37E2,1.8E1,1E0],"tree_param":{"num_deleted":"0","num_feature":"460","num_nodes":"31","size_leaf_vector":"0"}},{"base_weights":[1.4926624E-3,-1.2799015E-2,2.7294938E-2,-3.0897023E-2,-3.432357E-3,2.0086503E-2,5.5436686E-2,-4.9240466E-2,-2.3823367E-2,-9.301541E-3,1.566206E-3,1.44186765E-2,2.8896242E-2,4.7218192E-2,1.005502E-1,5.1054935E-4,-1.1692736E-3,-5.8353285E-4,4.424647E-4,-1.3421838E-4,-4.0031935E-4,9.666767E-5,-1.1741149E-4,3.9699805E-4,1.7963715E-4,6.818972E-4,-6.460598E-5,-1.7534354E-4,1.1109508E-3,2.3958336E-3,2.8294465E-4],"categories":[],"categories_nodes":[],"categories_segments":[],"categories_sizes":[],"default_left":[0,0,0,0,0,0,0,0,0,0,0,0,0,0,0,0,0,0,0,0,0,0,0,0,0,0,0,0,0,0,0],"id":12,"left_children":[1,3,5,7,9,11,13,15,17,19,21,23,25,27,29,-1,-1,-1,-1,-1,-1,-1,-1,-1,-1,-1,-1,-1,-1,-1,-1],"loss_changes":[8.204279E-1,2.4243143E-1,1.5752578E-1,5.980131E-2,2.7826305E-2,3.050685E-2,4.5078933E-2,1.3142824E-2,2.0891756E-2,1.1879973E-2,8.870821E-3,6.582059E-3,3.5585612E-3,5.347818E-3,1.0437965E-3,0E0,0E0,0E0,0E0,0E0,0E0,0E0,0E0,0E0,0E0,0E0,0E0,0E0,0E0,0E0,0E0],"parents":[2147483647,0,0,1,1,2,2,3,3,4,4,5,5,6,6,7,7,8,8,9,9,10,10,11,11,12,12,13,13,14,14],"right_children":[2,4,6,8,10,12,14,16,18,20,22,24,26,28,30,-1,-1,-1,-1,-1,-1,-1,-1,-1,-1,-1,-1,-1,-1,-1,-1],"split_conditions":[7.1955286E-3,-1.680113E-2,3.6376607E-2,-3.856927E-2,-4.7623506E-3,2.0898057E-2,7.347933E-2,-1.9135252E0,1.8747604E0,2E0,2E0,2E0,1.9125205E0,-1.7502073E0,3.2153306E0,5.1054935E-4,-1.1692736E-3,-5.8353285E-4,4.424647E-4,-1.3421838E-4,-4.0031935E-4,9.666767E-5,-1.1741149E-4,3.9699805E-4,1.7963715E-4,6.818972E-4,-6.460598E-5,-1.7534354E-4,1.1109508E-3,2.3958336E-3,2.8294465E-4],"split_indices":[13,13,13,13,13,13,13,443,168,6,6,6,91,335,52,0,0,0,0,0,0,0,0,0,0,0,0,0,0,0,0],"split_type":[0,0,0,0,0,0,0,0,0,0,0,0,0,0,0,0,0,0,0,0,0,0,0,0,0,0,0,0,0,0,0],"sum_hessian":[2.219E3,1.429E3,7.9E2,4.85E2,9.44E2,6.33E2,1.57E2,1.3E2,3.55E2,4.33E2,5.11E2,3.9E2,2.43E2,1.38E2,1.9E1,1E0,1.29E2,3.46E2,9E0,3.03E2,1.3E2,3.68E2,1.43E2,2.76E2,1.14E2,2.4E2,3E0,1E0,1.37E2,1.8E1,1E0],"tree_param":{"num_deleted":"0","num_feature":"460","num_nodes":"31","size_leaf_vector":"0"}},{"base_weights":[1.4926624E-3,-1.2799015E-2,2.7294938E-2,-3.0897023E-2,-3.432357E-3,2.0086503E-2,5.5436686E-2,-4.9240466E-2,-2.3823367E-2,-9.301541E-3,1.566206E-3,1.44186765E-2,2.8896242E-2,4.7218192E-2,1.005502E-1,5.1054935E-4,-1.1692736E-3,-5.8353285E-4,4.424647E-4,-1.3421838E-4,-4.0031935E-4,9.666767E-5,-1.1741149E-4,3.9699805E-4,1.7963715E-4,6.818972E-4,-6.460598E-5,-1.7534354E-4,1.1109508E-3,2.3958336E-3,2.8294465E-4],"categories":[],"categories_nodes":[],"categories_segments":[],"categories_sizes":[],"default_left":[0,0,0,0,0,0,0,0,0,0,0,0,0,0,0,0,0,0,0,0,0,0,0,0,0,0,0,0,0,0,0],"id":13,"left_children":[1,3,5,7,9,11,13,15,17,19,21,23,25,27,29,-1,-1,-1,-1,-1,-1,-1,-1,-1,-1,-1,-1,-1,-1,-1,-1],"loss_changes":[8.204279E-1,2.4243143E-1,1.5752578E-1,5.980131E-2,2.7826305E-2,3.050685E-2,4.5078933E-2,1.3142824E-2,2.0891756E-2,1.1879973E-2,8.870821E-3,6.582059E-3,3.5585612E-3,5.347818E-3,1.0437965E-3,0E0,0E0,0E0,0E0,0E0,0E0,0E0,0E0,0E0,0E0,0E0,0E0,0E0,0E0,0E0,0E0],"parents":[2147483647,0,0,1,1,2,2,3,3,4,4,5,5,6,6,7,7,8,8,9,9,10,10,11,11,12,12,13,13,14,14],"right_children":[2,4,6,8,10,12,14,16,18,20,22,24,26,28,30,-1,-1,-1,-1,-1,-1,-1,-1,-1,-1,-1,-1,-1,-1,-1,-1],"split_conditions":[7.1955286E-3,-1.680113E-2,3.6376607E-2,-3.856927E-2,-4.7623506E-3,2.0898057E-2,7.347933E-2,-1.9135252E0,1.8747604E0,2E0,2E0,2E0,1.9125205E0,-1.7502073E0,3.2153306E0,5.1054935E-4,-1.1692736E-3,-5.8353285E-4,4.424647E-4,-1.3421838E-4,-4.0031935E-4,9.666767E-5,-1.1741149E-4,3.9699805E-4,1.7963715E-4,6.818972E-4,-6.460598E-5,-1.7534354E-4,1.1109508E-3,2.3958336E-3,2.8294465E-4],"split_indices":[13,13,14,14,14,13,13,443,168,6,6,6,91,339,52,0,0,0,0,0,0,0,0,0,0,0,0,0,0,0,0],"split_type":[0,0,0,0,0,0,0,0,0,0,0,0,0,0,0,0,0,0,0,0,0,0,0,0,0,0,0,0,0,0,0],"sum_hessian":[2.219E3,1.429E3,7.9E2,4.85E2,9.44E2,6.33E2,1.57E2,1.3E2,3.55E2,4.33E2,5.11E2,3.9E2,2.43E2,1.38E2,1.9E1,1E0,1.29E2,3.46E2,9E0,3.03E2,1.3E2,3.68E2,1.43E2,2.76E2,1.14E2,2.4E2,3E0,1E0,1.37E2,1.8E1,1E0],"tree_param":{"num_deleted":"0","num_feature":"460","num_nodes":"31","size_leaf_vector":"0"}},{"base_weights":[1.4926624E-3,-1.2799015E-2,2.7294938E-2,-3.0897023E-2,-3.432357E-3,2.0086503E-2,5.5436686E-2,-4.9240466E-2,-2.3823367E-2,-9.301541E-3,1.566206E-3,1.44186765E-2,2.8896242E-2,4.7218192E-2,1.005502E-1,5.1054935E-4,-1.1692736E-3,-5.8353285E-4,4.424647E-4,-2.3251085E-4,3.6433223E-4,9.666767E-5,-1.1741149E-4,3.9699805E-4,1.7963715E-4,6.818972E-4,-6.460598E-5,-1.7534354E-4,1.1109508E-3,2.3958336E-3,2.8294465E-4],"categories":[],"categories_nodes":[],"categories_segments":[],"categories_sizes":[],"default_left":[0,0,0,0,0,0,0,0,0,0,0,0,0,0,0,0,0,0,0,0,0,0,0,0,0,0,0,0,0,0,0],"id":14,"left_children":[1,3,5,7,9,11,13,15,17,19,21,23,25,27,29,-1,-1,-1,-1,-1,-1,-1,-1,-1,-1,-1,-1,-1,-1,-1,-1],"loss_changes":[8.204279E-1,2.4243143E-1,1.5752578E-1,5.980131E-2,2.7826305E-2,3.050685E-2,4.5078933E-2,1.3142824E-2,2.0891756E-2,8.051157E-3,8.870821E-3,6.582059E-3,3.5585612E-3,5.347818E-3,1.0437965E-3,0E0,0E0,0E0,0E0,0E0,0E0,0E0,0E0,0E0,0E0,0E0,0E0,0E0,0E0,0E0,0E0],"parents":[2147483647,0,0,1,1,2,2,3,3,4,4,5,5,6,6,7,7,8,8,9,9,10,10,11,11,12,12,13,13,14,14],"right_children":[2,4,6,8,10,12,14,16,18,20,22,24,26,28,30,-1,-1,-1,-1,-1,-1,-1,-1,-1,-1,-1,-1,-1,-1,-1,-1],"split_conditions":[7.1955286E-3,-1.680113E-2,3.6376607E-2,-3.856927E-2,-4.7623506E-3,2.0898057E-2,7.347933E-2,-1.9135252E0,1.8747604E0,1.9191991E0,2E0,2E0,1.9125205E0,-1.7502073E0,3.2153306E0,5.1054935E-4,-1.1692736E-3,-5.8353285E-4,4.424647E-4,-2.3251085E-4,3.6433223E-4,9.666767E-5,-1.1741149E-4,3.9699805E-4,1.7963715E-4,6.818972E-4,-6.460598E-5,-1.7534354E-4,1.1109508E-3,2.3958336E-3,2.8294465E-4],"split_indices":[13,13,13,13,13,13,13,443,172,233,6,6,91,339,52,0,0,0,0,0,0,0,0,0,0,0,0,0,0,0,0],"split_type":[0,0,0,0,0,0,0,0,0,0,0,0,0,0,0,0,0,0,0,0,0,0,0,0,0,0,0,0,0,0,0],"sum_hessian":[2.219E3,1.429E3,7.9E2,4.85E2,9.44E2,6.33E2,1.57E2,1.3E2,3.55E2,4.33E2,5.11E2,3.9E2,2.43E2,1.38E2,1.9E1,1E0,1.29E2,3.46E2,9E0,4.23E2,1E1,3.68E2,1.43E2,2.76E2,1.14E2,2.4E2,3E0,1E0,1.37E2,1.8E1,1E0],"tree_param":{"num_deleted":"0","num_feature":"460","num_nodes":"31","size_leaf_vector":"0"}},{"base_weights":[1.4926624E-3,-1.2799015E-2,2.7294938E-2,-3.0897023E-2,-3.432357E-3,2.0086503E-2,5.5436686E-2,-4.6173517E-2,-2.5426388E-2,-9.301541E-3,1.566206E-3,1.44186765E-2,2.8896242E-2,4.7218192E-2,1.005502E-1,-1.1369147E-3,2.7555155E-4,-4.6264942E-4,-7.9382554E-4,-1.3421838E-4,-4.0031935E-4,9.666767E-5,-1.1741149E-4,-3.3631176E-4,3.413339E-4,6.818972E-4,-6.460598E-5,-1.7534354E-4,1.1109508E-3,2.3958336E-3,2.8294465E-4],"categories":[],"categories_nodes":[],"categories_segments":[],"categories_sizes":[],"default_left":[0,0,0,0,0,0,0,0,0,0,0,0,0,0,0,0,0,0,0,0,0,0,0,0,0,0,0,0,0,0,0],"id":15,"left_children":[1,3,5,7,9,11,13,15,17,19,21,23,25,27,29,-1,-1,-1,-1,-1,-1,-1,-1,-1,-1,-1,-1,-1,-1,-1,-1],"loss_changes":[8.204279E-1,2.4243143E-1,1.5752578E-1,3.726116E-2,2.7826305E-2,3.050685E-2,4.5078933E-2,2.142039E-2,1.55956745E-2,1.1879973E-2,8.870821E-3,3.5727546E-3,3.5585612E-3,5.347818E-3,1.0437965E-3,0E0,0E0,0E0,0E0,0E0,0E0,0E0,0E0,0E0,0E0,0E0,0E0,0E0,0E0,0E0,0E0],"parents":[2147483647,0,0,1,1,2,2,3,3,4,4,5,5,6,6,7,7,8,8,9,9,10,10,11,11,12,12,13,13,14,14],"right_children":[2,4,6,8,10,12,14,16,18,20,22,24,26,28,30,-1,-1,-1,-1,-1,-1,-1,-1,-1,-1,-1,-1,-1,-1,-1,-1],"split_conditions":[7.1955286E-3,-1.680113E-2,3.6376607E-2,-4.2221554E-2,-4.7623506E-3,2.0898057E-2,7.347933E-2,-2.1579385E-2,2E0,2E0,2E0,-2.267173E0,1.9125205E0,-1.7502073E0,3.2153306E0,-1.1369147E-3,2.7555155E-4,-4.6264942E-4,-7.9382554E-4,-1.3421838E-4,-4.0031935E-4,9.666767E-5,-1.1741149E-4,-3.3631176E-4,3.413339E-4,6.818972E-4,-6.460598E-5,-1.7534354E-4,1.1109508E-3,2.3958336E-3,2.8294465E-4],"split_indices":[13,13,14,7,13,14,13,13,6,6,6,76,91,335,52,0,0,0,0,0,0,0,0,0,0,0,0,0,0,0,0],"split_type":[0,0,0,0,0,0,0,0,0,0,0,0,0,0,0,0,0,0,0,0,0,0,0,0,0,0,0,0,0,0,0],"sum_hessian":[2.219E3,1.429E3,7.9E2,4.85E2,9.44E2,6.33E2,1.57E2,1.22E2,3.63E2,4.33E2,5.11E2,3.9E2,2.43E2,1.38E2,1.9E1,1.17E2,5E0,2.28E2,1.35E2,3.03E2,1.3E2,3.68E2,1.43E2,2E0,3.88E2,2.4E2,3E0,1E0,1.37E2,1.8E1,1E0],"tree_param":{"num_deleted":"0","num_feature":"460","num_nodes":"31","size_leaf_vector":"0"}},{"base_weights":[1.4926624E-3,-1.2799015E-2,2.7294938E-2,-3.0897023E-2,-3.432357E-3,2.0086503E-2,5.5436686E-2,-4.9240466E-2,-2.3823367E-2,-9.301541E-3,1.566206E-3,1.44186765E-2,2.8896242E-2,4.609517E-2,9.130707E-2,5.1054935E-4,-1.1692736E-3,-5.8353285E-4,4.424647E-4,-1.3421838E-4,-4.0031935E-4,-1.7233151E-5,1.0395616E-4,3.9699805E-4,1.7963715E-4,6.818972E-4,-6.460598E-5,1.7854092E-5,1.0958946E-3,2.2221399E-3,2.9653797E-4],"categories":[],"categories_nodes":[],"categories_segments":[],"categories_sizes":[],"default_left":[0,0,0,0,0,0,0,0,0,0,0,0,0,0,0,0,0,0,0,0,0,0,0,0,0,0,0,0,0,0,0],"id":16,"left_children":[1,3,5,7,9,11,13,15,17,19,21,23,25,27,29,-1,-1,-1,-1,-1,-1,-1,-1,-1,-1,-1,-1,-1,-1,-1,-1],"loss_changes":[8.204279E-1,2.4243143E-1,1.5752578E-1,5.980131E-2,2.7826305E-2,3.050685E-2,4.0986955E-2,1.3142824E-2,2.0891756E-2,1.1879973E-2,3.453733E-3,6.582059E-3,3.5585612E-3,6.090611E-3,6.3487887E-3,0E0,0E0,0E0,0E0,0E0,0E0,0E0,0E0,0E0,0E0,0E0,0E0,0E0,0E0,0E0,0E0],"parents":[2147483647,0,0,1,1,2,2,3,3,4,4,5,5,6,6,7,7,8,8,9,9,10,10,11,11,12,12,13,13,14,14],"right_children":[2,4,6,8,10,12,14,16,18,20,22,24,26,28,30,-1,-1,-1,-1,-1,-1,-1,-1,-1,-1,-1,-1,-1,-1,-1,-1],"split_conditions":[7.1955286E-3,-1.680113E-2,3.6376607E-2,-3.856927E-2,-4.7623506E-3,2.0898057E-2,9.323189E-2,-1.9135252E0,1.8747604E0,2E0,1.852603E-3,2E0,1.9125205E0,-1.700922E0,1.8843281E0,5.1054935E-4,-1.1692736E-3,-5.8353285E-4,4.424647E-4,-1.3421838E-4,-4.0031935E-4,-1.7233151E-5,1.0395616E-4,3.9699805E-4,1.7963715E-4,6.818972E-4,-6.460598E-5,1.7854092E-5,1.0958946E-3,2.2221399E-3,2.9653797E-4],"split_indices":[13,13,13,13,13,13,11,447,168,6,13,6,91,171,25,0,0,0,0,0,0,0,0,0,0,0,0,0,0,0,0],"split_type":[0,0,0,0,0,0,0,0,0,0,0,0,0,0,0,0,0,0,0,0,0,0,0,0,0,0,0,0,0,0,0],"sum_hessian":[2.219E3,1.429E3,7.9E2,4.85E2,9.44E2,6.33E2,1.57E2,1.3E2,3.55E2,4.33E2,5.11E2,3.9E2,2.43E2,1.3E2,2.7E1,1E0,1.29E2,3.46E2,9E0,3.03E2,1.3E2,2.86E2,2.25E2,2.76E2,1.14E2,2.4E2,3E0,3E0,1.27E2,2.5E1,2E0],"tree_param":{"num_deleted":"0","num_feature":"460","num_nodes":"31","size_leaf_vector":"0"}},{"base_weights":[1.4926624E-3,-1.2799015E-2,2.7294938E-2,-3.0897023E-2,-3.432357E-3,2.0086503E-2,5.5436686E-2,-4.6173517E-2,-2.5426388E-2,-9.301541E-3,1.566206E-3,1.44186765E-2,2.8896242E-2,4.7218192E-2,1.005502E-1,-1.1369147E-3,2.7555155E-4,-4.6264942E-4,-7.9382554E-4,-1.3421838E-4,-4.0031935E-4,-1.7233151E-5,1.0395616E-4,-3.3631176E-4,3.413339E-4,6.818972E-4,-6.460598E-5,-1.7534354E-4,1.1109508E-3,2.3958336E-3,2.8294465E-4],"categories":[],"categories_nodes":[],"categories_segments":[],"categories_sizes":[],"default_left":[0,0,0,0,0,0,0,0,0,0,0,0,0,0,0,0,0,0,0,0,0,0,0,0,0,0,0,0,0,0,0],"id":17,"left_children":[1,3,5,7,9,11,13,15,17,19,21,23,25,27,29,-1,-1,-1,-1,-1,-1,-1,-1,-1,-1,-1,-1,-1,-1,-1,-1],"loss_changes":[8.204279E-1,2.4243143E-1,1.5752578E-1,3.726116E-2,2.7826305E-2,3.050685E-2,4.5078933E-2,2.142039E-2,1.55956745E-2,1.1879973E-2,3.453733E-3,3.5727546E-3,3.5585612E-3,5.347818E-3,1.0437965E-3,0E0,0E0,0E0,0E0,0E0,0E0,0E0,0E0,0E0,0E0,0E0,0E0,0E0,0E0,0E0,0E0],"parents":[2147483647,0,0,1,1,2,2,3,3,4,4,5,5,6,6,7,7,8,8,9,9,10,10,11,11,12,12,13,13,14,14],"right_children":[2,4,6,8,10,12,14,16,18,20,22,24,26,28,30,-1,-1,-1,-1,-1,-1,-1,-1,-1,-1,-1,-1,-1,-1,-1,-1],"split_conditions":[7.1955286E-3,-1.680113E-2,3.6376607E-2,-4.2221554E-2,-4.7623506E-3,2.0898057E-2,7.347933E-2,-2.1579385E-2,2E0,2E0,1.852603E-3,-2.267173E0,1.9125205E0,-1.7502073E0,3.2153306E0,-1.1369147E-3,2.7555155E-4,-4.6264942E-4,-7.9382554E-4,-1.3421838E-4,-4.0031935E-4,-1.7233151E-5,1.0395616E-4,-3.3631176E-4,3.413339E-4,6.818972E-4,-6.460598E-5,-1.7534354E-4,1.1109508E-3,2.3958336E-3,2.8294465E-4],"split_indices":[13,13,13,8,13,13,14,13,6,6,13,80,95,339,56,0,0,0,0,0,0,0,0,0,0,0,0,0,0,0,0],"split_type":[0,0,0,0,0,0,0,0,0,0,0,0,0,0,0,0,0,0,0,0,0,0,0,0,0,0,0,0,0,0,0],"sum_hessian":[2.219E3,1.429E3,7.9E2,4.85E2,9.44E2,6.33E2,1.57E2,1.22E2,3.63E2,4.33E2,5.11E2,3.9E2,2.43E2,1.38E2,1.9E1,1.17E2,5E0,2.28E2,1.35E2,3.03E2,1.3E2,2.86E2,2.25E2,2E0,3.88E2,2.4E2,3E0,1E0,1.37E2,1.8E1,1E0],"tree_param":{"num_deleted":"0","num_feature":"460","num_nodes":"31","size_leaf_vector":"0"}},{"base_weights":[1.4926624E-3,-1.2799015E-2,2.7294938E-2,-3.0897023E-2,-3.432357E-3,2.0086503E-2,5.5436686E-2,-4.9240466E-2,-2.3823367E-2,-9.301541E-3,1.566206E-3,1.44186765E-2,2.8896242E-2,4.7218192E-2,1.005502E-1,5.1054935E-4,-1.1692736E-3,-5.8353285E-4,4.424647E-4,-1.3421838E-4,-4.0031935E-4,-1.7233151E-5,1.0395616E-4,-3.3631176E-4,3.413339E-4,6.818972E-4,-6.460598E-5,-1.7534354E-4,1.1109508E-3,2.3958336E-3,2.8294465E-4],"categories":[],"categories_nodes":[],"categories_segments":[],"categories_sizes":[],"default_left":[0,0,0,0,0,0,0,0,0,0,0,0,0,0,0,0,0,0,0,0,0,0,0,0,0,0,0,0,0,0,0],"id":18,"left_children":[1,3,5,7,9,11,13,15,17,19,21,23,25,27,29,-1,-1,-1,-1,-1,-1,-1,-1,-1,-1,-1,-1,-1,-1,-1,-1],"loss_changes":[8.204279E-1,2.4243143E-1,1.5752578E-1,5.980131E-2,2.7826305E-2,3.050685E-2,4.5078933E-2,1.3142824E-2,2.0891756E-2,1.1879973E-2,3.453733E-3,3.5727546E-3,3.5585612E-3,5.347818E-3,1.0437965E-3,0E0,0E0,0E0,0E0,0E0,0E0,0E0,0E0,0E0,0E0,0E0,0E0,0E0,0E0,0E0,0E0],"parents":[2147483647,0,0,1,1,2,2,3,3,4,4,5,5,6,6,7,7,8,8,9,9,10,10,11,11,12,12,13,13,14,14],"right_children":[2,4,6,8,10,12,14,16,18,20,22,24,26,28,30,-1,-1,-1,-1,-1,-1,-1,-1,-1,-1,-1,-1,-1,-1,-1,-1],"split_conditions":[7.1955286E-3,-1.680113E-2,3.6376607E-2,-3.856927E-2,-4.7623506E-3,2.0898057E-2,7.347933E-2,-1.9135252E0,1.8747604E0,2E0,1.852603E-3,-2.267173E0,1.9125205E0,-1.7502073E0,3.2153306E0,5.1054935E-4,-1.1692736E-3,-5.8353285E-4,4.424647E-4,-1.3421838E-4,-4.0031935E-4,-1.7233151E-5,1.0395616E-4,-3.3631176E-4,3.413339E-4,6.818972E-4,-6.460598E-5,-1.7534354E-4,1.1109508E-3,2.3958336E-3,2.8294465E-4],"split_indices":[13,13,14,13,13,13,13,447,168,6,13,76,91,339,52,0,0,0,0,0,0,0,0,0,0,0,0,0,0,0,0],"split_type":[0,0,0,0,0,0,0,0,0,0,0,0,0,0,0,0,0,0,0,0,0,0,0,0,0,0,0,0,0,0,0],"sum_hessian":[2.219E3,1.429E3,7.9E2,4.85E2,9.44E2,6.33E2,1.57E2,1.3E2,3.55E2,4.33E2,5.11E2,3.9E2,2.43E2,1.38E2,1.9E1,1E0,1.29E2,3.46E2,9E0,3.03E2,1.3E2,2.86E2,2.25E2,2E0,3.88E2,2.4E2,3E0,1E0,1.37E2,1.8E1,1E0],"tree_param":{"num_deleted":"0","num_feature":"460","num_nodes":"31","size_leaf_vector":"0"}},{"base_weights":[1.4926624E-3,-1.2799015E-2,2.7294938E-2,-3.0897023E-2,-3.432357E-3,2.0086503E-2,5.5436686E-2,-4.9240466E-2,-2.3823367E-2,-9.301541E-3,1.566206E-3,1.44186765E-2,2.8896242E-2,4.7218192E-2,1.005502E-1,5.1054935E-4,-1.1692736E-3,-5.8353285E-4,4.424647E-4,-1.3421838E-4,-4.0031935E-4,9.666767E-5,-1.1741149E-4,3.9699805E-4,1.7963715E-4,6.818972E-4,-6.460598E-5,-1.7534354E-4,1.1109508E-3,2.3958336E-3,2.8294465E-4],"categories":[],"categories_nodes":[],"categories_segments":[],"categories_sizes":[],"default_left":[0,0,0,0,0,0,0,0,0,0,0,0,0,0,0,0,0,0,0,0,0,0,0,0,0,0,0,0,0,0,0],"id":19,"left_children":[1,3,5,7,9,11,13,15,17,19,21,23,25,27,29,-1,-1,-1,-1,-1,-1,-1,-1,-1,-1,-1,-1,-1,-1,-1,-1],"loss_changes":[8.204279E-1,2.4243143E-1,1.5752578E-1,5.980131E-2,2.7826305E-2,3.050685E-2,4.5078933E-2,1.3142824E-2,2.0891756E-2,1.1879973E-2,8.870821E-3,6.582059E-3,3.5585612E-3,5.347818E-3,1.0437965E-3,0E0,0E0,0E0,0E0,0E0,0E0,0E0,0E0,0E0,0E0,0E0,0E0,0E0,0E0,0E0,0E0],"parents":[2147483647,0,0,1,1,2,2,3,3,4,4,5,5,6,6,7,7,8,8,9,9,10,10,11,11,12,12,13,13,14,14],"right_children":[2,4,6,8,10,12,14,16,18,20,22,24,26,28,30,-1,-1,-1,-1,-1,-1,-1,-1,-1,-1,-1,-1,-1,-1,-1,-1],"split_conditions":[7.1955286E-3,-1.680113E-2,3.6376607E-2,-3.856927E-2,-4.7623506E-3,2.0898057E-2,7.347933E-2,-1.9135252E0,1.8747604E0,2E0,2E0,2E0,1.9125205E0,-1.7502073E0,3.2153306E0,5.1054935E-4,-1.1692736E-3,-5.8353285E-4,4.424647E-4,-1.3421838E-4,-4.0031935E-4,9.666767E-5,-1.1741149E-4,3.9699805E-4,1.7963715E-4,6.818972E-4,-6.460598E-5,-1.7534354E-4,1.1109508E-3,2.3958336E-3,2.8294465E-4],"split_indices":[13,13,13,13,13,13,14,443,168,6,6,6,91,335,52,0,0,0,0,0,0,0,0,0,0,0,0,0,0,0,0],"split_type":[0,0,0,0,0,0,0,0,0,0,0,0,0,0,0,0,0,0,0,0,0,0,0,0,0,0,0,0,0,0,0],"sum_hessian":[2.219E3,1.429E3,7.9E2,4.85E2,9.44E2,6.33E2,1.57E2,1.3E2,3.55E2,4.33E2,5.11E2,3.9E2,2.43E2,1.38E2,1.9E1,1E0,1.29E2,3.46E2,9E0,3.03E2,1.3E2,3.68E2,1.43E2,2.76E2,1.14E2,2.4E2,3E0,1E0,1.37E2,1.8E1,1E0],"tree_param":{"num_deleted":"0","num_feature":"460","num_nodes":"31","size_leaf_vector":"0"}},{"base_weights":[1.4926624E-3,-1.2799015E-2,2.7294938E-2,-3.0897023E-2,-3.432357E-3,2.0086503E-2,5.5436686E-2,-4.9240466E-2,-2.3823367E-2,-9.301541E-3,1.566206E-3,1.44186765E-2,2.8896242E-2,4.7218192E-2,1.005502E-1,5.1054935E-4,-1.1692736E-3,-5.8353285E-4,4.424647E-4,-1.3421838E-4,-4.0031935E-4,9.666767E-5,-1.1741149E-4,3.9699805E-4,1.7963715E-4,6.818972E-4,-6.460598E-5,-1.7534354E-4,1.1109508E-3,2.3958336E-3,2.8294465E-4],"categories":[],"categories_nodes":[],"categories_segments":[],"categories_sizes":[],"default_left":[0,0,0,0,0,0,0,0,0,0,0,0,0,0,0,0,0,0,0,0,0,0,0,0,0,0,0,0,0,0,0],"id":20,"left_children":[1,3,5,7,9,11,13,15,17,19,21,23,25,27,29,-1,-1,-1,-1,-1,-1,-1,-1,-1,-1,-1,-1,-1,-1,-1,-1],"loss_changes":[8.204279E-1,2.4243143E-1,1.5752578E-1,5.980131E-2,2.7826305E-2,3.050685E-2,4.5078933E-2,1.3142824E-2,2.0891756E-2,1.1879973E-2,8.870821E-3,6.582059E-3,3.5585612E-3,5.347818E-3,1.0437965E-3,0E0,0E0,0E0,0E0,0E0,0E0,0E0,0E0,0E0,0E0,0E0,0E0,0E0,0E0,0E0,0E0],"parents":[2147483647,0,0,1,1,2,2,3,3,4,4,5,5,6,6,7,7,8,8,9,9,10,10,11,11,12,12,13,13,14,14],"right_children":[2,4,6,8,10,12,14,16,18,20,22,24,26,28,30,-1,-1,-1,-1,-1,-1,-1,-1,-1,-1,-1,-1,-1,-1,-1,-1],"split_conditions":[7.1955286E-3,-1.680113E-2,3.6376607E-2,-3.856927E-2,-4.7623506E-3,2.0898057E-2,7.347933E-2,-1.9135252E0,1.8747604E0,2E0,2E0,2E0,1.9125205E0,-1.7502073E0,3.2153306E0,5.1054935E-4,-1.1692736E-3,-5.8353285E-4,4.424647E-4,-1.3421838E-4,-4.0031935E-4,9.666767E-5,-1.1741149E-4,3.9699805E-4,1.7963715E-4,6.818972E-4,-6.460598E-5,-1.7534354E-4,1.1109508E-3,2.3958336E-3,2.8294465E-4],"split_indices":[13,13,13,13,13,13,13,443,168,6,6,6,95,335,52,0,0,0,0,0,0,0,0,0,0,0,0,0,0,0,0],"split_type":[0,0,0,0,0,0,0,0,0,0,0,0,0,0,0,0,0,0,0,0,0,0,0,0,0,0,0,0,0,0,0],"sum_hessian":[2.219E3,1.429E3,7.9E2,4.85E2,9.44E2,6.33E2,1.57E2,1.3E2,3.55E2,4.33E2,5.11E2,3.9E2,2.43E2,1.38E2,1.9E1,1E0,1.29E2,3.46E2,9E0,3.03E2,1.3E2,3.68E2,1.43E2,2.76E2,1.14E2,2.4E2,3E0,1E0,1.37E2,1.8E1,1E0],"tree_param":{"num_deleted":"0","num_feature":"460","num_nodes":"31","size_leaf_vector":"0"}},{"base_weights":[1.4926624E-3,-1.2799015E-2,2.7294938E-2,-3.0897023E-2,-3.432357E-3,2.0086503E-2,5.5436686E-2,-4.9240466E-2,-2.3823367E-2,-9.301541E-3,1.566206E-3,1.44186765E-2,2.8896242E-2,4.7218192E-2,1.005502E-1,5.1054935E-4,-1.1692736E-3,-5.8353285E-4,4.424647E-4,-2.3251085E-4,3.6433223E-4,-1.7233151E-5,1.0395616E-4,3.9699805E-4,1.7963715E-4,6.818972E-4,-6.460598E-5,-1.7534354E-4,1.1109508E-3,2.3958336E-3,2.8294465E-4],"categories":[],"categories_nodes":[],"categories_segments":[],"categories_sizes":[],"default_left":[0,0,0,0,0,0,0,0,0,0,0,0,0,0,0,0,0,0,0,0,0,0,0,0,0,0,0,0,0,0,0],"id":21,"left_children":[1,3,5,7,9,11,13,15,17,19,21,23,25,27,29,-1,-1,-1,-1,-1,-1,-1,-1,-1,-1,-1,-1,-1,-1,-1,-1],"loss_changes":[8.204279E-1,2.4243143E-1,1.5752578E-1,5.980131E-2,2.7826305E-2,3.050685E-2,4.5078933E-2,1.3142824E-2,2.0891756E-2,8.051157E-3,3.453733E-3,6.582059E-3,3.5585612E-3,5.347818E-3,1.0437965E-3,0E0,0E0,0E0,0E0,0E0,0E0,0E0,0E0,0E0,0E0,0E0,0E0,0E0,0E0,0E0,0E0],"parents":[2147483647,0,0,1,1,2,2,3,3,4,4,5,5,6,6,7,7,8,8,9,9,10,10,11,11,12,12,13,13,14,14],"right_children":[2,4,6,8,10,12,14,16,18,20,22,24,26,28,30,-1,-1,-1,-1,-1,-1,-1,-1,-1,-1,-1,-1,-1,-1,-1,-1],"split_conditions":[7.1955286E-3,-1.680113E-2,3.6376607E-2,-3.856927E-2,-4.7623506E-3,2.0898057E-2,7.347933E-2,-1.9135252E0,1.8747604E0,1.9191991E0,1.852603E-3,2E0,1.9125205E0,-1.7502073E0,3.2153306E0,5.1054935E-4,-1.1692736E-3,-5.8353285E-4,4.424647E-4,-2.3251085E-4,3.6433223E-4,-1.7233151E-5,1.0395616E-4,3.9699805E-4,1.7963715E-4,6.818972E-4,-6.460598E-5,-1.7534354E-4,1.1109508E-3,2.3958336E-3,2.8294465E-4],"split_indices":[13,13,13,13,13,13,13,443,168,229,13,6,91,335,52,0,0,0,0,0,0,0,0,0,0,0,0,0,0,0,0],"split_type":[0,0,0,0,0,0,0,0,0,0,0,0,0,0,0,0,0,0,0,0,0,0,0,0,0,0,0,0,0,0,0],"sum_hessian":[2.219E3,1.429E3,7.9E2,4.85E2,9.44E2,6.33E2,1.57E2,1.3E2,3.55E2,4.33E2,5.11E2,3.9E2,2.43E2,1.38E2,1.9E1,1E0,1.29E2,3.46E2,9E0,4.23E2,1E1,2.86E2,2.25E2,2.76E2,1.14E2,2.4E2,3E0,1E0,1.37E2,1.8E1,1E0],"tree_param":{"num_deleted":"0","num_feature":"460","num_nodes":"31","size_leaf_vector":"0"}},{"base_weights":[1.4926624E-3,-1.2799015E-2,2.7294938E-2,-3.0897023E-2,-3.432357E-3,2.0086503E-2,5.5436686E-2,-4.9240466E-2,-2.3823367E-2,-9.301541E-3,1.566206E-3,1.44186765E-2,2.8896242E-2,4.7218192E-2,1.005502E-1,5.1054935E-4,-1.1692736E-3,-5.8353285E-4,4.424647E-4,-1.3421838E-4,-4.0031935E-4,9.666767E-5,-1.1741149E-4,3.9699805E-4,1.7963715E-4,6.818972E-4,-6.460598E-5,-1.7534354E-4,1.1109508E-3,2.3958336E-3,2.8294465E-4],"categories":[],"categories_nodes":[],"categories_segments":[],"categories_sizes":[],"default_left":[0,0,0,0,0,0,0,0,0,0,0,0,0,0,0,0,0,0,0,0,0,0,0,0,0,0,0,0,0,0,0],"id":22,"left_children":[1,3,5,7,9,11,13,15,17,19,21,23,25,27,29,-1,-1,-1,-1,-1,-1,-1,-1,-1,-1,-1,-1,-1,-1,-1,-1],"loss_changes":[8.204279E-1,2.4243143E-1,1.5752578E-1,5.980131E-2,2.7826305E-2,3.050685E-2,4.5078933E-2,1.3142824E-2,2.0891756E-2,1.1879973E-2,8.870821E-3,6.582059E-3,3.5585612E-3,5.347818E-3,1.0437965E-3,0E0,0E0,0E0,0E0,0E0,0E0,0E0,0E0,0E0,0E0,0E0,0E0,0E0,0E0,0E0,0E0],"parents":[2147483647,0,0,1,1,2,2,3,3,4,4,5,5,6,6,7,7,8,8,9,9,10,10,11,11,12,12,13,13,14,14],"right_children":[2,4,6,8,10,12,14,16,18,20,22,24,26,28,30,-1,-1,-1,-1,-1,-1,-1,-1,-1,-1,-1,-1,-1,-1,-1,-1],"split_conditions":[7.1955286E-3,-1.680113E-2,3.6376607E-2,-3.856927E-2,-4.7623506E-3,2.0898057E-2,7.347933E-2,-1.9135252E0,1.8747604E0,2E0,2E0,2E0,1.9125205E0,-1.7502073E0,3.2153306E0,5.1054935E-4,-1.1692736E-3,-5.8353285E-4,4.424647E-4,-1.3421838E-4,-4.0031935E-4,9.666767E-5,-1.1741149E-4,3.9699805E-4,1.7963715E-4,6.818972E-4,-6.460598E-5,-1.7534354E-4,1.1109508E-3,2.3958336E-3,2.8294465E-4],"split_indices":[14,13,13,14,13,13,13,447,168,6,6,6,91,335,52,0,0,0,0,0,0,0,0,0,0,0,0,0,0,0,0],"split_type":[0,0,0,0,0,0,0,0,0,0,0,0,0,0,0,0,0,0,0,0,0,0,0,0,0,0,0,0,0,0,0],"sum_hessian":[2.219E3,1.429E3,7.9E2,4.85E2,9.44E2,6.33E2,1.57E2,1.3E2,3.55E2,4.33E2,5.11E2,3.9E2,2.43E2,1.38E2,1.9E1,1E0,1.29E2,3.46E2,9E0,3.03E2,1.3E2,3.68E2,1.43E2,2.76E2,1.14E2,2.4E2,3E0,1E0,1.37E2,1.8E1,1E0],"tree_param":{"num_deleted":"0","num_feature":"460","num_nodes":"31","size_leaf_vector":"0"}},{"base_weights":[1.4926624E-3,-1.2799015E-2,2.7294938E-2,-3.0897023E-2,-3.432357E-3,2.0086503E-2,5.5436686E-2,-4.9240466E-2,-2.3823367E-2,-9.301541E-3,1.566206E-3,1.44186765E-2,2.8896242E-2,4.7218192E-2,1.005502E-1,5.1054935E-4,-1.1692736E-3,-5.8353285E-4,4.424647E-4,-1.3421838E-4,-4.0031935E-4,9.666767E-5,-1.1741149E-4,3.9699805E-4,1.7963715E-4,6.818972E-4,-6.460598E-5,-1.7534354E-4,1.1109508E-3,2.3958336E-3,2.8294465E-4],"categories":[],"categories_nodes":[],"categories_segments":[],"categories_sizes":[],"default_left":[0,0,0,0,0,0,0,0,0,0,0,0,0,0,0,0,0,0,0,0,0,0,0,0,0,0,0,0,0,0,0],"id":23,"left_children":[1,3,5,7,9,11,13,15,17,19,21,23,25,27,29,-1,-1,-1,-1,-1,-1,-1,-1,-1,-1,-1,-1,-1,-1,-1,-1],"loss_changes":[8.204279E-1,2.4243143E-1,1.5752578E-1,5.980131E-2,2.7826305E-2,3.050685E-2,4.5078933E-2,1.3142824E-2,2.0891756E-2,1.1879973E-2,8.870821E-3,6.582059E-3,3.5585612E-3,5.347818E-3,1.0437965E-3,0E0,0E0,0E0,0E0,0E0,0E0,0E0,0E0,0E0,0E0,0E0,0E0,0E0,0E0,0E0,0E0],"parents":[2147483647,0,0,1,1,2,2,3,3,4,4,5,5,6,6,7,7,8,8,9,9,10,10,11,11,12,12,13,13,14,14],"right_children":[2,4,6,8,10,12,14,16,18,20,22,24,26,28,30,-1,-1,-1,-1,-1,-1,-1,-1,-1,-1,-1,-1,-1,-1,-1,-1],"split_conditions":[7.1955286E-3,-1.680113E-2,3.6376607E-2,-3.856927E-2,-4.7623506E-3,2.0898057E-2,7.347933E-2,-1.9135252E0,1.8747604E0,2E0,2E0,2E0,1.9125205E0,-1.7502073E0,3.2153306E0,5.1054935E-4,-1.1692736E-3,-5.8353285E-4,4.424647E-4,-1.3421838E-4,-4.0031935E-4,9.666767E-5,-1.1741149E-4,3.9699805E-4,1.7963715E-4,6.818972E-4,-6.460598E-5,-1.7534354E-4,1.1109508E-3,2.3958336E-3,2.8294465E-4],"split_indices":[13,14,14,13,13,13,13,443,168,6,6,6,91,339,52,0,0,0,0,0,0,0,0,0,0,0,0,0,0,0,0],"split_type":[0,0,0,0,0,0,0,0,0,0,0,0,0,0,0,0,0,0,0,0,0,0,0,0,0,0,0,0,0,0,0],"sum_hessian":[2.219E3,1.429E3,7.9E2,4.85E2,9.44E2,6.33E2,1.57E2,1.3E2,3.55E2,4.33E2,5.11E2,3.9E2,2.43E2,1.38E2,1.9E1,1E0,1.29E2,3.46E2,9E0,3.03E2,1.3E2,3.68E2,1.43E2,2.76E2,1.14E2,2.4E2,3E0,1E0,1.37E2,1.8E1,1E0],"tree_param":{"num_deleted":"0","num_feature":"460","num_nodes":"31","size_leaf_vector":"0"}},{"base_weights":[1.4926624E-3,-1.2799015E-2,2.7294938E-2,-3.0897023E-2,-3.432357E-3,2.0086503E-2,5.5436686E-2,-4.9240466E-2,-2.3823367E-2,-9.301541E-3,1.566206E-3,1.44186765E-2,2.8896242E-2,4.7218192E-2,1.005502E-1,5.1054935E-4,-1.1692736E-3,-5.8353285E-4,4.424647E-4,-1.3421838E-4,-4.0031935E-4,9.666767E-5,-1.1741149E-4,3.9699805E-4,1.7963715E-4,6.818972E-4,-6.460598E-5,-1.7534354E-4,1.1109508E-3,2.3958336E-3,2.8294465E-4],"categories":[],"categories_nodes":[],"categories_segments":[],"categories_sizes":[],"default_left":[0,0,0,0,0,0,0,0,0,0,0,0,0,0,0,0,0,0,0,0,0,0,0,0,0,0,0,0,0,0,0],"id":24,"left_children":[1,3,5,7,9,11,13,15,17,19,21,23,25,27,29,-1,-1,-1,-1,-1,-1,-1,-1,-1,-1,-1,-1,-1,-1,-1,-1],"loss_changes":[8.204279E-1,2.4243143E-1,1.5752578E-1,5.980131E-2,2.7826305E-2,3.050685E-2,4.5078933E-2,1.3142824E-2,2.0891756E-2,1.1879973E-2,8.870821E-3,6.582059E-3,3.5585612E-3,5.347818E-3,1.0437965E-3,0E0,0E0,0E0,0E0,0E0,0E0,0E0,0E0,0E0,0E0,0E0,0E0,0E0,0E0,0E0,0E0],"parents":[2147483647,0,0,1,1,2,2,3,3,4,4,5,5,6,6,7,7,8,8,9,9,10,10,11,11,12,12,13,13,14,14],"right_children":[2,4,6,8,10,12,14,16,18,20,22,24,26,28,30,-1,-1,-1,-1,-1,-1,-1,-1,-1,-1,-1,-1,-1,-1,-1,-1],"split_conditions":[7.1955286E-3,-1.680113E-2,3.6376607E-2,-3.856927E-2,-4.7623506E-3,2.0898057E-2,7.347933E-2,-1.9135252E0,1.8747604E0,2E0,2E0,2E0,1.9125205E0,-1.7502073E0,3.2153306E0,5.1054935E-4,-1.1692736E-3,-5.8353285E-4,4.424647E-4,-1.3421838E-4,-4.0031935E-4,9.666767E-5,-1.1741149E-4,3.9699805E-4,1.7963715E-4,6.818972E-4,-6.460598E-5,-1.7534354E-4,1.1109508E-3,2.3958336E-3,2.8294465E-4],"split_indices":[14,13,13,13,13,13,13,443,168,6,6,6,91,335,52,0,0,0,0,0,0,0,0,0,0,0,0,0,0,0,0],"split_type":[0,0,0,0,0,0,0,0,0,0,0,0,0,0,0,0,0,0,0,0,0,0,0,0,0,0,0,0,0,0,0],"sum_hessian":[2.219E3,1.429E3,7.9E2,4.85E2,9.44E2,6.33E2,1.57E2,1.3E2,3.55E2,4.33E2,5.11E2,3.9E2,2.43E2,1.38E2,1.9E1,1E0,1.29E2,3.46E2,9E0,3.03E2,1.3E2,3.68E2,1.43E2,2.76E2,1.14E2,2.4E2,3E0,1E0,1.37E2,1.8E1,1E0],"tree_param":{"num_deleted":"0","num_feature":"460","num_nodes":"31","size_leaf_vector":"0"}},{"base_weights":[1.4926624E-3,-1.2799015E-2,2.7294938E-2,-3.0897023E-2,-3.432357E-3,2.0086503E-2,5.5436686E-2,-4.9240466E-2,-2.3823367E-2,-3.3220524E-4,-1.096571E-2,1.44186765E-2,2.8896242E-2,4.7218192E-2,1.005502E-1,5.1054935E-4,-1.1692736E-3,-5.8353285E-4,4.424647E-4,-1.06836385E-4,1.354781E-4,-4.0027182E-4,-1.0948811E-4,3.9699805E-4,1.7963715E-4,6.818972E-4,-6.460598E-5,-1.7534354E-4,1.1109508E-3,2.3958336E-3,2.8294465E-4],"categories":[],"categories_nodes":[],"categories_segments":[],"categories_sizes":[],"default_left":[0,0,0,0,0,0,0,0,0,0,0,0,0,0,0,0,0,0,0,0,0,0,0,0,0,0,0,0,0,0,0],"id":25,"left_children":[1,3,5,7,9,11,13,15,17,19,21,23,25,27,29,-1,-1,-1,-1,-1,-1,-1,-1,-1,-1,-1,-1,-1,-1,-1,-1],"loss_changes":[8.204279E-1,2.4243143E-1,1.5752578E-1,5.980131E-2,2.2105817E-2,3.050685E-2,4.5078933E-2,1.3142824E-2,2.0891756E-2,1.7768007E-2,1.0544527E-2,6.582059E-3,3.5585612E-3,5.347818E-3,1.0437965E-3,0E0,0E0,0E0,0E0,0E0,0E0,0E0,0E0,0E0,0E0,0E0,0E0,0E0,0E0,0E0,0E0],"parents":[2147483647,0,0,1,1,2,2,3,3,4,4,5,5,6,6,7,7,8,8,9,9,10,10,11,11,12,12,13,13,14,14],"right_children":[2,4,6,8,10,12,14,16,18,20,22,24,26,28,30,-1,-1,-1,-1,-1,-1,-1,-1,-1,-1,-1,-1,-1,-1,-1,-1],"split_conditions":[7.1955286E-3,-1.680113E-2,3.6376607E-2,-3.856927E-2,2E0,2.0898057E-2,7.347933E-2,-1.9135252E0,1.8747604E0,-2.2763114E-3,-4.385946E-3,2E0,1.9125205E0,-1.7502073E0,3.2153306E0,5.1054935E-4,-1.1692736E-3,-5.8353285E-4,4.424647E-4,-1.06836385E-4,1.354781E-4,-4.0027182E-4,-1.0948811E-4,3.9699805E-4,1.7963715E-4,6.818972E-4,-6.460598E-5,-1.7534354E-4,1.1109508E-3,2.3958336E-3,2.8294465E-4],"split_indices":[13,13,13,14,6,13,14,443,168,13,13,6,91,335,52,0,0,0,0,0,0,0,0,0,0,0,0,0,0,0,0],"split_type":[0,0,0,0,0,0,0,0,0,0,0,0,0,0,0,0,0,0,0,0,0,0,0,0,0,0,0,0,0,0,0],"sum_hessian":[2.219E3,1.429E3,7.9E2,4.85E2,9.44E2,6.33E2,1.57E2,1.3E2,3.55E2,6.71E2,2.73E2,3.9E2,2.43E2,1.38E2,1.9E1,1E0,1.29E2,3.46E2,9E0,3.97E2,2.74E2,1.34E2,1.39E2,2.76E2,1.14E2,2.4E2,3E0,1E0,1.37E2,1.8E1,1E0],"tree_param":{"num_deleted":"0","num_feature":"460","num_nodes":"31","size_leaf_vector":"0"}},{"base_weights":[1.4926624E-3,-1.2799015E-2,2.7294938E-2,-3.0897023E-2,-3.432357E-3,2.0086503E-2,5.5436686E-2,-4.9240466E-2,-2.3823367E-2,-9.301541E-3,1.566206E-3,1.44186765E-2,2.8896242E-2,4.7218192E-2,1.005502E-1,1.9756528E-4,-1.1701507E-3,-5.8353285E-4,4.424647E-4,-1.3421838E-4,-4.0031935E-4,9.666767E-5,-1.1741149E-4,3.9699805E-4,1.7963715E-4,6.818972E-4,-6.460598E-5,-1.7534354E-4,1.1109508E-3,2.3958336E-3,2.8294465E-4],"categories":[],"categories_nodes":[],"categories_segments":[],"categories_sizes":[],"default_left":[0,0,0,0,0,0,0,0,0,0,0,0,0,0,0,0,0,0,0,0,0,0,0,0,0,0,0,0,0,0,0],"id":26,"left_children":[1,3,5,7,9,11,13,15,17,19,21,23,25,27,29,-1,-1,-1,-1,-1,-1,-1,-1,-1,-1,-1,-1,-1,-1,-1,-1],"loss_changes":[8.204279E-1,2.4243143E-1,1.5752578E-1,5.980131E-2,2.7826305E-2,3.050685E-2,4.5078933E-2,9.544909E-3,2.0891756E-2,1.1879973E-2,8.870821E-3,6.582059E-3,3.5585612E-3,5.347818E-3,1.0437965E-3,0E0,0E0,0E0,0E0,0E0,0E0,0E0,0E0,0E0,0E0,0E0,0E0,0E0,0E0,0E0,0E0],"parents":[2147483647,0,0,1,1,2,2,3,3,4,4,5,5,6,6,7,7,8,8,9,9,10,10,11,11,12,12,13,13,14,14],"right_children":[2,4,6,8,10,12,14,16,18,20,22,24,26,28,30,-1,-1,-1,-1,-1,-1,-1,-1,-1,-1,-1,-1,-1,-1,-1,-1],"split_conditions":[7.1955286E-3,-1.680113E-2,3.6376607E-2,-3.856927E-2,-4.7623506E-3,2.0898057E-2,7.347933E-2,-1.6833344E0,1.8747604E0,2E0,2E0,2E0,1.9125205E0,-1.7502073E0,3.2153306E0,1.9756528E-4,-1.1701507E-3,-5.8353285E-4,4.424647E-4,-1.3421838E-4,-4.0031935E-4,9.666767E-5,-1.1741149E-4,3.9699805E-4,1.7963715E-4,6.818972E-4,-6.460598E-5,-1.7534354E-4,1.1109508E-3,2.3958336E-3,2.8294465E-4],"split_indices":[13,13,13,13,13,14,13,0,168,6,6,6,91,335,52,0,0,0,0,0,0,0,0,0,0,0,0,0,0,0,0],"split_type":[0,0,0,0,0,0,0,0,0,0,0,0,0,0,0,0,0,0,0,0,0,0,0,0,0,0,0,0,0,0,0],"sum_hessian":[2.219E3,1.429E3,7.9E2,4.85E2,9.44E2,6.33E2,1.57E2,1.3E2,3.55E2,4.33E2,5.11E2,3.9E2,2.43E2,1.38E2,1.9E1,2E0,1.28E2,3.46E2,9E0,3.03E2,1.3E2,3.68E2,1.43E2,2.76E2,1.14E2,2.4E2,3E0,1E0,1.37E2,1.8E1,1E0],"tree_param":{"num_deleted":"0","num_feature":"460","num_nodes":"31","size_leaf_vector":"0"}},{"base_weights":[1.4926624E-3,-1.2799015E-2,2.7294938E-2,-3.0897023E-2,-3.432357E-3,2.0086503E-2,5.5436686E-2,-4.6173517E-2,-2.5426388E-2,-9.301541E-3,1.566206E-3,1.44186765E-2,2.8896242E-2,4.7218192E-2,1.005502E-1,-1.1369147E-3,2.7555155E-4,-4.6264942E-4,-7.9382554E-4,-1.3421838E-4,-4.0031935E-4,9.666767E-5,-1.1741149E-4,3.9699805E-4,1.7963715E-4,6.818972E-4,-6.460598E-5,-1.7534354E-4,1.1109508E-3,2.3958336E-3,2.8294465E-4],"categories":[],"categories_nodes":[],"categories_segments":[],"categories_sizes":[],"default_left":[0,0,0,0,0,0,0,0,0,0,0,0,0,0,0,0,0,0,0,0,0,0,0,0,0,0,0,0,0,0,0],"id":27,"left_children":[1,3,5,7,9,11,13,15,17,19,21,23,25,27,29,-1,-1,-1,-1,-1,-1,-1,-1,-1,-1,-1,-1,-1,-1,-1,-1],"loss_changes":[8.204279E-1,2.4243143E-1,1.5752578E-1,3.726116E-2,2.7826305E-2,3.050685E-2,4.5078933E-2,2.142039E-2,1.55956745E-2,1.1879973E-2,8.870821E-3,6.582059E-3,3.5585612E-3,5.347818E-3,1.0437965E-3,0E0,0E0,0E0,0E0,0E0,0E0,0E0,0E0,0E0,0E0,0E0,0E0,0E0,0E0,0E0,0E0],"parents":[2147483647,0,0,1,1,2,2,3,3,4,4,5,5,6,6,7,7,8,8,9,9,10,10,11,11,12,12,13,13,14,14],"right_children":[2,4,6,8,10,12,14,16,18,20,22,24,26,28,30,-1,-1,-1,-1,-1,-1,-1,-1,-1,-1,-1,-1,-1,-1,-1,-1],"split_conditions":[7.1955286E-3,-1.680113E-2,3.6376607E-2,-4.2221554E-2,-4.7623506E-3,2.0898057E-2,7.347933E-2,-2.1579385E-2,2E0,2E0,2E0,2E0,1.9125205E0,-1.7502073E0,3.2153306E0,-1.1369147E-3,2.7555155E-4,-4.6264942E-4,-7.9382554E-4,-1.3421838E-4,-4.0031935E-4,9.666767E-5,-1.1741149E-4,3.9699805E-4,1.7963715E-4,6.818972E-4,-6.460598E-5,-1.7534354E-4,1.1109508E-3,2.3958336E-3,2.8294465E-4],"split_indices":[13,13,13,7,13,13,13,13,6,6,6,6,91,339,52,0,0,0,0,0,0,0,0,0,0,0,0,0,0,0,0],"split_type":[0,0,0,0,0,0,0,0,0,0,0,0,0,0,0,0,0,0,0,0,0,0,0,0,0,0,0,0,0,0,0],"sum_hessian":[2.219E3,1.429E3,7.9E2,4.85E2,9.44E2,6.33E2,1.57E2,1.22E2,3.63E2,4.33E2,5.11E2,3.9E2,2.43E2,1.38E2,1.9E1,1.17E2,5E0,2.28E2,1.35E2,3.03E2,1.3E2,3.68E2,1.43E2,2.76E2,1.14E2,2.4E2,3E0,1E0,1.37E2,1.8E1,1E0],"tree_param":{"num_deleted":"0","num_feature":"460","num_nodes":"31","size_leaf_vector":"0"}},{"base_weights":[1.4926624E-3,-1.2799015E-2,2.7294938E-2,-3.4428224E-2,-6.228304E-3,2.0086503E-2,5.5436686E-2,-5.108541E-2,-2.419815E-2,-1.8907176E-2,-1.3271781E-3,1.44186765E-2,2.8896242E-2,4.7218192E-2,1.005502E-1,5.1054935E-4,-1.2142948E-3,-6.2487496E-4,-2.2893806E-4,-4.7527743E-4,8.9667365E-4,3.254437E-5,-1.9278005E-4,3.9699805E-4,1.7963715E-4,6.818972E-4,-6.460598E-5,-1.7534354E-4,1.1109508E-3,2.3958336E-3,2.8294465E-4],"categories":[],"categories_nodes":[],"categories_segments":[],"categories_sizes":[],"default_left":[0,0,0,0,0,0,0,0,0,0,0,0,0,0,0,0,0,0,0,0,0,0,0,0,0,0,0,0,0,0,0],"id":28,"left_children":[1,3,5,7,9,11,13,15,17,19,21,23,25,27,29,-1,-1,-1,-1,-1,-1,-1,-1,-1,-1,-1,-1,-1,-1,-1,-1],"loss_changes":[8.204279E-1,2.028715E-1,1.5752578E-1,5.3036124E-2,6.8403825E-2,3.050685E-2,4.5078933E-2,1.3666511E-2,7.335767E-3,2.9351093E-2,1.5183622E-2,6.582059E-3,3.5585612E-3,5.347818E-3,1.0437965E-3,0E0,0E0,0E0,0E0,0E0,0E0,0E0,0E0,0E0,0E0,0E0,0E0,0E0,0E0,0E0,0E0],"parents":[2147483647,0,0,1,1,2,2,3,3,4,4,5,5,6,6,7,7,8,8,9,9,10,10,11,11,12,12,13,13,14,14],"right_children":[2,4,6,8,10,12,14,16,18,20,22,24,26,28,30,-1,-1,-1,-1,-1,-1,-1,-1,-1,-1,-1,-1,-1,-1,-1,-1],"split_conditions":[7.1955286E-3,-1.0624758E0,3.6376607E-2,-3.856927E-2,-1.1957504E-2,2.0898057E-2,7.347933E-2,-1.9135252E0,-1.7146042E-2,1.8545098E0,2E0,2E0,1.9125205E0,-1.7502073E0,3.2153306E0,5.1054935E-4,-1.2142948E-3,-6.2487496E-4,-2.2893806E-4,-4.7527743E-4,8.9667365E-4,3.254437E-5,-1.9278005E-4,3.9699805E-4,1.7963715E-4,6.818972E-4,-6.460598E-5,-1.7534354E-4,1.1109508E-3,2.3958336E-3,2.8294465E-4],"split_indices":[13,43,14,13,13,13,13,443,13,168,6,6,91,335,56,0,0,0,0,0,0,0,0,0,0,0,0,0,0,0,0],"split_type":[0,0,0,0,0,0,0,0,0,0,0,0,0,0,0,0,0,0,0,0,0,0,0,0,0,0,0,0,0,0,0],"sum_hessian":[2.219E3,1.429E3,7.9E2,3.3E2,1.099E3,6.33E2,1.57E2,1.21E2,2.09E2,3.04E2,7.95E2,3.9E2,2.43E2,1.38E2,1.9E1,1E0,1.2E2,1.74E2,3.5E1,2.98E2,6E0,5.73E2,2.22E2,2.76E2,1.14E2,2.4E2,3E0,1E0,1.37E2,1.8E1,1E0],"tree_param":{"num_deleted":"0","num_feature":"460","num_nodes":"31","size_leaf_vector":"0"}},{"base_weights":[1.4926624E-3,-1.2799015E-2,2.7294938E-2,-3.0897023E-2,-3.432357E-3,2.0086503E-2,5.5436686E-2,-4.9240466E-2,-2.3823367E-2,-9.301541E-3,1.566206E-3,1.44186765E-2,2.8896242E-2,4.7218192E-2,1.005502E-1,5.1054935E-4,-1.1692736E-3,-5.8353285E-4,4.424647E-4,-1.3421838E-4,-4.0031935E-4,9.666767E-5,-1.1741149E-4,3.9699805E-4,1.7963715E-4,6.818972E-4,-6.460598E-5,1.5765667E-4,1.1221033E-3,2.3958336E-3,2.8294465E-4],"categories":[],"categories_nodes":[],"categories_segments":[],"categories_sizes":[],"default_left":[0,0,0,0,0,0,0,0,0,0,0,0,0,0,0,0,0,0,0,0,0,0,0,0,0,0,0,0,0,0,0],"id":29,"left_children":[1,3,5,7,9,11,13,15,17,19,21,23,25,27,29,-1,-1,-1,-1,-1,-1,-1,-1,-1,-1,-1,-1,-1,-1,-1,-1],"loss_changes":[8.204279E-1,2.4243143E-1,1.5752578E-1,5.980131E-2,2.7826305E-2,3.050685E-2,4.5078933E-2,1.3142824E-2,2.0891756E-2,1.1879973E-2,8.870821E-3,6.582059E-3,3.5585612E-3,4.9045086E-3,1.0437965E-3,0E0,0E0,0E0,0E0,0E0,0E0,0E0,0E0,0E0,0E0,0E0,0E0,0E0,0E0,0E0,0E0],"parents":[2147483647,0,0,1,1,2,2,3,3,4,4,5,5,6,6,7,7,8,8,9,9,10,10,11,11,12,12,13,13,14,14],"right_children":[2,4,6,8,10,12,14,16,18,20,22,24,26,28,30,-1,-1,-1,-1,-1,-1,-1,-1,-1,-1,-1,-1,-1,-1,-1,-1],"split_conditions":[7.1955286E-3,-1.680113E-2,3.6376607E-2,-3.856927E-2,-4.7623506E-3,2.0898057E-2,7.347933E-2,-1.9135252E0,1.8747604E0,2E0,2E0,2E0,1.9125205E0,-1.9343623E0,3.2153306E0,5.1054935E-4,-1.1692736E-3,-5.8353285E-4,4.424647E-4,-1.3421838E-4,-4.0031935E-4,9.666767E-5,-1.1741149E-4,3.9699805E-4,1.7963715E-4,6.818972E-4,-6.460598E-5,1.5765667E-4,1.1221033E-3,2.3958336E-3,2.8294465E-4],"split_indices":[13,13,14,13,13,13,13,443,172,6,6,6,95,197,52,0,0,0,0,0,0,0,0,0,0,0,0,0,0,0,0],"split_type":[0,0,0,0,0,0,0,0,0,0,0,0,0,0,0,0,0,0,0,0,0,0,0,0,0,0,0,0,0,0,0],"sum_hessian":[2.219E3,1.429E3,7.9E2,4.85E2,9.44E2,6.33E2,1.57E2,1.3E2,3.55E2,4.33E2,5.11E2,3.9E2,2.43E2,1.38E2,1.9E1,1E0,1.29E2,3.46E2,9E0,3.03E2,1.3E2,3.68E2,1.43E2,2.76E2,1.14E2,2.4E2,3E0,4E0,1.34E2,1.8E1,1E0],"tree_param":{"num_deleted":"0","num_feature":"460","num_nodes":"31","size_leaf_vector":"0"}},{"base_weights":[1.4926624E-3,-1.2799015E-2,2.7294938E-2,-3.0897023E-2,-3.432357E-3,2.0086503E-2,5.5436686E-2,-4.9240466E-2,-2.3823367E-2,-9.301541E-3,1.566206E-3,1.44186765E-2,2.8896242E-2,4.7218192E-2,1.005502E-1,5.1054935E-4,-1.1692736E-3,-5.8353285E-4,4.424647E-4,-2.3251085E-4,3.6433223E-4,9.666767E-5,-1.1741149E-4,-3.3631176E-4,3.413339E-4,6.818972E-4,-6.460598E-5,-1.7534354E-4,1.1109508E-3,2.3958336E-3,2.8294465E-4],"categories":[],"categories_nodes":[],"categories_segments":[],"categories_sizes":[],"default_left":[0,0,0,0,0,0,0,0,0,0,0,0,0,0,0,0,0,0,0,0,0,0,0,0,0,0,0,0,0,0,0],"id":30,"left_children":[1,3,5,7,9,11,13,15,17,19,21,23,25,27,29,-1,-1,-1,-1,-1,-1,-1,-1,-1,-1,-1,-1,-1,-1,-1,-1],"loss_changes":[8.204279E-1,2.4243143E-1,1.5752578E-1,5.980131E-2,2.7826305E-2,3.050685E-2,4.5078933E-2,1.3142824E-2,2.0891756E-2,8.051157E-3,8.870821E-3,3.5727546E-3,3.5585612E-3,5.347818E-3,1.0437965E-3,0E0,0E0,0E0,0E0,0E0,0E0,0E0,0E0,0E0,0E0,0E0,0E0,0E0,0E0,0E0,0E0],"parents":[2147483647,0,0,1,1,2,2,3,3,4,4,5,5,6,6,7,7,8,8,9,9,10,10,11,11,12,12,13,13,14,14],"right_children":[2,4,6,8,10,12,14,16,18,20,22,24,26,28,30,-1,-1,-1,-1,-1,-1,-1,-1,-1,-1,-1,-1,-1,-1,-1,-1],"split_conditions":[7.1955286E-3,-1.680113E-2,3.6376607E-2,-3.856927E-2,-4.7623506E-3,2.0898057E-2,7.347933E-2,-1.9135252E0,1.8747604E0,1.9191991E0,2E0,-2.267173E0,1.9125205E0,-1.7502073E0,3.2153306E0,5.1054935E-4,-1.1692736E-3,-5.8353285E-4,4.424647E-4,-2.3251085E-4,3.6433223E-4,9.666767E-5,-1.1741149E-4,-3.3631176E-4,3.413339E-4,6.818972E-4,-6.460598E-5,-1.7534354E-4,1.1109508E-3,2.3958336E-3,2.8294465E-4],"split_indices":[14,13,13,13,13,13,13,443,168,233,6,76,95,335,52,0,0,0,0,0,0,0,0,0,0,0,0,0,0,0,0],"split_type":[0,0,0,0,0,0,0,0,0,0,0,0,0,0,0,0,0,0,0,0,0,0,0,0,0,0,0,0,0,0,0],"sum_hessian":[2.219E3,1.429E3,7.9E2,4.85E2,9.44E2,6.33E2,1.57E2,1.3E2,3.55E2,4.33E2,5.11E2,3.9E2,2.43E2,1.38E2,1.9E1,1E0,1.29E2,3.46E2,9E0,4.23E2,1E1,3.68E2,1.43E2,2E0,3.88E2,2.4E2,3E0,1E0,1.37E2,1.8E1,1E0],"tree_param":{"num_deleted":"0","num_feature":"460","num_nodes":"31","size_leaf_vector":"0"}},{"base_weights":[1.4926624E-3,-1.2799015E-2,2.7294938E-2,-3.4428224E-2,-6.228304E-3,2.0086503E-2,5.5436686E-2,-5.108541E-2,-2.419815E-2,-1.8907176E-2,-1.3271781E-3,1.44186765E-2,2.8896242E-2,4.7218192E-2,1.005502E-1,5.1054935E-4,-1.2142948E-3,-6.2487496E-4,-2.2893806E-4,-4.7527743E-4,8.9667365E-4,3.254437E-5,-1.9278005E-4,3.9699805E-4,1.7963715E-4,6.818972E-4,-6.460598E-5,-1.7534354E-4,1.1109508E-3,2.3958336E-3,2.8294465E-4],"categories":[],"categories_nodes":[],"categories_segments":[],"categories_sizes":[],"default_left":[0,0,0,0,0,0,0,0,0,0,0,0,0,0,0,0,0,0,0,0,0,0,0,0,0,0,0,0,0,0,0],"id":31,"left_children":[1,3,5,7,9,11,13,15,17,19,21,23,25,27,29,-1,-1,-1,-1,-1,-1,-1,-1,-1,-1,-1,-1,-1,-1,-1,-1],"loss_changes":[8.204279E-1,2.028715E-1,1.5752578E-1,5.3036124E-2,6.8403825E-2,3.050685E-2,4.5078933E-2,1.3666511E-2,7.335767E-3,2.9351093E-2,1.5183622E-2,6.582059E-3,3.5585612E-3,5.347818E-3,1.0437965E-3,0E0,0E0,0E0,0E0,0E0,0E0,0E0,0E0,0E0,0E0,0E0,0E0,0E0,0E0,0E0,0E0],"parents":[2147483647,0,0,1,1,2,2,3,3,4,4,5,5,6,6,7,7,8,8,9,9,10,10,11,11,12,12,13,13,14,14],"right_children":[2,4,6,8,10,12,14,16,18,20,22,24,26,28,30,-1,-1,-1,-1,-1,-1,-1,-1,-1,-1,-1,-1,-1,-1,-1,-1],"split_conditions":[7.1955286E-3,-1.0624758E0,3.6376607E-2,-3.856927E-2,-1.1957504E-2,2.0898057E-2,7.347933E-2,-1.9135252E0,-1.7146042E-2,1.8545098E0,2E0,2E0,1.9125205E0,-1.7502073E0,3.2153306E0,5.1054935E-4,-1.2142948E-3,-6.2487496E-4,-2.2893806E-4,-4.7527743E-4,8.9667365E-4,3.254437E-5,-1.9278005E-4,3.9699805E-4,1.7963715E-4,6.818972E-4,-6.460598E-5,-1.7534354E-4,1.1109508E-3,2.3958336E-3,2.8294465E-4],"split_indices":[13,43,13,13,13,14,13,443,14,168,6,6,91,335,56,0,0,0,0,0,0,0,0,0,0,0,0,0,0,0,0],"split_type":[0,0,0,0,0,0,0,0,0,0,0,0,0,0,0,0,0,0,0,0,0,0,0,0,0,0,0,0,0,0,0],"sum_hessian":[2.219E3,1.429E3,7.9E2,3.3E2,1.099E3,6.33E2,1.57E2,1.21E2,2.09E2,3.04E2,7.95E2,3.9E2,2.43E2,1.38E2,1.9E1,1E0,1.2E2,1.74E2,3.5E1,2.98E2,6E0,5.73E2,2.22E2,2.76E2,1.14E2,2.4E2,3E0,1E0,1.37E2,1.8E1,1E0],"tree_param":{"num_deleted":"0","num_feature":"460","num_nodes":"31","size_leaf_vector":"0"}},{"base_weights":[1.4926624E-3,-1.2799015E-2,2.7294938E-2,-3.0897023E-2,-3.432357E-3,2.0086503E-2,5.5436686E-2,-4.9240466E-2,-2.3823367E-2,-9.301541E-3,1.566206E-3,1.44186765E-2,2.8896242E-2,4.7218192E-2,1.005502E-1,5.1054935E-4,-1.1692736E-3,-5.8353285E-4,4.424647E-4,-1.3421838E-4,-4.0031935E-4,-1.7233151E-5,1.0395616E-4,3.9699805E-4,1.7963715E-4,6.807036E-4,-1.626604E-5,-1.7534354E-4,1.1109508E-3,2.3958336E-3,2.8294465E-4],"categories":[],"categories_nodes":[],"categories_segments":[],"categories_sizes":[],"default_left":[0,0,0,0,0,0,0,0,0,0,0,0,0,0,0,0,0,0,0,0,0,0,0,0,0,0,0,0,0,0,0],"id":32,"left_children":[1,3,5,7,9,11,13,15,17,19,21,23,25,27,29,-1,-1,-1,-1,-1,-1,-1,-1,-1,-1,-1,-1,-1,-1,-1,-1],"loss_changes":[8.204279E-1,2.4243143E-1,1.5752578E-1,5.980131E-2,2.7826305E-2,3.050685E-2,4.5078933E-2,1.3142824E-2,2.0891756E-2,1.1879973E-2,3.453733E-3,6.582059E-3,2.7844459E-3,5.347818E-3,1.0437965E-3,0E0,0E0,0E0,0E0,0E0,0E0,0E0,0E0,0E0,0E0,0E0,0E0,0E0,0E0,0E0,0E0],"parents":[2147483647,0,0,1,1,2,2,3,3,4,4,5,5,6,6,7,7,8,8,9,9,10,10,11,11,12,12,13,13,14,14],"right_children":[2,4,6,8,10,12,14,16,18,20,22,24,26,28,30,-1,-1,-1,-1,-1,-1,-1,-1,-1,-1,-1,-1,-1,-1,-1,-1],"split_conditions":[7.1955286E-3,-1.680113E-2,3.6376607E-2,-3.856927E-2,-4.7623506E-3,2.0898057E-2,7.347933E-2,-1.9135252E0,1.8747604E0,2E0,1.852603E-3,2E0,2.475947E0,-1.7502073E0,3.2153306E0,5.1054935E-4,-1.1692736E-3,-5.8353285E-4,4.424647E-4,-1.3421838E-4,-4.0031935E-4,-1.7233151E-5,1.0395616E-4,3.9699805E-4,1.7963715E-4,6.807036E-4,-1.626604E-5,-1.7534354E-4,1.1109508E-3,2.3958336E-3,2.8294465E-4],"split_indices":[13,13,13,13,13,13,14,443,168,6,13,6,69,335,52,0,0,0,0,0,0,0,0,0,0,0,0,0,0,0,0],"split_type":[0,0,0,0,0,0,0,0,0,0,0,0,0,0,0,0,0,0,0,0,0,0,0,0,0,0,0,0,0,0,0],"sum_hessian":[2.219E3,1.429E3,7.9E2,4.85E2,9.44E2,6.33E2,1.57E2,1.3E2,3.55E2,4.33E2,5.11E2,3.9E2,2.43E2,1.38E2,1.9E1,1E0,1.29E2,3.46E2,9E0,3.03E2,1.3E2,2.86E2,2.25E2,2.76E2,1.14E2,2.4E2,3E0,1E0,1.37E2,1.8E1,1E0],"tree_param":{"num_deleted":"0","num_feature":"460","num_nodes":"31","size_leaf_vector":"0"}},{"base_weights":[1.4926624E-3,-1.2799015E-2,2.7294938E-2,-3.0897023E-2,-3.432357E-3,2.0086503E-2,5.5436686E-2,-4.9240466E-2,-2.3823367E-2,-9.301541E-3,1.566206E-3,1.44186765E-2,2.8896242E-2,4.609517E-2,9.130707E-2,5.1054935E-4,-1.1692736E-3,-5.8353285E-4,4.424647E-4,-1.3421838E-4,-4.0031935E-4,-1.7233151E-5,1.0395616E-4,3.9699805E-4,1.7963715E-4,6.818972E-4,-6.460598E-5,1.7854092E-5,1.0958946E-3,2.2221399E-3,2.9653797E-4],"categories":[],"categories_nodes":[],"categories_segments":[],"categories_sizes":[],"default_left":[0,0,0,0,0,0,0,0,0,0,0,0,0,0,0,0,0,0,0,0,0,0,0,0,0,0,0,0,0,0,0],"id":33,"left_children":[1,3,5,7,9,11,13,15,17,19,21,23,25,27,29,-1,-1,-1,-1,-1,-1,-1,-1,-1,-1,-1,-1,-1,-1,-1,-1],"loss_changes":[8.204279E-1,2.4243143E-1,1.5752578E-1,5.980131E-2,2.7826305E-2,3.050685E-2,4.0986955E-2,1.3142824E-2,2.0891756E-2,1.1879973E-2,3.453733E-3,6.582059E-3,3.5585612E-3,6.090611E-3,6.3487887E-3,0E0,0E0,0E0,0E0,0E0,0E0,0E0,0E0,0E0,0E0,0E0,0E0,0E0,0E0,0E0,0E0],"parents":[2147483647,0,0,1,1,2,2,3,3,4,4,5,5,6,6,7,7,8,8,9,9,10,10,11,11,12,12,13,13,14,14],"right_children":[2,4,6,8,10,12,14,16,18,20,22,24,26,28,30,-1,-1,-1,-1,-1,-1,-1,-1,-1,-1,-1,-1,-1,-1,-1,-1],"split_conditions":[7.1955286E-3,-1.680113E-2,3.6376607E-2,-3.856927E-2,-4.7623506E-3,2.0898057E-2,9.323189E-2,-1.9135252E0,1.8747604E0,2E0,1.852603E-3,2E0,1.9125205E0,-1.700922E0,1.8843281E0,5.1054935E-4,-1.1692736E-3,-5.8353285E-4,4.424647E-4,-1.3421838E-4,-4.0031935E-4,-1.7233151E-5,1.0395616E-4,3.9699805E-4,1.7963715E-4,6.818972E-4,-6.460598E-5,1.7854092E-5,1.0958946E-3,2.2221399E-3,2.9653797E-4],"split_indices":[13,13,13,13,13,13,11,443,168,6,13,6,95,171,25,0,0,0,0,0,0,0,0,0,0,0,0,0,0,0,0],"split_type":[0,0,0,0,0,0,0,0,0,0,0,0,0,0,0,0,0,0,0,0,0,0,0,0,0,0,0,0,0,0,0],"sum_hessian":[2.219E3,1.429E3,7.9E2,4.85E2,9.44E2,6.33E2,1.57E2,1.3E2,3.55E2,4.33E2,5.11E2,3.9E2,2.43E2,1.3E2,2.7E1,1E0,1.29E2,3.46E2,9E0,3.03E2,1.3E2,2.86E2,2.25E2,2.76E2,1.14E2,2.4E2,3E0,3E0,1.27E2,2.5E1,2E0],"tree_param":{"num_deleted":"0","num_feature":"460","num_nodes":"31","size_leaf_vector":"0"}},{"base_weights":[1.4926624E-3,-1.2799015E-2,2.7294938E-2,-3.0897023E-2,-3.432357E-3,2.0086503E-2,5.5436686E-2,-4.9240466E-2,-2.3823367E-2,-9.301541E-3,1.566206E-3,1.44186765E-2,2.8896242E-2,4.7218192E-2,1.005502E-1,5.1054935E-4,-1.1692736E-3,-5.8353285E-4,4.424647E-4,-1.3421838E-4,-4.0031935E-4,9.666767E-5,-1.1741149E-4,-3.3631176E-4,3.413339E-4,6.818972E-4,-6.460598E-5,-1.7534354E-4,1.1109508E-3,2.3958336E-3,2.8294465E-4],"categories":[],"categories_nodes":[],"categories_segments":[],"categories_sizes":[],"default_left":[0,0,0,0,0,0,0,0,0,0,0,0,0,0,0,0,0,0,0,0,0,0,0,0,0,0,0,0,0,0,0],"id":34,"left_children":[1,3,5,7,9,11,13,15,17,19,21,23,25,27,29,-1,-1,-1,-1,-1,-1,-1,-1,-1,-1,-1,-1,-1,-1,-1,-1],"loss_changes":[8.204279E-1,2.4243143E-1,1.5752578E-1,5.980131E-2,2.7826305E-2,3.050685E-2,4.5078933E-2,1.3142824E-2,2.0891756E-2,1.1879973E-2,8.870821E-3,3.5727546E-3,3.5585612E-3,5.347818E-3,1.0437965E-3,0E0,0E0,0E0,0E0,0E0,0E0,0E0,0E0,0E0,0E0,0E0,0E0,0E0,0E0,0E0,0E0],"parents":[2147483647,0,0,1,1,2,2,3,3,4,4,5,5,6,6,7,7,8,8,9,9,10,10,11,11,12,12,13,13,14,14],"right_children":[2,4,6,8,10,12,14,16,18,20,22,24,26,28,30,-1,-1,-1,-1,-1,-1,-1,-1,-1,-1,-1,-1,-1,-1,-1,-1],"split_conditions":[7.1955286E-3,-1.680113E-2,3.6376607E-2,-3.856927E-2,-4.7623506E-3,2.0898057E-2,7.347933E-2,-1.9135252E0,1.8747604E0,2E0,2E0,-2.267173E0,1.9125205E0,-1.7502073E0,3.2153306E0,5.1054935E-4,-1.1692736E-3,-5.8353285E-4,4.424647E-4,-1.3421838E-4,-4.0031935E-4,9.666767E-5,-1.1741149E-4,-3.3631176E-4,3.413339E-4,6.818972E-4,-6.460598E-5,-1.7534354E-4,1.1109508E-3,2.3958336E-3,2.8294465E-4],"split_indices":[13,13,13,13,13,13,13,443,168,6,6,80,91,335,52,0,0,0,0,0,0,0,0,0,0,0,0,0,0,0,0],"split_type":[0,0,0,0,0,0,0,0,0,0,0,0,0,0,0,0,0,0,0,0,0,0,0,0,0,0,0,0,0,0,0],"sum_hessian":[2.219E3,1.429E3,7.9E2,4.85E2,9.44E2,6.33E2,1.57E2,1.3E2,3.55E2,4.33E2,5.11E2,3.9E2,2.43E2,1.38E2,1.9E1,1E0,1.29E2,3.46E2,9E0,3.03E2,1.3E2,3.68E2,1.43E2,2E0,3.88E2,2.4E2,3E0,1E0,1.37E2,1.8E1,1E0],"tree_param":{"num_deleted":"0","num_feature":"460","num_nodes":"31","size_leaf_vector":"0"}},{"base_weights":[1.4926624E-3,-1.2799015E-2,2.7294938E-2,-3.0897023E-2,-3.432357E-3,2.0086503E-2,5.5436686E-2,-4.9240466E-2,-2.3823367E-2,-9.301541E-3,1.566206E-3,1.44186765E-2,2.8896242E-2,4.7218192E-2,1.005502E-1,5.1054935E-4,-1.1692736E-3,-5.8353285E-4,4.424647E-4,-1.3421838E-4,-4.0031935E-4,-1.7233151E-5,1.0395616E-4,3.9699805E-4,1.7963715E-4,6.818972E-4,-6.460598E-5,-1.7534354E-4,1.1109508E-3,2.3958336E-3,2.8294465E-4],"categories":[],"categories_nodes":[],"categories_segments":[],"categories_sizes":[],"default_left":[0,0,0,0,0,0,0,0,0,0,0,0,0,0,0,0,0,0,0,0,0,0,0,0,0,0,0,0,0,0,0],"id":35,"left_children":[1,3,5,7,9,11,13,15,17,19,21,23,25,27,29,-1,-1,-1,-1,-1,-1,-1,-1,-1,-1,-1,-1,-1,-1,-1,-1],"loss_changes":[8.204279E-1,2.4243143E-1,1.5752578E-1,5.980131E-2,2.7826305E-2,3.050685E-2,4.5078933E-2,1.3142824E-2,2.0891756E-2,1.1879973E-2,3.453733E-3,6.582059E-3,3.5585612E-3,5.347818E-3,1.0437965E-3,0E0,0E0,0E0,0E0,0E0,0E0,0E0,0E0,0E0,0E0,0E0,0E0,0E0,0E0,0E0,0E0],"parents":[2147483647,0,0,1,1,2,2,3,3,4,4,5,5,6,6,7,7,8,8,9,9,10,10,11,11,12,12,13,13,14,14],"right_children":[2,4,6,8,10,12,14,16,18,20,22,24,26,28,30,-1,-1,-1,-1,-1,-1,-1,-1,-1,-1,-1,-1,-1,-1,-1,-1],"split_conditions":[7.1955286E-3,-1.680113E-2,3.6376607E-2,-3.856927E-2,-4.7623506E-3,2.0898057E-2,7.347933E-2,-1.9135252E0,1.8747604E0,2E0,1.852603E-3,2E0,1.9125205E0,-1.7502073E0,3.2153306E0,5.1054935E-4,-1.1692736E-3,-5.8353285E-4,4.424647E-4,-1.3421838E-4,-4.0031935E-4,-1.7233151E-5,1.0395616E-4,3.9699805E-4,1.7963715E-4,6.818972E-4,-6.460598E-5,-1.7534354E-4,1.1109508E-3,2.3958336E-3,2.8294465E-4],"split_indices":[13,13,13,13,13,13,13,443,172,6,14,6,91,335,56,0,0,0,0,0,0,0,0,0,0,0,0,0,0,0,0],"split_type":[0,0,0,0,0,0,0,0,0,0,0,0,0,0,0,0,0,0,0,0,0,0,0,0,0,0,0,0,0,0,0],"sum_hessian":[2.219E3,1.429E3,7.9E2,4.85E2,9.44E2,6.33E2,1.57E2,1.3E2,3.55E2,4.33E2,5.11E2,3.9E2,2.43E2,1.38E2,1.9E1,1E0,1.29E2,3.46E2,9E0,3.03E2,1.3E2,2.86E2,2.25E2,2.76E2,1.14E2,2.4E2,3E0,1E0,1.37E2,1.8E1,1E0],"tree_param":{"num_deleted":"0","num_feature":"460","num_nodes":"31","size_leaf_vector":"0"}},{"base_weights":[1.4926624E-3,-1.2799015E-2,2.7294938E-2,-3.0897023E-2,-3.432357E-3,2.0086503E-2,5.5436686E-2,-4.9240466E-2,-2.3823367E-2,-9.301541E-3,1.566206E-3,1.44186765E-2,2.8896242E-2,4.7218192E-2,1.005502E-1,5.1054935E-4,-1.1692736E-3,-5.8353285E-4,4.424647E-4,-1.3421838E-4,-4.0031935E-4,9.666767E-5,-1.1741149E-4,3.9699805E-4,1.7963715E-4,6.818972E-4,-6.460598E-5,-1.7534354E-4,1.1109508E-3,2.3958336E-3,2.8294465E-4],"categories":[],"categories_nodes":[],"categories_segments":[],"categories_sizes":[],"default_left":[0,0,0,0,0,0,0,0,0,0,0,0,0,0,0,0,0,0,0,0,0,0,0,0,0,0,0,0,0,0,0],"id":36,"left_children":[1,3,5,7,9,11,13,15,17,19,21,23,25,27,29,-1,-1,-1,-1,-1,-1,-1,-1,-1,-1,-1,-1,-1,-1,-1,-1],"loss_changes":[8.204279E-1,2.4243143E-1,1.5752578E-1,5.980131E-2,2.7826305E-2,3.050685E-2,4.5078933E-2,1.3142824E-2,2.0891756E-2,1.1879973E-2,8.870821E-3,6.582059E-3,3.5585612E-3,5.347818E-3,1.0437965E-3,0E0,0E0,0E0,0E0,0E0,0E0,0E0,0E0,0E0,0E0,0E0,0E0,0E0,0E0,0E0,0E0],"parents":[2147483647,0,0,1,1,2,2,3,3,4,4,5,5,6,6,7,7,8,8,9,9,10,10,11,11,12,12,13,13,14,14],"right_children":[2,4,6,8,10,12,14,16,18,20,22,24,26,28,30,-1,-1,-1,-1,-1,-1,-1,-1,-1,-1,-1,-1,-1,-1,-1,-1],"split_conditions":[7.1955286E-3,-1.680113E-2,3.6376607E-2,-3.856927E-2,-4.7623506E-3,2.0898057E-2,7.347933E-2,-1.9135252E0,1.8747604E0,2E0,2E0,2E0,1.9125205E0,-1.7502073E0,3.2153306E0,5.1054935E-4,-1.1692736E-3,-5.8353285E-4,4.424647E-4,-1.3421838E-4,-4.0031935E-4,9.666767E-5,-1.1741149E-4,3.9699805E-4,1.7963715E-4,6.818972E-4,-6.460598E-5,-1.7534354E-4,1.1109508E-3,2.3958336E-3,2.8294465E-4],"split_indices":[13,14,14,13,13,13,13,443,168,6,6,6,95,335,52,0,0,0,0,0,0,0,0,0,0,0,0,0,0,0,0],"split_type":[0,0,0,0,0,0,0,0,0,0,0,0,0,0,0,0,0,0,0,0,0,0,0,0,0,0,0,0,0,0,0],"sum_hessian":[2.219E3,1.429E3,7.9E2,4.85E2,9.44E2,6.33E2,1.57E2,1.3E2,3.55E2,4.33E2,5.11E2,3.9E2,2.43E2,1.38E2,1.9E1,1E0,1.29E2,3.46E2,9E0,3.03E2,1.3E2,3.68E2,1.43E2,2.76E2,1.14E2,2.4E2,3E0,1E0,1.37E2,1.8E1,1E0],"tree_param":{"num_deleted":"0","num_feature":"460","num_nodes":"31","size_leaf_vector":"0"}},{"base_weights":[1.4926624E-3,-1.2799015E-2,2.7294938E-2,-3.0897023E-2,-3.432357E-3,2.0086503E-2,5.5436686E-2,-4.9240466E-2,-2.3823367E-2,-9.301541E-3,1.566206E-3,1.44186765E-2,2.8896242E-2,4.7218192E-2,1.005502E-1,5.1054935E-4,-1.1692736E-3,-5.8353285E-4,4.424647E-4,-1.3421838E-4,-4.0031935E-4,9.666767E-5,-1.1741149E-4,3.9699805E-4,1.7963715E-4,6.818972E-4,-6.460598E-5,-1.7534354E-4,1.1109508E-3,2.3958336E-3,2.8294465E-4],"categories":[],"categories_nodes":[],"categories_segments":[],"categories_sizes":[],"default_left":[0,0,0,0,0,0,0,0,0,0,0,0,0,0,0,0,0,0,0,0,0,0,0,0,0,0,0,0,0,0,0],"id":37,"left_children":[1,3,5,7,9,11,13,15,17,19,21,23,25,27,29,-1,-1,-1,-1,-1,-1,-1,-1,-1,-1,-1,-1,-1,-1,-1,-1],"loss_changes":[8.204279E-1,2.4243143E-1,1.5752578E-1,5.980131E-2,2.7826305E-2,3.050685E-2,4.5078933E-2,1.3142824E-2,2.0891756E-2,1.1879973E-2,8.870821E-3,6.582059E-3,3.5585612E-3,5.347818E-3,1.0437965E-3,0E0,0E0,0E0,0E0,0E0,0E0,0E0,0E0,0E0,0E0,0E0,0E0,0E0,0E0,0E0,0E0],"parents":[2147483647,0,0,1,1,2,2,3,3,4,4,5,5,6,6,7,7,8,8,9,9,10,10,11,11,12,12,13,13,14,14],"right_children":[2,4,6,8,10,12,14,16,18,20,22,24,26,28,30,-1,-1,-1,-1,-1,-1,-1,-1,-1,-1,-1,-1,-1,-1,-1,-1],"split_conditions":[7.1955286E-3,-1.680113E-2,3.6376607E-2,-3.856927E-2,-4.7623506E-3,2.0898057E-2,7.347933E-2,-1.9135252E0,1.8747604E0,2E0,2E0,2E0,1.9125205E0,-1.7502073E0,3.2153306E0,5.1054935E-4,-1.1692736E-3,-5.8353285E-4,4.424647E-4,-1.3421838E-4,-4.0031935E-4,9.666767E-5,-1.1741149E-4,3.9699805E-4,1.7963715E-4,6.818972E-4,-6.460598E-5,-1.7534354E-4,1.1109508E-3,2.3958336E-3,2.8294465E-4],"split_indices":[14,13,14,13,13,13,13,443,168,6,6,6,95,339,56,0,0,0,0,0,0,0,0,0,0,0,0,0,0,0,0],"split_type":[0,0,0,0,0,0,0,0,0,0,0,0,0,0,0,0,0,0,0,0,0,0,0,0,0,0,0,0,0,0,0],"sum_hessian":[2.219E3,1.429E3,7.9E2,4.85E2,9.44E2,6.33E2,1.57E2,1.3E2,3.55E2,4.33E2,5.11E2,3.9E2,2.43E2,1.38E2,1.9E1,1E0,1.29E2,3.46E2,9E0,3.03E2,1.3E2,3.68E2,1.43E2,2.76E2,1.14E2,2.4E2,3E0,1E0,1.37E2,1.8E1,1E0],"tree_param":{"num_deleted":"0","num_feature":"460","num_nodes":"31","size_leaf_vector":"0"}},{"base_weights":[1.4926624E-3,-1.2799015E-2,2.7294938E-2,-3.0897023E-2,-3.432357E-3,2.0086503E-2,5.5436686E-2,-4.9240466E-2,-2.3823367E-2,-8.61165E-3,4.187997E-4,1.44186765E-2,2.8896242E-2,4.7218192E-2,1.005502E-1,5.1054935E-4,-1.1692736E-3,-5.8353285E-4,4.424647E-4,-1.1273611E-4,-4.046183E-4,6.9610614E-5,-1.3729784E-4,3.9699805E-4,1.7963715E-4,6.818972E-4,-6.460598E-5,-1.7534354E-4,1.1109508E-3,2.3958336E-3,2.8294465E-4],"categories":[],"categories_nodes":[],"categories_segments":[],"categories_sizes":[],"default_left":[0,0,0,0,0,0,0,0,0,0,0,0,0,0,0,0,0,0,0,0,0,0,0,0,0,0,0,0,0,0,0],"id":38,"left_children":[1,3,5,7,9,11,13,15,17,19,21,23,25,27,29,-1,-1,-1,-1,-1,-1,-1,-1,-1,-1,-1,-1,-1,-1,-1,-1],"loss_changes":[8.204279E-1,2.4243143E-1,1.5752578E-1,5.980131E-2,1.889994E-2,3.050685E-2,4.5078933E-2,1.3142824E-2,2.0891756E-2,1.3108868E-2,8.940409E-3,6.582059E-3,3.5585612E-3,5.347818E-3,1.0437965E-3,0E0,0E0,0E0,0E0,0E0,0E0,0E0,0E0,0E0,0E0,0E0,0E0,0E0,0E0,0E0,0E0],"parents":[2147483647,0,0,1,1,2,2,3,3,4,4,5,5,6,6,7,7,8,8,9,9,10,10,11,11,12,12,13,13,14,14],"right_children":[2,4,6,8,10,12,14,16,18,20,22,24,26,28,30,-1,-1,-1,-1,-1,-1,-1,-1,-1,-1,-1,-1,-1,-1,-1,-1],"split_conditions":[7.1955286E-3,-1.680113E-2,3.6376607E-2,-3.856927E-2,-2.5245696E-1,2.0898057E-2,7.347933E-2,-1.9135252E0,1.8747604E0,2E0,2E0,2E0,1.9125205E0,-1.7502073E0,3.2153306E0,5.1054935E-4,-1.1692736E-3,-5.8353285E-4,4.424647E-4,-1.1273611E-4,-4.046183E-4,6.9610614E-5,-1.3729784E-4,3.9699805E-4,1.7963715E-4,6.818972E-4,-6.460598E-5,-1.7534354E-4,1.1109508E-3,2.3958336E-3,2.8294465E-4],"split_indices":[13,13,13,13,44,13,13,443,168,6,6,6,91,335,52,0,0,0,0,0,0,0,0,0,0,0,0,0,0,0,0],"split_type":[0,0,0,0,0,0,0,0,0,0,0,0,0,0,0,0,0,0,0,0,0,0,0,0,0,0,0,0,0,0,0],"sum_hessian":[2.219E3,1.429E3,7.9E2,4.85E2,9.44E2,6.33E2,1.57E2,1.3E2,3.55E2,4.01E2,5.43E2,3.9E2,2.43E2,1.38E2,1.9E1,1E0,1.29E2,3.46E2,9E0,2.84E2,1.17E2,3.87E2,1.56E2,2.76E2,1.14E2,2.4E2,3E0,1E0,1.37E2,1.8E1,1E0],"tree_param":{"num_deleted":"0","num_feature":"460","num_nodes":"31","size_leaf_vector":"0"}},{"base_weights":[1.4926624E-3,-1.2799015E-2,2.7294938E-2,-3.0897023E-2,-3.432357E-3,2.0086503E-2,5.5436686E-2,-4.9240466E-2,-2.3823367E-2,-9.301541E-3,1.566206E-3,1.44186765E-2,2.8896242E-2,4.7218192E-2,1.005502E-1,5.1054935E-4,-1.1692736E-3,-5.8353285E-4,4.424647E-4,-1.3421838E-4,-4.0031935E-4,9.666767E-5,-1.1741149E-4,3.9699805E-4,1.7963715E-4,6.818972E-4,-6.460598E-5,-1.7534354E-4,1.1109508E-3,2.3958336E-3,2.8294465E-4],"categories":[],"categories_nodes":[],"categories_segments":[],"categories_sizes":[],"default_left":[0,0,0,0,0,0,0,0,0,0,0,0,0,0,0,0,0,0,0,0,0,0,0,0,0,0,0,0,0,0,0],"id":39,"left_children":[1,3,5,7,9,11,13,15,17,19,21,23,25,27,29,-1,-1,-1,-1,-1,-1,-1,-1,-1,-1,-1,-1,-1,-1,-1,-1],"loss_changes":[8.204279E-1,2.4243143E-1,1.5752578E-1,5.980131E-2,2.7826305E-2,3.050685E-2,4.5078933E-2,1.3142824E-2,2.0891756E-2,1.1879973E-2,8.870821E-3,6.582059E-3,3.5585612E-3,5.347818E-3,1.0437965E-3,0E0,0E0,0E0,0E0,0E0,0E0,0E0,0E0,0E0,0E0,0E0,0E0,0E0,0E0,0E0,0E0],"parents":[2147483647,0,0,1,1,2,2,3,3,4,4,5,5,6,6,7,7,8,8,9,9,10,10,11,11,12,12,13,13,14,14],"right_children":[2,4,6,8,10,12,14,16,18,20,22,24,26,28,30,-1,-1,-1,-1,-1,-1,-1,-1,-1,-1,-1,-1,-1,-1,-1,-1],"split_conditions":[7.1955286E-3,-1.680113E-2,3.6376607E-2,-3.856927E-2,-4.7623506E-3,2.0898057E-2,7.347933E-2,-1.9135252E0,1.8747604E0,2E0,2E0,2E0,1.9125205E0,-1.7502073E0,3.2153306E0,5.1054935E-4,-1.1692736E-3,-5.8353285E-4,4.424647E-4,-1.3421838E-4,-4.0031935E-4,9.666767E-5,-1.1741149E-4,3.9699805E-4,1.7963715E-4,6.818972E-4,-6.460598E-5,-1.7534354E-4,1.1109508E-3,2.3958336E-3,2.8294465E-4],"split_indices":[13,13,13,13,13,14,13,447,168,6,6,6,91,335,52,0,0,0,0,0,0,0,0,0,0,0,0,0,0,0,0],"split_type":[0,0,0,0,0,0,0,0,0,0,0,0,0,0,0,0,0,0,0,0,0,0,0,0,0,0,0,0,0,0,0],"sum_hessian":[2.219E3,1.429E3,7.9E2,4.85E2,9.44E2,6.33E2,1.57E2,1.3E2,3.55E2,4.33E2,5.11E2,3.9E2,2.43E2,1.38E2,1.9E1,1E0,1.29E2,3.46E2,9E0,3.03E2,1.3E2,3.68E2,1.43E2,2.76E2,1.14E2,2.4E2,3E0,1E0,1.37E2,1.8E1,1E0],"tree_param":{"num_deleted":"0","num_feature":"460","num_nodes":"31","size_leaf_vector":"0"}},{"base_weights":[1.4926624E-3,-1.340288E-2,2.5040396E-2,-3.0897023E-2,-3.633688E-3,1.591135E-2,4.8774812E-2,-4.9240466E-2,-2.3823367E-2,-8.889172E-3,2.3753485E-3,1.0173701E-2,2.30509E-2,4.07512E-2,8.65811E-2,5.1054935E-4,-1.1692736E-3,-5.8353285E-4,4.424647E-4,-1.25856E-4,-3.9029238E-4,1.2003214E-4,-1.1120022E-4,1.03879305E-4,3.144583E-4,4.1843014E-4,6.0491974E-4,9.5692556E-4,-2.2653992E-4,2.0626578E-3,4.4174006E-4],"categories":[],"categories_nodes":[],"categories_segments":[],"categories_sizes":[],"default_left":[0,0,0,0,0,0,0,0,0,0,0,0,0,0,0,0,0,0,0,0,0,0,0,0,0,0,0,0,0,0,0],"id":40,"left_children":[1,3,5,7,9,11,13,15,17,19,21,23,25,27,29,-1,-1,-1,-1,-1,-1,-1,-1,-1,-1,-1,-1,-1,-1,-1,-1],"loss_changes":[7.803873E-1,2.3260486E-1,1.844436E-1,5.980131E-2,2.7790934E-2,2.4981037E-2,6.161076E-2,1.3142824E-2,2.0891756E-2,1.2600746E-2,8.289124E-3,6.563466E-3,2.7443618E-3,5.247593E-3,5.158782E-4,0E0,0E0,0E0,0E0,0E0,0E0,0E0,0E0,0E0,0E0,0E0,0E0,0E0,0E0,0E0,0E0],"parents":[2147483647,0,0,1,1,2,2,3,3,4,4,5,5,6,6,7,7,8,8,9,9,10,10,11,11,12,12,13,13,14,14],"right_children":[2,4,6,8,10,12,14,16,18,20,22,24,26,28,30,-1,-1,-1,-1,-1,-1,-1,-1,-1,-1,-1,-1,-1,-1,-1,-1],"split_conditions":[2.1316443E-1,-1.680113E-2,2.970294E-2,-3.856927E-2,-4.194498E-3,1.632513E-2,5.7966407E-2,-1.9135252E0,1.8747604E0,2E0,2E0,7.502478E-3,2.0898057E-2,1.871989E0,1.5022047E0,5.1054935E-4,-1.1692736E-3,-5.8353285E-4,4.424647E-4,-1.25856E-4,-3.9029238E-4,1.2003214E-4,-1.1120022E-4,1.03879305E-4,3.144583E-4,4.1843014E-4,6.0491974E-4,9.5692556E-4,-2.2653992E-4,2.0626578E-3,4.4174006E-4],"split_indices":[44,13,13,13,13,13,14,443,168,6,6,13,13,68,429,0,0,0,0,0,0,0,0,0,0,0,0,0,0,0,0],"split_type":[0,0,0,0,0,0,0,0,0,0,0,0,0,0,0,0,0,0,0,0,0,0,0,0,0,0,0,0,0,0,0],"sum_hessian":[2.219E3,1.36E3,8.59E2,4.85E2,8.75E2,6.24E2,2.35E2,1.3E2,3.55E2,4.66E2,4.09E2,3.5E2,2.74E2,1.99E2,3.6E1,1E0,1.29E2,3.46E2,9E0,3.27E2,1.39E2,2.95E2,1.14E2,1.32E2,2.18E2,1.09E2,1.65E2,1.98E2,1E0,3.4E1,2E0],"tree_param":{"num_deleted":"0","num_feature":"460","num_nodes":"31","size_leaf_vector":"0"}},{"base_weights":[1.4926624E-3,-1.2799015E-2,2.7294938E-2,-3.0897023E-2,-3.432357E-3,2.0086503E-2,5.5436686E-2,-4.9240466E-2,-2.3823367E-2,-9.301541E-3,1.566206E-3,1.44186765E-2,2.8896242E-2,4.7218192E-2,1.005502E-1,2.053675E-4,-1.1704484E-3,-4.1714153E-4,-7.8168564E-4,-2.3251085E-4,3.6433223E-4,9.666767E-5,-1.1741149E-4,-3.3631176E-4,3.413339E-4,6.818972E-4,-6.460598E-5,-1.7534354E-4,1.1109508E-3,2.3958336E-3,2.8294465E-4],"categories":[],"categories_nodes":[],"categories_segments":[],"categories_sizes":[],"default_left":[0,0,0,0,0,0,0,0,0,0,0,0,0,0,0,0,0,0,0,0,0,0,0,0,0,0,0,0,0,0,0],"id":41,"left_children":[1,3,5,7,9,11,13,15,17,19,21,23,25,27,29,-1,-1,-1,-1,-1,-1,-1,-1,-1,-1,-1,-1,-1,-1,-1,-1],"loss_changes":[8.204279E-1,2.4243143E-1,1.5752578E-1,5.980131E-2,2.7826305E-2,3.050685E-2,4.5078933E-2,9.742767E-3,1.8819764E-2,8.051157E-3,8.870821E-3,3.5727546E-3,3.5585612E-3,5.347818E-3,1.0437965E-3,0E0,0E0,0E0,0E0,0E0,0E0,0E0,0E0,0E0,0E0,0E0,0E0,0E0,0E0,0E0,0E0],"parents":[2147483647,0,0,1,1,2,2,3,3,4,4,5,5,6,6,7,7,8,8,9,9,10,10,11,11,12,12,13,13,14,14],"right_children":[2,4,6,8,10,12,14,16,18,20,22,24,26,28,30,-1,-1,-1,-1,-1,-1,-1,-1,-1,-1,-1,-1,-1,-1,-1,-1],"split_conditions":[7.1955286E-3,-1.680113E-2,3.6376607E-2,-3.856927E-2,-4.7623506E-3,2.0898057E-2,7.347933E-2,-1.8428161E0,2E0,1.9191991E0,2E0,-2.267173E0,1.9125205E0,-1.7502073E0,3.2153306E0,2.053675E-4,-1.1704484E-3,-4.1714153E-4,-7.8168564E-4,-2.3251085E-4,3.6433223E-4,9.666767E-5,-1.1741149E-4,-3.3631176E-4,3.413339E-4,6.818972E-4,-6.460598E-5,-1.7534354E-4,1.1109508E-3,2.3958336E-3,2.8294465E-4],"split_indices":[13,13,13,13,13,13,13,420,6,229,6,76,91,339,56,0,0,0,0,0,0,0,0,0,0,0,0,0,0,0,0],"split_type":[0,0,0,0,0,0,0,0,0,0,0,0,0,0,0,0,0,0,0,0,0,0,0,0,0,0,0,0,0,0,0],"sum_hessian":[2.219E3,1.429E3,7.9E2,4.85E2,9.44E2,6.33E2,1.57E2,1.3E2,3.55E2,4.33E2,5.11E2,3.9E2,2.43E2,1.38E2,1.9E1,2E0,1.28E2,2.27E2,1.28E2,4.23E2,1E1,3.68E2,1.43E2,2E0,3.88E2,2.4E2,3E0,1E0,1.37E2,1.8E1,1E0],"tree_param":{"num_deleted":"0","num_feature":"460","num_nodes":"31","size_leaf_vector":"0"}},{"base_weights":[1.4926624E-3,-1.2799015E-2,2.7294938E-2,-3.0897023E-2,-3.432357E-3,2.0086503E-2,5.5436686E-2,-4.9240466E-2,-2.3823367E-2,-9.301541E-3,1.566206E-3,1.44186765E-2,2.8896242E-2,4.7218192E-2,1.005502E-1,2.053675E-4,-1.1704484E-3,-5.8353285E-4,4.424647E-4,-1.3421838E-4,-4.0031935E-4,9.666767E-5,-1.1741149E-4,3.9699805E-4,1.7963715E-4,6.807036E-4,-1.626604E-5,-1.7534354E-4,1.1109508E-3,2.3958336E-3,2.8294465E-4],"categories":[],"categories_nodes":[],"categories_segments":[],"categories_sizes":[],"default_left":[0,0,0,0,0,0,0,0,0,0,0,0,0,0,0,0,0,0,0,0,0,0,0,0,0,0,0,0,0,0,0],"id":42,"left_children":[1,3,5,7,9,11,13,15,17,19,21,23,25,27,29,-1,-1,-1,-1,-1,-1,-1,-1,-1,-1,-1,-1,-1,-1,-1,-1],"loss_changes":[8.204279E-1,2.4243143E-1,1.5752578E-1,5.980131E-2,2.7826305E-2,3.050685E-2,4.5078933E-2,9.742767E-3,2.0891756E-2,1.1879973E-2,8.870821E-3,6.582059E-3,2.7844459E-3,5.347818E-3,1.0437965E-3,0E0,0E0,0E0,0E0,0E0,0E0,0E0,0E0,0E0,0E0,0E0,0E0,0E0,0E0,0E0,0E0],"parents":[2147483647,0,0,1,1,2,2,3,3,4,4,5,5,6,6,7,7,8,8,9,9,10,10,11,11,12,12,13,13,14,14],"right_children":[2,4,6,8,10,12,14,16,18,20,22,24,26,28,30,-1,-1,-1,-1,-1,-1,-1,-1,-1,-1,-1,-1,-1,-1,-1,-1],"split_conditions":[7.1955286E-3,-1.680113E-2,3.6376607E-2,-3.856927E-2,-4.7623506E-3,2.0898057E-2,7.347933E-2,-1.8428161E0,1.8747604E0,2E0,2E0,2E0,2.475947E0,-1.7502073E0,3.2153306E0,2.053675E-4,-1.1704484E-3,-5.8353285E-4,4.424647E-4,-1.3421838E-4,-4.0031935E-4,9.666767E-5,-1.1741149E-4,3.9699805E-4,1.7963715E-4,6.807036E-4,-1.626604E-5,-1.7534354E-4,1.1109508E-3,2.3958336E-3,2.8294465E-4],"split_indices":[13,13,13,13,13,13,14,420,172,6,6,6,69,335,52,0,0,0,0,0,0,0,0,0,0,0,0,0,0,0,0],"split_type":[0,0,0,0,0,0,0,0,0,0,0,0,0,0,0,0,0,0,0,0,0,0,0,0,0,0,0,0,0,0,0],"sum_hessian":[2.219E3,1.429E3,7.9E2,4.85E2,9.44E2,6.33E2,1.57E2,1.3E2,3.55E2,4.33E2,5.11E2,3.9E2,2.43E2,1.38E2,1.9E1,2E0,1.28E2,3.46E2,9E0,3.03E2,1.3E2,3.68E2,1.43E2,2.76E2,1.14E2,2.4E2,3E0,1E0,1.37E2,1.8E1,1E0],"tree_param":{"num_deleted":"0","num_feature":"460","num_nodes":"31","size_leaf_vector":"0"}}]},"name":"gbtree"},"learner_model_param":{"base_score":"0E0","boost_from_average":"0","num_class":"0","num_feature":"460","num_target":"1"},"objective":{"name":"reg:squarederror","reg_loss_param":{"scale_pos_weight":"1"}}},"version":[1,7,4]}