{"learner":{"attributes":{"best_iteration":"0","best_ntree_limit":"48","scikit_learn":"{\"objective\": \"reg:squarederror\", \"max_leaves\": null, \"max_bin\": null, \"grow_policy\": null, \"learning_rate\": 1.0, \"verbosity\": 0, \"booster\": null, \"tree_method\": \"hist\", \"gamma\": null, \"min_child_weight\": null, \"max_delta_step\": null, \"subsample\": 1.0, \"sampling_method\": null, \"colsample_bytree\": null, \"colsample_bylevel\": null, \"colsample_bynode\": 0.8, \"reg_alpha\": null, \"scale_pos_weight\": null, \"base_score\": 0, \"missing\": NaN, \"num_parallel_tree\": null, \"random_state\": null, \"n_jobs\": null, \"monotone_constraints\": null, \"interaction_constraints\": null, \"importance_type\": null, \"gpu_id\": null, \"validate_parameters\": null, \"predictor\": null, \"enable_categorical\": false, \"feature_types\": null, \"max_cat_to_onehot\": null, \"max_cat_threshold\": null, \"eval_metric\": \"mae\", \"early_stopping_rounds\": null, \"callbacks\": null, \"kwargs\": {\"eta\": 0.5041352502047335, \"nthread\": 3}, \"evals_result_\": {\"validation_0\": {\"mae\": [0.01877166096157777]}}, \"_estimator_type\": \"regressor\"}"},"feature_names":[],"feature_types":[],"gradient_booster":{"model":{"gbtree_model_param":{"num_parallel_tree":"48","num_trees":"48","size_leaf_vector":"0"},"tree_info":[0,0,0,0,0,0,0,0,0,0,0,0,0,0,0,0,0,0,0,0,0,0,0,0,0,0,0,0,0,0,0,0,0,0,0,0,0,0,0,0,0,0,0,0,0,0,0,0],"trees":[{"base_weights":[1.5999277E-3,2.6646331E-2,9.846224E-4,2.4724077E-3,1.8751066E-2,5.082795E-2,7.5244304E-4,1.2266362E-2,1.8803868E-3,9.274899E-3,2.3091417E-3,1.5071885E-2,-3.0514197E-2,2.0440906E-2,-2.4519596E-2,-5.815166E-4,2.0124981E-2,-2.6494928E-4,3.0660504E-2,-6.982006E-2,-3.0117253E-2,1.2358718E-5,6.321237E-4,-2.3008055E-4,-6.128504E-4,5.0582672E-5,4.8289145E-4,-9.342404E-6,5.7104102E-5,6.016401E-4,8.4766344E-4,-4.337809E-4,-1.8565413E-3,-1.0933249E-3,-6.1439327E-4],"categories":[],"categories_nodes":[],"categories_segments":[],"categories_sizes":[],"default_left":[0,0,0,0,0,0,0,0,0,0,0,0,0,0,0,0,0,0,0,0,0,0,0,0,0,0,0,0,0,0,0,0,0,0,0],"id":0,"left_children":[1,3,5,-1,7,9,11,13,-1,15,-1,17,19,21,23,-1,25,27,29,31,33,-1,-1,-1,-1,-1,-1,-1,-1,-1,-1,-1,-1,-1,-1],"loss_changes":[3.4063302E-2,3.6284246E-2,2.4958558E-2,0E0,2.2078106E-2,2.3908319E-2,9.635074E-1,1.4634499E-2,0E0,3.386171E-3,0E0,3.5289028E-1,8.444309E-3,7.6459907E-3,2.69067E-4,0E0,2.6798225E-4,4.121334E-4,1.1903286E-2,3.816763E-3,7.851243E-3,0E0,0E0,0E0,0E0,0E0,0E0,0E0,0E0,0E0,0E0,0E0,0E0,0E0,0E0],"parents":[2147483647,0,0,1,1,2,2,4,4,5,5,6,6,7,7,9,9,11,11,12,12,13,13,14,14,16,16,17,17,18,18,19,19,20,20],"right_children":[2,4,6,-1,8,10,12,14,-1,16,-1,18,20,22,24,-1,26,28,30,32,34,-1,-1,-1,-1,-1,-1,-1,-1,-1,-1,-1,-1,-1,-1],"split_conditions":[-4.3564597E-3,-1.6234038E0,-2.8491635E0,2.4724077E-3,1.1889805E0,8.528733E-2,2E0,2E0,1.8803868E-3,2.7749013E-2,2.3091417E-3,1E0,-1.7502073E0,1E0,-3.0401729E-2,-5.815166E-4,3.2786693E-2,2.058715E0,6.0396083E-2,-9.413464E-3,-2.2125034E0,1.2358718E-5,6.321237E-4,-2.3008055E-4,-6.128504E-4,5.0582672E-5,4.8289145E-4,-9.342404E-6,5.7104102E-5,6.016401E-4,8.4766344E-4,-4.337809E-4,-1.8565413E-3,-1.0933249E-3,-6.1439327E-4],"split_indices":[119,79,81,0,129,1,60,60,0,3,0,60,238,60,0,0,3,341,65,0,456,0,0,0,0,0,0,0,0,0,0,0,0,0,0],"split_type":[0,0,0,0,0,0,0,0,0,0,0,0,0,0,0,0,0,0,0,0,0,0,0,0,0,0,0,0,0,0,0,0,0,0,0],"sum_hessian":[2.211E3,5.2E1,2.159E3,3E0,4.9E1,9E0,2.15E3,4.6E1,3E0,6E0,3E0,1.475E3,6.75E2,3.8E1,8E0,1E0,5E0,7.44E2,7.31E2,5E0,6.7E2,1.3E1,2.5E1,3E0,5E0,1E0,4E0,7.02E2,4.2E1,6.24E2,1.07E2,2E0,3E0,1.6E1,6.54E2],"tree_param":{"num_deleted":"0","num_feature":"514","num_nodes":"35","size_leaf_vector":"0"}},{"base_weights":[1.5999277E-3,1.599682E-2,-3.0516934E-2,1.3996704E-2,2.951803E-2,-5.247959E-2,-2.9913224E-2,-3.334931E-4,2.9282764E-2,6.415569E-4,4.5555424E-2,-1.8812529E-3,-2.9196016E-2,-6.339964E-2,-2.9514553E-2,-5.3162535E-4,2.8944933E-3,2.8823555E-2,2.4572015E-3,-8.1129046E-4,4.1393503E-3,2.2439244E-3,4.2634767E-2,-8.0846064E-4,-2.7329667E-4,-4.549039E-4,-1.8565413E-3,-3.7155144E-2,-2.8311355E-2,-3.724294E-6,-4.488445E-5,-5.9576658E-5,9.213337E-5,5.7474966E-4,7.522692E-4,-3.9596776E-5,9.3407245E-5,-9.85895E-5,1.10880756E-4,8.197109E-4,1.6573705E-3,-1.1454443E-3,-6.4611E-4,-1.2190801E-3,-5.832996E-4],"categories":[],"categories_nodes":[],"categories_segments":[],"categories_sizes":[],"default_left":[0,0,0,0,0,0,0,0,0,0,0,0,0,0,0,0,0,0,0,0,0,0,0,0,0,0,0,0,0,0,0,0,0,0,0,0,0,0,0,0,0,0,0,0,0],"id":1,"left_children":[1,3,5,7,9,11,13,15,17,19,21,-1,23,25,27,29,31,33,-1,35,37,-1,39,-1,-1,-1,-1,41,43,-1,-1,-1,-1,-1,-1,-1,-1,-1,-1,-1,-1,-1,-1,-1,-1],"loss_changes":[1.0232793E0,4.0910095E-2,7.512629E-3,2.9200646E-1,9.073906E-2,1.2333751E-2,7.0599318E-3,4.422013E-4,2.2861421E-2,3.641632E-4,1.8280327E-2,0E0,1.3450403E-3,5.535744E-3,5.043149E-3,3.7182437E-4,3.643206E-4,4.791856E-3,0E0,3.0268743E-4,2.4557105E-4,0E0,1.1682332E-2,0E0,0E0,0E0,0E0,7.820144E-3,3.8161278E-3,0E0,0E0,0E0,0E0,0E0,0E0,0E0,0E0,0E0,0E0,0E0,0E0,0E0,0E0,0E0,0E0],"parents":[2147483647,0,0,1,1,2,2,3,3,4,4,5,5,6,6,7,7,8,8,9,9,10,10,12,12,13,13,14,14,15,15,16,16,17,17,19,19,20,20,22,22,27,27,28,28],"right_children":[2,4,6,8,10,12,14,16,18,20,22,-1,24,26,28,30,32,34,-1,36,38,-1,40,-1,-1,-1,-1,42,44,-1,-1,-1,-1,-1,-1,-1,-1,-1,-1,-1,-1,-1,-1,-1,-1],"split_conditions":[2E0,6.0396083E-2,-2.2125034E0,1E0,1E0,-1.3050132E-2,-1.7502073E0,4.585973E-2,1.298967E-1,2.9332336E-2,-2.5021958E0,-1.8812529E-3,-1.6940141E-2,-9.413464E-3,-2.7351728E-2,3.1447876E-2,-1.003797E0,3.523469E-2,2.4572015E-3,7.459411E-1,-1.9796643E-1,2.2439244E-3,8.3736435E-2,-8.0846064E-4,-2.7329667E-4,-4.549039E-4,-1.8565413E-3,-2.0423193E-2,-2.1931748E0,-3.724294E-6,-4.488445E-5,-5.9576658E-5,9.213337E-5,5.7474966E-4,7.522692E-4,-3.9596776E-5,9.3407245E-5,-9.85895E-5,1.10880756E-4,8.197109E-4,1.6573705E-3,-1.1454443E-3,-6.4611E-4,-1.2190801E-3,-5.832996E-4],"split_indices":[60,65,456,60,60,68,238,1,3,15,72,0,5,0,12,27,484,45,0,296,87,0,57,0,0,0,0,22,474,0,0,0,0,0,0,0,0,0,0,0,0,0,0,0,0],"split_type":[0,0,0,0,0,0,0,0,0,0,0,0,0,0,0,0,0,0,0,0,0,0,0,0,0,0,0,0,0,0,0,0,0,0,0,0,0,0,0,0,0,0,0,0,0],"sum_hessian":[2.211E3,1.527E3,6.84E2,1.332E3,1.95E2,1.6E1,6.68E2,6.88E2,6.44E2,7E1,1.25E2,5E0,1.1E1,6E0,6.62E2,6.49E2,3.9E1,6.42E2,2E0,5E1,2E1,4E0,1.21E2,6E0,5E0,3E0,3E0,8.6E1,5.76E2,5.34E2,1.15E2,8E0,3.1E1,5.53E2,8.9E1,4.2E1,8E0,2E0,1.8E1,1.13E2,8E0,2E1,6.6E1,4E0,5.72E2],"tree_param":{"num_deleted":"0","num_feature":"514","num_nodes":"45","size_leaf_vector":"0"}},{"base_weights":[1.5999277E-3,1.599682E-2,-3.0516934E-2,-2.4272228E-4,3.198359E-2,-5.1493894E-2,-2.9841173E-2,-4.2134002E-4,2.669392E-3,2.2439244E-3,3.1447552E-2,-1.017253E-1,-2.7968407E-2,-3.7188627E-2,-2.8492697E-2,-1.8434791E-3,-1.2069655E-5,4.031568E-3,-1.2990416E-3,8.7234974E-2,3.089234E-2,-8.952336E-4,-2.5074906E-3,-9.118831E-4,-1.8243108E-2,-4.4594154E-2,-2.4462188E-2,-3.89963E-2,-2.7812457E-2,-4.8685117E-5,4.5391163E-5,-3.3357753E-6,1.0424575E-4,1.0140719E-4,-3.382108E-5,-7.437246E-5,3.2641132E-5,2.8165604E-3,3.638814E-4,6.0006906E-4,8.684671E-4,-4.1277823E-4,-1.55236E-4,-1.1402969E-3,-6.317997E-4,-3.9607618E-4,-6.332809E-4,-1.5098065E-3,-7.1560394E-4,-5.0437415E-4,-6.2366406E-4],"categories":[],"categories_nodes":[],"categories_segments":[],"categories_sizes":[],"default_left":[0,0,0,0,0,0,0,0,0,0,0,0,0,0,0,0,0,0,0,0,0,0,0,0,0,0,0,0,0,0,0,0,0,0,0,0,0,0,0,0,0,0,0,0,0,0,0,0,0,0,0],"id":2,"left_children":[1,3,5,7,9,11,13,15,17,-1,19,21,23,25,27,29,31,33,35,37,39,-1,-1,-1,41,43,45,47,49,-1,-1,-1,-1,-1,-1,-1,-1,-1,-1,-1,-1,-1,-1,-1,-1,-1,-1,-1,-1,-1,-1],"loss_changes":[1.0232793E0,3.9670387E-1,8.173525E-3,3.9592257E-4,2.786833E-2,2.0789273E-2,5.539E-3,4.1671796E-4,2.4308817E-4,0E0,2.1031022E-2,1.3970286E-3,1.5066769E-3,8.333728E-3,2.9666424E-3,3.226286E-4,4.1442196E-4,1.6390736E-4,8.368678E-5,2.1061335E-2,1.5936553E-2,0E0,0E0,0E0,3.8767233E-5,7.310055E-3,6.8376213E-4,2.4888217E-3,3.3754408E-3,0E0,0E0,0E0,0E0,0E0,0E0,0E0,0E0,0E0,0E0,0E0,0E0,0E0,0E0,0E0,0E0,0E0,0E0,0E0,0E0,0E0,0E0],"parents":[2147483647,0,0,1,1,2,2,3,3,4,4,5,5,6,6,7,7,8,8,10,10,11,11,12,12,13,13,14,14,15,15,16,16,17,17,18,18,19,19,20,20,24,24,25,25,26,26,27,27,28,28],"right_children":[2,4,6,8,10,12,14,16,18,-1,20,22,24,26,28,30,32,34,36,38,40,-1,-1,-1,42,44,46,48,50,-1,-1,-1,-1,-1,-1,-1,-1,-1,-1,-1,-1,-1,-1,-1,-1,-1,-1,-1,-1,-1,-1],"split_conditions":[2E0,1E0,-8.492954E-2,2.058715E0,-2.5021958E0,5.338646E-2,-3.7099086E-2,-2.7259463E-2,2.0530782E0,2.2439244E-3,-1.3437785E-1,1.4587408E-2,7.410761E-2,-9.912924E-2,-1.2519989E0,3.2129973E-2,2.7660935E0,1.1809242E0,-5.359429E-1,1.7268037E-2,6.0396083E-2,-8.952336E-4,-2.5074906E-3,-9.118831E-4,2.0851236E-2,1.7565571E-1,-8.522719E-3,-8.492686E-1,3.045878E-2,-4.8685117E-5,4.5391163E-5,-3.3357753E-6,1.0424575E-4,1.0140719E-4,-3.382108E-5,-7.437246E-5,3.2641132E-5,2.8165604E-3,3.638814E-4,6.0006906E-4,8.684671E-4,-4.1277823E-4,-1.55236E-4,-1.1402969E-3,-6.317997E-4,-3.9607618E-4,-6.332809E-4,-1.5098065E-3,-7.1560394E-4,-5.0437415E-4,-6.2366406E-4],"split_indices":[60,60,45,341,76,316,13,1,347,0,54,1,316,203,391,40,244,129,296,10,65,0,0,0,3,275,312,398,65,0,0,0,0,0,0,0,0,0,0,0,0,0,0,0,0,0,0,0,0,0,0],"split_type":[0,0,0,0,0,0,0,0,0,0,0,0,0,0,0,0,0,0,0,0,0,0,0,0,0,0,0,0,0,0,0,0,0,0,0,0,0,0,0,0,0,0,0,0,0,0,0,0,0,0,0],"sum_hessian":[2.211E3,1.527E3,6.84E2,7.58E2,7.69E2,1.9E1,6.65E2,7.15E2,4.3E1,4E0,7.65E2,5E0,1.4E1,9.9E1,5.66E2,1.59E2,5.56E2,3.2E1,1.1E1,6E0,7.59E2,2E0,3E0,4E0,1E1,6.1E1,3.8E1,3.1E1,5.35E2,1.42E2,1.7E1,5.41E2,1.5E1,2.8E1,4E0,6E0,5E0,3E0,3E0,6.39E2,1.2E2,8E0,2E0,3.4E1,2.7E1,2.2E1,1.6E1,2E0,2.9E1,2.03E2,3.32E2],"tree_param":{"num_deleted":"0","num_feature":"514","num_nodes":"51","size_leaf_vector":"0"}},{"base_weights":[1.5999277E-3,1.599682E-2,-3.0516934E-2,-2.4272228E-4,3.198359E-2,-5.1493894E-2,-2.9841173E-2,-4.2134002E-4,2.669392E-3,2.2439244E-3,3.1447552E-2,-1.017253E-1,-2.7968407E-2,-3.7188627E-2,-2.8492697E-2,-1.8434791E-3,-1.2069655E-5,4.031568E-3,-1.2990416E-3,8.7234974E-2,3.089234E-2,-8.952336E-4,-2.5074906E-3,-9.118831E-4,-1.8243108E-2,-4.4594154E-2,-2.4462188E-2,-3.89963E-2,-2.7812457E-2,-4.8685117E-5,4.5391163E-5,-3.3357753E-6,1.0424575E-4,1.0140719E-4,-3.382108E-5,2.3382183E-5,-8.1405946E-5,2.8165604E-3,3.638814E-4,6.0006906E-4,8.684671E-4,-4.1277823E-4,-1.55236E-4,-1.1402969E-3,-6.317997E-4,-3.9607618E-4,-6.332809E-4,-1.5098065E-3,-7.1560394E-4,-5.0437415E-4,-6.2366406E-4],"categories":[],"categories_nodes":[],"categories_segments":[],"categories_sizes":[],"default_left":[0,0,0,0,0,0,0,0,0,0,0,0,0,0,0,0,0,0,0,0,0,0,0,0,0,0,0,0,0,0,0,0,0,0,0,0,0,0,0,0,0,0,0,0,0,0,0,0,0,0,0],"id":3,"left_children":[1,3,5,7,9,11,13,15,17,-1,19,21,23,25,27,29,31,33,35,37,39,-1,-1,-1,41,43,45,47,49,-1,-1,-1,-1,-1,-1,-1,-1,-1,-1,-1,-1,-1,-1,-1,-1,-1,-1,-1,-1,-1,-1],"loss_changes":[1.0232793E0,3.9670387E-1,8.173525E-3,3.9592257E-4,2.786833E-2,2.0789273E-2,5.539E-3,4.1671796E-4,2.4308817E-4,0E0,2.1031022E-2,1.3970286E-3,1.5066769E-3,8.333728E-3,2.9666424E-3,3.226286E-4,4.1442196E-4,1.6390736E-4,8.017814E-5,2.1061335E-2,1.5936553E-2,0E0,0E0,0E0,3.8767233E-5,7.310055E-3,6.8376213E-4,2.4888217E-3,3.3754408E-3,0E0,0E0,0E0,0E0,0E0,0E0,0E0,0E0,0E0,0E0,0E0,0E0,0E0,0E0,0E0,0E0,0E0,0E0,0E0,0E0,0E0,0E0],"parents":[2147483647,0,0,1,1,2,2,3,3,4,4,5,5,6,6,7,7,8,8,10,10,11,11,12,12,13,13,14,14,15,15,16,16,17,17,18,18,19,19,20,20,24,24,25,25,26,26,27,27,28,28],"right_children":[2,4,6,8,10,12,14,16,18,-1,20,22,24,26,28,30,32,34,36,38,40,-1,-1,-1,42,44,46,48,50,-1,-1,-1,-1,-1,-1,-1,-1,-1,-1,-1,-1,-1,-1,-1,-1,-1,-1,-1,-1,-1,-1],"split_conditions":[2E0,1E0,-8.492954E-2,2.058715E0,-2.5021958E0,5.338646E-2,-3.7099086E-2,-2.7259463E-2,2.0530782E0,2.2439244E-3,-1.3437785E-1,1.4587408E-2,7.410761E-2,-9.912924E-2,-1.2519989E0,3.2129973E-2,2.7660935E0,1.1809242E0,9.857436E-4,1.7268037E-2,6.0396083E-2,-8.952336E-4,-2.5074906E-3,-9.118831E-4,2.0851236E-2,1.7565571E-1,-8.522719E-3,-8.492686E-1,3.045878E-2,-4.8685117E-5,4.5391163E-5,-3.3357753E-6,1.0424575E-4,1.0140719E-4,-3.382108E-5,2.3382183E-5,-8.1405946E-5,2.8165604E-3,3.638814E-4,6.0006906E-4,8.684671E-4,-4.1277823E-4,-1.55236E-4,-1.1402969E-3,-6.317997E-4,-3.9607618E-4,-6.332809E-4,-1.5098065E-3,-7.1560394E-4,-5.0437415E-4,-6.2366406E-4],"split_indices":[60,60,45,345,76,316,13,1,347,0,54,1,316,207,391,40,244,129,416,10,65,0,0,0,3,275,312,398,65,0,0,0,0,0,0,0,0,0,0,0,0,0,0,0,0,0,0,0,0,0,0],"split_type":[0,0,0,0,0,0,0,0,0,0,0,0,0,0,0,0,0,0,0,0,0,0,0,0,0,0,0,0,0,0,0,0,0,0,0,0,0,0,0,0,0,0,0,0,0,0,0,0,0,0,0],"sum_hessian":[2.211E3,1.527E3,6.84E2,7.58E2,7.69E2,1.9E1,6.65E2,7.15E2,4.3E1,4E0,7.65E2,5E0,1.4E1,9.9E1,5.66E2,1.59E2,5.56E2,3.2E1,1.1E1,6E0,7.59E2,2E0,3E0,4E0,1E1,6.1E1,3.8E1,3.1E1,5.35E2,1.42E2,1.7E1,5.41E2,1.5E1,2.8E1,4E0,6E0,5E0,3E0,3E0,6.39E2,1.2E2,8E0,2E0,3.4E1,2.7E1,2.2E1,1.6E1,2E0,2.9E1,2.03E2,3.32E2],"tree_param":{"num_deleted":"0","num_feature":"514","num_nodes":"51","size_leaf_vector":"0"}},{"base_weights":[1.5999277E-3,1.599682E-2,-3.0516934E-2,-2.4272228E-4,3.198359E-2,-5.1493894E-2,-2.9841173E-2,-4.2134002E-4,2.669392E-3,2.2439244E-3,3.1447552E-2,-1.017253E-1,-2.7968407E-2,-3.7188627E-2,-2.8492697E-2,-1.8434791E-3,-1.2069655E-5,4.031568E-3,-1.2990416E-3,3.054099E-2,6.0717583E-2,-8.952336E-4,-2.5074906E-3,-9.118831E-4,-1.8243108E-2,-4.4594154E-2,-2.4462188E-2,-3.89963E-2,-2.7812457E-2,-4.8685117E-5,4.5391163E-5,-3.3357753E-6,1.0424575E-4,1.0140719E-4,-3.382108E-5,-7.437246E-5,3.2641132E-5,5.947128E-4,8.610801E-4,1.9673617E-3,6.27329E-4,-4.1277823E-4,-1.55236E-4,-1.1402969E-3,-6.317997E-4,-3.9607618E-4,-6.332809E-4,-1.5098065E-3,-7.1560394E-4,-5.0437415E-4,-6.2366406E-4],"categories":[],"categories_nodes":[],"categories_segments":[],"categories_sizes":[],"default_left":[0,0,0,0,0,0,0,0,0,0,0,0,0,0,0,0,0,0,0,0,0,0,0,0,0,0,0,0,0,0,0,0,0,0,0,0,0,0,0,0,0,0,0,0,0,0,0,0,0,0,0],"id":4,"left_children":[1,3,5,7,9,11,13,15,17,-1,19,21,23,25,27,29,31,33,35,37,39,-1,-1,-1,41,43,45,47,49,-1,-1,-1,-1,-1,-1,-1,-1,-1,-1,-1,-1,-1,-1,-1,-1,-1,-1,-1,-1,-1,-1],"loss_changes":[1.0232793E0,3.9670387E-1,8.173525E-3,3.9592257E-4,2.786833E-2,2.0789273E-2,5.539E-3,4.1671796E-4,2.4308817E-4,0E0,1.847148E-2,1.3970286E-3,1.5066769E-3,8.333728E-3,2.9666424E-3,3.226286E-4,4.1442196E-4,1.6390736E-4,8.368678E-5,1.4856458E-2,1.9858196E-2,0E0,0E0,0E0,3.8767233E-5,7.310055E-3,6.8376213E-4,2.4888217E-3,3.3754408E-3,0E0,0E0,0E0,0E0,0E0,0E0,0E0,0E0,0E0,0E0,0E0,0E0,0E0,0E0,0E0,0E0,0E0,0E0,0E0,0E0,0E0,0E0],"parents":[2147483647,0,0,1,1,2,2,3,3,4,4,5,5,6,6,7,7,8,8,10,10,11,11,12,12,13,13,14,14,15,15,16,16,17,17,18,18,19,19,20,20,24,24,25,25,26,26,27,27,28,28],"right_children":[2,4,6,8,10,12,14,16,18,-1,20,22,24,26,28,30,32,34,36,38,40,-1,-1,-1,42,44,46,48,50,-1,-1,-1,-1,-1,-1,-1,-1,-1,-1,-1,-1,-1,-1,-1,-1,-1,-1,-1,-1,-1,-1],"split_conditions":[2E0,1E0,-8.492954E-2,2.058715E0,-2.5021958E0,5.338646E-2,-3.7099086E-2,-2.7259463E-2,2.2970839E0,2.2439244E-3,3.295481E-2,1.4587408E-2,7.410761E-2,-9.912924E-2,-1.2519989E0,3.2129973E-2,2.7660935E0,1.1809242E0,-5.359429E-1,6.0396083E-2,-2.8574005E-2,-8.952336E-4,-2.5074906E-3,-9.118831E-4,2.4422945E-2,1.7565571E-1,-8.522719E-3,-8.492686E-1,3.045878E-2,-4.8685117E-5,4.5391163E-5,-3.3357753E-6,1.0424575E-4,1.0140719E-4,-3.382108E-5,-7.437246E-5,3.2641132E-5,5.947128E-4,8.610801E-4,1.9673617E-3,6.27329E-4,-4.1277823E-4,-1.55236E-4,-1.1402969E-3,-6.317997E-4,-3.9607618E-4,-6.332809E-4,-1.5098065E-3,-7.1560394E-4,-5.0437415E-4,-6.2366406E-4],"split_indices":[60,60,45,341,72,316,13,1,348,0,220,1,316,203,391,40,240,129,296,65,9,0,0,0,21,275,312,398,65,0,0,0,0,0,0,0,0,0,0,0,0,0,0,0,0,0,0,0,0,0,0],"split_type":[0,0,0,0,0,0,0,0,0,0,0,0,0,0,0,0,0,0,0,0,0,0,0,0,0,0,0,0,0,0,0,0,0,0,0,0,0,0,0,0,0,0,0,0,0,0,0,0,0,0,0],"sum_hessian":[2.211E3,1.527E3,6.84E2,7.58E2,7.69E2,1.9E1,6.65E2,7.15E2,4.3E1,4E0,7.65E2,5E0,1.4E1,9.9E1,5.66E2,1.59E2,5.56E2,3.2E1,1.1E1,7.44E2,2.1E1,2E0,3E0,4E0,1E1,6.1E1,3.8E1,3.1E1,5.35E2,1.42E2,1.7E1,5.41E2,1.5E1,2.8E1,4E0,6E0,5E0,6.31E2,1.13E2,9E0,1.2E1,8E0,2E0,3.4E1,2.7E1,2.2E1,1.6E1,2E0,2.9E1,2.03E2,3.32E2],"tree_param":{"num_deleted":"0","num_feature":"514","num_nodes":"51","size_leaf_vector":"0"}},{"base_weights":[1.5999277E-3,1.599682E-2,-3.0516934E-2,-2.4272228E-4,3.198359E-2,-5.247959E-2,-2.9913224E-2,-4.2134002E-4,2.669392E-3,2.2439244E-3,3.1447552E-2,-1.8812529E-3,-2.9196016E-2,-6.339964E-2,-2.9514553E-2,-1.8434791E-3,-1.2069655E-5,4.031568E-3,-1.2990416E-3,3.054099E-2,6.0717583E-2,-8.0846064E-4,-2.7329667E-4,-4.549039E-4,-1.8565413E-3,-3.7155144E-2,-2.8311355E-2,-4.8685117E-5,4.5391163E-5,-3.3357753E-6,1.0424575E-4,1.0140719E-4,-3.382108E-5,-7.437246E-5,3.2641132E-5,5.947128E-4,8.610801E-4,1.9673617E-3,6.27329E-4,-1.1454443E-3,-6.4611E-4,-1.2190801E-3,-5.832996E-4],"categories":[],"categories_nodes":[],"categories_segments":[],"categories_sizes":[],"default_left":[0,0,0,0,0,0,0,0,0,0,0,0,0,0,0,0,0,0,0,0,0,0,0,0,0,0,0,0,0,0,0,0,0,0,0,0,0,0,0,0,0,0,0],"id":5,"left_children":[1,3,5,7,9,11,13,15,17,-1,19,-1,21,23,25,27,29,31,33,35,37,-1,-1,-1,-1,39,41,-1,-1,-1,-1,-1,-1,-1,-1,-1,-1,-1,-1,-1,-1,-1,-1],"loss_changes":[1.0232793E0,3.9670387E-1,7.512629E-3,3.9592257E-4,2.786833E-2,1.2333751E-2,7.0599318E-3,4.1671796E-4,2.4308817E-4,0E0,1.847148E-2,0E0,1.3450403E-3,5.535744E-3,5.043149E-3,3.226286E-4,4.1442196E-4,1.6390736E-4,8.368678E-5,1.4856458E-2,1.9858196E-2,0E0,0E0,0E0,0E0,7.820144E-3,3.8161278E-3,0E0,0E0,0E0,0E0,0E0,0E0,0E0,0E0,0E0,0E0,0E0,0E0,0E0,0E0,0E0,0E0],"parents":[2147483647,0,0,1,1,2,2,3,3,4,4,5,5,6,6,7,7,8,8,10,10,12,12,13,13,14,14,15,15,16,16,17,17,18,18,19,19,20,20,25,25,26,26],"right_children":[2,4,6,8,10,12,14,16,18,-1,20,-1,22,24,26,28,30,32,34,36,38,-1,-1,-1,-1,40,42,-1,-1,-1,-1,-1,-1,-1,-1,-1,-1,-1,-1,-1,-1,-1,-1],"split_conditions":[2E0,1E0,-2.2125034E0,2.058715E0,-2.5021958E0,-1.3050132E-2,-1.7502073E0,-2.7259463E-2,2.2970839E0,2.2439244E-3,3.295481E-2,-1.8812529E-3,-1.6940141E-2,-9.413464E-3,-2.7351728E-2,3.2129973E-2,2.7660935E0,1.1809242E0,-5.359429E-1,6.0396083E-2,-2.8574005E-2,-8.0846064E-4,-2.7329667E-4,-4.549039E-4,-1.8565413E-3,-2.0423193E-2,-2.1931748E0,-4.8685117E-5,4.5391163E-5,-3.3357753E-6,1.0424575E-4,1.0140719E-4,-3.382108E-5,-7.437246E-5,3.2641132E-5,5.947128E-4,8.610801E-4,1.9673617E-3,6.27329E-4,-1.1454443E-3,-6.4611E-4,-1.2190801E-3,-5.832996E-4],"split_indices":[60,60,456,341,72,67,238,1,352,0,220,0,5,0,12,40,240,129,296,65,9,0,0,0,0,22,474,0,0,0,0,0,0,0,0,0,0,0,0,0,0,0,0],"split_type":[0,0,0,0,0,0,0,0,0,0,0,0,0,0,0,0,0,0,0,0,0,0,0,0,0,0,0,0,0,0,0,0,0,0,0,0,0,0,0,0,0,0,0],"sum_hessian":[2.211E3,1.527E3,6.84E2,7.58E2,7.69E2,1.6E1,6.68E2,7.15E2,4.3E1,4E0,7.65E2,5E0,1.1E1,6E0,6.62E2,1.59E2,5.56E2,3.2E1,1.1E1,7.44E2,2.1E1,6E0,5E0,3E0,3E0,8.6E1,5.76E2,1.42E2,1.7E1,5.41E2,1.5E1,2.8E1,4E0,6E0,5E0,6.31E2,1.13E2,9E0,1.2E1,2E1,6.6E1,4E0,5.72E2],"tree_param":{"num_deleted":"0","num_feature":"514","num_nodes":"43","size_leaf_vector":"0"}},{"base_weights":[1.5999277E-3,2.6646331E-2,9.846224E-4,2.4724077E-3,1.8751066E-2,1.537076E-2,-3.0551584E-2,1.2266362E-2,1.8803868E-3,-2.5808482E-4,3.1126846E-2,-6.982006E-2,-3.015551E-2,2.0440906E-2,-2.4519596E-2,-4.4090077E-4,2.740997E-3,2.886905E-2,4.3251872E-2,-4.337809E-4,-1.8565413E-3,-5.247959E-2,-2.953102E-2,5.791448E-4,1.9340625E-4,-2.3008055E-4,-6.128504E-4,-3.879959E-5,-8.918479E-7,8.6882406E-5,-2.7063366E-5,5.930913E-4,1.5195509E-3,2.2439244E-3,8.318507E-4,-1.8812529E-3,-6.082504E-4,-7.206142E-4,-5.7863677E-4],"categories":[],"categories_nodes":[],"categories_segments":[],"categories_sizes":[],"default_left":[0,0,0,0,0,0,0,0,0,0,0,0,0,0,0,0,0,0,0,0,0,0,0,0,0,0,0,0,0,0,0,0,0,0,0,0,0,0,0],"id":6,"left_children":[1,3,5,-1,7,9,11,13,-1,15,17,19,21,23,25,27,29,31,33,-1,-1,35,37,-1,-1,-1,-1,-1,-1,-1,-1,-1,-1,-1,-1,-1,-1,-1,-1],"loss_changes":[3.4063302E-2,3.6284246E-2,9.8042744E-1,0E0,2.2078106E-2,3.6544222E-1,8.424163E-3,1.4634499E-2,0E0,4.1022536E-4,1.8982053E-2,3.816763E-3,7.818639E-3,2.943702E-3,2.69067E-4,3.9829954E-4,2.5372792E-4,8.976996E-3,2.0117164E-2,0E0,0E0,1.2333751E-2,4.8678517E-3,0E0,0E0,0E0,0E0,0E0,0E0,0E0,0E0,0E0,0E0,0E0,0E0,0E0,0E0,0E0,0E0],"parents":[2147483647,0,0,1,1,2,2,4,4,5,5,6,6,7,7,9,9,10,10,11,11,12,12,13,13,14,14,15,15,16,16,17,17,18,18,21,21,22,22],"right_children":[2,4,6,-1,8,10,12,14,-1,16,18,20,22,24,26,28,30,32,34,-1,-1,36,38,-1,-1,-1,-1,-1,-1,-1,-1,-1,-1,-1,-1,-1,-1,-1,-1],"split_conditions":[-4.3564597E-3,-1.6234038E0,2E0,2.4724077E-3,1.1889805E0,1E0,-1.7502073E0,2E0,1.8803868E-3,2.058715E0,6.0396083E-2,-9.413464E-3,-2.2125034E0,-5.446914E-3,-3.0401729E-2,-2.7259463E-2,2.0530782E0,4.8529014E-2,-2.5021958E0,-4.337809E-4,-1.8565413E-3,-1.3050132E-2,-2.3674123E-2,5.791448E-4,1.9340625E-4,-2.3008055E-4,-6.128504E-4,-3.879959E-5,-8.918479E-7,8.6882406E-5,-2.7063366E-5,5.930913E-4,1.5195509E-3,2.2439244E-3,8.318507E-4,-1.8812529E-3,-6.082504E-4,-7.206142E-4,-5.7863677E-4],"split_indices":[119,79,60,0,129,60,238,60,0,341,65,0,456,40,0,1,347,220,76,0,0,67,13,0,0,0,0,0,0,0,0,0,0,0,0,0,0,0,0],"split_type":[0,0,0,0,0,0,0,0,0,0,0,0,0,0,0,0,0,0,0,0,0,0,0,0,0,0,0,0,0,0,0,0,0,0,0,0,0,0,0],"sum_hessian":[2.211E3,5.2E1,2.159E3,3E0,4.9E1,1.483E3,6.76E2,4.6E1,3E0,7.45E2,7.38E2,5E0,6.71E2,3.8E1,8E0,7.03E2,4.2E1,6.25E2,1.13E2,2E0,3E0,1.6E1,6.55E2,2.2E1,1.6E1,3E0,5E0,1.53E2,5.5E2,3.1E1,1.1E1,6.21E2,4E0,4E0,1.09E2,5E0,1.1E1,1.64E2,4.91E2],"tree_param":{"num_deleted":"0","num_feature":"514","num_nodes":"39","size_leaf_vector":"0"}},{"base_weights":[1.5999277E-3,2.6646331E-2,9.846224E-4,2.4724077E-3,1.8751066E-2,1.537076E-2,-3.0551584E-2,1.2266362E-2,1.8803868E-3,-2.5808482E-4,3.1126846E-2,-6.982006E-2,-3.015551E-2,2.0440906E-2,-2.4519596E-2,-4.4090077E-4,2.740997E-3,2.2439244E-3,3.0563533E-2,-4.337809E-4,-1.8565413E-3,-5.247959E-2,-2.953102E-2,1.2358718E-5,6.321237E-4,-2.3008055E-4,-6.128504E-4,-3.879959E-5,-8.918479E-7,8.6882406E-5,-2.7063366E-5,6.014386E-4,8.318507E-4,-1.8812529E-3,-6.082504E-4,-7.4953766E-4,-5.876877E-4],"categories":[],"categories_nodes":[],"categories_segments":[],"categories_sizes":[],"default_left":[0,0,0,0,0,0,0,0,0,0,0,0,0,0,0,0,0,0,0,0,0,0,0,0,0,0,0,0,0,0,0,0,0,0,0,0,0],"id":7,"left_children":[1,3,5,-1,7,9,11,13,-1,15,17,19,21,23,25,27,29,-1,31,-1,-1,33,35,-1,-1,-1,-1,-1,-1,-1,-1,-1,-1,-1,-1,-1,-1],"loss_changes":[3.4063302E-2,3.6284246E-2,9.8042744E-1,0E0,2.2078106E-2,3.6544222E-1,8.424163E-3,1.4634499E-2,0E0,4.1022536E-4,2.8587997E-2,3.816763E-3,7.818639E-3,7.6459907E-3,2.69067E-4,3.9829954E-4,2.5372792E-4,0E0,1.05112195E-2,0E0,0E0,1.2333751E-2,4.575968E-3,0E0,0E0,0E0,0E0,0E0,0E0,0E0,0E0,0E0,0E0,0E0,0E0,0E0,0E0],"parents":[2147483647,0,0,1,1,2,2,4,4,5,5,6,6,7,7,9,9,10,10,11,11,12,12,13,13,14,14,15,15,16,16,18,18,21,21,22,22],"right_children":[2,4,6,-1,8,10,12,14,-1,16,18,20,22,24,26,28,30,-1,32,-1,-1,34,36,-1,-1,-1,-1,-1,-1,-1,-1,-1,-1,-1,-1,-1,-1],"split_conditions":[-4.3564597E-3,-1.6234038E0,2E0,2.4724077E-3,1.1889805E0,1E0,-1.7502073E0,2E0,1.8803868E-3,2.058715E0,-2.5021958E0,-9.413464E-3,-2.2125034E0,1E0,-3.0401729E-2,-2.7259463E-2,2.0530782E0,2.2439244E-3,6.0396083E-2,-4.337809E-4,-1.8565413E-3,-1.3050132E-2,-2.6930848E-2,1.2358718E-5,6.321237E-4,-2.3008055E-4,-6.128504E-4,-3.879959E-5,-8.918479E-7,8.6882406E-5,-2.7063366E-5,6.014386E-4,8.318507E-4,-1.8812529E-3,-6.082504E-4,-7.4953766E-4,-5.876877E-4],"split_indices":[119,79,60,0,129,60,238,60,0,341,72,0,456,60,0,1,347,0,65,0,0,68,46,0,0,0,0,0,0,0,0,0,0,0,0,0,0],"split_type":[0,0,0,0,0,0,0,0,0,0,0,0,0,0,0,0,0,0,0,0,0,0,0,0,0,0,0,0,0,0,0,0,0,0,0,0,0],"sum_hessian":[2.211E3,5.2E1,2.159E3,3E0,4.9E1,1.483E3,6.76E2,4.6E1,3E0,7.45E2,7.38E2,5E0,6.71E2,3.8E1,8E0,7.03E2,4.2E1,4E0,7.34E2,2E0,3E0,1.6E1,6.55E2,1.3E1,2.5E1,3E0,5E0,1.53E2,5.5E2,3.1E1,1.1E1,6.25E2,1.09E2,5E0,1.1E1,1.07E2,5.48E2],"tree_param":{"num_deleted":"0","num_feature":"514","num_nodes":"37","size_leaf_vector":"0"}},{"base_weights":[1.5999277E-3,2.6646331E-2,9.846224E-4,2.4724077E-3,1.8751066E-2,1.537076E-2,-3.0551584E-2,1.2266362E-2,1.8803868E-3,1.3688817E-2,2.7327912E-2,-6.982006E-2,-3.015551E-2,2.0440906E-2,-2.4519596E-2,-3.4734167E-4,2.886905E-2,6.227012E-4,4.3251872E-2,-4.337809E-4,-1.8565413E-3,-5.247959E-2,-2.953102E-2,5.903287E-4,1.7827509E-4,-6.128504E-4,-2.3008055E-4,-7.355158E-8,-4.1228293E-5,5.930913E-4,1.5195509E-3,-1.6787195E-5,8.6724634E-5,2.2439244E-3,8.318507E-4,-1.8812529E-3,-6.082504E-4,-7.6956925E-4,-5.909066E-4],"categories":[],"categories_nodes":[],"categories_segments":[],"categories_sizes":[],"default_left":[0,0,0,0,0,0,0,0,0,0,0,0,0,0,0,0,0,0,0,0,0,0,0,0,0,0,0,0,0,0,0,0,0,0,0,0,0,0,0],"id":8,"left_children":[1,3,5,-1,7,9,11,13,-1,15,17,19,21,23,25,27,29,31,33,-1,-1,35,37,-1,-1,-1,-1,-1,-1,-1,-1,-1,-1,-1,-1,-1,-1,-1,-1],"loss_changes":[3.4063302E-2,3.6284246E-2,9.8042744E-1,0E0,2.2078106E-2,2.947104E-2,8.424163E-3,1.4634499E-2,0E0,2.7764302E-1,7.7369064E-2,3.816763E-3,7.818639E-3,3.4165177E-3,2.69067E-4,3.803293E-4,8.976996E-3,3.5228443E-4,2.0117164E-2,0E0,0E0,1.2333751E-2,4.626155E-3,0E0,0E0,0E0,0E0,0E0,0E0,0E0,0E0,0E0,0E0,0E0,0E0,0E0,0E0,0E0,0E0],"parents":[2147483647,0,0,1,1,2,2,4,4,5,5,6,6,7,7,9,9,10,10,11,11,12,12,13,13,14,14,15,15,16,16,17,17,18,18,21,21,22,22],"right_children":[2,4,6,-1,8,10,12,14,-1,16,18,20,22,24,26,28,30,32,34,-1,-1,36,38,-1,-1,-1,-1,-1,-1,-1,-1,-1,-1,-1,-1,-1,-1,-1,-1],"split_conditions":[-4.3564597E-3,-1.6234038E0,2E0,2.4724077E-3,1.1889805E0,6.0396083E-2,-1.7502073E0,2E0,1.8803868E-3,1E0,1E0,-9.413464E-3,-2.2125034E0,-4.309559E-4,2.8684478E-2,3.1447876E-2,4.8529014E-2,2.9332336E-2,-2.5021958E0,-4.337809E-4,-1.8565413E-3,-1.3050132E-2,-2.7351728E-2,5.903287E-4,1.7827509E-4,-6.128504E-4,-2.3008055E-4,-7.355158E-8,-4.1228293E-5,5.930913E-4,1.5195509E-3,-1.6787195E-5,8.6724634E-5,2.2439244E-3,8.318507E-4,-1.8812529E-3,-6.082504E-4,-7.6956925E-4,-5.909066E-4],"split_indices":[119,79,60,0,129,65,242,60,0,60,60,0,460,30,61,27,220,15,76,0,0,68,12,0,0,0,0,0,0,0,0,0,0,0,0,0,0,0,0],"split_type":[0,0,0,0,0,0,0,0,0,0,0,0,0,0,0,0,0,0,0,0,0,0,0,0,0,0,0,0,0,0,0,0,0,0,0,0,0,0,0],"sum_hessian":[2.211E3,5.2E1,2.159E3,3E0,4.9E1,1.483E3,6.76E2,4.6E1,3E0,1.302E3,1.81E2,5E0,6.71E2,3.8E1,8E0,6.77E2,6.25E2,6.8E1,1.13E2,2E0,3E0,1.6E1,6.55E2,2.2E1,1.6E1,5E0,3E0,5.6E2,1.17E2,6.21E2,4E0,4.9E1,1.9E1,4E0,1.09E2,5E0,1.1E1,8.5E1,5.7E2],"tree_param":{"num_deleted":"0","num_feature":"514","num_nodes":"39","size_leaf_vector":"0"}},{"base_weights":[1.5999277E-3,1.599682E-2,-3.0516934E-2,-2.4272228E-4,3.198359E-2,-5.1493894E-2,-2.9841173E-2,9.029599E-5,-1.796653E-3,2.2439244E-3,3.1447552E-2,-1.017253E-1,-2.7968407E-2,-3.7188627E-2,-2.8492697E-2,-1.0585237E-3,6.2030996E-4,2.6385006E-3,-2.507612E-3,8.7234974E-2,3.089234E-2,-2.5074906E-3,-8.952336E-4,-1.7885951E-2,-4.01111E-2,-4.4594154E-2,-2.4462188E-2,-3.89963E-2,-2.7812457E-2,-9.05625E-6,-8.675977E-5,2.2376014E-5,-2.796554E-5,7.628117E-5,-8.412446E-5,-2.970735E-5,-9.7715325E-5,3.638814E-4,2.8165604E-3,6.0006906E-4,8.684671E-4,-4.075665E-4,-1.55236E-4,-3.6405784E-4,-9.804285E-4,-1.1402969E-3,-6.317997E-4,-3.9607618E-4,-6.332809E-4,-1.5098065E-3,-7.1560394E-4,-9.402958E-4,-5.707779E-4],"categories":[],"categories_nodes":[],"categories_segments":[],"categories_sizes":[],"default_left":[0,0,0,0,0,0,0,0,0,0,0,0,0,0,0,0,0,0,0,0,0,0,0,0,0,0,0,0,0,0,0,0,0,0,0,0,0,0,0,0,0,0,0,0,0,0,0,0,0,0,0,0,0],"id":9,"left_children":[1,3,5,7,9,11,13,15,17,-1,19,21,23,25,27,29,31,33,35,37,39,-1,-1,41,43,45,47,49,51,-1,-1,-1,-1,-1,-1,-1,-1,-1,-1,-1,-1,-1,-1,-1,-1,-1,-1,-1,-1,-1,-1,-1,-1],"loss_changes":[1.0232793E0,3.9670387E-1,8.173525E-3,3.9293506E-4,2.786833E-2,2.0789273E-2,5.539E-3,3.8182206E-4,4.2914692E-4,0E0,2.1031022E-2,1.3970286E-3,1.1189971E-3,8.333728E-3,2.9666424E-3,3.8182706E-4,3.8348036E-4,1.4455507E-4,2.6718358E-4,2.1061335E-2,1.5936553E-2,0E0,0E0,2.9241899E-5,1.214901E-4,7.310055E-3,6.8376213E-4,2.4888217E-3,2.6175678E-3,0E0,0E0,0E0,0E0,0E0,0E0,0E0,0E0,0E0,0E0,0E0,0E0,0E0,0E0,0E0,0E0,0E0,0E0,0E0,0E0,0E0,0E0,0E0,0E0],"parents":[2147483647,0,0,1,1,2,2,3,3,4,4,5,5,6,6,7,7,8,8,10,10,11,11,12,12,13,13,14,14,15,15,16,16,17,17,18,18,19,19,20,20,23,23,24,24,25,25,26,26,27,27,28,28],"right_children":[2,4,6,8,10,12,14,16,18,-1,20,22,24,26,28,30,32,34,36,38,40,-1,-1,42,44,46,48,50,52,-1,-1,-1,-1,-1,-1,-1,-1,-1,-1,-1,-1,-1,-1,-1,-1,-1,-1,-1,-1,-1,-1,-1,-1],"split_conditions":[2E0,1E0,-8.492954E-2,3.1447876E-2,-2.5021958E0,5.338646E-2,-3.7099086E-2,-1.6772551E-2,-4.2408735E-2,2.2439244E-3,-1.3437785E-1,-2.1625113E-2,1.7975593E-1,-9.912924E-2,-1.2519989E0,7.5438696E-1,8.5610074E-1,2.215369E-2,9.730286E-3,-1.7549554E-2,6.0396083E-2,-2.5074906E-3,-8.952336E-4,2.0851236E-2,-1.0128578E-3,1.7565571E-1,-8.522719E-3,-8.492686E-1,-9.010237E-3,-9.05625E-6,-8.675977E-5,2.2376014E-5,-2.796554E-5,7.628117E-5,-8.412446E-5,-2.970735E-5,-9.7715325E-5,3.638814E-4,2.8165604E-3,6.0006906E-4,8.684671E-4,-4.075665E-4,-1.55236E-4,-3.6405784E-4,-9.804285E-4,-1.1402969E-3,-6.317997E-4,-3.9607618E-4,-6.332809E-4,-1.5098065E-3,-7.1560394E-4,-9.402958E-4,-5.707779E-4],"split_indices":[60,60,45,27,72,316,13,1,39,0,54,2,156,203,391,291,206,46,47,2,65,0,0,3,3,275,312,398,419,0,0,0,0,0,0,0,0,0,0,0,0,0,0,0,0,0,0,0,0,0,0,0,0],"split_type":[0,0,0,0,0,0,0,0,0,0,0,0,0,0,0,0,0,0,0,0,0,0,0,0,0,0,0,0,0,0,0,0,0,0,0,0,0,0,0,0,0,0,0,0,0,0,0,0,0,0,0,0,0],"sum_hessian":[2.211E3,1.527E3,6.84E2,7.58E2,7.69E2,1.9E1,6.65E2,6.25E2,1.33E2,4E0,7.65E2,5E0,1.4E1,9.9E1,5.66E2,1.97E2,4.28E2,1.8E1,1.15E2,6E0,7.59E2,3E0,2E0,9E0,5E0,6.1E1,3.8E1,3.1E1,5.35E2,1.65E2,3.2E1,3.48E2,8E1,1.6E1,2E0,7.8E1,3.7E1,3E0,3E0,6.39E2,1.2E2,7E0,2E0,2E0,3E0,3.4E1,2.7E1,2.2E1,1.6E1,2E0,2.9E1,1E1,5.25E2],"tree_param":{"num_deleted":"0","num_feature":"514","num_nodes":"53","size_leaf_vector":"0"}},{"base_weights":[1.5999277E-3,1.599682E-2,-3.0516934E-2,-2.4272228E-4,3.198359E-2,-5.247959E-2,-2.9913224E-2,-4.2134002E-4,2.669392E-3,2.2439244E-3,3.1447552E-2,-1.8812529E-3,-2.9196016E-2,-6.339964E-2,-2.9514553E-2,-1.8434791E-3,-1.2069655E-5,4.031568E-3,-1.2990416E-3,8.7234974E-2,3.089234E-2,-2.7329667E-4,-8.0846064E-4,-4.549039E-4,-1.8565413E-3,-3.7155144E-2,-2.8311355E-2,1.550902E-5,-5.4183583E-5,-3.3357753E-6,1.0424575E-4,1.0140719E-4,-3.382108E-5,-7.437246E-5,3.2641132E-5,3.638814E-4,2.8165604E-3,6.0006906E-4,8.684671E-4,-1.1454443E-3,-6.4611E-4,-1.2190801E-3,-5.832996E-4],"categories":[],"categories_nodes":[],"categories_segments":[],"categories_sizes":[],"default_left":[0,0,0,0,0,0,0,0,0,0,0,0,0,0,0,0,0,0,0,0,0,0,0,0,0,0,0,0,0,0,0,0,0,0,0,0,0,0,0,0,0,0,0],"id":10,"left_children":[1,3,5,7,9,11,13,15,17,-1,19,-1,21,23,25,27,29,31,33,35,37,-1,-1,-1,-1,39,41,-1,-1,-1,-1,-1,-1,-1,-1,-1,-1,-1,-1,-1,-1,-1,-1],"loss_changes":[1.0232793E0,3.9670387E-1,7.512629E-3,3.9592257E-4,2.786833E-2,1.2333751E-2,7.0599318E-3,4.1671796E-4,2.4308817E-4,0E0,2.1031022E-2,0E0,1.3450403E-3,5.535744E-3,5.043149E-3,3.155219E-4,4.1442196E-4,1.6390736E-4,8.368678E-5,2.1061335E-2,1.5936553E-2,0E0,0E0,0E0,0E0,7.820144E-3,3.8161278E-3,0E0,0E0,0E0,0E0,0E0,0E0,0E0,0E0,0E0,0E0,0E0,0E0,0E0,0E0,0E0,0E0],"parents":[2147483647,0,0,1,1,2,2,3,3,4,4,5,5,6,6,7,7,8,8,10,10,12,12,13,13,14,14,15,15,16,16,17,17,18,18,19,19,20,20,25,25,26,26],"right_children":[2,4,6,8,10,12,14,16,18,-1,20,-1,22,24,26,28,30,32,34,36,38,-1,-1,-1,-1,40,42,-1,-1,-1,-1,-1,-1,-1,-1,-1,-1,-1,-1,-1,-1,-1,-1],"split_conditions":[2E0,1E0,-2.2125034E0,2.058715E0,-2.5021958E0,-1.3050132E-2,-1.7502073E0,-2.7259463E-2,2.0530782E0,2.2439244E-3,-1.3437785E-1,-1.8812529E-3,3.1449825E-2,-9.413464E-3,-2.7351728E-2,-2.2877136E-2,2.7660935E0,1.1809242E0,-5.359429E-1,-1.7549554E-2,6.0396083E-2,-2.7329667E-4,-8.0846064E-4,-4.549039E-4,-1.8565413E-3,-2.0423193E-2,-2.1931748E0,1.550902E-5,-5.4183583E-5,-3.3357753E-6,1.0424575E-4,1.0140719E-4,-3.382108E-5,-7.437246E-5,3.2641132E-5,3.638814E-4,2.8165604E-3,6.0006906E-4,8.684671E-4,-1.1454443E-3,-6.4611E-4,-1.2190801E-3,-5.832996E-4],"split_indices":[60,60,456,341,72,67,242,1,347,0,54,0,367,0,12,47,240,129,296,2,66,0,0,0,0,22,474,0,0,0,0,0,0,0,0,0,0,0,0,0,0,0,0],"split_type":[0,0,0,0,0,0,0,0,0,0,0,0,0,0,0,0,0,0,0,0,0,0,0,0,0,0,0,0,0,0,0,0,0,0,0,0,0,0,0,0,0,0,0],"sum_hessian":[2.211E3,1.527E3,6.84E2,7.58E2,7.69E2,1.6E1,6.68E2,7.15E2,4.3E1,4E0,7.65E2,5E0,1.1E1,6E0,6.62E2,1.59E2,5.56E2,3.2E1,1.1E1,6E0,7.59E2,5E0,6E0,3E0,3E0,8.6E1,5.76E2,3.6E1,1.23E2,5.41E2,1.5E1,2.8E1,4E0,6E0,5E0,3E0,3E0,6.39E2,1.2E2,2E1,6.6E1,4E0,5.72E2],"tree_param":{"num_deleted":"0","num_feature":"514","num_nodes":"43","size_leaf_vector":"0"}},{"base_weights":[1.5999277E-3,1.599682E-2,-3.0516934E-2,-2.4272228E-4,3.198359E-2,-5.1493894E-2,-2.9841173E-2,-4.2134002E-4,2.669392E-3,2.2439244E-3,3.1447552E-2,-1.017253E-1,-2.7968407E-2,-3.7188627E-2,-2.8492697E-2,-1.8434791E-3,-1.2069655E-5,4.031568E-3,-1.2990416E-3,8.7234974E-2,3.089234E-2,-8.952336E-4,-2.5074906E-3,-9.118831E-4,-1.8243108E-2,-4.4594154E-2,-2.4462188E-2,-3.4479037E-2,-2.7409483E-2,-4.8685117E-5,4.5391163E-5,-3.3357753E-6,1.0424575E-4,1.0140719E-4,-3.382108E-5,-7.437246E-5,3.2641132E-5,3.638814E-4,2.8165604E-3,6.0006906E-4,8.684671E-4,-4.1277823E-4,-1.55236E-4,-1.2439638E-3,-7.247403E-4,-3.9607618E-4,-6.332809E-4,-6.326811E-4,-1.0643336E-3,-7.952049E-4,-5.534398E-4],"categories":[],"categories_nodes":[],"categories_segments":[],"categories_sizes":[],"default_left":[0,0,0,0,0,0,0,0,0,0,0,0,0,0,0,0,0,0,0,0,0,0,0,0,0,0,0,0,0,0,0,0,0,0,0,0,0,0,0,0,0,0,0,0,0,0,0,0,0,0,0],"id":11,"left_children":[1,3,5,7,9,11,13,15,17,-1,19,21,23,25,27,29,31,33,35,37,39,-1,-1,-1,41,43,45,47,49,-1,-1,-1,-1,-1,-1,-1,-1,-1,-1,-1,-1,-1,-1,-1,-1,-1,-1,-1,-1,-1,-1],"loss_changes":[1.0232793E0,3.9670387E-1,8.173525E-3,3.9592257E-4,2.786833E-2,2.0789273E-2,5.539E-3,4.1671796E-4,2.4308817E-4,0E0,2.1031022E-2,1.3970286E-3,1.5066769E-3,8.333728E-3,2.7316809E-3,3.226286E-4,4.1442196E-4,1.6390736E-4,8.368678E-5,2.1061335E-2,1.5936553E-2,0E0,0E0,0E0,3.8767233E-5,7.1135834E-3,6.8376213E-4,4.114814E-3,3.3925772E-3,0E0,0E0,0E0,0E0,0E0,0E0,0E0,0E0,0E0,0E0,0E0,0E0,0E0,0E0,0E0,0E0,0E0,0E0,0E0,0E0,0E0,0E0],"parents":[2147483647,0,0,1,1,2,2,3,3,4,4,5,5,6,6,7,7,8,8,10,10,11,11,12,12,13,13,14,14,15,15,16,16,17,17,18,18,19,19,20,20,24,24,25,25,26,26,27,27,28,28],"right_children":[2,4,6,8,10,12,14,16,18,-1,20,22,24,26,28,30,32,34,36,38,40,-1,-1,-1,42,44,46,48,50,-1,-1,-1,-1,-1,-1,-1,-1,-1,-1,-1,-1,-1,-1,-1,-1,-1,-1,-1,-1,-1,-1],"split_conditions":[2E0,1E0,-8.492954E-2,2.058715E0,-2.5021958E0,5.338646E-2,-3.7099086E-2,-2.7259463E-2,2.0530782E0,2.2439244E-3,-1.3437785E-1,1.4587408E-2,7.410761E-2,-9.912924E-2,-1.0822536E0,3.2129973E-2,2.7660935E0,1.1809242E0,-5.359429E-1,-1.7549554E-2,6.0396083E-2,-8.952336E-4,-2.5074906E-3,-9.118831E-4,2.0851236E-2,-3.860985E-1,-8.522719E-3,2.0410619E-3,-4.1492794E-2,-4.8685117E-5,4.5391163E-5,-3.3357753E-6,1.0424575E-4,1.0140719E-4,-3.382108E-5,-7.437246E-5,3.2641132E-5,3.638814E-4,2.8165604E-3,6.0006906E-4,8.684671E-4,-4.1277823E-4,-1.55236E-4,-1.2439638E-3,-7.247403E-4,-3.9607618E-4,-6.332809E-4,-6.326811E-4,-1.0643336E-3,-7.952049E-4,-5.534398E-4],"split_indices":[60,60,45,341,72,316,13,1,347,0,54,1,316,207,389,40,244,129,296,2,66,0,0,0,3,71,312,262,20,0,0,0,0,0,0,0,0,0,0,0,0,0,0,0,0,0,0,0,0,0,0],"split_type":[0,0,0,0,0,0,0,0,0,0,0,0,0,0,0,0,0,0,0,0,0,0,0,0,0,0,0,0,0,0,0,0,0,0,0,0,0,0,0,0,0,0,0,0,0,0,0,0,0,0,0],"sum_hessian":[2.211E3,1.527E3,6.84E2,7.58E2,7.69E2,1.9E1,6.65E2,7.15E2,4.3E1,4E0,7.65E2,5E0,1.4E1,9.9E1,5.66E2,1.59E2,5.56E2,3.2E1,1.1E1,6E0,7.59E2,2E0,3E0,4E0,1E1,6.1E1,3.8E1,8.2E1,4.84E2,1.42E2,1.7E1,5.41E2,1.5E1,2.8E1,4E0,6E0,5E0,3E0,3E0,6.39E2,1.2E2,8E0,2E0,2.2E1,3.9E1,2.2E1,1.6E1,6.8E1,1.4E1,3.2E1,4.52E2],"tree_param":{"num_deleted":"0","num_feature":"514","num_nodes":"51","size_leaf_vector":"0"}},{"base_weights":[1.5999277E-3,1.599682E-2,-3.0516934E-2,-2.4272228E-4,3.198359E-2,-5.247959E-2,-2.9913224E-2,-4.2134002E-4,2.669392E-3,2.2439244E-3,3.1447552E-2,-1.8812529E-3,-2.9196016E-2,-6.339964E-2,-2.9514553E-2,-1.8434791E-3,-1.2069655E-5,4.031568E-3,-1.2990416E-3,8.7234974E-2,3.089234E-2,-8.0846064E-4,-2.7329667E-4,-4.549039E-4,-1.8565413E-3,-3.5977807E-2,-2.8206017E-2,-4.8685117E-5,4.5391163E-5,-3.3357753E-6,1.0424575E-4,1.0140719E-4,-3.382108E-5,-7.437246E-5,3.2641132E-5,3.638814E-4,2.8165604E-3,6.0006906E-4,8.684671E-4,-6.863313E-4,-1.3685487E-3,-6.461132E-4,-5.1184057E-4],"categories":[],"categories_nodes":[],"categories_segments":[],"categories_sizes":[],"default_left":[0,0,0,0,0,0,0,0,0,0,0,0,0,0,0,0,0,0,0,0,0,0,0,0,0,0,0,0,0,0,0,0,0,0,0,0,0,0,0,0,0,0,0],"id":12,"left_children":[1,3,5,7,9,11,13,15,17,-1,19,-1,21,23,25,27,29,31,33,35,37,-1,-1,-1,-1,39,41,-1,-1,-1,-1,-1,-1,-1,-1,-1,-1,-1,-1,-1,-1,-1,-1],"loss_changes":[1.0232793E0,3.9670387E-1,7.512629E-3,3.9592257E-4,2.786833E-2,1.2333751E-2,7.0599318E-3,4.1671796E-4,2.4308817E-4,0E0,2.1031022E-2,0E0,1.3450403E-3,5.535744E-3,4.5924783E-3,3.226286E-4,4.1442196E-4,1.6390736E-4,8.368678E-5,2.1061335E-2,1.5936553E-2,0E0,0E0,0E0,0E0,7.571578E-3,4.916191E-3,0E0,0E0,0E0,0E0,0E0,0E0,0E0,0E0,0E0,0E0,0E0,0E0,0E0,0E0,0E0,0E0],"parents":[2147483647,0,0,1,1,2,2,3,3,4,4,5,5,6,6,7,7,8,8,10,10,12,12,13,13,14,14,15,15,16,16,17,17,18,18,19,19,20,20,25,25,26,26],"right_children":[2,4,6,8,10,12,14,16,18,-1,20,-1,22,24,26,28,30,32,34,36,38,-1,-1,-1,-1,40,42,-1,-1,-1,-1,-1,-1,-1,-1,-1,-1,-1,-1,-1,-1,-1,-1],"split_conditions":[2E0,1E0,-2.2125034E0,2.058715E0,-2.5021958E0,-1.3050132E-2,-1.7502073E0,-2.7259463E-2,2.2970839E0,2.2439244E-3,-1.3437785E-1,-1.8812529E-3,-1.6940141E-2,-9.413464E-3,-2.6930848E-2,3.2129973E-2,2.7660935E0,1.1809242E0,-5.359429E-1,-1.7549554E-2,6.0396083E-2,-8.0846064E-4,-2.7329667E-4,-4.549039E-4,-1.8565413E-3,3.9975464E-2,1.9553345E-1,-4.8685117E-5,4.5391163E-5,-3.3357753E-6,1.0424575E-4,1.0140719E-4,-3.382108E-5,-7.437246E-5,3.2641132E-5,3.638814E-4,2.8165604E-3,6.0006906E-4,8.684671E-4,-6.863313E-4,-1.3685487E-3,-6.461132E-4,-5.1184057E-4],"split_indices":[60,60,456,345,72,67,238,1,348,0,54,0,5,0,46,40,244,129,296,2,65,0,0,0,0,14,254,0,0,0,0,0,0,0,0,0,0,0,0,0,0,0,0],"split_type":[0,0,0,0,0,0,0,0,0,0,0,0,0,0,0,0,0,0,0,0,0,0,0,0,0,0,0,0,0,0,0,0,0,0,0,0,0,0,0,0,0,0,0],"sum_hessian":[2.211E3,1.527E3,6.84E2,7.58E2,7.69E2,1.6E1,6.68E2,7.15E2,4.3E1,4E0,7.65E2,5E0,1.1E1,6E0,6.62E2,1.59E2,5.56E2,3.2E1,1.1E1,6E0,7.59E2,6E0,5E0,3E0,3E0,1.07E2,5.55E2,1.42E2,1.7E1,5.41E2,1.5E1,2.8E1,4E0,6E0,5E0,3E0,3E0,6.39E2,1.2E2,9.9E1,8E0,3.09E2,2.46E2],"tree_param":{"num_deleted":"0","num_feature":"514","num_nodes":"43","size_leaf_vector":"0"}},{"base_weights":[1.5999277E-3,1.599682E-2,-3.0516934E-2,-2.4272228E-4,3.198359E-2,-5.247959E-2,-2.9913224E-2,-4.2134002E-4,2.669392E-3,2.2439244E-3,3.1447552E-2,-1.8812529E-3,-2.9196016E-2,-6.339964E-2,-2.9514553E-2,-1.8434791E-3,-1.2069655E-5,4.031568E-3,-1.2990416E-3,8.7234974E-2,3.089234E-2,-8.0846064E-4,-2.7329667E-4,-1.8565413E-3,-4.549039E-4,-3.7155144E-2,-2.8311355E-2,-4.8685117E-5,4.5391163E-5,-3.3357753E-6,1.0424575E-4,1.0140719E-4,-3.382108E-5,-7.437246E-5,3.2641132E-5,3.638814E-4,2.8165604E-3,6.0006906E-4,8.684671E-4,-1.1454443E-3,-6.4611E-4,-1.2190801E-3,-5.832996E-4],"categories":[],"categories_nodes":[],"categories_segments":[],"categories_sizes":[],"default_left":[0,0,0,0,0,0,0,0,0,0,0,0,0,0,0,0,0,0,0,0,0,0,0,0,0,0,0,0,0,0,0,0,0,0,0,0,0,0,0,0,0,0,0],"id":13,"left_children":[1,3,5,7,9,11,13,15,17,-1,19,-1,21,23,25,27,29,31,33,35,37,-1,-1,-1,-1,39,41,-1,-1,-1,-1,-1,-1,-1,-1,-1,-1,-1,-1,-1,-1,-1,-1],"loss_changes":[1.0232793E0,3.9670387E-1,7.512629E-3,3.9592257E-4,2.786833E-2,1.2333751E-2,7.0599318E-3,4.1671796E-4,2.4308817E-4,0E0,2.1031022E-2,0E0,1.3450403E-3,5.535744E-3,5.043149E-3,3.226286E-4,4.1442196E-4,1.6390736E-4,8.368678E-5,2.1061335E-2,1.5936553E-2,0E0,0E0,0E0,0E0,7.820144E-3,3.8161278E-3,0E0,0E0,0E0,0E0,0E0,0E0,0E0,0E0,0E0,0E0,0E0,0E0,0E0,0E0,0E0,0E0],"parents":[2147483647,0,0,1,1,2,2,3,3,4,4,5,5,6,6,7,7,8,8,10,10,12,12,13,13,14,14,15,15,16,16,17,17,18,18,19,19,20,20,25,25,26,26],"right_children":[2,4,6,8,10,12,14,16,18,-1,20,-1,22,24,26,28,30,32,34,36,38,-1,-1,-1,-1,40,42,-1,-1,-1,-1,-1,-1,-1,-1,-1,-1,-1,-1,-1,-1,-1,-1],"split_conditions":[2E0,1E0,-2.2125034E0,2.058715E0,-2.5021958E0,-1.3050132E-2,-1.7502073E0,-2.7259463E-2,2.0530782E0,2.2439244E-3,-1.3437785E-1,-1.8812529E-3,-1.6940141E-2,7.931864E-3,-2.7351728E-2,3.2129973E-2,2.7660935E0,1.1809242E0,-5.359429E-1,-1.7549554E-2,6.0396083E-2,-8.0846064E-4,-2.7329667E-4,-1.8565413E-3,-4.549039E-4,-2.0423193E-2,-2.1931748E0,-4.8685117E-5,4.5391163E-5,-3.3357753E-6,1.0424575E-4,1.0140719E-4,-3.382108E-5,-7.437246E-5,3.2641132E-5,3.638814E-4,2.8165604E-3,6.0006906E-4,8.684671E-4,-1.1454443E-3,-6.4611E-4,-1.2190801E-3,-5.832996E-4],"split_indices":[60,60,456,341,72,67,238,1,347,0,54,0,5,8,12,40,240,129,296,2,65,0,0,0,0,22,474,0,0,0,0,0,0,0,0,0,0,0,0,0,0,0,0],"split_type":[0,0,0,0,0,0,0,0,0,0,0,0,0,0,0,0,0,0,0,0,0,0,0,0,0,0,0,0,0,0,0,0,0,0,0,0,0,0,0,0,0,0,0],"sum_hessian":[2.211E3,1.527E3,6.84E2,7.58E2,7.69E2,1.6E1,6.68E2,7.15E2,4.3E1,4E0,7.65E2,5E0,1.1E1,6E0,6.62E2,1.59E2,5.56E2,3.2E1,1.1E1,6E0,7.59E2,6E0,5E0,3E0,3E0,8.6E1,5.76E2,1.42E2,1.7E1,5.41E2,1.5E1,2.8E1,4E0,6E0,5E0,3E0,3E0,6.39E2,1.2E2,2E1,6.6E1,4E0,5.72E2],"tree_param":{"num_deleted":"0","num_feature":"514","num_nodes":"43","size_leaf_vector":"0"}},{"base_weights":[1.5999277E-3,1.599682E-2,-3.0516934E-2,-2.4272228E-4,3.198359E-2,-5.1493894E-2,-2.9841173E-2,-4.2134002E-4,2.669392E-3,2.2439244E-3,3.1447552E-2,-1.017253E-1,-2.7968407E-2,-3.7188627E-2,-2.8492697E-2,-1.8434791E-3,-1.2069655E-5,4.031568E-3,-1.2990416E-3,8.7234974E-2,3.089234E-2,-8.952336E-4,-2.5074906E-3,-9.118831E-4,-1.8243108E-2,-4.4594154E-2,-2.4462188E-2,-3.89963E-2,-2.7812457E-2,-4.8685117E-5,4.5391163E-5,-3.3357753E-6,1.0424575E-4,1.0140719E-4,-3.382108E-5,-7.437246E-5,3.2641132E-5,3.638814E-4,2.8165604E-3,6.0006906E-4,8.684671E-4,-4.1277823E-4,-1.55236E-4,-1.1402969E-3,-6.317997E-4,-3.9607618E-4,-6.332809E-4,-1.5098065E-3,-7.1560394E-4,-5.0437415E-4,-6.2366406E-4],"categories":[],"categories_nodes":[],"categories_segments":[],"categories_sizes":[],"default_left":[0,0,0,0,0,0,0,0,0,0,0,0,0,0,0,0,0,0,0,0,0,0,0,0,0,0,0,0,0,0,0,0,0,0,0,0,0,0,0,0,0,0,0,0,0,0,0,0,0,0,0],"id":14,"left_children":[1,3,5,7,9,11,13,15,17,-1,19,21,23,25,27,29,31,33,35,37,39,-1,-1,-1,41,43,45,47,49,-1,-1,-1,-1,-1,-1,-1,-1,-1,-1,-1,-1,-1,-1,-1,-1,-1,-1,-1,-1,-1,-1],"loss_changes":[1.0232793E0,3.9670387E-1,8.173525E-3,3.9592257E-4,2.786833E-2,2.0789273E-2,5.539E-3,4.1671796E-4,2.4308817E-4,0E0,2.1031022E-2,1.3970286E-3,1.5066769E-3,8.333728E-3,2.9666424E-3,3.226286E-4,4.1442196E-4,1.6390736E-4,8.368678E-5,2.1061335E-2,1.5936553E-2,0E0,0E0,0E0,3.8767233E-5,7.310055E-3,6.8376213E-4,2.4888217E-3,3.3754408E-3,0E0,0E0,0E0,0E0,0E0,0E0,0E0,0E0,0E0,0E0,0E0,0E0,0E0,0E0,0E0,0E0,0E0,0E0,0E0,0E0,0E0,0E0],"parents":[2147483647,0,0,1,1,2,2,3,3,4,4,5,5,6,6,7,7,8,8,10,10,11,11,12,12,13,13,14,14,15,15,16,16,17,17,18,18,19,19,20,20,24,24,25,25,26,26,27,27,28,28],"right_children":[2,4,6,8,10,12,14,16,18,-1,20,22,24,26,28,30,32,34,36,38,40,-1,-1,-1,42,44,46,48,50,-1,-1,-1,-1,-1,-1,-1,-1,-1,-1,-1,-1,-1,-1,-1,-1,-1,-1,-1,-1,-1,-1],"split_conditions":[2E0,1E0,-8.492954E-2,2.058715E0,-2.5021958E0,5.338646E-2,-3.7099086E-2,-2.7259463E-2,2.0530782E0,2.2439244E-3,-1.3437785E-1,1.4587408E-2,7.410761E-2,-9.912924E-2,-1.2519989E0,3.2129973E-2,2.7660935E0,1.1809242E0,-5.359429E-1,1.532652E-2,6.0396083E-2,-8.952336E-4,-2.5074906E-3,-9.118831E-4,2.0851236E-2,1.7565571E-1,-8.522719E-3,-8.492686E-1,3.045878E-2,-4.8685117E-5,4.5391163E-5,-3.3357753E-6,1.0424575E-4,1.0140719E-4,-3.382108E-5,-7.437246E-5,3.2641132E-5,3.638814E-4,2.8165604E-3,6.0006906E-4,8.684671E-4,-4.1277823E-4,-1.55236E-4,-1.1402969E-3,-6.317997E-4,-3.9607618E-4,-6.332809E-4,-1.5098065E-3,-7.1560394E-4,-5.0437415E-4,-6.2366406E-4],"split_indices":[60,60,45,341,72,316,13,1,347,0,54,1,317,207,391,40,240,129,296,17,65,0,0,0,3,275,312,398,66,0,0,0,0,0,0,0,0,0,0,0,0,0,0,0,0,0,0,0,0,0,0],"split_type":[0,0,0,0,0,0,0,0,0,0,0,0,0,0,0,0,0,0,0,0,0,0,0,0,0,0,0,0,0,0,0,0,0,0,0,0,0,0,0,0,0,0,0,0,0,0,0,0,0,0,0],"sum_hessian":[2.211E3,1.527E3,6.84E2,7.58E2,7.69E2,1.9E1,6.65E2,7.15E2,4.3E1,4E0,7.65E2,5E0,1.4E1,9.9E1,5.66E2,1.59E2,5.56E2,3.2E1,1.1E1,6E0,7.59E2,2E0,3E0,4E0,1E1,6.1E1,3.8E1,3.1E1,5.35E2,1.42E2,1.7E1,5.41E2,1.5E1,2.8E1,4E0,6E0,5E0,3E0,3E0,6.39E2,1.2E2,8E0,2E0,3.4E1,2.7E1,2.2E1,1.6E1,2E0,2.9E1,2.03E2,3.32E2],"tree_param":{"num_deleted":"0","num_feature":"514","num_nodes":"51","size_leaf_vector":"0"}},{"base_weights":[1.5999277E-3,1.599682E-2,-3.0516934E-2,-2.4272228E-4,3.198359E-2,-5.1493894E-2,-2.9841173E-2,-4.2134002E-4,2.669392E-3,2.2439244E-3,3.1447552E-2,-1.017253E-1,-2.7968407E-2,-3.7188627E-2,-2.8492697E-2,-1.8434791E-3,-1.2069655E-5,4.031568E-3,-1.2990416E-3,8.7234974E-2,3.089234E-2,-8.952336E-4,-2.5074906E-3,-9.118831E-4,-1.8243108E-2,-4.4594154E-2,-2.4462188E-2,-3.89963E-2,-2.7812457E-2,1.550902E-5,-5.4183583E-5,-3.3357753E-6,1.0424575E-4,5.6512577E-6,1.0883367E-4,-7.437246E-5,3.2641132E-5,3.638814E-4,2.8165604E-3,6.0006906E-4,8.684671E-4,-1.55236E-4,-4.1277823E-4,-1.1402969E-3,-6.317997E-4,-3.9607618E-4,-6.332809E-4,-1.5098065E-3,-7.1560394E-4,-5.0437415E-4,-6.2366406E-4],"categories":[],"categories_nodes":[],"categories_segments":[],"categories_sizes":[],"default_left":[0,0,0,0,0,0,0,0,0,0,0,0,0,0,0,0,0,0,0,0,0,0,0,0,0,0,0,0,0,0,0,0,0,0,0,0,0,0,0,0,0,0,0,0,0,0,0,0,0,0,0],"id":15,"left_children":[1,3,5,7,9,11,13,15,17,-1,19,21,23,25,27,29,31,33,35,37,39,-1,-1,-1,41,43,45,47,49,-1,-1,-1,-1,-1,-1,-1,-1,-1,-1,-1,-1,-1,-1,-1,-1,-1,-1,-1,-1,-1,-1],"loss_changes":[1.0232793E0,3.9670387E-1,8.173525E-3,3.9592257E-4,2.786833E-2,2.0789273E-2,5.539E-3,4.1671796E-4,2.4308817E-4,0E0,2.1031022E-2,1.3970286E-3,1.5066769E-3,8.333728E-3,2.9666424E-3,3.155219E-4,4.1442196E-4,1.4655403E-4,8.368678E-5,2.1061335E-2,1.5936553E-2,0E0,0E0,0E0,3.8767233E-5,7.310055E-3,6.8376213E-4,2.4888217E-3,3.3754408E-3,0E0,0E0,0E0,0E0,0E0,0E0,0E0,0E0,0E0,0E0,0E0,0E0,0E0,0E0,0E0,0E0,0E0,0E0,0E0,0E0,0E0,0E0],"parents":[2147483647,0,0,1,1,2,2,3,3,4,4,5,5,6,6,7,7,8,8,10,10,11,11,12,12,13,13,14,14,15,15,16,16,17,17,18,18,19,19,20,20,24,24,25,25,26,26,27,27,28,28],"right_children":[2,4,6,8,10,12,14,16,18,-1,20,22,24,26,28,30,32,34,36,38,40,-1,-1,-1,42,44,46,48,50,-1,-1,-1,-1,-1,-1,-1,-1,-1,-1,-1,-1,-1,-1,-1,-1,-1,-1,-1,-1,-1,-1],"split_conditions":[2E0,1E0,-8.492954E-2,2.058715E0,-2.5021958E0,5.338646E-2,-3.7099086E-2,-2.7259463E-2,2.0530782E0,2.2439244E-3,-1.3437785E-1,1.4587408E-2,7.410761E-2,-9.912924E-2,-1.2519989E0,-2.2877136E-2,2.7660935E0,-3.2790516E-2,-5.359429E-1,-1.7549554E-2,6.0396083E-2,-8.952336E-4,-2.5074906E-3,-9.118831E-4,-2.4413012E-2,1.7565571E-1,-8.522719E-3,-8.492686E-1,3.045878E-2,1.550902E-5,-5.4183583E-5,-3.3357753E-6,1.0424575E-4,5.6512577E-6,1.0883367E-4,-7.437246E-5,3.2641132E-5,3.638814E-4,2.8165604E-3,6.0006906E-4,8.684671E-4,-1.55236E-4,-4.1277823E-4,-1.1402969E-3,-6.317997E-4,-3.9607618E-4,-6.332809E-4,-1.5098065E-3,-7.1560394E-4,-5.0437415E-4,-6.2366406E-4],"split_indices":[60,60,45,341,72,317,13,1,351,0,54,1,316,203,391,47,240,19,296,2,66,0,0,0,6,275,312,398,66,0,0,0,0,0,0,0,0,0,0,0,0,0,0,0,0,0,0,0,0,0,0],"split_type":[0,0,0,0,0,0,0,0,0,0,0,0,0,0,0,0,0,0,0,0,0,0,0,0,0,0,0,0,0,0,0,0,0,0,0,0,0,0,0,0,0,0,0,0,0,0,0,0,0,0,0],"sum_hessian":[2.211E3,1.527E3,6.84E2,7.58E2,7.69E2,1.9E1,6.65E2,7.15E2,4.3E1,4E0,7.65E2,5E0,1.4E1,9.9E1,5.66E2,1.59E2,5.56E2,3.2E1,1.1E1,6E0,7.59E2,2E0,3E0,4E0,1E1,6.1E1,3.8E1,3.1E1,5.35E2,3.6E1,1.23E2,5.41E2,1.5E1,8E0,2.4E1,6E0,5E0,3E0,3E0,6.39E2,1.2E2,2E0,8E0,3.4E1,2.7E1,2.2E1,1.6E1,2E0,2.9E1,2.03E2,3.32E2],"tree_param":{"num_deleted":"0","num_feature":"514","num_nodes":"51","size_leaf_vector":"0"}},{"base_weights":[1.5999277E-3,1.599682E-2,-3.0516934E-2,1.3996704E-2,2.951803E-2,-5.1493894E-2,-2.9841173E-2,-3.334931E-4,2.9282764E-2,6.415569E-4,4.5555424E-2,-1.017253E-1,-2.7968407E-2,-3.7188627E-2,-2.8492697E-2,-5.3162535E-4,2.8944933E-3,2.861439E-2,6.886294E-2,-8.1129046E-4,4.1393503E-3,2.2439244E-3,4.2634767E-2,-8.952336E-4,-2.5074906E-3,-9.118831E-4,-1.8243108E-2,-4.4594154E-2,-2.4462188E-2,-3.89963E-2,-2.7812457E-2,-3.724294E-6,-4.488445E-5,-5.9576658E-5,9.213337E-5,5.347238E-4,6.570147E-4,5.0432887E-4,2.7040355E-3,-3.9596776E-5,9.3407245E-5,-9.85895E-5,1.10880756E-4,1.238887E-3,7.6555664E-4,-4.1277823E-4,-1.55236E-4,-1.1402969E-3,-6.317997E-4,-3.9607618E-4,-6.332809E-4,-1.5098065E-3,-7.1560394E-4,-5.0437415E-4,-6.2366406E-4],"categories":[],"categories_nodes":[],"categories_segments":[],"categories_sizes":[],"default_left":[0,0,0,0,0,0,0,0,0,0,0,0,0,0,0,0,0,0,0,0,0,0,0,0,0,0,0,0,0,0,0,0,0,0,0,0,0,0,0,0,0,0,0,0,0,0,0,0,0,0,0,0,0,0,0],"id":16,"left_children":[1,3,5,7,9,11,13,15,17,19,21,23,25,27,29,31,33,35,37,39,41,-1,43,-1,-1,-1,45,47,49,51,53,-1,-1,-1,-1,-1,-1,-1,-1,-1,-1,-1,-1,-1,-1,-1,-1,-1,-1,-1,-1,-1,-1,-1,-1],"loss_changes":[1.0232793E0,4.0910095E-2,8.173525E-3,2.9200646E-1,9.073906E-2,2.0789273E-2,5.539E-3,4.422013E-4,1.5092492E-2,3.641632E-4,1.8280327E-2,1.3970286E-3,1.5066769E-3,8.333728E-3,2.9666424E-3,3.7182437E-4,3.643206E-4,4.6690702E-3,2.4066713E-2,3.0268743E-4,2.4557105E-4,0E0,9.905785E-3,0E0,0E0,0E0,3.8767233E-5,7.310055E-3,6.8376213E-4,2.4888217E-3,3.3754408E-3,0E0,0E0,0E0,0E0,0E0,0E0,0E0,0E0,0E0,0E0,0E0,0E0,0E0,0E0,0E0,0E0,0E0,0E0,0E0,0E0,0E0,0E0,0E0,0E0],"parents":[2147483647,0,0,1,1,2,2,3,3,4,4,5,5,6,6,7,7,8,8,9,9,10,10,11,11,12,12,13,13,14,14,15,15,16,16,17,17,18,18,19,19,20,20,22,22,26,26,27,27,28,28,29,29,30,30],"right_children":[2,4,6,8,10,12,14,16,18,20,22,24,26,28,30,32,34,36,38,40,42,-1,44,-1,-1,-1,46,48,50,52,54,-1,-1,-1,-1,-1,-1,-1,-1,-1,-1,-1,-1,-1,-1,-1,-1,-1,-1,-1,-1,-1,-1,-1,-1],"split_conditions":[2E0,6.0396083E-2,-8.492954E-2,1E0,1E0,5.338646E-2,-3.7099086E-2,4.585973E-2,1.8747604E0,2.9332336E-2,-2.5021958E0,1.4587408E-2,7.410761E-2,-9.912924E-2,-1.2519989E0,3.1447876E-2,-1.003797E0,-5.778895E-4,4.4778477E-2,7.459411E-1,-8.7433025E-2,2.2439244E-3,-9.7186497E-4,-8.952336E-4,-2.5074906E-3,-9.118831E-4,2.0851236E-2,1.7565571E-1,-8.522719E-3,-8.492686E-1,3.045878E-2,-3.724294E-6,-4.488445E-5,-5.9576658E-5,9.213337E-5,5.347238E-4,6.570147E-4,5.0432887E-4,2.7040355E-3,-3.9596776E-5,9.3407245E-5,-9.85895E-5,1.10880756E-4,1.238887E-3,7.6555664E-4,-4.1277823E-4,-1.55236E-4,-1.1402969E-3,-6.317997E-4,-3.9607618E-4,-6.332809E-4,-1.5098065E-3,-7.1560394E-4,-5.0437415E-4,-6.2366406E-4],"split_indices":[60,65,45,60,60,316,13,1,222,15,72,1,317,203,391,27,484,24,3,300,8,0,119,0,0,0,3,279,312,398,65,0,0,0,0,0,0,0,0,0,0,0,0,0,0,0,0,0,0,0,0,0,0,0,0],"split_type":[0,0,0,0,0,0,0,0,0,0,0,0,0,0,0,0,0,0,0,0,0,0,0,0,0,0,0,0,0,0,0,0,0,0,0,0,0,0,0,0,0,0,0,0,0,0,0,0,0,0,0,0,0,0,0],"sum_hessian":[2.211E3,1.527E3,6.84E2,1.332E3,1.95E2,1.9E1,6.65E2,6.88E2,6.44E2,7E1,1.25E2,5E0,1.4E1,9.9E1,5.66E2,6.49E2,3.9E1,6.35E2,9E0,5E1,2E1,4E0,1.21E2,2E0,3E0,4E0,1E1,6.1E1,3.8E1,3.1E1,5.35E2,5.34E2,1.15E2,8E0,3.1E1,3.21E2,3.14E2,6E0,3E0,4.2E1,8E0,2E0,1.8E1,2.9E1,9.2E1,8E0,2E0,3.4E1,2.7E1,2.2E1,1.6E1,2E0,2.9E1,2.03E2,3.32E2],"tree_param":{"num_deleted":"0","num_feature":"514","num_nodes":"55","size_leaf_vector":"0"}},{"base_weights":[1.5999277E-3,1.599682E-2,-3.0516934E-2,-2.4272228E-4,3.198359E-2,-5.1493894E-2,-2.9841173E-2,-4.2134002E-4,2.669392E-3,2.2439244E-3,3.1447552E-2,-1.017253E-1,-2.7968407E-2,-3.7188627E-2,-2.8492697E-2,-1.8434791E-3,-1.2069655E-5,4.031568E-3,-1.2990416E-3,8.7234974E-2,3.089234E-2,-8.952336E-4,-2.5074906E-3,-9.118831E-4,-1.8243108E-2,-4.4594154E-2,-2.4462188E-2,-3.89963E-2,-2.7812457E-2,-4.8685117E-5,4.5391163E-5,-3.3357753E-6,1.0424575E-4,1.0140719E-4,-3.382108E-5,-7.437246E-5,3.2641132E-5,2.8165604E-3,3.638814E-4,6.0006906E-4,8.684671E-4,-4.1277823E-4,-1.55236E-4,-1.2439638E-3,-7.247403E-4,-3.9607618E-4,-6.332809E-4,-1.5098065E-3,-7.1560394E-4,-5.0437415E-4,-6.2366406E-4],"categories":[],"categories_nodes":[],"categories_segments":[],"categories_sizes":[],"default_left":[0,0,0,0,0,0,0,0,0,0,0,0,0,0,0,0,0,0,0,0,0,0,0,0,0,0,0,0,0,0,0,0,0,0,0,0,0,0,0,0,0,0,0,0,0,0,0,0,0,0,0],"id":17,"left_children":[1,3,5,7,9,11,13,15,17,-1,19,21,23,25,27,29,31,33,35,37,39,-1,-1,-1,41,43,45,47,49,-1,-1,-1,-1,-1,-1,-1,-1,-1,-1,-1,-1,-1,-1,-1,-1,-1,-1,-1,-1,-1,-1],"loss_changes":[1.0232793E0,3.9670387E-1,8.173525E-3,3.9592257E-4,2.786833E-2,2.0789273E-2,5.539E-3,4.1671796E-4,2.4308817E-4,0E0,2.1031022E-2,1.3970286E-3,1.5066769E-3,8.333728E-3,2.9666424E-3,3.226286E-4,4.1442196E-4,1.6390736E-4,8.368678E-5,2.1061335E-2,1.5936553E-2,0E0,0E0,0E0,3.8767233E-5,7.1135834E-3,6.8376213E-4,2.4888217E-3,3.3754408E-3,0E0,0E0,0E0,0E0,0E0,0E0,0E0,0E0,0E0,0E0,0E0,0E0,0E0,0E0,0E0,0E0,0E0,0E0,0E0,0E0,0E0,0E0],"parents":[2147483647,0,0,1,1,2,2,3,3,4,4,5,5,6,6,7,7,8,8,10,10,11,11,12,12,13,13,14,14,15,15,16,16,17,17,18,18,19,19,20,20,24,24,25,25,26,26,27,27,28,28],"right_children":[2,4,6,8,10,12,14,16,18,-1,20,22,24,26,28,30,32,34,36,38,40,-1,-1,-1,42,44,46,48,50,-1,-1,-1,-1,-1,-1,-1,-1,-1,-1,-1,-1,-1,-1,-1,-1,-1,-1,-1,-1,-1,-1],"split_conditions":[2E0,1E0,-8.492954E-2,2.058715E0,-2.5021958E0,5.338646E-2,-3.7099086E-2,-2.7259463E-2,2.0530782E0,2.2439244E-3,-1.3437785E-1,1.4587408E-2,7.410761E-2,-9.912924E-2,-1.2519989E0,3.2129973E-2,2.7660935E0,1.1809242E0,-5.359429E-1,1.7268037E-2,6.0396083E-2,-8.952336E-4,-2.5074906E-3,-9.118831E-4,2.0851236E-2,-3.860985E-1,-8.522719E-3,-7.806939E-1,3.045878E-2,-4.8685117E-5,4.5391163E-5,-3.3357753E-6,1.0424575E-4,1.0140719E-4,-3.382108E-5,-7.437246E-5,3.2641132E-5,2.8165604E-3,3.638814E-4,6.0006906E-4,8.684671E-4,-4.1277823E-4,-1.55236E-4,-1.2439638E-3,-7.247403E-4,-3.9607618E-4,-6.332809E-4,-1.5098065E-3,-7.1560394E-4,-5.0437415E-4,-6.2366406E-4],"split_indices":[60,60,45,341,72,316,13,1,347,0,54,1,317,203,391,40,240,129,296,10,65,0,0,0,3,71,312,399,66,0,0,0,0,0,0,0,0,0,0,0,0,0,0,0,0,0,0,0,0,0,0],"split_type":[0,0,0,0,0,0,0,0,0,0,0,0,0,0,0,0,0,0,0,0,0,0,0,0,0,0,0,0,0,0,0,0,0,0,0,0,0,0,0,0,0,0,0,0,0,0,0,0,0,0,0],"sum_hessian":[2.211E3,1.527E3,6.84E2,7.58E2,7.69E2,1.9E1,6.65E2,7.15E2,4.3E1,4E0,7.65E2,5E0,1.4E1,9.9E1,5.66E2,1.59E2,5.56E2,3.2E1,1.1E1,6E0,7.59E2,2E0,3E0,4E0,1E1,6.1E1,3.8E1,3.1E1,5.35E2,1.42E2,1.7E1,5.41E2,1.5E1,2.8E1,4E0,6E0,5E0,3E0,3E0,6.39E2,1.2E2,8E0,2E0,2.2E1,3.9E1,2.2E1,1.6E1,2E0,2.9E1,2.03E2,3.32E2],"tree_param":{"num_deleted":"0","num_feature":"514","num_nodes":"51","size_leaf_vector":"0"}},{"base_weights":[1.5999277E-3,1.599682E-2,-3.0516934E-2,-2.4272228E-4,3.198359E-2,-6.339964E-2,-3.0132992E-2,-4.2134002E-4,2.669392E-3,2.2439244E-3,3.1447552E-2,-4.549039E-4,-1.8565413E-3,-5.247959E-2,-2.9514553E-2,-1.8434791E-3,-1.2069655E-5,4.031568E-3,-1.2990416E-3,8.7234974E-2,3.089234E-2,-1.8812529E-3,-2.9196016E-2,-3.7155144E-2,-2.8311355E-2,-4.8685117E-5,4.5391163E-5,-3.3357753E-6,1.0424575E-4,1.0140719E-4,-3.382108E-5,-7.437246E-5,3.2641132E-5,3.638814E-4,2.8165604E-3,6.0006906E-4,8.684671E-4,-8.0846064E-4,-2.7329667E-4,-1.1454443E-3,-6.4611E-4,-1.2190801E-3,-5.832996E-4],"categories":[],"categories_nodes":[],"categories_segments":[],"categories_sizes":[],"default_left":[0,0,0,0,0,0,0,0,0,0,0,0,0,0,0,0,0,0,0,0,0,0,0,0,0,0,0,0,0,0,0,0,0,0,0,0,0,0,0,0,0,0,0],"id":18,"left_children":[1,3,5,7,9,11,13,15,17,-1,19,-1,-1,21,23,25,27,29,31,33,35,-1,37,39,41,-1,-1,-1,-1,-1,-1,-1,-1,-1,-1,-1,-1,-1,-1,-1,-1,-1,-1],"loss_changes":[1.0232793E0,3.9670387E-1,6.737709E-3,3.9592257E-4,2.786833E-2,5.535744E-3,7.834852E-3,4.1671796E-4,2.4308817E-4,0E0,2.1031022E-2,0E0,0E0,1.2333751E-2,5.043149E-3,3.226286E-4,4.1442196E-4,1.6390736E-4,8.368678E-5,2.1061335E-2,1.5936553E-2,0E0,1.3450403E-3,7.820144E-3,3.8161278E-3,0E0,0E0,0E0,0E0,0E0,0E0,0E0,0E0,0E0,0E0,0E0,0E0,0E0,0E0,0E0,0E0,0E0,0E0],"parents":[2147483647,0,0,1,1,2,2,3,3,4,4,5,5,6,6,7,7,8,8,10,10,13,13,14,14,15,15,16,16,17,17,18,18,19,19,20,20,22,22,23,23,24,24],"right_children":[2,4,6,8,10,12,14,16,18,-1,20,-1,-1,22,24,26,28,30,32,34,36,-1,38,40,42,-1,-1,-1,-1,-1,-1,-1,-1,-1,-1,-1,-1,-1,-1,-1,-1,-1,-1],"split_conditions":[2E0,1E0,-1.7502073E0,2.058715E0,-2.5021958E0,-9.413464E-3,-2.2125034E0,-2.7259463E-2,2.0530782E0,2.2439244E-3,-1.3437785E-1,-4.549039E-4,-1.8565413E-3,-1.3050132E-2,-2.7351728E-2,3.2129973E-2,2.7660935E0,1.1809242E0,-5.359429E-1,-1.7549554E-2,6.0396083E-2,-1.8812529E-3,-1.6940141E-2,-2.0423193E-2,-2.1931748E0,-4.8685117E-5,4.5391163E-5,-3.3357753E-6,1.0424575E-4,1.0140719E-4,-3.382108E-5,-7.437246E-5,3.2641132E-5,3.638814E-4,2.8165604E-3,6.0006906E-4,8.684671E-4,-8.0846064E-4,-2.7329667E-4,-1.1454443E-3,-6.4611E-4,-1.2190801E-3,-5.832996E-4],"split_indices":[60,60,238,341,72,0,456,1,347,0,54,0,0,67,12,40,240,129,296,2,65,0,5,22,474,0,0,0,0,0,0,0,0,0,0,0,0,0,0,0,0,0,0],"split_type":[0,0,0,0,0,0,0,0,0,0,0,0,0,0,0,0,0,0,0,0,0,0,0,0,0,0,0,0,0,0,0,0,0,0,0,0,0,0,0,0,0,0,0],"sum_hessian":[2.211E3,1.527E3,6.84E2,7.58E2,7.69E2,6E0,6.78E2,7.15E2,4.3E1,4E0,7.65E2,3E0,3E0,1.6E1,6.62E2,1.59E2,5.56E2,3.2E1,1.1E1,6E0,7.59E2,5E0,1.1E1,8.6E1,5.76E2,1.42E2,1.7E1,5.41E2,1.5E1,2.8E1,4E0,6E0,5E0,3E0,3E0,6.39E2,1.2E2,6E0,5E0,2E1,6.6E1,4E0,5.72E2],"tree_param":{"num_deleted":"0","num_feature":"514","num_nodes":"43","size_leaf_vector":"0"}},{"base_weights":[1.5999277E-3,1.599682E-2,-3.0516934E-2,1.3996704E-2,2.951803E-2,-5.1493894E-2,-2.9841173E-2,1.3756296E-2,9.043294E-2,6.415569E-4,4.5555424E-2,-1.017253E-1,-2.7968407E-2,-3.7301585E-2,-2.8610725E-2,1.3141758E-2,2.6544986E-2,8.22372E-5,2.4572015E-3,-8.1129046E-4,4.1393503E-3,2.2439244E-3,4.2634767E-2,-8.952336E-4,-2.5074906E-3,-9.118831E-4,-1.8243108E-2,-3.1881463E-2,-5.616301E-2,-3.7845507E-2,-2.7699523E-2,-7.3161877E-6,5.852029E-4,-2.84803E-6,8.1068766E-4,-3.9596776E-5,9.3407245E-5,-9.85895E-5,1.10880756E-4,8.197109E-4,1.6573705E-3,-4.1277823E-4,-1.55236E-4,-4.8730485E-4,-7.6343457E-4,-7.865509E-4,-2.0865856E-3,-8.951373E-4,-4.2414432E-4,-8.537576E-4,-5.6162436E-4],"categories":[],"categories_nodes":[],"categories_segments":[],"categories_sizes":[],"default_left":[0,0,0,0,0,0,0,0,0,0,0,0,0,0,0,0,0,0,0,0,0,0,0,0,0,0,0,0,0,0,0,0,0,0,0,0,0,0,0,0,0,0,0,0,0,0,0,0,0,0,0],"id":19,"left_children":[1,3,5,7,9,11,13,15,17,19,21,23,25,27,29,31,33,-1,-1,35,37,-1,39,-1,-1,-1,41,43,45,47,49,-1,-1,-1,-1,-1,-1,-1,-1,-1,-1,-1,-1,-1,-1,-1,-1,-1,-1,-1,-1],"loss_changes":[1.0232793E0,4.0910095E-2,8.173525E-3,2.3250937E-2,9.073906E-2,2.0789273E-2,5.0464272E-3,1.0103822E-2,9.052232E-3,3.641632E-4,1.8280327E-2,1.3970286E-3,1.5066769E-3,7.512495E-3,3.798604E-3,2.5636053E-1,1.9805305E-2,0E0,0E0,3.0268743E-4,2.4557105E-4,0E0,1.1682332E-2,0E0,0E0,0E0,3.8767233E-5,2.0953417E-3,1.1605807E-2,3.5132095E-3,4.0952563E-3,0E0,0E0,0E0,0E0,0E0,0E0,0E0,0E0,0E0,0E0,0E0,0E0,0E0,0E0,0E0,0E0,0E0,0E0,0E0,0E0],"parents":[2147483647,0,0,1,1,2,2,3,3,4,4,5,5,6,6,7,7,8,8,9,9,10,10,11,11,12,12,13,13,14,14,15,15,16,16,19,19,20,20,22,22,26,26,27,27,28,28,29,29,30,30],"right_children":[2,4,6,8,10,12,14,16,18,20,22,24,26,28,30,32,34,-1,-1,36,38,-1,40,-1,-1,-1,42,44,46,48,50,-1,-1,-1,-1,-1,-1,-1,-1,-1,-1,-1,-1,-1,-1,-1,-1,-1,-1,-1,-1],"split_conditions":[2E0,6.0396083E-2,-8.492954E-2,1.5396672E-1,1E0,5.338646E-2,-2.7351728E-2,7.402241E-2,-1.3437785E-1,2.9332336E-2,-2.5021958E0,1.4587408E-2,7.410761E-2,3.1822544E-2,-3.962484E-2,1E0,1E0,8.22372E-5,2.4572015E-3,7.459411E-1,-8.7433025E-2,2.2439244E-3,8.3736435E-2,-8.952336E-4,-2.5074906E-3,-9.118831E-4,2.0851236E-2,-5.8057135E-1,4.9688697E-1,4.3357518E-1,-1.2737132E0,-7.3161877E-6,5.852029E-4,-2.84803E-6,8.1068766E-4,-3.9596776E-5,9.3407245E-5,-9.85895E-5,1.10880756E-4,8.197109E-4,1.6573705E-3,-4.1277823E-4,-1.55236E-4,-4.8730485E-4,-7.6343457E-4,-7.865509E-4,-2.0865856E-3,-8.951373E-4,-4.2414432E-4,-8.537576E-4,-5.6162436E-4],"split_indices":[60,65,45,3,60,317,12,53,0,15,72,1,316,21,20,60,60,0,0,300,8,0,57,0,0,0,3,195,433,203,390,0,0,0,0,0,0,0,0,0,0,0,0,0,0,0,0,0,0,0,0],"split_type":[0,0,0,0,0,0,0,0,0,0,0,0,0,0,0,0,0,0,0,0,0,0,0,0,0,0,0,0,0,0,0,0,0,0,0,0,0,0,0,0,0,0,0,0,0,0,0,0,0,0,0],"sum_hessian":[2.211E3,1.527E3,6.84E2,1.332E3,1.95E2,1.9E1,6.65E2,1.329E3,3E0,7E1,1.25E2,5E0,1.4E1,9E1,5.75E2,1.27E3,5.9E1,1E0,2E0,5E1,2E1,4E0,1.21E2,2E0,3E0,4E0,1E1,7.2E1,1.8E1,4.8E1,5.27E2,6.68E2,6.02E2,1.9E1,4E1,4.2E1,8E0,2E0,1.8E1,1.13E2,8E0,8E0,2E0,2.8E1,4.4E1,1.4E1,4E0,3.6E1,1.2E1,2.5E1,5.02E2],"tree_param":{"num_deleted":"0","num_feature":"514","num_nodes":"51","size_leaf_vector":"0"}},{"base_weights":[1.5999277E-3,1.599682E-2,-3.0516934E-2,-2.4272228E-4,3.198359E-2,-5.1493894E-2,-2.9841173E-2,-4.2134002E-4,2.669392E-3,2.2439244E-3,3.1447552E-2,-1.017253E-1,-2.7968407E-2,-3.7188627E-2,-2.8492697E-2,9.649266E-5,-1.3929238E-3,4.031568E-3,-1.2990416E-3,8.7234974E-2,3.089234E-2,-8.952336E-4,-2.5074906E-3,-9.118831E-4,-1.8243108E-2,-4.4594154E-2,-2.4462188E-2,-3.89963E-2,-2.7812457E-2,-1.5499536E-6,1.0963215E-4,-4.3596545E-5,2.9870334E-5,1.0140719E-4,-3.382108E-5,-7.437246E-5,3.2641132E-5,2.8165604E-3,3.638814E-4,6.0006906E-4,8.684671E-4,-1.55236E-4,-4.1277823E-4,-1.1402969E-3,-6.317997E-4,-3.9607618E-4,-6.332809E-4,-1.5098065E-3,-7.1560394E-4,-5.0437415E-4,-6.2366406E-4],"categories":[],"categories_nodes":[],"categories_segments":[],"categories_sizes":[],"default_left":[0,0,0,0,0,0,0,0,0,0,0,0,0,0,0,0,0,0,0,0,0,0,0,0,0,0,0,0,0,0,0,0,0,0,0,0,0,0,0,0,0,0,0,0,0,0,0,0,0,0,0],"id":20,"left_children":[1,3,5,7,9,11,13,15,17,-1,19,21,23,25,27,29,31,33,35,37,39,-1,-1,-1,41,43,45,47,49,-1,-1,-1,-1,-1,-1,-1,-1,-1,-1,-1,-1,-1,-1,-1,-1,-1,-1,-1,-1,-1,-1],"loss_changes":[1.0232793E0,3.9670387E-1,8.173525E-3,3.9592257E-4,2.786833E-2,2.0789273E-2,5.539E-3,3.6036677E-4,2.4308817E-4,0E0,2.1031022E-2,1.3970286E-3,1.5066769E-3,8.333728E-3,2.9666424E-3,4.135393E-4,4.9549027E-4,1.6390736E-4,8.368678E-5,2.1061335E-2,1.5936553E-2,0E0,0E0,0E0,3.8767233E-5,7.310055E-3,6.8376213E-4,2.4888217E-3,3.3754408E-3,0E0,0E0,0E0,0E0,0E0,0E0,0E0,0E0,0E0,0E0,0E0,0E0,0E0,0E0,0E0,0E0,0E0,0E0,0E0,0E0,0E0,0E0],"parents":[2147483647,0,0,1,1,2,2,3,3,4,4,5,5,6,6,7,7,8,8,10,10,11,11,12,12,13,13,14,14,15,15,16,16,17,17,18,18,19,19,20,20,24,24,25,25,26,26,27,27,28,28],"right_children":[2,4,6,8,10,12,14,16,18,-1,20,22,24,26,28,30,32,34,36,38,40,-1,-1,-1,42,44,46,48,50,-1,-1,-1,-1,-1,-1,-1,-1,-1,-1,-1,-1,-1,-1,-1,-1,-1,-1,-1,-1,-1,-1],"split_conditions":[2E0,1E0,-8.492954E-2,2.058715E0,-2.5021958E0,5.338646E-2,-3.7099086E-2,3.906513E-1,2.0530782E0,2.2439244E-3,-1.3437785E-1,1.4587408E-2,7.410761E-2,-9.912924E-2,-1.2519989E0,2.7660935E0,1.7265067E-2,1.1809242E0,-5.359429E-1,1.7268037E-2,6.0396083E-2,-8.952336E-4,-2.5074906E-3,-9.118831E-4,-2.4413012E-2,1.7565571E-1,-8.522719E-3,-8.492686E-1,3.045878E-2,-1.5499536E-6,1.0963215E-4,-4.3596545E-5,2.9870334E-5,1.0140719E-4,-3.382108E-5,-7.437246E-5,3.2641132E-5,2.8165604E-3,3.638814E-4,6.0006906E-4,8.684671E-4,-1.55236E-4,-4.1277823E-4,-1.1402969E-3,-6.317997E-4,-3.9607618E-4,-6.332809E-4,-1.5098065E-3,-7.1560394E-4,-5.0437415E-4,-6.2366406E-4],"split_indices":[60,60,45,341,72,317,13,73,347,0,54,1,316,203,391,240,40,133,296,10,66,0,0,0,6,275,312,398,65,0,0,0,0,0,0,0,0,0,0,0,0,0,0,0,0,0,0,0,0,0,0],"split_type":[0,0,0,0,0,0,0,0,0,0,0,0,0,0,0,0,0,0,0,0,0,0,0,0,0,0,0,0,0,0,0,0,0,0,0,0,0,0,0,0,0,0,0,0,0,0,0,0,0,0,0],"sum_hessian":[2.211E3,1.527E3,6.84E2,7.58E2,7.69E2,1.9E1,6.65E2,7.15E2,4.3E1,4E0,7.65E2,5E0,1.4E1,9.9E1,5.66E2,4.67E2,2.48E2,3.2E1,1.1E1,6E0,7.59E2,2E0,3E0,4E0,1E1,6.1E1,3.8E1,3.1E1,5.35E2,4.53E2,1.4E1,1.99E2,4.9E1,2.8E1,4E0,6E0,5E0,3E0,3E0,6.39E2,1.2E2,2E0,8E0,3.4E1,2.7E1,2.2E1,1.6E1,2E0,2.9E1,2.03E2,3.32E2],"tree_param":{"num_deleted":"0","num_feature":"514","num_nodes":"51","size_leaf_vector":"0"}},{"base_weights":[1.5999277E-3,2.6646331E-2,9.846224E-4,2.4724077E-3,1.8751066E-2,1.537076E-2,-3.0551584E-2,1.2266362E-2,1.8803868E-3,-2.5808482E-4,3.1126846E-2,-6.982006E-2,-3.015551E-2,2.0440906E-2,-2.4519596E-2,-4.4090077E-4,2.740997E-3,2.2439244E-3,3.0563533E-2,-4.337809E-4,-1.8565413E-3,-5.247959E-2,-2.953102E-2,1.2358718E-5,6.321237E-4,-2.3008055E-4,-6.128504E-4,-3.879959E-5,-8.918479E-7,8.6882406E-5,-2.7063366E-5,6.014386E-4,8.318507E-4,-1.8812529E-3,-6.082504E-4,-7.206142E-4,-5.7863677E-4],"categories":[],"categories_nodes":[],"categories_segments":[],"categories_sizes":[],"default_left":[0,0,0,0,0,0,0,0,0,0,0,0,0,0,0,0,0,0,0,0,0,0,0,0,0,0,0,0,0,0,0,0,0,0,0,0,0],"id":21,"left_children":[1,3,5,-1,7,9,11,13,-1,15,17,19,21,23,25,27,29,-1,31,-1,-1,33,35,-1,-1,-1,-1,-1,-1,-1,-1,-1,-1,-1,-1,-1,-1],"loss_changes":[3.4063302E-2,3.6284246E-2,9.8042744E-1,0E0,2.2078106E-2,3.6544222E-1,8.424163E-3,1.4634499E-2,0E0,4.1022536E-4,2.8587997E-2,3.816763E-3,7.818639E-3,7.6459907E-3,2.69067E-4,3.9829954E-4,2.5372792E-4,0E0,1.05112195E-2,0E0,0E0,1.2333751E-2,4.8678517E-3,0E0,0E0,0E0,0E0,0E0,0E0,0E0,0E0,0E0,0E0,0E0,0E0,0E0,0E0],"parents":[2147483647,0,0,1,1,2,2,4,4,5,5,6,6,7,7,9,9,10,10,11,11,12,12,13,13,14,14,15,15,16,16,18,18,21,21,22,22],"right_children":[2,4,6,-1,8,10,12,14,-1,16,18,20,22,24,26,28,30,-1,32,-1,-1,34,36,-1,-1,-1,-1,-1,-1,-1,-1,-1,-1,-1,-1,-1,-1],"split_conditions":[-4.3564597E-3,-1.6234038E0,2E0,2.4724077E-3,1.1889805E0,1E0,-1.7502073E0,2E0,1.8803868E-3,2.058715E0,-2.5021958E0,-9.413464E-3,-2.2125034E0,1E0,-3.0401729E-2,-2.7259463E-2,2.0530782E0,2.2439244E-3,6.0396083E-2,-4.337809E-4,-1.8565413E-3,-1.3050132E-2,-2.3674123E-2,1.2358718E-5,6.321237E-4,-2.3008055E-4,-6.128504E-4,-3.879959E-5,-8.918479E-7,8.6882406E-5,-2.7063366E-5,6.014386E-4,8.318507E-4,-1.8812529E-3,-6.082504E-4,-7.206142E-4,-5.7863677E-4],"split_indices":[119,79,60,0,129,60,238,60,0,341,72,0,456,60,0,1,347,0,66,0,0,67,13,0,0,0,0,0,0,0,0,0,0,0,0,0,0],"split_type":[0,0,0,0,0,0,0,0,0,0,0,0,0,0,0,0,0,0,0,0,0,0,0,0,0,0,0,0,0,0,0,0,0,0,0,0,0],"sum_hessian":[2.211E3,5.2E1,2.159E3,3E0,4.9E1,1.483E3,6.76E2,4.6E1,3E0,7.45E2,7.38E2,5E0,6.71E2,3.8E1,8E0,7.03E2,4.2E1,4E0,7.34E2,2E0,3E0,1.6E1,6.55E2,1.3E1,2.5E1,3E0,5E0,1.53E2,5.5E2,3.1E1,1.1E1,6.25E2,1.09E2,5E0,1.1E1,1.64E2,4.91E2],"tree_param":{"num_deleted":"0","num_feature":"514","num_nodes":"37","size_leaf_vector":"0"}},{"base_weights":[1.5999277E-3,1.599682E-2,-3.0516934E-2,1.3996704E-2,2.951803E-2,-5.1493894E-2,-2.9841173E-2,-3.334931E-4,2.9282764E-2,6.415569E-4,4.5555424E-2,-1.017253E-1,-2.7968407E-2,-3.7301585E-2,-2.8610725E-2,-5.3162535E-4,2.8944933E-3,2.861439E-2,6.886294E-2,-8.1129046E-4,4.1393503E-3,2.2439244E-3,4.2634767E-2,-8.952336E-4,-2.5074906E-3,-9.118831E-4,-1.8243108E-2,-3.1881463E-2,-5.616301E-2,-3.7845507E-2,-2.7699523E-2,-3.724294E-6,-4.488445E-5,-5.9576658E-5,9.213337E-5,5.347238E-4,6.570147E-4,5.0432887E-4,2.7040355E-3,-3.9596776E-5,9.3407245E-5,-9.85895E-5,1.10880756E-4,8.197109E-4,1.6573705E-3,-4.1277823E-4,-1.55236E-4,-4.8730485E-4,-7.6343457E-4,-7.865509E-4,-2.0865856E-3,-8.951373E-4,-4.2414432E-4,-8.537576E-4,-5.6162436E-4],"categories":[],"categories_nodes":[],"categories_segments":[],"categories_sizes":[],"default_left":[0,0,0,0,0,0,0,0,0,0,0,0,0,0,0,0,0,0,0,0,0,0,0,0,0,0,0,0,0,0,0,0,0,0,0,0,0,0,0,0,0,0,0,0,0,0,0,0,0,0,0,0,0,0,0],"id":22,"left_children":[1,3,5,7,9,11,13,15,17,19,21,23,25,27,29,31,33,35,37,39,41,-1,43,-1,-1,-1,45,47,49,51,53,-1,-1,-1,-1,-1,-1,-1,-1,-1,-1,-1,-1,-1,-1,-1,-1,-1,-1,-1,-1,-1,-1,-1,-1],"loss_changes":[1.0232793E0,4.0910095E-2,8.173525E-3,2.9200646E-1,9.073906E-2,2.0789273E-2,5.0464272E-3,4.422013E-4,1.5092492E-2,3.641632E-4,1.8280327E-2,1.3970286E-3,1.5066769E-3,7.512495E-3,3.798604E-3,3.7182437E-4,3.643206E-4,4.6690702E-3,2.4066713E-2,3.0268743E-4,2.4557105E-4,0E0,1.1682332E-2,0E0,0E0,0E0,3.8767233E-5,2.0953417E-3,1.1605807E-2,3.5132095E-3,4.0952563E-3,0E0,0E0,0E0,0E0,0E0,0E0,0E0,0E0,0E0,0E0,0E0,0E0,0E0,0E0,0E0,0E0,0E0,0E0,0E0,0E0,0E0,0E0,0E0,0E0],"parents":[2147483647,0,0,1,1,2,2,3,3,4,4,5,5,6,6,7,7,8,8,9,9,10,10,11,11,12,12,13,13,14,14,15,15,16,16,17,17,18,18,19,19,20,20,22,22,26,26,27,27,28,28,29,29,30,30],"right_children":[2,4,6,8,10,12,14,16,18,20,22,24,26,28,30,32,34,36,38,40,42,-1,44,-1,-1,-1,46,48,50,52,54,-1,-1,-1,-1,-1,-1,-1,-1,-1,-1,-1,-1,-1,-1,-1,-1,-1,-1,-1,-1,-1,-1,-1,-1],"split_conditions":[2E0,6.0396083E-2,-8.492954E-2,1E0,1E0,5.338646E-2,-2.7351728E-2,4.585973E-2,1.8747604E0,2.9332336E-2,-2.5021958E0,1.4587408E-2,7.410761E-2,3.1822544E-2,-3.962484E-2,3.1447876E-2,-1.003797E0,-5.778895E-4,4.4778477E-2,7.459411E-1,-1.9796643E-1,2.2439244E-3,8.3736435E-2,-8.952336E-4,-2.5074906E-3,-9.118831E-4,2.0851236E-2,-5.8057135E-1,4.9688697E-1,4.3357518E-1,-1.2737132E0,-3.724294E-6,-4.488445E-5,-5.9576658E-5,9.213337E-5,5.347238E-4,6.570147E-4,5.0432887E-4,2.7040355E-3,-3.9596776E-5,9.3407245E-5,-9.85895E-5,1.10880756E-4,8.197109E-4,1.6573705E-3,-4.1277823E-4,-1.55236E-4,-4.8730485E-4,-7.6343457E-4,-7.865509E-4,-2.0865856E-3,-8.951373E-4,-4.2414432E-4,-8.537576E-4,-5.6162436E-4],"split_indices":[60,65,45,60,60,316,12,1,222,15,72,1,316,21,20,27,484,24,3,296,87,0,57,0,0,0,3,199,433,203,390,0,0,0,0,0,0,0,0,0,0,0,0,0,0,0,0,0,0,0,0,0,0,0,0],"split_type":[0,0,0,0,0,0,0,0,0,0,0,0,0,0,0,0,0,0,0,0,0,0,0,0,0,0,0,0,0,0,0,0,0,0,0,0,0,0,0,0,0,0,0,0,0,0,0,0,0,0,0,0,0,0,0],"sum_hessian":[2.211E3,1.527E3,6.84E2,1.332E3,1.95E2,1.9E1,6.65E2,6.88E2,6.44E2,7E1,1.25E2,5E0,1.4E1,9E1,5.75E2,6.49E2,3.9E1,6.35E2,9E0,5E1,2E1,4E0,1.21E2,2E0,3E0,4E0,1E1,7.2E1,1.8E1,4.8E1,5.27E2,5.34E2,1.15E2,8E0,3.1E1,3.21E2,3.14E2,6E0,3E0,4.2E1,8E0,2E0,1.8E1,1.13E2,8E0,8E0,2E0,2.8E1,4.4E1,1.4E1,4E0,3.6E1,1.2E1,2.5E1,5.02E2],"tree_param":{"num_deleted":"0","num_feature":"514","num_nodes":"55","size_leaf_vector":"0"}},{"base_weights":[1.5999277E-3,2.6646331E-2,9.846224E-4,2.4724077E-3,1.8751066E-2,5.082795E-2,7.5244304E-4,1.2266362E-2,1.8803868E-3,9.274899E-3,2.3091417E-3,1.5071885E-2,-3.0514197E-2,2.0440906E-2,-2.4519596E-2,2.0124981E-2,-5.815166E-4,-2.6494928E-4,3.0660504E-2,-6.982006E-2,-3.0117253E-2,1.2358718E-5,6.321237E-4,-2.3008055E-4,-6.128504E-4,4.8289145E-4,5.0582672E-5,-9.342404E-6,5.7104102E-5,6.016401E-4,8.4766344E-4,-4.337809E-4,-1.8565413E-3,-1.0933249E-3,-6.1439327E-4],"categories":[],"categories_nodes":[],"categories_segments":[],"categories_sizes":[],"default_left":[0,0,0,0,0,0,0,0,0,0,0,0,0,0,0,0,0,0,0,0,0,0,0,0,0,0,0,0,0,0,0,0,0,0,0],"id":23,"left_children":[1,3,5,-1,7,9,11,13,-1,15,-1,17,19,21,23,25,-1,27,29,31,33,-1,-1,-1,-1,-1,-1,-1,-1,-1,-1,-1,-1,-1,-1],"loss_changes":[3.4063302E-2,3.6284246E-2,2.4958558E-2,0E0,2.2078106E-2,2.3908319E-2,9.635074E-1,1.4634499E-2,0E0,3.386171E-3,0E0,3.5289028E-1,8.444309E-3,7.6459907E-3,2.69067E-4,2.6798225E-4,0E0,4.121334E-4,1.1903286E-2,3.816763E-3,7.851243E-3,0E0,0E0,0E0,0E0,0E0,0E0,0E0,0E0,0E0,0E0,0E0,0E0,0E0,0E0],"parents":[2147483647,0,0,1,1,2,2,4,4,5,5,6,6,7,7,9,9,11,11,12,12,13,13,14,14,15,15,17,17,18,18,19,19,20,20],"right_children":[2,4,6,-1,8,10,12,14,-1,16,-1,18,20,22,24,26,-1,28,30,32,34,-1,-1,-1,-1,-1,-1,-1,-1,-1,-1,-1,-1,-1,-1],"split_conditions":[-4.3564597E-3,-1.6234038E0,-2.8491635E0,2.4724077E-3,1.1889805E0,8.528733E-2,2E0,2E0,1.8803868E-3,-8.713903E-3,2.3091417E-3,1E0,-1.7502073E0,1E0,-3.0401729E-2,6.11834E-3,-5.815166E-4,2.058715E0,6.0396083E-2,-9.413464E-3,-2.2125034E0,1.2358718E-5,6.321237E-4,-2.3008055E-4,-6.128504E-4,4.8289145E-4,5.0582672E-5,-9.342404E-6,5.7104102E-5,6.016401E-4,8.4766344E-4,-4.337809E-4,-1.8565413E-3,-1.0933249E-3,-6.1439327E-4],"split_indices":[119,79,81,0,129,1,60,60,0,4,0,60,238,60,0,5,0,341,66,0,460,0,0,0,0,0,0,0,0,0,0,0,0,0,0],"split_type":[0,0,0,0,0,0,0,0,0,0,0,0,0,0,0,0,0,0,0,0,0,0,0,0,0,0,0,0,0,0,0,0,0,0,0],"sum_hessian":[2.211E3,5.2E1,2.159E3,3E0,4.9E1,9E0,2.15E3,4.6E1,3E0,6E0,3E0,1.475E3,6.75E2,3.8E1,8E0,5E0,1E0,7.44E2,7.31E2,5E0,6.7E2,1.3E1,2.5E1,3E0,5E0,4E0,1E0,7.02E2,4.2E1,6.24E2,1.07E2,2E0,3E0,1.6E1,6.54E2],"tree_param":{"num_deleted":"0","num_feature":"514","num_nodes":"35","size_leaf_vector":"0"}},{"base_weights":[1.5999277E-3,1.599682E-2,-3.0516934E-2,-2.4272228E-4,3.198359E-2,-5.1493894E-2,-2.9841173E-2,-4.2134002E-4,2.669392E-3,2.2439244E-3,3.1447552E-2,-1.017253E-1,-2.7968407E-2,-3.7188627E-2,-2.8492697E-2,-1.8434791E-3,-1.2069655E-5,4.031568E-3,-1.2990416E-3,8.7234974E-2,3.089234E-2,-8.952336E-4,-2.5074906E-3,-9.118831E-4,-1.8243108E-2,-4.4594154E-2,-2.4462188E-2,-3.89963E-2,-2.7812457E-2,-4.8685117E-5,4.5391163E-5,-3.3357753E-6,1.0424575E-4,1.0140719E-4,-3.382108E-5,-7.437246E-5,3.2641132E-5,3.638814E-4,2.8165604E-3,6.0006906E-4,8.684671E-4,-4.1277823E-4,-1.55236E-4,-1.1402969E-3,-6.317997E-4,-3.9607618E-4,-6.332809E-4,-1.5098065E-3,-7.1560394E-4,-5.0437415E-4,-6.2366406E-4],"categories":[],"categories_nodes":[],"categories_segments":[],"categories_sizes":[],"default_left":[0,0,0,0,0,0,0,0,0,0,0,0,0,0,0,0,0,0,0,0,0,0,0,0,0,0,0,0,0,0,0,0,0,0,0,0,0,0,0,0,0,0,0,0,0,0,0,0,0,0,0],"id":24,"left_children":[1,3,5,7,9,11,13,15,17,-1,19,21,23,25,27,29,31,33,35,37,39,-1,-1,-1,41,43,45,47,49,-1,-1,-1,-1,-1,-1,-1,-1,-1,-1,-1,-1,-1,-1,-1,-1,-1,-1,-1,-1,-1,-1],"loss_changes":[1.0232793E0,3.9670387E-1,8.173525E-3,3.9592257E-4,2.786833E-2,2.0789273E-2,5.539E-3,4.1671796E-4,2.4308817E-4,0E0,2.1031022E-2,1.3970286E-3,1.5066769E-3,8.333728E-3,2.9666424E-3,3.226286E-4,4.1442196E-4,1.6390736E-4,8.368678E-5,2.1061335E-2,1.5936553E-2,0E0,0E0,0E0,3.8767233E-5,7.310055E-3,6.8376213E-4,2.4888217E-3,3.3754408E-3,0E0,0E0,0E0,0E0,0E0,0E0,0E0,0E0,0E0,0E0,0E0,0E0,0E0,0E0,0E0,0E0,0E0,0E0,0E0,0E0,0E0,0E0],"parents":[2147483647,0,0,1,1,2,2,3,3,4,4,5,5,6,6,7,7,8,8,10,10,11,11,12,12,13,13,14,14,15,15,16,16,17,17,18,18,19,19,20,20,24,24,25,25,26,26,27,27,28,28],"right_children":[2,4,6,8,10,12,14,16,18,-1,20,22,24,26,28,30,32,34,36,38,40,-1,-1,-1,42,44,46,48,50,-1,-1,-1,-1,-1,-1,-1,-1,-1,-1,-1,-1,-1,-1,-1,-1,-1,-1,-1,-1,-1,-1],"split_conditions":[2E0,1E0,-8.492954E-2,2.058715E0,-2.5021958E0,5.338646E-2,-3.7099086E-2,-2.7259463E-2,2.0530782E0,2.2439244E-3,-1.3437785E-1,1.4587408E-2,7.410761E-2,-9.912924E-2,-1.2519989E0,3.2129973E-2,2.7660935E0,1.1809242E0,-5.359429E-1,-1.7549554E-2,6.0396083E-2,-8.952336E-4,-2.5074906E-3,-9.118831E-4,2.0851236E-2,1.7565571E-1,-8.522719E-3,-8.492686E-1,3.045878E-2,-4.8685117E-5,4.5391163E-5,-3.3357753E-6,1.0424575E-4,1.0140719E-4,-3.382108E-5,-7.437246E-5,3.2641132E-5,3.638814E-4,2.8165604E-3,6.0006906E-4,8.684671E-4,-4.1277823E-4,-1.55236E-4,-1.1402969E-3,-6.317997E-4,-3.9607618E-4,-6.332809E-4,-1.5098065E-3,-7.1560394E-4,-5.0437415E-4,-6.2366406E-4],"split_indices":[60,60,45,341,72,316,13,1,347,0,54,1,317,203,395,40,240,129,300,2,66,0,0,0,3,275,312,398,65,0,0,0,0,0,0,0,0,0,0,0,0,0,0,0,0,0,0,0,0,0,0],"split_type":[0,0,0,0,0,0,0,0,0,0,0,0,0,0,0,0,0,0,0,0,0,0,0,0,0,0,0,0,0,0,0,0,0,0,0,0,0,0,0,0,0,0,0,0,0,0,0,0,0,0,0],"sum_hessian":[2.211E3,1.527E3,6.84E2,7.58E2,7.69E2,1.9E1,6.65E2,7.15E2,4.3E1,4E0,7.65E2,5E0,1.4E1,9.9E1,5.66E2,1.59E2,5.56E2,3.2E1,1.1E1,6E0,7.59E2,2E0,3E0,4E0,1E1,6.1E1,3.8E1,3.1E1,5.35E2,1.42E2,1.7E1,5.41E2,1.5E1,2.8E1,4E0,6E0,5E0,3E0,3E0,6.39E2,1.2E2,8E0,2E0,3.4E1,2.7E1,2.2E1,1.6E1,2E0,2.9E1,2.03E2,3.32E2],"tree_param":{"num_deleted":"0","num_feature":"514","num_nodes":"51","size_leaf_vector":"0"}},{"base_weights":[1.5999277E-3,1.599682E-2,-3.0516934E-2,6.845543E-2,1.5675684E-2,-5.1493894E-2,-2.9841173E-2,1.2553214E-2,2.8165604E-3,-2.5056838E-4,3.1435497E-2,-1.017253E-1,-2.7968407E-2,-3.7188627E-2,-2.8492697E-2,1.5834255E-2,-4.0124964E-5,-4.3015898E-4,2.669392E-3,2.2439244E-3,3.089234E-2,-8.952336E-4,-2.5074906E-3,-9.118831E-4,-1.8243108E-2,-4.4594154E-2,-2.4462188E-2,-3.89963E-2,-2.7812457E-2,9.693801E-5,3.638814E-4,-3.8405815E-5,-4.5708902E-7,8.3991E-5,-2.7063366E-5,6.0006906E-4,8.684671E-4,-4.1277823E-4,-1.55236E-4,-1.1402969E-3,-6.317997E-4,-3.9607618E-4,-6.332809E-4,-1.5098065E-3,-7.1560394E-4,-5.0437415E-4,-6.2366406E-4],"categories":[],"categories_nodes":[],"categories_segments":[],"categories_sizes":[],"default_left":[0,0,0,0,0,0,0,0,0,0,0,0,0,0,0,0,0,0,0,0,0,0,0,0,0,0,0,0,0,0,0,0,0,0,0,0,0,0,0,0,0,0,0,0,0,0,0],"id":25,"left_children":[1,3,5,7,9,11,13,15,-1,17,19,21,23,25,27,29,-1,31,33,-1,35,-1,-1,-1,37,39,41,43,45,-1,-1,-1,-1,-1,-1,-1,-1,-1,-1,-1,-1,-1,-1,-1,-1,-1,-1],"loss_changes":[1.0232793E0,2.4668008E-2,8.173525E-3,3.1880826E-2,3.815199E-1,2.0789273E-2,5.539E-3,3.1553808E-4,0E0,3.9811712E-4,2.832383E-2,1.3970286E-3,1.5066769E-3,8.333728E-3,2.9666424E-3,9.970623E-6,0E0,4.1189737E-4,2.4308817E-4,0E0,1.5936553E-2,0E0,0E0,0E0,3.8767233E-5,7.310055E-3,6.8376213E-4,2.4888217E-3,3.3754408E-3,0E0,0E0,0E0,0E0,0E0,0E0,0E0,0E0,0E0,0E0,0E0,0E0,0E0,0E0,0E0,0E0,0E0,0E0],"parents":[2147483647,0,0,1,1,2,2,3,3,4,4,5,5,6,6,7,7,9,9,10,10,11,11,12,12,13,13,14,14,15,15,17,17,18,18,20,20,24,24,25,25,26,26,27,27,28,28],"right_children":[2,4,6,8,10,12,14,16,-1,18,20,22,24,26,28,30,-1,32,34,-1,36,-1,-1,-1,38,40,42,44,46,-1,-1,-1,-1,-1,-1,-1,-1,-1,-1,-1,-1,-1,-1,-1,-1,-1,-1],"split_conditions":[2E0,-1.3437785E-1,-8.492954E-2,1.1257522E-3,1E0,5.338646E-2,-3.7099086E-2,2.1462796E-2,2.8165604E-3,2.058715E0,-2.5021958E0,1.4587408E-2,7.410761E-2,-9.912924E-2,-1.2519989E0,-2.110885E-2,-4.0124964E-5,-2.7259463E-2,2.0530782E0,2.2439244E-3,6.0396083E-2,-8.952336E-4,-2.5074906E-3,-9.118831E-4,2.0851236E-2,1.7565571E-1,-8.522719E-3,-7.806939E-1,3.045878E-2,9.693801E-5,3.638814E-4,-3.8405815E-5,-4.5708902E-7,8.3991E-5,-2.7063366E-5,6.0006906E-4,8.684671E-4,-4.1277823E-4,-1.55236E-4,-1.1402969E-3,-6.317997E-4,-3.9607618E-4,-6.332809E-4,-1.5098065E-3,-7.1560394E-4,-5.0437415E-4,-6.2366406E-4],"split_indices":[60,54,45,2,60,316,13,0,0,345,76,1,316,203,395,1,0,1,347,0,65,0,0,0,3,275,312,399,65,0,0,0,0,0,0,0,0,0,0,0,0,0,0,0,0,0,0],"split_type":[0,0,0,0,0,0,0,0,0,0,0,0,0,0,0,0,0,0,0,0,0,0,0,0,0,0,0,0,0,0,0,0,0,0,0,0,0,0,0,0,0,0,0,0,0,0,0],"sum_hessian":[2.211E3,1.527E3,6.84E2,8E0,1.519E3,1.9E1,6.65E2,5E0,3E0,7.56E2,7.63E2,5E0,1.4E1,9.9E1,5.66E2,4E0,1E0,7.13E2,4.3E1,4E0,7.59E2,2E0,3E0,4E0,1E1,6.1E1,3.8E1,3.1E1,5.35E2,1E0,3E0,1.59E2,5.54E2,3.2E1,1.1E1,6.39E2,1.2E2,8E0,2E0,3.4E1,2.7E1,2.2E1,1.6E1,2E0,2.9E1,2.03E2,3.32E2],"tree_param":{"num_deleted":"0","num_feature":"514","num_nodes":"47","size_leaf_vector":"0"}},{"base_weights":[1.5999277E-3,1.599682E-2,-3.0516934E-2,1.3996704E-2,2.951803E-2,-5.1493894E-2,-2.9841173E-2,-3.334931E-4,2.9282764E-2,6.415569E-4,4.5555424E-2,-1.017253E-1,-2.7968407E-2,-3.7188627E-2,-2.8492697E-2,-5.3162535E-4,2.8944933E-3,2.861439E-2,6.886294E-2,-1.0449229E-3,3.1200768E-3,2.2439244E-3,4.2634767E-2,-8.952336E-4,-2.5074906E-3,-9.118831E-4,-1.8243108E-2,-4.4594154E-2,-2.4462188E-2,-3.89963E-2,-2.7812457E-2,-3.724294E-6,-4.488445E-5,-5.9576658E-5,9.213337E-5,5.347238E-4,6.570147E-4,5.0432887E-4,2.7040355E-3,8.221429E-5,-4.7885867E-5,-2.6427624E-5,1.01090234E-4,8.197109E-4,1.6573705E-3,-4.1277823E-4,-1.55236E-4,-1.1402969E-3,-6.317997E-4,-3.9607618E-4,-6.332809E-4,-1.5098065E-3,-7.1560394E-4,-5.0437415E-4,-6.2366406E-4],"categories":[],"categories_nodes":[],"categories_segments":[],"categories_sizes":[],"default_left":[0,0,0,0,0,0,0,0,0,0,0,0,0,0,0,0,0,0,0,0,0,0,0,0,0,0,0,0,0,0,0,0,0,0,0,0,0,0,0,0,0,0,0,0,0,0,0,0,0,0,0,0,0,0,0],"id":26,"left_children":[1,3,5,7,9,11,13,15,17,19,21,23,25,27,29,31,33,35,37,39,41,-1,43,-1,-1,-1,45,47,49,51,53,-1,-1,-1,-1,-1,-1,-1,-1,-1,-1,-1,-1,-1,-1,-1,-1,-1,-1,-1,-1,-1,-1,-1,-1],"loss_changes":[1.0232793E0,4.0910095E-2,8.173525E-3,2.9200646E-1,9.073906E-2,2.0789273E-2,5.539E-3,4.422013E-4,1.5092492E-2,3.0003837E-4,1.8280327E-2,1.3970286E-3,1.5066769E-3,8.333728E-3,2.9666424E-3,3.7182437E-4,3.643206E-4,4.6690702E-3,2.4066713E-2,2.7812042E-4,2.2661846E-4,0E0,1.1682332E-2,0E0,0E0,0E0,3.8767233E-5,7.310055E-3,6.8376213E-4,2.4888217E-3,3.3754408E-3,0E0,0E0,0E0,0E0,0E0,0E0,0E0,0E0,0E0,0E0,0E0,0E0,0E0,0E0,0E0,0E0,0E0,0E0,0E0,0E0,0E0,0E0,0E0,0E0],"parents":[2147483647,0,0,1,1,2,2,3,3,4,4,5,5,6,6,7,7,8,8,9,9,10,10,11,11,12,12,13,13,14,14,15,15,16,16,17,17,18,18,19,19,20,20,22,22,26,26,27,27,28,28,29,29,30,30],"right_children":[2,4,6,8,10,12,14,16,18,20,22,24,26,28,30,32,34,36,38,40,42,-1,44,-1,-1,-1,46,48,50,52,54,-1,-1,-1,-1,-1,-1,-1,-1,-1,-1,-1,-1,-1,-1,-1,-1,-1,-1,-1,-1,-1,-1,-1,-1],"split_conditions":[2E0,6.0396083E-2,-8.492954E-2,1E0,1E0,5.338646E-2,-3.7099086E-2,4.585973E-2,1.8747604E0,1.181807E-2,-2.5021958E0,1.4587408E-2,7.410761E-2,-9.912924E-2,-1.2519989E0,3.1447876E-2,-1.003797E0,-5.778895E-4,4.4778477E-2,5.998325E-1,4.515546E-3,2.2439244E-3,8.3736435E-2,-8.952336E-4,-2.5074906E-3,-9.118831E-4,2.0851236E-2,1.7565571E-1,-8.522719E-3,-8.492686E-1,3.045878E-2,-3.724294E-6,-4.488445E-5,-5.9576658E-5,9.213337E-5,5.347238E-4,6.570147E-4,5.0432887E-4,2.7040355E-3,8.221429E-5,-4.7885867E-5,-2.6427624E-5,1.01090234E-4,8.197109E-4,1.6573705E-3,-4.1277823E-4,-1.55236E-4,-1.1402969E-3,-6.317997E-4,-3.9607618E-4,-6.332809E-4,-1.5098065E-3,-7.1560394E-4,-5.0437415E-4,-6.2366406E-4],"split_indices":[60,65,45,60,60,316,13,1,222,49,76,1,316,203,391,27,488,24,3,90,417,0,57,0,0,0,3,275,313,398,65,0,0,0,0,0,0,0,0,0,0,0,0,0,0,0,0,0,0,0,0,0,0,0,0],"split_type":[0,0,0,0,0,0,0,0,0,0,0,0,0,0,0,0,0,0,0,0,0,0,0,0,0,0,0,0,0,0,0,0,0,0,0,0,0,0,0,0,0,0,0,0,0,0,0,0,0,0,0,0,0,0,0],"sum_hessian":[2.211E3,1.527E3,6.84E2,1.332E3,1.95E2,1.9E1,6.65E2,6.88E2,6.44E2,7E1,1.25E2,5E0,1.4E1,9.9E1,5.66E2,6.49E2,3.9E1,6.35E2,9E0,4.2E1,2.8E1,4E0,1.21E2,2E0,3E0,4E0,1E1,6.1E1,3.8E1,3.1E1,5.35E2,5.34E2,1.15E2,8E0,3.1E1,3.21E2,3.14E2,6E0,3E0,8E0,3.4E1,8E0,2E1,1.13E2,8E0,8E0,2E0,3.4E1,2.7E1,2.2E1,1.6E1,2E0,2.9E1,2.03E2,3.32E2],"tree_param":{"num_deleted":"0","num_feature":"514","num_nodes":"55","size_leaf_vector":"0"}},{"base_weights":[1.5999277E-3,1.599682E-2,-3.0516934E-2,-2.4272228E-4,3.198359E-2,-5.1493894E-2,-2.9841173E-2,-4.2134002E-4,2.669392E-3,2.2439244E-3,3.1447552E-2,-1.017253E-1,-2.7968407E-2,-3.7188627E-2,-2.8492697E-2,-1.8434791E-3,-1.2069655E-5,4.031568E-3,-1.2990416E-3,8.7234974E-2,3.089234E-2,-8.952336E-4,-2.5074906E-3,-9.118831E-4,-1.8243108E-2,-4.4594154E-2,-2.4462188E-2,-3.89963E-2,-2.7812457E-2,-4.8685117E-5,4.5391163E-5,-3.3357753E-6,1.0424575E-4,1.0140719E-4,-3.382108E-5,-7.437246E-5,3.2641132E-5,3.638814E-4,2.8165604E-3,6.0006906E-4,8.684671E-4,-4.1277823E-4,-1.55236E-4,-1.1402969E-3,-6.317997E-4,-3.9607618E-4,-6.332809E-4,-1.5098065E-3,-7.1560394E-4,-5.0437415E-4,-6.2366406E-4],"categories":[],"categories_nodes":[],"categories_segments":[],"categories_sizes":[],"default_left":[0,0,0,0,0,0,0,0,0,0,0,0,0,0,0,0,0,0,0,0,0,0,0,0,0,0,0,0,0,0,0,0,0,0,0,0,0,0,0,0,0,0,0,0,0,0,0,0,0,0,0],"id":27,"left_children":[1,3,5,7,9,11,13,15,17,-1,19,21,23,25,27,29,31,33,35,37,39,-1,-1,-1,41,43,45,47,49,-1,-1,-1,-1,-1,-1,-1,-1,-1,-1,-1,-1,-1,-1,-1,-1,-1,-1,-1,-1,-1,-1],"loss_changes":[1.0232793E0,3.9670387E-1,8.173525E-3,3.9592257E-4,2.786833E-2,2.0789273E-2,5.539E-3,4.1671796E-4,2.4308817E-4,0E0,2.1031022E-2,1.3970286E-3,1.5066769E-3,8.333728E-3,2.9666424E-3,3.226286E-4,4.1442196E-4,1.6390736E-4,8.368678E-5,2.1061335E-2,1.5936553E-2,0E0,0E0,0E0,3.8767233E-5,7.310055E-3,6.8376213E-4,2.4888217E-3,3.3754408E-3,0E0,0E0,0E0,0E0,0E0,0E0,0E0,0E0,0E0,0E0,0E0,0E0,0E0,0E0,0E0,0E0,0E0,0E0,0E0,0E0,0E0,0E0],"parents":[2147483647,0,0,1,1,2,2,3,3,4,4,5,5,6,6,7,7,8,8,10,10,11,11,12,12,13,13,14,14,15,15,16,16,17,17,18,18,19,19,20,20,24,24,25,25,26,26,27,27,28,28],"right_children":[2,4,6,8,10,12,14,16,18,-1,20,22,24,26,28,30,32,34,36,38,40,-1,-1,-1,42,44,46,48,50,-1,-1,-1,-1,-1,-1,-1,-1,-1,-1,-1,-1,-1,-1,-1,-1,-1,-1,-1,-1,-1,-1],"split_conditions":[2E0,1E0,-8.492954E-2,2.058715E0,-2.5021958E0,5.338646E-2,-3.7099086E-2,-2.7259463E-2,2.0530782E0,2.2439244E-3,-1.3437785E-1,1.4587408E-2,7.410761E-2,-9.912924E-2,-1.2519989E0,3.2129973E-2,2.7660935E0,1.1809242E0,-5.359429E-1,-1.7549554E-2,6.0396083E-2,-8.952336E-4,-2.5074906E-3,-9.118831E-4,2.0851236E-2,1.7565571E-1,-8.522719E-3,-8.492686E-1,3.045878E-2,-4.8685117E-5,4.5391163E-5,-3.3357753E-6,1.0424575E-4,1.0140719E-4,-3.382108E-5,-7.437246E-5,3.2641132E-5,3.638814E-4,2.8165604E-3,6.0006906E-4,8.684671E-4,-4.1277823E-4,-1.55236E-4,-1.1402969E-3,-6.317997E-4,-3.9607618E-4,-6.332809E-4,-1.5098065E-3,-7.1560394E-4,-5.0437415E-4,-6.2366406E-4],"split_indices":[60,60,45,341,72,316,13,1,347,0,54,1,316,203,391,40,240,129,296,2,65,0,0,0,3,275,313,398,65,0,0,0,0,0,0,0,0,0,0,0,0,0,0,0,0,0,0,0,0,0,0],"split_type":[0,0,0,0,0,0,0,0,0,0,0,0,0,0,0,0,0,0,0,0,0,0,0,0,0,0,0,0,0,0,0,0,0,0,0,0,0,0,0,0,0,0,0,0,0,0,0,0,0,0,0],"sum_hessian":[2.211E3,1.527E3,6.84E2,7.58E2,7.69E2,1.9E1,6.65E2,7.15E2,4.3E1,4E0,7.65E2,5E0,1.4E1,9.9E1,5.66E2,1.59E2,5.56E2,3.2E1,1.1E1,6E0,7.59E2,2E0,3E0,4E0,1E1,6.1E1,3.8E1,3.1E1,5.35E2,1.42E2,1.7E1,5.41E2,1.5E1,2.8E1,4E0,6E0,5E0,3E0,3E0,6.39E2,1.2E2,8E0,2E0,3.4E1,2.7E1,2.2E1,1.6E1,2E0,2.9E1,2.03E2,3.32E2],"tree_param":{"num_deleted":"0","num_feature":"514","num_nodes":"51","size_leaf_vector":"0"}},{"base_weights":[1.5999277E-3,1.599682E-2,-3.0516934E-2,1.3996704E-2,2.951803E-2,-5.1493894E-2,-2.9841173E-2,-3.334931E-4,2.9282764E-2,6.415569E-4,4.5555424E-2,-1.017253E-1,-2.7968407E-2,-3.7188627E-2,-2.8492697E-2,-5.3162535E-4,2.8944933E-3,2.8823555E-2,2.4572015E-3,-8.1129046E-4,4.1393503E-3,2.2439244E-3,4.2634767E-2,-2.5074906E-3,-8.952336E-4,-9.118831E-4,-1.8243108E-2,-4.4594154E-2,-2.4462188E-2,-3.4479037E-2,-2.7409483E-2,-3.724294E-6,-4.488445E-5,-5.9576658E-5,9.213337E-5,5.7474966E-4,7.522692E-4,-3.9596776E-5,9.3407245E-5,-9.85895E-5,1.10880756E-4,8.197109E-4,1.6573705E-3,-1.55236E-4,-4.1277823E-4,-1.1402969E-3,-6.317997E-4,-3.9607618E-4,-6.332809E-4,-5.9632875E-4,-9.774643E-4,-7.952049E-4,-5.534398E-4],"categories":[],"categories_nodes":[],"categories_segments":[],"categories_sizes":[],"default_left":[0,0,0,0,0,0,0,0,0,0,0,0,0,0,0,0,0,0,0,0,0,0,0,0,0,0,0,0,0,0,0,0,0,0,0,0,0,0,0,0,0,0,0,0,0,0,0,0,0,0,0,0,0],"id":28,"left_children":[1,3,5,7,9,11,13,15,17,19,21,23,25,27,29,31,33,35,-1,37,39,-1,41,-1,-1,-1,43,45,47,49,51,-1,-1,-1,-1,-1,-1,-1,-1,-1,-1,-1,-1,-1,-1,-1,-1,-1,-1,-1,-1,-1,-1],"loss_changes":[1.0232793E0,4.0910095E-2,8.173525E-3,2.9200646E-1,9.073906E-2,2.0789273E-2,5.539E-3,4.422013E-4,2.2861421E-2,3.641632E-4,1.8280327E-2,1.3970286E-3,1.5066769E-3,8.333728E-3,2.7316809E-3,3.7182437E-4,3.643206E-4,4.791856E-3,0E0,3.0268743E-4,2.4557105E-4,0E0,1.1682332E-2,0E0,0E0,0E0,3.8767233E-5,7.310055E-3,6.8376213E-4,4.7023296E-3,3.3925772E-3,0E0,0E0,0E0,0E0,0E0,0E0,0E0,0E0,0E0,0E0,0E0,0E0,0E0,0E0,0E0,0E0,0E0,0E0,0E0,0E0,0E0,0E0],"parents":[2147483647,0,0,1,1,2,2,3,3,4,4,5,5,6,6,7,7,8,8,9,9,10,10,11,11,12,12,13,13,14,14,15,15,16,16,17,17,19,19,20,20,22,22,26,26,27,27,28,28,29,29,30,30],"right_children":[2,4,6,8,10,12,14,16,18,20,22,24,26,28,30,32,34,36,-1,38,40,-1,42,-1,-1,-1,44,46,48,50,52,-1,-1,-1,-1,-1,-1,-1,-1,-1,-1,-1,-1,-1,-1,-1,-1,-1,-1,-1,-1,-1,-1],"split_conditions":[2E0,6.0396083E-2,-8.492954E-2,1E0,1E0,5.338646E-2,-3.7099086E-2,4.585973E-2,1.298967E-1,2.9332336E-2,-2.5021958E0,-2.1625113E-2,7.410761E-2,-9.912924E-2,-1.0822536E0,3.1447876E-2,-1.003797E0,3.523469E-2,2.4572015E-3,7.459411E-1,-1.9796643E-1,2.2439244E-3,8.3736435E-2,-2.5074906E-3,-8.952336E-4,-9.118831E-4,-2.4413012E-2,1.7565571E-1,-8.522719E-3,1.2341592E-3,-4.1492794E-2,-3.724294E-6,-4.488445E-5,-5.9576658E-5,9.213337E-5,5.7474966E-4,7.522692E-4,-3.9596776E-5,9.3407245E-5,-9.85895E-5,1.10880756E-4,8.197109E-4,1.6573705E-3,-1.55236E-4,-4.1277823E-4,-1.1402969E-3,-6.317997E-4,-3.9607618E-4,-6.332809E-4,-5.9632875E-4,-9.774643E-4,-7.952049E-4,-5.534398E-4],"split_indices":[60,65,45,60,60,316,13,1,3,15,76,2,316,207,389,27,488,45,0,296,91,0,57,0,0,0,6,275,312,269,20,0,0,0,0,0,0,0,0,0,0,0,0,0,0,0,0,0,0,0,0,0,0],"split_type":[0,0,0,0,0,0,0,0,0,0,0,0,0,0,0,0,0,0,0,0,0,0,0,0,0,0,0,0,0,0,0,0,0,0,0,0,0,0,0,0,0,0,0,0,0,0,0,0,0,0,0,0,0],"sum_hessian":[2.211E3,1.527E3,6.84E2,1.332E3,1.95E2,1.9E1,6.65E2,6.88E2,6.44E2,7E1,1.25E2,5E0,1.4E1,9.9E1,5.66E2,6.49E2,3.9E1,6.42E2,2E0,5E1,2E1,4E0,1.21E2,3E0,2E0,4E0,1E1,6.1E1,3.8E1,8.2E1,4.84E2,5.34E2,1.15E2,8E0,3.1E1,5.53E2,8.9E1,4.2E1,8E0,2E0,1.8E1,1.13E2,8E0,2E0,8E0,3.4E1,2.7E1,2.2E1,1.6E1,5.8E1,2.4E1,3.2E1,4.52E2],"tree_param":{"num_deleted":"0","num_feature":"514","num_nodes":"53","size_leaf_vector":"0"}},{"base_weights":[1.5999277E-3,1.599682E-2,-3.0516934E-2,-2.4272228E-4,3.198359E-2,-5.1493894E-2,-2.9841173E-2,-4.2134002E-4,2.669392E-3,2.2439244E-3,3.1447552E-2,-1.017253E-1,-2.7968407E-2,-3.7188627E-2,-2.8492697E-2,-1.8434791E-3,-1.2069655E-5,4.031568E-3,-1.2990416E-3,8.7234974E-2,3.089234E-2,-2.5074906E-3,-8.952336E-4,-9.118831E-4,-1.8243108E-2,-3.50119E-2,-1.6807737E-3,-3.89963E-2,-2.7812457E-2,-4.8685117E-5,4.5391163E-5,-3.3357753E-6,1.0424575E-4,1.0140719E-4,-3.382108E-5,-7.437246E-5,3.2641132E-5,3.638814E-4,2.8165604E-3,6.0006906E-4,8.684671E-4,-4.1277823E-4,-1.55236E-4,-1.3537154E-3,-6.580874E-4,-1.5098065E-3,-7.1560394E-4,-5.0437415E-4,-6.2366406E-4],"categories":[],"categories_nodes":[],"categories_segments":[],"categories_sizes":[],"default_left":[0,0,0,0,0,0,0,0,0,0,0,0,0,0,0,0,0,0,0,0,0,0,0,0,0,0,0,0,0,0,0,0,0,0,0,0,0,0,0,0,0,0,0,0,0,0,0,0,0],"id":29,"left_children":[1,3,5,7,9,11,13,15,17,-1,19,21,23,25,27,29,31,33,35,37,39,-1,-1,-1,41,43,-1,45,47,-1,-1,-1,-1,-1,-1,-1,-1,-1,-1,-1,-1,-1,-1,-1,-1,-1,-1,-1,-1],"loss_changes":[1.0232793E0,3.9670387E-1,8.173525E-3,3.9592257E-4,2.786833E-2,2.0789273E-2,5.539E-3,4.1671796E-4,2.4308817E-4,0E0,2.1031022E-2,1.3970286E-3,1.5066769E-3,6.6415966E-3,2.9666424E-3,3.226286E-4,4.1442196E-4,1.6390736E-4,8.368678E-5,2.1061335E-2,1.5936553E-2,0E0,0E0,0E0,3.8767233E-5,7.899292E-3,0E0,2.4888217E-3,3.3754408E-3,0E0,0E0,0E0,0E0,0E0,0E0,0E0,0E0,0E0,0E0,0E0,0E0,0E0,0E0,0E0,0E0,0E0,0E0,0E0,0E0],"parents":[2147483647,0,0,1,1,2,2,3,3,4,4,5,5,6,6,7,7,8,8,10,10,11,11,12,12,13,13,14,14,15,15,16,16,17,17,18,18,19,19,20,20,24,24,25,25,27,27,28,28],"right_children":[2,4,6,8,10,12,14,16,18,-1,20,22,24,26,28,30,32,34,36,38,40,-1,-1,-1,42,44,-1,46,48,-1,-1,-1,-1,-1,-1,-1,-1,-1,-1,-1,-1,-1,-1,-1,-1,-1,-1,-1,-1],"split_conditions":[2E0,1E0,-8.492954E-2,2.058715E0,-2.5021958E0,5.338646E-2,-3.7099086E-2,-2.7259463E-2,2.0530782E0,2.2439244E-3,-1.3437785E-1,-2.1625113E-2,7.410761E-2,1.7042658E0,-1.2519989E0,3.2129973E-2,2.7660935E0,1.1809242E0,-5.359429E-1,-1.7549554E-2,6.0396083E-2,-2.5074906E-3,-8.952336E-4,-9.118831E-4,2.0851236E-2,-3.3369943E-2,-1.6807737E-3,-8.492686E-1,3.045878E-2,-4.8685117E-5,4.5391163E-5,-3.3357753E-6,1.0424575E-4,1.0140719E-4,-3.382108E-5,-7.437246E-5,3.2641132E-5,3.638814E-4,2.8165604E-3,6.0006906E-4,8.684671E-4,-4.1277823E-4,-1.55236E-4,-1.3537154E-3,-6.580874E-4,-1.5098065E-3,-7.1560394E-4,-5.0437415E-4,-6.2366406E-4],"split_indices":[60,60,45,345,72,316,13,1,347,0,54,2,316,149,395,40,240,133,296,2,65,0,0,0,3,63,0,398,65,0,0,0,0,0,0,0,0,0,0,0,0,0,0,0,0,0,0,0,0],"split_type":[0,0,0,0,0,0,0,0,0,0,0,0,0,0,0,0,0,0,0,0,0,0,0,0,0,0,0,0,0,0,0,0,0,0,0,0,0,0,0,0,0,0,0,0,0,0,0,0,0],"sum_hessian":[2.211E3,1.527E3,6.84E2,7.58E2,7.69E2,1.9E1,6.65E2,7.15E2,4.3E1,4E0,7.65E2,5E0,1.4E1,9.9E1,5.66E2,1.59E2,5.56E2,3.2E1,1.1E1,6E0,7.59E2,3E0,2E0,4E0,1E1,9.6E1,3E0,3.1E1,5.35E2,1.42E2,1.7E1,5.41E2,1.5E1,2.8E1,4E0,6E0,5E0,3E0,3E0,6.39E2,1.2E2,8E0,2E0,8E0,8.8E1,2E0,2.9E1,2.03E2,3.32E2],"tree_param":{"num_deleted":"0","num_feature":"514","num_nodes":"49","size_leaf_vector":"0"}},{"base_weights":[1.5999277E-3,1.599682E-2,-3.0516934E-2,-2.4272228E-4,3.198359E-2,-5.247959E-2,-2.9913224E-2,-4.2134002E-4,2.669392E-3,2.2439244E-3,3.1447552E-2,-1.8812529E-3,-2.9196016E-2,-6.339964E-2,-2.9514553E-2,-1.8434791E-3,-1.2069655E-5,4.031568E-3,-1.2990416E-3,8.7234974E-2,3.089234E-2,-8.0846064E-4,-2.7329667E-4,-4.549039E-4,-1.8565413E-3,-3.7155144E-2,-2.8311355E-2,-4.8685117E-5,4.5391163E-5,-3.3357753E-6,1.0424575E-4,1.0140719E-4,-3.382108E-5,-7.437246E-5,3.2641132E-5,3.638814E-4,2.8165604E-3,6.0006906E-4,8.684671E-4,-1.1454443E-3,-6.4611E-4,-1.2190801E-3,-5.832996E-4],"categories":[],"categories_nodes":[],"categories_segments":[],"categories_sizes":[],"default_left":[0,0,0,0,0,0,0,0,0,0,0,0,0,0,0,0,0,0,0,0,0,0,0,0,0,0,0,0,0,0,0,0,0,0,0,0,0,0,0,0,0,0,0],"id":30,"left_children":[1,3,5,7,9,11,13,15,17,-1,19,-1,21,23,25,27,29,31,33,35,37,-1,-1,-1,-1,39,41,-1,-1,-1,-1,-1,-1,-1,-1,-1,-1,-1,-1,-1,-1,-1,-1],"loss_changes":[1.0232793E0,3.9670387E-1,7.512629E-3,3.9592257E-4,2.786833E-2,1.2333751E-2,7.0599318E-3,4.1671796E-4,2.4308817E-4,0E0,2.1031022E-2,0E0,1.3450403E-3,5.535744E-3,5.043149E-3,3.226286E-4,4.1442196E-4,1.6390736E-4,8.368678E-5,2.1061335E-2,1.5936553E-2,0E0,0E0,0E0,0E0,7.820144E-3,3.8161278E-3,0E0,0E0,0E0,0E0,0E0,0E0,0E0,0E0,0E0,0E0,0E0,0E0,0E0,0E0,0E0,0E0],"parents":[2147483647,0,0,1,1,2,2,3,3,4,4,5,5,6,6,7,7,8,8,10,10,12,12,13,13,14,14,15,15,16,16,17,17,18,18,19,19,20,20,25,25,26,26],"right_children":[2,4,6,8,10,12,14,16,18,-1,20,-1,22,24,26,28,30,32,34,36,38,-1,-1,-1,-1,40,42,-1,-1,-1,-1,-1,-1,-1,-1,-1,-1,-1,-1,-1,-1,-1,-1],"split_conditions":[2E0,1E0,-2.2125034E0,2.058715E0,-2.5021958E0,-1.3050132E-2,-1.7502073E0,-2.7259463E-2,2.0530782E0,2.2439244E-3,-1.3437785E-1,-1.8812529E-3,-1.6940141E-2,-9.413464E-3,-2.7351728E-2,3.2129973E-2,2.7660935E0,1.1809242E0,-5.359429E-1,-1.7549554E-2,6.0396083E-2,-8.0846064E-4,-2.7329667E-4,-4.549039E-4,-1.8565413E-3,-2.0423193E-2,-2.1931748E0,-4.8685117E-5,4.5391163E-5,-3.3357753E-6,1.0424575E-4,1.0140719E-4,-3.382108E-5,-7.437246E-5,3.2641132E-5,3.638814E-4,2.8165604E-3,6.0006906E-4,8.684671E-4,-1.1454443E-3,-6.4611E-4,-1.2190801E-3,-5.832996E-4],"split_indices":[60,60,456,341,72,67,238,1,347,0,54,0,5,0,12,40,240,129,300,2,65,0,0,0,0,22,474,0,0,0,0,0,0,0,0,0,0,0,0,0,0,0,0],"split_type":[0,0,0,0,0,0,0,0,0,0,0,0,0,0,0,0,0,0,0,0,0,0,0,0,0,0,0,0,0,0,0,0,0,0,0,0,0,0,0,0,0,0,0],"sum_hessian":[2.211E3,1.527E3,6.84E2,7.58E2,7.69E2,1.6E1,6.68E2,7.15E2,4.3E1,4E0,7.65E2,5E0,1.1E1,6E0,6.62E2,1.59E2,5.56E2,3.2E1,1.1E1,6E0,7.59E2,6E0,5E0,3E0,3E0,8.6E1,5.76E2,1.42E2,1.7E1,5.41E2,1.5E1,2.8E1,4E0,6E0,5E0,3E0,3E0,6.39E2,1.2E2,2E1,6.6E1,4E0,5.72E2],"tree_param":{"num_deleted":"0","num_feature":"514","num_nodes":"43","size_leaf_vector":"0"}},{"base_weights":[1.5999277E-3,1.599682E-2,-3.0516934E-2,-2.4272228E-4,3.198359E-2,-5.1493894E-2,-2.9841173E-2,-4.2134002E-4,2.669392E-3,2.2439244E-3,3.1447552E-2,-1.017253E-1,-2.7968407E-2,-3.7188627E-2,-2.8492697E-2,-1.8434791E-3,-1.2069655E-5,4.031568E-3,-1.2990416E-3,8.7234974E-2,3.089234E-2,-8.952336E-4,-2.5074906E-3,-9.118831E-4,-1.8243108E-2,-4.4594154E-2,-2.4462188E-2,-3.89963E-2,-2.7812457E-2,-4.8685117E-5,4.5391163E-5,-3.3357753E-6,1.0424575E-4,1.0140719E-4,-3.382108E-5,-7.437246E-5,3.2641132E-5,3.638814E-4,2.8165604E-3,6.0006906E-4,8.684671E-4,-4.1277823E-4,-1.55236E-4,-1.1402969E-3,-6.317997E-4,-3.9607618E-4,-6.332809E-4,-1.5098065E-3,-7.1560394E-4,-5.0437415E-4,-6.2366406E-4],"categories":[],"categories_nodes":[],"categories_segments":[],"categories_sizes":[],"default_left":[0,0,0,0,0,0,0,0,0,0,0,0,0,0,0,0,0,0,0,0,0,0,0,0,0,0,0,0,0,0,0,0,0,0,0,0,0,0,0,0,0,0,0,0,0,0,0,0,0,0,0],"id":31,"left_children":[1,3,5,7,9,11,13,15,17,-1,19,21,23,25,27,29,31,33,35,37,39,-1,-1,-1,41,43,45,47,49,-1,-1,-1,-1,-1,-1,-1,-1,-1,-1,-1,-1,-1,-1,-1,-1,-1,-1,-1,-1,-1,-1],"loss_changes":[1.0232793E0,3.9670387E-1,8.173525E-3,3.9592257E-4,2.786833E-2,2.0789273E-2,5.539E-3,4.1671796E-4,2.4308817E-4,0E0,2.1031022E-2,1.3970286E-3,1.5066769E-3,8.333728E-3,2.9666424E-3,3.226286E-4,4.1442196E-4,1.6390736E-4,8.368678E-5,2.1061335E-2,1.5936553E-2,0E0,0E0,0E0,3.8767233E-5,7.310055E-3,6.8376213E-4,2.4888217E-3,3.3754408E-3,0E0,0E0,0E0,0E0,0E0,0E0,0E0,0E0,0E0,0E0,0E0,0E0,0E0,0E0,0E0,0E0,0E0,0E0,0E0,0E0,0E0,0E0],"parents":[2147483647,0,0,1,1,2,2,3,3,4,4,5,5,6,6,7,7,8,8,10,10,11,11,12,12,13,13,14,14,15,15,16,16,17,17,18,18,19,19,20,20,24,24,25,25,26,26,27,27,28,28],"right_children":[2,4,6,8,10,12,14,16,18,-1,20,22,24,26,28,30,32,34,36,38,40,-1,-1,-1,42,44,46,48,50,-1,-1,-1,-1,-1,-1,-1,-1,-1,-1,-1,-1,-1,-1,-1,-1,-1,-1,-1,-1,-1,-1],"split_conditions":[2E0,1E0,-8.492954E-2,2.058715E0,-2.5021958E0,5.338646E-2,-3.7099086E-2,-2.7259463E-2,2.0530782E0,2.2439244E-3,-1.3437785E-1,1.4587408E-2,7.410761E-2,-9.912924E-2,-1.2519989E0,3.2129973E-2,2.7660935E0,1.1809242E0,-5.359429E-1,-1.7549554E-2,6.0396083E-2,-8.952336E-4,-2.5074906E-3,-9.118831E-4,2.4422945E-2,1.7565571E-1,-8.522719E-3,-7.806939E-1,3.045878E-2,-4.8685117E-5,4.5391163E-5,-3.3357753E-6,1.0424575E-4,1.0140719E-4,-3.382108E-5,-7.437246E-5,3.2641132E-5,3.638814E-4,2.8165604E-3,6.0006906E-4,8.684671E-4,-4.1277823E-4,-1.55236E-4,-1.1402969E-3,-6.317997E-4,-3.9607618E-4,-6.332809E-4,-1.5098065E-3,-7.1560394E-4,-5.0437415E-4,-6.2366406E-4],"split_indices":[60,60,45,341,76,316,13,1,347,0,54,1,316,203,391,40,240,133,300,2,65,0,0,0,21,279,313,399,66,0,0,0,0,0,0,0,0,0,0,0,0,0,0,0,0,0,0,0,0,0,0],"split_type":[0,0,0,0,0,0,0,0,0,0,0,0,0,0,0,0,0,0,0,0,0,0,0,0,0,0,0,0,0,0,0,0,0,0,0,0,0,0,0,0,0,0,0,0,0,0,0,0,0,0,0],"sum_hessian":[2.211E3,1.527E3,6.84E2,7.58E2,7.69E2,1.9E1,6.65E2,7.15E2,4.3E1,4E0,7.65E2,5E0,1.4E1,9.9E1,5.66E2,1.59E2,5.56E2,3.2E1,1.1E1,6E0,7.59E2,2E0,3E0,4E0,1E1,6.1E1,3.8E1,3.1E1,5.35E2,1.42E2,1.7E1,5.41E2,1.5E1,2.8E1,4E0,6E0,5E0,3E0,3E0,6.39E2,1.2E2,8E0,2E0,3.4E1,2.7E1,2.2E1,1.6E1,2E0,2.9E1,2.03E2,3.32E2],"tree_param":{"num_deleted":"0","num_feature":"514","num_nodes":"51","size_leaf_vector":"0"}},{"base_weights":[1.5999277E-3,1.599682E-2,-3.0516934E-2,1.3996704E-2,2.951803E-2,-5.247959E-2,-2.9913224E-2,-3.334931E-4,2.9282764E-2,6.415569E-4,4.5555424E-2,-1.8812529E-3,-2.9196016E-2,-6.339964E-2,-2.9514553E-2,-5.3162535E-4,2.8944933E-3,2.8823555E-2,2.4572015E-3,-8.1129046E-4,4.1393503E-3,2.2439244E-3,4.2634767E-2,-2.7329667E-4,-8.0846064E-4,-4.549039E-4,-1.8565413E-3,-3.7155144E-2,-2.8311355E-2,-3.724294E-6,-4.488445E-5,-5.9576658E-5,9.213337E-5,5.7474966E-4,7.522692E-4,-3.9596776E-5,9.3407245E-5,-9.85895E-5,1.10880756E-4,8.197109E-4,1.6573705E-3,-1.1454443E-3,-6.4611E-4,-1.2190801E-3,-5.832996E-4],"categories":[],"categories_nodes":[],"categories_segments":[],"categories_sizes":[],"default_left":[0,0,0,0,0,0,0,0,0,0,0,0,0,0,0,0,0,0,0,0,0,0,0,0,0,0,0,0,0,0,0,0,0,0,0,0,0,0,0,0,0,0,0,0,0],"id":32,"left_children":[1,3,5,7,9,11,13,15,17,19,21,-1,23,25,27,29,31,33,-1,35,37,-1,39,-1,-1,-1,-1,41,43,-1,-1,-1,-1,-1,-1,-1,-1,-1,-1,-1,-1,-1,-1,-1,-1],"loss_changes":[1.0232793E0,4.0910095E-2,7.512629E-3,2.9200646E-1,9.073906E-2,1.2333751E-2,7.0599318E-3,4.422013E-4,2.2861421E-2,3.641632E-4,1.8280327E-2,0E0,1.3450403E-3,5.535744E-3,5.043149E-3,3.7182437E-4,3.643206E-4,4.791856E-3,0E0,3.0268743E-4,2.4557105E-4,0E0,1.1682332E-2,0E0,0E0,0E0,0E0,7.820144E-3,3.8161278E-3,0E0,0E0,0E0,0E0,0E0,0E0,0E0,0E0,0E0,0E0,0E0,0E0,0E0,0E0,0E0,0E0],"parents":[2147483647,0,0,1,1,2,2,3,3,4,4,5,5,6,6,7,7,8,8,9,9,10,10,12,12,13,13,14,14,15,15,16,16,17,17,19,19,20,20,22,22,27,27,28,28],"right_children":[2,4,6,8,10,12,14,16,18,20,22,-1,24,26,28,30,32,34,-1,36,38,-1,40,-1,-1,-1,-1,42,44,-1,-1,-1,-1,-1,-1,-1,-1,-1,-1,-1,-1,-1,-1,-1,-1],"split_conditions":[2E0,6.0396083E-2,-2.2125034E0,1E0,1E0,-1.3050132E-2,-1.7502073E0,4.585973E-2,1.298967E-1,2.9332336E-2,-2.5021958E0,-1.8812529E-3,3.1449825E-2,-9.413464E-3,-2.7351728E-2,3.1447876E-2,-1.003797E0,3.523469E-2,2.4572015E-3,7.459411E-1,-8.7433025E-2,2.2439244E-3,8.3736435E-2,-2.7329667E-4,-8.0846064E-4,-4.549039E-4,-1.8565413E-3,-2.0423193E-2,-2.1931748E0,-3.724294E-6,-4.488445E-5,-5.9576658E-5,9.213337E-5,5.7474966E-4,7.522692E-4,-3.9596776E-5,9.3407245E-5,-9.85895E-5,1.10880756E-4,8.197109E-4,1.6573705E-3,-1.1454443E-3,-6.4611E-4,-1.2190801E-3,-5.832996E-4],"split_indices":[60,65,456,60,60,67,238,1,3,15,76,0,367,0,12,27,484,45,0,296,8,0,57,0,0,0,0,22,474,0,0,0,0,0,0,0,0,0,0,0,0,0,0,0,0],"split_type":[0,0,0,0,0,0,0,0,0,0,0,0,0,0,0,0,0,0,0,0,0,0,0,0,0,0,0,0,0,0,0,0,0,0,0,0,0,0,0,0,0,0,0,0,0],"sum_hessian":[2.211E3,1.527E3,6.84E2,1.332E3,1.95E2,1.6E1,6.68E2,6.88E2,6.44E2,7E1,1.25E2,5E0,1.1E1,6E0,6.62E2,6.49E2,3.9E1,6.42E2,2E0,5E1,2E1,4E0,1.21E2,5E0,6E0,3E0,3E0,8.6E1,5.76E2,5.34E2,1.15E2,8E0,3.1E1,5.53E2,8.9E1,4.2E1,8E0,2E0,1.8E1,1.13E2,8E0,2E1,6.6E1,4E0,5.72E2],"tree_param":{"num_deleted":"0","num_feature":"514","num_nodes":"45","size_leaf_vector":"0"}},{"base_weights":[1.5999277E-3,1.599682E-2,-3.0516934E-2,-2.4272228E-4,3.198359E-2,-5.247959E-2,-2.9913224E-2,-4.2134002E-4,2.669392E-3,2.2439244E-3,3.1447552E-2,-1.8812529E-3,-2.9196016E-2,-6.339964E-2,-2.9514553E-2,-1.8434791E-3,-1.2069655E-5,4.031568E-3,-1.2990416E-3,3.054099E-2,6.0717583E-2,-2.7329667E-4,-8.0846064E-4,-4.549039E-4,-1.8565413E-3,-3.7155144E-2,-2.8311355E-2,-4.8685117E-5,4.5391163E-5,-3.3357753E-6,1.0424575E-4,1.0140719E-4,-3.382108E-5,-7.437246E-5,3.2641132E-5,5.947128E-4,8.610801E-4,1.8882601E-3,5.881692E-4,-6.5380445E-4,-1.1700627E-3,-1.2190801E-3,-5.832996E-4],"categories":[],"categories_nodes":[],"categories_segments":[],"categories_sizes":[],"default_left":[0,0,0,0,0,0,0,0,0,0,0,0,0,0,0,0,0,0,0,0,0,0,0,0,0,0,0,0,0,0,0,0,0,0,0,0,0,0,0,0,0,0,0],"id":33,"left_children":[1,3,5,7,9,11,13,15,17,-1,19,-1,21,23,25,27,29,31,33,35,37,-1,-1,-1,-1,39,41,-1,-1,-1,-1,-1,-1,-1,-1,-1,-1,-1,-1,-1,-1,-1,-1],"loss_changes":[1.0232793E0,3.9670387E-1,7.512629E-3,3.9592257E-4,2.786833E-2,1.2333751E-2,7.0599318E-3,4.1671796E-4,2.4308817E-4,0E0,1.847148E-2,0E0,1.3450403E-3,5.535744E-3,5.043149E-3,3.226286E-4,4.1442196E-4,1.6390736E-4,8.368678E-5,1.4856458E-2,1.8823586E-2,0E0,0E0,0E0,0E0,7.783398E-3,3.8161278E-3,0E0,0E0,0E0,0E0,0E0,0E0,0E0,0E0,0E0,0E0,0E0,0E0,0E0,0E0,0E0,0E0],"parents":[2147483647,0,0,1,1,2,2,3,3,4,4,5,5,6,6,7,7,8,8,10,10,12,12,13,13,14,14,15,15,16,16,17,17,18,18,19,19,20,20,25,25,26,26],"right_children":[2,4,6,8,10,12,14,16,18,-1,20,-1,22,24,26,28,30,32,34,36,38,-1,-1,-1,-1,40,42,-1,-1,-1,-1,-1,-1,-1,-1,-1,-1,-1,-1,-1,-1,-1,-1],"split_conditions":[2E0,1E0,-2.2125034E0,